function [Y,Xf,Af] = DigitRecognition_NuralNetworkFunction(X,~,~)
%MYNEURALNETWORKFUNCTION neural network simulation function.
%
% Generated by Neural Network Toolbox function genFunction, 28-Dec-2017 15:10:49.
%
% [Y] = myNeuralNetworkFunction(X,~,~) takes these arguments:
%
%   X = 1xTS cell, 1 inputs over TS timesteps
%   Each X{1,ts} = 66xQ matrix, input #1 at timestep ts.
%
% and returns:
%   Y = 1xTS cell of 1 outputs over TS timesteps.
%   Each Y{1,ts} = 10xQ matrix, output #1 at timestep ts.
%
% where Q is number of samples (or series) and TS is the number of timesteps.

%#ok<*RPMT0>

% ===== NEURAL NETWORK CONSTANTS =====

% Input 1
x1_step1.xoffset = [0.376470588235294;0.376470588235294;0.415686274509804;0.384313725490196;0.450980392156863;0.380392156862745;0.403921568627451;0.388235294117647;0.4;0.396078431372549;0.384313725490196;0.352941176470588;0.376470588235294;0.392156862745098;0.443137254901961;0.380392156862745;0.415686274509804;0.423529411764706;0.345098039215686;0.396078431372549;0.356862745098039;0.364705882352941;0.380392156862745;0.4;0.356862745098039;0.494117647058824;0.427450980392157;0.435294117647059;0.415686274509804;0.392156862745098;0.431372549019608;0.462745098039216;0.368627450980392;0.36078431372549;0.376470588235294;0.364705882352941;0.4;0.403921568627451;0.396078431372549;0.392156862745098;0.403921568627451;0.396078431372549;0.423529411764706;0.380392156862745;0.329411764705882;0.368627450980392;0.392156862745098;0.372549019607843;0.384313725490196;0.407843137254902;0.423529411764706;0.407843137254902;0.403921568627451;0.388235294117647;0.349019607843137;0.388235294117647;0.380392156862745;0.380392156862745;0.368627450980392;0.392156862745098;0.431372549019608;0.4;0.368627450980392;0.392156862745098;0.356862745098039;0.411764705882353];
x1_step1.gain = [6.45569620253165;6.8;7.61194029850746;3.61702127659574;4.18032786885246;3.49315068493151;3.80597014925373;3.42281879194631;3.64285714285714;3.61702127659574;6.45569620253165;6.2962962962963;7.08333333333333;7.61194029850746;4.04761904761905;3.46938775510204;3.72262773722628;3.77777777777778;3.2484076433121;3.56643356643357;3.33333333333333;6.2962962962963;6.8;8.36065573770492;6.53846153846154;4.47368421052632;3.86363636363636;3.86363636363636;3.72262773722628;3.51724137931034;3.95348837209302;4.11290322580645;6.07142857142857;6.21951219512195;6.2962962962963;7.08333333333333;3.72262773722628;3.59154929577465;3.46938775510204;3.51724137931034;3.51724137931034;3.61702127659574;3.80597014925373;6.2962962962963;6.53846153846154;6.89189189189189;6.89189189189189;3.77777777777778;3.86363636363636;3.83458646616541;4.01574803149606;3.66906474820144;3.64285714285714;3.72262773722628;5.93023255813953;6.98630136986301;7.08333333333333;6.45569620253165;3.77777777777778;3.72262773722628;3.66906474820144;3.51724137931034;3.42281879194631;3.72262773722628;3.4;8.64406779661017];
x1_step1.ymin = -1;

% Layer 1
b1 = [-1.1208733949510805;-1.1001456578806454;1.1793303101409718;1.1303602496056788;0.72374307730503062;-1.1806488423783039;-0.65793548716195482;-0.81849512142543623;0.65600493716799346;-0.1508108109041793;-0.47841205653143387;0.053165885031589012;-0.0045767799967376573;-0.079262535519698363;-0.18165796870583056;0.018278267068914691;0.15943810189299082;-0.51015619887900354;0.14189621550201689;-0.26344455133045319;0.39828972693696268;0.50901948781642425;0.78193108182313509;0.76246678084503894;0.44794665478963425;-0.87403479982925725;-1.1409237721759642;-1.3691246388128164;1.3234620454110546;-1.4332857194466817];
IW1_1 = [0.13247836190492077 0.25523867941568884 -0.087394889342974832 -0.43072621336223132 -0.11661796846512623 -0.027971669648859564 -0.12640925091158992 -0.24765178118860826 -0.14802590090969969 0.11311986081887682 -0.36111465594400532 -0.14372473963840984 0.21887634872470763 0.097199179437022026 0.065068697644915241 0.47029583353597765 0.21280125947893541 0.37733738755908253 0.15029133146030424 0.24824323927737135 -0.1508817408791811 -0.19435613092223691 -0.0091960713281833036 0.21461067588443106 -0.23528157962128063 0.47219858455193764 -0.19323081777919016 -0.26818749018729987 -0.14184571942834043 -0.16214908200795164 0.27651521434991261 0.35918646548778799 0.4086082239998422 0.29895090890210402 -0.18578064971575306 0.022507654870268338 0.011070599779087125 -0.15518774241832423 0.074023186287615853 -0.095320463919710968 -0.16239168482886282 -0.055106827876942578 0.50225370110559953 -0.13148731409720549 0.46083130204761952 0.16243874197681715 -0.073983105600182883 0.30542988218930583 0.15750810459320838 -0.17667264964061052 0.041298498419075895 -0.078464476307712125 0.29490476303376412 0.38659163362002019 -0.12124196737185979 0.15476485210362964 -0.23367268135622893 -0.20450565755051381 -0.35924321847644031 0.41317612824892125 -0.0016676197732963184 0.054107451286308464 0.048356374253578589 0.0097369935107917121 0.05695767712529777 0.21882125419236889;0.25221284731923477 -0.082680215330470319 0.038750249236751209 -0.19599238168594016 -0.10855080323434424 0.06762519628794228 -0.19082556287698041 -0.075840795695849797 0.023329252432774051 0.043380507126439503 0.27864974124331693 0.095862935093824778 0.21966657603926684 0.35927081328503579 -0.13338323033817812 0.042280813650126349 0.33789285893184506 0.2396425617969061 -0.075548605893356546 0.16700777261547883 0.13019306386427831 -0.12279513723805043 0.035838715800117223 0.20071434843821684 0.34632658865237903 0.40536897725920823 -0.22412855721030678 -0.19201046274834146 -0.36633293761606334 -0.045784872679775143 -0.23000543055554409 0.47474379985224535 -0.10998931444814179 0.3390515516662313 -0.23399092014053563 0.40331756705290656 0.16323882066224116 0.40172554486497464 0.028066333907161508 -0.015299346232787709 -0.065601392245694515 0.29578238190652906 0.41027763767435282 0.40667020772146967 0.33418724961630053 0.32552240820105288 0.22031317176671769 0.21188964109697139 0.3653695717835535 0.091417864953321271 -0.053756801117426499 -0.11042095703321265 -0.012499639217961284 0.12000823714044205 -0.22276715306390854 -0.030906511875244111 -0.20842259311055233 0.19351305071776512 -0.2061131259469135 0.16271232759270607 0.11009180408061638 0.30162006487172577 -0.042550728371428037 -0.1625364214144035 0.31725038783920978 -0.17288659217832186;-0.16272229744694616 0.24507724196988631 -0.25669603213611497 -0.26537896377804548 -0.1967422208101284 0.16115576089175568 0.30558921318318499 0.2241273838245674 0.25947987067405365 0.17568804431590132 -0.037279058627300597 0.084345636747360189 0.22915455862082787 -0.14674727220387021 -0.19372114676558472 0.14475951299645279 0.12792878816455713 -0.40500299923612904 0.034364862925094941 0.25227516537550099 -0.21129132502602202 -0.054959170449244553 -0.42979061938210983 0.083772105621082615 0.38490220275790255 0.068253440662201043 0.2755763603397301 -0.089387901063884639 -0.52179050047349063 0.057990337693908392 0.24224316790569883 -0.21844822478778395 0.18803309379030753 0.26242888497832306 -0.19799628292361229 -0.11173657386869038 -0.39086607578396121 -0.29527067539133905 -0.31077807155584974 0.11803675960943576 -0.19302162252286936 0.18166629057871472 -0.11840226112913017 0.29808285934504508 -0.15593512912557958 0.27852467512095874 0.21853328531161384 0.077982913972163156 -0.0039441822552615038 -0.25314016293808639 0.35673838946323821 0.25689906251438832 -0.49141037310593266 -0.02189431726913129 -0.23764210274177264 -0.042518547902260742 0.32641094867820747 0.20830034179947798 0.11928771127883818 -0.19909832711591316 -0.1292973578930223 0.33017214100104919 -0.35880428333088255 -0.26563247015272018 -0.019291040632132179 0.088978734276092306;0.12159595462593485 -0.14755574040227329 0.031411606971795548 0.054295893146960095 -0.30042065727453726 -0.41731537032280447 0.27730859087725007 0.081198008435499194 0.29367955422200953 0.25589621041979305 -0.058123492016802517 -0.20976751254061171 0.094441556055443118 0.15652570580897179 0.30906132330580716 -0.2787283505398408 -0.21038789862394677 -0.4184834054097164 -0.24444970236163366 -0.21495269487442481 -0.12235812537062739 0.044424342598797073 -0.24755849908683286 -0.064960488828630925 0.10568427695245554 -0.23233249754470917 -0.21699651189586927 -0.1899300366001912 -0.17400826303773892 -0.23677924372450107 -0.11462154653478543 0.33021171788849313 0.15581112664378374 0.26638940264010663 -0.039581823048798592 -0.086036534444686022 0.24813603653272287 0.22604835821037589 0.18462691832917633 -0.18910502409799296 0.19564817095633058 -0.068097191268513949 0.20647331579328299 -0.079178950099911632 0.21502005630672724 0.34772740044544892 0.024697913091456372 0.26304698142260741 0.1200218526753811 -0.093840067587905293 -0.16684467463881514 0.42153927985241768 0.088268128281337468 -0.065233818270930347 0.19708412687213844 0.24527382176445867 0.045425201059554561 -0.1714573586171593 0.031614394284950394 0.19991508099621105 -0.067838131533138973 0.31094819179793182 0.22728584341424116 -0.052717208646774136 0.073676602099235641 -0.29378063559733503;-0.058268083022298515 -0.29798521466761851 -0.26578599096873617 0.24994314045104638 0.17358821228222979 -0.16027703607849386 -0.18868407456684977 0.039545818728609905 -0.022974010679241201 -0.018594929697357626 -0.033513648772169932 -0.11950705746808965 -0.17337381000183597 -0.20093393551229743 -0.35869171322074883 0.074125811759007829 0.16536549816803731 -0.19837353097884186 -0.0060150339951606201 -0.097443383864754526 -0.14982859515309224 -0.10443031011378523 -0.018268521326800291 -0.008963073358562541 -0.40436924391138102 -0.55233561158040023 -0.057287319104517467 0.35660629340381267 0.0022676759072583277 0.078059359143685086 -0.22375721705798499 -0.046825721953154049 -0.15201906490364164 -0.20717681192705456 0.23056366503850551 -0.44623889900462876 -0.53523703917245413 -0.077973073860890127 -0.38669192935196955 -0.33562534417078593 -0.057735068598499049 -0.0079561398980176855 -0.23862612228788535 -0.17585410828971418 -0.48055630477243794 -0.36863970382481254 0.15721870309015049 -0.30883491825624093 0.0040558522414339045 -0.46177587203804765 -0.22550895637581561 0.11569551351583403 -0.26818777213210826 -0.089882037629307993 0.18196894746985448 0.18831257950590427 -0.2330555859344724 -0.15019500062202742 0.34292029537960711 0.17337511380049334 -0.35276837314203358 -0.41023184818912201 0.0083962679187778617 -0.12499184789726467 -0.21254897157509289 -0.16778768406764083;-0.0067206147160606949 -0.1867020274542836 0.024056113844535126 -0.0021701327284364869 0.25398910618039033 -0.11798674886559167 -0.39469861914058019 -0.16344384559315087 0.15095553687429536 0.1413908027928367 0.24560310098781965 -0.21525648250847149 -0.39924337401818349 0.089027831863551232 -0.066975919532039394 0.010789347725055947 0.040876798224872855 0.016982205047681991 -0.018562930099666287 0.070116398963870646 -0.35409065486440217 -0.33561775270687005 -0.096993857775576856 -0.2333303128163223 0.064464870617042286 -0.54850652697885693 -0.021186373542907345 0.014352316763116768 -0.013608847646947409 -0.082553783226026814 -0.2924799029606292 -0.15488871893571785 -0.2762947238076226 -0.018124115938013979 -0.12094539392457622 -0.29655301767230918 -0.39171197224390059 0.3219770319511564 0.091161354163555336 0.33273331154191016 -0.077243827150009908 0.2966742186581805 0.25989817944688981 0.077782076573978121 -0.34552258866924102 -0.23652122488409358 0.26619558261099563 0.18938887279098596 -0.11457471738425537 -0.21172324613995622 0.14936265084498257 0.1790309789810581 0.29673593030547835 -0.14838960740362947 0.039663069580993845 0.0042976477890213638 0.056137210914519606 0.11340038306718017 -0.0027791570201766477 -0.088055439179802159 -0.29345715738467859 -0.27299534756220672 0.14126651427928219 0.029092321274348923 0.085756946431885028 0.12911969899629341;0.0044688710851298937 0.15674255319992411 0.20479239071216596 -0.11918010224824935 -0.10257881730164818 0.12353754138027799 -0.2420617300171192 -0.20503839919543085 0.11003706028724546 -0.46694901446629195 -0.026644444919568241 0.02815485518456598 -0.19146052474428751 0.12920807867971376 -0.3183439470786667 -0.037165876442408118 0.076968962399370663 -0.027256875620903627 0.19377848335509987 0.050534337981566486 -0.43597212358869902 0.2488244521650613 0.34344114279772897 -0.28050651617896866 -0.17363806323580536 0.13419100317648955 0.10313227549030866 -0.017081090657171456 0.11857942522727831 -0.082361917124159953 0.16977921624927109 -0.26070957216145063 -0.28927735412962091 0.041748282539153123 -0.029455871043713895 0.065124268158993442 0.16848868529588112 0.10361894520976192 -0.0028948932883208914 0.068332800756866541 0.25694329249315789 0.11283260445859339 0.25474076312320126 0.35600745336861589 -0.15876204870563992 0.32436103847914105 0.09993105883500672 -0.27888486053005929 -0.32886960322251985 -0.29911474586607745 0.15684425107373634 -0.33100272947883008 0.19336951344437384 -0.31538032841391678 0.14725780349150061 -0.094848841553820035 -0.13257249929558848 -0.20518744640270056 -0.14949695519869483 -0.18050792581151512 -0.38575301371019899 -0.30598589420903549 0.11109079455503458 -0.31430566791798753 0.018421814494392546 0.22013341351698934;0.29224698506266156 0.0088899101684680772 0.12868707138298086 -0.062352023945388704 -0.19220293103482569 0.013365967368825844 -0.21468316969799905 0.25704888388235847 0.14907504666823038 -0.030363202640254237 0.31921565261230195 0.002753858378413649 -0.19898860988657449 -0.21908834480548206 0.40699400543409214 -0.054665144172985673 -0.43950676784857068 0.17482067344225935 -0.32683654024391462 0.16476788470904916 -0.099270621025395037 0.21923307052965568 -0.22643480441366631 -0.12291289800781209 -0.036141812066593018 0.33839999849760266 0.0083585816990946141 -0.20559658709926784 0.51690016093641211 0.023968492747533363 -0.31253708589229778 -0.049085920949138488 -0.076949762518544268 0.1414914361320144 0.31630967326627729 0.059635779993276634 0.1351340069442927 0.067708416364062815 -0.12529510478534525 -0.37817993172583053 0.1210466959970618 0.17018762132517265 0.36102933976143819 0.0045535609595992385 -0.20898442511464113 0.04215712480086331 0.24109446707024892 -0.012417219867218745 0.1022924088845908 -0.26546287136222591 -0.32402980919250707 -0.059971427454611988 0.017780314845338707 -0.014115585180989864 -0.062366526421431652 -0.28934490604142438 0.032915710968015877 0.34916422323759849 0.060269378828655934 0.092484174554002832 0.14398072829351161 0.035402165370334124 -0.2472813093397056 -0.15057836756467161 0.27772200058912189 -0.053740149189446501;-0.15437697315611057 -0.14005352510998981 -0.052611869691148873 0.11832501028239771 -0.14043407905802927 -0.26008784526163031 -0.16485424382482383 -0.44455748072177748 -0.11536791112355643 -0.38740770540968922 -0.10736564533459464 -0.098712345286401271 0.16887758132693953 -0.1302955996938942 -0.23165151347947821 0.20084540189393207 -0.20110848750212662 0.066084707827718359 -0.064595058252803567 0.33883865501287985 -0.37082028015582486 0.21826162084948261 0.10565546252939596 0.32339811122308393 0.18437235797049156 0.08138027823476153 0.22455530285195033 -0.34532792415897823 -0.37887663415584605 -0.27510470723615232 -0.203498628330265 0.05181280296384206 -0.054614757702268549 -0.066730318603936967 0.19630911402172668 0.14213319367821217 -0.24722562068031434 0.43978975845626983 0.0020677533048512166 -0.064601522574835785 -0.37626022207138515 0.3292220201560947 -0.19817524594103206 0.031940743165152843 -0.17241412817199758 0.11749400859052349 -0.24938669773015495 -0.28872503762900975 0.27514254811635486 -0.030260882925570561 0.019265390835944557 -0.12867269246435073 -0.22999515379270707 -0.17909519229382645 -0.12029064909152586 0.10863563167202465 0.28304337004292102 0.11363343456765761 0.21220694819528768 0.2222435921494007 -0.076858066394495966 -0.15074103869546551 0.25899066389904873 -0.39773067231933273 0.33662347187650593 0.17258143355475297;0.1364106511804393 0.33399343116267094 -0.32657550848121214 0.034669325734941497 -0.11416274160844447 0.032297634039007914 -0.19633332870498404 0.26226785443997669 -0.15363146639030043 -0.13809586989031636 0.23144541472060209 -0.12427079038771739 0.14456468991371166 -0.20941436377441178 0.3098274824214422 0.16310653105095033 -0.094811342231542445 -0.017576220837870984 -0.15026056740631222 0.22122847273872123 -0.13755802232960007 -0.27009717200407063 0.01634266534988682 -0.26510876762355906 -0.24908733760523866 -0.089188172183896283 -0.051399470801978139 -0.17559265381726571 -0.44564179957173033 -0.20314755173037852 0.027662916663975658 -0.19457298572537304 0.22708755537400627 -0.11830069423117008 0.14495013504299689 0.19408240420957898 0.015737632670334394 -0.056312363796364645 0.15397447912536716 -0.33754486935583411 -0.16946586965602833 0.012214478308596495 0.06665059021928213 -0.08981922391170423 -0.085896525721147698 0.15312362696090764 -0.16075503132793964 0.087095872546387343 -0.12134141270981226 -0.29994625918544504 0.12503885349804944 -0.49507765499651901 0.0028646733613863695 0.052656622334009237 0.25175933273688905 0.17210827799733316 0.30949398250038312 0.06389352320450345 -0.36528969014306811 0.11783841260098028 0.016268632109505323 -0.014237669966832327 -0.016978818691467779 -0.057236384090051461 0.29425333819509913 0.18975906873091997;0.25258897202182606 0.10643191363673185 -0.099479004650919273 0.022365154423192968 0.24384957133210786 0.21327517074629568 0.1339347283940639 0.37536844932852198 0.33873786185585025 0.36057713206948477 0.20136998297427833 0.10063597657972516 -0.068365533735142467 0.15322848146362081 -0.10808837302056593 0.12260954633631591 -0.13026798123589522 0.4241721813037535 -0.324025763027256 -0.23292790932971713 -0.20296360300424884 0.2927877706399043 0.13461495785009703 -0.018958752085872024 -0.15241913223597678 0.14536959541776889 0.14326873191152609 -0.0090938667372095043 -0.07083643029459781 -0.21617733935905989 0.19986854930413245 -0.11501220598172714 -0.031479131209115094 0.075403427779475785 0.3871093402175943 -0.28961220594606002 -0.15314717526101948 0.067187947087282734 -0.013203420700700311 -0.25435181941064394 0.29319276028400632 0.12714847070595131 0.045316295182611231 0.027400604645577805 -0.28335745673312707 0.23468933174506065 0.1730466835402783 -0.18698536070605684 -0.20125443783660871 0.053626358334407737 0.18826622858549866 -0.055795942607727578 0.20586804218524768 -0.21746489677345482 0.030745247975499854 0.34603104810402358 -0.051974289628994433 -0.12668374678879069 0.20942943191694138 -0.13009557763651061 0.1567746141141719 0.19375967494858584 0.18673509587090736 0.12513459902932686 -0.045967073949000986 -0.12354431461914042;-0.065883099333727796 0.071352041696632257 0.19882841116711455 0.072846762573934215 -0.26373329722719507 0.27692130555126016 0.50466293544557883 0.59489931805884511 -0.3144527550484168 0.31497316701509986 0.031198688468097282 -0.25831613527689573 -0.035491979086412564 0.15815483891319984 -0.17418889828743761 -0.3076283927555245 -0.212369058801885 0.022844773046800028 -0.15941883822747427 -0.049101236291549756 0.071855629423870845 0.13466496731331129 0.31485775150466261 -0.23064666667608172 0.15134547554783395 -0.45890676890113924 -0.16255125019269329 0.0020269631338856037 -0.17442909294926154 0.45650620620551202 0.16445769924343448 0.007140714918226437 0.26594961075147328 -0.26650756586003266 0.18948277450647352 0.07722969833227554 -0.43320235411749708 0.28716752793304934 0.10680601012694144 -0.32325005347681751 0.32220395218460141 -0.02661104145220132 -0.00011121182294155426 -0.061761080914122371 -0.10228565820478128 -0.065317373500473494 -0.019299164723980838 0.21330741046134821 -0.09517773030546052 0.049526106836521408 0.085246423018040723 0.0094961237945925103 0.10645187379084678 0.037955364518735067 0.38024594219748031 -0.27444353485750705 0.080771462228261232 -0.09792449863446144 -0.10077488754126017 -0.0016913096523607657 0.19829960414564296 -0.095865533546503554 0.029819001689922395 -0.21861998275340516 -0.29957273086044039 -0.25539310971278029;-0.22364272822252598 0.078374501014678938 -0.27846695082783079 -0.15017904124687628 -0.33496338376763668 0.013251482682291942 -0.24209439576405464 -0.28982609214455579 -0.23243678740104282 -0.33061359673965629 0.03379701014194026 0.14935367516504663 0.11107806044842064 -0.14055552833798451 -0.52174423515462665 -0.078877972882614888 0.26059216582582151 -0.12969197775392688 0.18461415182133112 -0.30550921054361568 -0.34838441827230721 0.31801041299250798 -0.31139360938896515 -0.056871090945294162 0.016990798699713084 -0.48943643898227313 -0.093167723649519391 -0.24660400599752752 0.096914945667548602 0.066481372812493042 0.38984379737976849 -0.094473808885229618 0.14595486332046154 0.13322542740244211 -0.11517680060749877 0.11567090668162369 -0.22457904512248256 -0.19728616977785571 -0.41012445389302832 -0.18922540241531652 0.15701884373749564 -0.37905254703030061 -0.017697263923112556 0.17088420115578856 -0.36459839815293066 -0.26578847733301508 -0.25197647502755566 0.18758052079690193 -0.23045860663364021 0.12530724842666641 0.067429408716559155 -0.051518042657838131 -0.48726288754608976 0.23352107794916147 -0.35933796687454544 0.014868130062615285 0.28269004863681751 -0.11840915446837383 0.095141980290872466 0.13510842350418598 0.016803861249836849 -0.00627471861036043 0.062509318368567046 -0.092665334865227753 0.10833788872332802 -0.19601169174097172;-0.062788031420928023 -0.086313784065784632 0.2617428200438302 -0.29778763953748233 -0.23441994537804586 -0.074254868100905341 -0.49445052983705806 -0.46981801102185561 -0.20653942183075166 -0.17311447452885101 0.088412005176791139 0.38589828567999512 0.40992241786249606 0.33277903107199985 -0.012034351594751354 -0.2049674227819212 -0.10871863558723119 0.12213767255567359 -0.093741119927812963 0.14005358701262324 -0.076172231699060622 0.25612953854305992 0.02401193795811991 -0.45595652662440384 -0.008189262639774271 -0.13042112320299193 -0.082543418471781219 -0.028389432757469486 0.10958263565043877 -0.31470574984610428 -0.25901101059504111 -0.035915281662230132 0.053395030803263341 0.37279956351508309 0.13393132901040986 0.22672406228418404 -0.038746479861329369 0.010488590498856299 0.36685793079409001 -0.34065422858572386 -0.17390172985035562 -0.062244650508675475 0.16208205998654721 0.31173804518781673 -0.28929486244389996 0.084648048476948928 -0.11384132659905924 0.077894285902231977 -0.20935908864493705 -0.14801872758824719 -0.14584904527663659 -0.041064851709596055 -0.023100727732495552 -0.2746420326383231 -0.21169165062713738 -0.13199085462886692 -0.35301704904797815 0.46818273626003282 -0.13390365684890368 0.0083678155423733032 -0.16014723153771737 -0.14401791356987045 -0.28963564018020488 -0.049239034257675923 -0.034987063446534045 0.081260006125818907;0.46255734586400393 0.25720748537503707 -0.016679629368224713 -0.23879326419977551 0.13683562359566623 -0.088713014315565525 -0.21895214256021225 0.082564867604509082 0.31268288548402329 0.054252071042863309 -0.26209006165237303 -0.0021061529682437153 -0.22868715001153669 0.13211412716087181 0.09767293616165032 0.26182582817588967 -0.55811254015665668 0.30700138758743006 -0.073938041705697288 -0.00018562613548629616 0.13777617672937351 0.22698195890461445 -0.085682503320383435 0.39114357229267166 0.21251072795455364 -0.25988886368924174 0.21062822400613732 -0.026179576327929052 0.37329826558677753 0.33960302246137869 0.24618302798650613 0.032787231540584202 -0.26797202552292737 -0.32120409525632615 -0.21018416447058044 -0.50055253412890155 -0.083402915810562486 0.16298408544859569 -0.21543149966829597 -0.10870271057475989 0.046221909120317026 -0.053001582251454175 0.10651084427560351 -0.48740974859379999 0.053151737371104658 -0.16126179773727001 0.32836147770529861 0.29643638283399476 0.26001267035384235 -0.12184317232462787 0.03722179313019193 -0.086347825782801799 -0.025557735807528424 -0.029697269089070548 0.08969520476682627 0.17540161648491767 0.057405607155850365 0.16362237475196301 -0.075840149283965971 -0.044217298086947486 -0.20410918910486736 -0.3071303429256288 -0.10128967118460659 0.25091762337988949 -0.28451385939197721 -0.24909551739174801;-0.17242086170793694 0.10509854777250413 0.30251327849094317 -0.32774579059787501 0.19774380104878475 -0.16055630105062141 -0.15819379157787766 -0.067948803235814953 0.073085835794786419 -0.048599379985907284 -0.3873904714239696 -0.18133412607270558 -0.23057239352137784 -0.45932593466130711 0.064381730647469437 0.048603554931171994 -0.071332392491885596 0.35183082329341209 -0.36441739091495912 0.07676902348552718 0.11757375253409377 -0.1489810504422843 0.13150749278257617 -0.19152828916443199 0.03381934523609316 0.16705432985957674 -0.20868641274382849 0.11410293242309605 0.26743692491877008 0.24112682938838456 0.10244220187096047 0.135611862045947 0.34129431131020971 -0.072515969390988436 -0.2249065998057751 -0.22693758193293267 -0.30683146582131637 0.068375664541845557 0.14920880125428482 -0.21134492834059354 0.26651453092459815 0.21956988817540574 0.16951263003556608 -0.020080016120729613 0.23814067428616195 0.3024276870826938 -0.36729623547781248 -0.055952776132590192 -0.037408044672229808 -0.14071856072290626 -0.29270084899741688 -0.12449700441372148 0.22040818972493556 0.032071443378056785 -0.33492956251777267 -0.38521171782050978 -0.11700082737548201 0.29954753672153628 0.045449883101590816 -0.10882184789844226 0.043572209659038914 0.13496959032269609 0.085153898269081027 0.33449272479136838 -0.27452704778866921 0.21399898464227343;0.26374016633026992 -0.18562142189860364 -0.36881589398713127 -0.10267491358419698 0.13385036537408193 0.10063779162861007 -0.22936805891546933 -0.45383372125074317 -0.003761841677563783 0.23708833100530752 0.46166731275533568 0.085716959944556706 -0.25222906428896408 -0.0034376849853214042 0.13765857724602937 -0.078075178868501419 -0.011126530868093501 0.23938475449680441 -0.91677098965786508 0.45648294271512718 0.25250030373374305 -0.18539439300319541 0.030673914066486081 -0.078685558143119408 0.34430877785531971 0.30418290158022898 -0.15715537663008219 -0.26501232053951534 0.055661466900568356 -0.46326588851085343 0.28930316340345719 0.38468171285271269 0.020515698094877653 -0.17774544895413241 0.087662142085861997 0.0012632199501260346 -0.26528289670931815 0.11048963433918517 -0.27340504510794444 -0.025997976696273181 -0.30646154412267124 -0.11892752719091497 0.0077404732257370986 -0.10335064344819406 0.24447306451844072 0.068238422366687021 0.3839569555953472 0.060953643526928031 0.082743449180418316 0.016484471568823302 0.12313210972088943 0.17921934256211031 0.31932387637767973 0.084272865083680759 0.10897093915309766 -0.081896383706432985 0.071939402376090783 0.10014399839614933 -0.20120518957420003 -0.32822791920822558 0.15412384744008589 -0.30322570792066067 0.33747487332236503 -0.20239222947668994 -0.11489802068605802 -0.37053017219933171;-0.15482538009818328 -0.082647028617134202 -0.13122423221939039 -0.0061062779587129027 -0.18601548229013004 0.1772370847035328 0.14126233468334487 0.41972405045886224 0.047373708879250527 0.17145890965847824 -0.27077726583921979 -0.36270293330374304 -0.01212896598863587 -0.048154400343886447 0.10681885964654771 0.0057002538347736918 0.00011058218078760724 -0.21735354095466217 0.065438489301368086 0.40749371794198447 -0.097641621559634226 -0.12527660658083839 -0.26783637492803852 -0.24816293065091113 -0.1667453134591155 -0.008394150193482398 -0.44694936641707556 -0.19212251710955169 -0.14462361901180465 0.19528319556673507 -0.44206644418179836 -0.034591423851438638 0.14107480589594459 0.12489036479143872 -0.041727613348399292 0.16743558603070896 -0.41518846743299381 -0.31168122948894555 0.17596793304259381 -0.44064407184860627 0.12731796206234666 0.017011605417003535 -0.038627009833527237 -0.12212916060547628 -0.016122003443304812 0.041963044689181807 -0.41579763335172304 -0.2213336197132969 -0.11337507415839876 -0.20208014910642602 -0.17338985730341569 0.16484990109624867 0.045674695302583716 -0.036421160741700299 0.047341641315379109 -0.1159984281787564 -0.21989889188916825 -0.13931133965445999 -0.12941254739009786 -0.29327980710312213 -0.059602727007098753 0.079243869319447949 0.23568331983948226 -0.23991251847088255 0.27657192001337111 0.086033631684792763;0.029186809714804487 -0.32729149002313795 -0.14443555159330221 -0.11297510499534182 0.31109938328218778 -0.18615044293363367 -0.38537019110253529 -0.50233753985927776 -0.32474984826488534 -0.23367064011207231 -0.3373468063569024 0.33972205313144188 0.37124861026173672 0.35098292726634012 -0.091349879314841051 0.14482144192051208 -0.20771000458148162 -0.13683987187035795 0.050689094583858667 0.090365723556786043 -0.34113385612713515 -0.0091018701319298088 -0.31487772664939734 -0.048690908283165212 0.027453148714005806 -0.093927645094463982 -0.35202258971493378 -0.34709943551846412 0.065207561382986848 -0.26724197906884967 0.3121893493086691 -0.17340434041601846 -0.11736276364473405 0.31705199930128697 0.015239080740181522 -0.11202099939823049 -0.20622201861282505 -0.069231096754659535 0.15610655082044989 0.400315859559219 0.18455510356875121 0.47189320985684619 -0.25750015992282593 -0.10149659353438625 0.2609713515055177 0.20649522488851552 0.13893468406086709 -0.22126760322958339 -0.3209424280565904 -0.25384478619684275 0.15217013711964392 0.13356070703648301 0.047299650704584591 -0.046948536786542962 -0.094267677693565075 0.16560790003209211 0.22162029941874301 0.24251893805915006 -0.083760425961822732 -0.20481183372719805 0.10608042781436813 0.26021675437443653 0.24969024113543639 -0.16362107087412792 0.22896927761411934 -0.05312188932255036;-0.20991860328999665 -0.34912058393323181 0.35749315231550421 -0.34769154042310763 0.13408265004966191 -0.24848112098731304 -0.093908102463445955 0.020325621855495316 0.14773661120544387 -0.056512545073676146 -0.13755436855538608 0.28459067859415615 -0.0076113180696306092 -0.28784584345358238 0.2152266201028897 0.2211436600174497 -0.45514431670610922 0.26179103603351567 0.040205949195073046 -0.033280108427582875 0.17197014376055422 -0.16276364597768936 -0.18318104579138805 -0.20876961310473915 0.052839114563332325 -0.058659960021732446 0.091314040276342975 -0.67903852456039848 -0.23729274650697024 -0.15435018450920937 0.15060513735577868 0.42794084030688523 -0.077411981275457606 -0.23456325176434456 0.0071148726763025413 -0.17916090090757042 0.12103913039755107 0.18448562038588642 0.13938956903998675 0.10236655985804544 0.48712161075506255 0.53518395243641848 -0.064532767044249553 0.15380062502605357 0.11528950181509634 -0.063374515370318463 0.031709255107177287 -0.10320302549077963 -0.04305603766888122 0.014409251962108285 0.2000900693632135 0.15903253991356933 -0.025109511671452402 -0.34447614550395472 0.28780489071819521 0.071854231097395763 0.43791370369862165 -0.079432459000855618 -0.28137543007902649 0.11393173160104324 0.28469494547700708 -0.29344012964498184 0.13476672717178842 -0.031880831519207363 -0.1301710341852936 0.20975028615001373;0.14937396772041811 -0.069315555029969167 -0.29722553603701241 0.33818683038927522 0.16782959750089574 -0.32342301091849485 0.26059178244374126 0.054939063562915572 -0.21452976425040274 -0.1486537301298019 0.15413111701342253 0.089930534570196091 -0.33181822157888674 -0.04526479501973997 0.15632031391696458 -0.047797463938264555 -0.48367582250036101 -0.11236763544176649 0.18181942817214936 0.28266208954814442 0.31333636032070894 0.16631341455439697 -0.37668617959550454 0.39979872129924937 0.012153048438454869 0.17252117708085124 -0.1040131093253428 -0.27326262984918898 -0.1304086899885728 0.059876050457443361 -0.0203312024075776 0.23953310301676156 -0.1519320925235696 0.25395270270152487 0.040340535583244373 -0.065578278959965791 0.10049330342219198 0.39745337365443184 0.27355470339018662 -0.23046725905308205 -0.056741621264584603 -0.050676885786489573 0.13225921993930939 -0.29050252089014739 -0.048701595696114951 -0.025454092058988124 -0.086441240850701401 0.15790206791133141 -0.092596996397085116 -0.11777413763922329 -0.22087573237598676 0.25235378628234645 0.14398340154733966 0.36104763833618508 0.13045590338064778 -0.29917970264251226 -0.12895932846434696 -0.22701715192091856 -0.020060003283818743 -0.32149529631698709 0.27795912938222633 0.079360404764135167 0.045996036559709907 0.16562586720776476 -0.097458919866193303 -0.19407574132693964;0.0607546992239619 0.094016394218257443 0.14155512653264696 0.19733953019940384 -0.22717661550791018 -0.35050556222837526 -0.33806957894122952 0.022429789297712062 -0.34941493595723383 0.20037860476976274 0.02365558520323717 -0.22856441824020873 -0.18780718535520927 -0.11139007706391407 0.15249104971583433 0.19196902444064629 -0.25225426190856992 -0.033423085205030977 0.085516923182254068 0.089138525736115568 0.12183066354664759 -0.23297027562108186 -0.085284678082567567 -0.20188820170335511 -0.35568193619978544 0.21208073129631566 0.026971546549573643 0.029670761084017026 -0.19524488330743811 -0.075078036235808887 0.063518006243131309 0.11250697879633144 0.10106460164369593 -0.37700890357188854 -0.02263245179642271 -0.10480730167820465 0.12761300198359068 -0.14848341214526589 -0.15044907400766397 -0.037236895716801131 -0.24754053172726057 0.05338158481788368 0.0080577094231254528 -0.28099645227917819 -0.20458638224974129 -0.018727075851789576 0.021212429467610393 -0.31936716903938578 -0.04934767392569521 -0.23996688173992065 -0.061846510809678915 0.094516734315797699 -0.23573904051061481 0.30984809865652896 0.073432209284437333 -0.25223793921858645 0.12700163629644914 -0.16222127695803076 0.26727093834655785 0.24270597166393398 -0.16483867870016916 0.30021480488934565 0.25962184684163303 0.10996636006178746 0.15470027894492999 0.017249871588702746;0.35403993986058341 0.23713868456884316 0.15343850739489875 -0.28041518090084544 0.25104472429317115 0.13981975390896245 0.0022440106015109394 0.18289420675409437 -0.1421033957194916 -0.48796063165986692 -0.12679643143507258 0.10387666113571289 -0.0040058589884098932 0.068028194822750021 -0.3502834329077219 0.36139373958756316 -0.54415423514358896 -0.39081137681197137 0.42869452299508559 -0.024447187484974417 -0.19398434317176316 0.05865707006267374 -0.40374949358458007 -0.062414994079796955 0.30565956025701624 0.11461811831104025 0.53004044335744982 -0.25628587240630257 -0.66705973478928804 0.11618439938473048 0.14938551713665105 0.04851424066417296 -0.080642192246644415 0.21312334123667986 0.077035492916997877 -0.049098883108787433 -0.35370049343119803 0.28367355911500652 -0.011085773962718998 0.16366144286832821 -0.20225942328365332 0.044036540613930315 0.20243494328106168 -0.063072518497039751 -0.083369012825453975 -0.20656910268370632 -0.10196958733776768 0.079272836531259175 -0.12491960631843534 0.4433493839728595 0.084001706734073284 -0.27450656752521269 -0.44259025892927906 0.3492140296983855 -0.29795096912842906 -0.1875472432977984 -0.047976922855492606 0.014163814964288188 0.06446121834342565 0.05091032788337007 0.16276685754299239 0.0158225739824451 -0.28107613931706638 -0.088034681740456727 0.15385449627559686 0.33712196005645756;0.24148186717733164 -0.14361820514774221 0.16340645214564736 0.04581079650651524 -0.23568277265416643 -0.39947940186515218 0.0060232176490839793 -0.13367766123329988 -0.39002729392105051 -0.25718472649435042 -0.26218026929167715 -0.27857618610353591 -0.067591355138036435 0.30883581124229431 0.18174057294314655 0.33105748087718173 0.14908564534533492 0.21576882216926285 0.39834607017471951 -0.2520547008829287 -0.094827817981274723 -0.23556946777921367 0.027369162993584589 -0.4748076714253186 -0.10314345670912566 -0.41651314966863173 -0.16298502056516584 0.37100970969819935 0.19171353131540678 0.73555761524448859 0.039597554354418148 -0.057595475187621904 -0.3367696427529302 0.18321224141783135 0.083708735273652732 -0.045265725485005515 0.13962163174660447 0.10396316148854948 0.5832651000343837 0.33381884447253896 0.13078067895489351 0.22172723643534972 -0.30692986668809086 0.059351424063218632 0.17477521510093236 0.090041983059736902 0.10911182679070924 -0.17409989873510234 -0.2300020647744577 0.018683055457968979 -0.089258921274417119 -0.10089507329631858 0.36157041239198007 -0.15974778362758218 -0.070178969758374593 0.15913150062886461 0.04957066141917861 0.22068368373330466 -0.2497934089333364 -0.38213342233322861 -0.014827445652612101 -0.21684981769931641 0.17532298467566798 -0.30456631334322132 0.30814217809172484 0.15123904677556438;0.079788448302023127 0.18969393447000116 -0.28369291720765766 -0.1480727288739872 -0.18815096147306082 -0.088667476527525546 0.073734857482742625 0.41691817390445873 0.20204677546757474 -0.098975299239004333 0.072150756645954259 -0.058943762917236964 -0.077271503782245538 -0.064665385156141938 -0.35815440166734064 -0.34465556768378641 -0.22818065704586649 0.102530203585698 0.37612395516402425 0.212385951113822 -0.051972641852981276 -0.13451862648425766 0.0092073617452257551 -0.22258335909483051 0.093986470449113194 -0.48823371943504723 0.11408560308833376 -0.23772041940144625 -0.02986376996330372 0.69269423779044481 -0.056823304310388977 0.090782735775886525 0.21628883611730632 -0.032097659077714266 0.10952325366722961 -0.24816853803961594 -0.53055434052551886 0.39170677037301327 -0.23429992931531585 0.11503715979504321 0.38849372724106179 -0.032238481992102143 0.093153554760450952 0.13334970065646123 -0.40344070932453169 0.11264877716816241 0.19608856237675618 -0.130138804636099 -0.045590367450853042 0.40940180618301064 0.058360736585237494 -0.08397844769067804 -0.16175079199031198 -0.1981297277532785 0.21932300457123757 0.18734364874293857 0.13160088326546943 0.25979660686693568 -0.16002695630501151 -0.32829268999518874 -0.021215770950485869 0.12667430782512512 -0.029355308318299474 0.14709942118139724 0.30103653651470424 -0.26594325781229883;-0.31774823680584496 0.022764288382597003 -0.11074192249914566 0.41136256302828655 0.066840622214997827 -0.52534422667228187 -0.036477107335602492 -0.1629329821961818 0.34625232526643246 -0.1011491929054663 0.11740191938588927 -0.1030076894693628 -0.001915724617271766 0.26649674404557649 0.050394626838147834 -0.22444780601931569 -0.1972270632708526 0.015749247131689247 0.74752945455774256 -0.023087132618691913 0.28888657029701986 0.23868912054605773 0.31500290620223248 -0.45427091990399371 0.19717343916584343 0.10903758093485641 0.078411135608245308 -0.10898594380605763 0.23833933191214343 0.25615870111759381 -0.32106745823460436 -0.076427906598650536 -0.27576275061517735 0.34366100427865881 -0.3212356725830296 0.26480136391665332 0.053910063913687044 -0.25791638014921348 0.38911646524712012 0.082479376506469193 0.380135984888611 -0.22459666711571649 0.1350504827085047 0.084594875879054413 0.28269278486949606 -0.0073774263453246936 -0.35919877807415301 0.048477532758305006 -0.2026173829241468 0.14138308578682565 0.071270504949728183 -0.28424133894947967 0.066330487975242172 -0.11148697198486403 -0.1695338422320285 -0.19650834499656863 -0.062588684913973014 0.32372890302405999 0.15909993417634197 -0.1031508494822047 0.36370529264112472 0.3254686636429045 -0.28836993668038929 -0.17616775680993099 -0.13458491827647082 -0.12621935729668898;-0.2187516558603943 -0.28018921185827356 -0.14646030436964722 -0.17875157860112495 -0.072145055801393507 -0.2107527936484333 -0.16138879780051335 0.0093631006516673599 0.02361182135861626 -0.20238771553247725 -0.22659466771473741 -0.26980764388704914 -0.0062579688225000334 0.0055832972661755808 0.0016942656455112724 -0.072562738025076845 0.31557223641919457 0.36735851518109375 -0.1663245066685976 0.39628684901719635 -0.11651606331871966 -0.35950818566021181 0.19261500345759344 -0.044619470724708649 -0.24930339912160449 0.068947835567326365 -0.021645003709314308 -0.16628000360182699 -0.30507282997439589 0.056535331873122596 -0.22681508439868706 -0.45247269231787529 0.055024332409644605 0.21377808190549519 0.11199738603488968 0.27646239286553526 0.34148072383521272 -0.15466484083266097 -0.16490792797708623 0.12838999440590265 0.16058464418648888 -0.10669239647739404 -0.27883636613822699 -0.0017290067484875605 -0.25014417655345234 0.21939418187828169 -0.34175992131969019 0.14679040318388559 -0.0031843942251512112 -0.29222230548376055 -0.12796806001939473 -0.27134452659849101 0.34402430825174557 -0.20562944443275788 -0.1917020493094386 -0.14055493259598698 0.10576767937807403 0.30472740172687179 -0.11961556210568466 -0.096678617430653466 -0.14597044552181826 0.14677120881392197 0.093540828133547291 -0.13799155753044429 0.056335653058333712 0.014614877375250943;-0.13970367377392287 -0.25765236043420131 0.062579090109176241 -0.17254239607250588 -0.25214175304905723 0.078481747576237063 0.0842760557619745 0.1337208983794356 -0.21835736752250634 -0.046959193064790739 0.13530947424185183 -0.20145990357924168 0.18474584476362454 -0.29028258711916738 -0.075560573477104528 -0.3357206285872299 -0.33746462614849715 0.08568102859797809 0.5390716172818949 -0.29736977564857925 -0.16038263008292686 0.22128916001201535 -0.11573655590837856 0.12701502510006915 -0.28926826885544332 0.050772647516510908 0.098721190795151056 -0.21536094916661616 0.16452466756757134 0.5074616715932494 -0.092919416529543691 0.25679008186884056 -0.1862188185685538 -0.038573341656189447 0.288447542914613 0.16444257409067994 0.07703516465090067 0.10576986072064444 0.1608491903358561 -0.1817205822977766 -0.016301563646753101 -0.2996702165193148 -0.22100238111110088 -0.20498863741242998 -0.039953976736625596 0.053599876642017499 -0.23456985129464694 -0.092313841984603837 0.14875596803891622 0.14626410144139884 0.11153742777870886 -0.086093911537667586 -0.22556676112729432 0.24071724342404838 -0.21581346602997503 -0.13752131200994194 -0.019022808929370329 -0.10122757931928444 0.19733279365251929 -0.26958747206606465 -0.03409467052820616 0.22071923802970619 -0.2069757734919839 -0.15566229684729063 -0.098897999648087653 -0.115176313824846;0.18925116802177205 -0.14644224279910559 0.021718543858125439 0.29421195825590074 0.32071825007955407 -0.21199735986684304 0.10876612108700086 -0.47758384659028685 0.17522297999466213 0.36864387096510981 0.093645041445052327 0.031680564031043933 0.1713042435742749 -0.13111794454335343 0.039509515772467876 -0.10402310364516759 0.058147137557114717 -0.12826737164733293 -0.092145337044627212 -0.0085345290376401331 0.31844332842150663 0.15175508056812884 0.3024909036462729 0.11272124642554313 0.094810228781593939 0.09080554361753429 -0.18318459911231269 -0.54461943026861326 -0.42784667975906748 0.11900668129139527 -0.22679971143247807 -0.0032564496081096497 0.22232155584474794 -0.081803797982935342 -0.078187864666119114 -0.17281397843299215 0.042705900540537994 -0.036485262731139549 0.05630765884200007 -0.045500495775657609 -0.2092805109768355 0.088913076399952884 -0.23345891274171379 0.1786984414399802 0.15234141248288557 0.048922795539524264 -0.26734245311539129 0.18053940667720347 -0.26229643101339317 0.094973417842303315 -0.14114863188874444 0.031510756417315648 -0.2594273670208978 -0.028588088896118802 0.065717744665185859 0.38938707691218166 0.30061677343219861 0.38305168356683655 0.14647223483983743 -0.28648055983189591 0.12282639377569073 -0.059951677980723338 -0.32187284798476495 -0.0019655790757643725 0.23559998004832403 -0.13163007732671111;-0.12163427315691706 0.18533043480884037 0.28159238108816237 -0.087951816068431124 0.17352164243847276 0.22017433787268093 0.18944200072403328 0.21534218934106231 0.12071516863561699 0.23230944723371824 -0.071517722825112928 -0.21714251323989867 0.3418713114142059 0.033104063519803273 0.15479587855117283 0.047564505376601299 -0.037225168725494535 0.20986799102359391 0.51364094327615173 0.23775006787778383 -0.26447901446569255 0.2705227828891511 -0.27292510850097085 -0.23006032886612823 0.11358278666526539 0.07337309725245332 0.10956889811206151 -0.47454229807375897 -0.44232039459511563 0.073401073741207037 0.22727165059400875 0.0703904426717884 -0.24834965978297344 -0.15211392395086332 0.26882727464712741 -0.15847231934862099 0.23610520562944179 -0.21726768209602981 -0.014957571652463053 -0.27085002057235585 -0.045255371405572058 0.07987609525104726 0.25962078324498294 0.097411387602555105 -0.08232486121621943 0.036824259662363877 -0.024929086143478791 0.27270010059589156 0.40020934124903546 0.3467550344631592 0.091009714732883731 0.21403044440200686 0.083013581276010995 0.2490700118681517 0.24799114139342329 -0.029853309300659162 0.030610089578773977 -0.29033123467997007 -0.095491909458255073 0.21421646738379255 0.22116264967002017 0.33199062945792757 0.25630061565482326 0.27567303247162978 0.090361307374692196 0.30253612601828261];

% Layer 2
b2 = [1.0189884156593945;0.66203915192445284;-0.31512139800703926;0.69419034914773581;-0.98524012450242937;0.0091783253808453459;1.0061269075391133;-0.38344076537898802;-0.24622563671645623;0.86113832908063326];
LW2_1 = [0.20151055639389537 0.33509698488711753 1.2649368838422022 0.96768575072040663 0.044662062936035793 -0.058386990088451968 -0.53074516970279151 0.32330831078268846 1.0465596319201276 0.47552343737703306 -0.18576500484878836 -0.44783762890513945 0.57248786100701121 -0.41298265273649415 0.25174336394175123 -0.24047824182175875 0.95774297269060504 -0.19423333247074187 0.52301691820570106 0.57805435185364717 0.90858074705420522 0.40300242317945145 1.05338095188884 -1.0174745404129384 -0.58694791078057995 -0.63138323632198645 -0.73241958669130358 0.081141387681964175 0.75420369706387091 0.5929323892641577;0.8415224618310696 0.10989688265400777 0.44087614561060806 -0.81105039732321949 -0.025951638633769383 -0.063806847889780083 0.78011941955285546 -0.35674910439547564 0.82834125691900318 0.96713396300552257 -0.58467681830902574 -0.86227012696515581 0.50024832731366953 0.5792480482696265 0.023571609105246312 -0.33840925640427177 -0.83441215783229949 -0.7124738103869066 0.61719200125527607 0.47196415272287806 -0.5807879182156781 0.0063319200672360253 1.0587916114815712 0.87938553312102086 -0.32020339943508064 0.087754500494185872 0.10887346109372087 -1.0037933202067901 0.49456919799190935 -0.82283235120521592;0.058118276537268601 0.76636267815467041 0.78453348918676125 0.5812821347389413 0.72314903063093738 -0.71379902554658015 -0.58448794896780487 1.1986471389558233 -0.090339892788469225 0.40183487866632278 1.004036730329378 -0.4135530206939842 0.52179241377459462 0.34597254248956627 0.76884567190865116 -0.93203507606511371 0.68556403006820865 0.68756947602650109 -0.70631319926926883 -0.4163899703800335 -0.63662568453812918 -0.41915839079910611 0.38957173316962845 0.4059924752532707 0.8846879154881383 0.44645129286894703 0.85948119228693964 -0.77682373241638014 0.22892159964927886 0.034312073405712414;0.88991296969657518 -0.23686986700008728 -0.76551456062905732 0.56569782111581457 0.20096876037405373 1.0072585470356596 -0.16819763140492983 0.99041181891060137 0.47558574503393053 -0.69537616210425268 0.041188661814047754 -0.5777156911322856 -0.62637229835834096 0.53849612280646364 0.44967338637661264 0.54486454162453068 0.34838208863167142 -0.66053203525497095 0.6078544605655406 1.0137169456839492 0.53801493543860068 0.35712612059251919 -0.85950690153905296 0.97551411783020869 -0.41491154125675261 0.49676422981637119 -0.72813373778034907 -0.63482537688420748 -0.083103709268267628 0.10161864954306446;-0.66407276834712259 -0.34753775935699532 0.24310358815896807 -0.73453809529366021 0.58135280890539687 1.0651915081354519 0.5516832246069362 0.46384396687163981 0.49485395797171966 -0.45972037789467879 -0.60783989890218326 0.022181615232297162 0.88607963710298887 -0.55330716547672998 0.41216973472654739 -0.063138084413514761 -0.19373605185387674 0.23083789796065299 0.036988250653813191 0.28408181321359638 0.18964366969331384 0.20703037706928099 0.27885813784830393 -0.21520437240766396 -0.64077905492268739 -0.46839928750047544 -0.56754924591775791 1.0417284439722563 -1.0259316161116545 -0.090096679358164206;0.13720416803028429 -0.47875079687529981 0.36774934243533947 -0.21710727793966345 -0.26241355596759242 -0.08657810672052231 -0.25121357355128254 0.65051545761477947 -0.64904790101368326 0.23592729248825092 0.38503140993378188 -0.91094318670335328 0.74191745347310423 -0.97180247665756503 -0.95522114088348697 -0.60025844574455112 0.21027216217849268 0.4070409107229459 0.96292274740586803 0.77539612613774844 -0.47075232080674639 -0.029513200941062821 -0.95591576692150881 0.33311743698132451 -1.0563787167715937 -0.0088595427107907854 -0.94744742571558627 -0.77212866439433148 0.30914829380102016 0.55141221625693093;0.62030918985834282 0.35084115811999855 -0.45949209942683167 0.29632500886334467 -0.065919044596948875 0.42416495451838426 0.41754457929384375 -0.34689909985216777 -0.29348138726323436 0.13098997068047485 0.052124091970324936 -0.29412824152972827 -1.1032916812311795 0.0011183891091612807 -0.76021331767202982 -0.10931664066860036 0.63134444833485637 0.10076122354427333 -0.34423560055429858 -0.9947666133307842 -0.73255454304702949 -0.18236548033173997 -0.74664850720517451 0.7596200777569706 0.80722419330318229 -0.98554358396929764 0.17749078673976268 -0.61225924585454139 -0.73770643785912604 0.13188552217919869;-0.629023377907593 0.5384324638985899 -0.028024110849262505 0.43625927948509152 0.29421363912574455 -0.76230043942952985 0.83844901380407222 0.27212780786659529 1.1035289733369418 0.99388502788696365 -0.94362453951891656 -0.58069205904388521 -0.12191120352407353 -0.22602913571080208 -0.19072619878879932 -0.64202895545420402 -0.81550992080347839 0.71589327022580584 -0.9503337153814464 -0.70368616904707182 -0.24967275771414818 0.062204430343038089 -0.65582293146362247 0.019434776980524874 -0.75394622011706247 0.63640888766720316 0.38723910521165067 -0.55798066343299391 -0.55136605666343885 -0.24803526563048206;0.7644287310727369 -0.56769404220031094 -0.35111902176025489 0.63552520193084472 0.92592910210629165 0.032035230321255735 -0.89169696500337081 0.95706834279925923 -0.31308102460563025 0.22456835168831082 0.75572652327801082 0.80608210236700761 -0.41549926429033679 -0.89406141611906897 1.266490992013545 0.63647391406874432 0.78188718215538677 -0.9634258985322296 -1.0342239343707442 0.47654171661114636 0.89513133430135283 -0.1237735568460413 -0.69212719014331558 -0.35270981090237552 -0.21200788965188413 -0.61249272916057185 -0.92405838920115024 -1.0031776788642415 -0.71540397604117434 -0.53760414152123259;0.51917481034111401 -0.14010008313649872 0.29895592041539593 0.5321478238522902 -0.94824895608547588 -0.5419250347510649 -0.57601571125137563 0.059813203230441814 0.021336684058192886 0.22576455001050008 -0.2942507147774458 0.22449704361033979 0.15709748444108568 -0.43357714243974477 0.45488071977189615 -0.23976853398338069 -1.1376436637641738 0.53983358008175963 -0.0035812760637584286 0.96177062903448507 0.80723274314053395 0.18272304504973913 0.50251242749451785 0.96988861646379343 1.1165026945671654 1.0382020285972158 0.52253006056457429 0.67678270521308659 0.99936243617960419 0.82620843487186291];

% ===== SIMULATION ========

% Format Input Arguments
isCellX = iscell(X);
if ~isCellX
    X = {X};
end

% Dimensions
TS = size(X,2); % timesteps
if ~isempty(X)
    Q = size(X{1},2); % samples/series
else
    Q = 0;
end

% Allocate Outputs
Y = cell(1,TS);

% Time loop
for ts=1:TS
    
    % Input 1
    Xp1 = mapminmax_apply(X{1,ts},x1_step1);
    
    % Layer 1
    a1 = tansig_apply(repmat(b1,1,Q) + IW1_1*Xp1);
    
    % Layer 2
    a2 = softmax_apply(repmat(b2,1,Q) + LW2_1*a1);
    
    % Output 1
    Y{1,ts} = a2;
end

% Final Delay States
Xf = cell(1,0);
Af = cell(2,0);

% Format Output Arguments
if ~isCellX
    Y = cell2mat(Y);
end
end

% ===== MODULE FUNCTIONS ========

% Map Minimum and Maximum Input Processing Function
function y = mapminmax_apply(x,settings)
y = bsxfun(@minus,x,settings.xoffset);
y = bsxfun(@times,y,settings.gain);
y = bsxfun(@plus,y,settings.ymin);
end

% Competitive Soft Transfer Function
function a = softmax_apply(n,~)
if isa(n,'gpuArray')
    a = iSoftmaxApplyGPU(n);
else
    a = iSoftmaxApplyCPU(n);
end
end
function a = iSoftmaxApplyCPU(n)
nmax = max(n,[],1);
n = bsxfun(@minus,n,nmax);
numerator = exp(n);
denominator = sum(numerator,1);
denominator(denominator == 0) = 1;
a = bsxfun(@rdivide,numerator,denominator);
end
function a = iSoftmaxApplyGPU(n)
nmax = max(n,[],1);
numerator = arrayfun(@iSoftmaxApplyGPUHelper1,n,nmax);
denominator = sum(numerator,1);
a = arrayfun(@iSoftmaxApplyGPUHelper2,numerator,denominator);
end
function numerator = iSoftmaxApplyGPUHelper1(n,nmax)
numerator = exp(n - nmax);
end
function a = iSoftmaxApplyGPUHelper2(numerator,denominator)
if (denominator == 0)
    a = numerator;
else
    a = numerator ./ denominator;
end
end

% Sigmoid Symmetric Transfer Function
function a = tansig_apply(n,~)
a = 2 ./ (1 + exp(-2*n)) - 1;
end
