function [Y,Xf,Af] = Limited_DataBase_NN_25Neurons(X,~,~)
%MYNEURALNETWORKFUNCTION neural network simulation function.
%
% Generated by Neural Network Toolbox function genFunction, 03-Jan-2018 21:01:11.
%
% [Y] = myNeuralNetworkFunction(X,~,~) takes these arguments:
%
%   X = 1xTS cell, 1 inputs over TS timesteps
%   Each X{1,ts} = 135xQ matrix, input #1 at timestep ts.
%
% and returns:
%   Y = 1xTS cell of 1 outputs over TS timesteps.
%   Each Y{1,ts} = 10xQ matrix, output #1 at timestep ts.
%
% where Q is number of samples (or series) and TS is the number of timesteps.

%#ok<*RPMT0>

% ===== NEURAL NETWORK CONSTANTS =====

% Input 1
x1_step1.xoffset = [0;0;0;0;0;0;0;0;0;0;0;0;0;0;0;0;0;0;0;0;0;0;0;0;0;0;0;0;0;0;0;0;0;0;0;0;0;0;0;0;0;0;0;0;0;0;0;0;0;0;0;0;0;0;0;0;0;0;0;0;0;0;0;0;0;0;0;0;0;0;0;0;0;0;0;0;0;0;0;0;0;0;0;0;0;0;0;0;0;0;0;0;0;0;0;0;0;0;0;0;0;0;0;0;0;0;0;0;0;0;0;0;0;0;0;0;0;0;0;0;0;0;0;0;0;0;0;0;0;0;0;0;0;0;0];
x1_step1.gain = [2.11618257261411;2.13389121338912;2.13389121338912;2.13389121338912;2.13389121338912;2.11618257261411;2.10743801652893;2.11618257261411;2.05645161290323;2.09016393442623;2.21739130434783;2.30769230769231;2.14285714285714;2.04819277108434;2.08163265306122;2.04;2.18884120171674;2.17021276595745;2.09876543209877;2.04819277108434;2.07317073170732;2.06477732793522;2.06477732793522;2.05645161290323;2.07317073170732;2.11618257261411;2.16101694915254;2.04;2.16101694915254;2.13389121338912;2.09876543209877;2.09016393442623;2.10743801652893;2.10743801652893;2.14285714285714;2.10743801652893;2.06477732793522;2.09876543209877;2.05645161290323;2.10743801652893;2.14285714285714;2.14285714285714;2.18884120171674;2.11618257261411;2.05645161290323;2.10743801652893;2.07317073170732;2.11618257261411;2.04819277108434;2.09876543209877;2.11618257261411;2.13389121338912;2.08163265306122;2.14285714285714;2.09876543209877;2.09876543209877;2.125;2.17021276595745;2.08163265306122;2.09876543209877;2.09016393442623;2.13389121338912;2.07317073170732;2.07317073170732;2.04819277108434;2.09876543209877;2.06477732793522;2.09016393442623;2.08163265306122;2.06477732793522;2.07317073170732;2.10743801652893;2.07317073170732;2.09876543209877;2.16101694915254;2.10743801652893;2.17948717948718;2.09876543209877;2.07317073170732;2.05645161290323;2.06477732793522;2.03187250996016;2.09016393442623;2.09876543209877;2.06477732793522;2.09876543209877;2.125;2.06477732793522;2.14285714285714;2.10743801652893;2.14285714285714;2.03187250996016;2.14285714285714;2.13389121338912;2.11618257261411;2.05645161290323;2.09876543209877;2.10743801652893;2.06477732793522;2.06477732793522;2.10743801652893;2.18884120171674;2.06477732793522;2.14285714285714;2.08163265306122;2.11618257261411;2.04;2.13389121338912;2.27678571428571;2.15189873417722;2.13389121338912;2.06477732793522;2.02380952380952;2.09876543209877;2.09016393442623;2.2972972972973;2.23684210526316;2.04;2.125;2.09876543209877;2.09876543209877;2.23684210526316;2.19827586206897;2.09876543209877;2.04819277108434;2.07317073170732;2.06477732793522;2.09016393442623;2.06477732793522;2.10743801652893;2.11618257261411;2.16101694915254;2.11618257261411;2.13389121338912;2.08163265306122];
x1_step1.ymin = -1;

% Layer 1
b1 = [-1.2803677325000216;-1.136026678980901;-1.0327635068808176;-1.007613617939392;0.86288409634034069;0.76503963784077755;-0.75072163181730667;0.58587030335813561;-0.52121248144618926;-0.24212273800571113;0.15599009875440747;0.17589822457490004;0.064992422214844428;0.095118809295719614;0.35788982975984701;-0.33683610166738498;-0.46474155718241056;0.42619770444591731;0.67991766411362464;0.84529085117819303;-0.91627285847650342;1.0166173715990015;1.1453838909049376;1.0965905939770806;1.3548768513646423];
IW1_1 = [0.089378079757687204 -0.037195697564531061 0.083945837993281411 0.051199844614935805 0.21436056133156059 -0.012251781885974054 0.040797603025958251 -0.068769539473456584 0.11320105780037862 -0.1117956710003952 0.20636232582906486 -0.10246271411428362 -0.059312808358639946 0.10986702481184647 0.056203283201411207 0.13340412985252886 -0.094303514535232572 -0.044316095502931037 0.089751707960751242 -0.1594847971083512 -0.23500606366209789 0.2772537884233412 0.29679803472212202 0.23171677856783446 0.45579421137797782 -0.16355087823923292 -0.3578687719133789 0.18279855294672956 0.037774568701203132 0.077298471588871917 0.12762519644153938 -0.12260112706295302 -0.048602074509188083 -0.287418698912635 -0.39259361683761185 -0.50190433986523142 0.05109141405429149 0.045673708484401714 0.12829285239179555 0.3363101657733451 0.050976059819119686 0.19509603057264202 0.016686508014646568 0.061307125945774969 -0.2046019487924525 -0.12743971294383166 0.043497116777077613 0.11507668656155674 -0.19932618400685048 -0.0050628740638444629 -0.050762838367479204 0.093660457646332518 0.32458286683225734 -0.0592544841376937 0.52356536597950531 0.18083243591543294 0.044503868840787074 -0.17081788226874073 -0.017528706363607819 -0.11029969732392858 0.13875448324627179 0.18855389689122182 -0.1231832877627632 0.1788672464444602 0.10593467853443357 0.07932997239782251 -0.18984068228365159 0.026080134559029088 -0.0021912185696480158 0.23949528239159762 -0.17062122947928962 -0.057318756770933087 -0.14622281935421949 -0.029701147557637263 0.19421043960278242 -0.023442316824060824 -0.16552546981743091 0.02586469477441148 0.35313402119889858 0.21478864133643394 -0.17462616309981319 0.31886917657778741 -0.0032428038571909287 -0.17825378141719506 -0.010776967929750433 0.017874939282943349 -0.078967530668666838 0.084147927879468717 0.22648272299029498 0.20469416019894027 0.28487141356725187 -0.16344561666846871 0.018762492862289142 0.2549502995929554 -0.29105559964553729 0.11500909967604536 0.029691443223287477 -0.19146363317144124 -0.21780524227873735 0.20123588925313396 0.10779604128357989 -0.04949190914319377 0.094022181086004672 -0.029022488783121188 -0.21495015560830927 -0.23360013554091355 0.065700689210756516 0.11751056914402447 -0.040039762842989157 -0.18075385313862682 0.09811680416456979 0.12250550466601862 -0.085384609510899406 -0.054485669738584999 0.050962300434017831 -0.040262452892169363 0.07167216803385569 0.021152513202637724 0.046153208095332077 0.21036104220153878 -0.17291174210277088 0.16706567009933843 0.19342142275838389 0.094292064756556715 0.12731119917222691 0.1271789646869865 -0.11851296519480968 0.1020384205489856 -0.047664120062161613 0.18665050814318274 0.055905900712209543 0.25490242842971694 -0.18171712822980182 -0.25678774591095482 0.015847594823186241;0.18290100418753186 0.19793455489373188 -0.17425478973825884 -0.25757700267020334 0.10600928966519824 0.23282435757340142 0.31666152410784365 0.36026171329882611 -0.046317115002381198 0.097269865582367526 0.30277306943522203 0.25681638809974694 0.05746071502897257 -0.11965625906857322 0.0025059504691453218 -0.051050650581644846 0.10482234606707609 -0.36566306243156277 -0.11173810869068783 0.11629958503995566 0.22139945816926343 0.59324698222996763 0.21736972996871545 0.16611120641115534 -0.020386494723296945 -0.04014669517738418 -0.15727508273532875 0.22140182667486227 -0.096791823506668984 -0.053831849680566694 -0.18288430716566151 0.096786879175442347 -0.34572836960685671 0.1032996525463357 0.17204687883428715 0.26211265412093648 0.18956512720685892 -0.20685574364221038 0.28673732762665516 0.099219079861963697 -0.28270103760786769 -0.028585460788898363 -0.046721101078707791 -0.063183701131723405 -0.12317043711049624 0.085129851757863487 0.085988757218223702 -0.29854769536261233 0.25029448960944189 0.47400210330941561 -0.055154678841124551 -0.0058558599781319129 -0.31510160303345724 -0.03194530424557597 -0.077781399286987615 0.20160587293646884 -0.19066988310298172 0.20618888406175909 -0.004544250819850661 -0.16253623837193917 -0.040650414657568613 -0.1094139282760271 0.20233098131709074 0.43028352801242126 0.29157935570006754 0.053565331564252007 -0.27497775129313995 -0.28636953134704146 0.36875978401668918 0.47832161389958955 0.36615788903079038 0.31830462358615375 0.20682181440737293 -0.006805594729285728 0.012237658111334364 -0.13436969083192143 -0.22619377162852158 0.20836912140347702 -0.063846365123435819 -0.65820744668102416 -0.52077939123387584 0.20142169610971328 0.10065502126945371 0.24679876791465477 -0.12764735207398992 0.09950771526280576 0.20304777113650449 -0.092246712639495479 -0.10063588464631776 0.082726893639246249 -0.040404235430193128 0.07606761883347872 0.12783583325253589 -0.16033009305945714 -0.47098026034609713 -0.33245335291090844 -0.06284468169748994 -0.14419083434486926 -0.1537216357164409 0.18530093999901304 -0.041274657474387057 0.080702607785669539 -0.00695387822139726 0.27974388057755989 -0.18196558164200805 -0.097565657540124417 -0.0024724626606536845 -0.15214285909061007 0.25597456922155526 -0.23550386791016695 0.006197702472012229 0.27946411832350326 0.22547455136020411 -0.071341105997834039 -0.019849994580092775 0.29766199914992819 0.091821351362522743 -0.048134749249418858 0.11896355737043222 -0.16860309294629602 0.18139598003500912 0.1277559495071777 -0.17973083649721605 0.11856429917160746 -0.078862046649770257 -0.063610124489607053 -0.23636561167940193 0.10442718824364194 -0.16424288558820604 0.18472540333139206 -0.24715222586966668 -0.032249277377591076 -0.06060903531760347 0.04440041693136048 -0.0045746748753385663;0.10616997916386542 -0.079537809049167629 -0.19591319019752926 -0.17840266498099044 -0.091401073914052833 0.17723836988936947 0.60002960703237374 0.10590166385878076 -0.012029970400178707 -0.17167604218502744 -0.1347764466256674 0.11391805499017631 -0.10604784800591179 0.0097281078986200011 -0.10579481449914181 -0.084557376431176126 0.22303309677897831 -0.14403674660551882 -0.22776904525540909 0.43094534263926781 0.47490572836606537 0.33244787037199597 -0.39942691451399776 -0.10553568779509059 -0.21146349704853351 -0.24359932347074689 -0.42328414893451222 -0.024811044807956283 0.10172952401764747 -0.16533217549268026 -0.19672006055627123 -0.19169128378372707 0.16530292073604877 0.071609228634651925 0.39296598401676813 -0.0088633545986051727 -0.085087760684558353 0.043030650874396774 0.017095532734167095 -0.049330035941808091 0.12918491531814694 0.16568099264591776 -0.29008908902622804 0.10319610787849537 0.15071578626734283 0.07197369228687453 -0.020612637558797667 0.37254966547750906 0.30460475172244045 0.44021778048262405 -0.3916048789616362 -0.32303760979053869 0.24916952850656549 0.23674484586155448 -0.11618750932185465 0.25829416830660923 -0.00041375443357269181 -0.095090394730767455 -0.11235980362197348 -0.0061673295985635434 0.26403052071114708 0.012157799769186239 0.25768786935908322 0.35335206670329034 -0.015993446702033468 -0.20209310741173217 -0.41365902360377849 0.39763135630566948 0.23084202517062904 0.14594695995499593 0.45034320582308685 -0.014234759204256021 0.1183183321282308 -0.1251348407398844 -0.13461885572775337 -0.10871085940875697 -0.01588888929423439 -0.01844408778186259 0.63460482850769384 -0.16441532706839329 -0.15206743458617336 0.07651101008916579 -0.25068196755907379 0.067955792673490292 -0.14941635640979856 -0.12389162832782422 -0.32593550823476869 -0.16416838126030875 0.044709888543364128 0.053084408594181565 0.11438542781473227 -0.26683220256889639 -0.16175864074976762 0.2169578003777396 0.087227974654414175 0.18250100381456857 0.27799898126995481 0.17628107547243907 -0.14259418251051612 -0.26244774895366324 -0.21738622946072622 -0.31628444416430629 0.023311194229391805 -0.086289049418274255 -0.11037281979930443 0.029299412795782576 0.0066754907301702759 -0.16953319877379686 -0.17937730432505711 -0.055103445971198331 -0.060925781056711724 0.29107269853547446 -0.14111426869164523 0.28085203869949699 0.077225770625261467 0.0274286964738868 -0.032573369496117117 -0.23474216049192465 0.049883225928298164 0.11161384153910937 -0.015299615933712393 0.01609780018902051 0.14959153200535261 0.25413497237201499 -0.40444695429925714 -0.17158994840516947 0.14873300764361905 0.020010464171330847 -0.12393991835805501 -0.051130741420530916 0.20275244635660958 0.12475450120799798 -0.0092566759460801472 0.022905868910078127 0.087213545257701017;0.078253490285973656 -0.14435241139574079 0.025092266800406462 -0.017550105786465715 -0.17101098799461603 -0.10532308505146229 -0.062666576949829994 -0.041808133964069641 -0.097648677645952725 0.18075092561247511 -0.11548540584487417 -0.26512040871566922 -0.10847263453580967 0.082290194905891928 0.021059063857437263 0.15566430383199503 -0.091173331172970079 -0.35876952007878948 0.032557419929816055 -0.024223860320685912 0.0087086858993515107 -0.18421224759627039 -0.17809901739002312 0.47374425203577902 0.28649436492405461 -0.061712583399090234 -0.23266645459351148 -0.18361324604021897 0.13144330925244557 -0.14687787725759371 0.004099701122216348 0.076594696441788498 -0.26805831144110592 0.087465529513672882 0.071076362837367554 -0.087012625899398247 -0.30635040344844894 0.072314688029998977 0.075793174357969881 -0.017629125298248057 0.42396265921036974 -0.1424304543818305 0.0059960591144330271 -0.029236352394944414 0.16930900078379188 0.018670392315613293 -0.22413774865288189 0.047062934980737804 0.35053941137153111 0.033292401887177435 -0.19591454690207447 0.27419578155430951 -0.21210260874338643 -0.25724440324157788 -0.41627766767840163 0.15862647699200069 0.13351901580247399 -0.21184725751524697 0.17770349229523713 -0.23451276781090646 -0.15704525546340337 0.017551437376854145 -0.077631258240485404 0.35036905124362328 0.13919823270251128 0.21788357062235347 0.34393916219968701 -0.13251907601484936 0.06173899421845417 0.15042413907092086 0.077368671276941067 0.18912043549190982 0.076995424880696897 0.15345475973647255 -0.20419995746707698 0.042399868941042071 0.03064191812154891 -0.26300124873729946 0.67828124245724974 -0.056524689028592916 0.08154851849166854 0.064659933058610092 -0.070107801896229033 0.18762180149934479 -0.032286869970602851 0.21923931689616011 0.39871197741543646 -0.20818624927380489 -0.29665708148336706 0.11256373627166144 -0.1338290046204314 0.023559434550481755 -0.47097623285629847 0.25547358527734965 0.24493324645438089 -0.011684934320989175 -0.16450769718499056 0.26434322403575378 0.26489704615659554 -0.13179157284221063 0.2501641113385959 -0.20533169325746697 -0.078258985935407338 -0.0097189420237281561 -0.069092336669441812 0.13066898632599827 -0.2091566422976934 -0.13667179824396453 0.1800195259860296 0.1670508696235084 0.0055867472589145742 -0.079312278807744357 0.23389170257082012 -0.041783496528686834 0.20666280072400262 -0.12015493104559617 0.20937343521494856 0.046417317073859356 -0.064869589858290791 -0.043048730038072643 -0.051860811272358323 0.028671998363858104 0.077723283458673992 0.0048492921577910891 -0.057008749399243511 -0.022793178053816698 0.11808066497444986 -0.17968252318103406 -0.10392503334755381 0.027032022166691771 -0.20649905511014394 -0.13802479978787219 0.11066864208839272 -0.22766869564631909 -0.11037920329438911;-0.20536312203164833 0.044331273077566624 0.4088798815396395 -0.24696720556929938 0.15334349920951196 0.086814391599990937 -0.29199478611385743 -0.15199938512026898 -0.17686354179962535 0.0023398438908420497 -0.30858646116752958 -0.02715662363076771 0.18633639459009688 -0.19215889721437096 -0.18543813722140598 -0.053416448638524953 0.074519114150428847 0.22011754299018421 -0.0018143035557424503 0.32199745670742846 0.20440263413208559 0.28271179249717793 0.53884252499976804 0.22179158369566007 0.27370724950578662 -0.025011558642622708 0.10474695714999036 -0.28189870347472512 0.034483948731651004 -0.028359973814205044 0.070910748313560909 0.082290384196806385 0.04511447380509135 0.14941414588138574 -0.11230977780810643 0.17961244329639039 0.24309263026138278 0.38710388510342847 0.07699155710217756 -0.090897748496212877 0.20324738332544914 -0.075241440738437609 0.16541764086467498 -0.099703957665991411 -0.12147754937288746 0.018655384556589445 0.092770504453618424 0.052078235799286769 -0.39300552390508797 -0.31288203650204227 -0.11434357942558353 0.23871850064032746 0.33564284763016911 -0.093126068769418632 -0.041476178506421199 -0.18410865756943465 -0.056560127805535564 0.053571726648119794 0.087863900522243882 -0.10952480853530575 0.16983407413801282 -0.0045695851824307304 -0.11992391758820573 -0.4749316985929527 -0.34071244517532462 -0.11716611863911093 0.4965254053532448 0.32415278751603377 -0.070824687952618148 -0.058765158486086787 -0.3484973642103254 -0.2784476570406213 0.16014454666230163 -0.085033969903062986 -0.015103533101835653 0.081385988644229051 -0.026463637340658375 0.29145024707432438 -0.43281402030227345 -0.38191817913936638 -0.48574550313267911 -0.037926873047663276 -0.13884900694999028 -0.0219222890026173 -0.0081490716256083992 -0.29369540373062797 -0.15732612165256576 -0.19046950077495137 0.066809024390464586 0.089117755294727846 -0.33927955126026016 -0.095651053170320924 0.39644399352295945 0.21961577429172563 -0.14290552912381657 -0.27278259821024264 -0.18754204576657849 -0.022541303107001313 -0.21944556978666002 -0.084214938082353571 -0.20149303316404407 -0.028380997069411308 -0.065604300328121604 -0.23227483470729837 0.17602308893539415 -0.097005725237363699 -0.1666179151569685 0.017605293570019713 0.28969970326540795 -0.060081718652431094 -0.062643523802231274 -0.13013619569214038 -0.055465586588661596 -0.047589561214538681 -0.15021281962939267 -0.056546388509095158 -0.22855502628250432 -0.17387808979740932 0.19819868426402024 -0.14384042024382757 0.008605435286215499 -0.0061051449784213273 0.098624435502316504 0.06761298557617039 0.11023817761411898 0.112490766063715 -0.24858334568483564 -0.051289661049490176 0.10642588254562649 -0.011532574011884324 -0.06842502845632413 0.080341567843777259 0.25732592052714448 -0.12108012527723838 -0.23771320054880812;0.0018897393918881494 0.072921938455749513 -0.093279669169535853 -0.13951845436205099 -0.24947834121708548 0.054224056072277926 0.34786821096336085 0.41103063853416233 0.04988888855965555 -0.24815954851136454 -0.13355925195609741 -0.36098316327162028 -0.029546988761164274 0.15034861715220538 -0.054991142433285192 0.089477023095342736 -0.13407613507278984 0.049888687782885771 0.1005278561211799 -0.29341343773723355 -0.13460421997785191 0.39065390020517055 -0.058466757556720095 -0.056121810677646031 -0.21845464346987298 -0.00021748553546168357 -0.37430954473555889 0.18932440011422391 0.17656719570272045 -0.17094982494057964 0.18368980651572586 -0.15233642632892255 0.12464512798746781 0.3049562711596302 -0.044495743159228641 -0.14088214440734059 -0.24139971433212229 -0.36941939584296146 0.17733246296016833 -0.026366883179669325 0.50214410578775148 0.33180260148875007 -0.11482644795902783 -0.12066574416335901 0.0473929907606166 -0.012709309388223311 -0.042514668835630508 0.59777622102211381 0.22157217745617624 -0.24366896183690276 -0.0014395149635270063 0.55853872044629782 -0.45569590392749371 0.18389174110182227 0.23380858891632234 0.43674117570754328 0.10251918121084902 -0.13090538637503743 -0.096553515377896221 0.03143684052442703 -0.04252644909693612 -0.19726790459205396 0.088980162641159904 -0.029610981051104455 0.13329830271959514 -0.28598884763243843 -0.078962302002990412 -0.79681902655924042 0.10203073930652989 -0.040968183298963887 0.13131397278161736 0.21043772506666142 -0.14304926518032576 0.018175574814127776 0.089846698695732322 -0.23758680753325706 -0.19161017827043683 0.090564230888529038 -0.25903722242057869 -0.41958237068788845 -0.41053600940392709 -0.34277207024600748 -0.023856418736172679 -0.1416592138723082 -0.11483902340935995 0.11040019857560736 -0.23718225965647854 0.098464556304618506 0.047059903113086568 0.17752247179272521 0.071811239640415206 -0.15514558593796052 0.35729752203317555 0.31451945929526692 -0.42893091576714287 -0.20438496759157562 -0.18666824320711259 -0.034438155873486261 0.20422989497123525 0.073395092504924014 -0.083602876134837301 -0.049781034950667706 -0.17456819804800353 0.17779071024638773 -0.061998091680212003 -0.16569474703033787 0.086078968886905999 0.17345081781264557 0.35360025071972223 -0.089036830452662918 -0.043443915342024034 -0.038850323463650319 -0.25403509298961041 0.04403354471217933 -0.1436669126524279 -0.017360801799576841 0.09730972144581361 0.16501649189990281 -0.19834840787782756 0.15206777048879389 0.11999144323046357 0.01202373216297194 -0.21558490099748934 0.13208367733727233 -0.075715127823285711 -0.22594849156970107 0.088129694395774394 -0.33309008509793714 0.0070551430056555921 -0.29968153444854156 -0.041555203583655421 -0.046168943643257819 -0.0070909474181655319 0.071141940817162477 0.21236969186557117;0.030126867225548842 0.11295825654301724 0.1199612452187462 -0.12299168273189934 -0.10200699679413704 0.25874454429709148 0.32546429080532835 0.10417386235256151 0.17971099417946981 0.13232629997266571 -0.32614613536289355 0.045600278652888106 0.051429595880220412 -0.11885913120824776 -0.12708826467027218 0.096800924130447996 0.069462655601100265 -0.49056426712769369 -0.19095296393173136 -0.081971116776516403 -0.05603007451019526 0.14023153234770366 -0.097353610712327371 0.70526772336204291 0.51940528990313917 -0.27006033677989932 -0.57856581483931302 0.14653910838310524 0.10189579482346665 0.088121359565349153 0.021537630842342878 -0.23055936710119135 -0.18267801027401026 0.070422993412547485 -0.32200035595737386 -0.2532508057710065 0.082456315898672874 0.31240290100646728 0.10793911784521064 0.30471022020886773 0.10105493148676138 -0.29632244183212475 -0.017562968921636411 -0.082051794503352649 0.16189431348898684 -0.17316114055982743 -0.2500088310119214 -0.2685043628955367 0.075624899515226912 -0.013848646948292576 0.1467323001231545 0.17038693135484562 -0.24085950619094523 -0.22189911658795042 0.30118134861026746 -0.15955072157771788 -0.2154277258623512 0.18237996648239246 -0.072602111944844019 -0.051215182612911442 0.11104876441129771 -0.16436857858532675 0.0075794022465709137 -0.094720821941736144 0.047872764237825952 -0.1703825161722583 0.35899680877460427 0.044976164171608789 0.17967926710102433 0.15223441474250732 -0.047219565024794033 -0.053983716194749287 -0.06190195550444489 0.23558830643695766 -0.10870766051145796 -0.25083831851826099 0.026883823669805768 -0.064585293200816962 0.68181937825056804 -0.36678416481091503 -0.62786706609687359 0.42895141304824114 0.10669487074715431 -0.056948338930034398 -0.0013672229615211979 0.075310938402894004 0.33800981042732509 -0.083649864687052364 0.021126193712736951 0.10020684015700698 0.17934008547932054 0.17982729885960058 -0.33953584095728256 0.31859044675486609 -0.18603489351268496 -0.38348172049715068 -0.23480990437043014 -0.099623736720483344 0.15622998212129036 0.28856052428553369 0.087164153124630425 -0.26995952083673402 0.090013383544788175 -0.13645905007783196 -0.018663096334436278 -0.055616315115609737 -0.072379772323293595 -0.085757648773900658 0.072779635172642104 -0.17452955581804036 -0.27411803629721304 0.083588346321418094 -0.29058362306089441 -0.11271984843400169 0.07799531353368655 -0.050411284672071496 0.11301162358302984 0.020360241370116772 -0.042861430001702207 -0.097195223673647496 -0.16221362286294241 0.09043011526491998 0.0009391558161462812 -0.26447419393836386 0.13812371436383908 0.081801290564248813 0.052816418943299692 -0.29682081481304534 -0.043223641746541086 0.22213192866036091 0.14709335173736782 0.0013868975062875 -0.054887232251336668 0.02303207042913475 -0.19056487247948781;-0.032382170861027501 0.093222054915832478 -0.20708059562070161 -0.030356945468612031 -0.013499561452330838 0.24473242836892373 0.20654615394237408 0.3978897433715225 -0.019475918376177834 -0.26232044462549015 0.22366588555472305 0.30908648059618926 0.058128712679556105 -0.12453320562853429 -0.17695667272518434 -0.14778975299827238 -0.067356681106111468 -0.032010081210800942 0.33189239800216647 0.04285723572049175 -0.0025609614192000914 0.44560247740480591 0.020247590364796723 -0.18171225992955153 -0.082496569522478094 0.0075469459238673535 0.20590570767939331 0.089560515820553868 0.1283092511102896 -0.017910880684291371 -0.058420445616065429 0.23411493985914261 -0.09153689006135711 -0.066436186655857696 0.25269407259847659 -0.079125051002884902 0.15553038022082671 -0.32577244263595967 -0.019444598405352669 -0.20173752734649125 -0.14671804441389474 0.20684402617937445 -0.055560222620576721 -0.060654569154720568 -0.12164049384072163 0.16896221069099071 0.07838533115900892 -0.12965345567551126 0.15573056486504672 0.16125199485762173 -0.19036018394388854 -0.40128539266366203 0.14663335256263232 0.22170017345740589 -0.33305388187629104 0.027980288025890789 0.13894134602143812 0.11980154863287962 0.046574618486200418 0.10942001352471259 0.037022640136909216 0.036398169367258544 0.080837254372501693 0.094047606108926735 0.019325002470774646 -0.47946119193544912 -0.15915855569632859 0.012717109789865028 0.32653386447649485 -0.27448291298775906 0.0082386503288866576 0.21806434612735376 0.11306956192862198 -0.1604538908613069 0.094732103873979207 0.14342881358134349 -0.075414505529217205 -0.2389925869565411 0.0012983902371379232 -0.2922733982682364 -0.50658422781620094 -0.035424128608033838 -0.12017991308871472 -0.098036673678079611 -0.11786171222467154 -0.18601722002301685 0.032724638085076745 0.28488220502690392 0.083457991264023826 -0.16325333606733977 0.24564893995743861 0.040524532610649304 -0.3437761433340098 0.080410559716108193 -0.10795670851034132 -0.16190520676250075 0.29095431439493985 0.17133661323912466 -0.12636502114048834 -0.07745826799297191 -0.30024724233032973 -0.048631715025502072 0.12034470488932882 0.27857511074906782 0.15061494249475105 -0.11027322567573312 0.025308594951500542 -0.045882345262735331 0.037312319688664684 -0.21873954227308803 0.063210015232863626 0.31425335955086259 0.16797103640452193 0.1203192512741431 -0.18337420941236535 0.090322950687453399 0.025949280373515994 -0.14004954766383937 0.16008170264295038 -0.11090567193360298 0.1380519864838021 0.11516922191191521 -0.21059967987079381 -0.15395014067571638 0.091014258208831827 0.14080685994227535 -0.17274425167742566 0.14570904507337509 0.0091815790153533458 0.097229841443659287 0.022374751730148575 0.1975727060789885 -0.092398276504998711 0.20290493838088342 0.012265513964228441;0.012727109425944402 -0.21990631309500402 -0.025197211813815765 -0.13129054926333511 -0.35889698836409756 -0.064550918495938747 0.025122011061025469 0.14436187776831266 0.24427106417667949 0.061823858865950349 -0.052114488773638189 -0.22329382628379565 0.040627120616385119 -0.054075070523475571 -0.12864445210162007 -0.16009846854841181 0.19354215007518777 -0.27363980132170579 -0.073986930461916803 0.059163236585318399 0.091130592400295682 -0.23231828729383544 0.10709994508675047 0.1172445680601239 0.010565863268415901 0.18328541394743247 -0.091226119695911614 0.094721565386588769 -0.18468475306855756 -0.1731232840346055 0.061041337292156626 0.071875716513600918 -0.17382437020300168 0.058087723971313843 0.55777748548453387 -0.026688818385852454 -0.26761260566413925 -0.23432985165610287 0.2026874193925936 -0.34721168392901991 0.28636027935925062 -0.045622336159277785 0.11367246697132176 -0.0053257137335707347 0.12563027343253 -0.056623283267753746 -0.22251209926720666 0.31247631118722735 0.15602891753807085 0.18771021756376313 0.12394572173942402 0.69020053645076418 -0.5335310967657223 0.034551690619849314 -0.13267043853581331 0.18074526258816834 0.26601429219819095 -0.12402440620705529 -0.060811213307487143 -0.049875097596127363 -0.082237098010763843 -0.012819804091647007 0.36145268197403596 0.37358975976003506 -0.018786183664420256 0.3877537312637428 0.52886540649107905 -0.49434599947097779 -0.11003695665680804 -0.12790947709343159 -0.11022087569934631 0.16141495548378507 0.063403828799577622 0.064795958109699139 -0.13795678400218517 0.12859904392524502 0.018592959336850172 0.21102499125553301 -0.14820754633381056 -0.18057636391133478 0.047129709795307145 -0.2134314574685606 -0.15605923291783302 0.17031856384352162 0.041247774117333429 0.12607907587364292 0.045779579821749662 -0.082052156153334402 0.08698917333296001 -0.23373365978641228 -0.013574814990305677 0.21835229212346036 0.018199369487497636 -0.060104592818384921 -0.15483702936152166 -0.1006720588043357 -0.4644472851012878 0.15935368038460032 -0.057106863040361437 0.20033570777494167 0.246356506925095 -0.2520810109031616 -0.024198556461039782 -0.12820585167049961 -0.27693131649283725 0.10626511514956435 -0.16154210742309094 0.024952536101279999 -0.098017624120989577 0.042844712524770533 0.21740072057721394 -0.29467179165054996 0.11704741384370669 0.23672431111245854 0.077069290033191268 0.00058756404756398731 -0.088654075783547434 -0.065428087961638612 -0.18178036223554839 -0.10279376320912822 -0.088904777311100247 -0.13052550751851227 0.056381461004788622 0.06209768137088275 -0.17520436736932712 -0.29284587048206251 0.023404383639340935 -0.44133684877621882 0.12405870532713822 -0.074194202707576498 -0.039428627293888824 0.011567923981546692 0.047289389033966657 -0.079811965090312617 0.068267776149819062;0.15166733063394719 -0.071594141297187538 0.019690793610359598 -0.49496967435424921 0.094735729556594164 -0.053716691748586877 0.21196826466773364 0.24834258890874059 0.0028958027147435541 -0.41451021913636388 -0.081077306542815836 0.16528982891487123 0.047881963354820208 0.056331655047074006 -0.11397850786453986 -0.1358406362167803 -0.15343312622927155 0.28564841111299227 -0.020443400125081845 0.19909024336506012 0.27104113582322181 0.70061555968276479 0.067640683450870251 -0.70728296877339458 -0.6277287891514246 -0.070692694616129231 0.13599997701007296 -0.079167805250696013 0.0085014195783274047 0.070694379637790156 0.12161698144867043 0.015379005696153985 0.40295799442948699 -0.27627354143915595 0.22817585926874218 0.22116616513525075 0.13015531203781738 0.17106575333229046 -0.13752730678377531 -0.041811514539705587 -0.14970897865117744 0.30190336520982936 0.11097657949130112 -0.0014940025058322868 -0.081771721029422872 -0.11656052863526888 -0.21710185586957451 0.4106323710789474 -0.18465289977659588 0.041781529420067541 0.030190785790508604 -0.20409548388982832 0.32710638742940629 0.10524071277445132 0.16282687359538639 0.36430540715585708 0.35879998223716081 0.057521559054848258 -0.22857956632998508 0.18426889775346619 -0.11189184892649603 -0.26684504416858595 0.08942871459080709 -0.14597742599325333 0.15695700388196301 0.056710267698692668 -0.78774486285240475 -0.053336256204931223 0.24928593713225708 -0.21396620242453063 0.55446907575904225 -0.02301084947000966 -0.2129954812128228 -0.17689566022189288 -0.17569470968546433 0.035840618882104269 0.046724579735972528 0.27631916261076067 -0.26925744771011262 -0.21728998986422435 -0.28813055145048444 -0.30651677693599799 -0.26637011573801805 0.14229561678476974 -0.24355506819295999 0.10718348955846463 -0.6063589944289659 0.13089524248531784 0.056991487689471765 -0.18225604395543882 0.018494016893853091 0.0076813328455638029 0.38041303525886067 -0.17152387844020101 0.13304258938723174 0.30385706465490364 0.56481310677061525 0.058549504856729391 0.02283917735280876 -0.12652104457144411 -0.27442980296472902 -0.026737819730777369 -0.16819978453330287 0.18696817994501591 -0.13709745473433391 0.15964652041138896 -0.1259117425293387 0.070759116036687469 -0.002807153834426339 -0.22556602470586393 -0.16696029550929284 0.29607692961528892 -0.0086118518124595252 0.025236273823983559 -0.22371458547017126 -0.29002648128054359 0.048861645086074289 0.083532284232130841 0.13029380781413358 -0.12378513535075371 -0.0002075884053216175 0.12576909383568166 0.18416635599236067 0.034154157601787638 0.12508217617224224 -0.010862303937760316 -0.13475238662996361 0.14654169938002687 -0.19027954916516074 -0.09214210041101073 -0.076150785267689911 -0.0053339912921127452 -0.043983290655140034 -0.026196120253565647 0.16051611287869721;-0.10976013732948692 0.15057789369349117 -0.10402849780605962 -0.1686840740113793 -0.18751424210313797 0.053041117271838252 -0.19131577146503187 0.18284173639428802 0.048850809828125695 -0.01550251344278937 0.15672322798033539 -0.12183199747430559 0.035616740218284641 -0.14917289663778147 0.069789982925445276 -0.12945211963651959 -0.10376509709610617 0.060820862140266503 -0.017745886722020751 0.25754090773330318 0.28697157512102439 0.035182515604688644 0.60889098318014612 0.2792687521567141 0.10535824456400988 0.25090147662487056 0.16252780402344547 -0.22896442009844806 0.15088566957772828 -0.21534168080859115 -0.10855157894829071 0.15194010068376534 0.041164532395037194 0.17354759543815917 0.26228180343429336 0.3816201536591512 0.37078572955849765 0.40172861873264171 0.24023254518838202 0.37037503363419055 -0.098061149984481441 -0.27845784238932642 0.0067461740667610461 -0.19605605025174566 -0.27738735379683988 0.017935468702554479 0.035137111769726802 -0.22635647738306908 0.002780788162526397 -0.00014962982853454818 0.055556468734753485 0.026204716799074115 -0.33776974785271713 0.13095919099007769 0.26313387813323419 0.13497604516201989 -0.043183039385996269 -0.17816747978212416 -0.22267888604401856 -0.094310577444607593 -0.15581805339020749 -0.0027893650010002505 -0.13599666512942982 0.13098229301062686 -0.25226549491080585 -0.15830992453216647 -0.47280889742841187 -0.02425042328752872 -0.22563656954949224 -0.19442223018337795 0.022245657886466028 -0.091871744998140936 -0.051059011066881134 -0.096909483584437559 0.07588419814883833 -0.12550134343535752 -0.13164446954478756 -0.17746291241973888 -0.33996218164875686 0.067229984214011523 -0.031880247497962283 -0.051920365873697992 -0.18681471212529113 0.01748036776369152 0.14512777628681564 0.10825467441243433 0.059185649436297727 -0.063976508044145577 0.1545014581358522 0.02342697279571378 0.023541026930545331 -0.057242527742685428 0.054890459655855955 -0.326191584718591 0.11156337123824632 0.24490031674298129 0.20254510410671503 -0.2294884278680471 -0.085575806527305814 -0.059951740656901828 0.13613610205428775 0.31808289627274222 -0.098344823849824389 0.13624237336454859 0.0042210669019855105 -0.11160125502072353 -0.011179569220893833 -0.10740788727868639 -0.054363695839087567 0.31144366206735868 0.13095657244742323 0.21671153524487821 0.28648573495724639 -0.12024512624805128 -0.038235905929128018 0.10291821916091935 -0.061770708552401195 -0.078012117556141208 -0.15776322117224084 -0.28678413176260076 -0.0076095387833500176 -0.12415140545458085 -0.22530833977861292 0.16113261029383591 0.14716638397589288 -0.24166702007176649 -0.064898428459502014 -0.1749046796855149 -0.054838135211948892 -0.16273823697092812 -0.0590432625570292 -0.21026781191120697 -0.069125458961548453 -0.11599579261347065 -0.23782452887972794;-0.18952542675753487 0.16659563910709477 0.098574327916414017 0.15237263097835838 0.1495816666439882 0.059037787525591655 -0.17406274501439598 -0.13246619412664842 0.1914125146703427 -0.17256685779209707 -0.10236015533728067 -0.1171367263627268 -0.065727383219898169 0.13597401788828978 -0.15085799762459637 0.1177857559595288 0.15964788946831945 -0.1064078641570488 0.20428726131783839 0.10022366993354913 -0.16421626942232992 0.00091871890956467142 0.17728168914426864 0.22708497438073133 0.18812878945556072 0.21198367728802162 0.029607438929486925 -0.040623147876389924 -0.089917747599097736 -0.071784650133700847 0.1112901218030289 0.19737977860775513 0.012279210110826862 0.21031716411648699 -0.081391561428376072 -0.048580751965257268 0.10075701100948524 0.15118639407890844 -0.030246629485195999 0.045219332130351057 -0.024701390025412488 0.043028652003761443 -0.052098352049118987 -0.039255464035684397 -0.013899309803063071 0.18136172556144081 -0.10730797379477575 0.047928789018797324 0.048560031429238058 -0.050087760901911617 0.039634690533179862 0.12562855261808392 -0.032816224158040655 0.13694726476739902 -0.052412674792533268 -0.15936392504121161 0.1525491788099094 -0.038792095072038207 -0.15535455292464651 0.071814238404215983 -0.13182717592493054 -0.10141572978421713 0.058325921131977425 0.26255201831940977 -0.10590086765236667 0.11105699258846943 0.23002495847597823 -0.057468971719172278 -0.14705789068102262 -0.0020512538877193939 -0.12161399808439403 0.067421305817701685 0.085912056432820613 0.097495202533723499 0.0027877571375396937 0.085488458597619207 0.13501490546615211 0.069152443439169334 -0.051743501768838358 0.20608526706992517 -0.058886750905862262 -0.12373414051272626 -0.10023944805012591 0.21315887524938737 -0.059959732172927591 0.2422964545732757 -0.0052663242090525341 0.21603942922099892 -0.12361834545257699 0.015227119178666315 0.17165773395013334 -0.06856941693988057 0.054324995754149251 0.055109560219211803 0.16239586053054136 -0.088270385194209183 0.033529784462723526 -0.11251443954883868 -0.1685266256164771 0.10725552117632139 0.2068737814191233 -0.10364487092966436 -0.078108323349470182 -0.19178346959579609 0.077013087299680635 0.19409738755903325 0.18992972895973376 -0.21722856194494364 0.12970492537599579 0.081088272594962749 0.045731615235280923 0.039342623485359988 0.059221140735222728 -0.024199349602468268 0.096826883554119503 -0.034290083158613552 -0.18298656569200533 0.036651407501281305 -0.014062547424464908 -0.046083997895645969 -0.10962890631595357 0.063910139781963637 0.11357587204986509 0.20342201892393708 -0.13597811667594562 -0.13623186358338035 0.11371623124118188 0.15692544068368036 0.032892737486159056 -0.024313843786677124 -0.00072687767631266875 0.21412554982837101 -0.20715564016808946 -0.20289951067647946 -0.058083678778403716;-0.071797962953279185 0.046776904965271635 -0.056267934587662924 -0.22904284004990477 -0.22084988558253207 -0.22641181496704166 -0.050862618609402221 0.096090967025967186 -0.12368405023703179 -0.068345612594463992 0.09123347870030199 -0.13195335733041827 -0.11782790489147421 0.20719750231688236 -0.039025203737799614 -0.18415450914542225 0.077009578415112495 0.28625750068135164 0.09087669794499785 0.0073114755753341939 0.039108780857622524 0.038931831342359877 -0.2264782459271146 -0.2734496572836268 -0.37080754601558935 -0.18041326055637952 0.28693101306130114 0.11100285074065651 0.088712053804811092 -0.02125112241578319 -0.15045455523658063 -0.11704690386485085 0.14164209816880446 -0.3770460677140266 -0.025648577991567039 0.015324212195010066 -0.0018821666391024196 -0.10347488154311854 -0.048797766689232115 0.0020147471790416854 -0.21071756130950778 -0.069510457915634302 -0.058007022585283417 -0.043941143522279444 -0.044371600366568106 0.16830902012132654 0.11845104600746828 0.081515894555608162 -0.042879636003005907 -0.2650574808113873 0.12736369409461926 0.06029417670685297 0.0079399127135858574 0.18661706248936752 0.21171729882784221 -0.0046121724186699454 0.031659921216683061 0.13324210596531424 -0.099590667884533551 0.14007631013694807 -0.028404493410730657 -0.13943507793180568 0.16947108714935205 -0.11764697225536666 0.22497510337990845 0.36288972727249014 0.24060718216187907 0.040781533859094186 -0.077683375780549443 0.29652419243422395 -0.16992896539479732 -0.23442831787179985 -0.13746593975641544 -0.042373842190927713 0.17412632468476083 -0.16381669054037651 0.27927829768953116 0.066965865041216682 -0.30971777242827225 0.13399905258584818 0.1601067411486379 0.24538865045744856 0.15259048905697836 -0.047549051594886621 0.2399429992193394 -0.11040024832132972 0.10356150146497919 -0.16681420902714084 -0.13777247711001103 -0.15288732852830594 0.11368408178317795 -0.1421509628306169 0.35772630067329819 -0.12737976826843569 0.04617432488191154 -0.31545499168386593 0.051928987722453447 -0.21344183279544907 -0.20984828005931339 0.18214491741433045 -0.20747874029529381 -0.10572373598732267 0.15581437382587326 -0.20227012215761667 0.13481879463614213 0.00059650111353056552 0.021812317188973793 -0.081022405626497443 0.013240804776373818 0.044368834651534239 -0.227978575639328 -0.071756039502987132 -0.28778375863155448 -0.030804130736393067 0.086537119826571238 0.011556001880740069 0.18766373216291263 0.07872424288648279 0.18778581175896086 0.057395034466830572 -0.049030552201472566 -0.15702466575721019 0.1887172357487692 0.056294734115209008 0.05733577426730295 -0.026837154629521194 0.18363157091843516 0.022050497259552659 0.073949940227326844 -0.0044091523724284383 0.292350323731775 0.020965781646303045 -0.042323448625675386 -0.024974374495402688 -0.021838269836389677;0.16705645597224245 -0.093836199191877495 0.29666409592103632 0.62585083381517503 -0.25065882884659763 -0.15815465795439002 -0.14584935551831879 -0.17929537057942027 -0.14600518079680488 0.0030061732062978655 0.17631622411155323 0.087127984702940517 0.02805977319392931 0.10097569125240377 -0.13386712812860507 0.18887423312598295 0.18743767498229258 0.010469766049573184 0.023624391371561412 0.19143831706739994 0.10883364588953615 -0.19808175926620417 -0.38274848928996563 -0.069677158752096319 -0.12758437586749921 0.34418588213647799 0.29989092266504969 0.22693370367550858 -0.21395168208111054 0.1787204689795279 -0.15887561131674824 0.0025450212308636157 -0.15215676735227471 0.2866992035727412 -0.066259644804700507 -0.20193190012142209 0.065779316900434537 0.20666768953285439 -0.30702404549493689 -0.49768968587274048 0.06765486752751898 -0.080202826606515912 0.11133225300343472 -0.049986698631411731 0.041370650242579229 -0.048076995462541246 0.11283648756668542 -0.014487963898678922 0.32928093823289789 0.080784215919983623 -0.40369937432075426 0.22880473586371164 0.046494922264043594 0.092666080174681781 -0.51886853969102587 -0.36731533001784705 -0.069783022745371445 0.13148787967843947 0.12473491222251656 0.17073510304375575 0.27649287612329326 0.054123764857558945 -0.26804944243579887 -0.15249927789576992 -0.23127868669288162 -0.15990609849356802 0.47868100892055782 0.22716327257411725 0.055881386792614791 -0.16563079578639042 -0.28037111707766493 0.30546836150532664 0.047647037346233566 0.14568985064217782 -0.13939078405099145 -0.12213434969365095 -0.078589725969683222 -0.13126743742876062 -0.086641868211115636 -0.41436388930009405 -0.26798529435863644 0.28598414916629078 0.21544347637088246 -0.08535188182671985 0.11260968496788967 -0.076024547930745034 0.30837390871936171 -0.0075723629467120534 0.11087614148420931 8.3716654408250499e-05 -0.1675505742210448 0.037377673319879227 -0.32271942147559696 0.19469152458765693 -0.091658843576885043 -0.18038922973127378 -0.18470919224548984 0.29212417877170416 0.024668862873482796 -0.1543780017191575 0.26372436231335056 -0.07908957484976234 0.22290954648292446 -0.20950643488389681 0.018122339812263345 -0.1103978058639436 0.17917376392072848 -0.020342793116341906 -0.15941824413472852 -0.17886598031592926 -0.091749098577396229 -0.17347405444900904 0.032998200933628444 0.12429529816239165 -0.20410829008166062 0.27864389626532149 0.081841712523792298 -0.17512252160397751 -0.056443624914105851 0.26320224217884203 0.15298514630766269 -0.015916262394605148 0.17863363637383989 -0.025841166712503479 0.085246939312286912 0.1867418617436388 0.18874626287670529 0.15882490468360758 0.157488171683134 0.063723256802837983 -0.12535950458965875 0.26385912977708054 -0.18597316603140646 -0.075768353872769825 0.14049625596118098;0.20403828741714378 0.13223567025469518 0.19578003005331585 0.098913784814647673 0.11800575614152213 -0.35780937496236881 -0.15850702493804483 0.26637514024661146 -0.34176476957906493 -0.28808218813518349 0.37215585192336575 0.036849579000738458 0.088354668412360615 0.013040520377011026 0.24939689539583229 -0.22876281522255779 0.18929860627845987 0.45954107154116308 0.042325966756705871 -0.065567819606231259 -0.29102683747144342 -0.46852441181193077 -0.1872341538699166 -0.4749428638672416 -0.60211631121988063 -0.067566956611238752 0.44853298826815269 0.09579740930213268 0.22833072531641427 0.20732050757632006 0.034337216244045954 -0.03695368772699268 0.099948587859109123 -0.035346570177432347 0.43819350525234885 0.30086978442831347 -0.095130105872147389 -0.64251179381935075 0.12171142847236514 -0.28893248283643297 -0.19240652304161202 0.012160835374586268 0.010750911325922442 0.23036609950134551 0.06890721655989808 -0.13674016992881777 0.15669185222736079 0.30247532074617411 0.081111930637529972 -0.08046712416950276 -0.26846733916371845 0.39856714505045127 -0.41296350706314822 0.14256251766072089 -0.13928742172940459 0.17766911265385352 0.03182206786317817 -0.023836708708723144 0.065258028897140385 -0.016682602194244917 0.004912923894736426 0.10641794201270079 0.26513791177455842 0.082370675610288616 -0.062826418279124829 0.37794681911424766 0.55247286313102528 -0.37385317817835156 0.086227113883883183 0.06348570593058285 -0.081372224758168119 0.11911343173489532 -0.076853482986611599 -0.14217114376410545 -0.10184461516838474 0.21596417475488586 0.049454959260184304 -0.022731984143058385 -0.44401090071751609 0.065338205312293909 0.19454674800396951 -0.060670870224701814 -0.015333902126672124 -0.04459298136281499 -0.36970896962354161 -0.12391527555332528 0.0090234452486401516 0.19713173742632811 0.15550950591701129 -0.10904667610614008 0.088217400568087273 -0.026500931898336352 0.35856373475672626 -0.29403503701118261 0.049773768427351851 -0.42276202621271541 -0.48847851939473252 -0.089189897333162543 0.052967476964133502 -0.23477037037327822 -0.092615696766869829 0.30171657765742632 0.12555211492054305 0.25097334448691122 0.09025362488232469 -0.12777504591243713 -0.01533117468890478 -0.072822022421357657 -0.0022826369655377498 0.28276439573657614 0.10377584588865739 -0.12059627445907219 -0.079837074185363233 -0.0030725454256223276 0.055594003599087824 0.0093169778215879129 -0.054101917951313645 -0.11811435183747332 0.18283393094731148 0.18991910247699065 -0.22846001909562177 -0.060412954426373573 0.021969922927832952 -0.022839487023673995 0.046709236440348356 -0.050793349924969179 0.10792887779784108 0.10989362930075584 0.069939098019325102 0.082123504598003133 0.029460090867797804 0.015005111104763887 0.073672167112398185 -0.070490911806160572 0.16940653064286393;-0.18672125728032907 -0.070517251944625756 0.089978940438301 -0.19969324544437181 0.14053773472742831 0.15897183404832183 0.17251828682708001 -0.20037296592691226 0.085908917354103179 0.14132406547238691 -0.24164379689227733 -0.10307118546135416 -0.072538803153544565 0.099846170876328036 0.074003914537857846 -0.16409374347089176 0.060354618766704608 -0.14706803464892654 0.01713122080678868 0.13680634270674108 -0.064938703130962616 -0.031068508061104599 -0.0025024535312092992 0.30664310522071803 -0.12372152662913305 -0.37868004789642701 -0.15746691183396447 -0.19543724870693832 -0.0055515600031466467 -0.16277075841965516 0.07809224273763811 -0.077857085689828354 0.14313556111887185 -0.020018240809514254 0.12128052073114469 0.27207676713337892 0.22041249667648591 0.30830722732177868 0.15189681752571946 0.020524560528849756 0.12714412938422928 -0.16882798051741724 -0.19133836353259567 -0.18593173567084556 -0.26711758585027384 0.06371351856741779 0.0008639900380381768 -0.037406168019433514 0.13383174761542826 0.081259915178751529 0.022842045903116091 -0.1680214268182692 0.017103100774624638 -0.24469733340512057 0.10861636452923776 -0.026638891620953467 0.14018662869319454 -0.066318951723251043 -0.043020034461429969 -0.060148346149677359 0.09480594386312817 0.04577271457233574 -0.054664218956846075 0.28814485689659547 0.2755128624867636 0.33415877343273742 -0.17534085828660892 -0.1108092368621334 -0.24790746630646435 -0.064841823166908077 0.023325982899969434 0.15370472728526943 -0.18215572001078587 -0.12025406232278842 -0.17946595344157726 0.07739144526319032 0.064119673189647536 0.16698521859918469 0.12048070595943615 0.2004636601951747 0.38566235240481178 -0.028363078300822166 -0.019143589907886015 0.17504761281265499 0.074002318262620909 0.023023854853830468 -0.096529082191835494 -0.074539707370512021 -0.16188027953929557 -0.071221235720938636 0.067399546469921079 -0.016565968943350055 -0.16540002848604157 -0.097144723808054251 0.22619303683134404 0.18080126541330185 0.14673895722956359 -0.047005393899975254 0.066250511761989817 -0.066600662644698216 0.15751669433734172 0.084000149948685723 -0.30287740040380923 -0.11067770394701673 -0.17222781403531132 0.053988126332225682 0.098031172997799412 -0.089820762446149296 0.10511464231726501 0.084693418094804712 -0.069898529038519522 -0.065189637839475456 0.24888720501123085 0.24797185709739158 0.28930898391665483 -0.24205676626295916 -0.12445641328756968 -0.050268970909031582 -0.16121360036677967 -0.0042005835051187402 -0.25680345617538014 -0.22692305234204035 -0.25126555931593858 0.19422449226982746 -0.059037953855738158 -0.14877703669935224 -0.10990232835064882 -0.040030643948102851 0.0280929910270649 -0.019512900400670458 0.073799763073295957 -0.24341584501921076 -0.12852592921609149 -0.0019007699563759308 -0.072261965343275045;-0.15955816060036218 -0.049941699499100635 0.089359812389177048 0.13503950962942898 -0.0066006991125735093 -0.15515614949175888 -0.45671103528614004 -0.12945635522272961 0.058918246487158224 -0.032180971779007896 0.12271042671381095 0.2821807193636473 0.075245508076528869 -0.21219019780135753 0.15705959126327712 -0.030292932019773081 0.069753834198655787 0.21031550486768882 0.036706349322390946 0.44264923788207339 0.28681162563195028 -0.33265811503467602 0.42502830909445205 -0.21472143171858013 -0.029176154393723664 0.25047199708118068 0.60200050287337925 -0.04509120089948436 0.071186096300975096 -0.14287315547068311 -0.075006977140648592 0.2373964343519363 -0.08141216672681173 -0.029761089551400097 0.69666856334980842 0.67359527162063448 -0.0055503715337301461 -0.0079123002097315244 0.15324503799733832 0.11141961704742445 -0.023525795266954672 0.11372327219580558 -0.012236746015488274 -0.0045393947712940317 -0.082407189038091661 0.056996317035909502 0.32106345957419885 0.0059404611903093839 -0.16198913319636343 -0.0079602374416766347 -0.26060316633916725 -0.021703402180234269 -0.24787922715258798 0.32269645437143812 -0.29158077700030138 0.027991019772007856 -0.12470933795224819 0.1825303948622905 0.023671862102134376 -0.046735308138791842 0.10989994500252726 -0.099889299344776347 0.076446457964384928 -0.024667173156378213 -0.12103014483743653 -0.11826185770656976 0.55869439237920215 -0.046497572501827157 -0.11079725786377176 -0.25949801267266676 -0.22496954775881114 0.12101635293964641 0.069716744041792331 -0.089062270122611101 0.023706539807535287 0.042853822710448429 0.31821337422770019 0.065357243817404598 -0.52806030620184197 0.13415592324169187 0.081866631893559916 -0.27497641055746747 -0.21570156402421378 0.025955086871974911 -0.20151353578273687 -0.27730789714180548 -0.12370320919244873 0.071687050245513265 0.038828148248956786 0.17480083199526358 -0.22448455750646878 0.044463219075278698 0.2933988135786022 -0.22289323763411775 -0.016164306313467228 -0.036940093681242986 -0.60791676881243273 -0.46667731716399025 -0.41348320027234775 -0.29366992265867092 0.013830773494278541 0.11927622176938925 -0.06490258729115049 0.020917805931050634 -0.15088356962479521 0.086063536959757214 0.15872895377676102 0.040212505079571789 -0.075736342495167391 0.40265836826824697 0.086330065209569457 -0.41158837724519326 0.26985820691964807 -0.16864528372881346 0.12239207857861786 0.38775081475781864 0.1507608515958983 -0.059066446505285669 0.23797257525185805 -0.077996850824733441 0.0056606718929243984 -0.20877326064393026 0.048421832284902565 -0.24382865860085118 -0.056980001115885859 -0.149381849319384 0.23933802532748175 0.21972625467608164 0.097846618352393125 0.21727214739271711 -0.097743156567383832 0.01225713329698978 0.23400247842258295 0.1458641887120421 -0.14719107839651713;0.16590294207379006 -0.0046957329313553689 0.11678066444102739 0.22325223447229248 0.059564848953348487 -0.09113070934794007 -0.14387822969902422 -0.036518524453837686 -0.45034744767607304 0.039307437008879918 -0.19191623473800856 -0.37144139249127156 0.15955828191199775 0.19247896198774569 0.035518570638496408 0.092949117159234151 -0.17496372081564024 -0.04542842248849311 0.35907984913165025 0.18344047752314302 0.10250912720408001 0.046620067520827008 -0.027511884009074193 -0.52807093614432943 -0.6534575535949757 0.14938792935549922 0.19757248371997796 0.14325393230991521 -0.17181047627546978 0.2036202460533682 -0.19592257419026318 -0.00072881950131780575 0.049853165350870858 0.25861263400555778 -0.09464085269576461 -0.12198694360501497 0.16103848406823559 0.12493341081982337 -0.38798759119772186 -0.60574326258024802 0.064831966400749563 0.007182228038919802 0.070122375867296804 -0.061914982574369413 0.12008977637613351 -0.21203790915391013 -0.10456814159454139 -0.027232844582330457 -0.27741966509948335 -0.25900111752477517 0.082865257817111612 0.28956202302832362 0.10330371638691743 -0.31934877844032844 -0.14664398217404437 -0.056611889939626979 -0.17220167565992303 0.13512113476885856 -0.052078524809730298 0.087704535779674117 -0.11277723496723266 0.22332734934481327 -0.15986899238464555 -0.23501441436490925 -0.45459959831443969 -0.2187184844981282 0.096774348123185305 -0.022089089098071755 -0.48880971033229514 -0.170217244502579 -0.16312272796084948 -0.025481375161693787 -0.076683239230567232 0.26032696315010573 0.17722084012936273 -0.044415035654444386 0.008634276748842604 -0.082723671969807719 -0.2036404366138897 0.010102439618560635 -0.29632498338462293 0.25630395269410189 0.30943461837787678 0.029975879603529421 0.25241791590665913 0.21689708737003219 0.3001932970463389 -0.011625439025477136 0.12110737328287785 0.050755545057340867 0.152951586992778 -0.1269358136048678 -0.25946445657648698 -0.13278218162240252 0.1580822675674185 -0.182672036187563 -0.036620301397891901 0.4453188195393265 0.085243259773391436 0.28913068337814185 0.37612530282056417 -0.30327427171350974 -0.075373047265421433 -0.0093226349706376985 0.16803673403221309 0.11285205287546152 -0.13690628085046941 -0.13176927956547549 -0.2046375627210944 -0.083297349700742943 -0.1938468745090777 -0.12500644982554021 0.039748757356321891 -0.045382851575033939 0.10104351379347587 -0.10033826036231483 0.047050843913059887 -0.19188039059399803 -0.018562921388702375 -0.15038009691971385 -0.088385995633177311 0.036248699080803116 0.12102927411938171 -0.043281055251584918 0.057809808937776229 0.19706832613653469 0.10338327314949461 0.064606038381267245 -0.0047326935135559647 -0.0054894560041372914 0.039825480190533939 0.057852569074237054 -0.072380966617494227 -0.1730048009025642 -0.0696714267981553;0.12223305809268425 -0.21886517815357279 0.29119649868806835 -0.26301528312983102 0.0036173399987193839 -0.058731787244181162 0.026505980724453638 -0.27225228824312042 0.11662092104606236 0.3404415542151582 -0.36048656013921793 -0.17538442269098239 0.09441131661240508 -0.24018978420096146 -0.13347142894790781 -0.1457814810214621 -0.016167330895349899 -0.44297372260614321 -0.34012382302897531 0.10766168129491754 0.17162867918554475 -0.53776882658512137 -0.13792521000978056 0.40754465771069748 0.21037895576390869 -0.3011080398903424 -0.065695335977626071 -0.10476024177269366 0.1355086654605645 -0.090545560676279641 -0.031023357055465023 -0.14319988730879721 -0.053089692601651993 -0.0765326002293754 0.58992477837880286 0.50189873019384279 0.088608843165344967 0.11657731183147119 0.19482409249804028 0.10410749335889417 -0.091098354471138163 -0.20537957861262537 -0.21995677809982037 0.037885783933813602 0.021992891939239451 0.0012720670935993448 0.010986667666708158 0.084560190500332699 0.13570768266407116 0.41234791177722951 0.26398609590743383 -0.0062008975800969422 0.063799836406119484 -0.21148815655838024 -0.1536521846050348 0.073277488839255195 -0.13308362941238852 0.022123794164562879 -0.2304353851927306 0.053017084443740779 0.10159688842286356 -0.26762603881014591 0.10904922529902342 0.21731819723350818 0.13565750160179424 0.39518035954633585 -0.33071785938711751 -0.11757792286171077 0.16351716786073972 0.24287240099054616 0.13193147183945847 0.040743666673201805 -0.20395333871317692 -0.21543826326043686 -0.21810904112909649 0.082795786821058592 -0.028408730804456397 0.1503333093688336 0.014139680898043192 0.41018194652806722 0.34498917807094676 -0.55172685606299432 -0.28125749937408079 0.17016911785479991 -0.11072470097868441 -0.10358525537407218 -0.11731529452440917 -0.24528073205172365 -0.22744801385607255 -0.19796525951906499 0.013997396158491642 -0.17889997614032166 0.0046979215290276141 -0.0038002968611430847 0.32151608345174792 0.14960308158059549 0.042174169728728707 -0.019424221120145146 -0.091540784825025742 -0.41090009362533897 0.047332622251189838 -0.1430897728977181 -0.01645752913585773 0.14137608337958607 -0.22437507045254187 -0.069303334571964081 -0.13473591745858185 -0.040337708413980981 -0.049000720257990939 0.2933237596766522 -0.069677890991550501 0.11938412863989196 0.0013156557574334987 0.078875258781292881 -0.090389299388954528 0.094775127179535915 -0.13537651181574603 0.087725515727388417 -0.1548162133371509 -0.053872948674721075 -0.16095970437600787 -0.30378346495172925 0.086187672584924185 -0.13141262216013597 -0.0023172402178674996 -0.19970442937130947 -0.23344425703577132 0.064432593370584906 -0.20510654523340305 -0.029981153713868607 -0.11574754011320389 0.061788507266083315 0.028033954415403288 0.10834393650695365 -0.15758964240863726;0.10219159036644355 0.13566167618116207 0.083660081525690363 -0.22541545410538236 -0.084556628365460199 0.28286957677089369 -0.024373049353988617 0.34557236391004315 -0.12649142392178814 0.25774986949725326 0.08143090040868721 0.030456835010620745 -0.060969542773926924 -0.0042298971952983832 0.19541529335471722 0.22808574057291675 0.041873088176010473 -0.021639499631868783 -0.26318822819315718 0.201168810607528 -0.054343662460703851 0.42843931648331945 0.38890515684893756 -0.0015954615659170676 0.12012505266143512 -0.28020339023031132 -0.05501067165650745 -0.085792164403643706 0.1255470804050878 -0.075581263524143669 -0.0075908419488349855 0.11717756459973146 -0.036750201801017221 -0.26512428342731337 0.089445428488701406 -0.23362313262985535 -0.12129413528621306 0.09096130699857824 0.017228009862860331 0.036239530627733239 -0.44370709089851618 -0.059345303087432029 -0.16710917331411571 -0.072273871085870398 0.16194517641641423 0.091256880112878913 0.048707967379608051 -0.15405332850650397 -0.14353010573518482 0.40617034555903225 0.17476267313384281 0.15051960961934902 0.035329932765308089 -0.16944303905938266 0.14823151800938286 -0.22337129886188159 -0.45572730535349448 0.068933997781812598 -0.085813543373060588 0.10676506799849583 -0.050216394907990479 -0.16671476106928126 0.061541429630538352 -0.44066416771191197 0.29056926590755355 0.21221845652725704 0.50166696330548521 -0.024281010973144213 0.34200218780404607 0.35676209867399877 -0.14944950138067209 -0.14490838612592602 0.22814472897902241 0.13778923507017082 0.28363055934944631 0.26722498274293982 0.03116190891162024 0.34335532543281361 -0.11292649676658291 -0.47100177668946908 -0.43329802164011005 0.32875493271537892 -0.12250667608006204 0.13997741263820082 0.33251034310834326 -0.17891288467641719 -0.11986475231807547 0.070643688025368009 0.045903693033872379 -0.10660914322026614 -0.13014578908548083 0.18955834462280308 0.40835508224561701 0.065358783027494566 -0.57931838144334336 -0.4774679540776629 -0.22680928188199848 -0.38046769351968185 -0.28366290789961351 -0.18534409671378166 -0.28368126637054875 -0.26045566087138911 -0.078413293603943932 -0.046542418068706085 -0.051723981472187389 -0.035583547442010505 0.18755949300379127 -0.010912332675018253 0.10814966569178396 -0.34959366595802754 -0.021849452135917196 -0.10077410401337587 -0.046089826164074491 -0.0091323627746493566 0.087494775044054313 -0.036921487642306017 0.027787107810157963 0.14157270518190812 0.17047386250085392 0.21248932537853299 0.0063005984683777256 0.054444705950232104 0.27420752432799955 -0.062242321224096349 -0.090725700387194796 0.17537249298142021 -0.099629141717818726 0.054912221445727577 -0.085659347042964185 0.28135132428074949 0.022376117287296059 -0.030528629059555772 -0.014834624461518411 -0.056956264966444389 -0.14861719521741118;-0.041759852715789428 0.080952228834730605 -0.098434664276352529 -0.077434433886860526 -0.019573538835957714 0.15465975397485937 0.14340986502049299 0.078188480019011949 0.12957148774799848 -0.24342495120704605 0.0013146705389969347 0.37483086077986011 -0.0051714061347553015 -0.02501162254054097 0.12646484704438229 0.052287262770682442 0.012662588600329358 0.099474746873383743 0.082937558176729195 -0.032183649831865273 0.071821896011423358 -0.016827679563280611 0.30080798740739723 0.15429957542847716 0.58399767303137307 0.33574182655759038 0.074937769825507719 -0.10225044100740209 -0.16300892273997511 -0.051324854559567146 -0.039009133717755912 0.015649672150393031 0.26346948546064963 0.050941783896010284 0.20124332260785788 -0.16025786547643256 -0.25099146325939514 -0.40711101142710265 0.45320946683272545 0.43457071542657444 0.10342903947891809 0.38530314893666168 -0.13054947526996014 0.065064205832164157 -0.082397749683906715 0.14487196490426951 0.010727406382443423 0.069749571144897063 0.039195694018006974 0.11917276388768293 -0.11133882648535129 -0.17832246718659275 -0.29606816939347852 0.024597757640542884 -0.10886971901168706 -0.051933715918921791 0.3034650016222587 0.1739167013576986 0.10893231861761403 -0.17985778174641437 -0.16989561867277161 -0.027849333774549519 -0.057506275024575837 -0.021062479282855217 0.056825490802877333 -0.18715165270706097 -0.081523297617812865 -0.45891840957072721 0.021603616566312728 -0.0573389410154563 0.015414679588572233 0.027228295814590124 -0.12557365994631223 -0.048060836598942738 0.046469897685958765 -0.090321985238604019 -0.0025541396655120781 -0.13037845029771514 -0.065440522060202705 -0.26688479620772815 0.20948327015383594 0.1015498250514444 -0.11926818772225595 -0.14337716059291578 0.020735475843958413 -0.15372085906539984 0.34389587344686068 0.18753848426616951 -0.081638939077455036 -0.20032858609203744 -0.0040192872991817435 0.041765663334279016 -0.089006166237278167 -0.2563829624352516 -0.16190439776369053 -0.12600684431317544 0.05669388670679805 -0.24950694614182289 -0.039283240877923321 -0.25620156776313219 0.014741833077203146 0.2565679817209916 -0.043661814128130895 0.20270229366826398 -0.18132432266224163 -0.22294349871786612 -0.20500414521695887 0.090143968130073554 -0.11192342161980021 -0.032824082170844281 -0.092553199924821902 0.17769775032424157 -0.099253144732133133 0.14258761434565095 -0.26585983644128564 -0.12855939780695155 0.29470717993645396 -0.040203973855604876 -0.096254399817646316 -0.1647043840951678 -0.10834571639078046 -0.24967872547834719 -0.12210016964765266 0.10220762979885654 0.093605183482842871 0.21350872791757922 0.11271837409421989 -0.21495477223941759 0.1314449448139702 -0.060765077104661655 -0.1532614251043421 0.17541423761382749 -0.026945176222193615 -0.20033915908079614 0.045468447587175859;0.18116110810254446 -0.14737137887813556 0.2726626426150327 -0.35134479819228481 -0.04911751046552229 -0.063829625364343875 -0.10404254526038108 -0.19483012872140612 -0.43095593510708691 -0.28247790252328947 0.16645882944587356 -0.15483577881046628 0.10845170148782007 -0.10955296079799252 -0.0027998074997393112 -0.14518886933633707 0.20628943619709605 0.10576557762264184 0.0084072211523863339 0.026581313178207586 -0.021870824438128631 0.31126721763825232 -0.34611123198836097 -0.76616400400690521 -0.60118291977281746 -0.21642036372965281 -0.10361214878930734 0.025090576951963428 -0.096023329370337779 0.19330053947314441 0.069295876560479058 0.052038348621025458 0.22319831233014148 0.18171059676794987 0.0035166386612597274 -0.3292382186961354 -0.26889283803597597 -0.39730824295818795 -0.29049255128932677 -0.43416878936898456 -0.13319679699157458 0.23499389023543801 0.10991430535459747 -0.050472766464818242 -0.011175145402334444 -0.0084326530189812905 0.22084665255742916 0.19993833557018703 0.05384997078839892 0.06177034891094698 -0.074154988023037244 0.43595329293179602 -0.29255546703158641 -0.24081700481062923 -0.29346551457711745 -0.049281779527022479 -0.076667257294597918 -0.016017730103396501 -0.11235253131449209 -0.058610060512351236 -0.070418900966489423 -0.061788394413448446 -0.028427564487193212 -0.18528285434276129 0.34086618598472357 0.1608577570788105 0.13374764788145924 -0.041459177295785493 0.28545345130962252 0.30045321855286727 -0.048585101534311455 -0.17591349690153191 -0.067930758873236824 0.081613850755957756 0.27140672504668456 0.066194905049971595 -0.11354216145074045 0.22934845444681667 -0.072035041002711964 -0.40472356167425461 -0.073058206651927693 0.050073437302361613 0.044999779680319443 0.18271643925020226 0.14247575377011379 0.029587952636139891 0.065134264517517193 0.063817076254225905 -0.13320952442252862 0.21027763030438501 -0.08635776789780035 -0.10279632420071567 0.082780525149824008 -0.0055773389391023274 -0.15917122837833866 -0.45244336187464135 -0.044747845283347402 0.26099589063274348 0.098445627423749446 -0.14907550780926693 0.16956300596300777 -0.097623232115331415 -0.18444734680636182 0.031747514399115093 0.0056413737822740657 0.10330555978595787 0.092605060607357667 0.080675217572881638 -0.056478870844572406 -0.30450620785460125 -0.0044088806123117677 0.070423689611660803 -0.23845173434842959 0.20741080531519399 -0.19196151771571274 -0.16927032291062111 0.14643562136745861 0.10032335708768099 -0.1051021498469013 -0.084320220394764375 -0.02864943379708389 0.051513353208149877 0.046085476373494888 0.27485185153446789 -0.18969313921354777 0.013527321412448515 0.039906948659186731 0.11417255165288152 0.11230432780963139 0.085495537334850089 0.19070841559413174 -0.25587542730180529 -0.2006156536145047 0.0043780587883960574 0.22308832242003529;0.10080815772184584 0.052055694016914442 -0.24723745378322604 -0.1464598363251059 0.24205314509570638 -0.069241775598275782 -0.10763667011047605 -0.012127278989682775 0.25289820304323529 -0.20529101381436252 0.10281618353676705 0.28077796945901251 -0.028367587038849552 0.12178221828542921 -0.14386768864148405 0.18071173869508683 -0.10101523726807514 0.164639755788132 0.20442330703011341 -0.86223350266739429 -0.60777907278097454 -0.10335724473522792 -0.065101083102067622 0.046384311804064299 -0.030255301739233159 0.04530191742024646 -0.31252332491943874 0.20330743341009858 -0.031339010471146206 0.057346125802306275 0.046802700037517228 0.11227998598034325 -0.0079523007469156238 -0.27494203353402363 -0.69444312778250139 -0.218795786107151 -0.20349743809749041 -0.3370574428533426 0.20765222625792656 0.34026472878950281 0.14635201513678173 -0.086484808300337002 0.098294695229140416 -0.0083507004832049231 -0.060595407319563803 0.22018308756152394 0.20654522774356276 0.14791423477701879 -0.44677725290502923 -0.3281608279715289 0.39757304722435294 0.056496820992843956 -0.028241913419601538 0.0090275601965143504 0.35776070138480076 0.016281684175890949 0.089680802906572668 -0.084877047009174186 -0.0094711038615159816 -0.11621096316531354 0.14321908749863979 0.25728387881521053 -0.26134689198823197 0.43966058060272911 0.035694953371013832 0.29738501999847577 -0.44501264595061057 -0.57755719100420377 -0.010459448297221282 0.06392441896305652 -0.14572261778320855 -0.27560851137367021 0.11896020000289352 -0.043408977994231525 0.030459176944486733 0.15493229710094827 0.13392806733156615 -0.070205631513025918 0.10203661780656569 0.49828190777981546 0.087302872526215297 -0.10834550609522575 0.01512122737206904 -0.16332469634903499 0.12471422329875104 0.13900068679195482 -0.31795778113028983 0.031228408451971817 0.026477570696799343 0.044366292488065222 -0.031624079982597281 -0.072429593902285802 0.26198678602467412 0.032860555640736949 0.06107372164735049 -0.022888365346454744 -0.024659365203603276 0.041211637479924866 -0.059761442337830102 0.21775831934125231 -0.28158211964950242 0.1508570416351091 -0.084740980399382937 0.18710253550121325 -0.013980684732295509 -0.088683243517233432 -0.15882620587759266 0.045956183083583228 0.11746339508573768 -0.12858931059619128 -0.11042139266490611 0.3712632714142674 0.050188035386523576 -0.050812882011420958 0.13811528258535538 -0.043826638153426002 0.28136890831606737 0.046754855979013674 0.17108556956290105 0.16418382906718837 0.2522992974934139 0.022909674875489516 -0.094801362770374098 -0.021287803354307099 0.13387510481215328 -0.0014258814958354642 0.13413426140225587 -0.14079519428352877 -0.15268403355258492 -0.20779862320299744 -0.064277559193100353 0.05324145641922548 -0.14250925399357098 -0.14427847058181059 0.27522778502406453;0.13532499969781617 0.092279012501940344 -0.36592523479745431 -0.27345630049798936 0.11564458731179378 -0.07230375803092895 0.32880353012056202 0.26643269435333022 0.20899006859343558 -0.38767214905112229 0.17025970556354122 0.10739593796983825 -0.11000932045863707 0.022233921221844397 0.035512155257456282 -0.0603431422433756 0.058990108154249522 -0.37339066741627047 0.22250031282536867 -0.51492046579838169 -0.12303290334397908 0.31740833081070818 0.14995408570442578 0.072925120611067637 0.16566750471538944 -0.037916135672923859 -0.12336619123660821 0.096292993131806282 0.0062091979320825523 -0.15659126451341202 0.081474164563462501 -0.11986334790517555 0.071408998810138347 0.3007838145637805 -0.34473855622064259 -0.36852372193676536 0.12362716664484426 -0.17300783675170847 -0.023832559222814933 0.19709843292784279 -0.1007057630057147 0.017121631003716206 0.095715565917425444 0.17542598995160522 -0.15318055529151578 0.11793792603355703 -0.20601784342763207 -0.12846457624007981 0.033503079025052923 -0.24002469034819807 -0.20856496595200474 0.26981587966101972 -0.60870670353443912 -0.21401362761088252 0.16381375966681086 0.083637480223584248 0.03884952112349143 0.12199122807779686 -0.14937387151088086 0.039407934243983825 -0.091823051044917295 0.029945674283757537 -0.21898548367260609 -0.079491552973106561 0.033554295886785455 -0.43797279338925765 -0.16862737107605213 -0.48948343488720619 -0.08127486955344615 -0.13541824160237928 0.071155990334168778 0.081129977019208863 0.042373075693569025 -0.21472774572970935 0.0047717535244178834 -0.025125706260227032 -0.24762258737257109 -0.10134060221237552 -0.0063820970772457833 -0.46411576825256035 -0.19636562689435841 -0.10257138138111457 0.27914099433220924 -0.071445768282676542 -0.0024956222741588556 0.27499119559394214 0.27985515391234456 0.11672757882280214 -0.048434509964343536 0.025991440576414778 0.16695837396670471 0.097994729888269808 0.065675266180705252 -0.21954628522939268 -0.015934751784813985 -0.29114050767852317 0.1636633532233065 0.10787051597481605 0.37673425152834189 0.17153404559445001 0.15953696824212446 -0.058584418022734369 -0.13781296292921763 0.20212957895942893 -0.18159447111976768 0.019821290295739556 0.12299667112800378 -0.22850335328661697 0.067679391683015414 -0.2304743224325119 0.30334446220602462 0.42024144498574495 0.1706818509385892 0.29298932900215607 -0.10933773163607464 -0.0088727217363477363 -0.087692724300329011 0.098106900433029678 0.077148958433264456 -0.045600129491494536 0.11850740236838375 0.0062243026606984232 -0.25253152728487727 -0.049599146896973145 -0.22081463765935913 -0.15376301200762968 -0.053517501322195321 -0.10968986957971701 0.040644251450799487 -0.068421785446275238 -0.083970084688819627 -0.14836594767307104 -0.086563301268693965 -0.13814902635638845 0.1185984433328207;0.19371870453589926 -0.19835014156436542 0.076150785672661842 -0.22036189997303768 -0.054269569049509241 0.0023076579050081542 -0.05459446009557728 -0.10873149782090707 0.023707562846159425 -0.17083523421419108 -0.026226263260761759 -0.15036375446695519 0.13065622723425091 -0.066491920661455886 -0.099346601513402771 -0.086051646296641374 -0.025036262581909711 0.013355382850018841 -0.02045626740169974 -0.3251846010118643 0.094022942023366682 0.1582538471156146 -0.30849993988872293 -0.41381093338160768 -0.37744937193958605 -0.20722141458818102 -0.21186074138077107 -0.099178755475432701 -0.01880041047461745 -0.099058929066480686 -0.1608912874677704 0.23135555500486912 -0.13922290969460341 -0.20232687551094342 -0.15380169753665959 -0.25226925581314774 0.034378862263557526 -0.051738492892914253 -0.27605748394279839 -0.29005241824697131 0.0051969915419533682 -0.035423538267773703 0.212449137282335 0.045996869791897162 -0.10176561472411541 -0.11276785074105035 -0.16288571027244272 -0.053835978627847669 -0.34584239175030007 0.0068559267588998891 -0.20140789229284034 0.040834408824269738 0.083738692712051505 -0.29080026629070527 0.013519179491081265 -0.14443500964571493 -0.43042800282831156 -0.21489202982524622 0.2008545984696678 0.079841219741913327 -0.053967977168257748 -0.11330312004589692 -0.090177779514159118 -0.20639865823893547 0.15242866951516512 0.19427639796671392 -0.03966483846208118 0.37758201288073334 0.04542388360804922 0.33502607470241491 0.052397794205424508 -0.050075611233622162 0.038850605694098914 -0.10450372968185177 -0.161942529421571 -0.21328356397536316 -0.0083874568388469847 0.086239871317156519 0.13383586135265299 -0.012321117648445306 0.11309687627573371 0.22527281625584802 0.059095951306371484 0.3049503117404575 0.34852855806160749 0.072015094697760157 0.048287315576844056 0.111646628408457 -0.0011620052237128406 0.18257067054339898 0.034381342436860279 0.16237814713077608 0.15636305145558199 -0.064038341241957786 -0.33967095130348313 0.11687473503300179 -0.038707572467780817 0.2056086571868356 -0.1703450656638277 0.14323786178479558 0.13491094431635703 -0.2137433130091517 -0.088691356605292343 0.054161019496131502 -0.05968165968705301 0.23752099708827146 0.10914365787688189 -0.18198306116310761 0.0016605794227997389 -0.27685771241619944 -0.25827537975349557 0.074866339457558953 -0.099590007463246977 0.10149865239099473 0.20095694232989145 -0.013986994066858551 -0.067238332777754678 -0.07594495873626804 -0.03237512418710748 0.0048206428468223761 0.043341094270336639 0.090722623714133657 0.10622610039363597 0.18449534658313976 -0.11293368342576125 0.083306051685282628 -0.082908749096929996 -0.034964239318412395 0.15130800832800453 -0.05780728811937226 0.11806090459644847 -0.016198165623639269 0.073558622330538587 0.24119699668925321 -0.23928863927612526];

% Layer 2
b2 = [0.67001850500158056;-0.70360913193929286;0.20568420552146846;-0.41395142278440322;0.23726168233408476;0.0049833687775462212;-0.063199997354382267;-0.30259774432320397;-0.729848357723337;0.020071679414678651];
LW2_1 = [-0.1774291988818934 1.0996824925994486 1.2670655889165345 0.27868604802569019 -0.99580997194558729 1.1891366399139167 -0.91156992768715484 0.40317946716453912 0.44456735401523445 0.99541128373793353 1.150042205138039 -0.35359356193279851 -1.1438322111027752 -1.3187587638857843 -0.16416856663376006 1.1511275084682875 -0.58907583065014979 -1.3052038626324758 0.69112880375899066 -0.96221550671577361 1.0433043274667129 -1.0038465685503923 0.44808009714573049 1.0213423954360257 -1.0190936965457669;-0.89047778875089145 1.0445361537376578 1.3738552756718776 0.87089610989161292 -0.78616488292530584 -1.0634049921888269 -0.30454694428609574 0.053094024788306535 0.65589325604705706 -0.97933130949907043 -0.91494595332251427 -0.12209126944186872 0.25430679682711638 0.57701912421082602 1.2740534242795816 0.065257815890660001 0.028583767604943085 -0.10095529986754179 1.160164731964582 1.3735344179750721 -0.73072341249270223 0.96784064067974929 -1.4400382889111711 -1.261741957845536 0.47161027635552594;0.35568096792433296 0.59650334490968071 -0.37008852502098172 -0.64255475365269954 -0.38952692426511454 -1.1488664008998812 -0.77704641624785409 0.9433284685141321 -1.4190766436320918 -0.82571070021998338 -0.25206560967207636 0.46496662504120601 0.035933330494233501 0.60515272677797305 1.2813707357336421 -0.83786176202946705 0.90874799293795805 -0.70106941634200481 -1.2717622401671316 -0.49046490526901937 0.92563748702803017 -1.0901455319053226 0.58407921860964351 -0.67981262418041577 -1.1791519938315795;-0.24237744710341261 -0.52837978146978215 -0.45361883096091016 0.79813396205310139 -1.3847164884872516 0.95300830021823879 -0.51350152412570627 -0.42834016378772877 1.0961894561271504 -1.1712939440888714 -1.0263637643032646 -0.21126111404777034 0.25239874252832895 0.53715805711066245 1.1689205864142314 0.079058669791118322 -1.2027363608752375 1.3951135720478938 -1.07824006045221 -1.193896116549737 -0.30540971513957732 1.1778015546492644 1.1030102214629069 0.77044288263314498 0.5364593106383917;1.1346081087544564 0.72242566192927982 -1.0676430985554326 -0.049982951410950244 -0.27888785777347208 -1.2637418686579218 0.83804127531880768 -1.3962777534979438 -0.47737738565370635 -1.1769016731229056 0.55367249868228963 -0.37455716795610144 0.11502015154233255 -1.2032927499267845 -1.0101506480362439 1.0403118966238778 -1.4229716387212499 -0.1143210774184537 0.10860330667866701 0.84344436705249581 -0.68068618459439778 -0.93086508633909626 1.0349739423329125 0.11780577937178423 0.77275121085633058;-1.0103627004122848 1.188618775345617 -0.55607425239652231 -1.0347624979839438 1.0530674284615442 0.6710422683188515 -1.1446086050893267 0.16869708739810968 0.55676026299060488 0.86651849038976192 0.65031850946820591 -0.51347089316482919 0.50330847661540534 0.54190683616280666 1.2709599583992586 -0.62512172711146985 1.1332593968707501 1.2198538207235685 -1.2403144392312899 0.74397210606968156 0.088741652684151712 1.189821244890122 -1.2132604168631966 0.88904480574156264 -0.24039986721999171;0.27257391741185344 1.0555541906493322 0.45805561403282508 1.0481848809548275 1.0081486747469837 1.3799625594869647 2.0643548848285413 0.27802886487968481 0.98922832098077773 -1.2311822019107728 -0.12728699542423469 0.12147212314404264 -1.0744097290098837 1.1092016745621014 -1.4188955054915642 -0.31777778816460966 -0.70256562175155424 0.47637339295941367 -1.0589006349148402 0.72668761977701946 0.27262350174098826 -0.1066572913217286 -1.1109335590707592 1.010126006598856 -0.37973421474275881;0.40892814281119311 -1.0808161354860575 0.29794355367019698 -0.72761548461643388 0.95920313542762847 1.1982279366197734 -0.78048797511264223 -0.77545129194418738 0.033480576062640564 1.0987081093048234 -0.58206552085195895 -0.63554732501294553 0.94886001353148031 -1.4887570278898192 0.62077951863762282 0.24792911967409012 -0.44628157520489498 -0.37880900334088929 0.001999837195754077 0.964438701244826 -0.85568605469154246 0.64156443034077493 1.4057938662266076 -1.0770703195219991 0.60701206422771348;-1.1800525762698386 -1.3047323168917822 -0.75432905428295705 1.1617876843718324 0.92439399452528181 -0.18420880376984106 -0.48820527212572828 -1.1984625947275349 1.4413485893488343 -1.4916990102727781 1.091143966743237 -0.33819991339512012 -0.78908229132064045 0.49877061957403585 -0.072051376415175658 0.7258486295409835 1.3852354756484622 0.24453117832513649 1.3057732509583326 -1.1848232644382921 -0.18366663744542294 -1.2963684610217594 -1.0210641515418817 -0.67538303616032791 -0.93368962612770434;-0.24628794208741273 -0.7599298947624985 1.3427725502458692 -0.10206753368526174 0.074069266419890895 -1.0918149419599621 -0.82800079765824341 0.23668558406527471 -1.4500690199758504 1.397710883602088 0.15470584019020364 -0.13679567735599155 -0.20074877749690409 0.29863635330626936 -1.5263339110770697 0.702708067752432 -0.89015170303578561 1.3539277033485326 -0.34002784660494456 -1.1309210439836603 -1.3476142984822286 -0.22648177343126141 -0.82889981096562704 -0.48644517109414986 0.48884519345042599];

% ===== SIMULATION ========

% Format Input Arguments
isCellX = iscell(X);
if ~isCellX
    X = {X};
end

% Dimensions
TS = size(X,2); % timesteps
if ~isempty(X)
    Q = size(X{1},2); % samples/series
else
    Q = 0;
end

% Allocate Outputs
Y = cell(1,TS);

% Time loop
for ts=1:TS
    
    % Input 1
    Xp1 = mapminmax_apply(X{1,ts},x1_step1);
    
    % Layer 1
    a1 = tansig_apply(repmat(b1,1,Q) + IW1_1*Xp1);
    
    % Layer 2
    a2 = softmax_apply(repmat(b2,1,Q) + LW2_1*a1);
    
    % Output 1
    Y{1,ts} = a2;
end

% Final Delay States
Xf = cell(1,0);
Af = cell(2,0);

% Format Output Arguments
if ~isCellX
    Y = cell2mat(Y);
end
end

% ===== MODULE FUNCTIONS ========

% Map Minimum and Maximum Input Processing Function
function y = mapminmax_apply(x,settings)
y = bsxfun(@minus,x,settings.xoffset);
y = bsxfun(@times,y,settings.gain);
y = bsxfun(@plus,y,settings.ymin);
end

% Competitive Soft Transfer Function
function a = softmax_apply(n,~)
if isa(n,'gpuArray')
    a = iSoftmaxApplyGPU(n);
else
    a = iSoftmaxApplyCPU(n);
end
end
function a = iSoftmaxApplyCPU(n)
nmax = max(n,[],1);
n = bsxfun(@minus,n,nmax);
numerator = exp(n);
denominator = sum(numerator,1);
denominator(denominator == 0) = 1;
a = bsxfun(@rdivide,numerator,denominator);
end
function a = iSoftmaxApplyGPU(n)
nmax = max(n,[],1);
numerator = arrayfun(@iSoftmaxApplyGPUHelper1,n,nmax);
denominator = sum(numerator,1);
a = arrayfun(@iSoftmaxApplyGPUHelper2,numerator,denominator);
end
function numerator = iSoftmaxApplyGPUHelper1(n,nmax)
numerator = exp(n - nmax);
end
function a = iSoftmaxApplyGPUHelper2(numerator,denominator)
if (denominator == 0)
    a = numerator;
else
    a = numerator ./ denominator;
end
end

% Sigmoid Symmetric Transfer Function
function a = tansig_apply(n,~)
a = 2 ./ (1 + exp(-2*n)) - 1;
end
