function [Y,Xf,Af] = Limited_DataBase_NN_20Neurons(X,~,~)
%MYNEURALNETWORKFUNCTION neural network simulation function.
%
% Generated by Neural Network Toolbox function genFunction, 03-Jan-2018 21:00:40.
%
% [Y] = myNeuralNetworkFunction(X,~,~) takes these arguments:
%
%   X = 1xTS cell, 1 inputs over TS timesteps
%   Each X{1,ts} = 135xQ matrix, input #1 at timestep ts.
%
% and returns:
%   Y = 1xTS cell of 1 outputs over TS timesteps.
%   Each Y{1,ts} = 10xQ matrix, output #1 at timestep ts.
%
% where Q is number of samples (or series) and TS is the number of timesteps.

%#ok<*RPMT0>

% ===== NEURAL NETWORK CONSTANTS =====

% Input 1
x1_step1.xoffset = [0;0;0;0;0;0;0;0;0;0;0;0;0;0;0;0;0;0;0;0;0;0;0;0;0;0;0;0;0;0;0;0;0;0;0;0;0;0;0;0;0;0;0;0;0;0;0;0;0;0;0;0;0;0;0;0;0;0;0;0;0;0;0;0;0;0;0;0;0;0;0;0;0;0;0;0;0;0;0;0;0;0;0;0;0;0;0;0;0;0;0;0;0;0;0;0;0;0;0;0;0;0;0;0;0;0;0;0;0;0;0;0;0;0;0;0;0;0;0;0;0;0;0;0;0;0;0;0;0;0;0;0;0;0;0];
x1_step1.gain = [2.11618257261411;2.13389121338912;2.13389121338912;2.13389121338912;2.13389121338912;2.11618257261411;2.10743801652893;2.11618257261411;2.05645161290323;2.09016393442623;2.21739130434783;2.30769230769231;2.14285714285714;2.04819277108434;2.08163265306122;2.04;2.18884120171674;2.17021276595745;2.09876543209877;2.04819277108434;2.07317073170732;2.06477732793522;2.06477732793522;2.05645161290323;2.07317073170732;2.11618257261411;2.16101694915254;2.04;2.16101694915254;2.13389121338912;2.09876543209877;2.09016393442623;2.10743801652893;2.10743801652893;2.14285714285714;2.10743801652893;2.06477732793522;2.09876543209877;2.05645161290323;2.10743801652893;2.14285714285714;2.14285714285714;2.18884120171674;2.11618257261411;2.05645161290323;2.10743801652893;2.07317073170732;2.11618257261411;2.04819277108434;2.09876543209877;2.11618257261411;2.13389121338912;2.08163265306122;2.14285714285714;2.09876543209877;2.09876543209877;2.125;2.17021276595745;2.08163265306122;2.09876543209877;2.09016393442623;2.13389121338912;2.07317073170732;2.07317073170732;2.04819277108434;2.09876543209877;2.06477732793522;2.09016393442623;2.08163265306122;2.06477732793522;2.07317073170732;2.10743801652893;2.07317073170732;2.09876543209877;2.16101694915254;2.10743801652893;2.17948717948718;2.09876543209877;2.07317073170732;2.05645161290323;2.06477732793522;2.03187250996016;2.09016393442623;2.09876543209877;2.06477732793522;2.09876543209877;2.125;2.06477732793522;2.14285714285714;2.10743801652893;2.14285714285714;2.03187250996016;2.14285714285714;2.13389121338912;2.11618257261411;2.05645161290323;2.09876543209877;2.10743801652893;2.06477732793522;2.06477732793522;2.10743801652893;2.18884120171674;2.06477732793522;2.14285714285714;2.08163265306122;2.11618257261411;2.04;2.13389121338912;2.27678571428571;2.15189873417722;2.13389121338912;2.06477732793522;2.02380952380952;2.09876543209877;2.09016393442623;2.2972972972973;2.23684210526316;2.04;2.125;2.09876543209877;2.09876543209877;2.23684210526316;2.19827586206897;2.09876543209877;2.04819277108434;2.07317073170732;2.06477732793522;2.09016393442623;2.06477732793522;2.10743801652893;2.11618257261411;2.16101694915254;2.11618257261411;2.13389121338912;2.08163265306122];
x1_step1.ymin = -1;

% Layer 1
b1 = [1.3912085607310731;1.0363703452720039;-1.1093468716800967;-1.0420138982629501;0.94776661739879042;-0.41548029573721246;0.51450715515034551;0.29585781190675442;-0.28378545132551325;0.074293306244897897;-0.059742014154876677;0.092510053019614819;0.54073078095761207;-0.40610076639826537;0.61409025406129059;-0.92297106435941145;-1.0415841004730515;-1.0534450617151312;-1.2939250814908956;1.2276475517867611];
IW1_1 = [-0.11607260876733733 -0.14805120875337044 0.1749819336725153 -0.38851726552270921 -0.18338185592863793 -0.059307689244047036 0.26125443429523643 0.31990566314922014 -0.038909827783131887 -0.36832510445944683 0.12737059869742592 -0.34384600314718117 0.1050414990520273 0.11771773357687733 -0.013799293226173648 0.095279465931162155 0.2479830390561075 -0.076189406350649289 0.0072822880137277191 -0.14521032381106799 0.019084554763464663 0.14015580558853979 0.037644499090883021 -0.25047431895510963 -0.41968538072936584 -0.30325830814716126 -0.20113100862285929 -0.061806380037688124 -0.10015965077503049 0.066874631919409872 -0.16130119013288954 0.0088210988635682216 0.16543328748237354 0.23709998175657584 0.55039694991759225 -0.19600196727175237 -0.21837529530712546 -0.5408719947515721 0.12576051044509909 0.095347747221194337 0.19116815768112852 0.24517394093744915 0.083197019171452197 -0.0017998879000364434 0.013410804224309306 -0.1549720566841635 -0.12460161403312509 0.58175939820792866 0.28464754131889514 0.11105328868553187 -0.12486248289909402 0.50336478406907026 -0.72637458642569697 0.11601605034984756 -0.24021976016490543 0.33892006631888727 0.19979936079023755 0.087639118953720854 -0.13976725212184407 0.14217641097707259 -0.19734089696367432 -0.048416667284263061 0.40400328940489727 0.11521491187892183 0.082393115003385115 -0.025762260500695008 0.23761866428779013 -0.86317325942231526 -0.055417092692191541 0.13539178882642736 0.36146015346429161 0.21463218694607478 0.16052923131259572 0.039253021461170719 0.041969795719160319 0.034967986645628994 -0.075138954507333544 0.26197203857678225 -0.46981914669869851 -0.26166646667323612 -0.55169759845396493 -0.1755221560802715 -0.15669428650161096 -0.11364480186161037 -0.19296900957152083 -0.12413477744862418 -0.036548297718750747 -0.17653844419146894 -0.1291602200948441 0.15390137101458237 0.05382517739036715 0.13831184750137912 0.40576559360141484 -0.32341476491204735 -0.35917620926645183 -0.30773684510873789 -0.45051280354386808 -0.020283851261483198 -0.10522537515171619 -0.047050447321498393 0.10896013621627232 0.0017607433755598811 -0.050563689981196612 0.25749414970805318 0.073428439292731962 -0.035370237968975281 -0.20131554541226582 0.20837003796955725 0.24099280240217702 0.13189060958920384 0.1266875732128834 -0.14756446452393215 0.14969671884583224 -0.029868267567554778 -0.1051100330574213 -0.17093073896277031 0.11446933903760481 0.15902106861143203 -0.040790668718970018 -0.14362167974002707 -0.19345477337258998 -0.031509719226647484 -0.24613380679064956 0.27736194868390923 -0.35419747383652739 -0.19048565151877536 0.05128066492691484 -0.16845209122298982 0.10354207442004973 -0.16278689956881803 -0.066175696937470468 -0.23256941198225808 0.18105213240139506 -0.15299004588203993 -0.13541860151266893;-0.18182954791442957 -0.14195508611904079 -0.048489466957750506 -0.17489237138707134 0.19792632539293975 -0.13402956499884305 -0.064819683197618827 0.23807140699615387 0.20156006002265225 -0.10051376063729654 -0.01762389535553131 -0.012419039831102621 -0.0081000141297980222 0.0040153049400097323 0.024840531487031702 0.026340042379841833 -0.054091534124340847 -0.051232319758344094 -0.11330889092097092 -0.25175241100011991 -0.090598529836582342 -0.26496258004503376 0.18090397658057095 -0.10318165795292898 0.19548899301262607 0.010744447231251597 -0.20322756695324456 0.050668034724295312 -0.036484155704378157 -0.084026353193877995 0.16450887476853704 -0.12484497195742596 -0.42379803935688704 -0.19906310782912903 0.043007547840653158 -0.15448524132795743 0.046757307710829088 -0.04868942494336518 -0.00035624496529892453 0.15625833725831514 -0.28584290541303198 -0.20324766086692059 -0.1099729946184522 -0.059200625293330686 0.055864928844493567 -0.036416439394836457 -0.13327896809316866 -0.12679388355946272 0.14877957651163262 0.12598882533790376 -0.11076440032868187 -0.032641667234507406 -0.353941548903217 0.10781827025407571 -0.17721045406416913 0.094001664468954138 -0.2829933742318449 -0.0086428668820324947 0.046520343274869071 -0.035431085053061639 -0.098896184246812874 -0.011510782134070674 -0.32116026521926661 -0.29217420302604952 -0.1282329440012478 -0.32930856040823647 -0.10461138654106894 -0.037283206538771624 0.10812261550116958 -0.17833581549493741 -0.26199882427421134 -0.35233349345080311 -0.13578849545381363 -0.24010541084543921 -0.17599541953847839 0.18950761115234141 0.028715701702907818 -0.3199025213454228 -0.42864846068638607 0.0059791028401059657 -0.33142354445534095 -0.15274925572673023 -0.34050695882977161 -0.3216476909992706 -0.35868772229838936 -0.16827614510195185 -0.06933133881132969 0.027489416134044181 0.0079829073929778872 -0.10838185276405574 -0.19700862195866276 -0.066268074677027805 -0.23575366831395372 -0.32127735503952926 -0.096053229937517692 -0.17166982253747784 -0.05635485503926204 -0.35620594659339266 -0.27952688642474743 0.051749993894202012 0.015183478127128136 0.22658509598840917 -0.011912765185420256 -0.099617919665551946 0.19955411348442742 0.069580857154666373 -0.19952533154123533 0.10088098900492877 -0.18085627263073983 0.011141739259514283 -0.029745082770573195 0.088970411456243473 -0.01904015487927135 0.086115271702614266 0.091346365070032229 -0.20689241208045603 -0.2270359635339072 -0.1186961395326241 0.0073071055500083621 0.076562137546490175 0.070894545834189901 0.063696773747851182 -0.036614862511983676 -0.13211287264333327 -0.22168815993703569 -0.15674690616517239 0.028153471244791204 -0.13099018237703025 -0.06899142816962292 -0.28557795599060187 0.019885468465646157 -0.11123329251735774 0.0035260639303212019 -0.21744063391464707 -0.12815155260008201;0.097489886860736202 -0.16513878828444253 -0.11186453140569638 0.11113944058917438 -0.012411840693614316 0.25170040980449671 0.0022717330892416594 0.061211268206320439 -0.066013652184105653 0.22935233979481301 0.065616108548554139 0.049264210686607635 0.027494021394756978 0.17488948877983673 -0.095219756465516212 0.18773891957424318 -0.17019753190604417 0.14647579942045266 0.12059771597393637 0.20671784658174513 0.44910596594492086 0.49684009044066446 0.37881097353141296 0.1687030543608013 0.17134760461542597 0.066328802544012036 0.15498547929763484 0.16589031856245257 -0.18984707883397625 -0.2106553937849302 0.17848112197516119 0.020015849836686941 0.24797384533222802 -0.029715353459997672 -0.14241346130573315 0.28219245052194719 0.23096753648401516 0.46514477513988856 0.14199144028285465 0.11307571229995374 0.11497318455116476 0.12089432750420807 -0.030087444761949439 0.052284825410453671 -0.16149612016748582 0.17367677685360805 0.099567783074253721 0.42536394158950103 -0.28039633021278659 -0.1324097092610709 -0.15402142198898458 0.094039237634312309 0.12090489843178452 -0.011793191708694577 0.22466230256300468 0.16525662910062081 0.36298998194555332 0.15420804944030031 0.17534784911881193 -0.073233521478206554 -0.13274364428352606 -0.050436877045402846 0.070908189124865642 -0.45824272024566776 -0.39771345192574009 -0.24630076556376529 -0.10614401973593976 0.013621591542184714 -0.39241328275303006 -0.44247764834087638 0.0032808653611473551 0.075358917692081737 0.1879581877086427 -0.22577754383732354 -0.14270474294048952 0.052753972734582495 0.1165593271727255 0.13491136655988784 -0.082539316979695715 -0.10468340365170024 -0.25004388492493318 -0.030271794262577614 0.15412005838459808 -0.25041137715385781 -0.080406350024373976 -0.016606426302063833 -0.3120160136662477 0.1235802221664334 -0.17672703175237894 -0.058927645875352624 -0.040984466972106746 0.16042281769293834 0.38364683408235628 0.28850818962876479 0.34389975243722487 -0.0043446483224561681 -0.0069184558007220291 0.017721204594727768 -0.011979394337640534 -0.10525266805781984 0.19056771983397885 0.14534570761409166 -0.1240612970738605 -0.0082760951535732277 -0.17455656312664578 0.1821099971040267 -0.12162395225737842 0.090721468702729555 -0.092099313929129123 0.019572383883951796 0.030952058092360495 0.15891067200129852 -0.038811250951614841 0.13280257959268912 -0.20173972485386088 0.15465604202219166 0.12843979277780784 0.1574242930151519 -0.1613875199254039 0.0088839728893289616 -0.13928254665565815 -0.038210534746704251 -0.17204049722056511 -0.080998369022012684 -0.022081905947843941 0.030448591011092128 0.088607049408030533 0.096500770550622228 -0.0089542739453237589 -0.10638683254636198 -0.047399263649029764 0.10232440974680339 -0.10522029428856733 -0.14751274646228274 -0.088365763944260461;0.10825596474821186 -0.17236355308053336 -0.30499345387277671 -0.518217893521557 0.11803385270784227 0.36545134263937368 0.19357148781504854 0.297537484116349 0.31716405575520035 -0.038700476438146315 -0.032797135510408276 0.0094238746543198609 -0.0089276134612881076 -0.17808115805421526 0.050350180878074649 -0.25869066152764969 0.045773200376988461 -0.48944075067312803 0.2206792711782897 -0.024553825382618209 -0.049327463730230663 0.59115654342083568 0.1367790074931233 0.061430509057842884 0.17946743220817502 -0.21110004130264501 -0.46904929959773983 0.14351780494056343 0.055121337791783021 -0.05170808121819636 0.085380775742040185 0.042466054437002097 0.0078097054984650116 -0.11795791842042598 -0.33602435195084324 0.0038045831407429102 0.3357041327038276 0.15079689304546398 -0.039156707781397272 0.62566460775312527 -0.028321781787516237 0.1175609955944045 -0.067375543029838031 0.083599035298005442 -0.25537594090606858 0.013156342084294363 -0.050029512517288974 -0.26505589652121442 -0.01733127268891135 0.139653462873495 0.11444808761648285 -0.43718183107733122 0.38534202560730035 -0.19312721426694895 0.12961423380693929 0.089592593078728008 -0.083439485462760699 -0.30830711535529792 -0.12734224057383098 -0.25968723883144412 -0.17960017305025916 -0.20656074857669052 -0.13542652818405079 0.24689500551172083 0.039496184923324615 -0.48253131652291015 -1.0383014270858075 -0.10029486707971484 0.17763071980767242 0.30947097635743132 0.39715994685503148 0.082537988006272947 -0.082258728281892582 0.044697104838607185 -0.21233633027994281 -0.054131490011305766 -0.18404273660629239 -0.10782858760444403 0.37487473999754017 -0.088968122261372129 0.020264605850935719 0.14515007085663661 0.22681586172347215 -0.061890932789625291 0.069579204593526164 0.28258240138437085 0.17875197214489832 -0.15599287344671489 0.22481079657256783 0.017670348146889066 0.056439331182621261 -0.29238521048603638 -0.181188521020586 -0.024093187345502212 0.17208148931116965 0.41135395515628265 0.88674087839414706 0.16372821004909269 0.31416196009348824 0.052462055363352057 -0.028900586031041866 0.17258890979356648 0.054141144864559648 -0.13884530199458708 -0.19749936639297191 0.098528693975575191 -0.085435742178963409 -0.12384806806651003 0.054707056790685611 -0.37571163399590363 0.24447596525739215 0.47528156683180345 0.21689089275936049 0.14181923394332713 0.22266223222338918 -0.22536923129082428 -0.10134936309983134 -0.23876852154551229 -0.30362037010488679 0.13248018801313935 -0.16458694395824972 -0.1052792782360599 -0.21271553291661671 0.24268491196284606 -0.24560610984314638 -0.027455200697503079 0.02931378662814263 -0.010655461664318983 -0.32714076989316576 -0.14816024128304117 -0.035246819054499869 -0.04231535341330999 0.047652185359129733 0.12186086167957276 0.068938571098512424;-0.20712234594467524 -0.025929189764908857 -0.090250911699423703 -0.11410437345179035 0.073798888942088192 -0.18328564449519266 -0.42131401241323929 0.025514642914973708 0.3864339236068392 0.40367242251728741 -0.22591399411148977 0.13976668226454461 0.020425151683741542 -0.029125983941543476 -0.18611249473169963 -0.21648584366445736 0.051012827881333683 -0.091064310452421277 -0.4617079324030407 0.53281419888237147 0.078981025325497237 -0.6484591246455772 0.16967852293423275 0.29180949459709316 0.29485758141791407 -0.12306631235848264 0.021876003988745743 -0.14126286867398222 -0.020653597526796245 -0.15886552022073069 0.15178964450572777 0.012996824298699026 -0.25779392813467356 -0.37175724602325255 0.61926732291841025 0.61857315097539267 -0.062425706169836219 0.32743299317396801 0.40931772327623828 0.36509315998789516 0.050444425943177593 0.054885211789480304 -0.022700378075094296 -0.07775658903734807 -0.29587767056302311 -0.088616352066291995 0.042985250741959594 -0.22410154989839429 0.029813273341933472 0.31870592197113512 -0.014913729334977059 -0.29476221720628931 0.43111591782590092 -0.006030314359514558 0.019140559161550965 0.040554115893386374 -0.20181249349366492 -0.070011655037122547 -0.25946769244520396 0.12334020457601376 -0.16367274711302957 -0.056381421337334488 -0.061555489674031356 0.12029095287544625 0.2975716700896201 0.38745575379821423 -0.11274915296482517 0.41469422104736098 0.20749975757891551 0.23789775734311275 0.062306685376101886 0.006372869254291454 -0.1507117212193784 -0.055546638884374909 -0.22872988908907424 0.094499423924232329 0.18703592250253515 0.17044759066697657 -0.085937153584039028 0.73038089133729422 0.70482644115490845 -0.65595468973263704 -0.19287515115475079 -0.19481816951999709 -0.30043829545982331 -0.25695850657494512 -0.094574606361973859 -0.17501756144142949 0.09956033131362467 -0.0044574168749894122 -0.45860481785759655 0.12504437172722799 0.066422056361157528 0.0654959426955877 0.27807131876859476 0.28617919609895004 0.1354883504734391 -0.5412208971270478 -0.58699330257274596 -0.17717243050646558 -0.23022849848863083 0.034368134264386743 -0.32284197807305581 -0.073572272880907258 -0.0012576832120124225 -0.10716984432183015 0.052957557661403913 -0.11061977971243887 -0.25470809629427671 0.27719857510966439 0.024543765942641425 -0.25203266275904052 0.14127874857332465 -0.048854535194978538 0.16462866626188491 0.12194748895301183 -0.074571136998406409 -0.098738812802534534 -0.054107366544272277 -0.096509148760420743 -0.20997014390814867 -0.13878123372576553 -0.026867793058209188 -0.054435858113649281 0.016151299992117615 -0.24357227931807876 -0.26070817629831911 0.24057392426980495 -0.01669978961159153 -0.25284980549102165 -0.094121197315167895 -0.081513187962298339 -0.2358228000962457 -0.071235209298322708 -0.2588179264379335;0.074125139801410958 0.070650782140893445 0.10363534739912877 -0.091665979119877672 -0.072966563414761723 -0.022034836260929815 0.047882466555516555 -0.31287221177821839 -0.47416704265122284 -0.37145430204177959 0.21612843440559348 0.29385572792442843 0.071813181229919448 -0.085317434463854119 0.17007289806484985 0.19458437508415055 -0.094901875274563466 0.74816175256776329 0.14932275234868411 0.044400924902437668 -0.23575587359760961 0.32594520189663245 -0.33269743557809961 -1.1096176017912296 -1.1532598835232857 -0.032832398419778704 0.22419490549208149 -0.059033670016888772 0.16116668195668299 0.14395053272131675 0.16198347208118996 0.080572447327694072 0.59766926628795258 -0.29553614740376083 0.050591719215256244 -0.24866193064620001 -0.2340760198841331 -0.4105415915076247 -0.22121322577469274 -0.48678599046890608 -0.046428280854412272 0.47160433646050165 0.25310432976895653 0.20129646486971911 0.2080568556863634 0.12806810785090536 0.060668388140486501 0.17978644832244065 0.0013489085788398227 -0.093311617128012281 -0.26741128803682535 0.18866511386315907 0.27989799080018984 0.1729567047430057 -0.27482985842088753 0.22847271383844558 0.074415202723678991 -0.10663470245143594 0.23353392658370714 0.064666430844522838 -0.021304281692219078 0.24484091148820408 0.076336433567159662 -0.093023592519014278 0.086746376926628233 0.23506127958080245 -0.030339508999044584 0.3912928358912115 0.27246856411077452 0.21681811899798248 0.076719072346613557 0.040604919757047414 0.0980209647867962 -0.023907692319642876 0.20760048159402034 0.23898422359028074 0.28460447320113624 0.46384825928757611 -0.44724196610960554 -0.029999725404612501 -0.02217224710712358 0.12499225106127518 0.053509340651791963 -0.06299939632249775 0.13540728261922222 -0.18727840070954765 -0.32654509574640345 0.13493142550591272 0.2016886964922566 -0.053340665374614134 -0.0064570450028379736 -0.26378831604818592 0.191383122333386 -0.19246696598698884 -0.2016443839789592 0.10648835798502169 -0.007415459348912838 0.09902980761065279 -0.074612005668654668 0.095852830838311073 -0.11728813717012286 -0.17370242925150234 -0.12337238239286215 0.15227080451622357 -0.029775261163103417 0.2333272181407329 0.12699824500593121 0.091143832965393343 -0.22961493490553442 0.02265811315180213 -0.28691695663717354 0.12305066551018498 -0.0084468198723898578 0.036640854917090869 -0.11735156947768216 -0.17680319564730862 -0.12954853334679683 -0.11527355965649408 0.27329398767572094 0.13750350333795869 -0.043225872625503176 0.14137290518170667 0.044419382775909393 0.19172408490449475 0.13192343790487324 0.1576425852277917 0.32497946109696946 0.21708683589607539 0.021225915924975327 0.16974748319540453 0.1081241969407833 0.14925985435889269 0.0049077237443187708 -0.061223704707573857 0.076229864126180213;-0.24950736522365771 0.14182619277312597 -0.3079469612102031 0.046795739917804523 0.21929002441886689 0.064547211110517699 0.023127769991056705 0.051390725407397926 0.45936619705458243 -0.11704332694819174 0.14128270921489541 0.15563797393398016 -0.053050295720436659 0.15200059639916449 -0.024779010023549881 0.18996821839110797 -0.10876364996850632 0.19160687054308698 0.16995701582411032 -0.14539218012330141 -0.0042124009984121072 0.10437706497155169 0.56096903332507819 0.2385615346882852 0.34158282484895952 -0.038838657388358871 0.17904165050412341 -0.14645894611578195 0.074789688228746376 -0.10609076959138343 0.11617365109468923 0.15846295737329394 -0.12485107985900271 -0.0073382051917232471 0.057536261745019184 0.34048329458289872 0.17728269891022297 0.13854161724805847 0.25917669750141037 0.47428309068761004 -9.4354955227341289e-05 0.12826821520727558 -0.073950681623679723 -0.076936691410795552 0.18493191901608919 0.062363126672064492 0.081086493109967989 0.23979189900030687 -0.10797941810029753 -0.19977014043461028 0.22224416754878948 -0.063682055013890376 -0.043156083473110861 0.26132934918567097 0.37768745842409646 -0.065514365511649339 0.097774811568376113 0.18730281096070109 -0.11082139976310257 0.12423840166673748 -0.2688963598439193 -0.24650676760478293 -0.14841505140259995 -0.21563651980117179 -0.32440864981227158 -0.58418803230704341 -0.39611091996856068 -0.18897015421884791 -0.10248237693752889 -0.25118912548174444 -0.26715609544614077 -0.039127130318911831 -0.22012699721798781 0.0030569482198431045 -0.0167030687026502 0.11305673546833983 0.083169230926156454 -0.10994638613679732 -0.095718323438087519 -0.054016218683151332 -0.29232422013793397 -0.23837682512827707 0.021342454785622671 -0.052596333116901178 -0.17439433422326683 -0.15393857661890845 -0.11003525426014087 -0.13858755146101126 -0.09659671028964853 0.11888879178293833 -0.092628123485308592 0.19429719861993375 0.14849947155649978 -0.061085665161114647 0.044055784561570679 0.35038396079712558 0.13687114510263509 -0.096426926021035544 -0.012801017876938327 -0.057300032561687544 0.063138896453270546 0.31977464327119004 0.20096125927025868 0.17737699809917148 -0.24133754509932479 0.12530340551593713 -0.26166532354291311 -0.0017794602550851306 0.027718751388448974 -0.031665263384003071 0.098490355770481833 -0.020053833309944369 0.28750583699170179 0.12940674669793645 0.096442861365543073 0.056640653062854915 0.008749008253412861 -0.0065145347317548605 -0.18236680256231735 -0.10087320762529957 0.16845984239765785 -0.022212270599005931 -0.076922398485800403 -0.021720891597232821 0.24016836674385716 -0.12779691860907841 0.074029738238287721 -0.20645112718291719 -0.21205775323637341 -0.20411689541046105 -0.35888481929108967 0.15158449321119927 -0.031421906242398261 0.16083836534291607 -0.030189851509940552;-0.2733022788878956 -0.25121755809181862 0.15012166283844366 0.19988133990078563 0.043910789812670922 -0.25827666599652388 -0.28751564034985605 -0.36847662049842977 -0.15618406790698758 0.3254895806616776 -0.014016536412246438 -0.031242858797669654 -0.020186937884196194 0.1101343915849857 0.0099082802073054074 0.031406179761442769 -0.072969452017070793 0.22384138082069222 -0.078619965801529745 0.83590621427745648 0.52888228357205969 -0.34240813543961945 -0.23457030395446907 -0.27905732906216474 0.12575344898321791 0.40424005071079944 0.45702366259067889 -0.14557631490426759 -0.181959104975258 0.16957684930349246 0.037487616763022626 -0.0065591344960478715 -0.2652548412332002 0.27657843466669607 0.76974881367512415 0.31167734254933499 -0.066263735995788775 0.34262844344642845 -0.13528508700582806 -0.58080789988381842 -0.22765380220600087 -0.0091673501363557543 0.17771475814128332 0.037000636090384384 -0.2301392845049684 0.096051014766077067 -0.07994666828808028 -0.23890463521484542 0.12343643770556155 -0.054509674105337497 -0.24173306483838161 -0.32597620074571593 0.204835304504981 -0.16444529476443853 -0.35679358779207787 -0.14454875481590551 0.16240859485236908 0.013811225661344909 -0.06072031642337445 0.042895236927718003 -0.02680791745066468 -0.1174873500508181 0.18254731101878477 -0.35888907136926029 -0.22694333251566096 -0.24219097445351204 0.76526564374806927 0.44006422963389735 -0.083563701400967388 -0.34474860808378827 -0.26117900605120276 0.12670739998238309 0.30085998318529517 0.064855421866849325 0.098713250726041382 0.18078975982419457 0.23403387544899068 -0.16239254939475933 -0.18193913780903342 -0.35678765634797988 -0.23600508651484922 0.082969761463533798 -0.22877271708953745 0.077514078266682232 -0.19456633836791876 0.0054566121656705541 0.28462076980119017 0.01093519023952242 -0.060830737240652355 0.020431690271067671 -0.27846824311874757 -0.22199035761530883 -0.0573018832051174 -0.02173992144402459 0.029603686341620625 -0.10820072300803628 -0.13316260572701424 -0.30993472338701056 -0.22730114972420826 -0.21094116977477426 0.042449351337199057 0.1963664318797145 -0.042937979468379135 -0.26660379627306968 -0.022041756860733827 0.12424437968955852 0.15299615660097052 -0.25446881054312831 -0.39263207877010708 0.064155622580224669 -0.23623347625981775 -0.22789213087541374 -0.11131785257774489 0.0097557100016306894 -0.074072986510462582 0.35541193071920957 0.07065882859848388 0.10887088183872383 0.19743598047980954 0.01605676900088129 -0.14009402807014612 0.03439961745507094 0.22849884430113132 -0.02726043278380675 -0.011400990190347975 -0.031813464181822501 0.18224869245780106 0.12036134138636739 0.20519131380618785 0.29541275153659224 0.0072673878498675237 0.022290356183961507 -0.0022960258332283762 -0.18867886211182686 -0.31954158724621029;0.071912230734859126 0.15833416744754683 -0.26798920937667736 0.32871168159006808 -0.03197178428790861 -0.028626990466231631 0.0043387920273451567 -0.38535290230125496 0.22471464637459238 -0.086839612385317538 -0.039334864581086051 -0.010546821485502574 0.10447341491299422 0.13916515840847479 -0.086260995146821104 0.12625265159998922 -0.13560884613723079 -0.32120952760191185 0.20129426322951935 -0.1933505003871992 -0.45567393777897464 -0.45831928816035566 -0.14566446238184033 0.017792512354905733 0.16505319915552302 -0.095169789815634898 0.17695719504707158 -0.11742646814448429 0.050912315649631536 -0.016880932850926084 0.24417258898513389 -0.12215607796039225 -0.32324316270407127 0.075510756846170521 -0.0036128100324663856 -0.15177631721566301 -0.0031590212991590735 0.007892658519864067 -0.13324551393308925 -0.073446156442325577 -0.030037297616744785 -0.22638098630650091 -0.2081802403302502 -0.17481248705123564 -0.027616378555732138 -0.12460103465337685 -0.17702311918287389 -0.53771972571246673 -0.054741164203508372 -0.0050489186743969249 -0.094615181213402386 -0.56404771013288413 0.092125677077128432 0.0672724601658196 -0.049510401359208422 0.007932328514942584 0.003863750911995872 0.073286799176952536 0.091022661037656036 0.22393616911805922 -0.10367743224861786 0.071728018989633532 -0.23226995255721791 0.80937893550094708 0.17565521722543939 0.29199837573676718 -0.50874218993045051 -0.17293204769492909 0.0084938697721010578 -0.040486048727873841 0.080879807730549882 0.26607163067295775 -0.08205692472034859 0.082371625568853094 0.030039898695297881 -0.090288320753338633 -0.26545064458548961 -0.49798876519507818 0.39569436451043916 0.52183740476128837 0.97095690162196646 0.035845843969632203 -0.091919619719595058 -0.038086214941973097 0.25057553170501518 0.22527942124489678 0.30213081261000557 0.029328309052887306 0.018949755127116455 0.031993298445348116 0.054993666195659645 0.10316275353052345 -0.37361671051209144 -0.4801776418171434 0.51886842041849457 0.69283342456544794 0.60125029211000924 0.39432155548425851 0.32249437554166049 0.1679197583662109 0.13429089861964363 0.20918801597677461 0.049456566530555995 -0.021117671079472287 -0.075851899800114919 0.039874905971496379 0.12682166884445484 -0.19882673976784668 -0.11893312433631607 0.38284722754932565 0.26987177500885651 0.16480355564340621 0.29194730109620665 0.067635740789105031 0.28849050947606109 0.14038640865531377 0.052420372194745768 0.043496936706805309 -0.18343465881154086 0.11934872936794157 -0.12495524624941992 -0.077641683243497295 -0.11552848297680225 0.014196208933368811 -0.12286596857011382 -0.061382993402179183 0.12821402984145711 0.23026822288263823 -0.13918783899976497 -0.022492813498030041 -0.12630264195894517 -0.021246088562995605 -0.011008120960367591 0.059418137608449238 0.17745361704125162;-0.0056073534708317553 0.018412232434895336 0.34622874046268565 0.45746019390671344 -0.23828729973819471 -0.168144303599991 -0.30970621964529127 0.0033330190239435559 0.017519646944634201 0.12617051866119988 -0.24956354455389573 0.059994910517991731 0.29189284441971364 0.046004330106023159 -0.20175524518652749 0.2868709182255908 -0.045101479755108864 0.058484537077355417 -0.13286906122283396 -0.52327191393606431 -0.29400931994805862 -0.12323204810419688 -0.11225536878938337 0.35581676705162629 0.61953309992777772 -0.14312933776264219 -0.28653654781143029 -0.064353304856480373 -0.089502927181598413 -0.12383409301057426 -0.082967322493607776 -0.1599307500516495 0.114385210816301 -0.12999473192599936 -0.78313714217824015 -0.54002986095493033 -0.34096907963349216 0.24831432679109849 -0.067241236978571414 -0.00098048559502564346 0.33089813771756604 0.049154468983914373 0.26520980667934019 -0.27242836699120904 0.31172898344040978 0.13593286261825577 0.13836219533943067 -0.14638800673319524 -0.40463282954646368 -0.40855497252575007 -0.11638884971402687 0.57323313874908799 -0.056096850409821333 -0.32321538834806995 0.35301465978256213 0.010333973587289696 -0.1825922818175271 0.24708221185185358 -0.10158583014731194 -0.10710604925814492 -0.024091091254398164 0.079270021083376274 -0.038306713685130896 -0.39482436518379715 -0.14739053765257568 0.26157272268920534 0.54274054080520395 -0.10517750586572923 -0.38821309392811759 0.13917615713797918 -0.49719343706531982 -0.25587941404922893 -0.24169312104780508 0.1379818896389047 0.023270003594765973 -0.24884017883292989 0.052647780689954189 0.12329140240166006 0.42879833657189081 0.11327690261884217 -0.10105606838048063 0.37144149251508635 0.21368607826806749 -0.033381739526913423 0.084163371149603275 -0.1920376152199505 -0.048612774712293985 0.19458474876034226 -0.13481083699848767 0.11808348929658044 0.24036651672550899 0.13759230997401009 -0.13173392903551451 0.6931457335514013 -0.080542899236834289 -0.36381532641671593 -0.36425040989925855 -0.028399276688330737 0.019791364959092415 0.32354895727361271 0.099674508586771987 -0.0057051599078620247 0.038078974141838216 -0.082410121847792214 0.0022288585556205914 0.095904588683982883 0.12912351619150164 0.11820554680839025 0.18420617176233792 -0.0096296221140878806 0.038384464061167904 -0.059682583539992305 -0.13010965605025562 -0.036950696158452513 0.1799996600051928 -0.14721574452146066 0.11611548966592626 0.24684433370279901 -0.0039770716315697995 0.097958408242121819 0.23929004781988159 -0.10518945606434779 0.12331583781090182 -0.034844753923251481 0.23110866676663472 0.076667012746985258 0.012974729469941253 -0.18172575425598722 0.11717925612373987 0.18713037080367742 -0.11495708924153411 0.27954513543256387 0.23636095206048544 0.17429847352433422 0.21400674741944331;0.062720540556004276 0.25331435740699831 0.1626098296932679 0.35701661922753603 -0.099363167512516115 -0.18011408655892702 -0.38023694072087666 0.1840957304151255 0.33375303421536917 -0.0045651562843443856 0.56149905905177888 0.36426915445905123 -0.049653647435735582 0.1229591467766302 0.25286111979907633 0.21248484670265683 -0.17810508636244829 0.36634216436594502 0.13765075930287754 0.42087569080012782 0.0069670842503825742 -0.30647646480669055 0.44144909080834605 -0.10686921496368898 0.06165826476508561 0.36334027798313773 1.0274814360944404 -0.11422453262630003 -0.12133465999223939 -0.10543719935708148 0.065713488916916557 -0.078278527156884936 0.043482281833728452 0.10960962630365795 0.98399025514929306 0.71928203732071261 0.003962453931617314 -0.25308348135569658 0.10494584054562604 -0.092888871960100858 -0.22241214072907589 -0.073785418809791767 -0.067424826108796077 0.19137448028313647 0.021919858123622661 0.11653025442601296 -0.036095175415710626 0.02848349836026073 0.11104084386892704 -0.0023333399278774986 -0.0089017893963506678 -0.052150891085277103 -0.25969087718367656 0.27905864680435299 -0.39919244506639723 -0.36570090479073497 0.24164065471657498 0.12359461690637323 -0.272408820957103 0.33473603731352364 -0.10455245177900477 -0.17837375006627373 -0.26209804651524932 0.045011176220950473 -0.54707251008991431 -0.11556117661709223 0.14049086481689624 -0.18235195601895365 0.05177739587127695 -0.3879810787241682 -0.01747043069612722 0.14892239151478734 0.2708015528288546 -0.17518824883669401 0.036713393844952008 0.31692005180786581 0.27180277934449665 -0.32285059344416472 -1.1728953034768079 0.093757625003877562 0.28705224172103361 -0.64160111057860347 -0.13943949283358023 -0.35376567154875399 -0.47000354180731319 -0.23979878363353294 0.28506624469576247 0.13315768623852375 -0.0090088279692182652 -0.034763384750460098 0.0043984039034805434 0.14758258142423678 0.20817684630303718 -0.55366487310844081 0.26938195502780671 -0.025133894065136116 -0.56639453537751883 -0.22213837734439706 -0.33101519398271129 -0.39392482256273431 -0.034736922561377968 0.52534878580164079 -0.16971343681467571 -0.15881091414252696 -0.11057537408815556 -0.090257168782657771 -0.036970820435675782 -0.072320958376245567 -0.39539270239755964 0.29440767496769088 0.24868924321987557 -0.13695779635841215 0.20600543661716106 0.18081691392876148 0.066743026972644073 0.21792917711732387 -0.048105101138959071 -0.01222867706975941 0.13458807862225197 0.14763515988373013 0.037100419769581977 -0.094407098625552563 0.14768240462826993 -0.030469242777198025 -0.080968229878946349 0.11327757639454952 0.13650912038838117 0.0025234967760048121 -0.11237259333338658 0.22540713090241316 -0.3976276904144031 0.21828971630446922 0.026039521682778927 -0.15260791933244222 0.10276307823813491;0.21760765107060154 0.058768426928689284 0.15912675919088518 0.090970031030396137 0.2008962746691933 0.23518690700316491 0.045426131431709975 0.13817308914716195 0.053358595453968309 0.40509172217922962 -0.057463893685506209 0.041130225990511027 -0.037662946810767046 0.076642342607306541 -0.147146760157262 -0.075062251943900912 0.1710166892105639 -0.40667048051914201 -0.29325267718605419 0.82069890296754233 0.49048132161856511 0.23560766076895934 0.076115439368828502 0.089563181870763856 -0.090481923877122422 0.097387487497568301 -0.18938464917641568 0.036911766740822693 -0.028948636542457173 0.2234910916121953 -0.089168363182871205 0.15378127727546073 -0.14995548628446201 0.4374065600456557 0.84640373362261068 0.68156201303287811 0.34140883729214455 0.19226833942379271 -0.21336563355386443 -0.61170843490040117 0.14494855658794734 -0.10803386824804914 -0.043452673747779377 0.087928186353005339 -0.16575837109913283 0.094269876845814504 0.020044814208260063 -0.19111904426996976 0.2299318069476215 0.41976511753309853 -0.068396076789630625 -0.38387863230223401 0.40670680401355347 -0.046373216973015517 -0.30918940384461169 0.23023619269318424 -0.041369480969740302 0.10228841068463135 0.093895794071877578 0.0042395260477160442 -0.11326566034774693 -0.14372616780208841 0.061210124484475721 -0.071630743018819679 -0.31572697771726882 -0.29148684727582047 0.021880968540479658 0.36206587780720595 -0.11605465335884953 -0.31729906984709577 0.15389847749873523 0.19361959147996149 0.093255621711340428 -0.19644835087264906 -0.1728821527743534 0.012307060864279433 -0.17714919184447311 0.0051029355986733855 -0.35643011035319089 -0.57979337861993829 -0.11119917201139799 -0.30162578086608538 -0.25886315806013799 0.075884702974611876 0.020929052300889473 0.22019881308266168 -0.29121052884888293 0.25935396617659123 -0.02531308311086072 -0.16933862959250684 -0.14595605104458687 0.088017511680737834 -0.23220246151980037 -0.00073229308218675682 0.023581075791728762 -0.085810119477318439 0.14360493929150314 0.13058008050842634 -0.090970411075138979 -0.28877596516475751 0.054622772460343604 0.081508767350533612 0.0071991207789690523 -0.13139255062845609 0.16882082288653771 -0.10129623366736071 -0.14061142434196733 -0.043744807951122282 0.023360485081352463 0.16905967109613471 -0.053151358624297325 0.094172852472705695 0.22293897987649647 0.062375438646252959 -0.068849076266617307 0.039768238232577614 -0.22504703643914836 -0.13715343749336878 0.10753044540389479 0.13641442995390804 0.20793065519516277 -0.21825041912379248 0.17572789579521694 -0.27238309816625483 -0.29898808651980258 -0.11477651463260641 -0.076864613917186519 0.30711872809534213 0.18013176790668933 0.020662799438010897 0.00041318081432602976 -0.030818780991512879 0.0071113681755236944 -0.17165157370757042 0.12050569727203823;0.18247325957306426 0.10978603749895466 0.14311066735486652 -0.17805757343689885 0.14563725890369925 -0.11180359012622958 0.0042143114376713541 -0.12416963069563168 0.02315458165719942 0.26731818213025882 0.17920978861443068 -0.088582985685953589 -0.061790855237107832 -0.055787902181142018 -0.087032206686478389 -0.060245915673914144 0.019907791332674594 0.14959513816817913 0.20709402642311506 0.17217711206272657 -0.023216263495266846 0.31510715446330312 -0.075676644030288634 0.31185227763280582 0.18566932164454383 0.19578350118952467 0.054215225158734677 -0.048236870885744083 0.13413082827261136 0.0081566435597722822 0.0031159590190657244 0.22351001013909072 0.11410434899603278 0.23235969973731016 0.037141840407632014 -0.055159697967378143 0.018082369148767465 0.26661859290984713 0.11697765877417132 0.20964737631703526 -0.17152554354078248 0.23046639869680197 0.081488014048790303 -0.10490719359387048 -0.099576594844771452 0.16891527768695458 -0.015231024837965339 -0.19854405917089604 0.29399602352259574 0.22664338325034308 0.076112918281966549 -0.063250395362754619 -0.042891510733189669 0.17595090541224562 -0.090147385747519154 0.022272145442489798 0.030938281354792374 0.16856889344095866 -0.038584504640850698 -0.12619545458294021 -0.1264277570629532 -0.12212211105122432 0.027521262695948782 0.32253145193660604 0.24758048342628661 -0.091688366791048997 -0.047795365752391579 0.27935965330114787 0.062707192319418778 0.034265843709489305 -0.027598750258642231 0.28042495287477881 0.1999607295179886 0.10494619711549291 0.0089036530167763018 0.093441629987162711 -0.083079704788385972 -0.096126894801530152 0.21728069007977119 0.072552752987270125 0.2909789460819201 0.20821514456191004 0.078750772082266052 0.14057567203551222 0.38176539838482487 0.37177439437613868 0.069874709369087712 -0.045858550179093932 0.020517661171013963 0.088956236577917319 -0.12624030483775942 -0.049408266333979989 -0.004935774069347261 -0.01451949564593118 -0.10617472166497803 0.14231627280374287 0.049472513735081637 0.069475821892964362 0.095288403788859055 0.14789828983092193 -0.00030748833930899097 0.12736770438937767 -0.091066791082142315 -0.049323686712562216 0.13212325570188646 0.21518979427105184 0.041422305195189441 -0.12769633213195453 0.13075855654473945 0.059797956869131003 0.18518209397649879 -0.075329418721188868 0.16471867729979503 -0.087435682628384803 0.32617843854429474 0.20652791288782815 0.062002970659392448 -0.12521356510692214 0.06026461878859446 -0.017527982259289351 -0.10506563498090662 0.2274367691335529 0.16255054489250367 0.089825611300422437 0.18164031763519212 0.29817377850602239 0.058938777333696818 0.34477938768038424 0.054634127629078898 0.26444489247444947 -0.074118297579895159 0.24651471867199701 -0.1619727170424719 0.15783216858493271 0.091280518902034036;-0.11166640217985495 -0.10755378285877296 0.34684235089940063 -0.27299551307530168 -0.18700179653133359 -0.2583980247915254 -0.094282406699217627 -0.12822474675054618 0.084598129975715738 -0.081822967924071024 -0.24747359245995318 -0.25158881798048649 0.097264936538692975 0.22286034148231273 0.006646174033590295 0.091763472167761748 -0.15857816228164584 -0.067953596154857937 0.0080949795879850309 0.35980014011502792 0.43666466295099698 -0.046388965092262167 -0.20540795894685526 -0.30432571840647338 -0.46078268651023419 -0.088684742725517712 -0.1980394678745683 0.1798935981669485 -0.054721861165365079 0.060846565039826474 -0.091834695446062709 -0.023957088359002211 0.40399649159534035 0.38701258522649179 0.47997656396835475 0.048466000710913622 -0.058732968914270385 0.013614190376420424 -0.043525628113595206 -0.49687420809888067 0.25323989036562383 0.16039645950249143 -0.17608822552227979 -0.094224738009225234 0.014966939207988656 -0.1067485075221162 -0.19480588235182958 0.37806448663071057 0.15949612822740267 0.17645442936981212 -0.10474497116011285 0.1806825628861331 -0.013451515807741576 -0.13283535122521445 -0.27963040711190573 -0.015998827902227151 0.14445342869390854 0.078011571412809594 0.25662844515979799 -0.028382728568864399 0.019584631188622331 0.0014897209156743119 0.31071687000249665 -0.26537230239235604 -0.024666706229982637 0.38941558631830481 0.31112385515264473 0.069715980188738647 0.002085515804731508 -0.06834304057349723 0.25082364512906519 -0.027450019137074982 0.156220423197413 -0.035073005682925124 -0.18794547778345841 0.070691854772523072 -0.013130148352969492 -0.03483521106079434 0.052997489537760192 -0.023043592566496404 -0.26956302342666083 -0.1190171278494702 0.0036799945782434182 -0.13411533625371769 0.081565926260972865 0.15219850137716043 -0.32588939437727243 -0.034403889899666418 -0.25721059529027296 0.0060079901582520204 0.11461509102319575 0.12491043383712594 0.082518314365204348 0.35102916131648693 -0.010590659272968339 -0.069956105596779478 -0.0073842530025106396 0.0045281816866382394 0.24416967462222339 0.040571790378317957 0.12984041340902902 -0.35576154071484761 -0.16041825141085359 0.12550053158506977 0.22899301720021875 0.20267258768543669 -0.025251059917340064 -0.025944848891349716 -0.018141328858202126 0.14833949195859894 -0.22075374673195527 -0.126424422215068 0.096882485199172572 0.14353511051185902 -0.23478071119973973 -0.22550844929045055 0.16494894108127303 -0.078717845320111821 -0.13944798523307653 0.17644750185277236 -0.18959523502940645 0.16556064828967432 0.10543158407714165 0.21457327769184317 -0.25463352391621602 -0.21650833933854191 0.17074768453276451 0.16428133615557058 0.098291657469811694 0.017324533051159309 -0.061437913884583709 -0.031394750669110467 0.15416289752768195 0.14984225783962624 0.0033929806003371145;0.14196693834119029 0.0045544199429648075 -0.53981939523952338 -0.17837922680442436 -0.093584675552716712 0.60525586137421195 0.53921584545993584 -0.084163685983820541 0.30511922000286296 -0.023643282043081019 -0.15178707700892274 0.51203220223213686 -0.0096604976087560027 0.11265520899610237 0.12008730212642078 0.10955642441225863 0.094282161937581072 -0.4139266959057053 0.18158565203226942 -0.0396502887883661 0.33845224085284642 0.73402167229560689 -0.31490292840468898 0.13066369983097756 0.25176361440675621 0.12717319660839818 -0.17122914416677146 0.1692275910836544 0.020627470130695595 0.20942718571782695 -0.11681918313077766 -0.19881625633688466 0.039384100651679445 -0.093170076213315731 0.176142506438661 -0.53253779064445839 -0.034640147007262971 -0.24355514994075719 0.13676257978735645 -0.13245266425242044 0.31166860993971029 -0.090344817562839921 -0.014818804153937661 0.23865922260308861 -0.082954623110603073 0.2145935585700979 -0.0085542590802740598 -0.11467925220685311 0.5125707431821227 0.46660166675149767 -0.23595101353757514 -0.71655458823481843 0.5448644698180457 0.258380817193884 -0.38197256093224918 0.000152273494703631 -0.043758418758000309 -0.26390977861808612 0.25815052436694597 -0.12458071779346573 -0.022929637062262431 0.028665623883365389 0.20746496506456585 0.13362099313379999 0.03521861253025528 -0.45405156185688988 -0.91426573954106782 0.27660767227309291 0.18483213527389419 -0.13237133881490679 0.27079679704817644 0.29753314138769027 0.030969623394219877 -0.16875693308378528 0.2402457779453441 0.11869312573112463 -0.023029214523875095 -0.34017173455229721 0.55284821415945118 -0.18983731670241732 -0.13959315238201139 0.1793524616091508 -0.24448435565856827 -0.3481929054223819 -0.37359976715162907 -0.075582720926121089 -0.16626547911487424 0.13680853782100391 0.022672350157185144 0.22407152771838143 0.38259696679437383 0.16842922187974563 -0.57177418813988679 0.31402521068705513 -0.25412302784123075 0.19625351626450446 0.61240216235015488 0.11080356444579073 -0.2014310826213489 -0.35256187356126623 -0.30176474742107817 0.22868829094749329 -0.020002798539617617 0.083935290825987552 0.1574775991908462 0.16123393626983248 -0.10989659239502052 -0.26660553582238977 0.1506746309814751 -0.28859676114645355 -0.029150751371907115 0.64737300602522241 -0.042843181738644015 -0.085075783124043874 -0.15121519850583615 0.11124140102514533 -0.089814387003876991 0.0015261982395779518 0.067901468412071925 0.25899611593411792 -0.022953943702430868 -0.12179346009695748 -0.08430236410066573 -0.00016519817941982218 -0.28847247357809602 0.12514684175946 0.17215073729157065 -0.062628665848910955 -0.19301921128975336 0.041789810986000937 -0.042556138671950648 -0.025743837926614457 -0.12233125833103378 0.012646966885313228 0.087633417653804668;-0.0079861806242346317 -0.18323302381545278 -0.070276952985798558 0.055203541159791834 0.055076964101387835 -0.36535786238799306 -0.17694737074613082 -0.18995064019138619 -0.18522188181224578 -0.25291807952087836 0.042579412371365609 -0.084702930506850724 0.10658188677219274 -0.1380894800922578 0.16172623244168965 0.044873034053560287 -0.2027315681373128 0.3154695990289732 0.19901687360191206 0.070913754583028149 0.14192021461989818 -0.04909579817695707 -0.26770429867287809 -0.83896482051324472 -0.89172408129578373 0.44484481872569298 0.31583648190757124 -0.11263382798571077 -0.20462672791399683 0.095441939304408085 0.16456845330518521 0.29527079704692055 0.1189694384291468 0.10985233348710324 -0.088574519171488647 0.014479820685580151 0.3616734935405812 0.034376346898953428 -0.27638535162936945 -0.6765021652089932 -0.23850604229109529 0.39775962574003854 0.27348540156963741 0.0033525369245343156 0.19527658114917906 -0.11892852537491504 0.17064069768432674 -0.094939932365371141 -0.14689834315198116 -0.4390347760696578 -0.072611870560874953 0.17005795329587342 0.1832145859983092 -0.35392324160315303 -0.35310953366946773 -0.085088669420948851 0.028942434806192401 -0.08041161966694986 0.085895201188974771 -0.067155398302454469 -0.097971927514132931 0.17885208904597619 0.17450048550612207 -0.29118094758426988 -0.34154026237589091 0.071245786407401146 -0.13984569572959982 0.014683216357513651 -0.27814091580304262 -0.17901224942566191 -0.016751749366469153 0.15065232887306318 0.183672333316211 0.17061839354808375 0.025174723974973022 0.048103417352813774 -0.028639570692959616 0.03534651200578226 -0.09365674198436498 0.13008381626646562 0.26006405825939566 -0.02203583131578616 -0.014331545048182882 0.28121576537242471 0.15149860573454071 0.14094033465128297 0.14810623159102101 -0.14395610865821104 -0.084883085125829788 -0.022516449253463237 -0.14643462969467938 0.045010997597155794 0.16885395821882845 -0.43671451141300582 0.18297798892518025 -0.0030449143503370772 0.29761735396912226 0.3787561962493653 0.43961864642784826 0.54591415484859496 0.13283185150316107 -0.15301659054809863 0.093911685590453556 -0.12754198950397391 0.046954030788779709 0.20808723578002145 0.074629125452701076 -0.062179143483572154 -0.12029453387388749 0.10862534041345051 -0.14271990900884579 0.12144851510505821 -0.18266998526767833 -0.097388884413654342 -0.097230240629845546 -0.1517000011054232 -0.121690882862272 -0.044536188392458272 0.11636914169481233 0.10500101077919112 0.1512584446515037 -0.12914387773086058 -0.19997033581595397 0.14852474945935756 -0.055936951822140965 -0.16959497189259107 0.16277435170694216 0.13917421531899435 -0.15169782871403137 0.14342550794822714 -0.14606174870430255 0.016924882465712266 0.10871956214134405 0.077919939033641347 -0.16895361347232954;-0.16702260779742961 -0.045551039001057399 0.013382899854704783 -0.060269876128730984 -0.093854378406719341 -0.11632223655276562 0.13133861288534152 0.0044670781035489465 0.17705890979214015 -0.15630453337819186 -0.35538640153810092 -0.31878312116535962 -0.0089594436863283198 0.065225383769573472 0.07900180928739213 -0.051012770437311138 -0.29205101063575367 -0.1845233862609546 0.34034394532874612 0.34795552853194262 0.42622202941769616 0.096624686069894328 0.34007227988446537 0.3191562066458995 -0.19207549766929788 0.16558620087565568 -0.14118076959780793 -0.26651726833753764 0.047531886922729964 -0.18712991710905977 -0.21185164060204834 0.15585365686421923 -0.061612130460664098 0.48337759119229623 -0.010006110214208571 0.21833579533611755 0.08353603414947737 0.13585483488337452 -0.18506171984331904 -0.2047819223682707 0.41507479410099113 0.24600627067722447 0.1665308213685586 0.09386218887857227 0.068780307807423169 0.025975949377280382 0.12006271253689262 0.45245687119255062 0.10565410708497038 -0.11807607041646849 0.088897248550254035 0.093509910397429272 0.18351627840875859 -0.052885404593930055 -0.23054104747966636 -0.10523212679527641 0.46450705652979934 -0.28381845523917776 0.068244063455763518 -0.10350214919843 -0.10848722038850321 0.13829918776152869 0.090244653420724991 -0.073196686806722089 -0.35909335608697573 -0.29644703477252837 -0.061374982956642087 -0.18054902104658402 -0.31991357049770008 -0.19154523262512624 -0.15391510023288707 0.30633323524181172 -0.11556246016295937 0.13542851594001551 -0.09703504186829949 0.13822571681979284 -0.15103604787525951 -0.20626157688229516 -0.22181383431958143 -0.065609845799416089 -0.2641137553308181 0.072816230009680766 -0.14428859453204695 0.10585835157778188 0.20022656402659897 0.00041850667099868014 0.14338287205194197 -0.035179685913197353 -0.10922150636920182 -0.057409102059199767 0.013656990680162155 -0.21797899482936736 -0.27910305795432555 0.072947051405494956 0.23719845596655603 0.17405256025943003 0.11681491327246356 0.45637739727323512 0.6681533692778131 0.29513858984474961 0.30262299908529006 -0.089075202111283655 -0.067454522480736842 -0.014466437281000378 -0.28224694995488753 -0.044714872035545028 -0.04959835760416461 -0.27625574676378511 0.12941158045053849 0.060353481359964302 0.27927134111701429 0.075958783886551293 0.090440420660004614 0.04205664618165026 -0.072876253939812091 0.15896552545530346 -0.25912463511555561 -0.13817517483362043 -0.060932951206554974 0.030599434593536329 0.12464289200424229 -0.085706696760994225 -0.061168736367485634 -0.054859947359547467 -0.14667061494066108 -0.066204954760603688 -0.19226315703984645 -0.24751875134685355 -0.073774632719110417 -0.24471293753939696 -0.12103066844181837 -0.006263239994226585 -0.17236722775307842 -0.01219085606178057 -0.0085620511454655001;-0.058233519132422036 0.0026503902863430611 -0.1150498230048746 -0.083969450416900598 0.021788595239185412 0.04829383642884174 -0.044238077774517597 0.039300156934494859 -0.095652342248867456 -0.042238888348573381 0.15048884539837928 0.14510780263519324 -0.19453109462784368 0.13944602852739552 -0.20340700657337968 0.14976577091808133 0.12134924524222138 -0.087714279697184885 0.0047311866146667568 0.39012041681158849 0.26208959479318467 0.91531141234697366 0.30983170268583993 -0.4450527892907547 -0.11303903574510407 -0.20218233234351604 -0.08548062398579187 -0.067807057242902202 -0.17700734491993844 0.06154935287408466 0.024498199515662893 0.018576473505632948 -0.53546757145409796 -0.042622304030076497 0.052102648040493131 -0.039258187459379104 0.59137926049888734 0.66869249193040992 -0.1902221021891039 -0.028143354280294991 -0.62071239406970979 -0.096622198213889496 0.26774361989736506 0.20425131876130576 0.089819741414844445 -0.19717115973196009 0.14315595502767459 -0.33657626192085588 -0.053310738257092954 0.53195494225707152 0.10201085916446297 -0.18519233256851819 0.28043932693149276 -0.072651755438596005 0.30998483954889849 -0.55326054632825172 -0.19279852223010047 -0.079604409097589729 -0.23388645192789292 -0.17961855767668281 0.11566489712563698 -0.18623568499261978 -0.18044923701033555 -0.27206897209191527 -0.050124645256002173 -0.16913820188820758 0.0075694769393468263 0.70034521281720297 0.15670537389880618 0.51515320641484075 0.24611665156974399 -0.31589937628766757 -0.076160193120628703 0.19976693485482463 0.1649867898520799 0.059985996178238549 0.32054835988825542 0.30780330359786406 -0.26127052839482545 -0.44534003531362504 -0.53042381065085054 0.71956108106538297 0.2589419640124081 0.4136241365986128 0.36143728419726395 0.45071092050454004 0.087161693146047214 -0.13117737930205989 -0.11488786930794795 0.11333521538654334 0.086973407451068629 -0.23367747193672231 0.033980902063869223 -0.16011673885974353 -0.46324210736708843 -0.36146811555415553 0.4613276478224933 -0.062985560265412979 0.091670092071571466 0.084319034168418558 0.03002669443781162 0.022985423547481572 0.17976040545472746 0.0078244583582619976 0.064893065950380593 0.13598303886224267 -0.10554125248395614 -0.13806020579985662 0.13967023823736463 -0.37163725082149429 -0.25728020379953059 0.15781986961165595 -0.06524593735460614 -0.22867419837461372 0.14775811889663695 0.1372172415997584 -0.16612296869125576 0.19710756707774674 -0.061023155956162603 -0.15040972663769889 0.096066730926389246 0.18909354331888967 -0.13174373052278154 -0.15351565413658549 -0.040641355591797185 0.33412406362509456 0.01421804516042818 0.081744460447642261 0.054740814969670676 0.27717236922064037 0.17851703385762704 -0.077537367268976032 0.1939888355152673 -0.091356905083722184 0.04239974593152477;-0.07560824841187401 -0.019376333931810777 0.096171888508167408 0.10955052015186587 -0.078075753671813991 -0.24953179761512118 0.033828142139043914 -0.23485662631479262 -0.27419101972019233 -0.30249756130725253 0.42777932910753058 0.13872843537668347 -0.09534959576848992 0.088267819164359676 0.19818377089654135 0.030413563714538766 -0.047018714709998098 0.20620799734164791 0.45499525391046097 -0.11028356722755815 -0.30880071676956478 0.26965908914827491 -0.46672368503832024 -0.7831815765819049 -0.66796997269831049 0.39398708558686057 0.68799552921097951 -0.2225462264213483 -0.018379655793543725 -0.009468636662667021 0.063553538087714162 0.13323251949706658 0.31955340842033036 0.0022932997979592004 -0.086697636795919922 0.038907469441477036 0.015800585628972609 -0.25270790334487991 -0.29262081339740836 -0.3568316319707408 -0.021124450344061019 0.35469068206499765 -0.071903626662003575 0.13130661074868524 -0.17346204626189002 -0.13842561417465571 -0.19368588994754821 0.053829683567899266 -0.051046305426207417 -0.50739489989337527 -0.1237528469957426 -0.026453142261512377 0.5086484153077222 -0.064921299731026366 -0.21760360545489604 -0.26538270627389721 0.32835058314585286 0.13275857607103739 0.12046716754365891 0.0015595447439306588 -0.07337036042704502 -0.09429170269546347 -0.21651602278625781 -0.36311538870980431 -0.14639449513563604 -0.27197566516247235 -0.15322075919322012 0.22136474536509063 -0.12901642590003701 -0.43040597363573385 -0.23496748199296641 0.13410048878652522 0.11730018395773019 -0.026461591755979074 -0.12828563672707557 0.10606572781793004 -0.14894184206365321 0.072367749015595187 -0.2985949714446019 0.1178921772089781 0.23352560312726928 0.49706601094123737 0.018543549474275008 0.18181097821337666 -0.08573951018511293 -0.045207708219960473 0.41876515078580845 0.014710908054387283 0.06505281972408461 -0.15314218059137658 0.038740152614229834 0.077911987837299496 -0.32451307648247169 -0.25527839051003459 0.30244935155007208 0.23884697501964969 0.25631193945819208 0.17160555565664148 0.15209572173193794 0.4802643312883999 0.27668917639500479 0.22049555920887687 0.17127467082655137 0.0086165739717232025 -0.064333019423907206 0.11240807966675316 0.078254887400964562 -0.13648978672142012 -0.14808579979474537 -0.10909393220463096 0.079428690460440335 -0.11394374291550395 -0.059670200771564277 -0.18114736724737221 0.10599303849492121 -0.096301387083943785 0.1765149364702655 -0.0031355356497627879 -0.077409452188387226 0.21960918696183745 -0.2172063239729998 0.035854800061396713 -0.21178316530974181 0.12700333682695761 0.033103291901856784 0.00063664568483901376 0.20031692896719952 0.37702987065257093 0.15097797624606102 -0.20365803545578726 0.031111963807416203 -0.02457050479406692 -0.12469303020780786 0.08740130564563138 -0.14653449516865749;0.098495651504904219 -0.010803599390316805 -0.31412138343865564 0.18560493090644425 -0.081447031765273348 0.070226141339569642 0.088948297209304528 -0.058962778973614557 -0.080193856018273516 -0.040796909848829298 0.038727582971515274 -0.23796967981087364 -0.22455871918534645 0.037711296973572568 -0.030654905559951609 0.024050584145017526 0.10086179450005647 -0.14409624308008206 0.067160574963740574 -0.069205133035480509 0.21010112263896596 0.13556698549443447 0.042750418623914301 0.022868238092788078 -0.14607304231386295 0.11438533466282257 0.24462216374460083 -0.020782106939502512 0.052659415505924304 -0.020098300588310917 0.10395174370652986 0.19613973693455439 -0.46149634433324488 0.1508724670790475 0.2944464362651148 0.12216798315451281 0.19890514846964771 -0.20303483074074666 -0.31644885050303578 -0.29811643475499605 -0.092935054297872244 -0.059388168082148196 -0.11266135077090601 -0.1036574169235501 -0.13709695262486346 0.041616221195314988 -0.22278775802670917 -0.066080735488827466 0.34098365817116061 0.14985257091679832 -0.25331268678289959 -0.14124337433462916 -0.11496950348784539 0.082945145889796665 -0.43663840825591832 -0.2024551019904747 -0.17219162698480697 -0.027536843227774298 -0.15674772318506064 0.097510814245005017 -0.06451010412270175 -0.025192992171622398 0.077449905472717157 0.2306978687684712 -0.21615847788485248 -0.17350766894352476 -0.11392044567817873 -0.24462952079471217 -0.0050330844646252438 -0.28614670239017892 0.18701434055794602 0.31809298983938356 -0.1324261534047847 -0.23056265249720265 -0.12630294228461186 -0.040142079312404981 0.063331406393231648 -0.11914086009205579 0.074248187577838007 -0.10647043880390863 0.099101836159997694 0.064730971451138833 -0.064957299693240184 0.076898144887285608 0.029940411660997535 0.51151397559815714 0.47373942169251854 0.19960851613724934 -0.16218139058511125 -0.2205819624289867 -0.072715477919871707 -0.049105556412916931 -0.3515352776264079 -0.14150447050308468 -0.1869622002626902 0.12048812050943823 -0.095633210097311946 0.28140398300163133 0.2600596775559732 0.038106756896959505 0.32951205840838577 -0.1415729797187141 -0.19936452927338488 0.17861970277813669 0.14084732142624751 0.081156866947001916 0.030643939462805903 -0.20701679142148319 -0.45589356552007354 -0.13926737716101914 0.11044331967831243 0.40485918300066237 0.17353245604726975 0.048042597757869038 -0.16446549376336092 0.069643839774435071 0.066595851305068149 -0.086902447258552173 0.0037933793721778076 -0.12321365373003954 -0.25141324506566681 -0.038468523307352669 -0.17991729918371827 0.12776648489758349 -0.23175110642017105 -0.091956865097752291 0.010119207263706215 0.089322945345270494 0.021757359784975245 -0.08706361343536366 0.12303866939899195 0.13097449221134627 -0.2566314149515716 -0.033505329206901378 -0.020578572557658912];

% Layer 2
b2 = [-0.45778110988361503;-1.0525630103405601;0.27394105764349203;0.52515540053200183;-0.45580049963653047;0.67669132761075645;-0.49094998494036995;-0.14402334365261266;-0.072424252754010182;-0.72645468661520574];
LW2_1 = [1.2424037441470663 0.65231050879791885 0.17201415934721612 1.9265597269393153 0.8082011406274181 -1.0460128757782921 1.0109569724749534 -1.3588710112903926 1.4359011315241783 -2.2040040780234125 0.39558728205195848 0.34993943699635016 0.050857539468478083 -0.35288627924558558 1.6849582763397941 -1.0522290431884744 0.63085358943085978 -1.0977963984788006 -1.1538370584185071 0.44940754271780575;0.2434630078489648 0.28397954743166254 -0.95079138309196132 -1.3740447273980778 1.6457600362985245 0.46098054921065118 -2.04369030775407 1.5276626174911767 0.45510769955044528 -1.5396186724649337 -0.23350532492451115 1.1583846264914051 0.38415361534466824 0.61770737778139428 0.82582537112454335 -0.61638514391614041 -1.7267608672202297 0.63198700739897984 -1.0618549781954187 0.60302676327275051;-0.94761624840215986 0.30416426158574716 0.43125486801131263 -1.0897433072974227 0.02482815867126624 0.82896701412200813 1.1863377879998969 0.25894274245306631 1.019096306489593 0.63977662954123615 2.2997605513600416 -0.43653713721265902 1.1441888587906113 -1.1969578760077542 1.2114047570858026 -0.95975020783090104 -1.6524113503889317 -0.066688803440553682 1.2661675621240454 -0.70479797137241462;0.8907187030940743 -0.32270931006715314 -0.84148975327768383 -0.59495685429998024 -1.6779285180192662 0.87801090986941599 -0.98272004471993424 -0.50451258634943608 1.4826694778623324 1.1198389727703788 -0.67621976892023761 -1.2394367097615473 -0.25658879178133553 0.32525283164381874 -0.7950515258772054 1.2516628911579484 0.38743474280766282 -1.6271799712374619 1.145389055905522 0.77735273896214085;-1.5089751609489548 0.41159374694255341 -0.3457555413698426 1.1725475821810614 0.77728455348091519 -1.6154962457477899 0.12641621516470755 -1.2246891825973776 1.0961961600003876 0.53001280924585259 -1.5148357325574235 -1.3316014207843101 0.86159311958427964 -1.6720570935877117 -0.63734924038698382 -0.99009626581595167 -1.2449129227067413 1.1069317405752679 -0.61098420612652238 -0.59148923418614696;1.7563863358651191 0.68791179845853623 0.61391070627711608 -0.64317220386209994 -0.65954058161010443 1.5580541358113176 -0.016941386496786087 1.3175862233900282 -1.6359699015560836 -0.9397371800033838 2.0506822072345545 0.39323212817349995 -0.42050393689949839 -0.096712307371647488 -1.4656101628667801 1.4893335756642356 9.1141571801666224e-05 1.7881069840874491 0.7832328209435413 -0.103739936499781;0.81218327032022386 0.67073697547636701 0.60233206401732486 0.16284861337854184 -1.9666121467182833 -1.5147976823183684 -0.52208962733762099 0.46170656156392864 -1.6808911472484802 1.2689505059709068 -1.3122813641578923 0.70306396992632436 0.41271806577634534 0.49588926789298404 0.44431799307367459 -0.8752206128947555 1.0753769343486632 0.75841635592248591 -1.3011388769722223 -0.059738829187328708;1.2730462804305305 -0.061102449070641149 0.06395289817438006 -0.83062412647775064 1.1335059165522972 1.1936878936774309 -0.32353287074124965 -0.72592284172432131 -1.1793306562213861 0.63172586738364023 -1.3314462352151524 -0.88684364734299925 -0.37811692080382714 0.10882744817243806 -0.56076859622919673 -0.79824278199369891 -1.2586798094905682 -1.4361488875886306 -0.85590723120846091 -1.7654816462972076;-0.079841164309789686 0.69769719647104045 0.7707932617803982 -1.6182681611999741 1.6902325900609299 -1.8914934690374658 -0.09887152106958931 1.5499125364248352 0.58801471082860612 0.11066776460911676 1.3742779343528948 0.9992513636455248 -0.42933502950668445 0.26398586191133477 -2.3361114606926763 0.16559058045717151 1.167327691441967 -2.1003006905007346 -0.73520385082404582 -0.54535687946954792;-1.3647528067091781 -0.38932713593723489 -0.04214440379105213 1.6834896806739663 0.017275690856703566 0.86679249622816368 -0.55482104627659035 0.8748516670455877 1.102880924602641 -0.84692143649879159 -0.89528132420429296 0.89035685848949486 0.87108481592175957 0.13117136590036352 1.4755484860099592 1.834277204522748 0.70621205571738155 1.1709866977481493 1.7085731893563945 -0.33230056878107261];

% ===== SIMULATION ========

% Format Input Arguments
isCellX = iscell(X);
if ~isCellX
    X = {X};
end

% Dimensions
TS = size(X,2); % timesteps
if ~isempty(X)
    Q = size(X{1},2); % samples/series
else
    Q = 0;
end

% Allocate Outputs
Y = cell(1,TS);

% Time loop
for ts=1:TS
    
    % Input 1
    Xp1 = mapminmax_apply(X{1,ts},x1_step1);
    
    % Layer 1
    a1 = tansig_apply(repmat(b1,1,Q) + IW1_1*Xp1);
    
    % Layer 2
    a2 = softmax_apply(repmat(b2,1,Q) + LW2_1*a1);
    
    % Output 1
    Y{1,ts} = a2;
end

% Final Delay States
Xf = cell(1,0);
Af = cell(2,0);

% Format Output Arguments
if ~isCellX
    Y = cell2mat(Y);
end
end

% ===== MODULE FUNCTIONS ========

% Map Minimum and Maximum Input Processing Function
function y = mapminmax_apply(x,settings)
y = bsxfun(@minus,x,settings.xoffset);
y = bsxfun(@times,y,settings.gain);
y = bsxfun(@plus,y,settings.ymin);
end

% Competitive Soft Transfer Function
function a = softmax_apply(n,~)
if isa(n,'gpuArray')
    a = iSoftmaxApplyGPU(n);
else
    a = iSoftmaxApplyCPU(n);
end
end
function a = iSoftmaxApplyCPU(n)
nmax = max(n,[],1);
n = bsxfun(@minus,n,nmax);
numerator = exp(n);
denominator = sum(numerator,1);
denominator(denominator == 0) = 1;
a = bsxfun(@rdivide,numerator,denominator);
end
function a = iSoftmaxApplyGPU(n)
nmax = max(n,[],1);
numerator = arrayfun(@iSoftmaxApplyGPUHelper1,n,nmax);
denominator = sum(numerator,1);
a = arrayfun(@iSoftmaxApplyGPUHelper2,numerator,denominator);
end
function numerator = iSoftmaxApplyGPUHelper1(n,nmax)
numerator = exp(n - nmax);
end
function a = iSoftmaxApplyGPUHelper2(numerator,denominator)
if (denominator == 0)
    a = numerator;
else
    a = numerator ./ denominator;
end
end

% Sigmoid Symmetric Transfer Function
function a = tansig_apply(n,~)
a = 2 ./ (1 + exp(-2*n)) - 1;
end
