function [Y,Xf,Af] = Limited_DataBase_NN_15Neurons(X,~,~)
%MYNEURALNETWORKFUNCTION neural network simulation function.
%
% Generated by Neural Network Toolbox function genFunction, 03-Jan-2018 20:59:24.
%
% [Y] = myNeuralNetworkFunction(X,~,~) takes these arguments:
%
%   X = 1xTS cell, 1 inputs over TS timesteps
%   Each X{1,ts} = 135xQ matrix, input #1 at timestep ts.
%
% and returns:
%   Y = 1xTS cell of 1 outputs over TS timesteps.
%   Each Y{1,ts} = 10xQ matrix, output #1 at timestep ts.
%
% where Q is number of samples (or series) and TS is the number of timesteps.

%#ok<*RPMT0>

% ===== NEURAL NETWORK CONSTANTS =====

% Input 1
x1_step1.xoffset = [0;0;0;0;0;0;0;0;0;0;0;0;0;0;0;0;0;0;0;0;0;0;0;0;0;0;0;0;0;0;0;0;0;0;0;0;0;0;0;0;0;0;0;0;0;0;0;0;0;0;0;0;0;0;0;0;0;0;0;0;0;0;0;0;0;0;0;0;0;0;0;0;0;0;0;0;0;0;0;0;0;0;0;0;0;0;0;0;0;0;0;0;0;0;0;0;0;0;0;0;0;0;0;0;0;0;0;0;0;0;0;0;0;0;0;0;0;0;0;0;0;0;0;0;0;0;0;0;0;0;0;0;0;0;0];
x1_step1.gain = [2.11618257261411;2.13389121338912;2.13389121338912;2.13389121338912;2.13389121338912;2.11618257261411;2.10743801652893;2.11618257261411;2.05645161290323;2.09016393442623;2.21739130434783;2.30769230769231;2.14285714285714;2.04819277108434;2.08163265306122;2.04;2.18884120171674;2.17021276595745;2.09876543209877;2.04819277108434;2.07317073170732;2.06477732793522;2.06477732793522;2.05645161290323;2.07317073170732;2.11618257261411;2.16101694915254;2.04;2.16101694915254;2.13389121338912;2.09876543209877;2.09016393442623;2.10743801652893;2.10743801652893;2.14285714285714;2.10743801652893;2.06477732793522;2.09876543209877;2.05645161290323;2.10743801652893;2.14285714285714;2.14285714285714;2.18884120171674;2.11618257261411;2.05645161290323;2.10743801652893;2.07317073170732;2.11618257261411;2.04819277108434;2.09876543209877;2.11618257261411;2.13389121338912;2.08163265306122;2.14285714285714;2.09876543209877;2.09876543209877;2.125;2.17021276595745;2.08163265306122;2.09876543209877;2.09016393442623;2.13389121338912;2.07317073170732;2.07317073170732;2.04819277108434;2.09876543209877;2.06477732793522;2.09016393442623;2.08163265306122;2.06477732793522;2.07317073170732;2.10743801652893;2.07317073170732;2.09876543209877;2.16101694915254;2.10743801652893;2.17948717948718;2.09876543209877;2.07317073170732;2.05645161290323;2.06477732793522;2.03187250996016;2.09016393442623;2.09876543209877;2.06477732793522;2.09876543209877;2.125;2.06477732793522;2.14285714285714;2.10743801652893;2.14285714285714;2.03187250996016;2.14285714285714;2.13389121338912;2.11618257261411;2.05645161290323;2.09876543209877;2.10743801652893;2.06477732793522;2.06477732793522;2.10743801652893;2.18884120171674;2.06477732793522;2.14285714285714;2.08163265306122;2.11618257261411;2.04;2.13389121338912;2.27678571428571;2.15189873417722;2.13389121338912;2.06477732793522;2.02380952380952;2.09876543209877;2.09016393442623;2.2972972972973;2.23684210526316;2.04;2.125;2.09876543209877;2.09876543209877;2.23684210526316;2.19827586206897;2.09876543209877;2.04819277108434;2.07317073170732;2.06477732793522;2.09016393442623;2.06477732793522;2.10743801652893;2.11618257261411;2.16101694915254;2.11618257261411;2.13389121338912;2.08163265306122];
x1_step1.ymin = -1;

% Layer 1
b1 = [1.1233878290381381;1.064912640182442;-0.89541202321561597;-0.79989413001966458;0.51898004314667723;-0.23687320121478594;0.17304814917624442;-0.16611188814970262;0.3198029858405611;-0.44691075484934967;0.5415110581429512;0.8038273114121014;-0.81503050651004672;1.2072594904093272;1.1896956246823349];
IW1_1 = [-0.040830100407184267 0.027746716224552354 -0.00089933716131030436 0.32026949186397857 0.090560751376470669 0.12977622045176238 0.28279775232356669 -0.45732848624842054 0.054508653210713187 0.011881776159926052 -0.11306271684209586 -0.046378002502199624 0.15441838528464655 0.057336044157347374 -0.10147177874145692 0.36623083855743543 0.15630422206872066 -0.28736408637430833 0.33355822999317336 -0.020291545156335911 -0.31895131857254966 -0.43764742594485384 -0.25151665803561218 0.10292472439348688 0.18593578672254132 0.13658513867701608 -0.10187041448417232 0.030138937092164437 -0.17344872997563363 0.20098943107715977 -0.089228001470164839 -0.12352924184648635 0.15494926959148517 0.32305067279929811 -0.18373237081701962 -0.038202454174806263 0.067220202875258192 -0.23999675240080987 -0.16433542984265515 -0.25459600619794392 0.66392501373572332 0.040750056378360842 0.12464792353606155 0.038547939230075802 0.18225643391706992 0.10738800573917635 -0.14953060250585254 0.013148223085856739 0.25573443989885369 -0.11697957274247837 -0.1114397158763003 -0.52238355786107593 -0.0276375990719431 -0.10767324557664684 -0.40389469896186092 0.3185572708621584 0.087321211861666581 0.089730486991184522 0.36729088864609671 -0.067325746566541778 0.030210711416354522 0.11362919726914082 -0.17834219798877968 0.1042875311908141 -0.64407217293049013 -0.11661283413509764 -0.56632828174375249 -0.40845729853081975 -0.42848717460834795 -0.78006445953877646 -0.1336907031575584 0.22296930064248763 0.15086745897604895 0.18229518711652148 -0.1863805107091363 -0.16268053778806357 0.015943479350486324 -0.59755988253228842 0.19896130313853658 0.45492941981788165 0.59586109408322452 -0.59245744608570661 -0.13190750479661786 -0.028542601140590963 -0.27815170771775449 -0.30530394870238819 -0.1967540736360156 0.071059422695558053 0.13383704893220175 -0.0079753611407078068 0.10345117495582674 0.018616917353882597 -0.8020967621365741 0.072904466232509457 0.79007803567893442 0.47758919137385492 0.090459386879962633 0.41017974756462983 0.33640010309638585 -0.20689655655331338 0.22529065753508026 0.053369500257162097 -0.061151611586325524 -0.037785961378277257 0.0084394043810261145 -0.1914490774264454 0.25612132279020894 -0.12808119931874015 -0.18077584489446338 0.43690207014462862 0.10849608212109242 0.21243716206054991 0.17748514089897396 0.18924387125977632 0.039365325432974989 0.15659722513795282 -0.082791332565939013 -0.20605295003505253 0.21292090180826709 0.1417550936157099 0.16585731074497784 -0.18823168913932556 0.03581793797735907 -0.13876212742880084 0.06589953466505119 -0.11064875794623101 0.12327233190690977 -0.030092885639269831 0.11905648019811976 -0.26721099410380966 -0.11846092351166078 0.1582953433660251 -0.14915444144508308 0.22661070082672868 0.095676980089417996;-0.12361200738981708 0.19636423920282969 -0.39384190350692971 -0.60029533691341752 0.20564800008794967 0.1283203484288522 0.32602480363341635 0.088808061334275865 -0.22334346162723631 -0.37923193720004572 0.30442496251812712 -0.014645751450539802 -0.097671235254696107 -0.084152723607662155 0.18867220524203485 0.033140056402853758 0.10455228714919275 -0.092040452652853363 0.010623539163926551 -0.74934355701849753 -0.29701447159425826 0.66219231935841738 0.23042470542408633 -0.45585597388286803 -0.47435084158045415 -0.04194137253267561 -0.22635541132126555 -0.080969387293788997 0.0063227858507760781 0.068263319356626551 -0.092776670080249285 0.21506707327504249 -0.12972105544785437 -0.19213426311779724 -0.56760388870593415 -0.0069634661810013682 0.73038070451087167 0.030079659139037224 -0.14444107016519322 0.28018786345514207 -0.45388617632547845 -0.077690938715907015 0.1350272849641331 -0.027274292080235057 -0.16437229382078983 -0.21341840340987939 -0.14115723268145547 -0.20951548739088616 -0.5289454672101358 -0.40880395970764349 0.15241266417290375 -0.20272394045811995 -0.12495025200254184 -0.29275548102140758 0.40559854157399311 0.075697866279772749 0.084385223109385371 -0.035920812949554737 0.08487984917879994 -0.078725823807285988 -0.033577926983931299 0.015349549710315817 -0.033365871282626934 0.16697873787807718 0.22023214870637278 -0.23286849386322542 -1.2346348027033003 -0.45421380741058698 -0.25473652898756866 0.11725163509890081 0.23018686644842229 -0.020998151298048714 -0.050403515133188845 -0.31748188586302328 -0.10640460547505241 0.13347383627426354 0.20295957989718591 0.10909928293051506 -0.12561673669470241 0.21486362706842776 0.028988076742475642 0.47237746756967858 0.202824286987454 0.25989547490395221 0.25580484611863774 0.30835922718344549 -0.18273793137060135 -0.070952412855967983 0.26453339012716787 -0.17220844930315293 0.20499586607820233 -0.2405692836029226 0.014981209429799251 -0.4719879682231285 -0.094133591107039047 0.15560208701075964 0.64459478565027684 0.45164290042165994 0.26885554521509014 0.7283581117914194 -0.18379296384589031 0.083924950926860933 -0.17706021479452635 -0.21656279312869381 -0.094195856922053109 0.10166218609427531 0.1423678841160107 0.011245990731211989 -0.0039443889450449538 -0.17432781071686346 -0.076594946512284878 0.52147214671311204 -0.09097809018940152 -0.00032087586607026279 0.26555865030600656 -0.20041559352464194 0.049087151718342777 -0.10009331466132837 -0.0048050550479496286 -0.10482026637481237 0.12009558431327665 0.14945724858360065 -0.19698428139635224 0.094954795678003856 0.064725021746857125 0.034290214276050696 -0.22048349007660464 -0.204878807258185 -0.15485937243709907 -0.15770223944775028 0.13229513111037475 -0.014590590806225491 0.073268433753298404 -0.14568240449552461 0.172195327338835;0.19546751471700147 0.25155361018134276 -0.19843811055080496 0.50525671504778447 -0.15442976323683755 0.1421942930276687 0.39511822682285636 0.028044709240903846 -0.027192730572441343 -0.093468104800111293 -0.13155877167282445 0.2447900150974677 -0.020630964081898386 0.3883687282010983 0.14366426906353075 0.12022040862916061 0.20183892814162918 0.17215988335836105 0.099326607152396107 -0.35399174521301829 -0.43007067709258789 0.38173741634646829 -0.3566016351452283 -0.10320260679346052 0.10397126595431971 0.16721920693597145 -0.40515604820893264 0.31464826337897794 0.26216052450606786 0.198707174902921 -0.095477634319756643 0.061793414855101592 0.11240634796038518 0.0059365469999173052 -0.87508887380620104 -1.1422199775326414 -0.33516600065460272 -0.52742040070168361 0.07732997254654031 -0.21146700581033542 0.27261790958161902 0.23033593725899984 0.091429692219387057 0.084403902817891549 0.13430713908339589 0.33481555297474008 -0.094127552544761753 0.17579337268006479 -0.067714127221363593 -0.32906621921415574 -0.15991123570755134 0.28412918482278726 0.1151483733083256 -0.11164041854522294 -0.12235826478780047 0.29313803858207033 0.33510708657874372 0.039003946591086719 0.18022539866549411 -0.21977985710790948 0.14634495205496956 0.32005476280218959 -0.035742030395164298 -0.1096133141531415 -0.17377923411193597 -0.11372138635800108 0.31754742868074198 0.24976360234419825 -0.14464761690882902 -0.11056006168595151 -0.19771990579773671 -0.074412485661151467 -0.15334097205320427 -0.0059790745019407399 0.010340021011885856 0.10504660948531649 0.076551541544205556 0.1255327500610946 0.76038475890553281 -0.097152174357384172 -0.35150203516166501 0.54448691658430282 0.060415766787686911 -0.2972443628049472 -0.24952188917481097 -0.32398161988151314 0.047273572286777671 0.11236280345325567 0.041555730477539722 0.095431448171570663 0.30323197193365209 -0.0043387173271849256 -0.2692265142419219 0.43643767728168864 -0.044708250636496756 -0.4695076807256966 -0.43582318741894444 0.21881097927256066 0.1516813805075688 0.20496709080803494 0.047830803554698709 -0.37543753015811038 0.37205986951424869 -0.11480225530036441 0.062515621550730371 0.070353707937060209 -0.0056656083782625714 0.097097468300090223 0.48571219096680696 -0.16032708188722086 -0.018686557203782317 -0.048362665918999972 -0.12903476653577658 0.15722568176679882 -0.32384194325493348 -0.28252481784504352 0.080018935148791742 -0.083202160669676742 0.17333660728528766 -0.0080146648938695091 0.20079438439683545 0.19121354258719822 0.37648978896160751 -0.26429845033681004 0.093406094581362939 0.34015484313126626 0.12927207145809688 -0.029967806132372675 -0.068273217756152346 0.16430132700248384 0.067244766116090315 0.23929780770770095 0.069389240240947725 -0.055300587074931878 0.072567858657415565;0.089949210922051798 0.14361170994427633 0.092858097104900339 0.29562426566760408 -0.034635965518675274 -0.33168702475897532 -0.70958561967389755 -0.099762032438491494 -0.085697147265601584 0.02188235615144421 0.24621754822109287 -0.48354213756313025 -0.067610280981470358 0.0039182583779531835 -0.12373540085961664 0.076506028787373323 -0.13843952436340898 0.52334958017318101 0.083137405920102048 -0.37449410634387048 -0.3705321103389056 -0.29935232939764006 0.24920096115423859 -0.030982452169129374 -0.32800509581324538 -0.098498471934515941 0.44377003789100355 -0.17145079639813665 -0.018012821882628424 0.091065576126447015 -0.089472552004177183 0.019488583988583542 0.2325955306705616 -0.29194125214016725 -0.35863879279140815 -0.074831110593181149 0.40618377789882437 0.21226128971473127 -0.061490460818393232 0.10062235049283584 -0.42988921559031762 0.10244164311125549 0.24608704154729924 -0.0006558236003416291 0.062723895892807149 -0.24073592644946487 -0.16496134682567751 0.039750995137825096 -0.59855143898580743 -0.11315259934219557 0.62085775724704295 0.805898337143097 -0.41666646163500204 -0.34547050784230116 0.61319800699372329 -0.35517174368178617 -0.10420342706310202 0.067052978221875628 -0.057893063025511761 -0.1440939960260092 -0.20104290838461403 0.036957387971000344 -0.22590287076974527 -0.34909751213025347 -0.12235013424800857 0.53295569912142093 0.68666617023195642 -0.4988448158263753 -0.21037704446129066 0.045268413040398886 -0.20686296875855814 -0.1768415164865324 -0.25544580335096356 0.1516859150907528 -0.15395570889599972 -0.22543461173159138 0.065403629603495758 0.076202523837243644 -0.62927833953926293 0.42974511436912949 0.30873245402586763 0.1611200553416462 0.28981459002758775 0.036218849983447141 0.47565135624722649 0.34726631847432615 0.12382659038678136 -0.17161553011579717 0.18944771362008578 0.12440746201380189 -0.0644770905736924 0.12627481043797351 0.29952238305484347 -0.13228597892536409 -0.18285260811468895 -0.2313977762965623 -0.44783868995541787 0.13995218835501511 0.34261432890628968 0.64042401235954249 0.27267112933731813 -0.1177837180149879 0.0997334542907687 -0.036468478427112754 -0.012152355577460158 0.020498391533215438 -0.22468738265679725 0.08246951504369418 -0.072746431682684506 -0.15532349071828611 0.12533496438662847 -0.1819101059073123 -0.063062517900084714 0.14433112155324379 0.15772879152652991 0.24263882253586125 0.17099555429841573 -0.015863036345445222 -0.088126025627549814 -0.17808756714969348 -0.2295247055116936 0.025346764262019008 -0.22463214362466308 -0.029004781282969197 0.18174065913932647 0.19224371190909809 -0.22558715567554549 -0.13683792139148304 -0.074497330932092209 -0.060339631146761337 0.030991256233988865 -0.18320464453943336 0.0080498733156821704 0.020733626865994382 0.15580224915064791;-0.05213221438347905 0.15994057621929492 0.04242796978047212 0.30433556534634904 0.063765062405151549 0.10903466594838405 0.16745501672796079 -0.0083662356970681615 -0.30592911837462228 -0.12704944938214016 -0.09916018158417525 0.21181792750546599 0.14533654273032215 0.26752830237130248 -0.19922400106173171 0.072081350796724064 0.1604497691864675 0.12174753562956291 0.32500902986419361 0.36199615519142442 0.5275973391190848 0.59477676074439323 0.23888069619150368 -0.43458734143980793 -0.12727911162809444 0.35774986155441291 0.2736690815948134 -0.10342607239043754 -0.1677767831099371 0.28247817497303179 -0.11946508858455518 0.22816696231028522 0.011575456190902209 0.031629764042514205 0.15658882081968292 0.050843628755780995 0.20435157222039657 0.21793747368801941 -0.25443976604777463 -0.25846564991088389 -0.40431303021391379 -0.13904486348617479 0.2727653035363603 0.1880524385511784 0.11881219152877633 -0.14686309101557915 0.29101250582398985 -0.13577569612964038 -0.054121214021729792 -0.0096512779352183609 -0.51137724063267365 -0.21497120327530542 0.66829014373500928 0.13770308518583041 -0.28601417195467943 -0.20549561263056393 -0.04786714455392501 0.077403550915273692 0.12711661943410843 -0.044636802625835414 -0.028173512323901421 -0.009819714379131048 -0.0050355589312036098 -0.77499305981222055 -0.46108429546962959 -0.71640526037625629 0.20686453201955668 0.71990289120999795 -0.25031580115197877 -0.383301472150399 -0.25427470590288481 -0.13585067261401462 0.23465487216473205 0.056108004968409599 -0.026397227831639943 0.11673929253644759 0.074480889522046415 0.063460495600392339 -0.21420400324782957 -0.77514307775058422 -0.39170521878364295 0.11205744012912926 0.090429985148127848 -0.10913834842408061 -0.083893859869275514 -0.30546845154132202 0.084297693577718102 0.19362487317274171 0.13461527671708784 -0.094246375966261856 0.13192193981688133 0.1548272299463275 -0.30541149379471877 0.10282421999205636 -0.20308685288659273 -0.039780634831977621 -0.023754837286556033 -0.15948757441321945 -0.10624252930365877 -0.06386304342211753 -0.09618046969581262 0.14039254004945814 0.26048531507027534 -0.15399845697847034 0.2465579709669064 -0.056612220936115391 0.31152801389730217 -0.090044411070748037 -0.10857796169064264 -0.29138364239854325 -0.20318221572611062 -0.17269147639929566 -0.043157009532689743 -0.15905200567548214 0.037091515704205359 0.26717346058327573 -0.18627364812409966 0.24198408081735673 0.08907590421796989 0.2313635801209927 0.12278093705503322 -0.029984250532036804 0.085167509557593932 -0.14024003240887431 0.026061029408553281 0.1518550326250783 -0.038371638068213573 0.23692866175838684 -0.025206864018876403 0.27445760347889986 -0.10569754474897293 0.16667354327413006 -0.1005945467375869 -0.11620125264259752 -0.067455612980627133;0.22075177467413412 0.024082126479968876 -0.46286442744567091 0.17424014367353424 0.17555072889282852 0.0093129826690039209 0.26307028888917527 0.22262139817542875 -0.18434587044870052 -0.57427324533562074 0.77984790477119725 0.24263564167261734 -0.13497586804899794 0.17393238022442944 0.32984098131000628 -0.30062727172852255 0.28311045092480225 0.41508194045871938 0.067991294714198777 -0.41477967731459908 -0.3422157064886685 0.12537661301206199 0.03937319296152083 -0.57339740242498294 -0.27290890280611374 0.30739802821715412 0.71616557696605154 -0.083209560030940849 0.16623640889966065 -0.15510674992401677 0.29805297328301616 0.18838651433220155 0.23807649717070778 -0.10679393624397887 0.16955001083583596 0.042268868460790407 -0.010376638891021488 -0.65073545196064597 0.33622184848643044 0.33853617722255847 -0.14188735648943851 0.25217470015103277 -0.021458323244999824 0.22838116374041978 -0.12700226906767301 0.074380789620432389 0.059714871359801129 0.25103590278904547 -0.32206035248649473 -0.10593885137557753 0.029669500940194726 0.43502627041385772 -0.51928632368751293 0.28253975608087817 0.10701145259254287 0.027355693751079092 0.28205253073602871 -0.088953417050137151 -0.13469605141846208 0.001610155208463565 0.039378113565121588 -0.084348097031445524 0.20632295976893583 0.30024158347536084 0.037850057129349635 -0.0092813261889197578 -0.17145217937726956 -0.5360313350558199 0.26558300537373114 -0.19809038759112382 0.37778235443476371 0.032702239523014383 0.078801979795468338 0.077865520748717401 -0.067214960503022753 0.063540329076391663 0.22878367954459145 -0.19050120949497018 -0.72185108276353993 -0.11980212789327298 -0.012403373635612261 -0.24799051922096177 0.093615201806262094 -0.36343418681574902 -0.27659689622920741 0.010617513160711059 0.01512083208178717 -0.14567255774438856 0.31620601550159333 0.0015157190667490635 -0.018287930999840649 -0.056915540934265409 0.46350141780122117 -0.60570576347497262 -0.24682888901732641 -0.035936704192700918 -0.071774230512741413 -0.20120351978612486 0.19464714441217834 -0.11221436053083883 -0.039868236858894679 0.48447801484707309 0.041316289934135518 0.257574937100427 -0.12591547992571536 0.075557071561031225 -0.094119327899472777 0.18640008951847645 -0.3562700606651108 0.34188439115931296 0.09488948553994149 0.40343986259032644 0.10632250149340136 0.025089660244966085 -0.0112866237648978 -0.064948622406960865 0.10068227055828326 -0.035809023238696974 0.15721269744517172 0.10279801633408558 0.071769610754003038 -0.02374874740134271 0.049546434791324097 0.29900527013543493 0.10779320326073599 0.038201085196355608 -0.063170187182162774 -0.094508367673211482 -0.057044096812381831 -0.22789818303744172 -0.22165693072374257 -0.089591341338805378 -0.11250305368800925 -0.036531326665068552 0.32476480311964917;-0.067398564796284699 -0.083674024178117395 0.19359301403230506 -0.36958436824047219 0.023834543566722211 0.028767766445255728 -0.32949143607160619 0.11869067400141806 0.094128980731433262 -0.076764874227465182 0.0047129590866106987 0.066968184608732398 0.070901146049530711 -0.065653522989392962 -0.15659528944642864 0.14513879974703522 -0.084572406527598454 0.20044443202140602 -0.23888546682396861 0.42838790955242934 0.25326424301097089 0.19793136399622688 0.54242064404874846 0.48493405395852784 0.15483392265503435 0.049448058095499264 -0.16948039907779683 0.13656348902036167 0.23189858162450599 -0.10913312561441878 0.14974190109475047 -0.056732493341451272 0.35307168688854107 -0.12898676183134705 0.2002367701437536 0.36755146664115929 0.19667391633254525 0.41956219694377478 0.017652327271786505 0.16968095613581349 0.094493652120191035 0.20058297761585203 -0.1208872396549555 -0.24696212368052017 0.26022008760340759 0.014725420743878137 0.0030985372494490501 0.33033195934142401 -0.29132698027554355 -0.19388158361463709 -0.058450069610334977 0.72603511647247987 -0.13492165509571519 0.10639003276673779 0.35372622303476398 0.27947095232513031 0.047455555698884669 -0.049270731004351129 -0.18421696563353668 0.14548411089614485 -0.080612202889254844 -0.14459596871628747 0.091054089397028637 -0.69929678820295316 -0.38996512234074981 -0.37129170099632397 0.69398190243303992 -0.39271079117416485 -0.2455482189587905 0.034216057005635687 -0.34940485310025066 -0.25495719762490809 -0.14799973968451494 0.14464142532644139 -0.10705190875776927 0.084197883343808469 0.019888874935886161 0.48499101026307584 -0.66764087969994323 -0.20005192705560257 -0.54856302839587745 -0.17347837374366237 0.11461720887759355 -0.17913527344278676 -0.096328112100582175 -0.4290703382522012 -0.20063343108490045 -0.19611666025176083 -0.21525017745308161 -0.031135533502890386 -0.33251533165736796 0.18831235520363299 0.92047580754923264 0.17739421587134052 -0.28472416560801472 -0.65268652363723478 -0.50530336307405244 -0.097745082127158198 -0.073065456698641632 -0.32352878933285373 0.027985783905703231 -0.33149555148062543 -0.046981195317834713 -0.13208504136974039 -0.059959232258397346 -0.042200506354343852 0.072665980610997841 0.1799678091421944 0.32745323882565441 0.080911453429841781 -0.37887657726025453 -0.43962415416618811 -0.1206493551540382 0.10323527212416528 -0.38013631248535179 -0.065169266862794201 0.032413037494483467 -0.050871986553417924 -0.070476278928258168 -0.18974925191776731 0.059718064118184651 -0.1611155522001935 0.12233218089117624 -0.059134527963782817 -0.041487353992270534 -0.20159081656252453 -0.00067315813174479854 -0.17176435110687049 0.054115231869007407 0.084112023976400704 0.11406646014705422 0.026364161663321728 0.15141382330772923 -0.25644200967155117 0.13928114926806495;-0.13406919957799399 -0.1175936450914092 -0.277135514566407 0.0032202723444267872 -0.093915940382358301 0.059966522568455624 0.03258624911096835 0.0075265909160550613 -0.055282838615450289 -0.2733327203164907 -0.085681595253062542 -0.22357449665105822 0.017107621404369756 0.070572275581906693 -0.10663656478525407 -0.09440498229293616 0.00074424047493237345 -0.24650659218171986 0.38619208838238123 0.031758981746339045 0.26487770032400149 -0.051139097858316405 0.35701445097143203 0.15275328902632201 0.02648424310001618 0.12540370550382804 -0.0043899761816599504 0.011437425555439364 0.026504663055726775 0.15369583451607141 0.046692436176804672 0.062775104329649875 -0.19113349809363098 0.71105600990192885 0.2462496967003556 0.26843251203252383 0.27579207581120652 0.11478994645334735 0.11161523384537797 -0.30360036634553994 0.30421222349226668 -0.037292319281753118 -0.0057682839005655457 -0.10840097097376163 -0.046214296099701763 -0.30895329615406419 0.03525648494445207 0.26924999165359753 0.15503825348877359 0.039010014370522969 0.048423221702519212 0.15884346752135711 -0.10650878294178424 -0.17186076040006171 -0.24894710553211716 0.14670279630328922 0.28518332986051209 0.10686166964285516 -0.060776239356084255 -0.040786970220469634 0.10723801540102215 -0.23361340079240614 0.25155739908048108 -0.034118059659710459 -0.30947920198969625 -0.38014890918472788 -0.4191282667111495 -0.48928572977533541 -0.55073984949895738 -0.37096403178320031 0.16816977864794083 0.24514637307919862 0.032181206973888619 -0.029780679164270303 -0.21599610952398107 -0.075154282141904394 -0.27859901113680724 -0.022511131376267694 0.12581367345440031 -0.27846409976045189 -0.21503656634008472 -0.059565313538854373 0.14458860154504694 0.05023243547546475 0.24044173461389381 0.072213652226419997 -0.11383354484611824 -0.22993302210521449 0.095315487131621829 -0.22420366979972683 -0.017099361178651656 0.12845038734261785 -0.50484030565154292 -0.10316955542475692 0.25532901687985066 0.086730647867416036 0.29737717628157961 0.36607590619420205 0.33934986858890787 0.17189993215392646 0.46821809954231125 -0.21183335184949059 -0.075848543740910893 0.09693488670475163 -0.19733830183192966 -0.01263617806816643 -0.013412637130672212 -0.15260793526874272 -0.15687806647698838 0.2890961458207254 0.21434008872692659 0.22322067104493465 0.19975072290108736 0.2143311628499201 0.08248650902372541 -0.11153189624557858 -0.21425338118382856 -0.019302393520271792 -0.085851371739439714 -0.12694226669207001 0.055696398671978502 -0.11001671724612637 -0.18471964090540488 0.017580400172447282 -0.19876701001471161 -0.11794425164804113 -0.2078338686255794 -0.35520981793139655 -0.27023319179062877 -0.22076602487829605 -0.033272701016654201 -0.023071963265182648 0.052006116432922557 -0.20941249828307359 -0.236882934566224;0.10783507261352324 0.18044728625404843 -0.35030427603724057 -0.06308193416978293 -0.1336864006902421 0.16382440259199005 0.37964824162455996 0.25393953994208496 0.20785753573678581 0.037083640416758865 -0.031047450345571725 0.036877082410016346 -0.073321443112461054 0.0081102198968533816 -0.063894933586418151 -0.18255211445185274 0.063758976890653712 -0.24894518790024522 0.016003380956692511 -0.45290637172910614 -0.23737996963198918 0.085282766645591396 0.14749294782754444 0.19081629848545512 0.051918465110462553 -0.24081823187770365 -0.45448876655882287 0.20475594001922204 0.16855096026422112 -0.18677963097096148 -0.06177425966892227 -0.1594946525420762 -0.13140619055688491 -0.10592731836211763 0.058643848727145668 -0.38652442614159765 -0.019351743870133793 -0.40135245756235338 0.020800484904760937 0.327287989058545 -0.18772069843535821 -0.2232247752142828 0.015691495138818165 0.1423754864387051 0.052913878059332897 0.21830960257975066 -0.019085686004038538 -0.37497100810948819 0.55934936064411211 0.12121459068366391 0.0008965389452026489 0.41684943314096923 -0.75346278958890711 -0.14381938207061165 0.0050185046472588195 -0.13717042941955362 -0.20995428440035294 0.1063306034254449 0.20532010417926588 0.076820691747293987 -0.079015870413479322 0.051208957417183176 -0.25164943578747823 0.25471492847078764 0.45190247461641564 -0.012464938956892904 0.0071570599237887333 -0.59254467657010179 0.36526262941779242 0.29115173249510018 0.40756743194578249 0.14452854990301678 0.059095988079393647 -0.15136601984292336 0.22323429088581359 -0.20065691152056975 -0.030807854391076209 -0.20077709927019508 0.37657489411378908 -0.25721481874887264 -0.42823513524815288 0.11058950656838357 0.038375577737138129 0.043849862768378274 0.27824379816547873 0.50298589971830898 0.25821394665177794 0.094058164794503185 0.0016474232251968239 0.047026291573643665 0.28591526108945786 0.017721195745705721 -0.1563757397617474 0.19096274955712264 -0.56168960824331693 -0.32565595294671723 0.019197373312541299 0.077779623365895639 0.36550713881570268 0.083872594320440738 0.13314696156654712 -0.079001346541312217 0.039467670054468093 0.016411297439541929 -0.060547899004629403 0.10998063558941873 -0.11589007160345524 -0.12703879669867152 0.093694674677536782 -0.013781210760847144 0.32652677732110552 0.30229761433112401 -0.15478352781060239 0.046994010744416996 -0.03013497849587473 0.02921283150415763 0.12049201795418334 0.12321340323166562 -0.052509629202833842 0.036108386040631144 0.23985507638912834 -0.1028665686902735 0.018980802496178797 0.054933840910767008 -0.1323336602821209 0.066806761451377178 -0.067187666239073213 -0.062114843698854644 0.022849363591367841 0.0054330774142976376 0.11105774909626923 -0.068345094591224662 -0.019130305664781518 -0.18443744576265034 0.091658814594995308;-0.096197112408731786 -0.086234206721572726 0.024419178656162221 -0.16181084687768066 0.030355793291785272 0.047801908047239355 0.19399317375189573 -0.077361442719166992 -0.2188413839085751 0.10092463358402902 -0.025988712101281407 -0.06144517216113262 -0.20100717997724926 0.14721866130403266 -0.24480359556427475 0.16925017688181862 -0.11352249311179406 -0.23423119623369987 -0.089929319459570778 0.62733612821625606 0.55912837722487563 0.33325645412390448 -0.20680479866547111 -0.26763666784640638 -0.57962135199587284 -0.15254936094819327 -0.057972782619107238 -0.21908252818355095 -0.072768504641813614 -0.13090824936217862 0.067293373768701883 -0.0086612473668033069 -0.033793716502161238 0.20135121372282666 0.73594781195466341 0.56431165511224213 0.37643854251284481 0.091421334663949708 0.019392808474465228 -0.21114944373938019 -0.31503617869897227 0.06702748184042559 0.063912435942770421 0.14294866711219234 -0.19163997957127463 -0.082036926967863869 -0.017009047716345167 0.031559340722400894 0.32567599409106479 0.4434256110276969 -0.27951349847158574 -0.12367777773510566 0.37659591584952556 0.2231194067353344 -0.35596598443761895 -0.066467610553049367 -0.034720200376959963 -0.18453893584983752 -0.1692958935012836 0.096690470033768086 -0.11972710021311524 -0.00074785584917175046 0.11408747399584902 -0.065242182938969315 -0.10793419583263933 -0.02818413225249335 -0.49529944895184208 0.46058393629437122 0.075628275356365848 0.003204300971048582 0.37090337186330913 0.11525662832125566 -0.080172041813037304 -0.32924945914117981 -0.17424804939225685 -0.20199243988241178 -0.070990069373244188 -0.020309286962640366 -0.23831967869560677 -0.42569147178618499 0.049405822641339234 -0.12376823139320714 -0.14165847715841084 0.17553244391281048 0.025405074472238574 0.24693790532781146 -0.12462401185783049 0.052979159682400565 -0.21631637890804234 0.095160788374142782 -0.05016914093263504 -0.20688462006839059 0.044701079115114679 -0.34788360701335602 0.1597136391074111 0.12333302748240334 0.42239782136386433 -0.16315452187016422 -0.10773039800627127 0.010148826429382571 0.052021427937419977 -0.06525587370391496 -0.25589740737745625 0.16633758734188295 -0.037243699985568472 0.060638873418556387 -0.093573041098893986 -0.14865814797113275 -0.32086750867621106 0.057182839720573989 -0.064324611136951496 -0.0018366231873608067 -0.063401296163064169 0.14457810168243357 -0.013221411502596744 0.16218197384923064 -0.1331600175051473 -0.22445963249604961 0.030083058498858818 -0.029235654667495139 -0.16368384821433785 0.10239926241201332 0.059971655468852116 0.23341144703141045 -0.27668249401698208 -0.076821410880081695 -0.02987128131081964 0.23892614592967426 0.13921477636576562 -0.26202762655626449 -0.0087227398656726952 0.024614926285727881 -0.062250254765092598 0.13475149541057363 -0.027971401831929404;0.058354328564677968 -0.051013352231491151 -0.22904466903261395 -0.48397363613346456 0.013643405462861042 -0.020481153929319738 0.16284215345045205 0.20216478066672347 0.23350025635030697 0.23283608840312567 -0.26898378527379724 -0.29659728505641159 -0.13487083537060143 0.10891462456374106 0.047261170230104267 0.016792946966468502 -0.23404252742504533 -0.48631324159304756 -0.4211988459456682 -0.16488965240110998 -0.21492555969905519 -0.13510502952392844 0.3305619322469715 0.57086297386386131 0.21253146319466443 -0.32483846596679505 -0.51843711742751919 -0.21217512689261056 0.0044797521686751069 -0.36457102910283901 -0.03158520903702941 -0.12496359793696307 0.046041814126049144 -0.14323332925668336 -0.0089073915568794668 0.093793866914817906 -0.2353964600055542 -0.1289040218162486 0.48534822578859549 0.47358633883150392 0.36837617082646285 0.05212800106912216 -0.3123726539360932 -0.048310228909409288 -0.1298270786849621 -0.027941750968931967 0.14162783285227937 -0.025152795208523197 -0.27364626764255651 0.1568890615746836 0.041807449233635392 0.057444837742522528 -0.042860206078678416 0.20170064465968657 0.3682988170733984 0.32348209849759368 0.02345351881719987 -0.018151961441140806 0.039190373140941474 0.11447983372707464 -0.24040952986484174 0.059960507194521326 0.14297574510768324 0.29073464675173927 0.46846043466080256 0.15424181925436545 -0.46720025051261527 -0.49366544799301038 0.19707451351210545 0.29291046945587468 0.047416474984491322 -0.13913549100153685 -0.18499817830009194 0.043756569152915058 -0.080073782182037895 -0.12352908503680309 0.12936171566696064 -0.089738376995506117 0.18114935846371658 0.33798008708353422 0.23099937103557863 -0.35832224202014457 -0.043404087773537353 -0.045421386162443046 -0.030240236823099533 -0.013387311119884289 -0.48191204185979264 -0.18145826681298097 -0.13559742616678616 -0.065065571685602508 0.12825888978374425 0.040562698924242309 0.54983639862369549 0.20375742063526406 -0.077878878936136889 0.24666240667203843 0.11856733699830481 0.075057318914929103 0.041174063602035876 -0.17751536864749159 -0.36722855010204036 0.030167320687862272 -0.065369615035408626 -0.045315731841276921 -0.30604736246262049 0.10287029629701375 -0.072709588911934686 0.1593201071159851 -0.078305275985556547 -0.014077701959445046 0.22465237992382517 0.25547127844308321 -0.084884637934509038 -0.16140052617368927 -0.011111440843928004 0.014611686032378024 0.037334828622636491 0.023418563687313522 0.025458843481436063 -0.079581605214613604 -0.020005173586346042 -0.056536166347850546 0.089832041450326194 -0.081768235165385936 -0.1142520822708277 0.016316369188292414 -0.21976665498266287 -0.32207827307405895 -0.17876247502617534 -0.16693047585571216 -0.10871458852470751 -0.046285574619310155 0.13366434555663886 0.00015560267963732081 -0.18632404095697438;0.19595187638486242 0.15461340855155981 -0.23096035784132316 -0.5304819442631975 0.26950682201693094 0.38538779974974424 0.7995020241520846 0.13306417576790605 -0.16253794095419996 -0.57614779199951471 -0.13835627802097267 -0.086287357577110868 -0.0037839995651278678 -0.094189687336562952 0.048756648263624913 -0.0043291573747336592 0.041635179668326902 -0.12811093589266689 -0.037769138383474697 -0.1462707531164758 0.097431020572409988 0.84465701009208161 0.1207454294139904 -0.66485040768372883 -0.91412474761752638 -0.1902331637628768 -0.59821362351674578 0.15066175971870299 -0.096719580749563661 -0.084633013511619337 0.12748384957140782 0.071285691563148845 0.3740164694788341 0.16540969436731071 -0.16197470615474599 -0.42923811009072832 -0.19231391368158968 -0.32565957776681476 -0.16698884447869664 -0.2121106931287752 -0.0070796659267849359 0.4724787082677897 0.090815501029840762 -0.054689016371891289 0.081193787633972114 -0.16434949402429688 -0.12545829677624187 0.72497548915033583 0.13448667477053305 -0.19390573896096502 -0.12602429356999872 0.4558301628706653 -0.15997506551916987 -0.17948438859113894 -0.13999289378911695 0.33233004774502584 0.4488052255844574 -0.18652381781437397 0.022183051075939444 -0.24426769048602417 0.071641854936649818 0.028525278107561329 0.56584506816178082 0.071499775585771558 0.14673905671780818 -0.052030256759979118 -0.45264177071593231 -0.37809790211637428 -0.32975269676000973 0.058741328675039679 0.26667481499010764 0.087940945778500285 -0.019774892844352979 0.090629102521479682 0.035379339805632369 0.03454585938372981 -0.20955412331600526 0.40278760019937837 0.10871964338093583 -0.35410569770979666 -0.68523516853329203 0.27236610799626237 -0.14322233685441191 0.0379923720491466 0.079817832523979546 0.080883412570730159 -0.24646541167898933 -0.018645334873358621 0.095334303587780111 -0.11264025076613883 0.30457526175102007 -0.044863241539596997 0.21962649655094235 0.076292788848732432 -0.39796334558762686 -0.11309799669532064 -0.010836833961772357 0.062952878536892146 0.24022611816510034 -0.11368840521736123 -0.13425337513735475 -0.26344864687391634 -0.23804096726673069 0.033312106982478246 0.035878487500909433 -0.091723988257154984 0.016827210869682335 -0.028505525821215041 0.30598448740286638 -0.08650187309589015 0.16213156024240188 0.13373180537703097 -0.022264619682567599 0.067779466180765149 -0.33354378928731976 -0.3172124944842738 0.14660917147205002 0.19200810434853524 -0.087696354705079971 0.19938144934122981 -1.5051519731522659e-05 -0.14980956372711432 -0.092381605683626064 0.084005536307418749 -0.22471594783368867 -0.014087108985530915 -0.15164421064368785 -0.052025743555065 -0.072842474099758331 -0.18690923259593628 0.26700485806300228 -0.32228534758798105 -0.14792761234237789 0.086612095361680838 0.24269977062654344;-0.093822517457380503 -0.049391261977744891 0.18482608703776018 -0.066694149042965251 -0.044398453886800041 -0.27526585449394791 -0.041201297185274335 -0.11632343279500984 -0.44229300974989932 -0.042669938346870682 -0.10206914793683362 -0.019173334638369007 -0.057760729797431423 0.019652356787298941 -0.17012915056111713 -0.086730427340582533 0.047789376937081698 0.36407299758323552 0.14043273805080492 -0.098330957765551535 -0.085602051573414426 0.20155086406020611 -0.33392256621774197 -0.70912157016362398 -0.63217300923027164 -0.10100468190039424 0.14325641426479246 -0.0086688956610217853 0.13105801075461501 0.2175559677714882 -0.01607599107029101 -0.11768603988822265 0.48620844913870692 -0.33159168364789338 -0.28399711047814907 -0.091360217730785051 -0.032798877056808902 0.059215507292778635 -0.20058694918123346 -0.48023635434889778 0.14645967425591133 0.26320177413233858 0.27584099192091405 -0.11852902733304795 0.21226650454516879 0.18984600941054533 0.16856873686151047 -0.040814136512465717 -0.19605231976100246 -0.22179317742754695 -0.25826998253787159 -0.32386436588621959 0.70394941809821643 0.012107677715501954 0.063402658453021885 -0.0462951357967466 -0.025797850180924536 0.16675825847994305 -0.16213379870053449 0.25413924750335426 -0.022364216521138593 0.26567189470090702 0.025129177030543938 -0.18810286788614616 0.12706145354081927 0.30236479920371695 -0.016130827422182532 0.48677346952028072 0.094666982695200269 0.19716623043548351 0.01029883985301017 -0.33959853636692566 0.23623961838300261 -0.040179536767307851 -0.038085878675790295 0.2239811952814425 0.20803703079383165 0.32746432171538481 0.20517167130090186 0.4174066868071552 0.20756650441944616 0.085796758799298392 -0.13961875720594455 0.022142036321647414 0.066060628392774393 -0.15451998853323742 -0.27969426746034531 0.014685453197696447 0.066731234085444971 0.24430374035103955 0.018655385085282642 -0.03722127298523395 0.081548838567524512 0.031138467598785826 0.41880272861443396 0.041895928803400477 0.33320900157110472 0.003751507229705027 -0.15991048390969212 -0.26478083774858746 -0.0022459030118177157 0.084879143950426436 -0.16449862383582889 -0.072219421344301538 0.11807421013713724 0.075875292598627492 0.22308016495209892 0.21271441157368856 -0.10513041499531915 0.16081691797937059 0.022403655273522477 0.023446073869756636 0.0067712348236312232 -0.22821011867237603 0.12183852069617312 -0.085671328993000201 -0.14129528320839299 0.11485345766471361 -0.039890175593302823 -0.17110322407873033 0.17868801586872687 0.13527427753057131 0.040908470517026757 0.064000426158099588 0.21148664622657454 0.23080073695236425 0.098598105131380606 0.29804601503107608 0.091477689630265493 0.11790841810862975 0.16220273048080477 0.089752951538722953 0.10243755143498476 -0.09468779174529536 0.04502237746837312;0.11379214325751361 -0.12368979212391459 -0.10034168178403195 -0.087389960846758249 -0.017225620301625489 -0.085035039424197642 -0.096524192874124587 -0.088460527176134063 0.16157241426239455 0.029236395711921017 0.2093372765001125 0.20859659172173953 0.071183006008900665 -0.079653420796802446 0.084200703403863056 0.10874912249303142 0.061602914343127778 -0.18663515340718254 0.085309959487322284 -0.038808841285031051 0.17276087445181298 0.090510981837850293 -0.15736558817648613 -0.097307657554243893 0.0095251039923062268 0.077112046819916041 0.033219695650191006 -0.16547079782706556 0.072294839678202563 -0.11824699550517277 0.15436570142000289 0.079432357803192327 -0.065186456307060409 0.19133494240229312 -0.095988811025402368 0.15905552859691857 -0.0084225983242325105 -0.1618782187070068 0.090524245545205398 -0.021473407474765685 -0.23063711919387861 0.18171754423773226 -0.13280482866697146 -0.18961925889295103 0.07918122990753354 -0.036279777017084403 -0.085572559365420076 -0.18232914596139632 0.16272979627580553 0.14335559325848901 -0.16726287141038332 -0.19528098931353291 -0.16524495818792961 -0.12557034888552335 -0.013802639341180024 -0.22624982669819776 -0.027715367111757871 -0.16420589187073334 -0.15573335999952659 0.19688505145584939 -0.015457703778674533 -0.011913485407205241 -0.092339483668418001 0.069516779136941376 -0.25315930146570631 0.17901653225094066 -0.15026885461248962 -0.20341282822747972 0.20239736360854801 0.026166819609192784 -0.038569779724095921 0.031925947779213044 0.062878954537815362 0.045235616558096929 -0.13851109314675358 0.21334606352145585 -0.027249668559361052 -0.25524721283663249 0.067372415146304876 -0.14848961244277861 0.22592741858746554 -0.10558941104242293 0.26640223678835762 0.26601803218205333 0.032804920445708138 0.056699252208336777 0.080670818610679748 -0.18646589169396321 -0.006904856836088733 0.10942690506636875 0.087572033121559589 0.0749711685149409 -0.29288515010145166 0.042791000381603897 -0.011683587064561518 0.14607742983130312 -0.14376065099878796 0.1744010396900316 0.069539097670814135 0.03463708148055647 -0.086436486925956374 0.097446165992261344 -0.18593470132243486 0.091625112754847318 0.22241196750722805 0.098223261293230113 0.15444664503911013 -0.12415456527167905 -0.020850753487747894 -0.10396328645116491 0.15141822247301789 -0.12485786050932561 0.006906852485750372 -0.052595708768975707 -0.084300084458086275 0.12143325610923757 0.037316382492766774 0.20831173779755952 0.18840504639397138 0.19233623690775448 0.013335377762419415 -0.14178092811368245 -0.10213364940467667 -0.12923750806933226 -0.0084587415208208644 0.16778059598816009 -0.11695947890663985 -0.047056152720579759 -0.14287982232313473 0.15839474770080128 -0.11654448842576016 0.17780147797665902 0.039455587490376427 -0.11557803042438006 0.075319526644264168;0.034671078048048337 0.017396817217170672 0.43855633973434299 0.031542206213279286 -0.34348841389727403 -0.26456303283269994 -0.5659109645094591 -0.031126591125534803 -0.36142370133206764 -0.18092144159186802 0.15658690809251938 -0.57284555605946852 -0.11673664815795701 -0.20867709246961313 0.26774251121443138 0.14228681399833468 0.20320024044687487 0.092629868692069475 0.086763672718081095 0.29192264450294036 0.18103573943187576 -0.63814134178948845 -0.34370434102435299 -0.78061059183290937 -0.92053178596725116 0.12442691361404908 0.37202743192258381 -0.066941880697805489 -0.23684131821401827 -0.074280211064715301 -0.15217244718165576 0.24118846449268766 -0.20617788498372908 0.30128586558354881 0.87088934923740902 0.21989020865778972 -0.093106479701462491 -0.4965136232268072 -0.34542355805217134 -0.73153065461481914 -0.08882994329305563 0.092513915396739893 0.23352511600019044 -0.1120917140129882 -0.071254458110273505 -0.21277712457633335 0.063967350217534316 0.15049265188314997 0.38306446650172127 -0.18971211580007016 -0.077460260175160833 0.10513885232445655 -0.41465133366445495 -0.36565285984406865 -0.79214429591724878 0.027256883403445828 0.10923644315276035 -0.030953976305391658 -0.12028778250077203 0.12846233234222956 -0.064343581368106723 -0.054452018682802437 -0.11961405154346041 -0.14166577673746744 0.0138547387213501 0.36994145542859774 0.41968787069572466 -0.0302833197024477 -0.057185956902433943 -0.10386448853546881 0.011230227173110292 0.13019685563714911 -0.086082480572669692 0.1941802207591217 -0.029198951158485701 -0.11352927535962605 0.21137126967313169 -0.11134648897924938 -0.61446943470038762 0.28203766525813057 0.5455913881047123 -0.37912604722371224 -0.16275980005488752 0.24118794795824597 -0.031663285713331664 0.38171269352000464 0.049818234839557204 -0.035532668609770057 -0.2107413050986475 -0.12740813471770029 -0.2364999003694386 -0.033014564027472708 0.0077816448874082501 -0.34407358739622035 -0.010388028712593967 0.089715674337832979 -0.22575622529055892 0.14852219062241098 0.34525927165183956 0.091734553617903933 0.47388470750243328 -0.1613649182202373 0.11620157267737009 0.12846302736039977 0.17239863357560287 -0.0094962969719346608 0.26730467310679618 -0.19529298383854637 -0.41425426124649678 0.26164481921781407 -0.21140271157322918 -0.52915340955827894 0.11671907067351636 0.23896984804364191 0.037449265139409244 0.16330277408254498 0.14082299318243427 -0.046245611958655578 0.15534733716555246 0.21367453974844328 -0.19143383489156748 -0.032362263282205241 -0.087251841980256262 0.41319647376231639 -0.12847269969339331 -0.36807234020655877 -0.099638320779732198 0.27944901685086476 -0.067319300655552639 0.098165657983982371 -0.04466892902685362 -0.31282230539080963 0.011516554849815237 0.28547848700174977 0.0027361215837356885];

% Layer 2
b2 = [-0.67322707145992366;0.13317870535624535;0.12000821777963278;-0.21978162219465944;-0.57852164821061658;-0.095656348178896677;0.54198433000297697;0.86210062469161752;0.90437772832952235;0.33138089883540167];
LW2_1 = [0.97634604817436577 1.5582387150783685 -1.0500677514942658 -2.1450302784615469 -1.4112639505446305 1.0844866137501026 -0.90057226470782969 1.939502495682782 1.0317046785159472 0.66936553583156921 1.6971179137316192 1.3025537453743321 -0.82639559165683463 0.34464697118044291 -1.3428635450739528;-1.9191841299705166 -1.7282467636950054 -1.0261224583612512 -1.8991406621642346 -0.30357254504630105 -0.66940861187943879 -1.6015044546297876 -1.1500981352593136 0.79583035524488122 0.88540629154195827 0.011475641944009858 -0.42292598218426564 0.32792979375873688 0.5496459911619731 1.9043465733091571;0.86364426554975005 -0.62598106779128415 1.0079386888548008 -1.0528490679218232 1.3732946732361735 1.5274980374690657 -1.1867304793291475 -1.4217605943382812 -0.99470854172444489 -0.91847070519018414 -1.1643071372102169 -1.5544899777157646 0.86660796009223662 1.1668849614583838 -1.6099348435958247;1.290442876845115 1.0219249013357026 1.9372281328120819 2.0208044333743573 -1.324827691815579 0.58985352208032604 -1.6622032870053034 0.61028678376544032 0.34768211996939807 -1.1029066295862853 -0.88107237590848653 1.3296832380613652 0.7236620687834614 0.60906960848410541 1.6511396087157157;-1.5630712362638362 2.0198565818436713 -1.1271525485857616 1.9733205657765349 -0.91882081210693489 -0.56794146125036016 -0.81268586895721728 -0.55462053335749351 1.2105896812041672 -0.90904883268856551 0.84132754935505127 -1.6482700026206971 -0.092282849360883795 0.46896008970762443 -1.9814318489845069;-1.7469110589375119 1.157332946030559 -0.86462032413529899 1.3336622773473121 1.8002542950747662 1.7593885424148195 1.7032575344572398 0.18712840522493338 -0.13257335405689716 1.2404871219317695 -1.6591300182163158 1.0070124105786418 0.25126716124069404 0.71913649437702287 1.045683607871176;-0.12414523196519098 -0.34179391093356531 1.6530856543859518 -0.31922875466284101 1.4154144400628825 -2.0359141256083544 1.4780508453831185 0.94576238500028464 1.411552768614069 0.0019847689583511584 -0.89909855322281751 1.4583732930594524 -0.98645322888384146 -0.17484176863485448 -2.3255201431503836;-0.94324898215795894 0.14752386884392546 0.48284966765102955 0.24511304071002471 -0.7616469904673554 0.13024936633819015 1.9637553555844023 -2.0062684094587375 -0.91175040828514453 -0.74038868284285209 1.6065532889515626 2.0402581293755984 1.5207236557418458 -0.036190134418335129 -0.800557320665509;1.8508375474788406 -1.8171729720818746 -1.472729073544514 0.92330972849477089 -0.41745450636373072 -1.1784372712066857 1.1147354110716914 1.4030850119167257 -1.1472117225266607 -0.14950896235776778 0.034170759760228833 -1.4251244602884205 -0.43200864212512252 -0.072655352464543715 0.87439521554297617;1.3289730291380144 1.4369423929647942 -0.17479117427914098 -1.2169649297481608 2.0217837569901111 -1.5509068980506495 -1.6792889787965151 0.84937887514339416 -1.6323005044029277 1.9748861814887981 -1.1589846631825342 0.67094175256284982 1.8552937620642116 -0.32132543129529012 -0.096818379225287424];

% ===== SIMULATION ========

% Format Input Arguments
isCellX = iscell(X);
if ~isCellX
    X = {X};
end

% Dimensions
TS = size(X,2); % timesteps
if ~isempty(X)
    Q = size(X{1},2); % samples/series
else
    Q = 0;
end

% Allocate Outputs
Y = cell(1,TS);

% Time loop
for ts=1:TS
    
    % Input 1
    Xp1 = mapminmax_apply(X{1,ts},x1_step1);
    
    % Layer 1
    a1 = tansig_apply(repmat(b1,1,Q) + IW1_1*Xp1);
    
    % Layer 2
    a2 = softmax_apply(repmat(b2,1,Q) + LW2_1*a1);
    
    % Output 1
    Y{1,ts} = a2;
end

% Final Delay States
Xf = cell(1,0);
Af = cell(2,0);

% Format Output Arguments
if ~isCellX
    Y = cell2mat(Y);
end
end

% ===== MODULE FUNCTIONS ========

% Map Minimum and Maximum Input Processing Function
function y = mapminmax_apply(x,settings)
y = bsxfun(@minus,x,settings.xoffset);
y = bsxfun(@times,y,settings.gain);
y = bsxfun(@plus,y,settings.ymin);
end

% Competitive Soft Transfer Function
function a = softmax_apply(n,~)
if isa(n,'gpuArray')
    a = iSoftmaxApplyGPU(n);
else
    a = iSoftmaxApplyCPU(n);
end
end
function a = iSoftmaxApplyCPU(n)
nmax = max(n,[],1);
n = bsxfun(@minus,n,nmax);
numerator = exp(n);
denominator = sum(numerator,1);
denominator(denominator == 0) = 1;
a = bsxfun(@rdivide,numerator,denominator);
end
function a = iSoftmaxApplyGPU(n)
nmax = max(n,[],1);
numerator = arrayfun(@iSoftmaxApplyGPUHelper1,n,nmax);
denominator = sum(numerator,1);
a = arrayfun(@iSoftmaxApplyGPUHelper2,numerator,denominator);
end
function numerator = iSoftmaxApplyGPUHelper1(n,nmax)
numerator = exp(n - nmax);
end
function a = iSoftmaxApplyGPUHelper2(numerator,denominator)
if (denominator == 0)
    a = numerator;
else
    a = numerator ./ denominator;
end
end

% Sigmoid Symmetric Transfer Function
function a = tansig_apply(n,~)
a = 2 ./ (1 + exp(-2*n)) - 1;
end
