function [Y,Xf,Af] = Limited_DataBase_NN_30Neurons(X,~,~)
%MYNEURALNETWORKFUNCTION neural network simulation function.
%
% Generated by Neural Network Toolbox function genFunction, 03-Jan-2018 21:01:51.
%
% [Y] = myNeuralNetworkFunction(X,~,~) takes these arguments:
%
%   X = 1xTS cell, 1 inputs over TS timesteps
%   Each X{1,ts} = 135xQ matrix, input #1 at timestep ts.
%
% and returns:
%   Y = 1xTS cell of 1 outputs over TS timesteps.
%   Each Y{1,ts} = 10xQ matrix, output #1 at timestep ts.
%
% where Q is number of samples (or series) and TS is the number of timesteps.

%#ok<*RPMT0>

% ===== NEURAL NETWORK CONSTANTS =====

% Input 1
x1_step1.xoffset = [0;0;0;0;0;0;0;0;0;0;0;0;0;0;0;0;0;0;0;0;0;0;0;0;0;0;0;0;0;0;0;0;0;0;0;0;0;0;0;0;0;0;0;0;0;0;0;0;0;0;0;0;0;0;0;0;0;0;0;0;0;0;0;0;0;0;0;0;0;0;0;0;0;0;0;0;0;0;0;0;0;0;0;0;0;0;0;0;0;0;0;0;0;0;0;0;0;0;0;0;0;0;0;0;0;0;0;0;0;0;0;0;0;0;0;0;0;0;0;0;0;0;0;0;0;0;0;0;0;0;0;0;0;0;0];
x1_step1.gain = [2.11618257261411;2.13389121338912;2.13389121338912;2.13389121338912;2.13389121338912;2.11618257261411;2.10743801652893;2.11618257261411;2.05645161290323;2.09016393442623;2.21739130434783;2.30769230769231;2.14285714285714;2.04819277108434;2.08163265306122;2.04;2.18884120171674;2.17021276595745;2.09876543209877;2.04819277108434;2.07317073170732;2.06477732793522;2.06477732793522;2.05645161290323;2.07317073170732;2.11618257261411;2.16101694915254;2.04;2.16101694915254;2.13389121338912;2.09876543209877;2.09016393442623;2.10743801652893;2.10743801652893;2.14285714285714;2.10743801652893;2.06477732793522;2.09876543209877;2.05645161290323;2.10743801652893;2.14285714285714;2.14285714285714;2.18884120171674;2.11618257261411;2.05645161290323;2.10743801652893;2.07317073170732;2.11618257261411;2.04819277108434;2.09876543209877;2.11618257261411;2.13389121338912;2.08163265306122;2.14285714285714;2.09876543209877;2.09876543209877;2.125;2.17021276595745;2.08163265306122;2.09876543209877;2.09016393442623;2.13389121338912;2.07317073170732;2.07317073170732;2.04819277108434;2.09876543209877;2.06477732793522;2.09016393442623;2.08163265306122;2.06477732793522;2.07317073170732;2.10743801652893;2.07317073170732;2.09876543209877;2.16101694915254;2.10743801652893;2.17948717948718;2.09876543209877;2.07317073170732;2.05645161290323;2.06477732793522;2.03187250996016;2.09016393442623;2.09876543209877;2.06477732793522;2.09876543209877;2.125;2.06477732793522;2.14285714285714;2.10743801652893;2.14285714285714;2.03187250996016;2.14285714285714;2.13389121338912;2.11618257261411;2.05645161290323;2.09876543209877;2.10743801652893;2.06477732793522;2.06477732793522;2.10743801652893;2.18884120171674;2.06477732793522;2.14285714285714;2.08163265306122;2.11618257261411;2.04;2.13389121338912;2.27678571428571;2.15189873417722;2.13389121338912;2.06477732793522;2.02380952380952;2.09876543209877;2.09016393442623;2.2972972972973;2.23684210526316;2.04;2.125;2.09876543209877;2.09876543209877;2.23684210526316;2.19827586206897;2.09876543209877;2.04819277108434;2.07317073170732;2.06477732793522;2.09016393442623;2.06477732793522;2.10743801652893;2.11618257261411;2.16101694915254;2.11618257261411;2.13389121338912;2.08163265306122];
x1_step1.ymin = -1;

% Layer 1
b1 = [-1.2617472471741893;-1.0912799013615646;1.0835660895717689;1.2072550868230998;0.95812132097868952;1.0874148334079952;-0.84033426635225861;-0.48213398073378422;0.74662705144410579;0.61133499248990919;0.63262483781845658;0.16613972344584541;-0.42564047263325094;-0.142014394132221;0.14096496131954445;0.12436615160234268;0.017133663465425168;-0.37784945914452667;0.43166225760662086;0.61332406213739976;0.018770380560357337;0.51807752719097266;-0.59145392899487759;-0.76158146033118856;0.83926940131542993;-0.95054784561048533;1.1431925679198049;1.0171292089005481;1.3062382251771354;1.4705215251291126];
IW1_1 = [0.010993687596674745 -0.020293324349079975 0.18194099194288899 0.20651026933982064 0.1857764131514941 -0.25425277726325729 -0.29118764162346028 -0.15646115707894515 0.021956608093308475 0.10871279829590783 0.33439247286554125 0.47250290713834142 0.12277622851829018 -0.21901042954390898 0.055009190088165891 -0.14301070042693631 -0.20179698996370835 0.53017707649822576 -0.10984779215957659 0.40437179975647086 0.0079940593542555151 0.10904705526512976 0.58509001911327041 0.20355079123180705 0.43466036700510297 0.16039152973500814 0.45209498431717521 -0.040325940811576325 -0.20098150296097814 0.025007617359660148 -0.040888793735992475 0.15122062018127619 0.084120626481087313 -0.21676411494533171 0.37503509925442008 0.79622511227228576 0.66370855270108153 0.40101694122090226 0.20023139281906302 0.29657384042122847 -0.56451143070704979 -0.13431599974689451 -0.21165277132235055 0.26556941422849351 -0.3263421014890816 -0.1022440976591609 0.21493648039598684 -0.15849102606603521 -0.48642321605910666 0.021369217937685869 -0.037919095608358856 -0.33916621028390509 0.078900292610255454 0.047908345996127262 0.16759528861257081 -0.089319302263192596 0.18468765253712344 -0.12399393443327916 -0.24945728332956224 -0.063688566202470695 -0.12853775729695729 -0.22673949514358657 -0.089908794094753428 -0.26358427053517325 -0.27414217921388434 -0.2117965715309249 0.17699450355590599 0.14179910920627806 0.078957832692628863 -0.029967899805131714 -0.20902560096643277 0.10581525087460492 -0.099364619338927082 -0.23130518169194 0.13657766725209644 0.080964674590483107 -0.041840484133014916 -0.019772899763687679 -0.63713181503618099 0.085229004852565682 0.21535114461592203 -0.13100466394824012 0.23498818528379972 0.11923282634593094 0.029852434536207246 -0.30880995725416954 0.043495402811867485 0.10316913707505085 -0.12461547162984947 -0.070650504917158755 -0.082494001289862257 -0.024251397553786892 0.073482774727556432 -0.5617159926847749 0.23034686181127575 0.022547019000918562 -0.11861662078418017 -0.16725057200324919 -0.2790569195708969 0.21381265391521842 -0.18501257599426085 0.63370932619109921 -0.057557126603741661 -0.10337605511948104 -0.18039642126174618 -0.18069579476869613 -0.1716784912820018 0.14920345028563528 -0.044949253540530004 0.13789245335004283 -0.016714758808594632 -0.017786332326906757 0.20944858056004267 -0.058583802755986791 0.098035204217653688 0.34783720049256189 -0.047194575218123834 -0.19092545205399539 0.027637873789889592 -0.0046620164602498371 0.090917031988913155 0.011571808352479828 0.027682729359190916 -0.0077153076004045536 0.23279521641277479 0.18362090815726517 0.0557329866782467 0.10187486573125627 0.034972149496086097 0.037269303244403557 -0.3874917824737415 -0.015268605333344606 0.024578295741011603 0.10267397498173583 0.042761540582116911;0.16985966603358707 -0.015480850686602208 0.17018988200623011 -0.19142358131635132 0.19474687148003858 0.026797755199102637 0.22879404042432291 0.048554705574497127 0.075776029011648954 0.1099455814947744 -0.29023015581543404 0.3718778412782871 -0.074768920142010545 0.12320043208578495 -0.097845740867008271 -0.02114672851310765 -0.0076626545518642154 0.2932614150711737 -0.15193547508853636 0.081230485009823786 0.059155616975040057 0.0049107051147769271 0.23751254673878353 0.27854933186294856 0.41627209670788062 -0.21153487586562497 -0.085244287863624951 0.15079432137301821 0.048817806678676356 -0.066773108980591342 -0.062670296449463023 0.16846713113257675 0.026892274635845512 -0.34399151517939369 -0.45912465583060308 -0.20681791330648724 -0.06642964506376571 -0.051816312162522249 0.42111327314563884 0.30335784063992466 0.020302663196622116 -0.028074697756216158 -0.19121674319838627 -0.067557156711197136 0.26738901377388075 0.23434491456431136 0.19176582012292168 0.20683559562170353 -0.14780196671473259 0.30395494985903171 -0.26471841051390149 -0.10242822155000131 -0.097192706229567855 0.42976674651467628 0.19153742878884031 0.1106573644827791 -0.03078821249892337 0.042872105615580879 0.21238759530363019 0.13981742492007787 0.23519273135543839 0.15903241032556659 0.16389505947170546 -0.25584744784635832 0.016986116018477652 0.10095739022813467 0.22538252909245873 0.39916580152680348 0.42392992734307311 0.078358933946652914 -0.24185293807093253 -0.10726151241854599 -0.073195642614613268 0.0079377971864490558 -0.079552743684396701 0.14977738977926616 0.01313188941061883 0.18804618626538108 0.3360141811317362 -0.13953888782864163 -0.42956157041192672 0.28248013992651533 0.096669000284912515 0.064000421277524866 -0.1329747226526328 -0.15953660791167049 0.19364478438668536 0.21400032355079401 -0.0026641080065043371 0.2777319744935533 0.078550274603314929 -0.022558737936725578 0.042874200228912418 0.42834020602386164 -0.19994590284547825 -0.37291634541877217 -0.43244868805359804 -0.4280954937172643 -0.30334309133044196 -0.17359641536557344 -0.35866257361029003 0.060879636046206574 0.029534834217976928 0.11878924835547235 0.043105272611065178 0.0055000751255252535 -0.17618744652715318 0.10717880808936751 0.13160070184378786 -0.12854543469260507 -0.12903104504029092 -0.075751145465159 -0.18701162734324817 -0.3198207290807667 -0.31063318507665238 0.079762081029462792 -0.13152323433323182 0.019169990313272059 0.26030650462835858 0.18000318312866717 0.23958142511371625 -0.042693922944264148 0.18723919897107774 -0.22602278003776913 0.067237418348845682 0.10623518568851924 -0.052113886519689366 0.18432353351138692 0.23838520341114458 -0.039126086783425697 0.098966500824372472 0.25643167105586023 0.055058260408291475 0.12152649788096216 -0.10690992981199737;-0.030315742337534941 0.19631405996584519 -0.0024185979722306065 0.42238292622557322 -0.14167423271111299 -0.1151428182381726 0.0037995831852928831 0.046877685926833793 0.2309056238953541 -0.16396565790380785 0.57301237386859494 0.10066343335942572 -0.14515902274117962 -0.16576818639469357 0.02890591266398021 -0.16156724992427221 0.20070002792413077 0.051341114412808642 0.27746345799154964 -0.25649534863169282 -0.44478954393385506 -0.33266331688219641 0.36273023955255834 -0.13725618751220023 -0.0088446408768193263 0.41086821339236484 0.52283058734799226 -0.11659397415885245 0.0033467932854804945 0.20409896231290672 0.31744106146392276 0.18240475511678433 -0.0072303348046813751 -0.10162274532832445 0.063045797707361684 0.039504917186408493 -0.088615299284740059 -0.74404287387691359 0.26114502233572018 0.16665989545329754 -0.34527197340998489 -0.15861234152048015 -0.037072080999522979 0.026950323356619212 0.10155093161332508 -0.04406711884425453 0.073649328349807988 0.082082961391077375 -0.097441526188750946 -0.21971015771884272 0.022830406585500049 0.27813572171231388 -0.75700952426711565 0.074880916679288409 0.18963509204778034 -0.066224362843956622 -0.09635997924816965 0.20690458978699233 0.039631411850778064 0.015683134065969717 -0.31021419139317336 0.20370720934276096 -0.047054841517672752 0.38589557717321699 -0.088631722321006232 -0.075781696412078464 -0.21812773066209248 -0.69902614866634682 -0.090612288500948865 -0.16030216966818783 -0.25527782500996071 -0.075882685308354875 -0.23066760875180856 -0.088381385942376434 -0.093005085842561841 0.021056314017049303 -0.096339930101587562 -0.61600177954646906 -0.69592266493384691 0.18251078452364733 0.41248939483585589 -0.090071429536509248 -0.041817728135792702 0.00040556562170240775 0.067513358045805758 0.14360205523503955 0.27007650386424131 0.098483455256575786 0.17501219147279912 -0.034236002659938897 -0.042752401471249299 -0.0036440976562193503 0.31112723886112192 -0.60130195413939003 0.15023104731326861 -0.091446409622163008 -0.013074352101307619 -0.076905121765499102 0.37944313291128323 0.32980911375930511 0.091640453937956209 0.52616450723431984 -0.027064943877875024 -0.089445348787024259 -0.092099673800831033 -0.14017953032184918 0.19144626086188149 0.049913742287028835 -0.39828714169777979 0.28811067133124557 0.31453349304983547 0.124142374695353 -0.009938532507635673 0.18436808297943191 0.20249818361322197 0.051089076041453442 0.27184094538567855 -0.088171170487763156 0.025224141980003438 0.073254169613220246 -0.0974772277652802 -0.06401153067932952 -0.23074899324791584 -0.019826702446371608 0.0078528538860904041 -0.20854774384333566 0.16845638627565937 0.019897939481816767 -0.067202608417977441 -0.2387029220181747 -0.30217092839858734 -0.12467315255550063 -0.17363609217857415 0.25861167910067906 0.035909123801113864;-0.024374937321060008 -0.082453600730460846 0.10826487264336875 -0.20124885591982045 0.24310506279644933 -0.042941669491427331 0.20793032803648825 0.096103505499630884 -0.37280261622302036 -0.12328843242756238 -0.065060435166908293 0.093093054865837979 0.090866662726403077 0.054215008261501947 0.00037219547741547735 -0.05596667138999134 -0.069443290889069809 0.19030157080797599 -0.046159842437424672 0.26876063998638355 0.21387541608810229 0.82511029107947587 -0.2378946938087686 -0.30192840169241725 -0.7050217562936768 -0.39905099194771626 -0.15540940043284637 -0.067564173434204775 -0.041115002904612036 0.14230075291130043 0.080847222520524356 0.22179545767769393 0.048816822901254768 0.20797969551672513 0.42938688448058054 -0.033328767256365174 -0.0099717844567517814 -0.021746282567483583 0.1161833235830849 -0.032730128388481924 -0.077063571732957026 -0.015204701449137518 0.019156800404763679 0.024769507555147965 -0.03981484558670402 -0.11475174243253067 -0.047298727685579002 0.2688456402321599 0.22643326767785105 0.041550026509929769 -0.27648311427333871 -0.22215915322349991 0.68865046380996353 0.21437638221871697 -0.29534203218700655 0.22499397288763565 0.16506867998203797 0.066919176462768071 0.27939930814924241 -0.080477352090322807 0.18468836585800572 -0.15608089128072322 0.2114357344378702 -0.18005360534682247 0.055065945497756084 -0.32764476558394956 -0.009441029588518883 0.29339797367595077 0.16012375427696005 0.080881846708810823 0.34097671233510857 0.084796690216927248 0.00026170364823514466 -0.078795254352326177 0.028482003446727959 0.07576604429856662 0.052158134135040807 0.12232024540298822 -0.16927654991519417 -0.73899777734783201 -0.64415751591316284 0.11578674091702988 -0.34350913172002095 0.0085622227144259936 -0.056262261352298518 -0.40380223816599647 -0.25449938956214269 0.11356867682863053 -0.028392676082964065 0.15011421061344998 0.25496896302829419 0.10760755711788762 -0.12035428348415757 0.23888491959167232 -0.3593114825802175 0.19501575618714054 0.19665431648611678 -0.12048459180532042 -0.070319279267332724 -0.65819373694999772 -0.35973137997432103 -0.08706226548230124 -0.092697011022252709 0.17660268085283165 -0.12410531216033817 -0.044829976765851452 -0.14219386203656056 0.11109833296900362 0.057003161228320616 0.070078563378226405 0.07359710561077959 -0.0032565901093946567 0.16810482664193749 0.049629179017909759 -0.16593754355470341 0.1167264201350941 0.027691356069883221 -0.074400909569825632 -0.076760346042526031 0.11224756299647486 0.2148278978955224 0.21229915882007494 -0.068607156221066418 0.079420672200244319 -0.26358031492592809 0.15488053938052479 -0.10094686048345856 -0.042366222769535333 0.1973163252625238 0.19226429703976866 0.12746083504490971 0.038465115463045291 -0.090969415874749035 0.21808951545629041 -0.15369850143481023;-0.15139995887673799 0.10559771522934937 0.19090771534380657 -0.27152363638663829 0.17593540956699916 0.067142752620295815 0.14878788877800048 -0.044400629336278565 -0.044583142703765032 0.15801293584785092 -0.62967793587857745 -0.15559395914364615 0.049678255790156417 0.1228074333032102 -0.21857077052808185 -0.063918646940048202 -0.20149089659561284 -0.45487687491884204 -0.10053443761465265 0.57658168370967766 0.53124767847654142 0.20482636682871064 -0.043488085035186197 0.3164054401309524 0.09963543091090811 -0.01790894082535726 -0.14723168584679264 0.09865235672329295 -0.060269258190624161 -0.058293046093118889 0.074129746537760347 -0.15034277809228708 -0.36079587328953577 -0.089075099008177533 0.20741294509656047 -0.023498609212226365 -0.041431861479374485 0.20025517603538903 -0.21377708608615664 -0.26344759006305285 0.13959860577406438 -0.24101211696837352 0.08296095372382864 -0.20117963111474088 0.065618495792424986 -0.20436481413147814 -0.051790934791274536 0.018396961906562051 0.083044625403330394 -0.032487923441367021 0.0045988052856666111 -0.38177218913552763 0.38608079118670369 -0.079560788031162344 0.023555912802291346 -0.045888567741378894 -0.05330652612446056 0.022987402533585354 -0.15048272828873938 -0.25112503130226299 0.079001979545071543 0.13443403336810605 -0.060037105476432186 -0.38136699410896402 0.082248399705728573 -0.078608898222344348 0.20665635021550269 0.50071593814841731 -0.075984839619305716 0.24918032500008622 -0.095014151679400208 -0.34369007158089288 0.068347565603816732 0.0099323952835562671 0.035621251597682133 -0.035280596480425447 -0.12748001145736504 0.18192063073297216 0.64471356500791255 -0.069827584911879251 -0.35159418024783884 -0.021680065022923939 0.093061860967968091 0.132664154781716 0.034475400477488795 -0.056777662309224375 -0.020062077154079254 0.14116288474207067 0.072442251922536491 0.12424321723959814 0.094945952681368712 0.14242269576344133 -0.43768887033655202 0.37451223863087052 -0.20534671014780478 -0.06013068766524992 0.35250905799182369 -0.12176844329710829 -0.17082377397268611 -0.40299579830251187 -0.17137206118733808 -0.31743460316510108 0.056283051824000119 -0.053434575869286204 -0.01336404644738353 0.10589633296680069 -0.15782731013811982 -0.18502762205695439 -0.12356044021788515 0.070208753084871858 -0.24273553745338788 -0.26932334726584028 -0.038395469725968155 -0.10055400490908221 0.14083397420108384 0.11523336803060748 -0.24093599057694226 0.08418411888674604 -0.066008922803531767 -0.21029572157006893 0.11700636364145429 0.01475571757717254 0.16796328172778413 -0.10824095898862029 -0.30642063805071657 -0.069612367920926052 -0.0052150088518461172 0.13661000280008723 0.003722106866475056 0.12018167220037915 0.073876693610309435 -0.096699814326000791 0.037594831006925337 -0.014836219396268804 0.025298844172844476;-0.16526105982500486 0.09247842567132239 -0.17512048885066725 0.19708917980222906 -0.070429421207478832 0.21205713583048783 -0.12874401214419537 0.17476692460714732 -0.025604113029858572 0.20042428027061077 -0.032168852808032285 -0.063381749226131448 -0.15494946475900254 -0.086298001987228048 -0.19175219557195239 -0.17417646203192375 0.14438310907306462 -0.031409857681806722 0.20651440865273843 -0.014111130674304894 0.14439349891250919 -0.1214149860591885 -0.12893665158788853 0.076837960706803168 -0.12117830699423689 -0.018889500834306502 0.1373357046887318 -0.071015856704958302 0.12730948544470441 -0.019333888433178469 -0.018494606721739162 0.16083776456423221 0.2403806307925532 0.16688971205692293 0.014060791778907088 0.23146716607892492 0.1025269372575689 0.18135633656240774 0.083006989755857616 -0.071538421982377559 -0.033104180130397329 0.040036158186487279 -0.055943446774331024 0.095417540037130669 0.094342129514397896 0.0064511690965248086 -0.19691994421679151 0.27059434638533064 -0.0020346104360928416 0.19659000448460862 0.1466691481989176 -0.044342229352933256 0.068635779554373624 0.00078504190146226767 0.20796861237674738 0.23180861382684845 0.14696572449950221 -0.031708553561908125 0.14825229949136345 -0.13434419834975089 -0.068999299658524776 -0.04948428896129789 -0.07241621755656541 0.21811139353177678 -0.054669262845197769 -0.12814379281434068 0.092138314253599293 -0.0044839602243297947 0.19857908989100212 -0.15943322916617717 -0.14973839361732402 0.18347015329100388 0.12987814972438999 0.17474705828805892 0.14257033106910574 0.20752547058507115 0.028386690877952623 0.25352828349227702 0.16652342889014024 -0.027909953696657171 0.13754732693986157 -0.073714088756239624 0.022629505822263026 -0.034018947747745443 0.096582694974190503 -0.011760559444382396 0.060201325878501105 0.20873721757951696 0.20204340065077117 -0.086404583300226517 0.18571435749553819 -0.12080592716772383 0.26712573584712201 -0.031915064686996716 0.23644644830180075 -0.110859946326893 0.018281049018309119 0.17486565765021292 0.13852046631310924 0.092145257298397218 0.15500053048120299 -0.054005719341488394 0.035152798122860852 -0.06565959774129676 -0.16086823315513801 0.0093505312732006431 0.088816942666257462 -0.090339336580286742 -0.021425590272515501 -0.013160116074961306 0.077985738078239317 0.017470199900138466 -0.13478508660120014 0.098239357903269112 -0.08845117277586477 0.043013497748752058 -0.040169696674564957 -0.12121604625325806 -0.1097076767662248 -0.06774526952097637 0.13027726430582443 -0.071068491455467953 0.032780536675440126 -0.076952467385560275 0.22249224126090614 -0.13907684614262625 0.0052335839439028725 0.23932357323499631 0.22135096615351224 -0.17051988508601817 0.020601133835512906 0.18069563673224204 -0.045952290008311837 0.03678089714789818 0.17190846707656138;0.21495244115609358 -0.22092478574018026 0.12506309997571188 0.13802498315955772 0.11960052796349796 -0.097108984195704823 0.13238721104770129 0.051589244254929216 -0.25070789490206208 -0.06949594772952615 -0.2444427825901814 0.094747401396532524 -0.16828191977960133 0.051445199659397388 0.035040634146331566 -0.062461427548937923 -0.13829752559407574 -0.11572691274257428 -0.21580037783272693 0.30729371504559971 0.43948013296862382 -0.062373149703931416 -0.44978992803288825 -0.4172729677402427 -0.057281613657037017 -0.097442191302200262 0.0091754644085648793 -0.17031869871045896 0.075118134501018466 -0.087974815303241305 -0.24948794250504347 -0.035511324224243232 -0.32363475873087738 0.086957149514120702 0.59107629728637257 0.2290146244072031 -0.40901538697218753 0.033639844564110309 -0.12107893582543107 -0.21074437534012833 -0.16243862325417974 -0.084874672741998211 0.091053102013681317 0.11113525060132258 0.0060103425307476612 0.071903858306987992 -0.045512297048906698 0.13001736626603996 0.48939105644100489 0.063153404261171733 -0.13688627280928239 -0.10945910811935719 0.11506350363451355 -0.058082105003915509 -0.31212850893088528 -0.19201671644804005 -0.16848176478722646 -0.19981912691694823 -0.0038069298211036015 -0.079341074865461408 0.19807533004924155 0.12372831922099668 -0.10485726774585129 -0.033097389508950553 0.015374280378605755 0.22951206518596173 0.22771940500798968 0.45613871942156736 0.13715812124718471 0.0064480220817618233 -0.062994018726342985 0.096789217270708688 0.14870943181039076 0.041562498194199278 0.17007322638273206 0.033792013285150461 -0.087963696039886088 0.14111925139329609 0.16892628012431382 0.046662526478454633 -0.078454390997118345 0.02516061092435521 0.036880099366816459 -0.048007101646894514 0.086865093205815244 0.043617379014302959 0.066922613579881426 -0.02217313572474271 -0.0094466006859261608 0.03216809304822861 -0.14694495896932236 0.068507469076139207 -0.11202129861870153 -0.10391801559121681 0.053746593719602422 0.19345657778824976 0.25355149106497593 0.0049537310588180679 -0.043857286474127427 -0.21404259106985263 0.23768906657627209 -0.18436587156890877 0.13134580480007207 -0.086541605529271787 -0.11291185943102951 0.19181131084999817 0.1006125408967541 0.065324569275590452 -0.14996868329867147 0.006656130480043097 -0.22651238259141024 -0.30742438875775169 0.16342592657842034 0.032473696110648702 0.14988958018169382 0.22902058691014757 -0.094578331111389982 -0.063534766139346624 -0.03735057504514587 -0.11679990461130836 0.12057570860859232 -0.052416613343109174 -0.043131643261781698 -0.0034180205743542433 -0.052282927498339855 -0.19119908631856486 -0.012972003492721842 0.2204212573610273 0.17555113169254499 0.17282657577778612 -0.017153472091695085 0.0053426160820807516 -0.22286332070942505 -0.086240623410199099 -0.23288060541896077;0.076487498520299582 -0.13216414859151607 -0.14905773123925281 0.20314879968364841 -0.083588369900501336 0.20188859708932108 -0.039821636901381886 -0.0012751203192165269 0.12505548435675015 -0.055766482330061838 0.13222081092227694 0.064647660582502486 -0.16334024440716355 0.17169028805598879 0.01290550122400262 0.0022254939736442189 -0.066949455374733652 0.21079885909147938 0.0045014356868474641 -0.009768196081353403 0.23304201575845163 0.27341978768433212 -0.074363205944830771 0.21979088351626092 0.32635900749501262 0.34214312858926454 0.28978654851452984 -0.032306577286688946 0.032776447095421088 -0.057066758738774433 -0.13799944932358768 0.059383190893892206 -0.025821795400947509 0.22520680615194447 0.16181277780266889 -0.072885919983499706 0.1396716121867265 -0.048396192601885622 0.17562077527743108 0.18757101038772236 -0.12014583191244087 0.20004957842418794 -0.087825313015918088 0.22147646023889994 -0.032008474586562079 0.08585914283010046 -0.023365101727054225 -0.0081502258537983485 0.26736161589974261 0.24701288239991795 0.074450779215549087 0.051980822933859597 0.08434363341756089 -0.042952895443034655 -0.02316518204548439 -0.062813426655153146 0.28345694816589173 0.022609224664295258 -0.088698926209290124 0.18603200668717623 -0.18717709119343093 -0.052395430960266359 0.31678515650271977 -0.061305328206002818 0.093684486727912422 0.18857723141215896 0.10740908042338651 0.1994387452395481 -0.11326058697586251 0.27394504734202502 0.23664153418591946 0.38080522237020747 -0.012844279727980737 0.12948941682005785 0.027392477204961786 -0.17115306819840032 -0.058609220175531045 0.081968140457190308 -0.017547031754584816 0.31901795991804932 0.22017934566226952 0.40182226950194211 0.14560573760322412 0.36179746412410346 0.13681964122535503 0.33533127379840361 0.0071687493234201399 0.091328136734417337 0.12619918984009884 0.23848993385248024 0.044541554829658422 0.0072394995164885732 0.13727679845908958 0.014844777973584685 0.099391617084169853 0.24950416918230145 -0.016305489673551082 0.32591188320976788 0.033741167325192813 0.29445792917683389 0.050757521009182995 0.19182955406599128 -0.18680593203256335 -0.030626210201509595 0.04460010966022309 -0.062780065433118065 0.030679865330896578 0.015815611890645041 0.18003088006776621 -0.036680092131016834 0.098910515461432383 -0.010490466910988292 -0.066715936508214363 0.23699357799682688 0.2142038396557806 0.030829515753201902 0.072873284714065831 0.22599782913876115 -0.084886860626783925 -0.12051727785943032 0.1332401399430207 0.15861579653615102 0.11540284664310339 0.063684196719829833 0.066879521628480987 0.067253423457132741 0.12963479444031889 0.13331621915980982 0.25274683166357803 -0.11091481846179509 -0.14758651156005589 -0.031447511083119536 -0.18000929874624444 0.10145639297044538 -0.012320388247519201;-0.027310696242985485 0.098927426911241179 0.080859137027983488 0.13519112159759147 0.044604329332666968 -0.16010618586821712 -0.076241104582243271 -0.04787537027916712 0.15343914637463377 0.22400624357054502 0.14544688408990702 0.13018433502595297 0.10479697061105868 0.0033078509395310664 0.15290775713478927 -0.19107285729920545 0.15968703809463344 0.093597502138198563 0.11830094182859335 -0.1352947851475215 0.19421765300629679 -0.026404264027579262 0.00044438034969321386 0.07293013152477508 0.18667744518276036 0.12555068084265511 0.13070647956870576 0.11423398712763712 0.18808618887939421 0.073282786738071676 0.074217070788969122 0.026144521884648889 -0.09479602578361418 0.19126739635479467 0.20974640099797248 -0.030386657264648082 0.10116009812834574 -0.029951347818760223 -0.097243632653582698 -0.053882062283880747 0.21790784324258811 0.19278349906681919 0.22321005368485039 0.18841923606950561 -0.03217897696869363 0.13611819909771039 0.13844176605733982 0.11363583792385852 -0.12688430903932002 0.043254745826536545 -0.12356125871857547 -0.026131669515203293 0.12268726517046075 0.10094829129784931 -0.041215844130967044 0.21764953381757277 -0.038514819799460358 -0.011119880307385657 -0.106867261509173 0.10731887539665444 0.0061462812533238115 0.22805674826737066 0.18755052725050669 0.065371651913544895 -0.0036288918987610664 0.067236197316989404 0.24980601800184973 -0.066633238949031032 0.058881096674988455 0.096239741509358129 -0.053451434448487434 -0.0048470637523095952 0.11236627126815417 0.17054779896395317 -0.17865979115725503 0.12923048372995422 0.1345260126882292 0.13866547692159628 0.024069820121317528 0.2655183511302463 -0.0041776501364918289 0.075118345897926597 0.21481170115722556 -0.056708776128629249 0.27616100452809333 -0.061537941605495416 0.20414457390339305 -0.10315831096744324 0.21396308818643431 -0.099785658061937482 -0.016677053665635828 -0.16542376432504263 0.0019876388525361679 -0.10281157672154621 -0.14893448194353545 0.00013714374347085823 0.23610060288024035 0.11366458130545927 -0.17405233760750585 0.0096871364502787039 0.18362586379042795 0.18489147219810473 -0.20276427448069978 0.11340988815549902 -0.10936922571872741 0.083415792105888342 -0.12847768882404537 0.020955084472284249 0.11349866685153903 -0.19225216235139814 0.083173347079764259 -0.14577253456990935 -0.050815914405405907 0.13269480602109554 -0.07117894868683905 -0.059474517631804315 -0.19576739948241617 0.10453441038573183 -0.092306582322723249 0.086488401261013009 -0.14496381247036363 0.13337086343255539 -0.045704203358218419 0.054414557090605539 -0.093041569796176421 0.20398438967062454 0.14617907821949527 -0.045815456347358952 0.030513943216170705 0.13602287831785079 -0.028718521599320875 -0.059952714608435591 -0.027998394321112997 0.11160486772484693 -0.13361100646902122;-0.1393984371122996 0.11620863875244497 0.026106573306338771 -0.082604724932983958 0.15066887457092804 -0.17145662009674237 0.0085645256169818509 0.19431612612421281 -0.216209027890787 -0.28026936716209372 0.089327109162539414 -0.096339941920066563 -0.1231756717352203 -0.06596471881792626 -0.10351511007225209 -0.025403363731807994 -0.0089992629113760641 0.033024606735275026 -0.23009097163673387 -0.48862987933668894 -0.42391607547866306 0.033768397147092954 0.035890795074688286 -0.48333020698094153 -0.57212886592338019 -0.059590375283767906 0.12707523651333116 -0.14226970966568109 -0.077797309126343014 0.145249179178811 -0.081088420767504846 -0.091240103943135073 -0.089352168411072241 -0.37647371750071718 -0.12514166361208631 -0.10139073894313502 -0.23814503358768654 -0.40067813726237916 -0.26527158060234368 -0.33415692246817486 -0.41516654817973081 0.036404344441004988 -0.03541804037222511 -0.10927326172799914 -0.10344440484568966 -0.049700090258087359 0.1979545184947118 -0.32444265400483407 0.063694746278965514 -0.2148448570375831 0.10055277377889567 0.72638372856550437 -0.19998243058613713 -0.033058040524864496 -0.013998927468387073 -0.21377196673307219 -0.15212228833480773 -0.16614735043714757 0.0038373616192316083 0.17851481720481102 -0.11074064598821635 -0.014466870571279907 0.11826519834053142 -0.048651842903872949 0.44869891052218119 0.50644330539302174 0.61458027674397919 -0.11595266683457889 0.19011731481129795 0.38372425958357231 0.053798849694710466 -0.16633008254822323 -0.10954791033059232 0.10062551831499317 0.20056515667097416 -0.0060128771018100827 0.11646561626207726 0.35219828712502987 -0.2573923600302524 0.013871338319275664 -0.036126233739778656 0.32268166466983139 0.26293345200038909 0.21761322071240094 0.10172461687297311 0.054646532567191666 0.43754148103735208 -0.14675737675982556 0.11517584023359949 0.12953326121979308 -0.17956103790161712 -0.12177017466287286 0.51586910312074541 -0.45477465519334559 -0.56052865920143502 -0.39996255628727895 -0.45857765139199291 0.16265477286878066 0.232558486263097 0.29010857457090211 0.28356292842167535 -0.30049738370590207 -0.19642716846685002 -0.02957500807974343 -0.017066992426917265 0.18172288728345459 0.17657327470732515 0.29413865233991848 -0.13790281369502019 -0.15781042401340734 -0.073765597906279901 -0.18022038804932305 -0.14590184303810527 -0.14450329527982236 0.1319671981113647 -0.13188321770785708 0.18064246765618999 0.025497360825323816 0.050972354325230756 0.18348446995249765 -0.085339510610424593 0.073760677175888412 -0.13030542052598593 0.19133108450763661 0.15283245710952498 -0.10753604856049398 0.066218890668126335 0.079433551788902795 -0.15804648773876359 0.20431057639139399 0.10462372674270838 -0.12622389000265274 0.058520656956832631 0.21130635293467237 0.21510211052204409;-0.26306420655184809 0.066512838598318802 0.26161661187681368 -0.40795019435131402 -0.08878160787875769 0.14720110676630954 0.24794583841428816 0.19963057395422262 0.059440819152728058 0.15125411499238106 -0.017296207308296205 -0.075548898816564652 -0.21737004887892317 -0.01833141917272749 -0.25918305820446447 -0.17269365392742014 -0.042612839809448799 -0.0033607405054598936 -0.56623526465689389 0.079767508619026831 0.37285147071942459 0.27993893253648122 0.76915102083642495 0.51549446161964763 0.41267390250758657 -0.50792853433675056 -0.41810644348987691 -0.25112779801802676 0.1553537145843574 -0.2014468641988014 -0.13990148293281715 0.015362347567829405 -0.038525077372798526 -0.1694338325543952 0.29157956012210501 0.25226644515893992 0.015497104361001598 0.100500195770237 -0.011397890195855761 0.37044632432408803 0.15835420777732279 -0.25808484346724075 -0.14170440251301836 -0.044388879460969186 0.090446676604114304 -0.19052410418840263 0.068791787677408761 0.4101185023256575 0.064013340770312815 0.19789066316471374 0.18098148172930423 0.79443042000979658 -0.56164678456608508 0.024192273972735042 0.45038134915527056 0.21543856344415802 0.0047736518576231091 0.065570189130599449 -0.11936999720189385 -0.2424406171699974 -0.070045807831687096 -0.06631513764639449 0.38714643388556708 -0.017532166499600627 0.14900402424252032 0.027012132614845551 0.29987064193517848 -0.45771756618898229 0.16667855242542931 0.26072754099491718 -0.0031268665931686234 0.013072725387557422 -0.29270860021853923 -0.069607360753082353 -0.1771233973981115 0.070812805860623149 -0.21714715356366415 0.52854136733046087 -0.094197027013675647 -0.53499999587150326 -0.56378587063814278 -0.11809133260738831 0.042587919481432882 -0.076129105798381169 0.10216254354808472 0.14632253727371805 -0.24460673079216808 -0.27876222619649732 0.059185878672810353 -0.19582368060647867 -0.24850311362642108 -0.16989373477710895 0.5362972979658206 0.092754067249297301 -0.36494489717739359 -0.40438400837432742 -0.26573347157049992 -0.21707230068361943 -0.16665536957443391 -0.037573025133626037 -0.1928364356018647 0.027254198475340011 -0.1104882649049219 -0.21223987609439354 -0.18384466679093825 0.0015841814021115637 -0.065578956435456345 0.13303978386072898 0.093858838492298813 0.13873005372725647 0.14396688601014931 0.013543969417819957 -0.094653229363262884 -0.095033070255502228 -0.19528852890810003 -0.027007953314594539 -0.078064058831425864 0.054799325629893751 -0.21412450629048504 -0.19282511861000096 -0.15630405107249629 -0.025225065018083675 -0.1160199954050289 0.069783945159387503 -0.3506399819305836 -0.15088484605488139 -0.31901314147054993 -0.25841949660026314 -0.21635974105710004 0.020735883514301074 0.070720381181711714 -0.17506462456338751 -0.004830035571399576 -0.19321613442928864 0.085163653770556846;-0.22995967547370558 -0.04013446050210432 0.026204437639984989 0.0066025038430759181 -0.14396179048093644 -0.072253743495178893 -0.034786377825123421 -0.18197211101124339 -0.082325139319987542 -0.028243300581967758 0.16695002467609565 -0.16345011114281904 -0.04901245068363283 0.1038368816086231 -0.062432971666269502 -0.1943808215973146 0.12006768824430915 -0.26523535104842111 -0.17396756549634174 -0.24339152004122636 -0.22572589613895519 0.086553317192069268 0.022892027403494254 -0.028797005111332159 -0.0033017519858770908 -0.14250110184563825 0.13573368759046703 -0.032898640613927312 0.02446802203029377 -0.05442319823027654 -0.22033447612949297 0.00056434710216289759 -0.15285572232008945 0.082273765922084796 -0.25631543180989491 -0.30717805437516499 -0.20953646315512156 -0.016701432627523497 -0.049631239872760066 0.015565159512892257 -0.20768532555287134 0.059627707899351894 -0.17499590535246592 0.041416490709225574 -0.20138389396490905 -0.22757395439770936 -0.11253162119325442 -0.033935676464737961 -0.11416085281744209 0.065507368421645285 -0.043490526707762094 -0.13691903869876826 0.084117653540963205 0.035447801561978763 -0.087954170136656351 -0.031473977189126361 0.063068923763130155 -0.1610336642085958 -0.092841025537703764 -0.22340879911317046 -0.070104931000416801 0.062245892597177652 -0.19576077158560776 -0.19117084570986398 -0.023782207494205263 -0.32015718578301805 -0.34457650007594481 -0.045394884372997032 0.079251095051706549 -0.13238773118549108 -0.13044236989117849 -0.022147073079598296 0.045827246290987368 0.01817116980111497 -0.078170221508584173 0.053924158489218749 0.11637125857442035 -0.086165866808573716 0.035334239164589797 -0.32197630565663965 -0.14238475654567151 0.086534094084286375 -0.042311870983303003 -0.29710159438965916 -0.36067019913601722 0.049037055282663153 0.04382641177727456 -0.066828030262173294 0.090206755571969846 0.03260901359224791 -0.040372188263991346 -0.2040541579630433 0.020276737169282577 0.099363184750184519 -0.00088041952725279829 -0.08646966718641616 -0.24911856656082146 -0.047263535531237848 -0.096038436096082341 -0.18897515316286365 -0.1783857530586479 -0.18383344908792196 -0.062895998668862446 -0.19889789786594869 0.064819538195820578 -0.21170077609277413 -0.02825119714023994 -0.22835985889549609 0.055928390021962267 -0.0028817292305279873 0.021044210795176245 0.20004592950230826 0.099623608780533668 -0.048044795240474669 0.10127878383534786 -0.0063099339361130059 0.15973160367668879 0.17227838614979998 0.099585528062199349 0.13689346201424574 -0.13011026595027317 0.00050748445572502087 -0.16389166104554814 0.16618972661323836 -0.18892857702421534 0.10625083597960884 0.058475909678894357 -0.20203054115926081 -0.087114498427944415 -0.27088286466955958 0.072252733345798612 -0.18545254942619413 -0.2057208672233625 -0.063610807031219005 0.003835824940469064;0.11893947310392354 0.18469772397916881 0.1927875276075813 0.050725932037009272 -0.039667565923228308 0.063861686483559152 0.25558201177001327 -0.15275953465280478 -0.17738150142883571 0.031550097445522035 0.036294978399958142 -0.16622156057369644 -0.07860674118493452 0.14782309608315983 0.084838751201352369 0.16459766953309207 -0.14162617170363898 -0.034794303953648485 0.18606382154105489 0.077274142969601237 0.063234807665514411 0.1774769196902517 -0.3646269620086805 -0.16645946337433651 -0.36495362453328106 -0.068764059375003295 -0.29314522798003162 0.25291751070127927 0.15944874248045926 -0.14156237615919814 0.023982242496222123 -0.05965442228774228 0.39360097770380909 0.33216204016962803 -0.1986809917771756 -0.43218975890422429 -0.22944669863232675 0.12302964603518511 -0.28046025555810106 -0.48372275408208526 0.26150682725560592 0.31127689678022691 0.15767694595847839 0.0038236429699600887 0.087446836973691613 -0.16493109774561612 -0.22080568815424576 0.33859357380755917 -0.27032924849041257 -0.32155827907034262 -0.22713878045779415 0.05289329647526881 0.14102039991401083 -0.052981996398043719 -0.27696435774888228 0.065084363171902498 0.25305268712303952 -0.12710319476240325 0.030777973038990963 0.16741486617295129 0.10295634376980003 0.075619573403666263 -0.1088988211730491 -0.096047551306241014 -0.15317953417587321 -0.19791580419846252 0.083789116117384987 0.096485639077043939 -0.22620135070684477 -0.40549062012798809 0.022739440791810839 -0.12497315519702931 -0.16059451160372307 0.28980249492042132 0.13728249477748639 -0.014655444366180392 -0.036235912115950751 0.13473910411841961 0.024332284213682612 -0.17402005121940808 -0.17669582258177055 0.14085623278794887 0.067877956250966889 -0.066656507829812112 0.21244904438740181 0.035966515204579719 0.0094796749242330291 0.044519509654245587 -0.23168382874793622 -0.10810752813925792 0.055539297872676731 0.14528192328681871 -0.083924370315901942 0.34414908740975353 -0.019295586600857405 -0.0108446177243414 0.23854349991667154 0.067706380060570753 0.19856053106242438 0.24921857271743889 0.20905002412883217 -0.19898058717914033 0.086045528665146934 -0.1104353442777312 0.21156079672157846 -0.064863295127629908 0.098218280237941533 -0.10445327231095847 -0.13122095883593182 -0.26326678198950981 -0.28221239147768423 -0.086855653578147091 -0.18550522043338655 0.025750998822367432 -0.15124006790609021 -0.33082233586736021 0.099724464068075599 0.014362284037822954 0.093910140802427364 0.055687152236547931 0.15252258423384646 -0.028343807116382451 0.24159113984802683 -0.054702339989613762 -0.19868097844776422 0.21310035479815831 0.29171921702961268 0.068580663309008832 -0.16721634887104797 0.026506194323040806 -0.047154809389886039 -0.099593053664943559 0.00024327161410780392 0.090319032797221935 0.101243658562988;0.19862568929540683 -0.046388644321987832 -0.0019423818812879219 0.031276088462597822 0.22188414536442541 -0.12047030109961848 0.1146926351158153 0.076049470454455398 -0.030469077731878787 0.17847913770390475 -0.13886828304982934 0.010119363835643108 -0.075424931733982944 0.19633767013522721 0.11257696491259074 0.1779418603165778 0.0088381857534700573 0.084120957522900108 -0.067192659228828666 0.15739827039206003 0.20431009464220803 -0.15823111769008036 -0.093017300084040952 0.15315789986351458 0.17109207046139421 -0.080517432557872373 -0.1631827906950345 0.14339752891307511 0.18973353586453393 -0.11927190612760466 0.17430373023291515 -0.01313719710282679 -0.01553486537222008 0.20819280511177454 0.18432165881134732 0.038947132196303483 0.23377855969438913 0.19976113980281329 -0.10218264318113383 0.16725414531219115 0.033495289338550734 0.10134733317222117 0.22711133618660653 0.10991834997765543 0.21059042497151145 0.18773330732634491 0.16342352427841153 -0.33461057429556174 0.089229692111663192 0.3246355361440495 0.21564010825464958 -0.031151318268211953 -0.045294757177000232 -0.042206687896238958 0.14570274432102531 0.09483002841832483 -0.21504408757733762 -0.035332761062349859 0.04957451869984756 -0.13690408878879035 -0.025934920878067338 -0.071585075792435088 -0.13920890366306649 0.084897614249987166 -0.04274616674076865 0.26845711454520277 0.22612960111661901 0.0031078444287121892 0.10509398124257682 -0.066403927935601875 0.10066138211370211 0.12284764831494978 -0.05984151124742882 -0.1362916716657275 -0.12617127959338373 0.19754082070006845 0.052357597718232764 -0.18795066244996111 -0.025273520159742727 -0.16283108154587086 0.0014304337534856075 -0.1066253555505339 -0.083358410376236994 0.21405643340143246 0.010758019820305781 0.17645466179589661 0.0049232825761241147 -0.13905964734335577 0.19417097304055192 -0.13097664025018346 -0.10183686714831472 0.16008838697356148 -0.020887334769399336 -0.22280532178308776 -0.078868295736635008 -0.13704620240789048 -0.10723693562774407 -0.057003664331930527 0.30556271316480926 0.26067852239768308 0.19986625032256752 -0.10398378574764425 -0.062040203064037527 0.10805515945634765 0.1818818400352635 0.12580560848887629 -0.14656771884239511 -0.19000494024510201 -0.04012116461475751 -0.0013464555158693185 0.096538836370498551 0.19417096329346883 -0.025786334401466743 0.13207210200088165 -0.092421764852469113 0.20247877377284473 -0.14174895747226096 -0.1417364339452824 -0.10747151786293473 0.04282008434441633 0.093669404498808659 0.0036588156965992064 0.1632426593225576 0.15940715297582997 -0.093720175350349919 0.20854328266010322 -0.16616858366543782 -0.0032394153724487271 0.072425747094286855 0.11415027175149443 0.18576135151219245 -0.041389664640627738 -0.16130140690198566 0.12008727469905135 -0.012760850387917574;-0.18449988765881301 0.20139761605514064 0.41464481961674904 0.30658867794928268 -0.25099405853790668 -0.014045852637177784 -0.26036929220699895 0.018969540319748537 -0.29276287473321588 0.03347824486534285 0.085728169119673736 -0.16460662848220051 -0.081679618964057371 -0.076814724515765723 0.15581804944221503 0.25482854386790826 0.10671114537862267 0.61718289791184511 0.16616300413972707 -0.02754472404809219 0.012318274373748829 -0.018362960485993701 0.04963846247869573 -0.29325267547511563 -0.18837809114532214 0.11879527303106906 0.090203983976315516 0.083514987841808885 0.12780924546295663 0.24785354828088599 -0.012412585024552836 -0.031243201595217877 0.28031345269638436 0.065842398701218816 -0.26507588704801532 0.015710722812049365 -0.07426811296199079 0.35092008332442826 -0.32882810182037298 -0.21980254405511915 0.1381142641542438 0.26269980741730009 0.10258168275128851 -0.0050517974143462294 0.23754491638189995 -0.14992713728452423 0.17261782905839282 0.078916517906437347 -0.32251388541439641 -0.51422751606422901 -0.14172215176756156 0.46890532027082016 0.30194818410617263 -0.09826293539888839 -0.10209579057093367 -0.028422964816734935 0.08175887400856055 0.018952024650972669 0.077939708679403627 0.023239313134976094 0.07551333352520187 0.20541724087228305 0.20952559797519568 -0.65442342709771273 -0.5781021636607343 -0.21621570178901461 0.54059781385728978 0.21275918102129873 -0.36719655974738591 -0.1869139692981695 -0.19462831472111197 -0.21721722381859607 0.11296368133396217 0.22164093814688643 0.096248922055693922 0.20008816747361161 -0.0022994842996073824 0.053014169949513128 -0.40816518422655962 -0.26806037850683356 -0.3850130127976239 0.25742778471937805 0.15703331854324049 0.15283506075101047 0.0057935433701665892 -0.26580135286098078 0.13087396101790819 -0.11259369662062865 -0.0098899857552489073 0.15159749581082574 0.079302210419688587 -0.026286471595166363 -0.074007877117902229 0.31790577625153255 0.047743871771341484 -0.33265277101226981 -0.45522385769652685 0.024915702983701028 0.19973738294644067 0.050304572116876091 0.074548251152356193 0.098259126454622786 0.22306676745154047 -0.12340421843840911 -0.13442423666298778 -0.16935805088627728 0.16378554139925738 0.12770692134123529 0.21900349109823616 -0.034806287100458307 -0.2045766128611379 -0.1369137338288125 -0.20198911642220152 -0.10496722683089516 -0.28188524042040003 -0.052579617409807815 -0.080712866125416977 0.0021920966008947009 0.21129839765075548 0.11861516722471688 -0.14275069234174531 0.029696722110674298 0.064348608398960422 -0.19052330747058396 -0.063573702831370496 0.3359837457590063 -0.0049952230821264359 0.28290218011538915 0.096062681294035307 0.14162422504853506 0.014951914135398904 0.12973651961149824 -0.12490900821199118 0.11818530155445095 -0.19634039824090341;-0.021379316215853303 -0.033787417037504208 0.45356755667683402 0.33359166196024914 -0.22820991756453829 -0.15850174757786117 -0.28444712392549504 -0.58994573252459692 -0.23417521704476302 -0.11087982398360155 -0.30836425436102199 -0.2548563199652723 -0.040711281381948704 -0.19203250459941032 -0.0030508852706749119 -0.1246004932269428 -0.11850707329349577 0.38011899168067853 -0.028948451243897021 0.030583038810926964 -0.1043600110029993 -0.66032262935893959 -0.41021523101847396 -0.21817773074470856 -0.010344118862767515 -0.040909901557289234 0.41559166306079864 -0.30331119721304384 -0.12168944884510347 -0.021984672019289553 0.07494122596363649 -0.088484055390140579 0.31435001683101521 0.11473374658910909 -0.014997640745472367 0.0071159898350549684 -0.22219175315847825 -0.085549874395891748 -0.010438864716085539 -0.31835849650691289 0.41661420769949586 0.33076674634789272 0.14893276251114912 -0.27466397246906027 0.079864101267160009 0.12429386735321582 -0.093963127153885731 0.22260022364629783 -0.3409904782519495 -0.25923624895617409 0.06553418281103103 -0.25474648889775076 0.17674138194529757 0.18236161820133617 -0.29527793229629495 0.20986193842071321 0.11454797997087916 0.068619953567015876 -0.13951381920761424 0.11597920140109777 0.082566282684996342 -0.091797435771337893 0.18066174014443742 -0.072577489426085176 -0.24949943590790558 0.44588677049212855 0.12851251821335039 0.28123718887281401 -0.28590456863661734 -0.34797852015787173 -0.043285374513157358 -0.20146157440571841 0.067792882248379024 0.13130155349072245 0.083091140844916686 0.0258337001721177 0.018284924813467503 -0.02165554774984324 0.080298790474383014 0.62367421686875824 0.50551998404257292 -0.3351684272433571 -0.22005672219690428 0.036981207960050444 -0.01080557786514175 -0.19478266496045685 -0.26463861186359366 -0.19870078704766561 -0.11374834560843189 0.032380193829554156 -0.26706474984717765 0.13266016922422005 0.13727649416302085 0.2559930405178375 0.40623593253655921 0.24826156591712911 -0.13158838184682334 -0.041222330365257562 -0.15651740195769559 -0.079590830497824963 0.0010191647707108106 -0.077772132325905977 -0.11739353552681962 0.055129776001036745 0.074957502039421461 -0.16348633099438609 0.14538597291202024 -0.072950963576682099 0.047156031716637931 0.28354705848526074 -0.27807753578861105 -0.25937794961988364 0.10053929304873804 -0.22134019342991465 -0.17602025199908788 0.10102291067802951 0.043913602189416312 0.053200770713075683 -0.051700699073640305 -0.14632995669993415 0.077878052269414647 0.14179053679776155 0.23111225047153394 0.16525313195809435 -0.141595281388054 0.03320725249350736 0.066282892448786046 0.36960861854588006 0.23400982894070238 0.011764091225881814 0.11880411159017698 0.096594319515039148 0.20713240471640348 -0.18829572062713335 0.11307185841306094;0.17581318281784108 0.2527460058640047 0.096750061457938574 0.040405960283591176 -0.017541097407274053 -0.20926194212815072 -0.48714440154253952 -0.11815907389642528 0.011482975320906764 0.41137307236566584 -0.02664673720781862 -0.47012549887573585 0.10259122348466147 0.070867446216170582 -0.10526063994246507 -0.13716273188392017 -0.063981027425948703 0.13513989530502549 -0.32025875691624922 -0.038548516932334402 -0.10802291769155045 -0.5690085411084973 0.51905592544080792 0.59940381990285196 0.39187958123891942 -0.16341388742691101 -0.17698267088394026 -0.11739204265946734 -0.013917255133573541 -0.23124680362323577 -0.10980357165494335 0.017812198527081314 -0.035748041984232148 -0.27325835236901469 -0.2787108393715011 0.041483565469082474 0.062956846397974928 0.2331565452629121 0.010163378607392429 0.39850499964877367 0.11666650290712929 -0.087412396438983145 -0.13991681999020841 -0.28628028298816821 0.095949834551695243 0.12342560981912078 -0.11219561204368354 -0.050854794924629854 -0.44633239853903073 -0.24661390544495682 0.2077638066310675 0.49512546690344855 0.1208629909127704 -0.33040179402152414 0.38464410984864561 0.22334587265147593 -0.22538298508106466 -0.13309904745954038 -0.16576685842863109 0.10632419235395624 -0.072779542107932471 -0.14534526061699291 0.014688443300975991 -0.15762387938700165 -0.23650355526613692 0.30053135093513939 0.49959614827124393 -0.37751675216411323 -0.13478940519587426 0.25563332222017726 -0.38338713251963968 -0.29024308756194123 0.070411815955806464 -0.13490770398711241 -0.18314548538676609 -0.10607490403297198 -0.09251221461366628 0.0083134034846757514 -0.1634242572393671 0.58947743927327423 0.28787761780618543 -0.15900274359351804 -0.12989920380749992 0.0010810138936887845 0.23011873965256271 -0.0033326514449412421 -0.3387891170164129 -0.054522388159671482 -0.040573440266843244 0.15730971571158708 -0.33433789984935885 0.31050930656995457 0.37406989110074174 0.025831252515481178 -0.053726873667457604 -0.13478723918948785 -0.17871876318132701 -0.1069408006604699 -0.11254541281317618 0.42212795183802199 0.28808722356537853 -0.10228460486068904 0.11121738396345315 -0.075345932570554955 0.028256302833849816 -0.15675223953739004 -0.073081355922167954 -0.08925843851858517 0.20978325275210941 0.041334046704874103 0.014472478477277489 -0.52591064420499734 -0.24498976693270497 -0.11125143413436447 0.13728239344965826 0.18729969438542554 -0.0065167843359762714 0.18261107738282506 -0.086065148302733194 -0.14998593391898093 0.088538987928505203 0.1447807887101927 -0.038979914467165609 -0.25231742703230875 0.11142618668035513 -0.017374523038599099 -0.1462164385159016 -0.12829225464196489 0.053992530509995966 -0.028987498959835194 0.11140532891443045 -0.13088383582923308 0.056286813344207876 -0.20449016937990197 -0.013955972345934849;-0.098328811843273273 0.031271701384632387 -0.072872453623343603 0.030066695742915327 -0.071399365825456668 -0.2440157477231005 -0.25263840829821416 0.056529941819992484 -0.22466527375769246 0.064642238620739326 0.0084988770745160168 0.14153566854847149 -0.020196293979789511 -0.045947975434986715 -0.099503804611398544 0.056279825478639807 -0.079066482684235023 -0.25859343326575007 0.11930929665146825 0.13121262245606582 -0.031430998204352592 -0.17403700767165672 -0.11542376848452311 0.18350178453909102 -0.078833695010991758 -0.02156123319986529 -0.24629395569673354 -0.21555185656424036 0.20234665919494679 -0.074656102513975683 -0.16770483220127178 -0.090717347254514885 -0.29043326307352962 0.017741332184599279 -0.04298267237773392 0.025530379355607941 -0.058713782033968973 -0.15586556637469151 0.080862183413557984 -0.062751032404536611 -0.24022432928440873 0.065349381460754571 -0.038060346712424656 -0.075127574615176759 -0.058500536834715865 0.14320704251907707 0.056152246544592541 -0.31894442060675871 -0.09737291953158006 -0.11761237371977896 0.032807821690189323 0.15124597158174863 -0.13788562211764793 -0.30467103028033665 -0.23886241863998861 -0.00057829697213252797 0.055681967287687921 0.077199388302054292 0.15113630323392258 -0.1690636109928777 -0.16103987893289162 -0.13659793734046399 0.03159541557968535 0.10966216038383922 0.16152327247517614 0.045096860790949468 -0.059960232240954536 -0.23657594604048163 0.063508706320009267 0.11338263841504957 -0.22477533544626208 -0.25421710797913988 0.17132748735022965 -0.1926388731384685 -0.032623713584292294 -0.085299673285370164 -0.11725724015807323 -0.0031247924819278344 -0.13077891285826651 -0.054954334182169891 -0.29597042347817082 0.058517646808194178 -0.0022063458207254426 -0.20786358870838406 0.039969227335210369 -0.15415334994344351 -0.16630249231431507 0.037909117754275398 0.13196069954742803 0.035219022455045185 0.017212905007876051 -0.021014139394733594 -0.13413920003296786 0.093912443087980538 -0.12500173991178148 -0.11552921387277829 0.10136439930934003 -0.0096435974406084476 0.081364424391114382 0.0084289462324754309 0.141457433081812 0.0021344504663406648 -0.088935721938403808 -0.15943199893606447 0.15994695404822984 -0.12361667987816793 0.0027083530504366802 -0.05127260850235657 -0.012874938850374641 -0.21792106441296799 -0.2666437836831716 -0.050843588354129721 0.018872393377022442 -0.034734057779266067 -0.21229086861859617 0.01496308242147236 0.13789891854101544 -0.096728877766006346 -0.11091806974478469 -0.13588620957019687 -0.18225485331717173 0.016765380054480496 0.16916838174107143 -0.078408312595283775 -0.19013051642656192 -0.059751867761056961 -0.019325993564951637 0.075444030506377713 0.029928894577675641 0.13703178885025472 -0.19313345891978459 -0.044782809723453297 0.015608631500778569 -0.028801542295050508 0.19409185477955038;0.17916900377989828 0.095457249881884823 0.14937322303719297 0.19599870050494361 0.1947447665732995 -0.093759035903315247 0.035405668993720441 0.1563292498179901 0.36499364009446245 0.26011311759396039 -0.18048370203451788 0.12127484789888789 0.16678024107216224 -0.013232576826137788 -0.15111809680121172 -0.13822140359793036 -0.081957570579439393 -0.14609334201596844 0.024078985714631261 0.059553911056095664 0.036049045130986605 -0.19557258778139736 0.2180548614778032 0.8228840019759357 0.83432566681013121 -0.056817191795009249 -0.14651533268230635 -0.2568494033924314 -0.015125995590940491 0.056521985154965051 -0.038185336846392928 -0.20532548917279198 0.11751531303996705 -0.044547194527457458 -0.018114002937650312 0.11909289406290152 -0.13151206928157763 0.33464304086780999 0.29126542200469968 0.55108622339169278 0.49126475476551201 0.15150535654661587 0.038913915210105135 0.186146766246439 -0.024347184558859574 0.017765723963066436 -0.19518770265902444 0.21800963257903708 -0.0084012769579365574 -0.0690212810184299 0.084115093951293726 -0.1820743483433695 0.061355599080022416 0.16844075941927319 0.15930374150170998 0.23584605365848338 0.10715557107333366 0.056992071509610297 -0.067435212501606598 -0.10334304799549501 -0.23988563072557262 0.18290126152700975 -0.025813545069934635 0.0060426950679968909 -0.31386530600384871 -0.030047627267821401 -0.21670049581033218 -0.0092259380335514164 -0.21762327031911249 -0.18486760031178801 -0.082809124262552658 -0.16013159024813303 0.042732679743261365 0.14062420605712203 -0.10032938801572359 0.0016769705647769293 0.1497396701811993 -0.24980010992676724 0.27621248803130705 0.1536446866364628 -0.12449028299686381 -0.60492075126055767 -0.15111855768314403 -0.21887646853437026 -0.485842173601992 -0.55869181522226297 -0.53216659012079937 0.15606181606552166 0.07927051819858498 0.027562741825877018 0.05898455619693465 0.18775790034179987 0.054849812812577892 0.25107313779458096 0.19728939431290907 0.16860230637996845 -0.27797181752921596 -0.26045290012677053 -0.4227750594518907 -0.28428315928026437 -0.36002506561146924 0.33476697701306957 0.14519167520762644 -0.27952272312180892 0.096534326102465859 0.1784915683803876 -0.0089140482246753815 0.065057098529508514 0.094783181789833457 0.065529892677524681 0.14875433491804194 -0.047886888223965314 0.014117043808428072 0.22691056080257332 -0.11093644009259582 0.089004137916959533 -0.053103372997938596 -0.056121514261515341 -0.12162575144549607 0.07660286488768786 -0.1978360124958643 -0.23429882547134118 0.15364604367790832 -0.3554061022215067 -0.061837662736712574 -0.045017292618594718 0.051108388762032338 -0.11462125139443052 -0.051874881796207438 -0.021592533167102006 0.075709157867091842 0.22975555919169435 -0.14451766106535077 0.16698112628172251 0.093923859384809488;0.031797528374180366 0.074966254153054343 -0.14929757710029612 -0.048133916316368354 0.16481284133696206 0.17263983572294334 0.18598018308862432 0.21987001573680523 0.1262853712742964 -0.051703578007108425 -0.054221832554588727 0.0023092130679084736 -0.048317690631273523 -0.12993176278910853 -0.10316861834186189 0.00098594486896051822 -0.17240829794546819 0.054798665212520192 -0.057665091032874802 0.14562314337699772 -0.085526953958229374 0.10385674911015831 0.13835184070075807 0.14745121161817154 0.24658524572136037 0.011304804512748325 0.20101161772612214 0.16831650244438873 0.13427268550778146 -0.18074253062348833 0.016580923705841674 0.14155730400313057 -0.020690732880540286 -0.05700982125119626 0.0024514915955090029 -0.14020617871498969 -0.04986410012043755 0.049461779380994449 0.12914342729620776 0.23666205480557492 -0.012131996691633682 0.20761687281125224 -0.12465988403999219 0.11783893200198876 0.11605069326000603 0.12701286108608367 -0.066610012207671598 0.16687689870989503 0.17450188480990461 0.17903432149182416 0.26874429813896922 -0.0057037638256593505 0.021571121399994751 0.08285241273799264 -0.038979784366627419 0.023156394421280889 0.15560907230239993 -0.019562822880849817 0.019919127021614625 0.16813046451543126 0.18526320455647213 -0.18341665901205553 -0.027058666583279049 0.23637241238544929 0.27211118315461719 0.28077401240628225 0.25982566309032518 0.20784957432301943 -0.107907276512498 0.11088415426538681 0.24616222664501725 -0.044505728082808706 -0.19026788632398911 0.0072109002677973799 0.1171511623169208 -0.0903387473542792 -0.031899745056193834 0.17100000008992566 0.2339591995521953 0.0870539025861789 0.23019833383638136 -0.12836670646913068 0.058562155089487367 0.18783850537850216 0.0019212780384472972 0.20458565634921017 0.24349719589192528 0.19678127377775889 0.15639230682097338 -0.073783991533038495 0.010529136997399756 -0.16624073174562765 0.099180315661939938 0.033547018733742058 0.20472773080992684 0.22162851736165007 -0.0053682099343101333 0.028610312957143023 0.15714659152623286 -0.0039003380798037701 -0.083648327989929425 0.22903317387067604 -0.090166641599981931 -0.061341690392339762 0.12299750482128738 0.087161591281285311 -0.041200976219519528 -0.096349388956785229 -0.052871886320089385 0.0020802269190150552 -0.16715812450659509 -0.062697323937827176 0.14336046936578856 0.14817650272856514 -0.11535351853338432 -0.093782851777062706 -0.072928506127035816 0.074657826694221566 0.067105708661254496 0.21354148231373882 0.15969216854090434 0.10927058478363255 -0.1082980973502224 0.12935942601987147 0.11478070166041834 -0.020833490788871884 0.20225508890219232 -0.088869054738508022 -0.13401458136341418 0.24778298098204016 0.027114395533245295 -0.11711914787776503 -0.061932406880068042 -0.10467666428106773 -0.038815015793054887;0.067870936681537028 -0.07520558925771012 0.010555364762074998 -0.16003874949366526 -0.11230645461910825 -0.17580305121655856 0.062344391578066906 -0.29540277418928779 -0.30149682489446278 -0.36888097567626821 -0.060628132920636013 -0.11876142425089867 -0.26919494306213443 -0.22692378142675243 0.14115926024813719 0.12742078412234256 -0.044677407709013614 -0.27493947717348038 -0.33196653627391981 -0.44066768491440178 -0.11598138851723237 -0.16740805959867813 -0.18863731316352741 -0.26824372331415219 -0.018252710805537364 -0.2960509318648919 -0.31818466266447765 -0.093854071249710028 -0.15757760336408763 -0.23670616936823727 0.020306911888828154 0.1069278894264218 -0.2675811305813765 -0.10822467206602561 -0.17172082613653342 -0.30224682905437039 -0.46409076395106885 -0.39853682107619959 -0.0014007938837939029 -0.26283191423236596 -0.35659532856792481 -0.1129486254404124 -0.013711668163499733 0.15020714360266757 -0.0011013649210721715 -0.05852280138468989 0.13437287199278528 -0.26619701296955128 -0.10606156702443606 -0.44926316301012464 -0.1147383984893612 -0.11709023434403136 -0.35221034134268053 -0.33288807787026164 -0.22848948366613694 0.0070898126503563799 -0.17858103618327709 0.06462233800134784 -0.045753723757249863 -0.0039436996229017156 -0.24421429809264383 0.062108384452159514 -0.63642588599800975 -0.17528109171051562 -0.33726537400856987 -0.35717043615649541 -0.42278001203889737 -0.18517376768438928 -0.052408879612919082 -0.18250881144643391 -0.29755215908845573 -0.44400811102218185 0.13550719334816974 -0.22951098952591836 -0.2229193956083958 -0.030867267741489481 -0.013335111858547169 -0.19832043587828307 -0.30173401814196693 -0.3147326486453681 -0.46123747549500149 -0.47657458379793499 -0.34052290590157935 -0.35925988288399879 -0.47527607876988071 -0.53994041544017346 -0.41094911164425602 -0.20760118783628731 -0.17914126776249886 -0.070704080617708429 0.084979979980693537 0.14127757139827826 -0.13014173563476908 -0.20874119212038897 -0.081441656554001055 -0.31776352511669032 -0.025526715655903812 -0.30097863291563359 -0.43066944358172821 -0.1295212257954283 -0.04853543910361955 -0.2794128738974459 -0.049265342777602895 -0.15501274493001915 0.084529488756155305 -0.24639616613238971 0.10593552550376267 0.058560926110730556 -0.15011530454371969 -0.058553309334128105 -0.10817629541418256 0.022509304062213176 0.086939879607850851 -0.33066814289340191 -0.18973257022076848 -0.24943845720241203 -0.16587646138711179 0.078986538395981923 -0.028920962263613174 0.16562359284765465 0.032870163453237664 -0.2246296504144891 -0.1180277857106545 -0.15020407771265137 -0.14337123664451404 -0.13281454026037237 -0.022400360214167865 -0.33031663521975696 -0.026619931193532554 -0.18798054509692699 -0.32728835040840243 -0.13219812337207026 -0.25526891578160682 -0.026974371138966797 -0.22871843384990806;0.22507948604408592 0.17773644423514151 -0.16268671014708183 -0.15565482311476758 0.22747264327826075 0.4028092356894476 0.28252335066083845 0.3375175971436104 -0.025260437283701531 0.084344932947958834 -0.1367322704558169 0.41119603074891292 0.14095328473374577 -0.10638614406056805 0.021620690507910913 -0.16406157061835683 -0.16825180892462788 -0.25377141919433005 0.30500796723265533 -0.030059075081986013 0.1795644997662926 0.33797633374736807 0.0027766243871359415 -0.084644676438608513 0.0086590277965988248 0.31427375084815645 0.13131620563706445 0.2671110721857326 0.0092828010685650844 -0.052725937487093283 0.20707356719749173 -0.19252148433287727 0.12744698663247733 0.01826601004682658 -0.03049238449576399 0.08449371050559279 0.15561139876112784 -0.23851510796367348 0.11975366965061324 0.1791770065941358 -0.097666797585294299 0.14938510074852271 -0.029115257087076865 0.046055403998809183 0.1100422270688806 -0.11046396837055522 0.14971752863995549 0.094754980983624421 0.10196508925003074 0.18087446880316221 -0.0088266030752814483 -0.14665848667767065 -0.12336430508914213 0.066162787845586712 -0.25340430706035427 0.021949827555070911 -0.023096104145978093 0.18437614327038856 0.050246707686827846 -0.14378902528694618 -0.09575726287404368 0.1062951913883223 0.082179318080586192 0.11868108889423994 -0.015544157551605611 -0.36535518209766793 -0.51277036870674331 -0.36132574073493479 0.15757273991787726 -0.073266040583834832 0.31376123375771908 0.10236118142777123 0.022948558665551625 0.022514142513038418 0.065031524992351555 -0.12275706122643243 -0.0044146778644422961 -0.016087696658847104 -0.018081848408286257 -0.26339590811497521 -0.45828262877207154 -0.19773120387628301 -0.12525310001033488 -0.32851538745586339 -0.007467290569119692 -0.18238413527340414 0.13961251102886421 -0.085053931152056769 0.16718510318101873 -0.14634836262875345 -0.050681176410259404 -0.11210399553574778 -0.26919450714903481 0.063225692591847044 -0.1197450888683658 -0.18153373663149083 0.17770557826327057 0.030083669390071406 0.010993932965766723 -0.15168372889808909 -0.0076834001947338627 -0.098208161550488365 0.1886739743415147 0.21311978667540529 -0.18702666198158455 -0.065854316881139532 -0.071438280868805229 -0.14320080952398734 -0.11355889153726259 -0.015641790616460344 0.12765970971499552 0.43702881851006409 0.19641436164152251 -0.13642656122251134 -0.13239226608324223 -0.005928054576341762 -0.00065181708005571473 -0.18058771568285611 -0.093059618050734538 -0.15391126408159994 -0.13429272022027211 0.051654047292831802 0.096652198771949485 -0.11417958611655742 -0.19219877663111062 -0.20818261478381486 0.017721892955071268 -0.033904649142452489 0.033007992880035829 -0.3968523535341682 -0.11259858419904671 -0.078091563461219621 -0.17491029464782387 -0.11424251739047273 0.0079180580060031688;-0.15465367953673403 0.21890399513477937 -0.040455207338161547 0.11611509438808067 0.026517271739448196 0.3871716173047362 0.034116334933288375 0.12327335528166218 0.29127643250829499 0.074713965177652053 0.29666915668523797 0.42554964012249713 0.099740526308644537 0.17336622118109063 -0.16647830112391523 -0.068841206408596561 0.088022768464259424 0.30308786943003924 0.10414516736025253 -0.35050039946638445 -0.35929900230172312 0.49672161149065852 0.11634528316539229 0.56631711199938051 0.41400865110838653 -0.10596545645764935 -0.047748629361216377 -0.12423661239237284 0.24590652855698 -0.20308355971059647 -0.0043908411579070732 -0.14171592086871351 0.16408562376828612 -0.35873001829514722 -0.82725581632506395 -0.36674868734500915 0.17388779176678232 0.23493309802477777 0.16819555849084883 0.41627526296700051 -0.16161990637003146 -0.060644662322177266 -0.21379104760048809 -0.19853537619670927 0.043409990551719034 -0.095495272111047677 -0.020193597468784154 -0.19031705297669441 -0.11520411171739992 0.027660001564495149 0.048629654400753834 0.20736157952489814 0.027498282934521757 0.017889860632596816 0.46493425587819426 -0.32540707415493819 -0.20794319358274113 0.24415695540257093 -0.080950417595551424 0.050218086230389036 -0.0069786329298091171 -0.039608815552077112 -0.26054383590493602 -0.29917200576620756 0.079720335333398187 -0.2989721646818333 0.076156851058547276 0.097725576796795874 0.048687393024492862 0.056240145127592421 -0.22373414509722692 -0.29299911063168399 -0.04908686550787688 -0.084390835739181949 0.18486279626599841 0.056904005806800592 -0.1418918192080863 0.082656999315770002 0.138501537530372 -0.2116433515777689 -0.19900311644902799 0.54940606940127235 0.39434675419869047 -0.0026319349625224262 -0.13585870069334535 -0.048512218179906287 -0.0095504496002154545 0.13901132798974919 -0.015547325801440408 0.18884968995137394 0.24619471538458454 0.02855321237389288 0.088504485848994105 0.29677484239229729 -0.1950948936581432 -0.22266396421619875 -0.1384073251414763 -0.33199142201208309 -0.23728080902286311 -0.02147201949803236 -0.21464382883931962 -0.11326413295949858 0.2636460436551028 0.13728392133987005 -0.037525261380998508 0.11587481933230041 0.17059200431299884 0.020053328624007515 0.0063417739841724009 -0.37246944378797692 0.080041104789070505 -0.020532980713729668 -0.095203173848576614 -0.061172224794549673 0.0014989519912125167 -0.063360386413534961 0.25003682105432901 -0.1187813006659354 0.0028593119762799052 0.071571658460832008 0.17514675690677364 0.10448972374818574 0.1479851823641625 0.007731073244925995 0.32699414427658313 0.073767912266644059 0.19028076953949494 -0.040518827165406036 -0.022785468646342313 0.10110084542543706 0.075089417954339405 0.14319864756326764 -0.13715131233711852 -0.26189731984654457 0.08007706996486863;-0.014412268283813775 0.14682927009613264 0.19514379410512309 -0.11496179950436571 -0.16079702680322483 -0.049647703470206986 -0.22829480909376448 -0.3005087624480855 -0.13137770306270433 0.074685404721913484 0.016876432751316259 -0.23078063913101571 0.15441550937940857 0.15726945370899409 -0.026006180611967057 -0.16874101814580358 0.19503582821361726 0.33299057821165134 0.0055214116740542217 -0.12937586177264204 0.07195364834670212 -0.16186882725366852 -0.33823974261291173 -0.045100108703219038 -0.25343602219357753 -0.12534343263997438 -0.25461166945813574 0.00032485433003302594 -0.12394002120484728 -0.18741374291899107 -0.027396261157551609 -0.13728648482198391 0.18127424774550593 0.018868523294917658 -0.31072087620109251 -0.18662350458255111 -0.070301154613041886 -0.021911542385560267 -0.18052539892776934 -0.10793552075349107 0.060166546079628402 0.0081288825739194385 -0.06993406242129438 0.1314480905691971 -0.11860270488768204 0.027909569365236971 0.045871783106468042 0.35775978905301192 -0.35598821028014382 -0.06551173264438355 -0.18444755390530701 0.25746502021473894 -0.0059525669274295119 0.0068868231046261153 0.22530890606017129 0.32521629616706466 0.0085729357854884627 -0.063558660860746727 0.08836349839220714 0.08388975504436133 0.06452084551370188 0.18570488058812795 0.1202248929844843 -0.23623477970174936 0.276505598472159 0.09079817564180237 -0.10071277932963381 0.1085289514729189 0.14790894063333718 -0.064400509997833394 -0.043068929123080101 -0.11083079194601962 -0.0078241397209644851 0.056703334304848731 0.0091423664259755039 0.15675823593179403 0.1137754974710789 0.052195037821037418 -0.07108583091741498 0.36991589676696213 0.15008605910886455 -0.17122151724274903 0.031668787025037733 -0.16798205667763047 -0.21880051121620114 -0.013869453544035574 -0.18215757732443899 0.19908166044944112 0.15533836892944422 -0.16583516097811635 0.11725592532005884 -0.079914702246105251 0.21683972797382045 0.32990364570062847 -0.12309085750085423 -0.22543160845721477 -0.087570811813029198 -0.12292540533952284 0.078438165830728449 0.13231885768667212 -0.15587430240748035 -0.091702718111086254 0.11118157236548136 0.1780030370529361 -0.14845236307972864 -0.087438269219732065 0.023303126430004931 0.08379866257945387 0.15436666188923312 0.14188999952296885 -0.18801816975129565 -0.062317206126870119 0.12378838019391609 0.035202081017200654 -0.018841811044122452 0.075897043120655747 0.11410075181074351 0.046094425533515289 0.030079533916539117 0.10856762947152661 0.0090051262759659346 0.17205726034935673 0.17701031183556473 -0.12630761082862868 -0.096309085400177324 -0.029504401414379884 0.057142610965484404 0.069568233802216162 0.052518351248521097 0.1279280957335299 -0.1061723910549103 0.21424113426930669 0.16459329103340226 -0.071036476223370268 0.21860319042028648;0.017124095083468245 0.1214579437677709 0.11585623953406617 -0.20246614584588893 0.22936817347235819 0.16416738070929898 0.078985627134161268 -0.24220599789470754 0.33708770309369401 0.13221013662382294 -0.1803824641529338 -0.22435200301224992 0.054135980550821396 0.040842862500438448 0.063505546057550363 0.02992934116548886 0.0081002836184175375 -0.54373386941160307 0.04712545221339124 -0.28334934578961285 0.11936793154809214 0.13434027117375361 -0.076063293051094397 0.39089707175499999 0.18377418393413297 -0.35184960663397341 -0.46193742150611933 0.075524630440283652 -0.039318992109288034 0.057000800797182206 0.066730351320924655 0.037067231184244959 -0.31035543937474186 0.18581956848561462 -0.22966533552814919 -0.31745161457232446 0.31422482561286175 0.081818278513016957 0.25580276454220124 0.10280097040246355 0.27012145846862146 -0.15086916048823093 -0.22340428413339941 -0.20651973898457723 -0.1021704646286106 0.12524316829261589 0.056601288407276004 0.021439130415183225 -0.073295365612654359 -0.05879426384824931 0.2070520426468393 -0.32175351882536296 0.1524933912355671 -0.068875886981421081 0.21655581316747402 0.33171801215421465 0.0032838495502189417 -0.082303498148958334 -0.17366592518041407 -0.30751636597870163 -0.10652109082353875 -0.23158561459084134 0.10000040941783488 0.21062815188211162 0.3619577619945778 -0.071908167804389189 -0.6779071162140855 -0.02796948520509009 -0.12257989346524362 0.20140787663746426 0.038566978960172832 -0.016329560599413127 -0.36838029497270541 -0.16363810338260629 -0.19084968239399205 -0.22474309881009344 -0.30394946848732213 -0.22169516239357609 0.52326401271120127 0.19248592395245459 0.16876768085734184 -0.23811091610583854 -0.33063626030715887 0.031486944437075413 0.11719419529596643 0.095207960007934411 -0.1673075260165526 -0.010915643321640627 0.071299216437052726 -0.17571615409652644 -0.13364487422963081 -0.13262366098144762 -0.04255270362578184 0.34203813338377825 0.12546392060446235 0.54488307989986262 0.48205388205577948 0.28805562110400396 0.16628276161914771 0.07328564602553557 0.2053011808455632 -0.13918407787121392 -0.21053141684455684 -0.058598561763253322 -0.10836464283280112 0.080485392218074922 -0.13380981616341189 0.059080376944720667 0.10090707697462339 -0.11177840765150489 -0.12950538693665625 0.18499949968719742 -0.10422807983251274 0.079492186846610316 -0.055843570734263201 -0.29607045701595047 -0.188227687324379 -0.20148252169703862 0.12722496370319172 0.064923913490467333 0.094030225551416574 0.052332278428042868 -0.28898429226662203 -0.074751173099094195 0.1061694350841885 -0.13493652120636285 -0.051730912148805985 -0.038444355595431093 -0.17531312574937166 -0.12850534054274509 -0.089293747235728582 -0.21041152249404066 0.023595943728638314 -0.088705464409617643 -0.17735656513049433;-0.1171217793283308 0.077450247107052131 -0.19060046416298052 0.01915808955701612 -0.011934825530966709 0.35775817909122465 0.10872477461838728 0.056976230084447535 0.060225985455463614 0.1613963832682215 -0.22962044797237718 0.14311671544190663 -0.23189089839443763 0.10810466294146265 0.14371049246253234 -0.20771417765545855 -0.16695130508893696 -0.29024274452355053 0.068643386167202419 -0.19970335715196949 -0.025423894537078481 0.27024049602174177 -0.047006850355097017 0.55749192710114048 0.56673484885478742 -0.12730017043768252 -0.14686531340914483 -0.14612979887245922 -0.20415592351914816 -0.14627886464847639 0.046965768071271709 -0.016771704366011907 -0.29599795609930163 -0.14310522489451338 -0.40761438346534318 -0.5466762363843396 0.036300989362859755 0.16730939500960462 0.25185430594003888 0.39415859580231577 -0.083708772729960065 -0.19227907195642271 -0.086278782361549358 -0.18771638389978224 0.013798203284816948 -0.18575090423073548 -0.062039875328469204 -0.074478362104080806 0.15118935730382843 0.082183315357928624 0.29915927587198138 0.44722529772914593 -0.16275839778646642 -0.071840870664495265 0.21228008712105811 0.061570972494731376 -0.21373116453718136 0.18479345233094649 0.19534215602799865 0.0031689212271628483 0.23851476122798745 0.020819493567615133 -0.033878826512036983 0.029753168767945707 0.070139482625340602 -0.14145742401464087 0.007460490532380808 -0.32340420174257367 0.11144609556595503 0.26132364347748965 -0.15551809523156027 -0.022156715640018781 -0.025353463612320229 0.11115241975300838 -0.02485175626324037 -0.17122116329391251 0.04443826705933112 0.32695109187564703 0.47357361587133223 -0.28222479983140608 -0.34140453716757796 0.33998006107869871 -0.0077718405869423831 -0.024614246277424947 0.31306415439817631 0.37057176610467218 0.11633887236951256 0.13596258915980133 0.15307971803984657 0.045230581156883845 0.086024090059399427 -0.18337374639204881 -0.046163739747703367 0.20215104811375512 -0.25897950300967543 -0.089003984122858093 -0.14328300561046464 0.02258889043333491 0.16151754769260562 0.10431446315402984 0.037226759630605732 0.041261138073313615 -0.073508207621569649 -0.071286941599975964 -0.060876168207524686 -0.16036769432291159 -0.24507742829412554 -0.16154890648421288 0.061677836467365584 -0.37617495616881941 0.02775402325520929 0.1389655781386753 0.0090604735161355504 -0.079019204269231064 0.14445480714765352 -0.25585723064286109 -0.071631852972312809 -0.15259150349779438 -0.2052097526025114 0.18276703561576002 0.069211710306061186 -0.1788137919458222 -0.1213581010415994 -0.13154072470572492 -0.1560207550014949 0.22767292678666268 0.059615675964444975 -0.29200184868703477 -0.23311728790542444 0.01346399778705573 0.24462969335704118 -0.084015554085762653 0.045786237272412961 0.082019218849710862 -0.063225987675785189;0.19133864275876308 0.12399067486469102 -0.2323077221580872 -0.64213455010296594 0.30381563918462867 -0.0054877528337882696 0.074847013473856597 0.0083896701400062515 0.23842666673243923 -0.34500384979104659 0.19399576900761623 0.039604625207207811 -0.15935079967659735 -0.0035394041628347785 -0.18023516072177986 -0.10518532234480728 0.22563435172698126 -0.11103107920662099 -0.0035346666837552968 -0.19785007548920192 0.10455206032057218 0.60922489619901765 0.177600192330124 -0.49503936691233275 -0.65158803415771027 -0.36003969511254164 -0.12091278051540093 0.096317154144732658 0.20924353026727388 -0.11816297793859548 0.298389075768763 -0.0097556187200985595 0.15345062337080745 -0.0038238976237677932 -0.21862133331265113 0.05977533034291669 0.30039878284175414 -0.12369021835309801 0.17888626582075196 0.1186384140602673 -0.16281108989998749 -0.021670171202645968 0.067408721966245699 0.10521741497988532 -0.21482824503546841 -0.090219816374493292 -0.024258259935123899 0.26502896007093052 -0.24908635790994652 -0.079086545365077379 0.12617808640253217 -0.079036106019931412 0.23584366842657978 -0.11795288481701177 0.10989495772352265 -0.00057629963915724076 0.13076210888221812 -0.24341370942028734 0.12338213069864228 0.032844298890690862 -0.20172718772389397 0.162116342961351 -0.034768329406777244 0.10456963171973686 0.1170534766606257 -0.10193866527503273 -0.70364828360966958 -0.26603287159616168 -0.026726712537587849 0.0013317321786653243 0.11110967647180253 -0.177728091851448 0.14541732529658216 0.003698982346552786 0.0033288196744873546 0.22212638850281247 -0.018086867305697623 0.36757410048770733 -0.094715396926439085 0.27755216670930338 0.045735230874172819 -0.26387387117037375 -0.18742989494205775 0.090446723078216495 0.048381093064245463 -0.021810672641211226 -0.47772258187705913 -0.21557698782140827 0.018459488102269307 -0.14380988477713305 -0.094585442576575418 -0.12818077831977734 0.63595138267010942 -0.23205183876548899 0.18111005035150454 0.063157624674624671 0.49612437228460671 -0.077794473802221389 0.15334269624705771 0.034797197238196881 -0.17789137020018472 -0.15516780937436461 -0.01953197113533656 0.10049086420302292 -0.065271135068312974 -0.031796257439278615 0.03375758722213329 0.030999459230764453 0.010544187235958289 0.084894933062324568 -0.025045342311674514 0.35222488863791163 -0.15577484791254723 -0.19563416584070462 -0.040038217358836045 -0.36326418800193427 -0.022175270749002052 -0.16339677651371973 -0.1780458795069258 -0.11032937243089447 -0.10241605238571597 -0.003694269322522134 -0.011112996009367423 0.1731683086609889 -0.10422499516370538 0.014601249986986153 0.054220968646893707 -0.0072467972432386811 -0.32987913928756463 -0.11259732027148271 0.11041356118318682 -0.19877037266139941 -0.027174183859226621 -0.090544509395683315 0.0059783293233026877;0.14701060332298102 -0.14345188797790279 0.051892338362015421 -0.15001976267180009 0.19196595401736685 -0.27356778700101891 -0.22570114768044344 -0.042244832016725818 -0.087777344374542279 0.12899492019551992 0.10963776162877226 -0.034851791245514852 0.19635568841676698 0.17633661944829412 -0.0075649495394129931 0.12662119126818311 -0.10646754021761913 -0.12796330849017445 -0.05298499068133361 0.074114655087349782 -0.13926985589403118 -0.066594713251794682 -0.027533971269955642 -0.14924524129204539 0.16287195460221671 0.34272205238074754 0.074690476817762697 0.12685044160024328 0.069574386079565689 0.13145568021746618 -0.22248555997668826 0.036616395988868483 -0.0068980944689513417 0.30682384583800393 -0.20037824365499116 -0.027033416679911361 0.54929243896419933 0.29600504314878268 -0.26705643471791707 -0.12162255112612798 -0.0034123536928452628 -0.20545351713453011 0.16629978180354174 -0.11989235729204036 0.069085563947740722 -0.26270836777701079 -0.20006574263123431 -0.12681349825523486 -0.027668976453108531 0.022679270293736606 -0.090288140394963495 0.2738374545649131 0.14330732673248225 -0.29081475271673662 -0.19790818022803211 -0.27692288571444895 -0.23526565940281924 -0.0026168189879170068 -0.14045756456914918 -0.17383191909710757 -0.020385365356422276 -0.17501937329357861 -0.091097565199764405 -0.16733278025018306 -0.57101669821384116 -0.35678448697462134 -0.087349442629200746 -0.073862691313922896 -0.65174582374208445 -0.32580874275205379 -0.10098114820954024 -0.1071894231565107 -0.09526955781872154 0.12237843542118833 0.14372441634203273 -0.18916039399431167 0.025566200396988325 0.051912517082210077 -0.08351847448041412 -0.017300386253247851 -0.21437401526941743 -0.1731083723131166 -0.047579084289736895 0.10961639674259975 0.20839737549895393 0.027671907652625352 0.10432397193971482 -0.21550767449506331 -0.25852683659089387 0.015346621360320528 0.04851467526165127 -0.034380501203956346 -0.17426625240066745 0.17075338726134578 0.30357341277381666 -0.12650219272195509 0.054644257006909863 0.22686844994779193 0.27336243841074759 0.40422682884884747 0.42119075874452855 -0.079594602044512824 -0.11277452477044358 -0.081819342268796544 0.19797755325931646 -0.14798566943870017 -0.15147018233911877 -0.080032680946225343 0.0020348266220573652 -0.13170132972053247 0.047844331434408006 0.017104538641525988 0.012072481621879395 0.11968122772668226 0.23342035640857936 0.17596569170399931 0.090868170919429864 0.12444663482293004 -0.14534566941027668 -0.05063577871660236 -0.14896922945932375 0.041743899784389776 0.022991082733190928 -0.11838850585696058 -0.23359220543961701 0.14583070405960366 0.030589813882429234 -0.12088890204861151 -0.22834699235853848 0.1742022999593488 -0.061529895796495863 -0.099565232773957082 0.047550973498998499 -0.0070064059661931379 -0.20040170385679376;0.18351060435377273 0.2020289027204849 -0.13205120806060583 0.1411007752006801 -0.088791810853420652 -0.20856643093182825 -0.054523447403889036 -0.0042166044068286928 -0.18028432574594785 -0.028588936951420847 0.13351729497873169 0.16385178792582489 -0.0048302955227139946 -0.12507338631636664 0.22572181260614874 0.058542337702242792 0.13175625516646899 0.01891963828529215 -0.044261975530034012 -0.23716259460071987 -0.50829130703096936 -0.52344732924367876 -0.71427316805869834 -0.12680887414513534 -0.32568155279220246 -0.24047160157499581 -0.025433428674928062 0.13493740473956617 0.14861070471550347 0.23866101836711473 0.046171482977414025 0.20581301198699958 -0.019189993795878088 -0.20876039597634041 -0.44070215511237942 -0.37706186773483297 -0.34144809330520121 -0.46658298313132457 -0.31916217057420176 -0.1154259350950522 -0.025084127444978319 0.010780208458999565 0.15596529224185873 -0.047709788986815667 0.14453167356642491 0.2024646125568951 -0.055324160947174121 -0.33151052939556191 0.00031950106680267356 0.17413937436405205 -0.14811352013831822 -0.42275106216017028 0.10922870549162313 -0.18123951410461972 -0.074522351337266646 0.095975487909681384 -0.055893810779984066 0.023166796250669346 -0.1077844543580731 0.030583678371718864 0.12062507534444049 0.17588823988240665 -0.3234505889625709 0.10973820347177965 0.12918856357532293 0.26167680414271122 -0.17092337842174829 0.26504071195576417 0.42339629566771941 0.20970286275397546 0.00080167132992286204 -0.27887124892704962 0.15425192639650881 0.1547116866295947 0.20626285689165536 -0.054360362540902422 -0.062793053224060064 -0.082845241068480624 0.48135159983286563 0.26108772597363 0.29917662118955662 0.21363791739510318 0.12762559518249675 -0.040164992836583348 0.00063469701996266914 0.12409272834942821 -0.063068662109198356 -0.059471093462585223 0.15301690808603149 -0.081928122101752196 0.28523812434261281 0.0062744710568921665 -0.3828625407058649 -0.19140961789988276 0.03772938563821096 0.070820554587701326 -0.093996624155084516 0.00057581601290352064 0.08101533320234923 0.11790610998745646 0.16817959812572172 0.1819787607522442 -0.034464620329756217 0.21082489584560765 -0.016204544432056028 0.066474066683308075 0.039684445385111337 -0.076708449573640231 0.074845686447947354 -0.092162691394120491 -0.10961354485309439 -0.075465036569002095 -0.07195045743134322 0.058729321386660316 0.013196052512455921 0.080595300669482575 0.18808077554561137 0.018530661307360325 0.19541793934113397 0.11936240689506711 -0.078517094222709069 -0.13331099447030004 0.12095191902204355 0.090882236532767918 0.084110259172175489 0.16011593660872533 0.19235513455331599 0.014874122742619783 0.14422771546977423 0.093609804618727879 0.17145552937182781 -0.010571935522064597 0.15801550801318415 0.21106251897944339 -0.13841061667347934;0.10620021592074991 0.13529904371307208 -0.0097121501988382559 0.013156258242576938 0.00042226454205045541 -0.16601430802110131 0.034764745192835421 -0.011240645334255249 -0.090951310778227115 0.14970479523872543 0.18014021184466278 -0.19086856227668131 -0.15496128355202365 -0.19706017935094974 -0.10986813508409507 -0.095504776495577037 -0.14393448449730967 0.036884463993240045 0.12845274059425779 0.018611581617966503 0.039325119022220412 -0.22350008901620411 0.13896993923489384 -0.0056610358309703065 0.14791657657821816 0.082657990501874862 0.21007418214650633 0.20797433732629017 0.02622779983168962 0.065679841226961383 0.17979755007170659 0.14592475141525876 0.11747835087308663 0.049585982241900604 0.14771799773729957 0.1456155626015295 0.037822594124223965 -0.098395618418134323 0.21351251793014064 -0.082999728827595903 0.13010129546676971 0.2178467416382405 -0.021487262908065095 -0.18172330980614854 0.16488479368460149 0.17434343260983765 0.095485376435308689 0.22399944017210577 0.12790763368001781 -0.072035030136890846 0.022267587149986758 0.23968953116981737 0.16170091155274835 -0.17806648378729534 0.040656127850980377 0.19541906722378297 0.040401514040421457 -0.071342070231095511 -0.011899866964796666 -0.086479449412531148 0.041095685594484357 -0.13915892904012553 0.23028229657386404 -0.18790174311214666 0.16395611040065949 -0.083413960788626923 -0.11262423682823805 -0.065082221338716328 -0.12944998680822359 0.13139725865152529 -0.13022088061543391 -0.084864074219709165 -0.048681034734260921 0.096249649600538001 0.17119015219126055 0.058590845675238236 0.06179281256620895 -0.048579597694030613 0.091695769263296645 0.01695673431015397 0.11603505211483367 0.0096449513388941737 0.15715887173282694 0.046718414289433595 0.0086072544109737879 -0.090382455657558314 0.14237522374009925 0.089876877564378746 -0.069798166618463234 -0.17923030506837576 0.050549602474655432 -0.13242610190221304 0.01896888447091952 0.26292848510933842 -0.10985885535114397 0.2262568481086418 0.20656517506828104 -0.00088359297119736644 -0.12087786971285157 0.10928057666918631 -0.081980677068858879 0.11123023249389238 0.17402859983462327 0.013336486652423105 0.18515802363861261 0.17716757036785818 0.0086358324434961092 -0.083636606354944007 0.080377685274664545 -0.030515684084982283 -0.14916733940150179 -0.096945279292652856 -0.10860847926736554 -0.16058350777692212 -0.067446413523310003 -0.0058932178165399642 0.1842898072746354 0.049705775420640898 0.19632896418751511 0.017433308476721716 0.0088271194107381393 -0.14412385422397331 -0.050752623474862514 -0.075339383077195773 0.10929086103506183 -0.18192058085023977 -0.061535355455040575 0.17898713650473588 -0.042389402965773273 0.1897622627516149 0.018354804592432133 0.0074477917451814726 0.098594025089473569 0.18322373247415019 -0.10354764589132194];

% Layer 2
b2 = [0.40524642779364611;-0.083120506864922478;-0.064613156207189909;0.78888011272040282;0.18658862848174276;0.89982959341968582;-0.023688071201193029;-0.11778486164082592;-0.22944128612179718;-0.23510591132497732];
LW2_1 = [0.28305933502348679 -0.80125557345303455 0.58442165921481715 0.15602159479177688 -0.84453709466256377 0.85858455522521193 -0.68511480154796101 -0.12445747950635426 -0.30738657523330754 -1.2085672086516768 0.73493392076106911 1.0099791966141047 -0.34137369660522915 -0.053379396736593705 -2.1434439727188783 -0.72532190911524175 -1.4280899143044181 -0.38548191266121917 0.63319046015804747 -0.11643256999545758 -0.11916978477465143 1.3281940626454287 -0.5522641636414678 -0.75188414934178138 1.4952614272542757 -0.063476320268541969 1.2686552162894043 -1.1356531327921462 -1.1908109080902058 0.024078363405522937;-0.44268313289786437 -0.055352460628267514 -0.78119011120795767 0.52376818535259484 1.340187836112201 -0.40929091071900303 1.834923864969344 -0.46817511016626451 0.83992146871669415 1.4229426972667492 0.21862936844375705 0.1751384832299536 -0.58339958095837374 0.80105768237748176 -1.0163270212589688 -0.042263907221684889 -1.2620024076325427 0.54873691217794685 -1.5672765671600615 0.59465349014693725 -0.52815409606155561 -0.56145674395173384 -0.53892844471974499 -0.66230027234955424 -0.13876593041324767 -0.4054289214050939 -0.31911782185263748 -1.1382184461036897 1.0840156498483819 -0.63206467193622995;1.5487053269862112 1.0416464649269865 0.67804061878142141 0.18006958271434645 -0.52218860679012669 0.72655158163300859 -0.5489529079214559 0.74251830503620164 -0.88347839509736059 -0.43108768386227614 -1.7972487132470241 0.73420744262644511 -0.26027818110546724 -0.9231192649666472 0.63223400052428336 0.43380886754411707 -1.4534458605991762 -0.9565663463959525 1.2580275641726435 0.94342167542044419 0.21905690810410597 -0.11974468799245494 1.570212980475884 0.060045546614677391 -1.1408295747745862 -0.8701462372959935 -0.51472547226697185 -0.59210449702334411 0.20811444017865649 -0.1361972375087096;-1.873125539934358 -1.3418683249001284 1.5732493047929834 -1.1669438278436906 -1.0248574103513133 -0.45811499090627111 -0.32201445120227823 -0.14149460840231606 -0.091949088512111754 1.3702247588911347 -1.2405454509042553 -0.043680695354322237 1.2685470447822769 0.064262845368566232 0.72907364918667728 0.90661979049922659 -0.50859556882212353 -0.006287948358138843 -1.2078564784098311 -0.45130197951765472 0.28655254521793089 -0.65416511723408943 -0.18420640335081098 0.072449498931278014 -0.25454988199344519 -0.14184790858151333 -0.18464403969270282 0.29327514345512612 0.69706206173237195 1.1115920437754887;0.76805734177406138 -0.096098082470378682 -0.082397006536819542 -2.2609100815124075 0.19724191556480358 -0.63644888114881171 -0.25530965887411439 0.6466274561719354 0.66007491344156322 1.2413236780901347 0.6003565220942314 -0.41661818020907948 -1.082482730171531 0.58248672347733177 -1.0879371521136669 -1.0061750173770432 1.3475036780762473 0.70719182004760739 -0.79591139092604213 0.024954189484564772 -0.77913098108067624 -0.86768110952790189 1.6000410974695005 -0.84914826757637096 1.2823523383050257 1.3045086311507188 0.87898422985978564 -0.40111024984113197 0.4354064217246344 -0.93002600313968919;2.0636980485123466 -0.90587355204670039 0.57994097232119379 0.81399818566382387 -0.26887067128829856 0.9000047387114738 -0.37121177202285693 0.51560225089101763 -0.87300034663247983 1.3485320180521383 0.89203700454699963 0.35852437335102594 0.4808689525332146 -0.47107967783936927 1.3687840703874825 -0.69129523243608804 -1.131390775991586 0.63442614400173247 -1.938840409226976 -0.67153450492866884 -0.4399048979765981 0.013794282346093999 0.0017153170382901537 -0.7524481801635452 -2.0906214083020447 -0.98069325157630804 0.52443537949586816 -0.051490483510238862 -1.9970119367576262 -0.68051847826170209;-0.19547922455940975 0.87774499352879953 -1.723885713489296 0.41648756775243123 1.271776911930558 -1.0042282248185128 -0.24467120031090248 0.92430748233301174 0.18578877667936247 -0.76387864182111809 1.4736400174279016 0.35568850412496111 1.2624067230369747 0.97811252416582972 1.1670741071920607 -1.276204086675818 -0.75572605075722921 0.30954563454478712 0.22038259423709614 0.14877239321634056 0.57469015387931044 0.60377622714505774 1.0799283410170595 0.29122063853810221 0.12170511792208438 1.2248874575284778 -1.2228026340476816 0.25815748887127599 -1.5087251606657508 0.55087662931065307;-0.37302626546432827 0.96064277587738067 -1.0554415543928906 1.0418939354713819 0.26371795839651019 0.65126894437112681 -0.75135618556656114 -0.22639332205953083 0.1863788823678465 0.82787266198452869 1.5878120584011681 -0.14778359130862295 0.2369377870019472 -1.1504042256443126 0.63250873485311465 1.5200389808460772 0.30344606102362914 -0.27060366091739357 0.68715593918407947 0.47641857508924107 0.012783205512212206 -0.6883353175053708 0.8066759830433432 1.6158841660436689 0.12697619474896965 -0.30947796126331073 1.4495826040064266 -0.97491738724784816 -0.25793982658970105 -0.41292953648378594;1.40651284782527 -1.0945663683086937 0.13117835459116994 -1.7296283962064358 0.33031720811827719 -0.11356204292226833 0.029513009628686377 -0.77634713207826689 -0.70448066874679494 -0.98457322020843852 0.79599479541492391 0.024397274546893749 -0.62522977218999953 -0.47795708012781923 0.3583168836206585 1.4808216829893965 1.2205302899169457 0.068260962345383619 1.0456371310833572 0.31424011069980357 -0.51441363126057493 -1.3112113346734806 -1.0945317264443002 -0.33617797205840799 0.18672816859679037 -1.1906951066478253 -1.4184350317837648 1.0152652331705043 -1.5058456537806817 0.93158212226217796;0.26407049688147277 -0.99548029887802714 -1.7943938647095914 1.4324490002579309 1.1153202909539877 -0.5804936248894681 0.43594744462973317 0.0062848380739601341 0.93869451948156934 -1.3403385838811059 -2.4083526931777715 -0.31303245315709372 1.4581778590506351 -0.6992019909740288 0.49556360155840112 0.51217769089452003 -1.5740909316028402 -0.28606357694812939 -0.76657860119483034 -0.66623557319390236 -0.59643505737692493 -0.073735780545260698 -0.31282326822945017 0.22102468071159267 0.84906184570086574 -1.2280863502227117 0.90364399617458879 0.86558266266219674 -0.44879552608526685 -0.39813848108184619];

% ===== SIMULATION ========

% Format Input Arguments
isCellX = iscell(X);
if ~isCellX
    X = {X};
end

% Dimensions
TS = size(X,2); % timesteps
if ~isempty(X)
    Q = size(X{1},2); % samples/series
else
    Q = 0;
end

% Allocate Outputs
Y = cell(1,TS);

% Time loop
for ts=1:TS
    
    % Input 1
    Xp1 = mapminmax_apply(X{1,ts},x1_step1);
    
    % Layer 1
    a1 = tansig_apply(repmat(b1,1,Q) + IW1_1*Xp1);
    
    % Layer 2
    a2 = softmax_apply(repmat(b2,1,Q) + LW2_1*a1);
    
    % Output 1
    Y{1,ts} = a2;
end

% Final Delay States
Xf = cell(1,0);
Af = cell(2,0);

% Format Output Arguments
if ~isCellX
    Y = cell2mat(Y);
end
end

% ===== MODULE FUNCTIONS ========

% Map Minimum and Maximum Input Processing Function
function y = mapminmax_apply(x,settings)
y = bsxfun(@minus,x,settings.xoffset);
y = bsxfun(@times,y,settings.gain);
y = bsxfun(@plus,y,settings.ymin);
end

% Competitive Soft Transfer Function
function a = softmax_apply(n,~)
if isa(n,'gpuArray')
    a = iSoftmaxApplyGPU(n);
else
    a = iSoftmaxApplyCPU(n);
end
end
function a = iSoftmaxApplyCPU(n)
nmax = max(n,[],1);
n = bsxfun(@minus,n,nmax);
numerator = exp(n);
denominator = sum(numerator,1);
denominator(denominator == 0) = 1;
a = bsxfun(@rdivide,numerator,denominator);
end
function a = iSoftmaxApplyGPU(n)
nmax = max(n,[],1);
numerator = arrayfun(@iSoftmaxApplyGPUHelper1,n,nmax);
denominator = sum(numerator,1);
a = arrayfun(@iSoftmaxApplyGPUHelper2,numerator,denominator);
end
function numerator = iSoftmaxApplyGPUHelper1(n,nmax)
numerator = exp(n - nmax);
end
function a = iSoftmaxApplyGPUHelper2(numerator,denominator)
if (denominator == 0)
    a = numerator;
else
    a = numerator ./ denominator;
end
end

% Sigmoid Symmetric Transfer Function
function a = tansig_apply(n,~)
a = 2 ./ (1 + exp(-2*n)) - 1;
end
