function [Y,Xf,Af] = Limited_DataBase_NN_35Neurons(X,~,~)
%MYNEURALNETWORKFUNCTION neural network simulation function.
%
% Generated by Neural Network Toolbox function genFunction, 03-Jan-2018 21:03:26.
%
% [Y] = myNeuralNetworkFunction(X,~,~) takes these arguments:
%
%   X = 1xTS cell, 1 inputs over TS timesteps
%   Each X{1,ts} = 135xQ matrix, input #1 at timestep ts.
%
% and returns:
%   Y = 1xTS cell of 1 outputs over TS timesteps.
%   Each Y{1,ts} = 10xQ matrix, output #1 at timestep ts.
%
% where Q is number of samples (or series) and TS is the number of timesteps.

%#ok<*RPMT0>

% ===== NEURAL NETWORK CONSTANTS =====

% Input 1
x1_step1.xoffset = [0;0;0;0;0;0;0;0;0;0;0;0;0;0;0;0;0;0;0;0;0;0;0;0;0;0;0;0;0;0;0;0;0;0;0;0;0;0;0;0;0;0;0;0;0;0;0;0;0;0;0;0;0;0;0;0;0;0;0;0;0;0;0;0;0;0;0;0;0;0;0;0;0;0;0;0;0;0;0;0;0;0;0;0;0;0;0;0;0;0;0;0;0;0;0;0;0;0;0;0;0;0;0;0;0;0;0;0;0;0;0;0;0;0;0;0;0;0;0;0;0;0;0;0;0;0;0;0;0;0;0;0;0;0;0];
x1_step1.gain = [2.11618257261411;2.13389121338912;2.13389121338912;2.13389121338912;2.13389121338912;2.11618257261411;2.10743801652893;2.11618257261411;2.05645161290323;2.09016393442623;2.21739130434783;2.30769230769231;2.14285714285714;2.04819277108434;2.08163265306122;2.04;2.18884120171674;2.17021276595745;2.09876543209877;2.04819277108434;2.07317073170732;2.06477732793522;2.06477732793522;2.05645161290323;2.07317073170732;2.11618257261411;2.16101694915254;2.04;2.16101694915254;2.13389121338912;2.09876543209877;2.09016393442623;2.10743801652893;2.10743801652893;2.14285714285714;2.10743801652893;2.06477732793522;2.09876543209877;2.05645161290323;2.10743801652893;2.14285714285714;2.14285714285714;2.18884120171674;2.11618257261411;2.05645161290323;2.10743801652893;2.07317073170732;2.11618257261411;2.04819277108434;2.09876543209877;2.11618257261411;2.13389121338912;2.08163265306122;2.14285714285714;2.09876543209877;2.09876543209877;2.125;2.17021276595745;2.08163265306122;2.09876543209877;2.09016393442623;2.13389121338912;2.07317073170732;2.07317073170732;2.04819277108434;2.09876543209877;2.06477732793522;2.09016393442623;2.08163265306122;2.06477732793522;2.07317073170732;2.10743801652893;2.07317073170732;2.09876543209877;2.16101694915254;2.10743801652893;2.17948717948718;2.09876543209877;2.07317073170732;2.05645161290323;2.06477732793522;2.03187250996016;2.09016393442623;2.09876543209877;2.06477732793522;2.09876543209877;2.125;2.06477732793522;2.14285714285714;2.10743801652893;2.14285714285714;2.03187250996016;2.14285714285714;2.13389121338912;2.11618257261411;2.05645161290323;2.09876543209877;2.10743801652893;2.06477732793522;2.06477732793522;2.10743801652893;2.18884120171674;2.06477732793522;2.14285714285714;2.08163265306122;2.11618257261411;2.04;2.13389121338912;2.27678571428571;2.15189873417722;2.13389121338912;2.06477732793522;2.02380952380952;2.09876543209877;2.09016393442623;2.2972972972973;2.23684210526316;2.04;2.125;2.09876543209877;2.09876543209877;2.23684210526316;2.19827586206897;2.09876543209877;2.04819277108434;2.07317073170732;2.06477732793522;2.09016393442623;2.06477732793522;2.10743801652893;2.11618257261411;2.16101694915254;2.11618257261411;2.13389121338912;2.08163265306122];
x1_step1.ymin = -1;

% Layer 1
b1 = [-1.4458389973430517;-1.2827766759623869;1.17833189485932;-1.0380117468479577;1.1250633253597591;0.89146544161580454;-0.90158778150452845;0.83545112833560298;-0.70591703704902464;-0.73985189952524444;0.63045933458946335;-0.45976486361460622;0.32631192872390002;0.2223599459214235;0.19638179535369205;0.27617661197178422;-0.093517120847953245;-0.017388357597730733;0.031991202412538305;-0.17035635181964187;0.26546937379532215;0.40463185666253965;0.40052198925266402;0.57735054135470476;-0.58525250944532115;0.6821505408851174;-0.86522900576798256;-0.67340276987858627;-0.98802722677043098;-0.93090242368044596;-1.025945192823926;1.2455194568386063;-1.1025644737479823;1.2805349424477057;1.2943021136582908];
IW1_1 = [0.1421604124628755 -0.042217128913006885 0.027107300413672344 0.013694168836429431 -0.18415269094064651 -0.11502320772730516 -0.019019165658256735 -0.20433335441666978 -0.032125009329784557 -0.02584468585254884 -0.12359003424609624 -0.085359569380601449 -0.11812179531343459 0.2154897393499938 -0.034606986283246176 0.065683313026578691 -0.16057018252258853 -0.11044184515480729 0.045741686381940011 0.21051530972817523 -0.0007328813179086895 -0.16892426561334845 0.20098949823149689 0.049003415785431395 -0.16874635662569901 0.11555886593957634 0.020232977913429435 -0.073153558316696621 -0.093779185964435893 -0.12680612221377086 0.11113043128251868 -0.21336560531447704 -0.11488444094227281 -0.19524982543569808 -0.0430688954254543 -0.16638063614266019 0.040507300856980594 0.077460521514385192 -0.061155138860795204 -0.21368274757099701 -0.14576193261812675 -0.0020903280840860248 -0.20313697000457531 0.062427384562080211 -0.18541171796486758 -0.20670750862996287 0.20512749103323069 0.060495663706168205 0.089916886416182881 -0.14429656921802525 0.00016688420110856883 -0.18692726623116929 -0.15221427459735154 0.13016198217774735 0.036217413389419063 -0.0052822051418616343 -0.076432543737183833 -0.02443105736746333 -0.16110795035990658 -0.1798036389860202 0.045074663666236997 0.070879713413608311 -0.104416043779872 -0.1595335651965579 -0.044032953923667302 -0.13386742690426112 -0.14917980796452954 0.14319019003273961 -0.0095058745124039501 -0.19354283728606345 -0.031190492839595688 -0.096832672866835806 0.1003575945951221 -0.059962942218565636 0.052707454860054008 0.07442334893247475 0.021075666410306799 0.044498581994540702 -0.1272748954268566 -0.071055937875405081 0.072314769140919791 -0.034576347951529272 -0.18921782008790999 -0.17254643608898043 -0.048028696491703098 0.14826084457125488 0.15122202986622446 0.04265768819529895 -0.064203780496104257 -0.061692475041080365 0.089128034200148573 -0.087174868245556231 -0.14076407094020427 0.046564624122961001 0.061084145858556795 0.15335803315915847 0.14929447589824252 -0.22274746301844808 0.095834748802250569 0.16905788426679891 -0.1398625547382813 0.089310127313433949 0.16191925932173476 0.0063775736542610465 0.08603725557365445 -0.019647214907476784 -0.13131333473841961 -0.20117800780472536 -0.11140342504204157 0.10767707527690198 0.0016293874509807297 0.12348555633055197 -0.14147849413526847 0.05500433580888886 -0.13597112955578902 0.0051316402485997161 -0.12972393545860891 -0.057522652690360082 -0.21546120922051951 0.017542505966538322 0.0049085234757234473 -0.12869114545503535 -0.14571928620152558 -0.20949673396812585 -0.046385063492643465 0.18134317605528782 -0.02594693330344167 -0.14572925731732742 0.15837713972852877 -0.10709570439026647 0.14287623115032752 -0.1613072239836571 -0.16053592520419771 0.18154295752352356 0.16391031266494527;0.0080754824417772243 0.19834249957172986 0.078465206544390043 -0.015707894688779551 -0.02227799114305521 -0.071175517909756514 -0.16759597205344326 0.22171452331460512 0.029692364091768949 0.11648351523314958 -0.15762517715480642 -0.25063762411287482 -0.0052233720137437687 -0.004887768600866693 -0.2014689323358253 -0.092656075738463448 -0.23859168556086133 -0.010108051683358784 -0.21682532429088072 0.040896914708201636 0.17654971018189164 0.010816399685267411 0.12717190746607632 0.17368558619271357 0.40463157852610115 0.066524159948680259 -0.10371946972683282 0.10528433476948704 -0.05514844635245407 0.047659294908107164 -0.099642998572847613 0.011902954177495581 -0.058836886769031649 0.027056263040536817 0.11843978069807501 0.37270884943489901 0.071963366733454118 0.14261072750367471 0.22900636147887604 0.27638015230666796 0.1906628025014199 -0.15297022991818804 -0.055792249314146676 0.1627560928172595 0.13863888179453068 0.090169196884319194 0.15100414318954275 0.17617502078008024 -0.2918074966241419 -0.088992421681698575 0.18541827780732092 0.20993102971102823 -0.10844017706726394 0.13923355665276607 0.32213566732694188 -0.014572271492765569 -0.029057606289203342 0.014358461762229102 -0.097557025277762485 -0.038883481082549805 -0.2530651459123735 0.13844205334542953 0.020583876913863437 -0.081287416059562675 0.016971594297366582 0.097736445541561023 0.11336776326955254 -0.084165862664325047 0.12774016721051623 -0.18638934816627709 0.012992426696864371 0.053271883477784054 0.021288827646962952 -0.067627192196960173 -0.1967145248109877 -0.096424713186417002 -0.035891006576574291 0.31316103201010825 0.10593242917400755 -0.0041896140225555316 -0.095199257622048186 -0.065664796473685158 0.22217050347522568 0.16851030746040427 0.073770076938709864 0.026556982884593534 0.10748583547065867 -0.21941825995924841 0.051115352527554656 -0.16202143701092492 -0.010939925470736279 0.22428843056429035 0.2201849305602992 0.0066801275147972457 -0.17197498196229624 -0.24975964362528202 -0.35565028544773886 -0.28593073268763824 0.051775540623342949 0.24536708052564923 0.15349765508541563 -0.025985352509618365 0.098332365010526335 0.030883061998609369 -0.25063191632449111 -0.2130748582367353 0.12447321956151312 0.036528725623020619 -0.077892376738004337 -0.056358984432357311 -0.067842546347460744 0.079976169890649346 -0.20899134013469084 0.031546482104018933 -0.10615224630256301 0.10644831742522122 -0.078147569905778827 0.13044671393276994 -0.039782085382466817 -0.025251750383046456 -0.15868428838899956 0.0082492323214618021 -0.20595322033590163 0.064405553399508625 0.15976435307888354 0.044449424010173051 -0.35823962519346392 -0.097836568668055415 0.067841821767859661 -0.13851599212416899 0.17727066655723311 -0.14801895028469261 0.13907706754502647 -0.24724934620422001 0.18044563369666036;-0.17749338553325228 0.13157186019888761 -0.38429832396292984 0.15004791967275771 -0.1179398325767444 0.17074859138176851 0.11345655238705434 0.0048161052578746429 0.37278476561489676 -0.11510439809332453 -0.22974034823025402 0.12507963956106444 0.17597206325327097 -0.064560016356140726 -0.041058593699513209 0.15929792287919115 -0.14075708426972869 -0.28159278565006268 0.13887675702630023 -0.23073690497472868 -0.34340604563492994 0.4725769121648149 -0.15326026208246588 0.51213424652019812 0.24899369477017649 0.14071297625256476 -0.3782293660041714 -0.13303578267786736 0.045045107949415984 -0.082434723115367703 0.22007931171939576 0.0042093391727194727 -0.11614976116532102 -0.070406150202796211 -0.9049997004494259 -0.58864016434868838 0.055817786096828886 -0.0013615841502786202 -0.018137797750416455 0.21597595367595349 0.20068132921342227 0.21917170664948504 0.061437968982153951 0.038533846560533103 -0.18119966707156468 0.22525113697115839 -0.1525926821940623 -0.20808049171831383 0.0062801961494076243 -0.076726811732275205 -0.038026578981311711 -0.19513701386510501 0.030388463906567399 -0.174842945631945 0.17779045961966083 0.17642435907974885 -0.043570197700476695 -0.11638284246241648 0.18426922269220528 0.092548527964630603 0.28357453401461286 -0.15956809494255542 -0.26789664662709051 0.30782575477551077 -0.22823315215825543 -0.30281000545182318 -0.51255494776927601 -0.1705578379665888 -0.094019670180707185 0.038389406000122382 -0.039050835692821341 -0.22715253500579463 -0.00098314644577695729 0.14849675001947854 0.14391686022365263 0.047134533426931566 -0.1441484982202598 -0.32950160893380281 0.45090112197234555 0.035727192870097645 -0.051375332568622922 0.22032360491498998 -0.16968770828606849 0.035456034921148905 -0.071439795312084747 -0.0062339558864881444 0.081977904540887062 0.066303008727958176 -0.052047016194653233 0.13237187001442435 0.42339320179854251 0.016454680410059652 -0.27990539976051043 0.1739501189768492 0.16088242866269617 0.2510558738446752 0.084154421346384789 0.12705104749295065 -0.014765238242890992 0.038207228061548977 -0.11502565063051105 0.20335088398229451 -0.092060785461522271 0.075185992751448869 -0.052472996442036846 0.094223391593391173 -0.12459450425178355 0.15409972520042178 0.087660253013081196 -0.10049019384034416 0.27572585548122314 0.37225892749665129 -0.1302728731081336 0.021987199731617075 0.16356394083605943 -0.14217887823380057 -0.0050240234213001118 -0.070186557796401802 -0.084269850384956033 -0.11712552495935798 0.24726516843952351 -0.20339405714511508 0.040512388091881818 -0.087921691711557462 0.028951314911011466 0.14504449773870789 -0.032396377187624593 -0.11325462122495382 -0.072538504362337025 -0.15179646342067712 0.14330689073565955 0.18147630803625847 -0.020963271382335631 0.12260227167795609 0.14966908225051842;0.061350448253826129 -0.13789300429804499 0.051609024273585588 0.01717684930333227 -0.0052920413785520395 0.16369054998382171 0.17146998149613235 -0.18051374557002003 0.24674856756781369 -0.11248783066300568 0.20562311534485658 0.30556680760860966 -0.18354592114300267 -0.16953178576020406 0.15610575308582328 0.043446765211335815 0.10942383001664845 -0.067043247333516617 0.11777652004531126 -0.32605250392626395 -0.16191907399885588 -0.20308161121400503 -0.25329884143689585 0.13053357820913356 0.0023398464034664499 -0.35372976230328207 -0.057035576690136494 -0.14666942887157358 0.23292657518985954 0.063020835939727182 0.087722346594048442 0.046513260626732784 0.13934053328360677 -0.13644626276966804 -0.35131047259719539 -0.024870691994549672 -0.014262347743511084 -0.26593248399821273 0.31401591088735931 0.48642988140032367 0.07284935707919947 0.075617852222446783 0.066847526669956386 0.038493495706460677 -0.043475237882464907 -0.095028959275189992 -0.12050110456789757 -0.03371991393731337 0.031403790506149408 -0.11290845904248246 -0.033832059490280425 -0.03911111642556462 -0.046078867648832018 0.16211261463143981 0.3818176290269733 0.1306672010142747 -0.17585260214825549 0.18485488577767564 -0.092554184055146288 -0.18838700588598553 -0.20438394342125427 -0.14014430282523369 -0.019754029197279553 0.40220236578143376 0.27203821386251703 0.31140232982635946 -0.058102170082295658 -0.20629763017194483 0.045549031451642741 0.12411170615952061 -0.0056177354848766332 -0.015875444256161126 -0.15194326939903505 0.096374223866390551 0.030991213838759392 0.10324418800135568 0.018296920572006367 0.16368099235778102 0.36261049294617997 0.508410505179407 0.11499622299180842 0.16675185862614658 -0.071333012654376318 -0.095141325939284344 0.08784733385637998 -0.081538506677010694 -0.21788426849760623 0.02670583324527831 0.083457891432596437 0.052969649008365913 0.04450427759515968 0.082886605965947102 -0.00040314625075622704 0.042990983881841957 0.34168284429364071 -0.073956968413205412 0.025587086125074623 -0.17754505205522281 -0.28877464450919538 -0.0069839390743588834 0.045450778935266639 -0.027344037555834994 0.11726288242364315 -0.083721790498950052 0.10702382781060928 -0.10647915747804969 0.16362021712358638 0.19144987172947259 0.095582147646418758 -0.016223626299676532 -0.18681513085107004 -0.1046468608707618 0.036158793240561413 -0.18485183606658401 0.21143108632187377 -0.090241660031579962 0.049500258349540055 0.045732339733086172 -0.10085432839341225 -0.00034408547331512651 -0.14141068503599569 0.19211419994137646 0.056451559091066479 0.10581158879248367 0.073213538561244698 0.059889395800029437 0.10467712986534042 -0.095586462821305604 0.11882209588702299 0.144395036772171 0.12691657729666453 0.22554370211153091 -0.15909126341004765 0.12964763065968088 0.01659524571044985;-0.08558358820038954 0.0049994914001503027 0.12213346523116467 0.092506027343933386 -0.091088301294280402 0.073503839555756859 0.20127028091377555 0.060181666358605029 -0.15177346051395449 -0.11424800738714733 -0.10056009940208287 0.10827620643927534 -0.1309177746639886 0.11261736082818373 -0.052931831899248043 -0.10240679956064119 0.03578199814878838 -0.034601451936374018 0.15259382656511375 0.057968630127882767 0.24372138310559799 -0.11835204653936454 0.16778744597360087 -0.055205990094994321 0.12832979163069444 -0.064049981521360391 -0.11622330189245848 0.10449924476748025 -0.016662696415937584 0.067061529483520343 -0.14396127406926068 0.0083819413432527703 -0.095787252661612837 0.17780757621719762 0.2644226220449522 -0.14220224091947392 0.0078662472046699267 -0.031942574455666013 0.19275881414767626 0.16651644748846886 -0.10485044297842962 -0.15793979613896611 0.19918757442519444 -0.0087667802605723901 -0.027848907906695187 0.11184895519275179 0.11557932794982903 -0.069151041924161785 -0.059858129596326255 -0.022832620281501084 0.048230410891408268 0.21741455362903139 -0.029520533901516609 0.1650603759623179 -0.036122411870510629 -0.013694235286807275 0.083614956469832011 -0.1384697846287414 -0.046373630652344566 0.20096090636000086 0.007666314976066191 -0.019743918891063594 0.19015751172051493 -0.16549078835984443 -0.047366048084609313 0.13264932401571999 -0.14659206427166949 0.20666914647027457 0.22287734863932648 -0.10601007453137933 -0.055598202149663864 -0.047440997299575266 -0.14650736811592543 0.12913147624904048 0.042564550848450865 -0.17380637467302237 0.035138058909412996 0.14317115807715194 0.17105856250078877 0.13832905864576731 -0.22290132410625263 -0.15981331122784573 0.19842738184031916 0.017259752151697762 -0.032834949001673733 0.026281695955421368 -0.17015436278556795 0.029971512974945231 -0.18779795508969768 -0.18341582410683038 -0.00031397853692821784 -0.03239854693162416 -0.17545750462263865 0.11472680500022911 0.058062027092132824 -0.14738100967730641 0.019172292003164587 -0.13976259768930707 0.19807995806774026 0.16500839251410251 0.13925862523833252 0.13600386508207046 -0.06295246854895413 -0.039296820153268998 -0.0069926354816620762 -0.043371726360964445 0.065743767775957654 0.040986848940574298 0.12480530820622486 0.019132057358716866 0.039131261630539614 0.19277946387695039 0.12311920510785851 -0.11269365562136083 0.20657499206140667 0.17896002055409893 -0.063097276254142534 0.15119101194847065 0.18898829855373234 0.11556257668824596 -0.14619022756520667 0.095127709263281651 -0.19327473587720301 -0.18791176230864867 0.093454982405492909 0.017873803333054876 -0.16428297139082995 0.016496723731931277 0.051454008765015144 0.19791055351327067 -0.0024321321453378694 0.078610256495628042 0.11828949957787446 0.13260083385945806 0.093674067634971617;-0.039417470370507399 -0.025267978665788147 0.11097170815870239 0.014447622351409374 -0.093262060758496176 -0.080075906200041125 -0.073711843706697547 0.18617073581391841 0.26928366000347298 0.16719307329761088 -0.043676212849471041 0.018463697971691791 0.11078126615737263 0.075749602056009252 -0.17334440379945673 0.2347570815438666 -0.15198080952571408 0.19271736872713233 0.23861812265324078 0.12407807543744787 0.050913216473752951 0.040764158530953103 0.1762780795100812 0.32757707635035471 0.47058285586602733 0.17640057717563531 0.37459232633497686 0.20335071938189989 -0.12775826856565753 -0.0070259860804188648 -0.077808675805067409 -0.010046361791084516 0.012141689996888574 -0.0098917683123787674 0.23060767334881932 0.068324621985607389 0.18298700230726786 0.21060886855559349 0.021437516935467055 0.064590542207193055 0.28338651225020645 -0.047665857094977268 -0.15729648223373377 -0.096961951748778724 0.0010984489460016587 0.15581131024581971 -0.051569394202172353 0.015966201483507563 -0.16112450715867069 -0.098991106453091948 -0.09827793190413045 0.033617077678221134 -0.19258545390174794 -0.033668370905210139 -0.29617225208766002 -0.0012842935206278635 0.25934124961137922 0.2551024639647147 0.17608908972567575 0.0713311701411148 0.097001933562290116 0.18566519762395053 0.01014558378691459 -0.28778396989264682 -0.56413231314678103 -0.37857030439972617 0.26267129689766233 -0.15248235647501013 -0.18638347901348173 -0.37897890860200928 -0.46239057834704789 0.024481877503796302 -0.036288739561882534 -0.085828782149813015 0.18437393731855498 0.10411252366969979 0.19735278400958992 -0.089574060332950345 -0.43081707376484524 -0.28743859267241023 -0.27606081233977714 -0.21277762172618911 0.008080133423683895 -0.3540131437409289 -0.481151088248222 -0.43872064274534606 -0.18029333263835559 -0.098866782490185864 0.17496477311552427 0.25948032455469999 -0.1809415968273301 -0.059962857659804261 -0.2688591509595637 0.084036179438277056 0.090087912302334094 -0.15830401963508528 -0.097494679310908661 -0.32962354737392474 -0.3334609992089464 -0.0025095785128916486 0.04944034509096927 0.14395492616624286 0.14290763417035943 0.11556231565006686 -0.12364761881316268 -0.091132793559313335 0.16610110817238136 0.1932245149318797 0.14338475058732583 0.015108121053044371 -0.12447834994080567 -0.078176606259891812 -0.069897278034444718 -0.2091363014872685 0.067508869166793758 0.15108199221088964 0.10097223710981899 0.20694851955765858 0.24262783414104142 0.018154234966758262 -0.020209499560865877 -0.0011353613745388738 0.10422264123165531 -0.18251886022629066 0.071377949044929015 0.059086763153947508 0.20451480688032095 0.019349987704092797 -0.091716384083431676 0.036404166064539979 -0.004362752870613564 0.13773004207261327 -0.15107730878361597 0.12799322343485789 0.080466032839374216;0.09637666659945282 -0.15076328893243396 0.051781186349647887 0.032682867794436798 0.14105819460941985 -0.15843010705561916 -0.16640126554228593 -0.0063913688429574657 -0.22591488343663826 0.10907031099634409 -0.10476301135239163 -0.11747707958072011 -0.25638594299714151 -0.21728840602957544 0.16258989260178849 -0.072166427842517339 0.16207748106021966 -0.27319442261104943 0.17376568933576803 0.10349981467696379 0.26862130128793726 -0.054124427933739394 -0.085845558333249805 -0.19750239242768233 -0.29149332699977665 -0.14868947590447318 0.066290732698161089 0.040302709597755941 -0.11448110027977712 -0.080801367354459905 -0.082695741965560274 -0.19575520300784269 0.12978570230173125 0.26405518069298689 0.21589036175644769 0.19500743659502207 -0.22997196786274279 0.036732710726918895 -0.053198855648707744 -0.23296360402463023 0.41584372255916857 0.019068087502413417 -0.059710390858292793 0.05087122178460432 -0.1882540313267225 -0.037107633788663635 0.19825755957675184 0.28167868762304799 0.16103936382778306 -0.12122290525200534 0.19635100119231066 0.09050273180492413 0.040046079883322136 -0.06527231900371 -0.17698624535888291 0.33641985718953349 0.38346434279052588 -0.01125758081752673 0.067156564688812204 -0.03458682917663318 -0.19479821175706069 0.20029816503984746 0.28140486119389641 0.152347595851138 -0.088531864317018844 0.0031016411144306078 -0.13954684737161865 -0.090679270984314539 -0.19106216370909015 -0.11052210070991968 0.21533667992748978 0.27090697598526453 -0.20629740344153558 -0.16873400754114379 -0.24468869716677347 -0.22069155730593937 -0.26492367130542349 -0.19967248715009867 -0.17249249268018069 0.13580737766493417 0.39601877094548354 -0.21285839152561103 0.065001129647420983 -0.0072674175698022037 -0.2200847479767975 0.10779624257065164 -0.31848680367992416 0.069511545882888229 0.18866633366135388 0.16864450628273778 0.027858707867785264 0.13349938232413167 0.1001609535006683 -0.21469635733007542 0.45455572913125497 0.47736824192952804 0.09303174099917462 0.22472404816358141 0.26545513848221286 -0.1007635887583576 0.13776608580355201 -0.16107221749373077 0.059771418356193276 0.050709883734872049 0.066660436946190976 0.057223377858962504 0.050344981569511199 -0.040945061192158405 -0.080531910967104006 0.35279923004985153 -0.049286314040898269 -0.076318218772824534 -0.051109923689116467 0.12478989870847038 -0.13903081719074287 -0.075352942873054413 -0.0051885292771959787 -0.04496770005240891 0.13006013459819774 0.14779903277716872 -0.19122008220827452 -0.11616918132373112 -0.11356021926734942 -0.0022661121863613745 -0.1064899595563185 -0.21698294168589818 0.045976287177099937 0.024183289770592045 -0.012983603138188454 0.0066684668347609839 -0.036261743803623014 -0.19409031888216194 -0.16711561215181861 0.1265809631617594 -0.092517099570458866;-0.22994655553778842 -0.08049466696530054 0.026772221453995434 -0.16145780325885653 -0.1091208226593286 -0.14832333010472692 0.12738465131679505 0.023876069003043298 -0.27834155755446638 -0.1360181174545893 -0.32477948759303893 -0.057560236805623825 -0.096530080580485692 0.064343253461630862 0.13591977753600309 0.17633277323390362 0.10581433157291455 0.14170430445131058 -0.26883955921807812 0.55562417288001309 0.3391941805641337 0.21850972736265789 0.12152617580983793 -0.26428750431458919 -0.29030905835782095 -0.30014277794887156 -0.21629338791174452 -0.25927291703257344 -0.013861268269579924 0.037207177126490701 -0.2503087064026539 -0.030774162868212589 0.16379294595683291 0.065656103443324648 0.1647317995338041 0.29304582622097264 0.08605443027646198 0.130818733619608 -0.35912329669343851 -0.45151376685141742 -0.088546934246607326 0.19719399360628229 0.065911747038073024 -0.093512569841406226 -0.16236571428474353 -0.12395193149339177 0.10123337301377952 0.0067173184753020788 -0.015523530453244457 0.026967301490709486 0.05031297305548052 0.049072813494250474 0.42564330213001111 0.013180753011191523 -0.18911459977893219 0.095002875519536331 0.049889877722425618 -0.10678547894911088 0.026205535559577837 0.075816323566054139 -0.03140509804886623 0.084577551675140486 -0.014946046505269265 -0.17207759051443519 0.16203409714476263 -0.23502115163430942 -0.23136571404131556 0.5615072191800986 -0.081281617613954193 0.13819251198247534 0.062397333136640462 -0.10924236007501779 0.14672686578185823 -0.026469081856258569 -0.19305449551793419 -0.066605691865056368 -0.097966356759152592 0.40187935536612196 0.025701249343584059 -0.12068404999120062 -0.27703904507183769 -0.030193943696679514 -0.26328413708113863 0.003869360805594687 -0.11143699611827898 -0.10108250603176232 -0.27114417786487693 -0.18746066921603299 -0.058058363222559348 0.14927130725351667 0.059844300513367622 -0.06174078827480791 0.14698256122423406 0.098089633728258893 -0.01673094224603144 -0.085070704410928649 0.25528250280149906 -0.12617234674466604 -0.025875605519598905 -0.33039437378389952 -0.20419464620149086 -0.31521465958746248 -0.13144582854629522 -0.099277958890434406 0.18080531318888077 -0.04325428887595277 0.034996009895319861 0.24520792604650335 0.19253837023541318 0.0016979161826338911 -0.27717253449606788 -0.14931068289671806 0.15692543796274391 -0.10272765970319032 -0.18190660856062918 -0.09423352862028378 -0.340542394416675 0.15576537563136011 0.090749286540394158 0.05792733806765793 -0.043933703819176224 0.16457658868514141 0.13743189790956281 0.22373870005131946 -0.20171003448786268 -0.14751699466044113 0.093665874200237351 0.34227109196561539 0.057531728336553373 -0.078544362766329978 -0.020624401577406772 -0.0034742843197670611 0.051254226643308178 -0.1046237120843887 0.049239371676005055;0.091995407210362354 0.080707144611635556 0.31800492796070573 -0.15369215547591103 -0.15049824049447705 -0.15530857323377006 0.037870074411697707 -0.074377765750836128 -0.19819460684727627 0.13990168363963582 -0.1582676228807966 0.020424759888356413 -0.1939392948778465 -0.10114510886258549 -0.019461896764068544 -0.11144168829630272 0.12674003791774033 0.33854477517686027 -0.30666126625830969 -0.13747166406174649 -0.10140165637946662 0.09593522062737081 -0.1309308862369678 0.041043631371337444 -0.13951935438642674 -0.27418064832257982 0.13215368790943549 0.11851449164160707 -0.1960609542906892 -0.020371171273559245 -0.062596029582422483 0.17259005428474544 0.034248047756939334 0.041219972166145716 -0.15454816502799334 -0.14067924209771204 -0.094084806382478389 -0.046301535498435194 0.03207209932255177 0.15406958153695549 0.23037884602111694 0.2281655822076154 0.10864369404465941 0.15196812753585848 0.18889587396473909 -0.12152447214244833 -0.091072223088052101 0.061615786914930901 -0.19216942527197589 0.12013513028865096 0.14183586992542127 -0.024230965122827592 0.12190848240581764 -0.045770762426909709 -0.02432247153614148 0.33128938744499281 -0.049040416934949607 -0.17958558928814997 0.090359957129034066 0.12511184111933454 0.012364254275897322 0.014905622516326508 0.087549631744061773 -0.33768304848001635 -0.11452881826100893 -0.09253537449230155 0.033986352129190781 -0.15521207540989207 0.14517349479788835 0.068338584904103855 -0.060439450387858668 0.022387874659766861 -0.11800132707979624 0.027861741218237174 0.10701651771861727 -0.050625766974383341 0.15785189470152339 0.060341735091047718 -0.052134299772128669 0.10320629872232165 0.13046075377036417 0.083214020313008855 -0.12868252645770259 -0.086168339953652612 -0.17970036717599361 -0.23448592995838058 -0.04966789805278346 -0.060313306458292526 -0.14873805734017193 -0.00019419033188897687 -0.093587217560236927 0.09258307919043067 -0.0048959944107111629 0.14776412209048542 0.13706814531889594 0.18206801814960724 -0.2524560842022765 -0.26555110213681582 -0.12681650020682037 -0.053919598263424032 -0.20114306322636416 0.14666850469472842 -0.2280464428481182 0.10515721985626737 0.1454181829880018 0.067484296112722289 -0.00083715138777873898 0.18885348719799208 -0.01724618002738456 -0.025622776321034227 -0.18968596822845349 -0.32248165066168671 0.15433079999921898 0.16276255456851466 0.083870708940331357 -0.07504508302361583 0.15128261128764672 0.03255118441803765 -0.0396275363670687 -0.15434753266081963 -0.0030030219924028954 0.047108293706122212 0.19874487222398324 -0.12237734776214354 0.10358228915195482 -0.10301224438392934 -0.14337868266023357 0.010417040569782921 0.15629689795824822 0.025309011736161954 0.18651883709955086 0.021597159534648375 0.086894829403770024 0.038171493670560629 0.11301379563261944;0.10576951691167782 -0.031179736126567929 0.21186587033731047 0.2143813411003746 -0.092958059947238547 -0.10808057834369961 -0.29626882433293328 -0.05182690942450003 -0.09317785598759612 -0.0096660470360836574 0.20141057474744906 -0.057674067969632946 -0.069456421070243579 0.00097049068232073405 0.17825742943712811 -0.06508642062624076 0.029882801140745825 0.029975716819686728 -0.12195450359698054 -0.11927172502887116 -0.2714515976149654 -0.59242835864291798 0.20060231536598941 -9.5883829370518826e-05 -0.06730710826836378 0.2861729181145638 -0.11677356627028858 -0.084312710290453619 0.12612311979040736 -0.1061310875687435 -0.052466265380654721 -0.229481933843625 -0.19313883474504057 0.2336869530209508 0.35081756729215813 0.1259054952986883 -0.19328064415678262 -0.32046616216960794 0.19478142253337219 -0.12725949590434218 0.32108562744799329 -0.068027510072295447 -0.15895500311531149 0.061991381148562008 -0.18954504662449381 0.042702875667529755 -0.14191508711922049 0.24162858103452067 0.21867992682258952 -0.017567692233001225 0.12821019608280887 0.25136123756673057 -0.69807810660582414 0.028673728486548665 -0.31941152002353351 -0.10511299430634022 0.21871495736612817 -0.1749988292177396 -0.037392729772659013 -0.0062469145789761215 0.040029253267955742 -0.15885381081118477 0.012859956356346675 0.48414485980342459 0.19895549891399178 0.063594371732052013 0.18992316022974134 -0.78219099519407398 -0.022727795497281513 0.077458624032896828 0.1025713066635595 0.29023748732630394 -0.16636031702641071 -0.22885052321807786 0.18006355839409025 0.074439692642102775 -0.23434040652796037 -0.39494848504412849 -0.23913718604812098 0.17183724256785329 0.59651403794509017 -0.57463653194955566 0.050420974702591444 -0.13257456741903609 0.09113592818214683 0.3169654457759542 0.10487876914444508 -0.18754158129834692 -0.058973784835109358 0.16462744895506518 -0.092392222574443725 -0.062004947819170514 -0.031881384514204733 -0.44211599423041087 0.37128667000904692 0.33881069914426443 0.0036308269677803378 0.044753794247753491 0.24399117651883248 -0.0041239955887151392 0.42789322035758137 0.18766594944707696 0.020694332794496527 -0.00312877371015721 -0.16093236570616676 -0.12066192417343989 -0.15291110825104104 0.037685067048909004 -0.17998853629575468 0.34089874175789109 0.2028155581287828 0.16298417435109658 0.045149950618493855 0.32893656730644999 0.021665999078725344 0.089385892070519821 0.044973974415938117 -0.16105773589720704 -0.051031561588238891 -0.070129752194384123 -0.10970677482642509 -0.25101191765582243 -0.036426516003512287 0.075420859547122632 -0.10283180283097416 -0.11440689607451977 -0.011362769687836949 -0.083822562094048522 0.0021515189354705594 -0.13653781061785139 -0.29488806074326257 0.028095427340845698 0.17493726164416523 0.14799773987054396 0.026110111554878312;-0.10218029858674058 -0.12190716466789778 0.4353948496856429 0.25663967655087871 -0.12936450109211059 -0.12582300723713524 -0.26051631253581409 0.032653639232238539 -0.3781771251517701 0.070260370668730962 0.017500766524122687 -0.035621275722163705 0.19141883943703186 -0.099550234034549184 -0.039290601614034422 -0.11916440723940096 -0.1311499097211194 0.31229893631391675 0.13005479577840873 -0.019435513390296772 0.040884338125903565 -0.78442372697225204 -0.21072211793856976 -0.28911086277115344 -0.39556471702636326 0.33743294721186895 0.61602269453638669 0.069062285449410732 -0.035807125684741238 0.17608363016214623 0.11188279760354441 0.1909468672709618 0.29451767235375859 -0.11842178995562311 0.28855187444250296 0.28890417538094637 -0.20107976831038393 -0.26822905673509362 -0.19629790875968187 -0.56450167686391373 -0.070996811550043545 -0.10207490437477022 -0.1293649214530859 -0.013210671190949951 0.092723583808505664 0.12741388526527442 0.071649735044746726 0.16262558774980521 0.087103553626369137 0.027368799981518411 -0.12688343618703679 0.14914808847398642 -0.13928683072091452 0.065058484300882125 -0.47575876548051571 -0.046426456891956569 0.10343344015063732 0.20262054814010561 -0.037049951860036338 0.075519979247259353 -0.027077812960813404 0.01788822064027034 0.14524606344436727 -0.095409166283105279 0.083076010987836721 0.25703496404373027 0.6373480874701587 -0.2134468538896131 0.056037271990904677 -0.038824979630791595 -0.24859967728678459 -0.13942109740111752 0.30939166162791815 0.21718751322091023 0.028682540383128261 0.060862949513613131 0.071834800194016821 -0.2558925878035383 -0.4301135147934998 0.22345885896624007 0.45801579779460933 -0.18312461267754823 -0.2327635957904218 -0.17519638896389625 -0.25034143964920191 -0.18721067848034667 0.17816254994531863 0.21487823959927077 0.061970173904623581 0.19867887547710938 0.071720252037281038 0.17132666278759898 0.29552579031101051 -0.31855559934395561 0.21154164606513584 -0.29864016654094155 -0.6394420729030369 -0.26893038230747179 0.061598175375092254 0.021496092395186288 0.24729180124136174 0.2245957913198334 0.1791207074530686 -0.088517646600085681 0.13495727902724058 0.15396308254023125 -0.073958714267425868 0.11157536418223063 -0.29844259491189756 0.1204776702588108 0.062951163265696358 -0.45607322588369958 0.051039217655093692 -0.017763083029059226 -0.073440280165305155 0.048862885812821062 0.14651298463029716 -0.025529061950973906 -0.1313085433809292 0.16095107354685609 -0.0050396961836658054 0.0058917825851653623 0.022745142007260664 0.10185280702800202 0.14049274530218711 -0.049929253441268959 0.067964140137065157 0.033842372290314837 0.057103165609777198 0.16427821759514993 -0.038570146975514051 -0.078731909105162659 0.10824951067915854 -0.056228986244707561 0.2047686785434906;0.16088023603089058 -0.035290123716320648 -0.28492643298139952 0.087013166392495539 0.042128281381470629 0.12399408002913657 0.38834043304742216 0.189702680805582 0.24159529067911714 -0.070188339069447298 0.28772438126824257 0.47517020267536569 -0.18008994833444827 0.11178648316260335 -0.053214438461256786 -0.11708286608510066 -0.12996547378524051 0.081141961274576804 -0.046722592730337922 -0.069787332886514966 0.2572244698186294 0.33506520322818312 0.07688351964269706 0.13319320684387437 0.29392273248734696 0.12645364513046603 0.038083978815923104 -0.1425434505788612 -0.099845479058823655 -0.056937362461410138 0.019508139184451191 -0.16117935123954483 -0.28903283833529081 0.12560017087080122 0.22992374040059482 0.30327572144474346 -0.10337737735664645 -0.24417003098829898 0.25403046269467161 0.13114240708786115 -0.14561374254638096 -0.05991146572308538 -0.23277128139699566 0.030939079508772428 -0.10285681829016592 -0.05617952728356454 0.1875593602463167 -0.24189039278618343 0.28278765264423616 0.093297080544628208 0.028390001049939245 -0.44417652842531402 0.080025315098561048 0.12293346195735988 -0.07363651818551889 -0.027599153448684778 -0.13035073394734423 0.026711829164713138 0.037354990112880196 -0.14604471049748291 -0.13090253926466194 -0.099606024956968325 0.19056741036360531 0.40307684541774741 -0.21055700496987534 -0.10851288168569595 -0.49376229423269047 0.23894482535711389 0.12020456719247313 -0.18933704336974821 0.23955125677242922 0.29835395298660145 0.15869329734783955 0.048862528649694655 0.045703497055647982 0.19430671211200157 -0.094745286915474944 -0.27454996359744271 0.24126336603409734 -0.10458147081969499 -0.048521129722553298 0.062744118754430159 -0.18586223569113436 -0.020233547648257615 -0.38898015935903341 0.070914197884597144 0.13869273527016832 0.24361599618232865 0.023022314712064992 -0.15537538944222731 0.15251404058416457 0.1383735248827449 -0.1174547041220344 -0.35232795053768989 0.10308214893616827 0.31938166866428347 0.41638464517240831 -0.2466351880901731 -0.30507323523340296 -0.36399479776591437 -0.3524405693291654 0.32234178347866121 -0.088599025687687419 -0.1645094719986499 -0.09236866991753688 0.17481530529618097 -0.12133818799033753 0.062762075680413837 -0.093999468626488267 0.18111355214532207 0.090397555302730914 0.25287088628595755 0.31547917574182027 -0.094799633711178735 -0.09760725575794113 0.065907957017466656 -0.1492251544268281 -0.0080069006069667433 0.15373969004760901 -0.011966278864843737 0.14228232092172455 0.11653101541509715 0.0021676510407414311 0.15439855254310289 -0.08488875549694308 0.15710486461488279 0.061608061753229387 0.014008992304403493 -0.095263503708059347 0.16170451472123595 -0.04333290311210905 -0.054055062115724015 -0.10570819135834318 0.040037968615855464 0.073361625226374585;-0.065063103354222579 -0.23566016172107088 0.10622660416525836 -0.052223315018438826 0.16921540233450572 0.053727040509039405 -0.09975709283805502 -0.049970966886317657 -0.050488643476569374 0.38160730657315028 -0.072847271689195206 -0.16875837626722193 0.15870163453810576 -0.21000738722257895 -0.054278898173306812 0.17960574675872865 0.002134588543908974 -0.28459090150510108 0.0094219823066828724 0.46629299322059581 0.14731161418780833 -0.42485427108637336 0.19258427673573345 0.43376697184178165 0.18566921195236594 -0.37691267352962499 -0.2227010425744799 -0.038538557607967379 -0.093653017830068547 -0.1119902611661778 -0.098223287760039996 -0.26366396177426804 -0.30035395919255747 -0.019784155421751378 0.13762280261620408 0.21089247873116548 0.029844178104887844 0.28228324679956363 0.049795237435212462 0.21368815365697696 -0.13640580679771733 -0.11326412818972897 -0.010678593954895805 -0.12546930212015131 -0.18908048081428469 -0.10328440388808176 0.027817813335471866 -0.16531946121034821 0.075868155665611503 0.33278573779054843 0.029085931820974423 -0.158150693939485 -0.068820986580251153 0.02306426960769568 -0.07255989617819443 -0.074188214584517256 -0.36265622558419053 -0.14657588052123277 0.083549708148560553 -0.063772060734586078 -0.19500062107289035 -0.059025165191818954 -0.31003645986123585 0.1615029550673695 -0.076562692169274318 0.24203230863636563 0.10218071794474574 0.11533437579772199 0.1872512793778732 -0.041777156441067727 -0.11247378095881388 -0.070652673713637218 -0.036802666042949447 -0.19687578221902066 -0.24353402317045708 0.011395941856761238 -0.072094866995118259 -0.30990875021638331 0.17494126084036588 0.16942570437789622 0.34402729088837647 -0.0053051125631946227 -0.14587756466674051 0.19389311416175073 0.11321747607709678 0.17711299042597556 0.12878794643055855 -0.13382474908943934 -0.13432240330861836 -0.060983379312455392 -0.0016723957348520266 0.16646624016166781 -0.29723601125340876 0.046238592087045893 0.19460231235696568 0.027317235317585939 0.070438895903543131 -0.14571874453976916 -0.029619783980135633 -0.13711536767235821 0.084486455111978387 -0.043713164827547286 -0.16602811734194836 0.089550298180751137 0.15928405466932927 0.071448802194295891 -0.24437784514259955 0.06572286566753012 0.12322236218098476 0.033789269188279902 0.067821800517648453 -0.24235437433873844 0.20043922848237558 -0.084408867557611192 0.15944401449324075 -0.010403870543258503 0.10494848248656853 -0.057817248695363165 0.15974194818365836 -0.10592570181423674 -0.13907823538963673 0.11210343511248926 0.089776427185345009 0.045446989508904481 -0.22697591918384333 -0.15735483951336293 0.06573492106402283 0.086304232431491393 0.048797644874355291 0.11684588221523502 -0.14715713233780855 -0.081385836789806418 -0.22603123353514301 -0.16569154623698945 -0.29423705790445726;0.044498453276879742 0.034787711056573738 -0.15658416648441684 0.21715470694420996 0.14311658073259456 -0.03187032735320669 -0.15102425119597201 -0.20929679698538764 0.010852040263942066 -0.25854217424694348 -0.2376900899647309 0.016624307204176677 0.27167901126626881 0.0081665393065474441 0.25845558741344488 0.22943991620734056 -0.057181019181419823 0.026746165548633315 0.2207324371057941 -0.43261592706311008 -0.2947115300376566 0.12825781091112143 -0.63295641361309019 -0.2190433234230986 -0.33862265593217838 0.016936783903236909 -0.1311937844192855 0.2266996720526169 -0.025980253599732894 0.042357815519754156 0.026533632758444281 0.2345305663244959 0.39984187763223999 -0.0074005448750462249 -0.73780031636410703 -0.45751499163773518 -0.013688806096835598 -0.13849793972957966 -0.30503006936749022 -0.045819697802999125 0.072993152093987171 0.34473032487701533 0.29699743420623714 0.143683448189834 -0.082687658450816326 -0.085988220146892211 0.18042581644648331 0.077454381197591626 -0.28183259227914897 -0.11234163145523128 0.10913264641922059 -0.24272102190182221 0.442875542361091 0.039151750170467896 0.037119981653272266 0.20503780923634796 0.17878585422285925 0.097181130006876365 -0.067087771225955523 0.20476840643901256 -0.0054977398747224722 0.18495374063192122 0.0019670054959904887 0.060926966831218794 0.098857842431848225 -0.095260235065410412 -0.23977280670745771 0.065272982086293993 -0.16789210716372424 -0.38685467039006088 0.10710671932007407 -0.24956231704029555 0.055822292345575855 -0.034260302710869453 0.21345960823450233 0.10374186050236513 0.13218105347207532 -0.34186014872332893 0.38453570849205143 0.12994587156146628 0.28142250884933218 0.043728062987080908 -0.12774401737845784 -0.2843017935344378 0.092824404690209902 -0.06364700142287022 -0.16397338742532455 0.21458232804423469 0.20885233051974889 0.047540679946371081 0.35773640037007209 0.011356735155879151 -0.17308441974093824 -0.010534154871834405 0.13281336358678372 0.47353181110161091 0.18465403253429644 0.2246418995770961 -0.083322863484580206 -0.16430542111381308 -0.1872416931923967 -0.066979962543972454 0.054018409307252602 -0.14392886809234337 0.1005484673941547 -0.14249257214512187 0.20125319180601436 0.24697697103123734 -0.02582515725252231 -0.1648434019523172 -0.047532726057315129 0.18226428668478639 0.020530802133003592 0.052428949081091164 0.022784830147107298 -0.20721860323708019 0.1356391603200823 0.28356277471383751 -0.010378324878736713 0.19574618103884411 -0.06119957645652712 -0.015432446374491733 0.17221685554565977 0.23750323033238796 0.054090327880664937 0.11692173046126715 0.29689479360370286 -0.040314758959850136 0.11663000019363604 -0.11501353795059724 -0.036267468805711439 0.13051503548366095 -0.0078744053070677333 -0.015977364513127545 0.10983711521063533;-0.18786052644188508 0.084504192531165576 0.061417529088481242 -0.076554877672602703 0.15060895846876615 -0.020982238054445469 0.12480499842422106 -0.053229950512437618 0.28420192740269729 0.077206114846801968 -0.44773430058024682 0.026906061402553513 0.00037556874474062199 -0.2310228823596403 -0.22294558123562755 -0.12541663069145775 0.06016990439901565 -0.20585803547019385 -0.04081347735285118 0.30748188787077768 0.36709808976937425 -0.19818438467373034 0.37684613173539711 0.60823179631837743 0.25491953413083918 -0.14121906478970542 -0.59646595747461306 -0.12032313734163812 0.12230951055589456 -0.026639675818138291 0.13903486731097256 -0.20209013694737588 0.12841004408518247 0.26207263212244269 0.26178761012759866 0.13532882307987407 -0.24666465768998203 0.36419937076097758 0.066288694866166134 0.019887432686470034 0.46024966245063814 0.12619074274202302 0.10897572567902081 -0.22610570755689058 -0.063415040949195367 0.14379028887687634 -0.095508350650939045 0.33731388713606714 0.03421704875917593 -0.17367019490503993 0.018541451863664564 0.047199822190137526 0.12096515927361852 0.072793374124312138 -0.073788629340364953 0.57801573792774374 0.095680855050809532 -0.015873464028931528 -0.10723882659165822 0.069870744350483058 -0.049804018665837786 -0.19739325257784474 0.082791731672435392 -0.050992900736240646 0.098734711825062979 0.12532784275682099 -0.25291683294658912 -0.21311965377687675 -0.066536324938747782 -0.2763988912843357 -0.053951532104812842 0.15044891365589871 0.017836872245110959 -0.10990801392002722 -0.16211135894130868 -0.041336243544897726 -0.16043177298342745 0.014615451278811979 0.016588589674668645 -0.13267175242744284 0.06580905786091279 -0.50701118890566454 -0.46250926912793427 -0.29983608492777208 -0.18335156729484109 -0.034475382166497523 -0.35528196428855691 -0.23150864163713147 -0.0041373587259961042 -0.18611014216018754 0.14103158127659077 -0.075407929054643622 0.20425061426932303 0.21371138391560909 0.11654215446906799 -0.069865170545021296 -0.18832803934574938 -0.064127038931177674 -0.10069242164061014 -0.15758023958830408 -0.062485859405355899 -0.021118030618241197 -0.080254051949085081 -0.025573917920199671 -0.18165037908700107 -0.043083355246143297 -0.15086887918889841 -0.0098746159651541179 0.27757019787706372 0.27055801959659115 0.16849901411542931 0.084777687286639411 -0.1154503272266692 -0.085514098523496909 -0.2617499498610899 0.059602008505413723 -0.12427993970437763 0.074898681585847268 0.090528801717130014 0.065815551422701499 -0.16168615963909017 0.11832539545729434 0.06857876779291687 -0.066571967799614939 -0.012466751519008088 -0.15411924093512558 -0.18967551455666878 -0.010792031291095013 -0.12205938732652655 -0.32613090753197499 -0.26903191424526901 0.16742682242868023 -0.018445545791113908 -0.24224357347479514 -0.19176678262043628;-0.070452660389958274 0.12449584342859142 -0.074874272901488265 0.084129174163311921 -0.063070484855510797 0.010008450378467228 -0.039505639146115615 0.066700907785149782 -0.0088317158323169068 -0.10110484303364768 -0.096359606412153145 0.057427073514040174 -0.090286146693281985 0.20451271899320042 -0.014720984934152007 -0.21911082292186895 -0.092294979622978487 0.046206504964520771 -0.22595828798430578 0.078741391075829545 -0.18068207959064295 -0.70687065775311675 -0.20557176944574346 -0.18096459954455157 -0.12559741432418034 -0.18366574507679756 -0.25169337146912901 0.078672880782580279 0.046920378134271093 0.19291886655498816 0.075504672467225808 0.088256639678495896 0.31821552594095798 -0.071664259962006122 0.30601016773725698 0.082856606957575296 -0.63251597511363644 -0.66586980663071449 0.21238630224505328 -0.27126414735573218 0.32592643619563116 0.15297665772811345 -0.20423341011186963 -0.053103826835418443 0.217706501090386 -0.11056539002871844 0.029542288503457206 0.11549340661732424 0.28026370033254194 -0.0038548744194488614 -0.23177487302110747 -0.03218293528680663 -0.27986275045701831 0.074716415075559192 -0.11271519438102162 0.17732399774282082 0.29587160467192364 0.078765137342349939 0.050493952055506663 -0.1323437361968369 0.10558894988263642 0.004222518758822633 0.27262848409466717 0.58451825485010334 0.23931449339943758 0.23076756597593437 0.23476297669923812 -0.43041014470552402 0.053491626402226509 -0.17819126946355013 0.3792840352335542 0.2501796787278 -0.0270439755488204 -0.094917588647698406 0.19438114835163736 0.18893677432701056 -0.25828380265462514 -0.24327456005439468 0.12939626877188706 0.34989697078596183 0.20956908323976658 -0.27528120314609233 -0.12634110852148264 -0.14226309808863519 -0.078825291731688507 0.039635598259159098 -0.19922078890624112 -0.19451594636581629 -0.0090325208677673133 0.23220253471931512 -0.016078869594977875 0.08813190210096096 0.1321177414518532 0.15333782732736431 0.27878064049348128 0.13781063170758967 -0.36452495548354991 -0.18123905954248348 0.017124027858622107 -0.27405364003356397 0.040471131265719648 0.10181084663867475 0.19961817975858048 -0.077924880430445778 0.067736847265911712 0.22774711302400913 -0.10127281221259388 0.064687935504022617 -0.13751152779568793 0.17296608635408084 0.054363487668361007 0.11935897085646123 0.19532499121157829 0.066203034059431995 -0.27508077654145147 0.016238454761817286 0.11999205665027024 0.21857899251790175 -0.045104610307418844 0.16943589668184611 -0.1040811561366724 -0.051369404182548935 0.0050791690935373286 0.2102056679609009 -0.12962109707576366 -0.27515545472014319 -0.15567463772815865 0.038788484696212454 0.049970967183552276 -0.19019445834470361 -0.25985669699996689 -0.15451090280537799 0.082325236841737398 0.17456298537943069 0.087660555496098524;0.14220983605041121 0.11679246426662766 -0.16950748624460529 0.2789559362883095 0.12588513874492777 0.072839516333624177 -0.032089197274035162 0.14998985574410786 0.044120748539203426 0.078113598613010884 0.16941771793930158 -0.087986423279701409 0.10371066030605602 0.076086985228655687 -0.088202421316271262 0.13589466117412025 -0.012035983777703414 0.34203106179131793 0.10941144166672483 0.045268362869684019 0.0056101587494292024 0.098861791316722514 0.30469453721548712 0.047210533034984542 0.078788056122498146 0.11993040518092797 0.15504133420850513 0.10961171924934879 -0.047050368803353129 -0.029069634643315606 -0.03568024774884257 0.068832523526011671 0.13370756539716647 -0.047152953205942136 -0.093441214180282769 -0.14997113871379797 0.24163266704552261 -0.23865066515394939 -0.14785396101592591 -0.0030460966431765995 0.10571214337377426 0.23002155315815914 -0.03222796548945233 -0.12977786789038528 -0.078226077823260937 0.18423956173546405 -0.017256269712197819 0.037933571648860083 -0.19353235873827154 -0.36289177360734082 -0.17472771747264373 0.11067237063095825 -0.18626605919226569 0.14441614201670386 -0.24670044523184537 -0.25513142589859716 -0.050861077596766884 -0.0032340269621837776 0.0051168486699411852 -0.11612792785475086 0.18614929860234111 0.029579895488352503 -0.14645375863721039 -0.23765622218155258 -0.23109743957923104 -0.2997569735464225 0.25560996712728656 -0.021752057146238679 -0.25778887186064142 -0.23308556006256045 -0.26619192504524808 0.069287396371293622 0.11092103703134623 -0.12785952099197143 0.15637491760999184 -0.15592970990768706 0.085446610095685188 -0.19073593170388126 -0.23533304106247155 -0.11974104267736858 -0.076552703330284022 0.24048587613731373 0.1018764610612518 -0.043303176839276876 -0.14920286904526114 0.072523700447713196 -0.041809880283661019 -0.16594060428723825 0.037259706212361077 -0.070666721910598848 0.21212640210089082 0.047612205193718116 -0.054997847146084695 -0.30795034671473753 0.17077142572910536 -0.29084849852143402 -0.098146674035026277 0.16323171096904923 0.22688300623996904 0.004477863552450524 -0.1444405014676205 0.15044821731904459 0.19531397898041136 0.12136213381873957 0.17620372668575196 -0.19704899084960822 0.15663689969001732 0.01042715049357249 0.10393175439785732 0.20928467307484036 0.12866050971548618 -0.17667521534141795 -0.025649328636973869 0.024764387920588275 -0.087103899955558839 0.19592850280271126 0.18781352105999091 0.15140605109709801 -0.14358977938447726 0.11231685728903019 -0.077775186576388808 0.17152485648825788 -0.10242526766783557 0.20483964576718774 0.18819922649478732 -0.12238538520364478 -0.11194399514841652 -0.011092590418965194 0.062791619167743493 -0.14667764439153189 0.0020646157339326435 0.11796208445385184 0.075960368367667758 0.13155061361608097 -0.079411417173680138;0.042671214660320728 -0.019499176504842508 0.06067047734990063 0.16166655209155628 -0.2388832858491165 0.0007032136044715124 -0.017877319560036076 -0.23063395735683134 -0.13869378699956048 -0.14982320060087886 -0.15688898855555267 -0.15333416193183078 0.17466720415522771 -0.16303498616808329 -0.19768922680372264 -0.033967225091541313 0.21535053543536864 -0.10986950915217496 0.14407225196274301 0.16949006466656985 -0.17628999052803829 -0.012434055935264851 -0.27657393412226378 -0.37044888457432917 -0.48439299301686278 -0.10087088460306902 -0.1154273511134616 -0.21907011582572661 -0.095923257187080363 -0.10006475227327621 -0.14521935488433674 0.12240602883384581 -0.052163100926161124 0.017172975220053528 0.19549490780665585 0.12177758415581963 0.15355542913152564 -0.24770949190309838 -0.25212416341699889 -0.40545306153962229 0.023527018737647752 0.014321568726141763 0.1572127068406963 0.0035150946997132854 0.17398589087251254 0.14804979229913573 0.16986719635052278 -0.22742384936651683 0.23415261874885346 0.10313469497578179 -0.20370823633674853 0.013730173352547755 0.07934503478483125 -0.31172418611496649 -0.37221983091513366 0.073899181606582459 -0.10957925888056297 -0.20724006871146558 -0.07393123220378843 0.1251616170850971 0.12298152337685721 0.094897286210830753 0.039769682730418462 0.15746507356423611 -0.027656320650451104 0.34832204658654203 -0.054025333223659155 -0.12108852908840924 0.029144419411548095 0.15896023077105806 0.23969065530983832 0.013668635234768543 -0.024181266903726368 -0.20557584631782816 0.041709177236209379 -0.12535502662461517 -0.050717117292098518 -0.046941621031305454 0.055817657139302375 0.13316744626236615 0.18873341030867261 0.095952207432956307 -0.095500646969944369 0.19042139171985473 0.31101404390550302 0.48454678876017682 0.26049572282066497 -0.094121254469811566 0.11367513119003252 -0.074235905197737775 0.10162690392041077 -0.17693719626705515 -0.27406608658200521 -0.1554593713097083 0.18211963602258918 0.039913602005125462 -0.1566058692582277 -0.030263114996013495 0.05878895844686724 0.27619802100796653 0.18569494723841046 -0.1977589327642337 -0.053062788939090916 0.12077066274039093 -0.11709644404938159 0.10200133303970517 -0.031793391146947667 0.015204419733011993 -0.3382581529379623 -0.097501261991975535 0.18230183106493286 -0.069693724389315537 -0.077630556613767457 0.21647821018473645 -0.051864711242458103 0.094532167168536171 -0.04164547019655955 -0.016634105955251378 -0.031366041089927743 -0.17223043510741437 -0.14880062330793972 0.15559910672967722 -0.15458038106197186 0.058086335314585937 0.045528711802091698 -0.14909513585977405 -0.014713751733431275 0.11627917531420418 -0.22567926397369484 0.086681693401570795 0.18732211085120343 -0.14324741266601598 -0.12863993051992514 0.18963398177722399 -0.040042857387928087;-0.12805717863935406 0.068488969049735601 -0.23012211001672939 0.11335894529076866 -0.18664450700055255 0.065538386621034658 0.14180319736111457 0.32149989827048653 0.039700985630478761 -0.12454738365985742 0.25300028093670801 0.40813663684937446 -0.10541857079785813 0.057119772838290915 0.19670410061117391 -0.082472718196314396 -0.0353222635707637 0.050150099598035736 -0.10907894626943566 0.24907497143661503 -0.098456737253792073 0.20717649248895098 -0.13295865914206226 0.040673828215042361 0.038121056931564853 0.04446728091676571 -0.0392544116837776 0.23819322077099342 -0.030821325899705945 -0.14977342649633413 -0.01211994010157846 0.046337123936269403 0.089490322355815125 0.05216636383374236 -0.18780105535522632 -0.38099797571095761 -0.3188891295973964 -0.38615692055453277 0.20498000979767048 0.16749041603556414 -0.045794836140535262 -0.018171485546741063 -0.19177295256958771 0.070339692693586198 -0.09277354699356137 0.21266319396066458 -0.15379974490798332 -0.17175332558218423 0.13596985281610252 0.21825552728436118 -0.37101459222654615 0.096378428195044497 -0.19294817413469242 0.028559683221490731 -0.14712434047352813 -0.30074864021977477 0.0078266781772329385 0.13214090893515834 0.1943410349061673 -0.1228102700468182 -0.029228796945254348 0.22652248650038065 0.097541784465930745 -0.2181343917596647 0.15747505512148685 0.13822845736619477 0.41616431233511092 0.21737804969230912 0.44144639843300609 0.12345796886985105 -0.12582364601606882 -0.12074866769399974 0.17072125879214509 0.15885378279271031 0.035332487639086418 -0.09938993529489594 -0.076556752841657888 0.10429671285912029 -0.067111345275704476 -0.31898415716359196 -0.490491485109804 0.39219143961645297 0.18523354702723255 0.038757868495610727 -0.32669938920615921 0.048920200493011247 0.17149362379598437 0.1717224872383796 -0.00099362117798602726 0.18235116193717657 -0.077645607863469482 0.18257448608385207 -0.17358418443134183 0.041553436318008223 -0.23606867491381672 -0.53853483710622252 -0.181429801086016 -0.15062792175437531 -0.042434440412775394 -0.20604919961709142 -0.17490070975106717 -0.058839648069796947 0.0061332511620870462 -0.12556267221302886 0.03231806685860357 0.099066194099264801 0.27738606768997093 0.056174620450126479 0.033895693105187662 -0.091176494989075457 -0.031384657901440863 0.17832383577258923 0.0058985359938764463 -0.25379163095623036 0.10139443626981411 0.13603425466671082 0.057271821992322142 0.064382366270665334 0.15286266235954643 0.26833302753670635 0.22603988865935984 -0.024813215081509667 0.18534193834413162 -0.14837993924616555 -0.00803158151282766 -0.017487224231989014 0.25778222342960194 -0.069270375440162665 0.063431440641820824 0.19915639788039904 0.11496304435647926 0.060142904428119315 -0.097932591737037292 -0.034447402201517312 0.049346131886115786;-0.10042384555774068 -0.10896019826147106 0.0045773226255382774 -0.10229133113741355 0.14786048007830771 0.15263983760163541 0.11944738791509998 0.075596027133524091 0.11355305419552858 -0.062019920632769919 -0.37714737901452372 -0.14363968093860113 -0.14663852537991917 0.0052840380545264385 -0.043289896529751265 -1.1801814225089998e-05 -0.14512108465917611 0.028005578807810884 0.039877840097745122 0.042462883492928961 0.014319141894986861 0.32870139137679744 -0.20547125200114122 -0.24282847680427766 -0.3864744396721389 0.1215059335232368 -0.48394185104944581 -0.064568361216645512 -0.034884426023364133 0.018129416981251454 -0.13498964303909866 0.00061996493877083351 0.021307534247528351 -0.0083587701607881482 -0.1824320446858233 -0.32661250227172828 0.040932604489284895 -0.26196147734058411 -0.33885645863766983 -0.38007645037295679 0.097532032361314899 -0.072151352895920562 0.18775370095497246 -0.19973907998461873 0.035710829228552732 -0.13705746854484899 -0.20354980022610958 0.2439642296336598 0.17134984901279074 0.084657269090090095 -0.038647268817015849 0.032235808998096457 0.16235689806916337 -0.025561259021573739 -0.23381948825702481 0.37865682766891889 0.15182333401442052 0.016915735827223045 0.1227186129266039 -0.084741050489435296 0.054773179159982227 0.15498440067521443 0.0032598977743393247 0.22531254136538251 0.05186829249737801 0.32580655655342416 0.069251141537961955 -0.1230168557605049 -0.2370256084928159 -0.12941161229305298 0.029179363326861496 -0.047259884038317414 -0.080197655039777882 0.20930736351161827 0.21008914055964586 -0.039430464023160534 0.0714804986860927 0.13458853874592136 0.52120148844041825 -0.070078724433302916 0.027432296492363353 -0.048038985257828022 0.0936420148424051 0.069393291702698173 0.050456095724618309 0.28365567554277155 -0.11256472891540482 0.083198396332393315 0.10400622139388427 -0.086569655290098593 -0.065440932984626859 -0.1861552967019825 -0.13436193028668098 0.031361204727881453 0.098127071497620788 -0.021141734125034548 0.025815064151592355 0.08253617073071777 0.06005178127598463 0.02387797120201187 0.034859855897480918 -0.20831969341433973 -0.024365145741253338 0.13709414529735803 0.10008546460267226 -0.024788433075286966 -0.0056971651969031601 -0.17726624447744177 0.27297132334965768 -0.18969911278104407 -0.050354962910344428 -0.14481328523223017 -0.1540437806292197 0.23787390976682529 0.016626843007010641 -0.046661868322742911 -0.20107222847743714 0.015487072710754385 -0.037318324106492551 0.14193306018784785 0.0092533958338670893 -0.0033580979834466839 -0.010812150419164704 0.058668481169864221 0.15303083786982938 -0.11188259629727336 0.11323175062206374 0.051833563664284744 -0.14991429009886764 -0.042141992150376756 0.14215544100597829 -0.12942083470829577 -0.10278583485747581 -0.078927700053899957 0.25216813347965789;0.08905418763562005 0.057989437608235647 0.01027471839030869 0.19675061933040716 -0.18312753047486285 -0.099001736756270609 -0.10300164943665673 -0.21802312274853078 -0.10806679902571291 0.29784867995383235 0.055314349190836568 0.11310281168503068 -0.10860101628683751 0.071063897094992626 0.16647172552762987 0.16150638359444852 -0.066458276080334833 -0.021123744464680336 -0.33558919333347914 -0.0039254906865617469 -0.062907295518345369 -0.46340511989394922 0.18841430208281018 0.30595495645718396 0.32397713309394505 -0.15261519383798644 -0.0027129056461186007 -0.037516320785454513 -0.17876328888364149 -0.028136749642956559 -0.11354102919196972 0.01444982529659288 -0.056071336348327457 -0.067338481555927546 -0.18603011242909448 0.17191827169347978 0.14220968634497677 -0.00010423321019099462 0.097164113313416275 0.3320601397596209 -0.076953463499496971 -0.041088978816324777 -0.16304218398137582 -0.041417275621139324 0.0052037223834288538 -0.029773534950289723 -0.11355849474516037 -0.38998207577016886 -0.060748389323103329 -0.028264099465218316 0.022054879054817303 0.31026564410426916 -0.040127618991177068 -0.17427155572513553 0.22158974561291564 -0.17187966607298547 -0.1749888358328679 -0.018463878270774794 -0.25922995943341631 0.14703860472004482 -0.23706851914752924 0.022952765447586992 -0.19519787314866341 -0.23720306809154262 0.034297773145710253 0.072306851163522146 0.45888664418594965 0.25369182728412332 0.24006568735709477 0.26760894400971585 -0.15988875462653526 -0.39702292480072521 0.1594376027716293 0.2515014569707803 -0.03150655618560768 -0.14006555369338111 0.030113251434213794 0.10131109252198368 0.053785146540400307 0.28061686704412181 0.21881919724399576 0.020176085373014765 0.050210450039009757 -0.18550483265907169 -0.188068170367204 0.08183594850273973 -0.0016981881136319114 0.040364387740288596 0.13168601185697176 1.4715145982411161e-05 -0.18653280594295019 0.016399430168120122 0.025441123377757044 -0.0068272084124501023 -0.16494317862972088 -0.320722624112454 -0.15087506554636498 0.0073680343924774679 -0.28005495566970701 0.041451808864315959 -0.080319354962476788 0.20400121208193822 0.088705557512432129 0.03041778432565027 0.13617071868822306 -0.092234180337962449 -0.18054371575335157 -0.040634915406898009 0.19427119370790891 -0.10261594111698739 -0.22097727815324764 -0.027929839791839221 0.074156201024184604 -0.063428499542601394 0.11148165992861678 0.17723577231534379 -0.18146559834026713 -0.15916728138633066 -0.12138242129507884 -0.11987829796563566 0.20228504812703083 -0.0029413626922886464 0.13881252391911156 -0.019033636802436936 0.20581465988409414 -0.09400336316846615 0.014978397383633943 0.057487415363690397 0.08658619413153508 0.25633887786228671 -0.030294775873192709 0.044325951638586492 -0.095365992027057436 -0.19782738318751183 0.077861781945900183;0.095453431270871761 -0.027383205399669885 0.13724207657635107 -0.075351901920991948 -0.15365151262880536 0.037041321910732748 0.27226995578049384 0.091665755972415261 -0.22862018877691076 -0.013589276600346843 0.037733263418142808 0.16109352324649812 0.090777069436505667 0.13972408580029702 0.075407694704215808 -0.0051362012059980059 -0.070036439784934623 0.39184535825877648 -0.14512229529684925 0.012123552583792703 -0.076428963707737649 0.018436224935385152 -0.17160464014103075 -0.4111388825925788 -0.13919400421741301 0.16939936612781065 0.12058611469131997 0.29556437353638787 -0.018751418118101323 -0.055312254769063977 0.026548069845974003 0.22974981138765471 0.15166340799610531 0.067805765315698097 0.10179793952305208 -0.417432876435401 -0.20890024888365091 -0.31250051401459511 0.069248783218242543 -0.241967752452733 0.068466114211996512 -0.14898721459529191 0.061338046302150562 0.18885204461092878 0.20543678267954435 -0.17129597466119428 -0.090914124597713739 0.050586312168108778 0.40060361793853216 -0.1431539043126723 -0.21482125772335239 0.45201073836773326 -0.3077087299888171 0.21608328849321667 -0.17048567575277709 -0.16088055555395681 0.11448214055768764 0.23744959108403829 -0.1185788223062714 0.21140542587148384 0.11634777523892233 -0.15203310071563994 0.22381542349653621 -0.3937294504588188 0.038006445449330947 0.028200904406503063 0.7860776533291457 -0.30168092722189627 0.1064073541715866 0.080329138443385087 -0.084960152702208622 0.19659025727777635 0.28565091741631765 0.20231546860085237 -0.026888656297035938 -0.10390428775752755 -0.043291861851203796 0.023821287166297462 -0.22542905407843894 -0.22796820771182361 -0.29886718419074804 0.11300063748410047 0.16837857799139405 -0.20550502355612515 0.12575839872964745 -0.15086516792531454 0.16819956954909859 0.24371549188810679 -0.22924257802685877 -0.030114620374911329 -0.13966646540912769 0.0090844290254329073 0.043402902174795158 0.093116560608238877 -0.36764612540425057 -0.57355412033704511 -0.59373796892691677 -0.20079791989602261 0.067408330808792369 -0.28927440186726316 0.032260298262755581 -0.19727560088856214 -0.083801015234784657 0.14361923364396353 -0.12310523477981403 0.048123775081311902 0.028100790961575983 0.27317880540184453 -0.083853282440923424 0.082940449167578117 -0.15875943913465562 -0.30916439731084056 -0.1038855449799954 -0.067886266908313009 -0.20341755757873045 0.14891887540380636 0.10827840368020956 0.0055000728625594795 0.033243563832567845 0.19756751721814306 0.13226154874832693 0.19383091240931674 0.18937951929895611 0.11796097818709785 -0.094331021082608379 0.09729423057091037 -0.021243701249242193 -0.073457513177657321 0.19822892531296279 0.092654435313910627 0.14251206712199369 0.084906001670624315 0.041411671274367318 -0.15439122732802651 -0.034433555517657088;0.07372823166918091 -0.027243237383205589 0.00036181196058118043 0.2029100944892954 0.022722680578354682 0.13615484218441934 -0.055293699008224562 -0.16923638944897762 0.10052717940160333 -0.19661340484816023 -0.042624605614388911 0.26732969793292299 0.022514317577017894 0.0048294088569384146 -0.14176252887765889 0.24363447616717285 0.042235488028470818 0.27847383278050808 0.077804900783580613 -0.098793252555921265 -0.023198917618580731 -0.24793528209436966 -0.33120664959139878 0.0061672614172688109 -0.32050806316772118 -0.17308487347614376 0.063515990198050917 0.2500841913234334 0.073909721242975471 -0.1021142146123479 0.24303215434652475 0.11214100554240497 0.17449224694865367 -0.1972544478068734 0.022648728283401667 -0.12342912783803119 -0.080075007998079178 -0.16248636731395658 -0.060943456441099365 -0.25513589855515378 -0.015327295834943461 -0.026232327099576402 0.22584889549258885 0.07765681061965253 0.17885890497969331 0.019661037820539157 0.12423977107692073 0.3019313928743167 0.22379808527254572 -0.129169040603933 0.06220601172402658 -0.15107628108515625 0.28801089620714959 0.24654148408422311 -0.28268993493939953 0.085767673358061972 0.11109100219143847 0.058317335337238534 0.22062873406065209 0.20206014678697537 0.015702059232902715 -0.097518586836771365 -0.032608702566087 0.018976966629697844 -0.0067294402810582927 0.093627147986683437 -0.17843337128462761 -0.037395849920498513 -0.12754108383242541 0.053182206124812816 -0.13879570899879512 0.13556315447257733 0.015969592700421791 -0.077938670576602948 -0.11850515871039224 0.1024751994987088 -0.026150810056666682 -0.2986206833397157 0.22689405838448651 0.34064519081441691 0.27648138233703462 -0.28999115937484216 -0.04837604289937663 0.019158066678112918 0.016742114142793398 -0.23162636877348053 -0.28562867262638253 0.16578366547250442 -0.20290985464691616 0.12420938672096293 -0.013416616215536085 -0.16330399728035877 -0.066505415472074239 0.18392810566413176 0.29639143219303776 0.30652347287279508 -0.080875964897501304 0.0053079800907178945 -0.049575103007446247 -0.35466931639349014 -0.00025431558447884767 0.11992521892580743 -0.033973974104543309 -0.078933221498509246 -0.14722938222044343 -0.10702301131268838 0.12943201315984729 -0.063660268289766606 -0.096701492489666183 0.2893901877497676 -0.081264468915358656 -0.10672463216902912 0.20851386399541391 -0.018438082456437487 -0.089950714505612803 0.14375965868369905 -0.072718309805894707 0.14941875765587828 -0.098032333552371828 0.011663153416102403 -0.15061607973240027 -0.076188487326489626 0.0075177598260141301 -0.18250038240675304 0.10265128220687782 -0.0031551319349928096 -0.046670669370515172 0.27023970313895845 -0.14634448022469723 0.079287854310435821 0.032627953152097995 -0.0049134018801476739 -0.10269282907625031 0.26566115489488651 -0.020482741808064652;0.05483414331936675 -0.032509208233211434 -0.053347398231912757 -0.46696664930031623 -0.10664215172799288 0.15187203326718177 0.088739261876811568 0.21036908065343796 0.25125954594898098 -0.37101209917515482 0.23643351768205678 -0.17811058034101612 -0.23765304915168733 -0.042992655522812458 -0.08019021999444266 -0.36205420935661026 0.1279287455214064 0.30241377773740846 -0.090687494548087499 -0.38433222870082612 -0.30132096119150942 0.2286532142555488 0.25197676664448215 -0.1148102196109525 -0.16283927910956145 0.038958824690973268 -0.20272973566443922 -0.097341589389927458 0.087394218081340236 0.10823875317130668 0.11618098775697901 0.13482794131690645 0.097422202226720531 -0.14341020877923646 -0.43453712882513773 -0.11750671958599083 0.14151382467036888 -0.35686662866890873 0.049982927276410967 0.55150634379251295 -0.056559923213113081 -0.004747373827459116 0.16124318572878449 0.17969742861066579 0.078728875139269863 -0.062610848322139034 -0.11354162352593164 0.033574314860724055 -0.2535866389788235 -0.42066942296615362 0.4092639248621287 0.51096217026593904 -0.5822185612077081 0.11962835470286219 0.34208997019959375 0.23750281281398825 -0.11790592033795663 -0.13651048732315399 0.05708340808762067 -0.075501011338038312 -0.033620932387326927 0.033837338922764741 0.20003322221410788 -0.0013374370651859199 0.18331125129158052 0.13825798749170035 -0.47515754392132176 -0.53927084759113741 0.17117914745098875 0.19243432443711306 0.16140484583758552 0.030281379144891978 -0.11237219073748442 0.030149805618576664 -0.17558074183118369 -0.021983083761708235 -0.11282084767195649 0.25229490450392272 -0.42751970059819822 0.061558116182646366 0.015255557531288162 -0.24672345505000978 0.093322206083121181 0.28552547806486311 0.1584628993169048 -0.020824920151963248 -0.040173692313657708 -0.20757743477226773 0.19391882109209674 0.0084272202567590368 -0.19851688993233083 -0.14825978179410493 0.62052710303309044 -0.50802839307809355 -0.15756186009351369 -0.057864976686132538 -0.2492937137263013 0.22005656278961225 0.16913310183800764 0.25808205445014709 -0.061432183494222796 0.15183781239227434 -0.18539037746567502 0.082553750278448676 -0.032496321446107729 0.04584256513887968 0.0047312222923595899 0.33182236096701234 0.018935104243018246 -0.019054203904447772 -0.093324401256679762 0.20938225994472398 -0.20505450062700192 -0.010817662497107189 -0.0066980961524084493 0.086962895850647315 0.010417179266764278 -0.092151773044624311 -0.24560207936107828 -0.020811894997901752 -0.12839730369611746 0.093641213972735213 -0.19227318055406109 0.014309383165489506 0.09944486021056724 0.1432748503487927 0.032600081071867432 -0.37582448984783667 -0.020416651118832663 -0.24839522255149016 -0.062056579048510765 -0.14088949007425161 -0.021957741086429665 0.13944173045762248 -0.013521216673636734;-0.061709882660527821 0.12757977242182245 -0.054419378634417398 -0.17238550731079863 -0.10816299125779336 0.083824862214062421 0.089939808551839737 -0.01807134986183161 -0.067587188376038124 -0.081384882711359352 0.12247733132956806 -0.06086223461894353 -0.086583426179760198 -0.014937850484761789 -0.10125463416394682 -0.041868417780929874 -0.076481015881106743 0.072081764970283541 0.14791520845512987 0.15849685781053174 0.13487543808795233 -0.2099537774203151 -0.19507381903160009 0.0028327783932147349 -0.06394230544879026 -0.10852715414201798 0.14442652732034608 -0.19170927119290476 0.0066454678269571152 0.12664703892066959 -0.10787323127455788 -0.20263591448496834 0.24129721142740895 -0.058493475507731152 -0.093317401748135784 -0.22176739657542496 -0.13889103606188319 -0.06842075653289606 -0.021646119892943596 0.0082525041108340684 0.0065184144848408898 -0.036634526544274987 0.093779905109250369 0.18338537029445798 0.02570638038095599 -0.069328716623063863 -0.074647912407464934 0.21729665585505645 -0.086753078166486239 0.057576807714849861 -0.086214974224938609 -0.098789745482429511 0.039075682563259245 -0.074957084621710399 0.17218171447643832 0.062709111183207419 0.18609135128999113 -0.09005280700109157 -0.24813291288399489 -0.090734663266119828 -0.1534453854703246 -0.15030280759714479 -0.032184422285718085 -0.27462594683721836 -0.21632507481407115 0.096111179241538905 0.068747973806629128 0.28387645226173791 0.061999761122279645 0.11670261163945578 -0.036582387856333845 -0.26201892043738728 0.020644564590594248 0.17550965455942025 -0.12389898774620223 0.11147966849244959 -0.1080570936459342 0.0694030056362029 -0.036077629939894967 0.2785665320141909 0.09880521149629086 0.23124572446558062 0.083103945616925412 -0.2090950548120333 -0.29261548230508677 -0.25133506292512658 0.0014525422571181872 -0.18791163787419668 -0.0546897585737222 0.017656677072682751 -0.0023203998441273868 0.12521193019351867 0.060799263156078698 0.32532862434984761 0.20433225940790245 0.0047979267131595116 0.21861154066385954 -0.026223371171838879 -0.11819133145721372 0.12171125030219447 -0.090574273411933762 0.18471315745668643 -0.055950667321915282 -0.07707665479786642 0.14417444476959915 -0.13485471106493721 -0.21467923693260083 0.099443467218708267 0.15726952021694043 -0.024945312769003518 -0.12103156353076469 0.093196984913868519 -0.054679263185909627 -0.0096357773403959006 0.15677987114225822 0.080091368150964806 -0.11038851899468584 -0.17458424502016603 -0.12381536407457598 -0.018191136635917479 -0.14658715956759336 -0.13142876562341232 0.030432099370764628 -0.012287535031130456 0.21809995614242483 0.1396111302433222 -0.057603647124783254 -0.086336997036802351 -0.19011342375690823 0.063705649424098523 -0.15194892780829 0.22706539633443035 0.055230566751049127 0.0790317277451974 0.018279794231368912;0.077501906684237926 -0.14466304075654415 -0.063628161167927064 -0.029466121281872933 -0.036819060317775799 0.11592874530442786 -0.10545476116902154 0.15482384218723266 0.2013200020764048 0.12891440612539851 0.085823699529597341 0.059703579624129005 -0.1641859692889846 0.022141667671343679 0.17890285018610783 0.13485006356774731 -0.2228581927055481 -0.091244697512067485 -0.31745948767021814 0.17293285582255147 -0.088630344813131715 0.2025246318966627 0.099179011181403501 -0.023608971515125109 -0.047785923254576708 -0.087685925205348639 0.081654674125662741 -0.029466792930741566 0.19207850479682431 -0.097308548296221598 0.15693331352543416 0.11362205754301878 -0.045848375155483505 -0.094799152907080228 -0.062396666540713491 0.30133608204245022 0.22052801120251475 -0.043436994289920532 -0.04106644456002459 0.19970515483232076 -0.024567908430427641 0.017782030304589878 -0.12092709363765991 -0.034264317505142791 0.047744787063895684 0.01362985158467063 0.20433030673140623 0.001506092062915452 -0.0040716954574331436 -0.14877160335168355 -0.135523602507579 -0.031729590466796298 0.075358121240382742 0.026932547990914053 0.25931378443465536 0.24924431739023675 -0.19195629728746541 0.16228863506841043 -0.24965431017887893 -0.084763950199200064 -0.042595981217245955 0.068514648772736109 0.048560132424105701 -0.0042281260044361854 -0.046715044423835506 -0.14618821913518942 -0.27126499968665985 0.025732995442739104 0.13704286528508891 -0.029808231668397179 0.24457293630961022 -0.13881308705586287 0.1117208176618156 0.11868841736809486 0.013029930910115185 -0.10773490543649115 0.2003753307323051 -0.011591784665047304 0.0084906527735968233 0.16446256078128602 -0.0070633835986968997 -0.30996471046265794 0.046365604482098109 -0.020541974755036767 0.033774548371501421 0.10859463907089899 -0.023272566095169041 -0.10356823395976368 0.22191132405012576 0.0029960907758572104 -0.13880529738990835 -0.2380331920216546 0.10342700005999411 0.092174154889489698 0.062451274416289761 -0.087570704223527057 -0.10353456972217832 -0.21854091402968695 -0.11067136222914033 -0.10077648749800926 -0.33665615298376794 0.039373912903655904 -0.10180144303113411 -0.18814666025347945 -0.17295961031735943 0.12858388927070991 -0.2244251099861683 0.048007985214008189 0.070118173466135233 -0.072028017315024576 -0.037781735520645544 0.17451927528532896 -0.045244895803342594 -0.10400039469445123 -0.17179329182766828 -0.027922607838234165 -0.058901251078817704 -0.0037660999031114612 0.0095990403939063343 -0.13841006571093795 -0.077929405768684776 0.082376991165431609 0.013863641975594981 0.019411320441897993 0.17017083977353872 0.043623125569174734 0.025063972567561359 -0.077254952361496432 0.17228162990104459 -0.091969914248316742 -0.10051615598450937 -0.10434045355860287 0.13667493550887602 -0.047218722728721636 -0.19752401327317914;0.0099815188720727074 0.0079207337140061243 0.14772788343517348 -0.029492636729192032 -0.048119890033730323 0.071625706578934939 0.14430310281350564 0.053480802552095502 0.14514065171237997 0.042029052440653247 -0.12580082098130127 -0.065916838014937501 0.20788364464696879 0.082502348969175077 -0.03064923571042753 -0.0039038427390072523 0.044275874381970892 -0.28984444595839814 0.060714119181288717 -0.10353668612873376 0.054225500563947308 -0.1557643392193129 0.060489907029238087 0.50337460230478448 0.11090967947016991 0.23902406896351333 -0.25277051905010511 -0.085631211679485592 0.21268435227147264 -0.22785358114991847 -0.091784368475263042 0.0436344544613297 0.14113900423309511 0.13942580350683118 -0.42493317581622236 -0.57338104772737264 -0.031261593066567346 0.055995842312398798 0.13252951384002928 -0.15741023552180591 0.51358979854467179 -0.013657228700132503 -0.065343874016518741 -0.10990778337096141 0.21338562787742113 0.22164348305133805 -0.067087455961396175 -0.022341053980811983 0.25146289637333002 -0.27076586298757388 -0.28241836547506394 0.3670720991511921 -0.09732385075923454 -0.017531431670766557 0.095054185897438997 0.085945867984830657 -0.15843167045632317 0.15611916373264767 -0.044893106255111032 -0.19059591822128966 0.05647004099740012 0.071876257496117577 0.14612902124851315 -0.26395311566660778 -0.016241628755265664 -0.061220661789342337 0.28872451186175069 -0.28561589533382153 -0.27748898035780756 -0.097276794601378835 -0.3498299539922019 0.0058098652732101377 -0.075247435948480615 -0.12094180327585934 -0.16042550314846904 -0.031036234106316819 -0.010360171341160705 -0.17717345184242475 0.4550334206966839 -0.044293429173862364 -0.51199927436025894 0.27648445545476757 0.012307666722374209 0.10660388581122184 0.025316571279538937 -0.23506548840062158 0.069028616837949655 0.11346313092763295 -0.22623625783986392 0.14037888004630017 -0.052083354170228337 0.08694239567869988 -0.38718864079259474 0.33368078070728874 -0.14902286157935213 -0.12986357507623836 -0.47975424683310081 0.14638648129087323 0.16447552764305196 0.12802655057986079 0.25194793350493122 -0.32242252646134001 0.066736578996364121 0.20282463224093586 0.026070474445012492 -0.052911636576686578 -0.11458831639050719 -0.010437369842596456 -0.025597341966536 -0.00022198754074694385 0.015789903358012544 0.074341201554829331 -0.20106090902706186 -0.00050601199192200092 -0.19805309732151449 0.094946865915411044 0.076298580343727024 0.075555368555217356 0.19474589783236484 0.050337718266865991 0.072435483612942941 -0.10263926309213119 0.047999174464940529 -0.21941258218549295 0.01073394538280655 -0.15657549114150643 0.10099255311973462 0.0019137881944770781 -0.061271334493627073 -0.095063255304506572 -0.069043958905699684 0.12818837676135095 -0.21615476057084865 -0.080645921232319784 0.17978505337995651;-0.070041948123531692 0.0516183512774376 -0.0081763059331422718 -0.24172683076237503 0.26295279776182046 -0.048830330805948674 -0.012741747753181223 0.36044961883483984 -0.10492986323265029 -0.47146393506343132 0.20600481268529627 0.0015657103981453662 0.068642833769860537 -0.15986349039041187 -0.16856045029646355 -0.029827168784069394 0.10717457473747957 0.034724795607296209 -0.10825910421362531 -0.14569780794786075 -0.12769834530346322 0.42245997037801158 0.033026152461722975 -0.4873085482539059 -0.52027064748050966 -0.24299617849491054 0.23548736392782013 0.17178468286245255 0.015093287745647605 -0.1183895435304186 0.19449757953599695 -0.12489650862867623 0.14417877255860195 0.13974682990176701 0.2759864842074945 -0.0019711505298643473 -0.063369869001927814 -0.3126683206555107 0.029625176336246395 -0.074402525849875709 -0.13776632380089998 0.12968237893861648 -0.082455816397110943 0.33465901080977473 -0.169919543796965 -0.11665792626766829 -0.083497878099737105 0.47108966590257539 -0.20913055737302733 0.04384831436975381 0.13919093088431173 0.17906502270145294 0.026343752955560056 0.10336045802308437 0.092779293635461196 0.011436376290258937 0.19062144293877911 -0.088575497439973602 -0.022400782634179328 -0.12567507629438929 0.051999979078492152 0.10130740551386033 0.11638444241297009 0.13879549979689079 -0.038345984379794959 -0.21311665318616616 -0.17965391514249385 0.062537054105116646 0.28155094721443691 -0.019261849111499918 0.46288664881934327 0.20931644754315365 -0.010816811803828102 -0.10288463453138511 0.18550555089539908 -0.077848134904394559 -0.1878597199374949 0.28861901707696408 -0.20712146750546839 -0.2826650164807738 -0.071722926970028217 -0.15767774173827984 0.074420309540338583 -0.14597546983619181 -0.21393620567610855 0.26166970745508344 -0.10631689574026283 -0.065786148277404921 0.2268368406132677 0.19162901490903797 0.068184979492507555 -0.14076711062186223 0.48817395044264361 -0.3691655185287519 -0.17868829674342093 0.076388857692118492 0.038357206844470609 0.0014679308777275908 0.16276443017064957 0.034810871698231709 -0.2660969246911481 -0.11754166960397339 0.075131522611738707 -0.025113782139122992 -0.024269254497475856 0.075579902971756277 -0.014427244398810041 0.3230573741368582 0.094156436193677792 -0.056651817907628257 0.10457898328410681 0.13654788192897402 0.15641450643145566 -0.17092437546592909 -0.0060539931743560857 -0.20203448648669503 0.22107923473826097 0.19606626049250978 0.073597649355122807 -0.067411860498891835 0.17537556459776577 0.087812976804775067 -0.18307194391044321 0.30439322941877572 -0.18559705963611722 -0.1175790090658882 -0.059816273908564387 -0.016383335012951451 -0.0034339202193115355 -0.082153141224708737 0.14615483797879716 0.079052379252303448 0.11333153744062732 -0.065176831034167645 -0.033208100703594139;-0.06456378516759298 -0.0097966428550101004 0.34173897470151327 0.1080423348752915 0.091742999238576803 -0.044914999474676101 -0.42293437864489503 -0.21282857187643045 -0.2711786185812029 0.059217860857848123 0.23543444563046192 0.054480814425585569 0.0075343732809421008 0.090092446640999649 -0.18949769633391897 -0.061212151623207089 -0.16260487756720474 0.071041985181798356 0.2167618531706646 -0.08424736569240622 -0.014832759798833212 -0.41397805597185128 -0.0090778687231018104 -0.22369262135548731 -0.32498804508815204 0.30063299391138243 0.52133149053309014 0.084930323027151339 0.049838833764628034 0.038793574896712188 -0.11650914394340993 0.04869308834530589 -0.045053666611826422 -0.096898383604101176 -0.090576361527312382 -0.18144327489876119 0.16374621018110092 0.1382315938505505 -0.2442222987694917 -0.19657681924352155 -0.13893009184972971 0.2598260238354736 -0.035415762521170562 0.093967744884816712 -0.11682123571101123 -0.030697345690389684 0.056735800557955587 0.05904581391860169 -0.44939746275796766 -0.12221540490677765 0.17049362616839192 -0.10397150813176641 0.22768924464699861 -0.2169248111777155 0.054338618425308738 -0.11792980405409259 0.15265606593615069 0.17720845711765093 -0.11841412630171196 -0.093322018151459754 -0.040543932830709666 0.026850286036480372 -0.044872174666832305 -0.28755630169888191 -0.16424586711643507 -0.12832425617312099 0.29703806870151495 0.31881004646919808 -0.38586318664989483 -0.2912841578822421 -0.14446459307676854 -0.0067764230301170514 -0.24855010100758979 0.051120438987779161 0.20226438403625135 -0.019738442876746046 -0.016309511146722716 0.13767217870230047 -0.025556744124086608 0.14996611872065996 0.38083909164550755 -0.087814042711490667 0.17981824808357905 0.20861627513846445 0.013710866248311245 -0.10944658800216817 0.33261672204302334 -0.099897177444694757 -0.097046020245455125 -0.12320723166844701 0.12068749739890899 -0.15614540794091783 -0.13860995151070876 -0.15499233223070186 0.20680554062964404 0.27961985849181387 0.15555706936779387 0.20980369497870921 0.13298036154298731 0.27207156035801283 0.18222154364576801 0.066093217131101861 -0.21481701234218833 0.026822023729592956 -0.12440733615239297 -0.19326329989737259 0.10306955132240789 0.13830246217994485 -0.15458461457491257 -0.033331459146036677 0.04741305122030276 -0.16042254270325926 -0.17925847765198402 -0.19214450774817918 0.22538207491333395 0.22123456474923159 0.051207013555266127 -0.20091873176545255 -0.00072171503552678718 0.13494812430294986 -0.12656086707962808 -0.10502990982520337 -0.16573891129452073 -0.021307027503366466 0.10631981297261771 0.23709799626168512 0.033867507574014244 0.19040110433507043 0.15904905323645641 0.24101267052128186 0.037758304365357265 -0.09015463322796044 0.090197001657886258 -0.15784626197215826 0.010895135922604798;-0.055220986943279503 -0.037628937769043067 0.11436865686101946 0.11552587545191791 -0.10847577599730764 -0.10899729441514823 0.14995020713130425 0.18015302435102962 0.10912345186097483 0.038775109060221455 -0.0097450106411962299 0.041873713693576627 0.18783119860965833 -0.12213729422561896 0.13143731458805147 -0.13155500058081071 -0.053797815584431717 0.16002101509839159 0.084811110650530375 -0.11015791770456008 -0.18194947458314542 0.094593966742946511 -0.030731552306578088 0.0025479525738187278 0.014991703348942922 0.29281809681894161 0.35401023908850343 0.18383077592409061 -0.16451138097044399 -0.14601241998500705 0.24555502462303858 -0.10696033140305584 0.18184262195050033 0.032757070768999717 0.27236066023935235 0.31534107257858501 -0.10995863405152211 -0.14765673566283211 -0.062880350389676667 -0.22613804987886146 0.12461524513407743 0.37684067822536649 -0.21172983922371569 0.11916594393332711 0.10623398928072801 -0.2098191132781119 -0.071739924027828778 0.036389771445001468 0.20205823955412089 -0.026646650901396448 -0.18485353515553277 -0.045668666806971119 -0.22469146184564273 0.24185264943502849 -0.15234245868765658 -0.092777287834162961 -0.014778435436275288 -0.14895508591204054 0.17856612892108187 0.099995654036227608 0.13536945725575031 -0.20436801186886053 -0.089938498211978857 0.044896548534034575 0.0030466239461407443 -0.035761518070661441 -0.03710016303790882 -0.16805689796090292 -0.19593578782936466 -0.11512534225362178 0.1938065746578285 0.1092199353478264 0.048199700836134569 0.16588962657422759 0.12664309204388846 -0.16411184019528055 0.0488307728565179 -0.1899342693213206 -0.24841252920523507 0.29139790562560181 0.29893106103201017 -0.11921118758970906 -0.0088255477144352987 -0.071196960409713655 0.025990238192156439 -0.03310913745092061 0.028424512669606494 -0.1522172248132054 0.19455277515814851 0.16484362720257198 0.063928254493301931 -0.12368680869809909 -0.2632597617702897 -0.093873663357683407 0.31466174669745639 0.14515055692393555 0.00031577097856792975 -0.047554487420213509 0.093591934331136523 0.019345678339456832 -0.010690849436342534 0.21960220492780921 -0.0062235754424226552 -0.16169966027782731 0.046632235470570202 -0.16702935152603901 0.082593140202433885 0.10835779078115862 -0.18233523261888965 -0.038894808443414239 0.11479043686457205 0.24655679833266197 0.23489931551204374 0.1000342718014206 0.044984796023894692 0.09439485434143545 0.049164558023829609 0.041031425395007509 0.07385452150382521 0.074444478230345029 -0.17227803023010993 -0.097694914493453799 -0.20977865727971282 -0.068768716812742034 0.067291593541822237 0.074667407207152023 0.090336321656105389 -0.054591302420224842 -0.13370342441597644 0.070895581578661826 0.071058257403851202 0.025902062749900239 -0.096072858108674428 0.20180720779570627 0.12550463374556042;-0.15658237739653694 -0.12876084492312123 0.018088834422672319 -0.13224452799293637 -0.14484432897544094 0.090294352555918098 -0.277490928197347 -0.23847492654206967 -0.14001787831091092 0.090155138229474879 -0.15416459797888071 -0.10262538680086983 -0.0061790168415494767 0.092062785394016203 -0.07312367037566693 0.11261200971598878 -0.038922787478665143 -0.11371116711188732 0.15657771092927092 -0.040186891040859207 -0.19092940271018077 0.028220029805306093 -0.03168982999776937 -0.079205134373397837 -0.13941389252909639 -0.13727506251671009 0.011332628507844857 0.089478203652625446 0.15896043343547625 -0.011459313218235286 -0.092092784044871229 0.12769349620875911 0.30269398267229763 -0.12471998881402194 -0.2168135349049167 -0.1669844449000025 0.097759867004187581 0.26556804681832435 -0.38502703082752116 -0.375367211331396 0.093279739494294009 -0.055479739886311816 0.28164948177243687 0.071971673134775635 -0.08424377658553267 0.094756655394637693 -0.11443732424809229 -0.070212638874699806 -0.13651605437232184 -0.21965686395991246 0.18474640873719508 0.098274735327989485 0.45629962483582259 -0.27076573101562462 -0.10245753328537269 0.22664610941545682 0.19458392260982493 -0.13102033191944501 -0.030896339056307634 0.14465453285725474 -0.10931346347869042 -0.11074128417582924 0.16488823001624053 -0.12910974371434208 -0.13068778185689506 0.38207552409869633 0.34692153519624025 0.30390855425742336 -0.17007784427578776 0.16149945050092709 -0.038630357656123382 0.04575416869967578 0.14215137574406742 -0.074981478914830646 0.15439438581447512 -0.12712938330236087 0.13916614553608939 0.061532795809248829 0.4496856761839127 0.36878523802040175 0.20526894871045523 -0.093218431759741885 -0.11299213215042234 0.018900277982080542 -0.033423105601161629 -0.18685933181170294 -0.19924252518250754 -0.15181856411740705 0.073230989263843055 -0.098243333163624338 0.073931181597105544 0.055073136797550631 -0.042054898456127358 0.2897528686264364 0.0057630578754365273 0.17423068941523231 -0.043693768214091842 -0.078200603566751709 0.20792577903998288 0.19544783792207593 0.15479845541738163 -0.27056955127035992 0.16961766113602561 0.16521413746511485 0.041758217855305084 0.17794516501398353 0.095121132818361598 0.21838773143885148 0.24275785131966957 -0.023403385980984386 -0.33309562982037133 -0.02415946917629002 0.046221588998947606 -0.048384059821475194 0.045626598634072014 -0.25752021167892242 -0.12971638577143113 -0.062768464802983731 0.075362121288513786 -0.11383269126619038 -0.11242604934079686 -0.004423734662363803 0.33708271405898116 -0.08428544661707657 -0.023674960739019493 0.12264601723973263 0.14836298422478741 0.033285938608209054 -0.096137128648919504 0.038792402516283471 0.01978553773311887 0.018112973803177994 -0.033069874106218852 0.15122994453478492 -0.02943554827332158;0.10712507133412141 -0.080657061697830559 -0.098242588528455799 0.1709339198143551 0.14188990328936069 -0.16407067114843318 -0.03292189214178886 -0.18076668841393487 -0.1026050883843633 0.043830894265034975 0.22005532151101423 0.031155397676266166 -0.10380111411042198 0.17294667388628676 -0.16507447638817457 -0.15520747390212472 0.17204771110484623 0.12398830916525901 -0.10815501088857377 0.083517564147555512 -0.013009549358543556 0.11551164907632124 -0.023509938105366113 -0.057023317024180162 0.045361220181273088 0.093501625955833598 -0.12069042858821342 -0.18962480203682089 -0.01027279036344423 -0.12324655467241417 0.18858202611977115 -0.019343830609191051 -0.0086729067633487759 -0.14256974547261556 0.13546964991583338 0.078742376058123301 -0.12094903461572946 -0.035243144107968381 0.16860460677521663 -0.0049165296631031655 0.0087445739195216848 0.0098763443074434531 -0.078755862300081136 0.20686721928239443 0.20179133596729068 0.064348942999280401 -0.10784759831356162 0.068404428120095534 0.13250069894520294 -0.14848004551365868 0.16208458052992711 0.14039986263927182 -0.17152955736632378 -0.073746827546166988 0.16721585444763218 0.070128993732160291 0.2208169339147891 -0.12395250001148171 0.20419218502681033 0.18598757471769925 -0.021041500831729641 -0.098407250786381906 0.20072833183460667 -0.064649720103071892 -0.031704295056214207 -0.028680915166060493 -0.054432598088284663 0.21773880418444733 -0.13779195817797901 0.10333065340994561 0.12129000570540628 0.077733089660970409 0.07824260854084801 0.027990874823139247 -0.052253219929175199 -0.10960625942158815 0.16803736157358529 -0.016850798281479156 -0.09150944050091718 0.098866755655509772 -0.064805993413777047 0.047837034453800435 0.20233979970862126 -0.11324504478555551 0.17423544964136742 -0.04496808537808511 0.13062067726770504 -0.098282961183789028 -0.14278967916566238 0.18916401573260103 0.16993486034307259 -0.060324727307221299 -0.1540235041320501 -0.0082248798178975614 0.021445071088424021 -0.050741838321708928 -0.1622289437732789 0.16807163004691764 0.15491109904010394 0.12669683914207758 0.20057435579743887 0.010110259875383287 -0.066035937443703618 0.046946792774186778 0.10726646842399619 -0.065641933760217361 -0.17852721590754358 0.14626092380217798 -0.20036481768419953 -0.017884688135477108 0.12287075258954519 -0.040204819968061356 0.079147419938995378 0.19031259742400633 -0.1604709655430249 0.020135625109734951 0.094116393972592596 0.14324705600292617 0.030983449176881173 -0.16374224126229103 -0.0025343903071808559 0.12015043489743391 -0.18649830031500303 0.1815974640939669 0.14732290722424826 -0.16541753208868046 0.091161554395135583 -0.12690134026283423 0.16943037708509162 -0.1262095625694287 0.029940840892404709 -0.03403623234150225 -0.12685176340574386 0.21252335818762044 -0.018515697225198323;-0.14008137552348779 0.082053893429273508 0.30550086707393559 -0.20857839515868654 0.098564410555582363 0.15998283186597567 -0.14836773769562506 0.012227073259476442 0.22695967229069147 0.033690708691432258 0.031773418964090021 -0.10653906261913394 -0.054019908505711416 -0.019841850894046043 -0.060829372405386994 -0.23942974451032956 -0.050362118337076753 0.090476137712285368 -0.19815974001899966 0.1948158158585907 0.03526913697770663 -0.37678571221470519 0.2765238620819605 0.30920848892373409 0.28436030464752665 -0.21064655602935428 0.18163140935304772 -0.23280464653895835 -0.12732446863119612 0.14125736164894062 0.15867595299394735 -0.2318809043356726 0.021444676464002194 -0.0097865417634009841 0.29685757013975994 0.14114820501809552 0.11078989957555647 0.058788595879153915 0.12322736036048257 0.33324204585879802 0.14275549603029344 0.098278032747445038 -0.12344580230366742 -0.14734608738506991 -0.19327347727616237 -0.17986445399218054 0.1813488851014057 0.19396934955790957 -0.022650873733548793 0.09517512879046014 0.31326193510772626 -0.03294568123137142 0.18322611378908021 0.27113354470764273 0.0073207296234830913 0.31428800932543866 0.28046693711007564 -0.13424376845224034 0.095184862293453784 -0.023386200840578058 -0.31334705598990126 -0.11842822295350161 0.24359142698992059 0.0067494011075124646 -0.038271531063130665 0.21416912121439052 -0.29601916320437138 0.057205523711828465 0.12202364341119441 -0.066465584125948038 -0.10806347643042333 -0.12132098061439386 0.0011269020760574365 -0.089258975256691922 0.10096952177117112 0.1358145665154501 0.074209904847358663 -0.13501946517147487 0.13601879717494136 0.36321432933869308 0.19225692808408307 -0.15746827159819513 -0.056921539181222953 -0.010403676025091586 -0.28414009249432726 -0.16315021372671978 -0.14882541018923212 0.032626983745660157 -0.093349137258275719 0.019281122739365341 -0.33461389768959243 -0.2047946804097078 0.16241306917650122 0.084017031119207081 0.25966565200694974 0.058775986504241179 -0.10175966298146484 -0.04617730969954633 -0.26342079356728859 -0.04847206041185937 -0.052333657484606652 0.081345680676522522 -0.22404158010981301 -0.20502851510618883 -0.0052852567299955643 0.073632437073834697 -0.11675685764865854 0.22533134885212877 0.26569360024072974 0.03007287838841341 -0.017276752308728965 0.049518739989250229 -0.028462119805686373 -0.16851820322404282 0.096615140537261876 0.1626118964028804 -0.15726790982196823 0.099501000760457897 0.019370141996399075 0.102409395236253 0.070949560216717805 -0.13130067334022158 0.029835479516387032 -0.12891988099863236 0.04662886782128417 -0.060070094748360614 -0.24904202869510167 -0.15171843628659301 0.060589806382675117 0.00057211895066123369 0.15968981106428992 -0.0062666758567944299 -0.035051519721416263 -0.020364017321958024 0.1618557255296236;0.19597906394271797 0.22648522001243512 -0.36947952242722903 -0.27241461227785507 0.027968043430956217 0.15130368788902074 0.18629568677056776 0.30903939499719041 -0.10450258628527828 -0.38140936095511097 -0.016019025172161756 0.032711359068941563 0.15347002558391173 -0.11624682584561538 0.16549092515654878 -0.013214874108216023 -0.19524901086469651 0.17619054267721448 0.073968060556573331 -0.017690551769735011 -0.015650747636624409 0.51556104653741375 0.066775475758907216 -0.36044704080074663 -0.29378768861886534 -0.052859225298196352 0.13283714373484456 0.2160799196305011 0.084717242052296901 -0.081515882132500411 -0.016171779267265773 0.09387701080474653 0.047301325379361159 -0.067179301148931003 0.074450004396772809 0.39700728287579445 0.30277604506124939 -0.32122024506209218 0.11745294883845481 0.048478252276159886 -0.10865746348421454 0.017497834517305525 -0.10763127530941781 0.027266148201634668 -0.034422120333008212 -0.078757799830607975 0.008297744283081377 -0.15264999793157466 0.071826836519517864 -0.047095673910010974 -0.14916688773889639 -0.48078287512683771 -0.21690818049960567 0.16673171847521209 -0.070064632713813191 0.050812183003858716 0.011114589738280091 -0.0034349961593621746 0.025632341586886286 0.10376265582897452 -0.04269153190894738 0.099973509828567994 -0.0077530246459598809 -0.12999523487577372 -0.13978030243310366 -0.26135697484813009 -0.42992963236065568 0.062300938831882924 0.29371624924517725 -0.15779993007596455 0.29087317676223762 0.09955814874534287 0.12628540279277709 0.098946491409391157 -0.0017443301925813314 0.18112449554217164 -0.17028263989995293 -0.1435679470821753 -0.26483890807841076 -0.1023913496407801 0.083593076657615312 -0.12164114001194636 -0.24337464109662307 -0.003047003967032742 -0.10425178281838672 -0.21191791299746379 0.070392001118095432 -0.13380012344558531 -0.1177694778806594 -0.05926565026413453 -0.066905197451278584 0.13871207058533475 0.025297731798921905 -0.56236606884436391 -0.0034335759407797487 0.11595349995695642 0.13095088495066001 -0.15058493655199384 0.1240902669435834 -0.052286816224543523 -0.25655700457301295 0.34683085299330041 0.050999168280881864 -0.085492166159405109 0.066410555819226724 -0.15958340337600885 -0.057280480595266116 -0.014619157570474788 -0.096359932762664163 0.20932608260325986 0.11759893251834205 0.14872588307419465 -0.076373997372678304 0.031266234393264244 0.035762029532103029 0.11197309368435869 0.18684850074837764 0.053001847574445718 0.078310112636918477 0.18719284743581374 -0.0051061780727478506 0.1904684957521694 -0.23472895804214644 -0.085445175724754477 0.13481061436159494 0.030158676944343859 0.074457941885487378 -0.037666433232319059 -0.11281252350052444 -0.042224419426053338 -0.21500431493153657 -0.010820097628019276 0.18689619126278562 -0.088702354643326001 0.19463542171924347;-0.023999879915682493 -0.1606218593857302 0.30072644054378739 0.13022733291780592 0.12898456308807954 -0.21243498538004879 -0.16702587844136807 -0.34518124554966345 -0.10843238704157157 -0.077510397136720963 0.018123263934610102 -0.40177467811048378 -0.17703152551531087 -0.050818770276839911 0.11205162945637288 