function [Y,Xf,Af] = New_NN_for_BN_25Neurons(X,~,~)
%MYNEURALNETWORKFUNCTION neural network simulation function.
%
% Generated by Neural Network Toolbox function genFunction, 12-Jan-2018 22:01:43.
%
% [Y] = myNeuralNetworkFunction(X,~,~) takes these arguments:
%
%   X = 1xTS cell, 1 inputs over TS timesteps
%   Each X{1,ts} = 135xQ matrix, input #1 at timestep ts.
%
% and returns:
%   Y = 1xTS cell of 1 outputs over TS timesteps.
%   Each Y{1,ts} = 10xQ matrix, output #1 at timestep ts.
%
% where Q is number of samples (or series) and TS is the number of timesteps.

%#ok<*RPMT0>

% ===== NEURAL NETWORK CONSTANTS =====

% Input 1
x1_step1.xoffset = [0.690196078431373;0.235294117647059;0.0130266639527783;0.028619580704254;0.017338489721148;0.0105911602626441;0.0130266639527783;0.0117669373016411;0.00587020075235015;0.0117669373016411;0.022510075310401;0.00709524994157602;0.145098039215686;0.733775094043769;0.802831671076735;0.686274509803922;0.258823529411765;0.207843137254902;0.028619580704254;0.018962962962963;0.00709524994157602;0.00549562385507836;0.0206858598879767;0.0130266639527783;0.0254427030327702;0.0264740409043279;0.192156862745098;0.290196078431373;0.733775094043769;0.677834256809221;0.258823529411765;0.017338489721148;0.00897856782082306;0.00258573248599709;0.0111687360065133;0.018962962962963;0.00753857867637636;0.022510075310401;0.0206858598879767;0.0234610820875832;0.00847987576422341;0.015079991858335;0.0244385040444475;0.290196078431373;0.772728679014858;0.196078431372549;0.00753857867637636;0.00415653104763628;0.00446814573580297;0.00847987576422341;0.00587020075235015;0.00197619316854;0.00330925511304099;0.015079991858335;0.0130266639527783;0.00258573248599709;0.00162833299409729;0.00549562385507836;0.176470588235294;0.724245667201906;0.192156862745098;0.00709524994157602;0.00258573248599709;0.0136889130123407;0.01580954534832;0.008;0.000351719926725015;0.00626142283133938;0.00587020075235015;0.00709524994157602;0.015079991858335;0.00281375941380012;0.00385975228230469;0.156862745098039;0.792712063987456;0.137254901960784;0.00258573248599709;0.00237037037037037;0.00132389503283051;0.0206858598879767;0.00237037037037037;0.00385975228230469;0.00587020075235015;0.00626142283133938;0.00587020075235015;0.0136889130123407;0.00330925511304099;0.00357744758803175;0.152941176470588;0.802831671076735;0.172549019607843;0.00513733028774755;0.00281375941380012;0.0130266639527783;0.0181386043075439;0.0100338482182569;0.00549562385507836;0.00446814573580297;0.0100338482182569;0.00357744758803175;0.0111687360065133;0.00197619316854;0.000642166285968443;0.0862745098039216;0.743387746794219;0.215686274509804;0.0100338482182569;0.00330925511304099;0.00897856782082306;0.028619580704254;0.0130266639527783;0.00587020075235015;0.0111687360065133;0.00357744758803175;0.0111687360065133;0.00587020075235015;0.01580954534832;0.00197619316854;0.125490196078431;0.792712063987456;0.250980392156863;0.01580954534832;0.0105911602626441;0.0100338482182569;0.017338489721148;0.0105911602626441;0.00897856782082306;0.0117669373016411;0.00587020075235015;0.0100338482182569;0.0254427030327702;0.00709524994157602;0.00305481300555593;0.145098039215686;0.823328523720138];
x1_step1.gain = [4.95273186044746;2.32559090319282;1.85366939988261;1.88294146727264;1.85532773709257;1.8682016148276;1.84797990991704;1.84480426889574;1.84183399708816;1.85642445460532;1.87040299704176;1.83046995872066;2.10436680732295;5.5732072987765;6.84214786038716;4.88400025936023;2.38615423773311;2.26578127765156;1.86915635314957;1.88037961821719;1.84451918730575;1.83703122557556;1.86292816176039;1.85165843695827;1.87242908286887;1.8709018688906;2.21289089506704;2.47873584457041;5.53086162502396;4.86317215727571;2.39287693791496;1.86844906930146;1.84740923190497;1.8329721009001;1.841261730815;1.88543891748918;1.85323083597181;1.87754311024362;1.86709713861798;1.88678760501827;1.86473048852855;1.85360687854274;1.86405617792028;2.48357355996632;6.13111352151897;2.23534884142;1.84424223916364;1.83912658429251;1.83507181316191;1.85430671199484;1.84848266614025;1.8383725391533;1.84629019396165;1.85796302462388;1.85745714434735;1.83258710608736;1.82785976985536;1.83227925147353;2.16840916748772;5.37370791331633;2.21933796420824;1.83617889478313;1.85593023921657;1.85632107422962;1.86405735275763;1.84543916956442;1.84124294851869;1.84149588512698;1.84921338879107;1.83898384248558;1.85186893375914;1.83426691453443;1.84068786733913;2.12488839852153;6.64676156670347;2.08884781128504;1.82930952260154;1.86429610935801;1.83090242442243;1.8713330986558;1.83152348528201;1.84459357645564;1.85061783201726;1.84419505552047;1.84330277587138;1.86227885832067;1.84405812255631;1.83991749773403;2.11647281547843;6.75889728396028;2.16635770430614;1.82814057447932;1.92165401478832;1.86214447064609;1.87135988125458;1.84406950217784;1.84817150951537;1.84173824423733;1.86617204297122;1.85436045122951;1.84430080920377;1.83786206291982;1.84040639742154;1.99402539300994;5.67994991764946;2.28066942249804;1.84436734034812;1.83856575467319;1.87631736147538;1.8704890927323;1.84695389303463;1.86429402678565;1.85847724797049;1.84970895239083;1.84583996322366;1.84502975384271;1.86281220115479;1.82808179347229;2.06197471422791;6.62467213555974;2.37097482143847;1.8621999511364;1.84577501796725;1.84638368323236;1.86455661888145;1.84344249602818;1.85096798751312;1.86373137792573;1.84048851302378;1.85027732363952;1.86954783514141;1.83026399903744;1.82535836828908;2.10435431348757;7.27393104034087];
x1_step1.ymin = -1;

% Layer 1
b1 = [1.4199573686711795;-1.4658806927323018;0.97038094258701202;1.1715958333386003;0.9759123771685948;0.75819288001821006;-0.74854780887393757;0.83887847101909851;0.58735127193715098;0.29466728617921051;-0.25514941869233926;-0.26761589080323817;0.088850106263496278;0.039176061750115926;0.17019515415012554;-0.24555323583203922;0.22385411148420481;-0.46695106214495197;0.96856266557184656;-0.8776011518783241;0.97097807894648458;-0.9252239238415062;1.2458609162942214;1.350705217949695;-1.4922829729480258];
IW1_1 = [0.015916043549234433 0.079052561802048366 0.089776810323654893 0.15749224563600073 0.17597026910056715 -0.17424679637218524 -0.0047442422564887687 -0.18304591450124949 0.15605724638410981 -0.19158965906266054 0.018331580935890313 0.15398271294334798 -0.44399218582351341 -0.088259898545088311 -0.015654990418170159 0.027860166492124687 -0.26073900177506693 0.086782169104321308 0.58219077093140703 -0.11628258700311457 0.018701171490887437 0.46309128976443331 0.55133951017601268 0.13750533611207549 -0.11157063646019659 -0.15518860917108568 -0.14550964107237854 0.27898323237476436 0.17900914124555647 -0.063531613658127289 0.076712092619333094 -0.41370135923089713 0.063439292331842673 -0.21216871431356199 -0.083052566225163826 0.34438339985654376 0.57161770883322882 0.53454254236404908 0.38186091545468809 0.49872935369812882 -0.13342253504858403 -0.31608141432534975 -0.0029301156232363597 -0.169316598673942 -0.13025900045422278 -0.14987639183535148 -0.41655085138185138 -0.11166083972765364 0.17366644832723385 0.42615866121965457 0.50116725489106717 0.12025845825056776 0.056606377718213918 0.48764611621164572 0.5461616319655318 -0.23747683020940485 -0.18460154932954936 -0.3670156903929303 -0.26650156416588533 -0.20126578326390931 -0.27689091213955275 -0.60947297575074588 -0.32716820069510238 0.24415142328662559 -0.025014699076024115 0.29543543171369419 -0.08877322738348048 -0.37200987081195197 -0.17388703378247677 0.17398610678042292 -0.019400658739160678 -0.042637934617744754 -0.61551177054577666 -0.44902535313977249 0.10194166219248896 -0.37904440280578006 -0.52910350718415255 -0.056680763050220268 -0.0058060939857426594 0.64480739046098867 0.078400292055570267 -0.099146216765428397 -0.51150096039323456 -0.59523576880447193 -0.0053997599610601348 -0.13973381445229752 -0.0062136326169221654 0.011885982140884221 -0.2590455416828974 -0.18724372536092465 -0.25255495320332377 -0.55845157607596063 -0.42063657999512927 0.18901062911448777 0.23025717489430811 0.018357720471193092 0.22324378381301141 0.19053612184014029 -0.26444106866357192 0.13984703672443496 0.19386382169526439 -0.036074504400402926 0.19484636331177113 -0.035297125817200549 0.01369461867361272 0.14499691289451461 -0.25750032209626039 -0.29385899160469919 0.11443777275933251 -0.047386141519453286 -0.30359429974789504 0.15104653030555551 -0.037451970200205326 -0.06430529220197484 -0.2678565679943678 0.54790272476556701 0.13982596778985262 -0.10416975667536099 0.049124347970614317 0.35659026744240746 -0.13213478499897449 -0.15168525983828215 -0.33702539346547494 0.12582498771734335 -0.15323174113220744 -0.031144222095276661 0.28650183580107114 -0.042658351289666559 -0.39375799135291628 0.10559264824367461 0.10024572330974806 0.32704162240872997 -0.11113921300576786 -0.023862164390925863 0.31260552962843835;0.038897783163485689 -0.30317028613031188 -0.093148118740418132 -0.18614513616830602 -0.04887504557660368 0.12896643525465665 -0.027863817009024742 -0.11293396315768925 0.024435808968800952 0.058084217292127475 -0.043346690603166961 -0.05726769202098056 -0.055074141569063498 0.019301962326051178 0.15660224745955678 0.067736097857157521 -0.26837471932066598 0.098328708891854841 -0.10922050877061797 0.081151680190526918 0.0341704575716077 0.0240505559453544 0.10652663900698416 -0.0063686414587535408 -0.28656786448123039 0.0095089520110466889 -0.034870924485046334 -0.019875280282301525 -0.097214918993439162 -0.12109191057173542 -0.1106617614521076 -0.16042531438614346 0.030818908600551701 0.027932279022202484 0.10013273744301605 0.050767732328567176 -0.26803988436103571 -0.047225801104506165 -0.16572090751392424 -0.066551315040087156 -0.16901048724369447 -0.19937417049416767 -0.0019787135125510376 -0.10157977287263432 -0.11938226385697262 -0.17015022312105135 0.044333507741488726 0.10932199179500078 0.14273056787075131 -0.043881295601878118 -0.13452412742630523 -0.12638834774949859 -0.033445044305032583 -0.2571996699857807 -0.11918013985037922 -0.073739503107182705 0.046222602455879933 0.10413145648113747 0.096697730829194709 -0.20459845666875298 -0.031385345292043412 0.10180264653263241 0.08185127208797438 0.13998865882398173 -0.22052876394862653 0.026075627307197431 -0.058062490539023848 0.057806428795186521 -0.15557448487715045 -0.17792313212216632 0.044938171475134084 0.0093431931642738979 0.12809216046211319 0.094212168673158292 -0.14028306189068554 -0.17676506338492856 0.010120238192664721 -0.13984376768455739 0.10577868492249838 -0.20315696196883573 0.046211114894044975 0.18237146974739549 -0.071063732435694679 -0.14716057633685961 -0.020468485471091504 -0.036530161299270857 -0.057177625342912285 -0.18651192031276728 -0.17360590728207304 0.15683523879300781 -0.22581159130936801 -0.081009047792825611 -0.12709108777639619 0.070887541448678412 -0.0059908086665810016 -0.2544753398346829 -0.10309098930707694 -0.19614042666654707 0.0065706468843795638 0.05664638922001336 -0.15599964739298317 -0.025500728888818654 -0.17374250848861178 0.069893186065951449 -0.2373216554169906 -0.25536401570311434 -0.13527382357330683 0.042147416114245322 -0.11716154521369355 -0.13994223295740404 -0.12591884520666208 0.17085345328410464 -0.18263225233543218 -0.26917490679080747 -0.046224735510770214 -0.011790238970333574 -0.051463481099178643 0.13746428663916446 -0.14163246035168783 -0.1366167587577565 0.072325056473803231 0.09444616096454593 -0.24244450862615768 -0.039235172531939706 -0.16566524585032125 -0.22272888311037026 0.090351668584638944 -0.1393881901418477 -0.14134490593885957 0.041294839223652534 0.12869662504596691 -0.14458337357420137 -0.21314899072953478 -0.071597725314752766 -0.064574948906041679;-0.1963150795920639 0.080830940997631065 0.040698593097376286 -0.045687145231320891 -0.25003771430621813 -0.30302874875886926 -0.40272815593423489 -0.056512046295952481 -0.16809775330535731 -0.12779744433761747 -0.15686515776368076 0.079013879378849489 0.12903944686304711 0.29719294724392076 0.070271383852264779 0.26076819119078082 0.22659088039196301 0.051917587942046879 -0.37708596932316102 -0.25443883223501318 -0.38273457247955123 -0.3011286161527687 -0.062998130468327723 -0.21067700762270636 -0.1097754877860788 0.26019669134663787 0.19263613389484457 -0.033628164193752419 0.077932396163089918 0.16963991493556482 -0.10904261789597743 -0.030868903091361269 -0.041168395032153443 -0.22656867622641721 -0.39857165727665805 -0.51988392128816208 -0.044337087387709945 0.051745482572224541 -0.14783524622501387 -0.45878343462047966 -0.039960546415592907 -0.093175459735244257 -0.087409316956978136 -0.22559818366309914 -0.16371580451047568 0.082539236426379753 0.034754654495690977 -0.02667263093947362 0.17006645074099036 -0.16387761163296763 -0.42121187708665281 -0.0014681615239660918 -0.18137290201382805 -0.20005864968172712 0.11265236087264506 0.19567830146271606 0.18408882928451145 0.090512922612203561 -0.21807831347734766 0.023199651737782004 -0.27688126353281478 -0.034555040076139312 0.018497034665775021 -0.022408259559517491 -0.34591844534491256 0.29328777327216027 0.014090298627380194 -0.13802933121565947 -0.26889757589460273 0.12052832803876408 0.12180021766728323 -0.067370916307641054 0.33314318115093211 -0.1020215002724412 0.077463114773251296 -0.16953136355578871 0.095110227459309568 -0.071026723956917254 -0.14082451034269663 -0.20130703767388219 0.71953285210120843 -0.24747860374898314 -0.4709239544557775 -0.016878137560070609 0.0041671982045047625 -0.15205544436106891 -0.25400179926530825 0.087600758074676544 -0.27119428700649595 0.15930451243847732 0.2904789162072034 0.28480825357274003 0.43431265946978237 0.039525519616469211 -0.31645517200948975 0.45135747547084892 0.81184849130581704 0.14585155373499897 0.11509461737161185 0.40386520198686932 0.15342692535027566 -0.068044093196897137 -0.26711736674606618 0.075622665286891322 -0.17262866874370056 0.36205933492489017 0.81120124138525451 0.58831807824620896 -0.078067184704585138 -0.22016111326736021 0.089065558351362525 0.21890571173700807 0.15317065003241448 0.36062618022635501 0.18337475589177935 -0.14621719679544901 0.13299171585432934 -0.091584786042121988 -0.16605113629259199 0.16438230760643355 -0.0065483715025276609 0.23772752737733518 0.6059217410605503 0.088842937214154802 -0.19097322059724339 -0.70946706723890585 -0.098338310508560761 0.16245360669297301 0.023048717394748026 0.051518421793026008 0.28028206361932184 0.04780903809880125 0.070038026526787173 -0.021834422350944876 -0.13075764356431344;-0.11335172965264394 -0.092643880430686318 0.20460295377209767 0.10489086154166892 -0.0078076322506964802 -0.12004534321644408 -0.011512302956891507 -0.015412376336526814 -0.13367180896738187 0.070433337215054265 0.13262240615332557 0.11342392233591951 0.017867795624261669 -0.17107114410220203 0.10558980923545629 -0.0015310341433678416 0.14834487154794906 -0.013639226694047324 -0.097853679388632611 0.20274496970189373 0.04601303671349119 0.087172720364285666 0.2531143172415774 0.023818115212970517 -0.010424883533112234 0.15017316289225202 0.06667027248470217 0.21800599551610375 -0.075060727140863925 -0.031339246388418181 -0.085411809295330043 -0.047611712700345116 0.11039904437105368 -0.070951303391620271 -0.13389866166776265 -0.11622838912951114 0.021017889860442427 0.20219257209914998 0.023419830368815963 0.10468260992061033 -0.01215317230273587 0.12262933913990895 0.19662990993114962 0.20066872791667525 0.16045094719347086 0.08212200229736448 -0.058935528784056314 -0.20434506569389438 0.14205287023328547 -0.10903743669615776 -0.13668217438598812 0.030410907617766977 0.13009978258014554 -0.043009743077023467 -0.16266546906533677 0.0084229246606525206 -0.18892070128000393 0.055355955724221896 0.15074900263146662 0.015591808425628389 0.17815484776022791 0.21025950319259107 0.18069896935531882 0.16441275093112792 0.020154003975512858 -0.14306878952412175 0.068812843561780176 0.012790937847239829 0.14682891525701952 -0.12043999647277345 -0.059739213739341331 -0.057800019776472138 0.010952933943059958 -0.06992570634312964 0.015723706066091699 -0.027850560424556543 0.070516576622476013 0.13764923056118131 -0.10290655112018851 0.21658645316289366 0.24364665260960086 -0.13251024555498761 0.037636194149094838 0.15418111939917223 0.15378710832309053 0.098962774265874284 0.061530053683897051 0.078708272799384707 -0.019989558477377829 -0.014906759021624938 0.24125518259828169 0.19165091196816753 -0.14939859374998588 -0.17304087829189743 -0.11981772011133603 -0.12069850944156015 -0.18669667436603146 0.11963885549523112 -0.029897425573120171 0.16743893095625179 0.050236923674606297 -0.0023489296445885484 0.034654095951461891 0.20131703229877856 0.020148098925633191 0.16856809254134184 0.17487722613592757 -0.11547241129226858 -0.020813020506975699 0.19556334818100915 0.15205669422745743 0.085883977552220256 0.08546485852656821 0.0027545046512090932 -0.033487863709537824 0.1368249385689092 0.065243368274802815 0.22319276779425434 0.27079802708916739 -0.14877475537553489 0.2373853406116726 -0.030283489074530327 -0.015633004236490559 0.22742164239427445 -0.028194536920525936 -0.025639328291151776 -0.13932878613521446 0.21126591773143161 0.12094520987220475 -0.069835605683763666 0.19926264809099548 -0.040370802942586881 0.056896290058002119 0.067181596123586568 -0.13739230982086745;-0.026821509666504439 0.13394276299525715 0.025563298957913851 -0.12967942332916274 -0.1833708934304327 0.11412031775573134 -0.13205384509700124 0.0089647790091073078 0.040193449471963336 0.13211483413793032 -0.10337203097770604 0.11300761304623499 -0.15308810994097971 -0.021289856753862468 0.10385991168859943 0.17059149915376068 0.24904821089914098 0.16844773687493508 -0.28028719557023335 0.096889716253759361 0.13647605057230558 0.21559031509655929 0.35807524393208001 0.13885506592686511 0.092465815146899749 -0.093693329334064032 -0.16419167716727417 0.15718878234552511 0.015805940901641665 0.082681295959775122 -0.066025784895779191 0.079856685664405555 -0.053246444510465146 0.12364035624159904 -0.015406368823443097 -0.062006630513073521 0.15254732130125234 0.27471170844530735 0.24622705937797301 0.13244449793693008 0.044856036109542918 -0.11364599971684247 0.19331529273143155 0.095407136042335111 0.066942902797430301 0.091124660289351844 0.029552534686977872 0.12744917185904917 -0.17485433281682553 -0.083990072652911724 0.0070897489784216431 0.11228138790147592 -0.048898940359636933 -0.16835052013676127 0.074270022712767739 -0.0084526073066376415 0.12492255998115882 0.04208085393372675 -0.038185712806856079 -0.36425513267936027 0.024065803947313422 0.18015766714735093 -0.05076058951604065 -0.04570877641051066 -0.086115927797494871 0.18129393463730331 -0.070246124916453906 -0.062400348535664757 -0.06145957222090067 -0.11700513876350514 0.21545014355792982 -0.17185734426872332 0.01187671080143651 0.13661665366638517 -0.20653635256255215 -0.24967675766578631 0.07219087813329722 0.016182317419183589 -0.13028210365041193 0.013076663764748728 0.33083669737747307 -0.085627107590949381 -0.13260004819880722 -0.15071942297510024 -0.11141948217360717 0.089628934390782788 -0.042200620007488893 0.05565507991375751 0.12270123564674436 0.013673100283624331 0.021849146286962572 0.029156678100948168 0.051278486838967956 0.32002781472803765 0.1317471268994726 0.042024052879221868 0.06884751402531783 0.14646192391587118 -0.24550962634414672 -0.12144029329127304 -0.12701702860881542 0.22741360588062973 0.21126776004192818 0.024305905423849042 0.25760525694764641 -0.097509045994565613 0.037280347599276779 0.16814509818081644 0.13301716866264013 -0.39928441016435912 -0.22094004669702419 0.23164252394437088 0.2066045915715152 -0.27040944478284995 -0.050482674787666659 0.16556276050658927 0.079563257804148732 -0.28459704557744014 0.0066417883145435536 -0.089698715523866754 -0.1593402546274566 -0.10027201114856765 -0.14441171618779416 -0.071495871966166899 -0.085022210250195573 -0.051237121432667475 -0.032123992598361822 0.15888994198572431 0.1404538303086032 -0.043998345394846462 -0.032393661974808641 0.22104814623528918 -0.080292347178106946 0.074903417069270728 0.0096798348627298719;-0.038566829809818307 -0.2515945970035513 -0.044032006768378033 -0.02726694120224625 -0.25367622298472198 -0.051103748240513634 0.1531004854955581 -0.1335450580645717 -0.14640326215468805 -0.18088421018550255 0.024679819841321827 -0.29749177250566933 -0.28357231399035215 -0.20699207237752629 -0.24651115194770354 -0.23002161398043855 -0.10037214280806347 -0.071734765409944001 -0.1528911163958793 0.085936713521911762 -0.20147925436601422 -0.055679203121739733 -0.2827002745461954 -0.0018173577215958594 -0.10243977003990133 -0.023114585485149376 0.10945777790400822 -0.061813272862215857 -0.11705455418120607 -0.22340746956631582 -0.055930010853279553 -0.045574280595325992 -0.057679528047983541 -0.049485139649325549 -0.061572056684663326 0.072158807001828154 -0.20639101317499817 -0.17505811937345658 0.1896780394969507 -0.071510503410086648 -0.10067122318807223 0.18517363756735178 -0.11424430883970858 -0.016191354011956208 0.1438951888553659 -0.30697544144133709 0.02975160579768556 -0.18470110320124503 0.048483100452658003 0.020692181827989192 -0.032500829725988445 -0.22296898483646946 -0.21051010339314791 -0.00016882368670705886 -0.080623669963940728 0.011080618560036138 -0.10965977588990437 -0.03823875565301274 0.00018642574910395296 -0.13209770825603742 -0.075174295813578901 -0.19860613449844991 0.17619505624380943 -0.20380502496993058 0.01103984950930296 0.0085748664534972541 -0.079443947318363087 -0.069718438112848016 -0.1491419459781203 0.16931740099224923 0.16633039030038588 0.03276689131612591 0.15651156133830185 -0.20900078330309965 -0.20773103738100954 -0.040448843593577359 -0.098323940902360574 -0.11806946556598219 0.11338699873693781 -0.21764731289716416 -0.13831568492711019 0.2052217328265554 -0.18232450782162618 -0.17214463718135922 -0.21547521014480761 0.074981890343820842 -0.039478901949582659 0.18413216302351712 -0.21389022443404607 -0.15735296758992665 -0.081012961990641522 -0.09955838442933844 -0.035564148036820141 -0.19570790884884734 -0.024624162386930229 0.090966998460660253 0.016176239542669741 -0.23755940916311316 0.1070318372874947 -0.1912709022519109 -0.054051895307798158 0.0041275353720910367 -0.081114484011501384 -0.15555037879517863 -0.18072796682669412 -0.12116155021155162 0.15308713718623398 0.1044600334904543 0.15710844473367236 -0.078867057452276831 0.052641044006191941 -0.34256808395431571 -0.085467525243827391 0.020017836365226537 -0.014278928173625747 0.18378794639522214 0.13861713622838764 0.14699179464375414 -0.24848324968392274 0.10300230054251582 -0.0033952555274383198 0.10742592491053229 -0.23454220094339359 -0.12278445542675463 -0.10537659143294517 -0.055356060441550836 -0.12832981734079016 -0.070788059906954443 0.024256594439088605 0.13154055408343673 0.10970971037297085 -0.14610734438997225 -0.21754939365132248 -0.29401416164956123 0.041448620434853894;0.060534693236458242 0.13076557846523815 -0.16034956494445321 -0.044557802429558958 0.09059289946159077 -0.15516583329530237 0.12076116591114429 0.0069169016224176864 -0.17360620292689335 -0.039842413035665838 -0.050287410736063395 -0.17341897788751343 -0.16488396308985659 0.15948862006045419 -0.15231787048037773 0.17163643981866264 -0.061958802021971536 0.15921500848320636 -0.13591804720721395 -0.12876929070853382 -0.18144402919539462 -0.10044478692283412 0.10368156459485489 -0.14759173874966836 0.063132452708931336 -0.13355175731087585 -0.1470662664007692 -0.17145620438148521 -0.20027272803793536 0.11717248504677681 0.013823510171582657 0.18196226780162339 0.078996951273322735 -0.18682170793901512 -0.018501387801633472 -0.20871761588988599 0.0071462998529278551 0.11336075157488167 0.096542282203165616 -0.28877498478740432 0.11432434612818926 0.047980713117362454 0.099985495331039967 -0.15839774727850403 -0.062420451169700415 -0.1771575473932063 -0.039462272734140234 -0.12115926485001505 -0.14787356566131432 0.15245167194898451 -0.031860852740475905 0.0047863181433665429 0.0025379597385129992 -0.058926079343529926 -0.20536601513954103 0.20685990903432511 0.11182083333602505 0.07624174903542337 -0.2025750136954072 0.12043358230071859 0.11356262488099439 0.16035077478897922 0.043182263804428453 0.22224613430140763 0.1704788405445791 0.15429200987557221 0.045181425286788736 0.00065820166852150147 0.20442691895070256 0.013708577589643674 0.10127708874707581 0.20883045156903465 -0.31908055542234737 -0.16275535380857573 0.055422990861284202 -0.10311417971577592 0.069140214330797756 0.00056916743341143313 0.16209430741969827 -0.10765288717997248 0.1129521008970579 -0.16710517671596919 -0.1547281244766133 0.00050309512110626353 -0.10868594370986594 0.096784099459132883 -0.075955233073373998 -0.14369870457159239 -0.011150168044893306 -0.085277011705362338 -0.044828829333664368 0.028715257043180991 -0.015055785310975693 -0.16264411358124709 -0.015258799573181428 -0.17630069688044331 -0.15802931020283323 -0.16090183811386541 -0.16066155097368012 -2.7486156009613852e-05 -0.0035885018700965426 0.023362793677811557 -0.16847565032860806 -0.14029215878261511 -0.23549247992610928 0.11352747898463086 -0.053450161594673702 0.011598858436699177 0.0049680497358238606 -0.051266258431118233 -0.19759177564042174 -0.25750387637600508 0.20399432345954052 0.09599804663142443 -0.10635454369549333 0.02288007352201769 -0.1167863543313358 -0.10123185491124 -0.10938234671732217 -0.1694013573491242 -0.2538326744125321 0.12921407781086644 -0.26452250126643745 0.18838610839559494 -0.2038495095576067 -0.039160540712257538 0.13454017814624905 0.13067062808378907 -0.035739285117005727 -0.23793576444479581 -0.07401955837706288 -0.079218257232312086 -0.19415999838628603 -0.10964393675017761 -0.19523056749163509;0.040367355853922371 0.22276300185281189 0.28098200242498439 -0.16001277485430915 -0.24536133371887392 -0.10537653591113016 -0.15006355328952489 0.16380185170415315 -0.19582999953701416 0.15941374947146736 0.08844790526937249 -0.022389570104041065 -0.1024399776744717 0.027363927427107363 -0.07276103504384028 0.19544248995641261 0.036928457795747827 -0.067123577336223011 -0.077008794702573616 0.0012240513409948681 -0.038210606125296864 0.15495081389130819 -0.030099525939978111 -0.023303640634710861 -0.16899206640122638 -0.26524862615159639 -0.47797604568181229 -0.039151024777544674 0.30747820159118378 0.27031139631742851 0.15803706038236098 -0.046404375822212802 -0.14267552850285026 0.13868219296539946 0.068360485209178035 0.13289668919458289 -0.084826035994598856 -0.39012773921603355 -0.62494185555877912 -0.3656206104822764 0.096629000484476521 -0.29058480060203767 -0.11195359102810054 0.21827365099758728 0.11964621095776019 0.36684858864669861 -0.12529095297211562 -0.2312886545416013 0.15935485983690334 -0.069146129419364044 0.16940989927838554 0.27169011302872903 0.22139100677281115 -0.51041256679122737 -0.42430327620794939 0.023289439283686195 -0.11485579779053345 -0.26390653482460175 -0.02337739300231155 0.023177568636432947 0.24369913007111385 0.068257524680554585 -0.093003932804318817 0.023895660147355152 0.37549975303501865 0.42893112260366145 0.24918418116945562 -0.1602106287221805 -0.01130776149838761 -0.082227140086259545 -0.15852647414001489 -0.22263354356233325 0.057725955910203484 -0.0068954842899983555 0.13809576445033772 0.023957532082975744 -0.33500587805129806 -0.090070284302504994 -0.081150961572439631 0.41139607601105121 0.23299237401698206 0.16916694808006849 -0.28765676086490616 0.02817250946468328 0.30863632562817422 0.19373042309845209 -0.11354528424307862 0.12334178685334424 0.10675554329149797 -0.069276185271252719 0.19965076345514543 -0.37663426289912472 0.17876721381776148 0.063759683711555229 0.035587035307781942 -0.094934383418391888 0.27386168955118401 0.082774056663389578 0.050803235384906394 -0.11289591083582166 -0.21932484029908753 -0.30112494905655574 -0.22929238699744689 0.21390542388418071 0.21164738325926219 0.092239037353013226 -0.21110112210877804 -0.059148439989832727 -0.0090220017427470236 -0.16582863500673467 0.19963321379993337 0.16042717176710486 0.04594112314758738 -0.29919816447715292 -0.25556014662749393 0.16013600773064254 -0.052516223227839921 -0.14198430368752368 -0.016428485625126971 -0.10905625548394894 0.11287637541848894 0.053086002593210765 -0.077654849290945516 -0.09332450058418594 -8.0252240172029241e-05 0.15971787012955624 0.24710423529095538 0.026181413527608301 -0.11117890220934185 -0.057210405556925602 -0.10626487439041568 -0.12773452101420585 -0.034598573028606715 0.21410977930817759 -0.13940864417002932;-0.12643053686387173 0.15548807772858303 -0.017486604029396322 0.14741503205225986 0.22102175549054306 0.096128409789593208 -0.1019567801295178 0.18413240868787367 0.01940117975317646 -0.10220420121216818 0.10452378859843474 0.22553026796243147 0.22046006798113987 0.24650373788027244 0.24682653391810425 -0.021528012189037597 0.14182379422524974 -0.013706071956214691 -0.062395093587206997 0.29249320637915838 -0.031791147287104964 0.02780763541613784 0.11015697795258381 0.27389350774170435 -0.07889306185119567 0.10873330527417628 0.23954020723594516 0.19825918677055995 0.0027793096083582364 -0.082486939560891578 -0.06313923504524066 -0.045322364000227398 -0.08591178593683961 0.079814995486255189 -0.03964479517660089 -0.082866601767451198 0.087257928922035641 0.21679761269920209 0.047415066669452589 0.20238596336701725 -0.098850879928170474 -0.094879500181890286 -0.10105898935714522 0.27431387965810272 -0.064578265719964167 0.26801745513437503 -0.15828401563008018 0.052312981815586565 0.031709429992375644 0.21948686014977656 0.064231269740386579 0.12384952105444079 0.028044102085016731 0.212538249933555 0.21961824657581652 0.10171260229377188 -0.14834134793181356 -0.1184700527959596 0.027100749052147603 -0.030783152502443099 0.10638831339512833 0.11429630883612454 0.074913832344371351 -0.073523189999626662 0.115908234733108 0.10303682163233738 0.0063235506523148339 0.0007735762496927387 -0.0096327988534807736 0.039629667194123037 0.17095124103887824 -0.073539928698713161 -0.0090501598369829815 0.10440294295347953 0.1047868602965918 -0.082278240014448029 0.11091390823164597 0.13659125255453428 -0.016729676209244679 -0.064432011268358916 -0.041177292389958278 0.041592865024075908 0.055142950603106193 -0.11197450663895113 -0.056513860466783826 -0.13624553060238373 -0.10978735759814029 0.21745250468940402 0.11566780680525195 0.04161123366490687 -0.046756231281382184 0.15237561084158427 0.27630489895901289 0.034671531035506659 0.20353446018218552 -0.12595456123670729 0.0098207503253773393 -0.088695093691292359 0.058519601181038425 -0.022304240759526792 0.027834324177258302 0.17828921247723073 0.12601722302888677 -0.059324297355415868 0.25912792756080766 0.21051202052212106 0.0069280422106278066 -0.029908215187012657 0.079984595275342879 -0.15167989590212289 0.16665208302213863 0.056930846291269654 0.02148133786538458 0.19408902526591865 -0.12106302916528988 0.019179082502137488 -0.057686459957458497 0.29078170028993866 -0.024427687100436777 0.095037128821508124 -0.004840359123973419 -0.11789184945959418 0.22671677555511011 -0.052250631447897433 0.036092294809214297 -0.2601545122797233 0.14684899202009197 0.16866584203301066 0.036568571509076345 -0.20648457950212143 0.064607133602465006 0.23102436180624097 0.13493541605920109 -0.059980161064809155 0.18649430468736003;-0.10174839568223924 -0.024801834312782767 -0.040385508269737178 0.22432180647132302 0.17524170193884733 0.06412037746775108 -0.18536033531681698 -0.090331588063049667 -0.095217228203117371 0.18371651998862001 0.14258984052719575 -0.14231781084042028 0.018018104123398323 0.082764169585234262 0.10643891659197684 -0.06202195432637677 0.10551903030450106 0.12865400601932123 0.16074131113126558 -0.11119060553483497 -0.074103897270955454 -0.035848193108521623 -0.087064931916989954 -0.13430306226537533 0.25293641405932005 0.237653957698818 0.12959222542181192 -0.12131851221151636 0.038903412213096546 0.23859897733646887 -0.058906812982188243 -0.14023303368282086 -0.089454279159844524 0.12839146819891778 0.023145474831865839 -0.09742423805675994 0.051048933331014047 0.16645288825008897 -0.036405038295160341 -0.055782334969570996 0.060169156611733977 -0.19841180970011402 -0.015877837364746846 0.044453315479378606 -0.23808012285911723 -0.049407706175857435 0.084364155691943055 0.0030117269430722697 -0.13675467588310913 0.12446559700157095 0.15477810717001644 -0.23516288011026337 0.028821472718923328 0.10600647973683214 0.18067671457744378 -0.13610874310331297 -0.064965744007153131 0.049094167681612927 -0.17178247115836839 -0.11251141505391925 -0.13271060756927439 -0.065196735000222134 0.20459276150972946 -0.067259810336487036 0.22649667683403413 0.17090172406368132 -0.060314942291651547 0.023880108082138335 0.15655221543660286 0.15575536720084709 -0.051675815734559372 0.025673592682725899 -0.090640634088052716 0.10074604425019608 0.20510354340087936 -0.1405095122047505 -0.082770813541775928 0.034942561741566347 0.022001967533762858 0.094528585109298749 0.079340839884610756 -0.17040181132445709 0.13516123538527103 0.18200232786837384 -0.077281394918693333 0.099692222415466478 0.081464446566424292 -0.017819351491968297 -0.0060526053093514689 -0.18255739368678187 0.17938902897451517 0.070102552435972243 -0.26054540834960499 0.28266696535106584 -0.28903263950996022 -0.012208966138683004 -0.0046571170711026972 0.0091969468761436465 0.015895519837894594 0.13288174020277327 -0.066386082160772686 -0.13434173017998885 -0.075374372795213265 0.12110338735510165 -0.0090586888135346343 -0.049527613719360722 0.080565065929780327 0.10368674808510296 -0.16736972520730703 -0.074656180192213803 -0.14642805746369963 0.2681091128766267 -0.1287454574527209 0.20071558652792484 -0.20952438673880186 0.011495418598420763 0.057058778149255265 -0.20383527901546797 0.25002275546682928 -0.026965435400528377 0.1704833972821459 0.12393493154932288 0.015900893759563127 -0.069731002506951675 0.30758315045749918 0.14107827198502149 0.14330087125666713 -0.0026414722410326684 -0.21136575703646848 -0.012030219936520342 0.068187247716436847 0.12079477632631071 -0.0071389708539392818 0.10816612837679969 0.040560105966947049;0.21780935334170562 0.010228127956232068 0.31920054133389553 0.34893729335877294 -0.263204723002184 -0.11658555552763471 -0.34944493541925042 -0.27362242109813334 -0.28500860851706411 -0.12606189676990057 0.26755128420548235 0.28947711571352081 0.24436042975291591 0.22779454000951901 0.22386995967143986 0.21129958703600946 -0.25074840226294554 0.1140405854745353 0.24678905519326721 0.0067808316214933093 -0.013751466060667078 0.017338468812222056 0.048897631758493189 0.17070536065109618 -0.014441480468437634 0.0040420476477798046 0.16887266472069862 0.28914624414881029 -0.05454503065407177 0.037945373023596143 0.096067701147543386 -0.10528587448041528 -0.44375225871033003 0.27300081440970847 0.15914907782730034 -0.03307740061247811 -0.048401221220578571 0.15333765613204728 0.24143163496910605 -0.17884291048578954 -0.36734839080153675 0.29431611688750658 0.28860461002544868 -0.0218758313431941 -0.21354459516145485 -0.10890037028509145 -0.21560345606921807 -0.29511879830507975 0.089830572248013593 0.090513739656592887 0.50299580412089495 0.068113615030148927 -0.10364335665701105 0.19873943781469883 -0.054047180767229169 0.20338312499840389 0.0083744379316590036 0.76490819567176882 0.16984061720517091 0.35607134417527914 -0.095512878945479079 0.02556536802385951 0.10168561457575516 0.043748861358523121 -0.14716015001239097 0.40751439266377498 0.10193014543130616 -0.19412213993233032 -0.61079099561368411 0.08771177476244417 0.49036005018584361 -0.079868368162386877 0.12043269234206555 0.011569618315007486 0.23341827553980318 0.18771375884658972 -0.096866185985006015 -0.1640076206076683 -0.45713776882930623 0.18334603839236674 -0.088208712012288137 0.13850454915059718 -0.29041742110199914 -0.56471531019348964 0.050389987995363407 0.067587106878832071 -0.27957269007822072 -0.16156195236255691 0.076848822190749955 0.0044641529611692309 -0.06956748129681746 0.080241037546427363 0.072823724797843187 0.13212195265801893 -0.2908758303253533 -0.073045492039626403 0.10213830099889688 -0.15256347336516776 -0.19669100136141549 0.19073497779130785 0.083070378360108998 0.19538599702274756 0.35035188060365913 0.04634361555955379 -0.12022372623856556 0.13615163622692303 0.12823451403735953 -0.11062130686911564 0.028406557442186842 -0.42189897721325598 -0.14899655914807403 -0.097859907658310138 -0.11171757609587507 -0.10465344309653014 -0.12868697648764313 -0.13288536391823558 -0.22982143510686517 0.60913454275544188 0.077450786562261342 -0.11377536194426925 -0.13955952867066596 0.35055944071482981 -0.088518976301588267 -0.19816880448037255 -0.328498750238988 -0.21378098569571852 0.18463691064622456 -0.012482538561880816 0.085686433801407461 0.00248753024309509 0.014805200697698631 0.10032190691760862 0.35751781163760915 0.079015308764729064 -4.591571720693197e-05;0.22082579840988192 0.13880568622172221 -0.062252817904821109 -0.11401575026552128 -0.35537132578262487 -0.047419218591057841 -0.34505096331446383 -0.51901349992094559 -0.040954853009597524 -0.19122175188866847 -0.060525045975354977 0.18961652421199285 0.19253046690413017 0.12236221099912707 -0.083130967180207793 -0.00121563204366016 -0.025499420480863556 0.17213952323729451 -0.046650751545456066 0.1462489581163044 -0.10651358618872618 -0.12457049380346076 -0.23789725190472474 -0.28175685449221383 0.2839849067430914 0.0036999963071767976 0.055281049562200993 -0.090590916786271014 0.011573402918398045 -0.068778891879536841 0.050319711148002412 0.096970043685900439 0.12386935206037944 -0.029709247474919459 0.19722435625425808 0.39609424104490565 0.007507536057539177 0.21864092199791152 -0.18969177889174135 0.0050791968418047242 0.023093090385416883 -0.015493405479179798 -0.080720395795652003 0.006134251068802693 -0.016146555154442556 -0.094874739469708314 -0.16953622514715 -0.16795470345010521 -0.0020905886559899273 -0.22913046425726738 -0.027336676915444856 -0.25848509765224703 0.05229398767235359 -0.040587272032125879 -0.2835371323113437 -0.16686877764440175 0.31085107386831823 -0.13196650303570484 -0.14103560501058499 -0.082339666917022533 0.029950623093216017 -0.35083660620156432 0.033224272643110397 -0.015741825435588105 0.024871649552646629 -0.035767051698813494 -0.23106240089303592 0.011342013553896682 -0.071545163360686892 0.083545846385743333 -0.060503764384745876 0.039318399218056348 0.29893604142337232 0.050914731221995142 0.33821742802484817 -0.23801609883440569 0.040618747199258301 0.023554860210560188 -0.073688137976535423 0.13394219903750326 -0.070279732573355444 -0.52692410935659129 0.16215075189638031 0.075640707047595929 -0.15583139935135526 -0.06104536844884749 -0.11371953827019743 -0.048231128444986969 -0.1927357948008708 -0.096952700348575879 0.030268020518520639 -0.063027383904834033 0.12878948856272687 0.012210464372451418 0.089489064381149397 0.2346616889143352 -0.51583705522769563 0.055614697955265836 0.035527967575001214 0.091733313559120261 0.084843627289049178 0.01238401777162745 0.043640744592894166 0.12876453969630927 -0.086439097036108498 0.055535696104663322 -0.19218116847175001 -0.1350846656530012 0.077307297300034064 -0.093192622765411834 0.056037192317714951 0.09030609310230811 -0.0035434056169900887 0.10504448398502393 -0.079867049276587734 0.0314496072466783 0.23192819601179501 0.013387784797919782 -0.074230889305650194 -0.053779641343448266 -0.22478511579864197 -0.27299335807471553 -0.28661860977001191 -0.060365597117904769 -0.17322857637321631 -0.1421205660535366 0.25957634126279511 -0.019295902038299013 -0.20400053574286608 -0.035999768404083754 -0.0067327641983328627 -0.084427944044516423 -0.17971366491325449 0.11939876616112699 0.28994832575323076;-0.24022342464937838 0.24379376826325794 0.20620140121526015 -0.053828959317170598 0.19940359356175746 0.16318912634151586 0.094297593733058072 0.067655154969489706 -0.018664241776532871 0.26350686368589393 -0.0022774217443743893 -0.10762321123391261 -0.035700338567029977 -0.2731284373592251 -0.047414779129198385 0.14997296136709201 0.36994193426242128 0.45318750201640223 0.28459687818158746 0.35009758836187943 0.13397725923661352 -0.058403758779225427 0.37526797561751002 -0.12645418531299116 0.17934610406967869 -0.25133071884213537 -0.37318152435420077 -0.06061925974544994 -0.033021914383497532 0.069869541911807304 0.13776802578029929 0.27733937524320601 0.049561400205561219 0.038343699692178795 0.045963178364170021 0.28401997971701737 0.35226051191534424 -0.1721213199555291 -0.061521457013872377 -0.055355582025159188 -0.16756735628140537 -0.24025045929614502 0.044058744607931806 -0.089606305918749421 0.13747942417059517 -0.05375958204315015 -0.12942345211862735 0.36058908487016045 0.20667505447333662 -0.52033838412836397 -0.46972006313541342 -0.079596741556417008 0.097569773788320588 -0.26388407368351063 -0.27461082087288885 -0.27858263773859326 -0.45886534252877753 -0.29320468883580869 0.22775979062711776 -0.13868363613454721 -0.063217336768234558 0.33491337974415797 0.1792814126256814 0.19595109161815299 -0.21609086489468374 -0.25793186940287122 0.05666583968760782 -0.26201838101030461 -0.38671953733325554 0.15770109351021955 0.0028513481686798571 0.16622225277157301 0.042861099914533234 -0.083419451417268239 -0.20471372622991715 -0.063067287304702457 0.23422158948664445 0.29041157607976209 0.3166586654516157 0.16717822524329001 0.33418097821940512 0.040602082068457016 0.037270523123975122 -0.57808111414939634 0.10447498605466317 0.094954597001921132 -0.022618188572420046 0.3073139390116143 0.13118603183018804 -0.0038561744696445441 -0.2271753973642652 -0.15617153335313572 0.14769985327097607 0.10441085794663958 0.46302823133995075 0.14551830363337442 0.15001971684731166 -0.18839275994157928 -0.093921636726579188 0.080224339040696757 -0.079274716046367683 -0.35938275689883958 -0.30600217860870876 -0.16549211727606933 -0.061595025843394366 -0.047347859246655383 -0.27049827967755374 0.073009471713887844 0.21259412620638779 -0.062427307161282773 0.28663181515417741 0.06936230307775354 -0.29465089274093431 -0.15376819000985506 0.19988821740861182 0.32002970362532418 0.05858314614770431 -0.3952546609343246 -0.12310460309077782 -0.090366647503174316 -0.13259462323525728 0.19567085553798891 -0.17339658687274526 0.25147172618527286 -0.33322114637487643 -0.1570743629233573 -0.37462248301847956 -0.28187930255224919 -0.17270480425133272 0.37652395022299578 -0.26347714686654511 -0.03049550848806136 -0.26807583586184242 -0.049006475741757989 0.45359790911816711;-0.15945733813215565 0.089782393414659115 0.3653722752912274 0.14574775141786386 0.10176696193352662 -0.18772057198173514 -0.017415709361732857 0.34730765837763317 0.070838787672723877 0.01271367278380069 0.14804343644648149 0.076493972998641302 -0.05335399832199484 0.016529059284797927 -0.0050514856478333795 0.20991503748088053 0.10479107263896116 0.19415379797949334 0.25746763352209212 -0.37942587674182066 -0.14220454439797089 0.27645730759656056 0.75141755052188897 0.13233513643870085 0.030741037987945134 -0.086154552067860699 -0.036854004878845402 0.17580619982473755 0.090863592718728667 -0.083838793911159754 0.12058562769855942 -0.025197124485074246 0.24331083726240582 0.10027063302169992 -0.1272290881762613 -0.2345778622025543 -0.025566003982065086 0.24424420214798656 -0.067963433276806845 -0.29781591132599916 0.1578580729236686 0.079125473290647619 -0.28168328623589328 0.061405559431047162 -0.066107704439094084 0.0065349708454453259 -0.32507327272434766 0.36470420629208539 -0.14907699805750682 -0.44167229160141269 -0.05168243907004122 0.21149525486136292 -0.017410589746970954 -0.094331197571805622 -0.15734060250373053 -0.13225570544752255 -0.19087412951376045 -0.11865566750376501 0.10800960159711791 -0.084439821446997118 0.1318340534681714 -0.25690441649348167 0.22049808951017003 -0.001934502914030134 -0.08266600191932276 -0.32118950506489896 -0.12120802049559021 -0.37497705676662302 -0.036067686844197061 -0.057256756098023914 -0.37745845341007817 0.15760954681913458 0.13319709126645352 0.20851667719731445 -0.056767641066255516 -0.082024571240123079 -0.1413313543777322 0.31919010777510121 0.21103653131039513 -0.2306019842507141 -0.063950133970591128 -0.39109128975849061 -0.19770861764119002 -0.26372672193378355 0.070156151421278068 -0.015357753336993026 0.013756762483868494 -0.034851762321800921 0.27207496773014572 0.17195813762523951 -0.070236866971452191 0.13944687402905134 -0.17926714781972014 -0.089992448923374005 -0.052684278168478357 0.32672188848445743 0.080954970297005449 -0.10026465877053028 -0.14836174249564343 -0.13039893403564384 -0.55578049966720688 -0.24321714190705979 0.14634155037504074 0.099701617879098342 -0.019558042339098389 -0.063963598722397319 -0.094639979276478714 0.27377570962141284 0.19091814705770949 0.003579245288461676 -0.13561875449814609 0.062757145177176066 0.1436776259369795 0.12625555947450251 -0.18143614429491392 -0.064588717307925939 0.066849559216949642 -0.24078148384498202 -0.0099434369960136448 0.33572794206151724 0.21439193033970089 -0.088316998818304626 0.18662250786576401 0.11470794772704415 0.21896166733016267 -0.42906820618920943 0.064056151152195331 0.052365803591360685 0.25751942202003775 0.43184811779934107 0.076533701219189149 0.26507825441559268 -0.056406349006770655 -0.17752084606759769 0.18451254207196116;0.083594654930044823 -0.011498610376803275 -0.13989914035865961 -0.25581148772330164 -0.011160857651481469 -0.01570646590389832 -0.1570909610007499 0.48610662139604266 0.24029440242972355 0.35217878047826895 0.018113567337569074 0.020270845721551876 0.015662231880376805 -0.38348494451643184 -0.39731578813138657 0.098448383916277873 0.041260397103063368 -0.30820104032543094 0.11919906326573525 0.076300602043253674 -0.22142284247483754 -0.38212302941346549 -0.40824225902987632 -0.28536584945447413 0.080726767378374489 -0.099996587832986317 0.01909494003654048 -0.26059789753578755 -0.25420406368392578 -0.1160815841998062 -0.22584151807235428 0.12029365658221683 -0.36999419643303139 0.010822566005965845 0.093076342406929552 0.20057560593817161 -0.025458210933786456 0.22497730585332096 0.25692201567797418 0.38719472921951448 0.30411749046030295 -0.18973293947653291 -0.28394018751180899 -0.040595800585606176 -0.16781218318844285 0.19098663502802884 -0.1584912111903804 0.16729793791120279 0.40581968243131561 0.095291995340264696 -0.23021124545253863 0.13211993839072758 0.22342928779198842 0.06456032927635097 -0.16398649227375234 -0.064613259069558976 0.0096427669151291032 -0.020456502575579821 -0.10628583092632837 -0.1023996084050293 -0.070777117494879985 0.010985307685597689 0.55498363979307042 0.2950497168291587 -0.054928285056143888 0.21494240938966844 0.17658258692363601 0.29758044970004111 -0.15963924908653321 -0.34710347804647412 -0.23855869198442284 -0.1885859010186707 -0.029610415597695214 0.14059480061422205 -0.072890274719584286 0.1887526518744706 0.10518588065925916 -0.039177803860878171 0.4342356685135379 0.16316256350475394 0.29029454712373354 0.018604476672915603 0.24361024398677425 -0.32096013256809608 -0.07069706715981959 -0.026246967376123507 -0.45362114727846364 -0.17717277364079945 0.1717424067817174 -0.10603708839437881 -0.035063068321906143 -0.0044694330877647678 -0.095382522045891871 -0.043057481996411802 0.019879976695737309 -0.15551771432577474 0.18487026137403015 -0.047868240549785189 -0.079293881707502331 -0.13241210283414911 -0.11956013272759877 -0.097088099586669474 -0.16540959347585338 0.067613107447461712 -0.19833259225060967 -0.0039850696389510908 -0.1320578071396751 -0.30722181244579738 -0.32716600126156098 0.04446785587993999 -0.0035393386635673937 0.40125123091325621 -0.046229282003729673 0.56633199088943953 0.61674128688876717 0.17581892400746829 0.36745239570998306 -0.16277916097241502 -0.011467147418198669 0.18933538257730198 -0.10421127237106742 0.12925790541181215 -0.16593996112980208 -0.31441634670284491 -0.38314700308541205 0.16608835976276118 0.38805739592641569 -0.19829081993286687 0.5894392070341552 0.42262706922345583 0.1934683042038782 0.45171077899973494 -0.05359412684731079 -0.13284314761524141 -0.041834003634346563;-0.096123651476938521 -0.009129435451821398 -0.010645562092830385 -0.10696967288941667 0.14192374787579559 0.086715073635830447 0.23239770177530863 0.16327943398426525 0.29977165024075741 0.24557685739677965 -0.0057697774609322241 -0.15995084769320705 -0.040520825833145195 0.12814168772717174 -0.043272395064194877 -0.10979407041519436 0.17374861373487305 0.231837737057661 0.12270492225634497 -0.026142970183748133 0.22822448536733866 0.034358493107436362 0.19871716980920268 0.065373609493262305 -0.0056551230061939921 0.11057345459240912 0.24949375024187329 -0.03664389372132771 -0.2046808432526856 -0.13262815716534515 0.13231796545000196 0.040118462700515223 0.077813459371388616 -0.1635675716427609 0.056900403847614828 0.021839047166274866 -0.10132298318946877 -0.022204886911733546 -0.058540144622661126 -0.10470248535339313 0.23313761584273779 -0.12769480325997143 0.19530329558826617 0.30245806790226404 0.024734321684701396 -0.050187769395043109 0.13275263456334976 0.43694053319095016 0.14041335940687627 0.13410667275626914 -0.2092748819266726 0.049687588457622583 -0.40991661513554861 0.18948414574597461 0.21996782076048108 0.091278976603111461 0.099546955284418315 0.39429470491196977 0.019537130651229709 -0.018266296610465148 0.26643848129010245 0.23340277618142632 -0.081437619978456027 0.22115278775872241 -0.097395231656602479 -0.08299539067742695 -0.09557282637026511 -0.43383039986488242 -0.063710701791332092 -0.012209863323135655 0.062031244340918085 0.021198027670510135 0.21912239271402603 0.068897685866261549 -0.072219634980627917 0.12551651251587975 -0.030528835118984431 0.35378607209143242 -0.040697273891268565 0.041016945759324928 -0.17842978531242881 -0.42404371555765896 -0.35748450761957778 -0.13890281081059019 0.0093993026592952174 0.38402980424276451 0.11578587540627622 0.16668846518453714 0.15981139799761399 -0.038371178175430481 0.20174218621140411 -0.3351909481701783 0.56766518457923232 0.015132269283609903 0.079172306820664645 -0.20690099297332015 -0.79049436491853042 -0.31715896190873183 -0.030012900305460961 -0.12725222812904474 -0.12644777955413627 0.022312080942806914 0.3364540015839641 -0.031611146529702733 -0.34943245228387421 0.19311860057490554 -0.21615836366952013 0.040773412471961486 -0.14552364128969983 0.13473637986927442 0.16894893099127056 -0.21627845396079121 -0.12841341623123825 -0.2087113156690581 0.06271994570087501 -0.089057649808834835 -0.44572085955250484 -0.033384152506595044 -0.062123634194415626 -0.059616611951376366 -0.052703307208100375 0.10053250901759725 -0.12108012290953792 -0.36413273121433692 -0.064435352172743515 0.297196018602634 0.20164260629092559 0.39436752454533092 0.31343337760300327 0.14290952493449274 0.05388185507154912 -0.1778236112286504 -0.15875957618983771 -0.10787324430599547 -0.35820264566785093;0.31924846699517295 -0.064611146876612235 -0.14482788612221723 -0.45171611157962405 -0.081888819860737747 0.10829244156123309 0.21757932710741101 0.3892621081168775 -0.11067949859575335 0.042997151827766915 0.25393862304359444 -0.041104387939749729 -0.11348390234720457 0.28077968602947023 0.19111697069566552 0.020948228888512822 0.15390354893793087 -0.28189976601854777 -0.038139231750510857 -0.076063338047602763 0.15485419436126588 0.55987117905238326 0.18143509685356729 0.26283147848870902 0.11715073327621979 -0.26988851208032316 -0.035131807127741499 -0.16797666190628108 -0.15073862389342271 0.062824724476117894 0.16462569021502318 0.2083008222914384 0.3542356141990497 0.42042986365530094 0.16506253702359741 0.40532648556158329 0.089112151670165618 0.70491090704838333 0.41237019678214643 0.064906763365970899 0.13164705997048837 0.21340138183205065 -0.13042439723968707 -0.20724964954936131 -0.13343571963998893 0.039425148506624597 -0.22664512501877193 -0.015899141655331663 0.046961820727554927 0.171256641678913 0.145851253935843 -0.24056656652220734 -0.11754501212398075 0.12649243177347755 0.22309861429818004 -0.352008526877369 0.20816520595217258 0.010637677993330241 -0.0090463326195677277 -0.041512488603148594 0.024824420799075885 0.10923057214356474 -0.0092712127359142575 0.02113457766972664 0.53805804449805772 0.62109274576917139 0.1279721098977066 0.15779506977756183 -0.17571726768526982 -0.16439785313313507 -0.22360845073912625 0.1368394751311568 0.43235786719958957 0.12958658791617361 0.062657964209258732 -0.43381625841526866 0.12117850910112293 -0.19957936237649312 0.066273136122868836 0.39956213445736066 0.77674077725231749 0.23618233816382109 -0.11823572870839964 -0.36351240530137119 -0.12179173941325075 -0.069095235048087164 -0.23134841079385751 -0.12974978801610138 -0.033633136465408275 0.019909869171598236 -0.30854707052958341 -0.415761956545665 -0.334760306710772 0.16493750332464377 0.073701029331781673 0.17376898172328012 0.2373555625428527 -0.20207784754851685 -0.83179203367155319 -0.6408100602775797 -0.22227822753614185 -0.5866712949785271 -0.27931203645672514 -0.15848493722943688 0.14534917865988359 0.11529213277867624 -0.14856288603391157 0.29348391142663632 0.49598070681603557 -0.33534431971828138 -0.20314806757585419 0.21243097432003935 -0.32812835526792533 -0.28528328145929327 -0.77844677877216895 -0.26669090401483975 -0.31531170964967198 -0.11961188143622747 -0.076586076692698596 0.0031865245517203266 -0.097252625051379493 0.1804601362915054 -0.11243599375660368 -0.12770424294244576 -0.16685873141700941 -0.22537996582356828 0.39888949966033149 -0.072752734406853314 -0.10238265770283177 0.06882806303181184 -0.11101422223192219 -0.17988767270110992 -0.36204126310270651 -0.31886020816322075 0.54818278509984708;-0.18291555220658196 0.30410969972237389 0.074821133261944728 0.050045060671618527 -0.076930513654698218 0.1729946760919307 -0.016606106369621603 -0.1424371778867066 0.065385852417041049 0.18282550013895615 -0.15956674994874817 -0.17928069691325441 -0.035632984860205427 0.059382296609221195 0.27323674698129335 0.13028936914368472 0.25783638274677473 -0.0028036894048196464 -0.076113668872006116 -0.0067142324869095132 -0.41534807236192922 -0.17054224030324669 0.13754889924595315 -0.13228729195960773 -0.09872640144932629 0.033895739262034215 0.11507093671936604 0.018470201987335982 0.1304970623202944 -0.016255973420857477 0.017451993477048997 -0.22615719628244302 0.16295532160598733 0.01462043436411513 -0.0621434488364421 -0.58332034247712083 -0.2254889521108687 -0.36251892551744952 -0.29208224310138381 0.057963157234551595 0.32306104811191794 -0.074450970610847919 -0.061819751936965289 -0.1145551905943388 0.27266266869765282 0.040638026715838431 0.0032761032020005958 0.013027692329195765 0.084230719485196517 0.0036612472990556373 -0.28720464870321116 -0.26357763920532845 -0.32248981425386408 -0.21526487850690432 0.0011133333511825238 0.1151806968299644 -0.15658380954012105 0.096582497598522513 -0.013666585817471089 0.21960746995635197 0.0233122696932468 0.012566860141032969 0.39583480944271021 -0.002971981560750279 0.071388052099614366 -0.2294945916500756 -0.15344885402906275 -0.073651154329373594 -0.10075182248336301 0.28522397393178872 -0.1029324791621956 0.11647737978267247 0.0028026071200457177 0.21191885429100615 -0.20621710001877741 0.025138974932819819 0.41090486835614765 0.34711713583042575 -0.14830496378967656 -0.080222401746948557 -0.14088694453013123 -0.38077861547080566 -0.10711307512776527 0.27762223422683763 0.10186931587888894 -0.031825657479458321 0.28691039352903264 -0.0081130320709606098 -0.18661763259819347 0.30856157692778874 0.03684204954721626 0.12439759846895468 0.38396198222957828 -0.24698464110893326 0.015724526969222136 0.061647448928955836 -0.21723594848104141 -0.10720738534555035 0.16096534437637924 0.057411318119390146 0.039435810090251565 0.15532942635175576 0.089835005074130447 0.22806668236838898 0.054206268278184422 -0.1170222612422796 0.25465001214051292 -0.0026522975295833412 0.15103920383920552 0.4977719598189857 0.14183509102761177 -0.49641163407997813 -0.33618795323651507 -0.38178780472838986 -0.20384879070662454 -0.30864291876583572 0.13639862319226462 -0.15253808385698192 -0.13974361409819311 0.02262527603925513 -0.22253293374158573 0.23404827263731337 -0.026768498607692544 0.36536905777684126 0.24582788458433572 0.32571627642676115 0.071042518657184153 -0.092590454958003263 -0.065997076915807515 -0.024047187694639833 0.22527937345779042 -0.29237130489425872 0.019660655450916345 0.065010713357179853 -0.21329128951928358;0.21790608047375401 -0.4586661577084904 0.28779637542000253 0.090922361030585208 0.12148580865725489 -0.29234728009787742 -0.39805895228149901 -0.040385151846700822 0.35903551270053191 -0.029962655938130939 -0.090081160420524387 0.042356500795541319 0.15636166296762136 -0.12127676228206274 -0.31790336560957516 -0.0728817677440282 -0.15653355330460467 0.49107519684401535 -0.012827987480849901 0.33910831290293991 -0.063854797124913265 0.11490905624829355 0.053525109606323916 -0.37044750353132561 -0.50149936847727949 -0.1059770579803507 -0.22600969859133077 -0.41399497673257052 0.24806785249690438 0.46431538948894407 0.17495410177736853 0.066385498614176794 -0.0040889470253533096 -0.071584934386246565 -0.10921734472711772 -0.072420496847914559 0.49965559759186784 -0.26703737929132326 -0.89215320252980723 -0.43971071591208483 -0.11297334416496317 -0.010098743236935491 -0.23758294185933457 0.088394574677437512 0.15394635903084231 0.22887362235621481 -0.11504503954795672 0.010427954323914464 -0.34120776925455348 0.26511508262140954 0.56072313586509892 0.50640864203873026 0.17981233970872085 -0.50605012236910318 -0.5620740463193975 -0.13961146132459251 0.083685201882566784 -0.35821207271031186 -0.34001838860998895 0.29586304558385224 -0.10280159825806971 -0.048920403491642887 -0.19857285740323302 -0.072722710732748649 -0.23365819507051891 0.27442626305309153 -0.032506270553213812 0.42291811901782539 0.76083053607561979 0.20616345174073603 -0.0036456754888915068 0.055658403630033763 -0.11730745546253213 -0.39504979490955089 0.1228540678139495 0.037218705742165431 -0.33084948391486868 -0.011787734504349555 -0.39819733232812993 0.021217669835213428 -0.15468894902377142 -0.35842890855372023 0.66454307676919844 0.53201632964723533 0.30767627218336946 -0.17289200671092145 -0.092865380956568502 -0.38308595622466401 -0.03661577644399408 -0.26495956522594244 0.0084594513380566137 -0.03551882543713069 -0.26288796278510995 -0.12460357081885055 0.25805500130731324 0.27253740305578589 -0.10060690136782335 0.20253009984668263 0.12990341683818984 0.39203733771440713 0.17650982466509912 0.10880804028874407 -0.43303493103187723 -0.26429448475898948 -0.12330863210807712 0.21984553440189616 -0.079008735572958178 -0.13925117208269747 0.098435359080264531 0.16123369109017002 0.10828515239683244 0.15218559849717606 0.47379213441912543 0.073304764684642976 0.20570425669338804 0.27775346110943538 0.14252841484276763 -0.27483176233058187 0.28325692081955928 -0.21568968935732505 -0.012868698376708034 -0.043289365806695304 0.35253930122805149 -0.11050341330277492 -0.32610417741438075 0.054614922023526011 -0.13318621286821575 0.15787348419680144 0.27048678448036634 -0.1267943862998171 0.14810662962182281 0.0090691424625259157 -0.026752778920118299 0.13746927300691131 -0.21890987770995765;-0.043428537884660806 -0.21598081272879149 -0.17331484176164022 -0.1843542694864749 0.19843082651979804 0.07319729128449437 0.11268907423368482 0.40690262254214865 0.087648499106831118 0.26372438297803891 -0.15817144113180986 -0.10084476589359 -0.056125966291380239 0.19079240307484913 0.18402539768226614 -0.035909205999552885 -0.18276695781604108 -0.043255829285746131 -0.010376540895248983 -0.24654650567001285 0.13166276160820398 -0.16151825266025016 0.27280811409081063 0.44615569788212456 0.24342761007443933 0.062420941989490365 0.13854994388663278 0.034881122856479228 0.14251334880318212 0.1556504671391695 0.088173910551109666 -0.0042004285378642306 0.081498979704138885 -0.096588239670455073 -0.0067367328540462665 0.32243104107117165 0.36551304826485548 0.10118935152507873 0.32978179852596667 0.0030813484079834593 0.027725263736812885 -0.012591014051509707 -0.11731275933521028 0.057078865336041312 0.035423404375400862 -0.3344359417508026 -0.099355550421646482 0.2576363958636021 -0.38514886213344701 -0.11796051664208951 0.38355631472571355 0.24750944136742339 0.037616528397374026 0.078106622838628209 -0.030514865795187328 0.15404055626453689 0.021199680612108352 0.20311267607320563 -0.13404696571311286 -0.055034718809820728 -0.27319704668477623 -0.19004945100539752 -0.062042594495778917 -0.2359707344357794 -0.034156605252409128 -0.10178204899013642 -0.37946662739629811 0.010348654408372267 -0.055919035514367638 0.29902129543111106 -0.2022573356395414 0.37150955325143814 -0.048228971853720534 -0.064495763325668157 0.037965023749833154 -0.52690343845367937 -0.22640104794361768 -0.39044769176550276 -0.46960852538781916 -0.072284615272122335 -0.49368525542665681 -0.13263298719788197 -0.2129331328690747 0.021006714601263122 0.025187089676210823 0.064342979536693476 0.24298912351009996 -0.45045913258043285 -0.40740778320298709 0.20580318984249052 -0.28977837028568865 -0.24062115803725187 0.027372586699623631 0.22743778034244627 0.45536226693454729 0.28622741929181228 0.60859404568461173 -0.45961021493842358 0.40722822060546032 0.12333619147660667 -0.058044549838947475 0.61923524285953369 0.075418559006332223 -0.46467129289031261 -0.00030263675741648669 -0.12085863917136117 -0.13586414136318861 -0.075934208988027344 0.17892540354345848 0.19013269129218929 0.086744631592407223 0.10071398762501664 -0.5069385504593481 0.18579897723768457 -0.40513687053471492 0.15904453524136097 0.1579597121844156 -0.22040061668389974 -0.12919868085664851 0.16220867041855233 -0.1341872289963667 0.26601924777108821 0.1523099093434051 0.17404104611131996 0.36886558268538999 0.088011826259219703 0.057505544653138972 0.029072475647269048 0.009230495666980601 -0.21802941253748467 0.035854728557214242 -0.35052361355671569 -0.22133556720944841 -0.15003608583583491 0.13805186459019686;0.079322318721309307 -0.15615438357889397 0.23437582649499319 -0.13274746223703959 -0.094138160568906851 -0.22688137464970415 -0.13689361396805577 0.10166176274918108 0.12980876158617541 0.19790266820124178 0.014664456938384477 0.056247060499681395 0.10064230703434222 0.049241152114933927 -0.087498186088839983 -0.13170477961359606 0.13638737379162813 0.18441544577761801 -0.069896226911147247 0.13846497557933463 -0.1216655969236185 -0.076958520649307777 -0.19300920423765555 -0.51668637771477366 -0.35196709672151977 -0.21103220353207364 -0.3224176709523186 -0.22494132107452941 0.37762954149195521 -0.18913356042675719 0.040634682603997156 -0.10965312241459933 -0.21264594627229197 0.069188962629093423 0.26108567524587967 -0.20685387690915158 -0.34994761362541438 -0.21589436146993576 -0.53210216826781864 -0.50819158439379675 -0.13580696023540528 -0.034648703097564362 -0.23135565084151893 -0.24461404675134515 0.28735956127502021 0.031352931429396845 -0.040320075768057018 0.29725166937193975 0.2173946796013386 0.10965725703217923 -0.0018584397480512762 -0.022333150065130081 -0.52317921444860216 -0.75778761711821041 -0.62561283362851661 -0.2836741996865017 -0.14913842774730457 -0.2727108220512599 0.041287049946378773 0.12654521836789528 -0.17357802535281855 0.20078473727815355 0.28827179967407773 0.36511225499206867 0.60890373399760667 0.093820833496181269 0.051616411888692995 -0.2053732889574211 0.050338004894120492 -0.0026361072019048756 -0.020078336020501252 0.095461179113855751 0.21720494301668378 0.14400055402776377 -0.12664630831609006 0.093914249602468858 0.098520681913792693 0.31197636272101309 0.096763194191481106 0.30190320579236418 -0.04237622587743245 0.18684471538837047 -0.10368088373458888 0.16394315208367918 0.35324609282583119 0.43679929721758332 0.20331589758316579 0.016396515827338594 0.034607469817580748 -0.088675793180612875 0.19055185948222633 0.017109505913489705 0.2386841360886055 0.3601304839323749 -0.032567888304686814 0.30222159528898662 0.4304155260460561 -0.085640121729246885 -0.076594381350455404 0.0059706998822463006 0.10359070168462636 0.16472659340389395 0.16050543925527494 0.052058110249604224 0.04222961486555285 -0.15034967475927702 -0.20039968721742371 -0.16218935028888876 -0.017538202808893875 -0.14115222961951002 0.014932817444321806 0.12901967637858128 0.12068636421165989 0.32441360946350689 0.15432957709107684 -0.1750885817664424 0.027233938091377058 0.043745660136146974 0.26216480908566403 0.30705532607306263 0.16587937041241937 0.22462771131112355 0.035059626100519992 -0.42777191352053029 -0.36136281879121768 -0.39597798612454693 -0.047985319308816859 -0.2011964449249804 0.34473365035386794 0.10125971483320885 0.14884839547243353 -0.050524070279699775 -0.096964097261979881 -0.06887474921361432 0.28484432650681146;0.15414579866258143 0.32510072252580891 0.23252224063753002 0.040101571568903711 0.19431150908657044 0.30442562632356812 0.2005682595930833 0.21050851357820446 -0.056502668158094016 -0.16759358930451224 -0.086028429707540363 -0.24648365535384378 -0.19124108107854951 0.17340161483172692 -0.45705979839051231 -0.42130013035579861 0.063016865830382573 0.97452944828677202 0.55555703718829785 0.18216033382270874 0.064766507738233225 0.43508457434552839 0.31080289728515736 0.018816290891034333 -0.30780503640850082 -0.1296704728776267 0.056973914089528316 0.14250110896022822 0.049397690160161996 0.010416315388946159 -0.098127090024710373 0.082718919603106345 0.2698424016157594 0.58797047398922131 0.2604556921778885 0.2065365878039026 -0.067953902049804157 0.11545843814400543 -0.35633710450456207 0.050924942892699054 0.21911660785746101 0.29978234825423833 0.20204870011228468 0.079238435867154025 -0.32159253429913565 0.1127029502614155 -0.15003444989696549 -0.42624615360129797 -0.030006888235711543 0.11949818864255503 0.18344485398205132 -0.091271593541754806 -0.65995916402842336 -0.34958738833357633 0.08187114912618508 0.14803944604825017 0.43448590724371522 0.01571122115068584 -0.048675656187707222 0.10173478131737722 0.13512857801482323 0.15645638959147912 -0.09074057437780661 0.26221414706643981 0.00092878155312646135 -0.066073142388209175 -0.41823788902000958 -0.35720982583567784 -0.30547781109350852 -0.12498254122496714 0.050562958608191842 0.023032793827934606 0.082714334866852424 -0.35213227432500027 -0.12851077593412394 -0.051526361391341487 0.17940650711920547 -0.11774136464738438 -0.12358022534439002 0.36573026488614124 -0.22781519666742039 -0.67023470538718954 0.1246662487546813 -0.67852079196507364 0.071513651125408306 0.28155444502413945 0.16669757405650351 -0.16672828086419689 0.28083716907085748 -0.2779993388164651 0.21437051864881324 0.33780405697804761 -0.52509064614023693 0.49176853753536098 0.2752005678722329 -0.55447998438905644 -0.52336313751315089 -0.14973789301691795 -0.2069598070159738 0.35733965801952156 0.49093667196399654 0.62659399817941186 0.040297706987691126 0.022220654087577223 -0.15379338823202729 -0.20404220585746627 0.12835513708641128 -0.1986753777155828 0.3080878658491053 -0.26388002573188274 -0.28852883527644763 0.26034964438497987 0.052180878996294568 -0.24365639962651572 -0.048913558108673177 -0.31816482105153304 0.40642643860901628 -0.077946864349527661 0.033692130057527116 0.012410444456029967 -0.0068569575131868093 -0.3721993955663333 0.057464409440793264 -0.14238642111229252 0.25438617878550768 0.36713808091119499 0.29134525624831226 -0.10967063552537651 0.12844376896931198 -0.6723032064024258 -0.43841480482595274 -0.067737701948500234 0.017611123063372543 0.13565182580164101 -0.0015866741894082527;0.019705070875000855 0.17337106527576893 0.45736690317111062 0.060908592677021298 0.13873892479452685 -0.57229727856337742 -0.45486077380937096 -0.046527004871480399 0.15189355718516243 -0.13596923964259128 -0.12763201118330975 0.016703626867249129 -0.0056219205346342309 0.18407136540372662 -0.15012324352455314 -0.073437500849665716 0.1813754902643725 0.41807934284470849 0.25212918412948587 0.0054765725739221293 -0.038689987105122475 -0.17430732828912351 0.0090503056520445796 -0.38076635611409743 -0.174523439968783 -0.28779813383313829 -0.19428949397905418 0.081727582564472184 0.050906891294120807 0.041705212591058964 -0.1048822395203689 0.23925850581928565 0.049993814797443394 0.074345112133578084 -0.4555118511941702 -0.24813418822048089 -0.069069400858930832 0.075760988905550872 -0.13482724694648801 0.013046295810371419 0.027598406236703843 0.19378802816743843 -0.38084826708665798 -0.20532083476011723 -0.055741806485827626 0.27759408877054015 0.084473482569164107 -0.41063250560664993 0.036805291728995035 -0.37556059090294835 -0.47257027570219989 -0.081095166857212214 -0.0059938735954214069 -0.085196022889434758 0.10996788964738463 0.1983835548212089 0.20811483101291398 -0.10872604417694946 -0.097118464555649264 -0.22822987258466804 -0.22523649831990974 0.22157948685880821 -0.0075042607401858419 -0.030190603117477975 -0.2063404192620463 -0.46131370189120152 -0.039290580512400031 -0.34275195805980768 -0.18970543692347891 -0.17285238301531169 0.36543617255925487 0.059452988774285932 -0.32084526180960415 0.1136341793492925 0.049705886676828376 0.12027160636037904 0.28448487012038498 0.040056192010989269 0.13790104245240067 0.27142735420819819 0.33095873388480396 -0.028321738369526062 -0.3488675516274512 -0.51402989070390004 -0.31085475937600859 0.027277921564581031 -0.14120134022123704 0.19415466794944591 0.42419979561927074 0.080943780892367229 0.10211339971324292 0.0068948614489042579 0.021170629968854222 0.29022301316125548 0.21776269487818306 -0.12079748504243651 0.063139811209073957 -0.23211547426284168 -0.26842949348417489 -0.41318158549807144 0.072240391049926217 0.076297952112796927 0.30117752640466583 0.19625326356926281 -0.0013102697742819801 -0.053291409235302553 -0.078854823471546098 0.25473771701935394 0.19343213106559243 0.00033609605047532832 -0.20527831333088173 0.082786514720470494 -0.14710449349936325 0.058259497240119841 -0.17674829084947291 0.024748411432073878 0.2421193974069259 0.36011679590661416 0.13822452912085753 0.29317436960607141 0.027232447294906682 -0.13259883178436613 0.045497109462793603 0.29980540322766336 0.11586896772510316 -0.14718539483402523 0.097458530067925986 -0.093298296165159833 0.14217170664193485 0.3189199925232461 0.14714005770852109 0.22467243438345308 0.014544700691608336 0.024200886199762645 0.21057600951340494;0.20638523216630691 0.15406016216652121 0.13838182624204903 -0.015785480363588764 -0.12642590897312786 0.038188099891001151 -0.042965186322287963 -0.050137646416857543 0.24422770424688603 -0.05660879686657181 0.020756094584372092 -0.12956853704299312 0.18389945345890368 0.040002026795985003 -0.11514213523808567 0.065746357405319644 0.19046867727547726 0.18171880977985813 0.18344417223524348 0.20851374281570831 0.15123810421892758 0.034167101625759796 -0.093712732108026331 0.036961649493878257 0.13393952926018821 -0.097370684510047989 0.069129563344758033 0.14143075618896167 0.17915184736335407 -0.023421553038321271 0.22415026051712014 0.033360630841449475 0.0075700385879391595 0.11613656597141163 0.1692950550646431 -0.061084184932657472 0.19914388610715264 -0.12595293899539892 0.22084200299336637 0.078435684477046436 -0.12585397230415921 -0.096307929849061058 0.079562189981192535 0.029450549255441705 -0.16736754300395487 0.0098147560786705033 -0.087387335704511446 -0.070694950842483728 -0.1383071546042397 0.080155537043772526 0.18036697972735025 -0.16819072614165601 -0.17426007464629095 0.098072918853345403 -0.18578323947291372 0.023440897657253466 0.12819061191858594 0.18696781362345014 0.029513007288157974 -0.10750018213528623 0.12432639331754169 -0.062198938807194917 -0.013466005203514379 0.013074953285303512 -0.091820505592958401 0.073422722225209416 0.013812208431676919 0.18739624270077704 -0.04015682270318742 0.19092643048077998 0.040551359985593248 -0.14427977712740603 -0.052989865718678489 -0.12823278510788713 0.072268529480374349 -0.015922493746581317 -0.032509721525770509 -0.11322721744794671 0.070571125446921887 -0.20803926956321181 -0.012333515557016481 -0.028974697423134292 -0.21604260520579888 -0.01449753304301774 -0.002908857172494781 0.028549400203499175 -0.15600421046275251 0.080710573297743962 0.23326447697480412 0.09201943001345389 0.042462600303672472 0.10046113928638968 0.025723490171720296 0.15296927955036968 -0.016756487250367647 -0.095039000997341361 -0.032420969875763136 -0.1581985499786342 -0.16515266393714892 0.0070649086784897834 0.19283898750439266 -0.17672841274529968 0.18211457230580114 0.027549581973707573 0.22846697225697699 -0.099401843597068232 0.25205087695602113 0.1433814526689984 -0.16822633048981112 0.10738385371843896 -0.036681186846989899 -0.16825986818497818 -0.13870248565523891 -0.050698032262662084 0.13425792182960822 0.075192000190886815 -0.11130856231210534 0.1616603558714117 0.13892474705137905 -0.057177016897924274 0.14755906516698608 -0.19644529854801243 -0.14723542629614822 -0.068346320433422814 -0.063643899866743084 -0.016755973501247592 0.0041660310168497965 0.16255726709910512 -0.1206862117884622 0.13976863603195794 0.16111709535485541 0.087199817751557218 0.069114592535708827 0.19306120160260107 -0.056548863090551557;-0.056539950464645244 0.022339425891714337 0.018193050926067121 0.14190591049273885 0.030035307059068247 0.1066197053506666 0.084449673575294232 -0.14328797681301997 -0.27046608210663736 0.1440124242448991 -0.022381931570248086 0.10853619754267101 -0.086589690690072857 -0.12901481350160579 -0.15990977473133267 0.04460883693400701 -0.21748293648166539 -0.21687299006880068 0.14294960890628444 -0.016038942251530259 0.17731484079541468 -0.082108250634711943 -0.12800738966982569 0.079210096542359415 0.144709915184319 0.024762690679690901 -0.1749701552328804 0.1419029497901706 -0.14682514542235398 -0.014577947024604781 -0.13348136332012073 -0.21919985070728143 0.12604247459778073 -0.078315413483483462 -0.00029875577880967153 -0.19435785453263768 0.15833880046412038 -0.13920252906108513 -0.028589904368200851 -0.041203131702575085 0.16801353263350732 0.051968606645552161 0.002226304965283722 0.035116127322212233 0.12896661049364716 0.05474717466512731 -0.035856806602254092 -0.027809134168198638 -0.12528780154774088 -0.0120128936264918 -0.12423450361066543 -0.1225087870579803 -0.030731056858286046 -0.13011005429090047 -0.025504057577957092 -0.098512460416476669 -0.15188300196710447 0.1391548399192892 0.025466380220221841 0.012303043058717152 0.073098344386100383 0.16891012073404363 0.0010650248004076619 0.045806608993837282 0.068679769714593192 -0.27147202184525271 0.11510372999942657 -0.044997831142873958 -0.22499153170878278 -0.0322650119750751 -0.052324102866211995 0.025951690498243224 -0.17871518129564737 -0.17868805436741039 -0.25669606059700512 0.01266487946999072 -0.20753143029572985 -0.1121122966465469 0.083413450483586865 -0.23030239659846025 -0.09159297656678872 -0.27254696306207471 -0.11841903577213495 -0.0098340187680344953 -0.16314060226974997 0.060792256416770343 -0.26717751517242333 -0.14104352599176115 0.16281117268350834 0.047010441626919558 0.075513325268582968 -0.20952823782406907 0.26214464501896595 -0.0075324954276786487 -0.069727907228258348 0.14522969031223085 0.075403818687295343 0.17104298986221816 0.053276559013442353 -0.086868893049562648 -0.27340902523786925 -0.098557410270277604 0.17571820046645484 -0.014157854367100407 -0.18733796383925841 -0.0085609695401868378 -0.097065547300055316 0.040378179003472486 0.015343338306784545 0.047737267158633336 0.067798309671949913 0.23817105302850208 -0.03627435344621141 -0.040133533099039873 0.077777865416413197 0.039050452293409858 -0.11010752502666271 -0.13679328667970711 -0.00055249824813395089 0.1119863521601772 -0.2446150945698386 0.014866420957273986 -0.10435532763104531 -0.084573262862217585 0.13439063545109245 0.057758454042025051 -0.14377840686627782 -0.16531958848131675 0.055311203725363169 0.065254078633849952 -0.024593981116514313 -0.063138323752969475 -0.078460619740460702 -0.20218177317116862 0.020549705141660629];

% Layer 2
b2 = [-0.12932742168357036;-0.75428226604753223;0.60955531595971779;0.23306304546749299;0.0037969838011803645;-0.35108668904776252;0.096264532538186134;-0.61466909283972326;-0.15789438530661565;0.51309608663160888];
LW2_1 = [-0.9154586292581347 -0.57602056173760774 1.1668033837068252 -0.36826124473602406 -0.040727481975681747 0.3103446576839809 0.2944857629628812 0.44703256599774061 0.28151892157114772 -0.069416879669852938 0.012682025663014775 0.079553322815285279 -1.1314791640830866 -0.2421258382557365 0.63736795024639881 -0.98264747525919149 -0.7685824562858159 -0.4321410159539838 1.3840680964227816 -0.68392451421362666 0.40360794144712991 -1.7942815011621631 -0.65423209065711274 -0.51380949979675528 -0.26455572918695386;-0.42758128900325115 -0.73917636087677552 0.48584794856625535 -0.56892179339508409 -0.018159571275158909 -0.48562282018552705 -0.9730381847937688 -1.3420178655578943 0.19523987083589556 0.74603991886651333 0.2309901028459094 0.42667462503977821 -1.3077636160678014 1.1713612753460636 -0.11256088038460604 0.9722531606506607 -0.23153708249996469 -0.40333369466891844 -1.5573351619474978 0.22219926172231697 -1.8521421969331726 -0.66603907126918105 -0.25493041875399397 -0.30356387553177583 0.28730920926603892;-0.061895661553597187 -0.0020213643308754341 -0.83175385407093494 0.087220587370536659 0.70726272276809166 -0.30583676995498082 0.85744196373061599 0.25188853053618476 0.00020121541081307212 -0.59138523300508061 -1.2625717673931391 -0.65195195221476399 1.6731328671088181 0.84828792173237011 1.3684816369552153 -0.031070041413436257 0.30985136751586179 -0.60488678234713877 -0.4022048557665604 -1.001486459553055 0.79498124627888744 -0.49620732278312629 0.4399578166652599 0.28072763910282794 -0.28253063728907729;1.0788290918483696 -0.392007654903958 -0.5294624261893861 0.90700584551051577 -0.26220841933062494 0.14397289169287189 -0.19663466377663921 0.86595553476359044 -0.11091401534300974 -0.71983694455709735 0.75931903199085571 -0.41299005453732551 -0.55429250104464189 -0.24427582065346307 -0.81882551093001033 0.45842017792752382 1.6395378730927861 -0.027305994380679259 0.063768200528839455 1.0218641547745257 -0.39314535957707647 0.67760747090264895 -0.92342784868156391 0.09237278147388453 -0.64241899856299645;-1.0790626441356335 0.81042755593199023 0.47081779127771112 0.71298944675270959 -0.8153437459672418 -0.50267712594130609 0.48171986423377705 -0.39933469496545987 0.10612175433466128 0.49277108952029652 0.77952886517070008 -0.19009924464710137 -0.39524990752143752 -0.32184794388459947 0.081273449962072225 0.7729181077781565 0.26030622527907621 -0.19228603106675796 -1.1703018319235718 -1.3133614788568102 0.50702170959313364 1.5652119324377711 0.23061714409866407 0.34116245850130034 -0.15761512434434033;0.43657131408600747 0.28495751993983776 -1.1335684946807292 1.1244690571759099 1.0652790697402761 0.56736688834199278 0.50112496311246102 -0.29841603080780799 0.92198523990035441 0.50394051964050923 -0.93890806170274588 -0.34355028461507708 -0.023330882044677374 0.8235207840103107 -0.90424278599308561 -0.43074438863686837 -1.1773030746684541 0.54498426911617714 -0.16213347684668353 -0.44039187165212945 -0.32350253969240073 -0.16592509279434983 0.55081675172290967 1.0336408039352478 -0.50015607226908121;-1.6679610335575956 -1.022923979426783 -0.70543156847777333 0.2202397827897758 -1.0680588059458849 -0.79931482187344594 0.083700493015633898 -0.27303046580392581 -0.65392981335522782 -0.77621339309988191 0.69979698993679018 -0.65276505274189156 -0.77582180887111318 -0.58206204939730455 0.70898688869942883 1.1794565922243587 -1.5877159148914513 0.59697145447174726 0.16989055308529485 -0.54170885026807014 0.43177371401714615 -0.011562288361706729 -0.42113969129569834 0.49568825534255784 -0.35753585495822637;1.5695607327576755 -0.67394779271848537 -1.0546078014228391 0.67280846717812126 0.054004138942972242 -0.53406770522760871 0.59607846296052547 -0.61228685674536798 -0.70394582684515206 0.86445561227241841 0.91966211120701002 0.30452891947653749 -0.65776115520226341 -0.4947377477585802 0.58704507344826418 -0.78481567136332642 -1.1292997598254502 -0.84057235340499081 0.81313998275399313 -0.49441959027648819 -0.68042059261495536 0.2838980818486842 -0.33943843927988787 -0.72197295617299173 -0.4246862005270069;0.40817791728487895 0.096729743939595172 1.0315038893352648 -0.59422850068761002 0.60306691439106452 -0.53286442311310844 0.57151878210325469 -0.14178362763044716 0.1836118992586947 0.046205367982585607 1.3082082092921614 0.98579282555279102 -0.39151784833639464 1.259292273721788 -0.26710433704484327 -0.46760874899264182 -0.29769620229901583 -0.45546040905635315 1.2838989174608919 -0.0053288904258203904 0.930540411826977 0.85660704170631385 0.99688054224369826 0.41769325146790287 0.2018200951853498;0.53117636069864893 0.75528441692211901 0.48325957090426946 0.18463234502620765 0.70979718134994296 0.86575004486710028 -0.99311085745664085 -0.90754447831047902 -0.54398832230428029 0.97020614565067043 0.25839861566066108 0.79466065258687657 0.56590479230603241 0.058641387745340834 0.86533573057690183 -0.30846587765121941 -0.29638863392521314 0.014202333375389866 -1.5763209800920159 -1.4198524416535023 0.18651255078470519 -0.26958985990315748 0.88080343475522671 0.60896252071764889 -0.76937483283897889];

% ===== SIMULATION ========

% Format Input Arguments
isCellX = iscell(X);
if ~isCellX
    X = {X};
end

% Dimensions
TS = size(X,2); % timesteps
if ~isempty(X)
    Q = size(X{1},2); % samples/series
else
    Q = 0;
end

% Allocate Outputs
Y = cell(1,TS);

% Time loop
for ts=1:TS
    
    % Input 1
    Xp1 = mapminmax_apply(X{1,ts},x1_step1);
    
    % Layer 1
    a1 = tansig_apply(repmat(b1,1,Q) + IW1_1*Xp1);
    
    % Layer 2
    a2 = softmax_apply(repmat(b2,1,Q) + LW2_1*a1);
    
    % Output 1
    Y{1,ts} = a2;
end

% Final Delay States
Xf = cell(1,0);
Af = cell(2,0);

% Format Output Arguments
if ~isCellX
    Y = cell2mat(Y);
end
end

% ===== MODULE FUNCTIONS ========

% Map Minimum and Maximum Input Processing Function
function y = mapminmax_apply(x,settings)
y = bsxfun(@minus,x,settings.xoffset);
y = bsxfun(@times,y,settings.gain);
y = bsxfun(@plus,y,settings.ymin);
end

% Competitive Soft Transfer Function
function a = softmax_apply(n,~)
if isa(n,'gpuArray')
    a = iSoftmaxApplyGPU(n);
else
    a = iSoftmaxApplyCPU(n);
end
end
function a = iSoftmaxApplyCPU(n)
nmax = max(n,[],1);
n = bsxfun(@minus,n,nmax);
numerator = exp(n);
denominator = sum(numerator,1);
denominator(denominator == 0) = 1;
a = bsxfun(@rdivide,numerator,denominator);
end
function a = iSoftmaxApplyGPU(n)
nmax = max(n,[],1);
numerator = arrayfun(@iSoftmaxApplyGPUHelper1,n,nmax);
denominator = sum(numerator,1);
a = arrayfun(@iSoftmaxApplyGPUHelper2,numerator,denominator);
end
function numerator = iSoftmaxApplyGPUHelper1(n,nmax)
numerator = exp(n - nmax);
end
function a = iSoftmaxApplyGPUHelper2(numerator,denominator)
if (denominator == 0)
    a = numerator;
else
    a = numerator ./ denominator;
end
end

% Sigmoid Symmetric Transfer Function
function a = tansig_apply(n,~)
a = 2 ./ (1 + exp(-2*n)) - 1;
end
