function [Y,Xf,Af] = New_NN_for_BN_20Neurons(X,~,~)
%MYNEURALNETWORKFUNCTION neural network simulation function.
%
% Generated by Neural Network Toolbox function genFunction, 12-Jan-2018 22:01:10.
%
% [Y] = myNeuralNetworkFunction(X,~,~) takes these arguments:
%
%   X = 1xTS cell, 1 inputs over TS timesteps
%   Each X{1,ts} = 135xQ matrix, input #1 at timestep ts.
%
% and returns:
%   Y = 1xTS cell of 1 outputs over TS timesteps.
%   Each Y{1,ts} = 10xQ matrix, output #1 at timestep ts.
%
% where Q is number of samples (or series) and TS is the number of timesteps.

%#ok<*RPMT0>

% ===== NEURAL NETWORK CONSTANTS =====

% Input 1
x1_step1.xoffset = [0.690196078431373;0.235294117647059;0.0130266639527783;0.028619580704254;0.017338489721148;0.0105911602626441;0.0130266639527783;0.0117669373016411;0.00587020075235015;0.0117669373016411;0.022510075310401;0.00709524994157602;0.145098039215686;0.733775094043769;0.802831671076735;0.686274509803922;0.258823529411765;0.207843137254902;0.028619580704254;0.018962962962963;0.00709524994157602;0.00549562385507836;0.0206858598879767;0.0130266639527783;0.0254427030327702;0.0264740409043279;0.192156862745098;0.290196078431373;0.733775094043769;0.677834256809221;0.258823529411765;0.017338489721148;0.00897856782082306;0.00258573248599709;0.0111687360065133;0.018962962962963;0.00753857867637636;0.022510075310401;0.0206858598879767;0.0234610820875832;0.00847987576422341;0.015079991858335;0.0244385040444475;0.290196078431373;0.772728679014858;0.196078431372549;0.00753857867637636;0.00415653104763628;0.00446814573580297;0.00847987576422341;0.00587020075235015;0.00197619316854;0.00330925511304099;0.015079991858335;0.0130266639527783;0.00258573248599709;0.00162833299409729;0.00549562385507836;0.176470588235294;0.724245667201906;0.192156862745098;0.00709524994157602;0.00258573248599709;0.0136889130123407;0.01580954534832;0.008;0.000351719926725015;0.00626142283133938;0.00587020075235015;0.00709524994157602;0.015079991858335;0.00281375941380012;0.00385975228230469;0.156862745098039;0.792712063987456;0.137254901960784;0.00258573248599709;0.00237037037037037;0.00132389503283051;0.0206858598879767;0.00237037037037037;0.00385975228230469;0.00587020075235015;0.00626142283133938;0.00587020075235015;0.0136889130123407;0.00330925511304099;0.00357744758803175;0.152941176470588;0.802831671076735;0.172549019607843;0.00513733028774755;0.00281375941380012;0.0130266639527783;0.0181386043075439;0.0100338482182569;0.00549562385507836;0.00446814573580297;0.0100338482182569;0.00357744758803175;0.0111687360065133;0.00197619316854;0.000642166285968443;0.0862745098039216;0.743387746794219;0.215686274509804;0.0100338482182569;0.00330925511304099;0.00897856782082306;0.028619580704254;0.0130266639527783;0.00587020075235015;0.0111687360065133;0.00357744758803175;0.0111687360065133;0.00587020075235015;0.01580954534832;0.00197619316854;0.125490196078431;0.792712063987456;0.250980392156863;0.01580954534832;0.0105911602626441;0.0100338482182569;0.017338489721148;0.0105911602626441;0.00897856782082306;0.0117669373016411;0.00587020075235015;0.0100338482182569;0.0254427030327702;0.00709524994157602;0.00305481300555593;0.145098039215686;0.823328523720138];
x1_step1.gain = [4.95273186044746;2.32559090319282;1.85366939988261;1.88294146727264;1.85532773709257;1.8682016148276;1.84797990991704;1.84480426889574;1.84183399708816;1.85642445460532;1.87040299704176;1.83046995872066;2.10436680732295;5.5732072987765;6.84214786038716;4.88400025936023;2.38615423773311;2.26578127765156;1.86915635314957;1.88037961821719;1.84451918730575;1.83703122557556;1.86292816176039;1.85165843695827;1.87242908286887;1.8709018688906;2.21289089506704;2.47873584457041;5.53086162502396;4.86317215727571;2.39287693791496;1.86844906930146;1.84740923190497;1.8329721009001;1.841261730815;1.88543891748918;1.85323083597181;1.87754311024362;1.86709713861798;1.88678760501827;1.86473048852855;1.85360687854274;1.86405617792028;2.48357355996632;6.13111352151897;2.23534884142;1.84424223916364;1.83912658429251;1.83507181316191;1.85430671199484;1.84848266614025;1.8383725391533;1.84629019396165;1.85796302462388;1.85745714434735;1.83258710608736;1.82785976985536;1.83227925147353;2.16840916748772;5.37370791331633;2.21933796420824;1.83617889478313;1.85593023921657;1.85632107422962;1.86405735275763;1.84543916956442;1.84124294851869;1.84149588512698;1.84921338879107;1.83898384248558;1.85186893375914;1.83426691453443;1.84068786733913;2.12488839852153;6.64676156670347;2.08884781128504;1.82930952260154;1.86429610935801;1.83090242442243;1.8713330986558;1.83152348528201;1.84459357645564;1.85061783201726;1.84419505552047;1.84330277587138;1.86227885832067;1.84405812255631;1.83991749773403;2.11647281547843;6.75889728396028;2.16635770430614;1.82814057447932;1.92165401478832;1.86214447064609;1.87135988125458;1.84406950217784;1.84817150951537;1.84173824423733;1.86617204297122;1.85436045122951;1.84430080920377;1.83786206291982;1.84040639742154;1.99402539300994;5.67994991764946;2.28066942249804;1.84436734034812;1.83856575467319;1.87631736147538;1.8704890927323;1.84695389303463;1.86429402678565;1.85847724797049;1.84970895239083;1.84583996322366;1.84502975384271;1.86281220115479;1.82808179347229;2.06197471422791;6.62467213555974;2.37097482143847;1.8621999511364;1.84577501796725;1.84638368323236;1.86455661888145;1.84344249602818;1.85096798751312;1.86373137792573;1.84048851302378;1.85027732363952;1.86954783514141;1.83026399903744;1.82535836828908;2.10435431348757;7.27393104034087];
x1_step1.ymin = -1;

% Layer 1
b1 = [1.5458519234216748;1.3356206259168537;-1.1693313298982453;-1.0619592793288954;0.77343922083895789;0.57622720738126865;0.66202107175917302;0.31580776110611536;-0.003420834982867378;-0.1750077893574;0.023793710827006508;-0.2253134859811779;0.41149260664148263;-0.61689503712517746;0.35625609552088916;-0.66847185444672486;-0.8959914653236859;0.96178095657466067;1.0908777191627925;-1.4103691583984537];
IW1_1 = [0.05960658664287264 -0.02964519874338804 0.010238505006499057 -0.13418539347371453 0.23892129106098911 -0.095974216277292759 0.027695867304748038 -0.046994792112671858 -0.25342037392291794 -0.076060299286074801 0.080185973557810569 0.21472068948825523 -0.13320749371075899 0.02029950577377166 0.019477387684933987 0.047121447698423378 0.10443044944328457 0.24681509141608871 0.30005198840708747 0.2980015770983116 0.33073642144540061 0.1406056239456987 0.0061656631988982078 -0.27635578905573072 0.01082404232738193 0.0070613635092040654 -0.16762149800820114 0.25107473967106808 0.206991795259095 0.18781643668877715 0.012763510155835444 -0.12813944672171082 -0.086248614984668182 -0.065624004592522142 0.048661652965284623 -0.22899117739704891 0.020667718308194732 -0.08717546870133587 -0.32156385628157996 -0.14479765169913986 0.11667801697279637 0.076628660186871034 -0.088630990664270354 -0.046072185167132206 0.27588205520469217 -0.018513028145102636 -0.0034319059636644575 0.20418844684393114 -0.15928480124140271 0.17788337547058866 -0.37958988271494071 0.076952355539384398 -0.13810720283000366 -0.080060277310395056 0.03012687368959939 -0.07455771884483528 -0.36294939474630322 -0.005880510182389909 -0.1353928880838563 0.22126246016099096 -0.17338800487775197 -0.14025617286485825 -0.18696732164149321 0.14495215823711774 0.18013159971620887 0.31580882035530089 -0.17041689562933338 -0.20288542004518964 0.0041711560390272689 0.24404291996473298 -0.093334062795392539 -0.094481317755232566 -0.02748419853131847 -0.16816999303639568 -0.16088898495291462 -0.013601455254696372 -0.0010667779373769006 -0.024004386079905481 0.044896393511197841 0.045769134671904341 -0.18406727757066102 -0.088828198205447739 -0.093515234490592167 0.15318773924066553 -0.053863592358443374 0.068278967601085983 0.034942909881451267 0.11976789534628168 0.12838520457361249 0.13729116021641879 -0.010297375856486293 -0.22054657303963368 -0.22534924658387495 0.096463416882854675 0.24738804963235556 0.28755245819830427 -0.044652068049684031 -0.12240892653883556 -0.25101514181428242 0.036369300907094011 0.16045246852393513 0.0034118661068368869 0.074825680574328438 0.13427193905931725 0.030355247108101398 0.01350075223332441 -0.29137599184192187 -0.01553199119919774 0.12914935217128615 0.027038227927064406 -0.1195676649441574 -0.19989342863770826 -0.016504789436338332 -0.20948749383716975 -0.26103406785681421 -0.041353993641136122 0.092939543253215962 -0.23330836309265915 0.13311387226247018 -0.15642347435261203 0.17925523655066175 0.17512932531378486 0.023546075078343005 -0.30657661414700776 0.063290785301170091 -0.21382165091145786 0.02022923872878497 -0.18363471744622259 -0.13988794346456621 -0.25200865382032112 -0.05176759282925484 0.027417776292389222 0.095743504550506453 0.097495150408540676 -0.10097106005846129;-0.1117330351654225 0.024470899451504134 0.15482452912998598 -0.026935875183768297 0.19149794270786502 -0.041041177774516616 -0.19383860723270263 -0.093365117209236737 0.12247615345084339 -0.026848341636548964 0.10378221611188206 0.17770794645365201 0.18377882302813553 0.041651086763666766 -0.071923210209234964 -0.13862912394756866 0.027996977336143196 0.32194849439586731 0.21432824861224808 0.064990626979816044 0.02857461446781167 -0.079309369513662395 -0.1711400654237949 -0.072151690724698112 -0.12214530068153415 0.076676418814438027 -0.15011280106782118 -0.17345006464092605 0.17930411169464622 0.065537490417639552 -0.10453647965712605 -0.15237223069054578 0.098517910221113475 -0.022019287842283412 0.010333824678328198 -0.077837025940737756 0.030431844207190743 0.13682044814045635 -0.017898064669015699 -0.37678520721617426 -0.020823088660847096 0.21057785119100866 0.044871601536079317 0.14317554178274403 -0.18253820584274941 -0.062929733238549529 -0.13963460308408354 -0.1732822767179403 0.013798845104983878 0.26343847844922802 -0.019239543853376659 0.091884769078389508 0.1234714825908635 -0.1172659463340244 -0.018775613122952856 -0.18472636702887929 0.19038638701410404 0.17279806708539144 0.086273062039481818 -0.076301082026778266 -0.13079729363060119 0.11542193816871901 -0.15819828524377813 0.30380301577168284 -0.025316791656288484 -0.025800155436691653 0.028237851781742179 -0.034285418494773519 -0.079486146943945901 -0.27163984180351192 0.21354347786634945 -0.0048513507178241672 0.024262148296620906 0.092937141219625805 -0.23929660070259606 -0.086060833263197356 -0.11860667655832369 0.17889143375771435 0.097852340824930967 -0.07371244542490471 0.09089850780864582 -0.18098344847863776 0.11670991871788891 0.2251068495177031 -0.24757305302541838 -0.063423028641108256 -0.10353174452273477 0.057854880192360188 0.13163448505883016 -0.01426804746194329 -0.079867061673377232 -0.10635330632639217 0.14760857683533618 -0.09701489781081675 -0.098368978340673943 -0.052191375381917364 -0.026524415148802348 0.025096283902906618 -0.11021429229850324 -0.2172151996933521 -0.069641968592328532 0.13444052575817628 -0.0046392349763490492 -0.0034807141980420938 0.20540180975468172 0.1086191722812688 -0.15684551428221216 -0.024793667187822624 -0.2642225174224842 0.054552908397796432 -0.19792671796942904 -0.068778187975628777 0.1428670953044418 0.042873734583503548 0.079772234569430098 0.013217246491316705 0.14305845905226092 0.30793964346439395 -0.12689786723333246 0.19974396686644669 -0.14689001652137551 -0.13520783548342816 -0.11605523100955926 -0.12154835859618507 -0.0041637626651082303 -0.023941352525555862 0.08565444771285044 -0.071300177646381205 -0.22397348271240211 0.14562310943011655 0.26046059588354498 0.19921015351546031 0.20915817302296535 0.030469715327009816 0.20751329903764673;0.033006415835414089 0.34094671753278716 0.1650306522644798 0.29123269150014797 0.12320728734580173 -0.16928913220023581 -0.12788095294977059 -0.33745780923394231 -0.23607529604631702 -0.36113017246297813 0.019723931660314165 0.1252488820218087 -0.053360623821235895 0.19711963068524693 -0.24032360314134374 -0.31879702219139872 -0.068791269009674999 -0.12690860791721525 0.14221704390305914 0.23062841701507103 -0.11299151061317904 -0.22247640239209329 -0.22581225930045129 -0.030680830873900618 0.24548492494623253 0.22355142312806045 0.42378586021181491 0.30547091664338738 0.11314637174563064 -0.017257110317118667 0.10344751233484208 -0.11937478929141783 0.067300806019807868 -0.094830687402128591 0.25476523025002989 0.12600955916233869 -0.077865818811330353 0.11203542763438108 0.65658387861473499 0.15676143554119021 -0.022150305788749533 0.25321814569718898 0.31587517968172985 0.17016177592143311 -0.15124200563703105 0.077714713322536669 0.050881081708504132 -0.15382492539808346 0.3854018197117704 0.23085216879596282 -0.22902993486755213 -0.27670527521149751 -0.061567094871426288 0.47772574155970271 0.082894130493641874 0.063379461351678101 0.021496590023874076 -0.10829775917626279 0.028470775700913532 -0.23652350604370834 0.024425090571235777 -0.021223326774686579 -0.06292524154108492 -0.022871927428343597 -0.024813362178987511 -0.054737857744608584 -0.36431535917061053 -0.15344937819043769 -0.14424916421019107 -0.17152942556176021 -0.35816164265079931 -0.42011664736864307 -0.37362742633977952 -0.0041968316478355992 0.037143209788872186 0.085640092655850611 0.38297812394861769 0.019006926742859313 0.079241094982608506 -0.2310970702475004 -0.14845445911586228 -0.079348211820062728 -0.11471211826724477 -0.19872873799287391 -0.020910345822817835 0.069185755796783391 -0.1323528026401134 -0.013569318446009181 0.22818347092709496 0.23836735945623819 -0.031046885005378725 0.041517396988722928 -0.055127086897469965 -0.28043004123162862 -0.23516242052700057 -0.01679235244986212 -0.13576149231645362 -0.089887434831845248 0.37998942708415667 -0.014197732484830673 0.35558698220534141 0.164203943225955 0.41986323947910442 0.12469409669120071 -0.096021634281199225 0.010705580687866388 -0.24571370830671085 0.020498644152469311 0.19927969002015633 -0.027912609358493969 -0.49737825586602519 -0.4670332589367035 -0.64892801548049939 -0.065327303739788192 -0.51815511504837786 0.057358314225927881 0.48728223431934203 0.38152436479340174 0.074160811834771578 -0.061062525832043912 0.1148260145823909 0.12189292121219185 -0.063064548608169971 -0.042936711480436679 0.1219218625877532 0.25447832443589552 0.05840041130203872 -0.13538407591326881 -0.20616218535261771 0.13050493389824278 -0.03230880869732014 0.29963351392380594 0.10769133523298668 0.052217290845758754 -0.019236106814878418;-0.0085165898325852835 0.096439390391865956 0.11040405241170648 0.096365016303846321 0.22834585116335115 0.021629677545827425 -0.13580448668866663 0.13158164717665863 0.09848170006009041 -0.0090548434328431709 -0.047746730581793316 -0.018671812253119206 -0.068117061682995708 -0.17424915527384624 0.010051153581321101 0.068796994383531623 -0.12379107773183105 -0.0016714349728900546 0.061737422433959646 -0.06623462319508655 -0.25040124801609537 -0.22645721020916071 -0.1926484324394579 -0.051235988328568606 0.077253318142300229 0.10861412757345744 -0.12281909445346408 -0.055958366016635792 -0.16870519768325301 0.15616702424008835 0.062619784065064132 0.035903358289963057 -0.20234585251920534 -0.06710578977700267 0.16664520908636904 0.033588400476729438 0.14609683777629517 0.16117324047378598 -0.01476175761953648 0.19296839099154267 -0.064209804650330757 -0.13113752351270097 -0.059478917050432574 -0.20196562408076754 -0.092512521671551107 -0.10089959986555594 -0.16048654169679269 0.0051066855776424249 -0.2775952567558847 -0.034156649806461332 0.33665341601774024 0.065576685545662053 0.061791946315160003 0.16557219977091914 0.20576888152999595 0.040917896414060996 -0.15457859720004224 0.21591742933634669 -0.31835623192524254 0.036632839253836959 -0.17852580122762021 -0.085591841750373265 0.16235408358193415 -0.025298008630025116 0.25094472336621498 0.07897679337013476 -0.050568107104470232 0.10557391775954915 -0.057618686320855449 0.052818972359757743 0.027035624023478592 0.16886847175271821 0.22589354147259585 0.0067531240841195821 0.034005234294309246 0.1040266078678474 0.038539704418083701 -0.1405082968704727 -0.025915518355459702 0.080949257920630457 -0.12705078983067025 0.16287870225910517 -0.15204534149140259 0.061916487125133604 0.23265419081986954 0.064990670240273302 -0.12770650761254534 -0.041511456352428679 -0.013254167284056354 -0.088662221807444652 0.1042769774215604 0.23991916153357082 -0.14278050304631734 0.14741663247491671 -0.2502456156720031 -0.13047754738585235 0.10557838647668655 -0.092270193083293497 0.2290176732572719 -0.0081543834456947843 -0.058503358206303091 0.0085744145000369674 -0.13365162510384582 -0.09682394753567819 0.16270970353556283 -0.18637603958614699 0.16966147885033822 0.23788416090361161 0.025811820002823296 0.25339993326947152 -0.1537115296610802 0.11002699506891381 -0.2377873731938886 -0.12607619133613451 -0.073236896584000163 0.17072486723381763 -0.030771237057103756 0.19378487704110611 -0.13793175591766133 0.030660825944467646 -0.0073518528120858637 -0.06157154802068953 0.12097230514353352 0.18617710712624971 0.019505111564057806 0.068939274320878555 -0.063335776344973629 0.20299587484231765 -0.20404496416690265 -0.04267909868925103 -0.19571863076558504 -0.26229101761429618 -0.05381726476361956 0.024719153610508582 0.011559962811575883;0.15281721863715975 -0.026415796330277058 -0.25873950261812056 0.011160900344284328 0.039248976109471201 0.54164841132943253 0.53312625875064734 0.50395991102382653 0.16198325387764601 0.31523350662106275 0.12974914175950159 0.0051906404781642546 -0.090864163444817833 -0.076450809599346137 0.16688426294200975 -0.010628570140155525 0.11270370851864335 0.19651007343586074 0.094740704494830907 -0.091616769988439206 0.28443597503740825 0.19495688539884154 0.57170974797040186 0.45087610360086511 0.16380128269751842 0.12258262831313463 0.063649974703613055 -0.31780266370026722 0.097286491692202798 0.14236898577348103 0.056242646703811419 0.027207589273402947 0.11358178869017932 0.092228244182183824 -0.090028666103112762 0.10200604135600341 0.14422258688945103 -0.13737810898721087 0.22659809502323774 0.3285095970554347 0.16686534520991023 -0.21967052578388485 -0.042982152057387278 0.014059654281383532 -0.04165861417924259 0.14831212381171854 -0.12682490999471269 0.28291386913324146 -0.11707762396991904 -0.23093414907250295 0.24879248204030124 0.22123251797280963 0.25955690406121873 0.42200829243736371 0.38293507537730054 0.13365504053313004 0.11369402918909155 -0.22175065771237423 0.14399287000224636 0.020856769670712833 0.011859013002683234 0.13671698649562464 -0.030487811682279341 -0.10151826935548891 -0.41594173578119703 -0.058952419185964541 -0.059197708263580784 -0.19974221892012411 0.014060124892265715 -0.16193681048606057 -0.26535606956036983 -0.15082105646353675 0.0062696079444588045 0.42438695193450837 0.018616583388995495 -0.17489681617420352 -0.21443538101050685 0.058330094422621374 -0.088903246055477517 -0.19876647121840921 -0.17634581348790851 -0.43994313478375435 -0.1656964767484761 -0.29380334648091094 0.023105094126486099 -0.21687743371845436 -0.15475117964547888 -0.081381447421594769 -0.14241783306197237 -0.084131470464384225 -0.39451225122164985 -0.29706885018611412 -0.11804117726140452 0.24579890149777828 0.48883529159756434 -0.16527318943477332 -0.39486727711892478 -0.037755099862421884 0.028753273093218571 -0.04766741457905261 -0.46324099106443412 -0.23744837813938721 -0.20738949697429382 0.018025183683838857 0.0053678754774435684 -0.25720037369187532 -0.35826724538056903 -0.01773828675223495 -0.18767948235888776 -0.080255137136646157 0.15335502357327141 -0.038754527787164011 -0.40939246095201737 -0.37419805611693563 -0.14078069889955672 0.18083761133777335 0.083622959125801435 -0.29336551968947699 -0.30044325654664056 0.29612688189490843 0.060888949256747905 -0.098929551721548659 -0.23419816349128542 -0.02428701140544904 0.24573698173143416 0.28832977331013532 -0.13219766289275348 -0.23631564661766635 -0.016508362452627334 0.072446978133769477 -0.012839607051260969 0.028061357335616426 -0.44892119376540973 -0.24788755171555441 -0.0134001702641811;-0.0068564952341801134 -0.34743005795098364 -0.088653135707296007 0.1293870932350194 0.67431425339385187 0.10054886549185747 -0.15238418702182649 -0.037349273784181146 0.046181774126795111 -0.18235040948185161 0.0086047684543863502 -0.1004346729668722 -0.23067826265989694 -0.06897736159863721 0.11169744276905323 -0.0076290228519222143 -0.44844386787477519 -0.26543661457122569 0.10299881052644477 0.50495958470282543 0.25717748075527641 -0.060851721244604189 -0.37523223927116667 0.081986295872113854 0.021606789852847842 -0.31190778513510081 -0.062431957283933553 -0.25770771255902736 0.088656009465777327 0.22043591528431827 0.079253945697392122 -0.40766284941245079 -0.30065243876186837 -0.029054420272775244 0.28012833442326696 0.015427730446282567 -0.12442012108037231 -0.0081669995035768463 0.46590337458418285 0.1750369995888075 -0.20803987251216713 -0.22050878252854711 -0.16296524266952964 -0.38612760665952539 0.086676854101912115 0.011992905284388782 -0.33904457377788294 -0.25458535680687944 -0.28989703101962111 0.34233476707373245 0.16388496178855358 0.095386015079986633 0.3977931824836346 0.44172504592664386 -0.064246708839113487 -0.18633351434188081 -0.21380915462283714 -0.28349878814880886 -0.50879568694087107 0.020117085457403244 -0.14999376593941194 -0.29992016548829575 -0.58027344297155847 -0.43618693532975988 0.14736040848687368 0.18659470374555009 0.1417777585844994 0.63991736593210247 0.48202512794888058 -0.087373581299583905 -0.085996016377880985 -0.5253386190796141 -0.47831988598064529 -0.56091029286490768 -0.2950742826800028 0.28743806511881675 -0.069287809077553719 -0.33275916245696124 0.078403872500502597 -0.19509381965167452 0.094496788740461357 0.2129023928844514 0.91197034763786933 0.44922176359514515 -0.16736588481273715 -0.08875090505843064 0.093661977993503565 -0.42248910145496854 -0.35156237939199231 -0.059445705888786997 -0.2512061611962455 -0.34684454212084659 -0.22706703676538242 -0.075543341778181727 0.12723701370223017 0.17064027360549097 -0.021125527831398764 0.86173124173367532 0.39859866098797381 0.064568317929854943 0.18726760952805827 0.015312544515365335 0.0095813567829614553 -0.035119843308982775 0.14024644213890478 -0.13825863346798162 -0.29999909509388256 -0.35569078823512279 0.18562092633168931 0.0097958397309416221 0.13468110822432375 0.30763142582321495 0.61341734434256634 0.29872217284239627 0.00069473672732928051 0.24363251321656407 0.27744655587006062 0.23807230108509933 0.21434220837029025 0.25040070693597388 -0.31516823343426392 -0.38920081226161107 -0.48741260721613594 0.39988232251152156 0.12734004329597595 0.054577935488510546 -0.139774290273219 -0.13357201963766294 -0.032865072862700496 0.11661837879389905 0.34450200794225949 -0.010798713922083446 0.28449843756566634 -0.10949533601327564 0.012280257109823367;-0.12705453167087269 -0.019270117672969978 0.099174789590330659 0.23683510276433672 0.090950053989656915 -0.16805370685761267 -0.25705069879964298 -0.065519380854342765 0.069546549574423272 0.12973942598061936 0.18994436852331265 0.20218106333395783 0.18633529443149846 0.26117575179418984 -0.032114594698251266 0.061396367611740187 0.043545831009933568 0.017886944320667668 -0.15817935148157625 0.02294222186281265 -0.50686201579436718 0.008022417346592748 -0.069560653739000666 0.083670834235983191 -0.085459164410247021 0.080177604149559795 -0.010183690816876763 -0.096876957415077666 0.10768968629522845 0.24527192971156694 -0.18598051041437635 -0.26219939318912361 -0.076576609696450235 -0.24380289529199017 -0.09522775612639274 -0.38007230348194121 0.13501452852273416 0.11164462331713344 -0.30281321638475239 -0.16026345628375935 -0.2729703304624817 -0.067226002183231021 0.018231158811618985 -0.10578546595745758 -0.14343765061313973 -0.12609335990810036 0.057843113264432616 -0.17065555048535103 0.037940432010818911 0.20843128373056299 0.12103460009191865 0.19427156468658532 0.25842468825329129 -0.33683106955247272 -0.23866617902564824 -0.074535862615546872 0.33734818562745511 0.082993041502416376 -0.16224103819098842 0.33707884324000098 -0.18908922089845748 0.17659364570346564 -0.16606552762074275 0.037179823326107218 0.0049569433213842266 -0.35986600879696357 -0.2674990538322029 -0.049091150691188627 0.20218379795572963 0.2651994226914865 0.30104564888890439 0.065041959555192541 -0.44887526367041825 -0.19962107789860542 -0.20015097250792821 -0.004457897622812795 0.061055412503580146 -0.21316678486162319 -0.24671368025523596 0.20936922277816422 0.17497474858116821 -0.41188752381099519 0.027153144181399171 -0.27787644090746061 0.37989711003448701 -0.031428569635048906 0.078637414803013936 0.26456298414687784 -0.16703564709215585 -0.18434494222485981 0.22983644779173773 0.27028478708236853 0.1265748963636848 0.090429438557292977 0.43401499501361579 0.041228610392367949 0.1038835021941517 -0.099251425248341255 0.13911604773941968 0.40763367789291066 0.33716269032389468 0.31623683032689726 0.33536091757392955 0.096425628566289223 -0.27533351830378089 0.026172970653225863 -0.034593821778161803 -0.0011887442158244827 -0.11243056345209673 0.16061352920838906 -0.00080066099860866182 0.2356284208778511 0.2390356297615116 -0.057535597928754123 -0.06582106621919892 0.026989070231240454 0.043883214434616402 0.16093606426714183 0.11155004110852361 -0.21706007921660878 -0.1128167233068 -0.18088313566518452 -0.0060754967668099191 0.0085871027421888079 -0.085038885905347861 -0.018725242168715503 -0.0091698180159650346 -0.085604511830108865 -0.080408554768640311 -0.063623073247156478 0.15149875824646439 0.13697677421819449 0.098994305989949849 0.11646327292673769 -0.20843684387363468;0.077271510627608925 -0.1511618614369579 0.11878940233258775 0.10590041837390156 0.073577429581572956 -0.16479588959171623 -0.124286825744596 0.046370221367162213 0.16113376463744128 -0.12411736519025504 0.091775515111838568 0.0020563695074359563 0.046256373848240009 -0.079416797949195622 -0.060742739653424437 0.20661639832881273 -0.11658736481520855 -0.18480995917455431 -0.29337797901397916 -0.13105667416423525 -0.16828008036692188 -0.088587053781522138 -0.059114983183578086 0.38641106666356101 0.12252098682791403 -0.0070171558564985992 -0.070658640172183901 -0.15536452215618299 -0.17549469857013461 0.0095170066789394079 -0.14031313584647512 -0.34019887305914043 0.21349004447613959 -0.2574379088179945 -0.39283127454605188 0.088290625298051956 0.16174890742308742 0.13045758004058366 0.48992909740808605 0.15808650468689556 -0.009242091847100127 0.042714915000680288 -0.032842997290668016 0.13247805000491594 0.35945033875767107 0.070847026881453293 -0.31244820272301393 0.42617524964437736 -0.15468322087648662 0.095405392044120477 0.61818365100121464 0.49190362996823755 0.4237173264980662 0.35994283126586418 0.33622911873772027 0.24224054689417854 -0.01858076857646266 -0.10567996123064255 -0.030481921094685008 0.11223262454429514 -0.12872340744113803 -0.43047197347685406 -0.19069226877571366 -0.22137314640876113 -0.17364661223139202 -0.29681989388465879 0.21861956171878744 -0.090262065363731228 0.075994868356833514 0.13392318701573275 -0.014819363406942142 -0.14285640000162675 -0.48387620537994247 -0.10447150959685689 -0.1194953505692784 -0.11357085868689071 -0.14434073996599059 0.18909791864414924 -0.38868488213056512 -0.51019314772947255 0.24639332519110968 0.12683785281021107 -0.20846096708829154 0.010279768647605846 -0.18164096465476301 -0.26172429495295707 -0.04050739445028162 -0.015531827238892175 -0.17013237146372642 -0.10477482557706282 0.11557761660216925 -0.092923632594255734 0.15282993358953412 -0.6493744828542245 -0.20381755400764759 0.30614533510767744 0.2051317110060672 0.10802894456254691 0.084479816648892217 0.0066015681991144215 -0.13608347187069497 -0.088095222549586127 -0.04944280800441405 -0.085878634581380939 0.037641580741011912 -0.13124661636339624 -0.23408719797858227 0.092903146728210859 -0.20010867024693227 -0.35414976714919844 -0.032315595696785382 0.25021916877841294 0.026606387514582074 -0.047150839732197185 0.058135276595955257 0.011428280379567946 0.015892488994409672 0.017069876277074576 0.047539009093996415 -0.009282673570289314 0.025677963550250708 0.0088565170644159721 0.31078280200458058 0.13312757019728075 -0.16590709527683956 -0.013895311746900894 0.17264629849351171 0.079128527224872555 0.16369249743868089 0.54355580373119949 0.28402588834198073 0.047512174660652065 0.010653011242992963 0.13863496861190464 -0.074984369604925619;-0.076476181183062236 -0.11507383673418903 0.016181695855994185 0.061070336464096965 0.039468344236041668 -0.21154804738841013 0.06160328535429041 0.24120590890686666 0.12670768091369289 -0.1078398430637349 0.049104980549328381 -0.15139649758398999 -0.19955844117421168 0.023322744119089408 -0.25612769800704038 0.080141359729372419 0.014222570967527446 0.54891546133271607 0.29922198967963703 -0.25879941492617869 0.12390901869698608 0.11080361918042607 0.30114585044067321 0.36079501577337642 -0.2344284221985663 -0.42781829964981971 0.28347310052189623 0.1037069283421798 -0.11079830132063904 -0.083191126345349545 -0.38135528486131504 -0.2136185376580243 0.13429972430436662 0.061574408244993856 -0.33096075526986524 -0.26675078339266783 -0.23115290357575455 0.38100356745533198 0.23466781982824456 0.081571828338050489 -0.38694295194447897 0.12812580571660054 -0.033674837394793662 -0.26930452005735772 -0.26255827775416624 0.042000426862168365 -0.20333401803119724 -0.28141286163500778 -0.28413603991091052 -0.081401320853075915 -0.45883163499716323 -0.58785087420958315 -0.080513971121539032 0.12266047727329642 0.2508753449278267 0.14922284408993425 -0.106206057131989 0.25333313927212353 -0.23278067704704128 -0.30139693570261844 0.13225388551944262 0.14881452685749233 0.2038870919058233 0.11961471222726515 0.10823606930410837 0.16409686903568221 0.10642891140412156 -0.1600829236549923 -0.28345562842386696 -0.0044906976771293631 0.45999632865886653 -0.032090779049518056 -0.054588502652031336 -0.13077185236130656 -0.19129696636555277 0.095860447750482275 0.17404954253518784 0.14485841169912056 0.16760740779873634 0.27958517316135972 0.075585903008324254 0.067901945892939866 0.1545067606172448 -0.90783590410190862 -0.42623197813604119 -0.077730357937825359 -0.0084852467718835693 -0.21445602124437632 0.38128040214459286 -0.22378755567296191 0.37240011684656893 0.26962650927607984 -0.19002652670948603 0.13839695718716385 -0.074280440912774581 -0.28483789015059269 0.35030807190386792 0.1352370775978885 -0.24242159949375591 -0.28063811550987894 0.056866433550487462 0.21117580037197445 -0.20454848399152262 0.21664756253053422 0.2456367891029517 0.18652588507163864 0.27409995461056752 0.19271906461332419 0.13087222797440776 -0.057326216700284503 -0.18315184385026126 0.3741650914701678 0.2465862243562035 0.14940939116284588 -0.38318431140414783 0.13616251898558651 0.36060438850245496 0.050494486235991981 0.026089912482368201 0.27817241774871204 -0.30142551347946822 -0.3771079022104446 -0.03044309568031886 0.14037047498600536 0.22503140964978613 0.024480729408289933 0.025735739936247733 -0.26396792607650893 0.082739604406413661 -0.15542431862724349 -0.028532660488209849 0.38103492460764321 -0.13051837197158064 -0.24681858682795013 0.13712526796998728;0.20230178245578989 -0.24888537292770463 -0.11147985121644505 -0.16688708701480995 -0.0042878727806062904 0.35188454033958377 0.048394008334711767 -0.00093727809005844155 -0.10776121278352307 0.27605773884299628 0.019136377890421063 0.14758901749194739 -0.27379053704478989 -0.13333997625236074 0.05107582661711281 0.19671205611737308 -0.29075997240388823 0.060419338103627956 0.028122904507516984 0.41937625793825906 0.44113807687848416 0.33385947300996299 0.028054902785012457 0.029261687080193454 0.028440649690039923 0.12964698422876716 -0.15715139400681058 -0.13850218280575344 0.019410163321112353 -0.29174228603344321 -0.10424752019688559 -0.059587353740621553 -0.1125395755549696 0.24928597985724726 0.1901350991877894 0.63603196161118691 0.093272334577186769 0.21789559982610424 0.47068874347355644 0.41797057360519613 0.13186391646359219 -0.17852676109887358 -0.0074629401240681164 -0.076197910826654697 -0.14789863223345442 -0.075386305530667802 -0.047734699042612308 -0.12405674689147855 0.055050185129383186 0.30327873726801013 0.39073468707752973 0.020161818502072305 0.15810904780012891 0.16999833473021608 0.14965102879403244 -0.19897546553143144 -0.05954690931294003 -0.085226223004532947 -0.37437326580629204 -0.22804831967102049 -0.22810316798540092 0.073011534449425528 -0.078358364568622912 -0.15481959257099684 0.22306378911892066 0.57395837031020014 0.49826876408290305 0.15024399316161272 -0.087989286519662119 -0.10188145426902551 -0.46274294167545149 -0.20850098861654798 -0.2401165458333536 -0.23611819655410848 -0.029112121821312689 -0.18754036305753119 -0.25744293581853284 -0.24881045671801111 -0.20937569617673582 0.2720193969155007 0.45491540025360067 0.45287813302015867 0.16700702898647668 -0.28893420112354773 -0.34745584134863827 -0.093314282809350863 -0.14206576161091566 -0.18361191273152716 -0.28520485855489086 -0.051159971979155686 0.026868626861467092 -0.58748875387141486 -0.61967314052406752 -0.34264857541670041 -0.15819433183873446 0.095006181864662073 0.45279669661940258 0.028237825350739064 -0.28078898107978673 -0.11620630037848531 0.046151119737596294 -0.14138136152097899 0.1228004377901505 -0.13116758119188796 0.016179507007413458 0.039988736652056642 -0.43288012541295734 0.12638932428130581 -0.047347837170467845 -0.11550741468469408 0.19933770141676888 0.27026180676701483 -0.17467988094215325 -0.36864856421182673 0.0070213013860015083 0.11808444054102722 0.16781691279304592 0.15993252296240221 0.062877368895807681 0.031002235078094891 0.0095133663692819719 0.097949309624356107 -0.16540406954519771 -0.25021608815871632 0.03266394828304027 0.32007551044453586 0.39105158109179905 -0.18842831444609012 -0.2250227609452263 0.055472663938312523 0.2144658828581987 0.075649739859477136 0.18280695253486151 0.11309192822626277 0.54622456668166131;-0.059569532562640672 -0.19741484203953194 -0.091117164584340618 -0.053408237626247475 -0.37347546274337362 -0.23123182797867498 0.10443634184747091 -0.2902293221144881 0.039827951409981743 -0.15656768499466522 -0.17761356150051319 -0.00079820362063753175 0.014327662290024155 0.01679184029779696 -0.10439286136182276 -0.11789126213384454 0.0045327684651592683 -0.37959258803786555 -0.13220448633496687 -0.29892950302478538 -0.11725990596737834 -0.27708229667301715 -0.40398735121900597 -0.2690313659338599 -0.17215310495366312 -0.067630719916284041 0.21211101168669841 0.0082288038081822085 0.21865400983002559 -0.050187383903214124 -0.037493222978460139 0.25881848769087584 -0.01324074964319597 -0.24175450110292634 -0.23526770670928157 -0.26904244923112475 -0.051616304069741062 -0.058037904227689667 -0.27354113894288057 0.058054563026724626 -0.073521574120448435 0.090918927451925147 -0.069491387831033036 0.18022729933550305 -0.111649118507212 -0.12778478891697465 0.14657434427685317 0.12114422894035001 0.069445965852465319 0.17991649712320093 0.4555562400467949 0.21637778396205548 0.21795345853749593 0.028426945575838754 -0.056477302106754876 0.24852637285091578 0.38567152482965134 0.083783388157443073 0.22125206219279422 -0.23739067217960896 -0.18343113167989755 -0.24020683570742282 -0.080908320925093896 -0.12950582766772284 -0.081475482888732395 0.24449776660119277 0.55128600481383094 0.21968204554667864 0.29220174603127347 0.11604947966824369 -0.31330278715336668 -0.064410477228957264 -0.1839211008242729 -0.070533523921417471 -0.063861956209875975 0.25007872971651984 -0.23100444923439287 -0.019850626260824965 -0.24384138027376978 -0.33323414109316868 0.014680986945564151 0.047549455409797881 0.24040698960226892 0.092985105855953668 0.12011519981823915 -0.14890963633724794 -0.039262836304713729 -0.16080635250866887 -0.11594095919924229 -0.019874297084711175 -0.094496531530838077 0.013260039161394808 -0.11790967698325495 0.060543863845565135 -0.21021280102766893 0.23763690492329856 0.65097977255958106 0.39551164310143311 0.52594999546385279 0.298991080680021 0.026633858285047062 -0.071673887157416252 -0.0065643520347311631 0.15125878783351976 -0.24133991720424289 0.21331483169412044 0.36932697203487308 -0.31726873900866404 -0.076062783036010079 -0.089366443102274803 0.11960226567090991 0.55947012080533332 0.31526877558567068 0.251577672185543 -0.082395878891382987 0.1774178187519001 0.057740043503357076 0.09844346375889404 0.22176794829148488 -0.092711103311841916 -0.13629352130896363 -0.029627397834710321 -0.035042172422708046 0.051812799142656747 -0.064723126278784335 -0.39823368216770677 -0.1887384395218368 0.12608640764512835 0.065967501780553758 -0.034123241996195763 0.068679969536410715 -0.10259807616553422 -0.0844127700906665 0.301151217385004 -0.19583712795816444;-0.10578430116413212 0.0030040851184810436 -0.26907345743464089 -0.3487317974322387 -0.0034832768390594057 -0.33024084249514768 0.063063958688569635 -0.19344183339194038 -0.27167085201341251 -0.17142449478889782 -0.11416823635862032 -0.11469308714053854 -0.19381757413710002 -0.039187224071435635 0.028063714008181122 0.10204550033269075 0.019256147854142515 -0.078309388520895626 0.24354534436026945 -0.0078402631109521156 -0.061810997947751245 0.0078802005450711136 -0.02852226632143736 -0.071991256108560983 -0.075064029713473576 -0.067665688824783077 0.052449935673983407 -0.21624943190811402 0.038734752258756298 0.055304731988653558 0.16969299448323291 0.14851405404834936 0.11162712304361466 -0.00069385796927078839 -0.0036461695096907157 -0.18848849646248289 0.17234137590959525 0.15243832749826017 0.094133221550621551 -0.092592811850928991 -0.0042528063695189081 0.020726813037434798 -0.34081267785335645 0.11107683520724024 -0.012252116430226265 -0.18004271798645571 -0.011008727328236054 0.22785111896033425 -0.025667573704762359 -0.098248533126830753 0.05664502547452261 0.22457755890988251 0.18057021645881535 -0.11193791155112513 -0.13900598506685838 0.071397884084456811 -0.21822847783255866 -0.22274320873533876 -0.049958356071560163 0.18362881746774601 0.15604697280485932 -0.10168066957635678 0.11283077030717255 -0.033978221376453871 -0.04404845820667963 0.017286260477258765 0.083668761624781054 -0.037186438393404804 0.098797470555795228 0.037037239768880417 -0.3443731450708547 0.15846070867099343 0.044662011518128986 0.050365083023609057 -0.20485094281915386 0.098648172431445982 -0.12744051950162397 0.014693334705753625 0.20686150093310388 0.13121851996239706 0.082843576535063329 -0.18725095062789873 -0.089571086722776708 -0.22648358379013014 -0.083760785786749309 -0.21067610218223348 0.098068129424269124 -0.26975176586802546 -0.10902252164914596 0.052609540992703832 -0.032216894014154132 -0.00081991234575243179 -0.1820332436191234 0.13985711096948039 0.034717077118867394 -0.062197062591741722 0.099478086209056335 -0.12522289398624584 -0.14411917937432217 -0.077715576756844193 0.21745140197484472 -0.060902387102278521 -0.2137609168561368 0.097121888374275753 0.044425066425411816 -0.20249437476736171 0.14585962894735865 -0.033142484980934833 0.011878189727604075 -0.15100466116672304 0.13650127634719331 -0.083909906191649855 -0.055025133975330418 -0.065013120919936954 0.097633738605608186 0.044582887085246929 0.29272390629900291 -0.06827449942989397 0.23941981416416863 -0.13514219067327296 -0.17022781914936497 -0.083260353627219744 -0.085641201836683611 0.17559017789335526 -0.12353072513624247 -0.012072055272349546 -0.13455584831826081 0.12943383188892019 0.039794609310731463 0.20672709468224337 -0.15489861140918959 -0.10593329823785522 0.11410791099736048 -0.058437426337465764 -0.037923167770984333;0.18406595361097294 0.18442124148077338 0.016980446834130719 -0.18733963125118011 -0.16702854170231657 -0.15237925577902453 0.16764492341360057 -0.048765806013733946 -0.13458440973203209 -0.033744137949595882 0.059430245625555836 0.01201478296894451 0.15146205259299084 0.081440127250811539 0.060832881230730114 0.2134736576724976 0.0074963623804888569 0.084814881798284517 0.10489500691964612 -0.16429777269553347 -0.059403025552977842 0.021876416608492537 0.12552523897547041 0.085326072393178076 -0.052462754046866365 0.12696059878748775 0.20218835562499626 -0.17527984772845709 -0.097277363536317343 -0.11712203680137694 -0.032719032708686646 -0.05012085629461082 -0.13042548560900341 -0.029538323829359829 -0.017291323479193908 -0.12956682972365807 0.042635450944501337 -0.062141833466533368 0.071483238164004675 -0.044570691098136536 0.12549537087337048 0.26592878327707847 0.026382537668237716 0.059498564802562978 -0.089447692071204635 0.23933215759049239 0.14493999329482027 0.13475389751170097 -0.13366852338600524 -0.068148972110763942 -0.056165557299150674 -0.079495577058986633 0.19681530163748975 -0.038846698456580155 0.33452027751363766 0.091141494188272248 -0.13969178969156795 -0.0088426951027543461 0.18852792283782308 0.14651538260126337 -0.01691403937191702 -0.14240803678439365 0.023166814444941401 -0.17871590243896113 0.1679055141921709 -0.089024943229175951 -0.12737589302796384 0.37005866245450081 0.14387787586356923 -0.10803695955260545 0.12315032000538145 -0.28959490356776202 -0.19035125837420425 0.18875173858299069 0.17366089671932958 0.14501329183374628 0.097980196386078022 0.076411802168005027 0.021034767671519541 0.13885492454886736 0.25639117453313559 -0.068577929022546294 0.083642901375746218 -0.18619720313262908 0.084022921020123972 0.1555661381658158 -0.10092372613494342 -0.021232511945477258 -0.18827012189569395 -0.17144063388089698 0.13846680491033705 -0.045382330050181677 0.017120001744592848 -0.0951870894460497 0.054341627164936956 0.2797946292964773 -0.26514617529053269 0.077610288579095618 -0.15861169099892528 -0.24839270778080899 -0.05908819112727523 0.058975597365306769 -0.001873132486272612 -0.055300229557741179 0.20429105951051477 -0.066854350031664803 0.056431128660868773 0.047487060540801145 -0.17328632984249531 0.023616251176063571 0.15804789215925313 0.061425416415730391 -0.15902162989191712 -0.072438836926892278 0.056084380991125671 0.083699245796860999 -0.055087024088502294 -0.149076433746651 -0.099473830618322018 0.20046102600858276 0.19036815828881545 0.067122565673546214 -0.16824316774861564 -0.19644210705939838 -0.20290534654724726 -0.055291299757502139 0.17650755821275063 0.067522119646253209 0.15731280132809589 0.20318573068857373 0.052064032444144176 0.0035344697164083764 -0.090347824597861406 -0.14851317358039046 -0.0012526248325739728;-0.22397163510177984 -0.081814291635742012 -0.097304251911851714 0.1651202818174819 0.19052813092192897 -0.31097975255595495 -0.12181222242379078 -0.15632518290338754 -0.1061895299410722 -0.20266011624197894 -0.11879824754466801 0.31513991269180031 0.12768370701282497 -0.1583198669185274 0.082343615368013726 0.28148488173769109 -0.16123625568020028 -0.10132671180109863 -0.0079598200928568032 -0.0057528290839727507 0.060550958352194928 0.053304265753576385 0.072927836508051305 0.27966143787635955 0.047405465405856821 -0.097453480601174564 0.2547412182155247 -0.10282154606920435 0.14824462491170654 0.053547183967978348 -0.10019607676589598 0.066615456970575262 0.15919514869990378 0.2805142999003134 -0.052242417574177233 0.024034115124455281 -0.11902733138364741 0.099883906479981063 0.12644602063931515 0.085303387078243739 0.067306136456730489 0.13974111773809997 -0.17091693051823598 0.08110852091453058 -0.25491284190006674 -0.14594273949717498 -0.092863852860426158 -0.31575136867538212 0.098005075429165034 0.034968507008390728 -0.050783177490642428 -0.14300496554674041 -0.27811707632059024 0.031861313460843955 0.34215522838439461 0.50654846410627996 0.25566254676056738 -0.095651861407449634 0.14227902581787061 -0.11253711799518931 0.23496046106667245 -0.092627179856425157 0.10517456007222237 -0.32727202297959762 -0.21149203348096815 -0.41912941170403356 0.025814318862764161 -0.17254335293506415 -0.054125322426060551 -0.021835897416652775 0.22963187776335403 -0.018333048501911711 0.4294297905582431 0.045514179002336425 -0.078978034522783305 0.11435607122506276 0.055998582137441522 -0.036578066153922111 -0.10561722377045578 -0.6314237379759059 0.0051894305978931543 0.090586815331740664 0.36995368840187443 -0.42392121005043132 -0.29569664872576312 0.30985275604403828 0.12713854354615026 0.27078012540066393 0.23111808442598469 -0.023969465457346951 0.45848005755390436 0.24550110377470746 -0.23433560709525347 -0.16394359412561085 -0.43868303943243653 -0.0003161206172837736 -0.080756972098659299 0.090526788527341334 -0.24587442318118619 -0.5082842021854399 0.12302636907754291 0.33431825998111897 0.50464815336101132 0.026360174623669033 -0.005234214642517534 0.13641973186701223 0.25688361939953408 0.3150896798004838 0.14636717807526894 -0.34271989343863285 -0.28480373504599882 -0.17728083839021166 0.033861557902955974 -0.08880108703762439 -0.30938114052891397 -0.32277070735288871 0.35089629535317851 0.071162568728343298 0.10503437006818375 0.072698723804438578 -0.10527631772674008 -0.41616909579668937 0.46554364230129019 0.22070179355156286 0.36268134208336339 0.068610013176955642 0.25147152938649986 0.18626560126288058 0.094440402512424734 -0.35360091621340334 0.020355422856766909 0.07873129023948168 0.035157253667009156 0.35114449180637669 -0.0097180767932605397;0.06589866366347856 -0.14832641993073789 0.16487279325844134 0.31537504795438953 0.14147799777145242 -0.033946975175935125 0.20171715613894509 0.31961186242204115 -0.1524879664802071 0.039446226908312211 -0.26528203596128103 -0.0057413561519366971 0.0072366265423286754 0.21773422919295482 -0.16490890326193833 -0.040350073451305889 -0.284278295117599 0.23344899248321535 0.068629278422790735 0.058816292286196309 0.27520565206399294 0.31244767286008107 0.22589438581883697 -0.064644682663041866 -0.071640326737987176 -0.09825005295823408 0.17077261433613286 0.28828277200414948 -0.052006083782612046 0.17895600980202125 -0.094497257164873491 -0.1250426421746999 0.13032568833867136 0.37822139945444988 0.53971602397762164 0.27059544424319087 0.38856612425458736 0.79006998524403393 0.17346241571250454 0.12693905475082118 -0.18721391888562505 0.27360979759525572 0.25210577373311005 -0.23918029712652092 -0.14239443358531703 -0.010561980083463852 0.00096452620627155306 -0.13041661303643676 -0.17146235231586268 0.20315569994016341 0.25684290129858772 0.34943767336984061 0.29373311360559096 0.29321503877578103 0.40686558104266651 0.0078097085439945684 0.31076664752177152 0.14622238338552968 0.027173151263875671 0.020645921904311436 -0.2079707517372455 -0.18997933270964301 -0.61193457806001328 -0.27704870026873057 -0.34242234159145429 -0.078653608515556625 -0.21059641368243451 -0.13840220887679056 0.31163718542495594 0.1929025227668629 -0.21457920465726318 0.18074438370512416 0.060728409441787125 -0.064578414170324505 0.35439385116274608 -0.32844785076761046 -0.095293528470762598 -0.39582877460499216 -0.37327552011558368 -0.25683782866274141 -0.39729411160696571 -0.60882081653791287 -0.10987407874224857 0.042436449631596415 -0.10990517745511522 -0.081517602526829019 0.026989567583138627 -0.013706387660611836 0.12503582490633094 -0.13536408595693378 -0.19596876537073596 -0.38113270687751649 -0.63866289722845515 -0.25512937579291439 -0.3372663532798722 -0.064101276461786649 -0.16508749405134959 0.019867910509631825 0.1074770866448512 0.31588397910157484 0.19365785832927523 0.23389010375135214 -0.20990323496260363 -0.067136319856159671 0.05754222666141541 -0.092048196337285434 -0.058688623414198428 0.13042558383254724 0.34386907403226658 -0.59751823506452029 -0.53483078688791297 -0.12352449899725271 0.041186772088066578 -0.30172917725549053 -0.40959939665153838 -0.18412749339306131 0.053837358606473484 -0.11225701052315118 0.1887791159529017 0.10293364504672192 -0.30287740229641064 -0.32022293300406984 -0.071614009200883899 0.26803024594273889 0.29463363631962186 -0.11286723502725134 0.36499467258088564 0.26519499582260375 -0.37350013154690481 -0.77413854709840502 -0.3786630013952984 -0.13211106498693684 0.030892155853336292 -0.15577439091509282 -0.085986732224327192;-0.055480702730010011 0.092851716408026502 0.088540971374971869 -0.031661789736496554 -0.20158888428431171 0.31663783923266109 0.10319548344487116 0.061014717139372655 -0.09330467218807395 0.054787148718322708 0.20826678005334304 0.11695520162283814 0.3348040379252919 0.062007993730416815 -0.22630514329297072 -0.25247551188787987 -0.16958426961512932 -0.34415394419635797 -0.080928232679202156 -0.16178131217800099 -0.035087278051439449 -0.17986923130199234 -0.18871866915781388 -0.035961726051518941 0.080492152108809847 0.079609275902659801 -0.15752824593336442 -0.086857656384445717 -0.19944220039279945 -0.22859012303596532 0.17455098082914444 -0.12810790437594816 -0.23855809086326232 0.12439903470737756 0.22803729009389626 -0.30723595960903421 -0.83251834913401634 -0.36253065719245103 -0.16631882024616812 -0.066011631021730424 0.30975771666909274 -0.17009916956073273 -0.03630400910738376 -0.11441158499462969 -0.089032659090585733 0.26783378207070813 0.30949454897455908 -0.027091944299079598 0.26593661809628888 0.15051845418958357 -0.071940821948199299 -0.021357995575668792 -0.26351717762173843 -0.35448707513445699 -0.15468929091108416 -0.040469405693521004 -0.054864587070431535 -0.19315372185021909 0.30790697258831923 0.10245854244933174 0.45603823496259593 0.12629855301122728 0.33475222179993674 0.14034697193345702 -0.0028273717050919752 0.3466276973790165 0.506958205940229 0.18531176936928859 -0.18935974467659031 -0.18265222413703763 -0.12789689369713167 -0.20036068859815911 0.017055673514231384 0.39679127980371609 -0.099516521189319432 0.41420210349537562 0.4562271118129021 -0.058901052819664748 0.13108944352415419 -0.10813268714927322 -0.44356632657199052 0.10457103045080236 -0.075989402902371314 0.070552219869807947 -0.027834464501773373 0.1507619166387823 0.15468550617391297 -0.097441756425897252 0.04921474889270628 0.31308698873260699 0.2578255034403395 0.39601838661472394 0.25312607605698323 -0.23384130136870693 -0.26679371554937742 -0.39225863940524142 -0.21154736872104379 0.20370236539138578 -0.0068546667324914864 0.084482499442186651 -0.17601341845532767 0.13508521327083095 0.051398112672527786 0.26084174596544063 0.01443218384055534 0.0092184998498824715 0.19411128458463955 0.19669979928229581 -0.37308072571340151 0.045099871084143088 0.042535235690853615 -0.20459834169591695 0.32033127303071335 0.013822611744662882 0.21398726670845636 0.071204749432207878 -0.30550972622960471 0.25496574236540875 -0.23303084174071689 -0.44506081199166103 0.17908858122268151 -0.083405084712131247 0.13613278886557098 0.075114401567161829 0.20618759655585889 0.2363516467759319 0.30426508862165341 -0.072540133635876705 0.080958543811151848 0.19930349668053246 -0.19960619135471494 -0.21484035133906984 -0.11169414543530873 0.27306739072268155 -0.17104435484349145;-0.16073362920637668 -0.1335769620180918 -0.40610814609191465 0.14448376459241061 -0.026853682811264556 0.061320245894030845 0.18036177445819451 -0.17497220248105938 0.12890578286650922 -0.0098034237459522638 0.23813277217626477 0.024272382090338464 0.089496690926800029 -0.17522070834973361 -0.17273623024353976 0.12578479607724735 -0.0646067226932312 -0.23496257812978658 0.16155102828143059 0.13753518898920317 -0.080020622586781123 -0.19032559916057293 -0.35558696199701179 0.052106085951718353 0.40469941320733704 0.47473299830584587 0.56678031280779884 0.061456167060953824 -0.023436671477234779 -0.19565500496696706 0.28381850474212716 0.20857185100487732 0.14233540891944188 0.14973646480594069 0.040009078830707291 -0.394733602822679 -0.39830680566030086 -0.13146847159169528 0.68229828414506477 0.67627968951543593 0.48416267435867277 0.28958515146411445 0.54801358989214954 -0.16679986966051313 0.14428153510093658 -0.096856114724251569 -0.010490950880920166 -0.029462660766723315 -0.031782561977810889 -0.29754119938270523 -0.4192661802433249 -0.36315066285136621 -0.093600867713206665 0.30117085741549698 0.31261484581413013 0.09516721330076898 0.045492572676377394 0.33365102828559029 -0.060551716110307921 -0.095644085050484828 0.069785655429442303 0.032109835087894674 -0.045458597950599325 0.083620005061755237 0.063495842596393237 -0.16574861410186759 -0.25493680482494918 -0.081146881628127776 0.090235038730895542 -0.11876359507072305 -0.059589047652662396 0.14029466991369691 -0.091304262936767272 0.17022930656302868 -0.46396646284434467 -0.070434335316668983 0.20040574985662624 -0.0037633583454974996 0.15728958693638176 -0.16123820882383344 -0.55668647811474148 0.15807893985223606 -0.028377922895823159 -0.05759277982636235 -0.40689957189659232 -0.47557621143680706 0.44459210316850245 0.13577123277847356 0.38937462408277357 -0.097075701480301965 -0.03912667732820653 0.14254548167877179 0.27984906934334486 0.038267754668654279 -0.20181924058790271 -0.47411375922414561 -0.13241842355144787 0.17959524158029 -0.034610467758898124 -0.12091916657428405 -0.31786260995512744 0.3185356739761987 -0.028905034160006452 0.2037220626448227 -0.031124011270114757 -0.010751061666609432 0.00021251588650549958 -0.21731956292476728 -0.19109610315360614 -0.052059334431058264 0.04977467138223611 -0.32713321541891249 0.055771376940908522 0.24471993678059323 -0.10417585329103315 -0.14320180710961844 0.065819671783550027 0.1793946748291442 0.11034276538028008 -0.30824808943336057 -0.0077079914987127482 0.061728155814936507 -0.35125379875036272 -0.00098138691117756862 0.032968774621546119 0.39929938881917532 -0.32090500479074519 -0.27017480808679628 0.16932586190864751 -0.26309984174716761 0.023760299926432984 0.34520519293509866 0.38110387135894608 0.094417243986488805 0.078762235298554528;-0.057647616630560269 0.082663236798618242 -0.060147656493539356 -0.11531154994348966 -0.15011040121684877 0.16016703011324152 0.11764124494001899 -0.095859232775237571 -0.2182439752379374 0.19148112982205695 0.0037040518717442036 0.1943855256755776 0.18223725231341301 0.12934124502462871 0.2427216678060331 0.13686831062941027 -0.19039638826156491 -0.28541641083109537 -0.28677052792544344 -0.4772401841903573 -0.18865778133360558 -0.18885029860491898 0.2812640692356902 0.31224144742860199 0.10953181909779076 0.11293467328018002 -0.028875691649741107 -0.043118127131493843 -0.0042968815040399389 -0.18629434142141843 -0.235784590835206 -0.28840602845565466 -0.24041911962038504 -0.031105595341217859 -0.061126054570409802 -0.10870924724362058 0.1330373312928321 0.45172625578263148 0.10991850513428107 0.055034926424299337 -0.12593123917467791 -0.11993498736709306 0.098029645934387469 -0.19601509142815438 0.11074933321594585 -0.14297688171071699 -0.24215707302109069 -0.17530527744736282 -0.2008531355561323 -0.56531146247198394 -0.45130158955340516 0.14565477972181914 -0.012941720185559051 0.11473920762446847 -0.064956012864688842 -0.38189961058589994 0.079873419430961073 0.4912271291855379 -0.23904694860068224 -0.16214650031663233 -0.27670798583552741 -0.20798314742045376 -0.16501872237795112 -0.074588800491694682 -0.21888219845256085 0.28892625699838548 0.27707491315576654 -0.14434100726739738 0.068195919570547478 0.37902530313969152 -0.33834561027293569 -0.33484977698352586 0.26418484957651911 0.32973109771164355 0.07935855571580254 -0.51336062797392734 0.24906750039723527 -0.10271668394571266 0.28670418574606676 -0.18190533599819783 0.83020150533977777 0.28652936193656103 -0.048083519735078545 -0.076159562055323093 0.40993416711647285 -0.0061028625027724206 -0.19965711083805493 -0.20576815744979815 -0.082740799907497095 0.046936007992571575 -0.30865020327971149 -0.14778607431953988 0.50110119998046831 0.20500903270484189 -0.18164924217943074 0.19273282986206589 0.6614869833684206 0.27674711664587082 0.013740753796608194 0.12699673562568317 -0.041946729582347062 0.013286987545429578 -0.3638776801970563 -0.19454645452155975 0.10952424392459857 0.14736418036943491 0.21722458495393532 0.41844833802369252 0.10504581076222036 -0.49597551937036988 -0.29919337598774443 0.21340620282314224 0.11948828057117886 -0.0042825786148464884 -0.42378213568115519 -0.31736513573936975 -0.31674435521021688 0.040642695101799249 -0.10493131104070462 0.32728213248933191 -0.047799479165021877 0.10440473310106108 0.092930711601091925 0.31866283335767981 0.10685495149124004 -0.16011798327941865 -0.16075824213329618 -0.29843609633607615 -0.089091644046290053 -0.026484263228013435 -0.19849531285758945 0.15555391924131617 0.54502443889024932 -0.067825612505740332 0.11400689780961547;0.035109197100779456 0.1135196877189871 -0.20357433813014 -0.14598948345515725 -0.19119307137692979 -0.047313651812717017 -0.13682159282294101 -0.13308298661177634 0.024832671900992823 0.060286036811026407 0.07880405042268343 -0.058572351419392196 -0.21707041948939851 0.12182799070398091 -0.18641250714823526 0.044284466002940226 0.1252050195301635 -0.33538174096672507 0.105356708079996 0.088298652091694768 -0.045351045388792963 -0.12601420099161437 0.28195742105985816 0.014008932187740011 0.027375256713943329 0.12585151698362651 -0.23635815712101305 0.0060645412762195972 -0.18964480606892201 -0.071828342614642632 -0.22622436306075505 -0.069663692863990004 0.18029105118574446 0.28306288413426345 -0.13875747721836695 0.073853909264718229 -0.056483384437463757 0.074123733881075848 0.23212388972086476 -0.022402895771908991 0.18960070664553699 0.20742391072251443 -0.18141152070122082 -0.12492047708416799 -0.29811616080417441 -0.13159119759396906 -0.20405832429787024 -0.18422780363501051 0.076644996625379727 0.066438496059397542 0.024180352900697272 -0.19587832122801888 -0.052480177405441385 -0.012645898755623362 -0.092805155111155904 -0.07311826948306599 -0.073128958191814142 -0.19740974500780994 0.0098293845976668796 -0.3082322291191783 -0.1085366596225492 0.21131487430234816 0.10078209822612616 -0.014969584338249686 0.13292913907662807 0.049411621116723412 0.30874862120355312 -0.055824160600946006 0.21558341613023885 0.054392213684322031 -0.1073423787351693 0.22403965271281454 0.15650119614670649 -0.17432546328094478 -0.09110881037905913 -0.19367570376908158 0.46689135328682457 -0.096706697161968391 0.1698648119790549 -0.067093081421713122 0.52194345506368522 0.21887644155855288 -0.12055876255955544 -0.15574198755480018 -0.20560288958575471 0.17285451449096245 -0.17455635468244818 -0.026887451296669189 0.0031482418189158951 0.23368765307541534 0.15358957701747661 0.22182828371568031 0.019527338564521938 0.064442286784386529 0.040314906579581852 0.23573393661202269 0.015781291766909178 -0.0073345118056359019 -0.10129714137898052 -0.15454612618913283 -0.0082228620078302721 0.12174379429073517 0.043786848342090109 0.018452897588832336 0.04064590039713456 -0.23780696850139546 0.26517020162849481 0.29421318745235592 0.27649295793931866 -0.14447315770995184 0.17629816006503785 0.0044983731176019308 -0.055755059432395331 0.18113394137490976 -0.12215668412771696 -0.0030101270063921859 0.14396258395833714 -0.23435478570357082 -0.023685446003956674 0.049051587916434339 0.11322354219750426 -0.018720674935925843 -0.1569533415310389 -0.17167207921949212 0.0031703241202870542 -0.4095242993836431 -0.0031874130992811723 -0.29617389937964689 -0.12362086303062693 0.080962734555506705 -0.026272985676385575 -0.076877255854094953 0.076010418649904085 -0.14589278106011747 0.029731032339975021;0.011148282675644543 -0.25436904237354829 -0.18738196181563524 0.39925824953235384 -0.034959542346231831 0.098743360639823544 0.25520445837565353 0.2908671465108737 -0.10831037625863893 -0.22356656006392123 -0.013255486438436777 -0.011332355311487522 0.23743005808661549 0.17524336727043133 0.23531661484709215 0.12905775536719072 0.0025707764429861758 0.16474492780812008 -0.11431419738022087 0.022493582318690825 0.018943169264435487 0.17143143264234725 -0.013188422490746069 0.18447806416141876 0.034517062113601497 0.35801631820113594 0.30434614049562014 -0.14699610809535749 -0.0031583169107963806 -0.043665646805677083 0.22677077368084114 0.10574796001255256 0.19382391878155997 -0.032943859687491937 -0.18629211952563951 0.02571706397878629 -0.083079632012964533 -0.25247003006840291 -0.22593083351263202 -0.023548567994081664 -0.32837532818437926 -0.10093168429732068 -0.01782462357175809 -0.12561635548916442 0.34277597153949735 0.048893463529683476 0.0089630354539135711 -0.020047041118857897 -0.062692792093463012 -0.0096299124738717344 0.070162577534010562 0.053782081796675499 0.39113653178988667 0.005906234515190659 0.061667569612937997 0.010298322976452166 -0.1640320904567002 -0.1695574226718474 0.038933172701289438 0.27746970497541795 0.030472915914319196 -0.18127586507724072 -0.10206603007453009 -0.22535619190741807 0.021084663287418055 -0.49400505352183283 0.13516261051307635 0.32342746593232208 0.25169774311228005 0.20114525596437954 -0.09101529441433942 -0.038153395779951818 0.040690871083257009 -0.19251704183831908 -0.12625070803126412 0.10041710799468487 0.077078872765491593 -0.17299637693383149 -0.3753368013800546 0.34007709240619743 -0.14587427210034684 0.21657991296664167 0.19359456532399971 0.46190703585859116 0.26472990217431769 0.12986952923681994 -0.15325795389133198 -0.085171054497524698 -0.052273641932632939 0.092504167421053621 0.033006749444178918 -0.039772718239285715 -0.16466988785095044 -0.16736210437648733 0.52086264606129695 -0.073961190973093602 0.11164448915941047 0.042303793995949329 0.38615404534750813 0.38984357573732886 0.17424929732046054 0.0027671168054477376 -0.28461939210775 -0.19233462464876683 0.25556894827470844 0.0092879922671510028 -0.1207574373067026 0.041473773851680509 -0.015842443580444697 0.077058308128700251 0.15608047920365176 -0.34442295099560161 0.11628528901573852 -0.26149353049766866 -0.26292872824742863 -0.057360570525055256 -0.17918293033777338 -0.3417101751113733 -0.21145374181195181 -0.17482301878919473 -0.21510481957783129 -0.20566936378831199 -0.18159250793721929 0.060236764610584963 0.55673805076446448 0.11835547924532043 0.089367192868841996 0.030731276029388022 -0.036580298514065274 -0.15435825261267233 -0.15643036433944021 -0.28146462394521599 -0.2240171529778891 -0.006442095804417223 -0.28401105866351584];

% Layer 2
b2 = [-1.1032000803011226;-0.72904957273663407;0.54789421256524118;-0.24639904658956796;-0.65982208092321626;-0.37981962017288989;-0.43545755579491946;0.16792926244015929;0.5883246904394358;0.28157852310235315];
LW2_1 = [-0.73210699774989318 0.0060905912362346623 -0.47595841127075955 0.21407768212441808 -0.86514665288983783 0.97951626325566166 0.54343541023021258 0.14608255573618531 -1.1207174692710362 0.32802101080913287 1.3941114416750846 -0.2143616599868701 0.52543422594534106 0.23581702278375391 -0.82213413681037006 0.5825260827473181 -0.35566852278687894 1.2674739891092439 0.80948343778453269 0.96706429559413276;-1.2518640514746207 0.42398528465884 -0.085191671672890296 -0.69855916440606269 0.78547395858883906 -0.56899014646829893 -0.4864740944106018 1.4681808727004515 0.39774090526300321 -0.56013130628219654 -0.015196526851418177 0.14186270802054571 -0.47610459994509413 1.2504526690611319 0.27282051618726549 -0.44138653901315889 1.2181540997211149 -0.27196555352613799 0.021398942043050956 0.36782984606559549;-0.38882193020122513 0.72174120653055063 -1.0901323918106223 -0.89001499825411434 0.76605682960432564 -0.29066212740794162 -0.67027026574153659 0.19187467718302909 -0.13419175083222387 0.33656212513047429 -0.9914002061226237 0.59369729833243801 -0.29926736825354289 -1.4742948133133302 -1.1733822218391872 0.21905063563354699 -0.47541253932490696 -0.1145942809775848 0.43337162607175872 -0.48334417955386483;1.0886818983775741 -0.2284033031445116 0.15449635049759253 -0.1942136757175634 0.98556226512702638 -0.40303280810767833 -0.34831796325600689 -0.17208788789879365 0.35774767764348236 1.3829433049992945 -0.60492713984423108 -0.88834040476922904 -0.52585596003806501 -0.043983057337982225 1.4530891270724826 -0.068214004882643856 -0.95557303416743689 0.52234699817495456 0.15647860818766865 0.84955472338717064;0.7699599570522887 0.67046437887438615 0.22388585012563605 -0.54824048705706352 -0.51323209516669144 -0.49462145987533535 -0.26187603371555507 -1.2891110880717171 0.81727329186192188 0.15524436784826673 -0.42222364994946165 -0.5409149964177653 -0.31990235645888848 0.73948254333120023 -0.12183318444548143 0.95124233749794818 0.46362857148486791 -0.25265142473356844 0.79399034999722817 -0.029446162302214925;0.98156593639219492 0.33556766942811361 0.41321240282152932 -1.1059268871237138 0.096119987416096661 0.75063092648898311 0.3862536130713764 -0.20467534819936822 0.49227372173694944 -0.65082591950984947 -0.61281618772132218 -0.4400691513869221 -0.00042537402338850561 0.78226551886870599 -0.24097543062818788 -0.24505820015215374 0.31426440558890362 -0.67024583498139845 0.39636416976777955 0.82717070216878863;-0.25953345969330399 0.58891111449400335 -0.19957792078358177 -0.40896614262208458 0.10376048731964359 -0.35819994360372587 0.78165466962838526 0.32426347030058367 -1.0291959528663661 -1.2968633379286956 -0.11065282588295078 -1.0774530099925541 -0.62607384080592399 -0.55308104324123863 -0.74714797417932799 1.195824752953039 0.51065515666465588 -1.2247006647551104 -0.6471646452238583 0.3348694322828113;0.03947748563839272 0.93207773941736249 0.59716732952086937 0.4322911812436715 -0.77930570653291231 1.5319402891010969 1.0461597936237048 0.34401534520268306 0.49264514027363909 0.6416978899198601 -0.39651327550906773 0.30496790421675868 -0.14043780221079824 -0.50264558567980144 0.36509302502100455 -0.76657300094086978 0.33710994955060675 -1.089034597673284 -0.012363717252371877 -0.2902831187395154;-0.82832669414303417 0.70042772238612794 -0.83161238774890234 -0.4791264318961721 -0.56352073783889067 -1.3692877134845063 1.1997804277106252 -0.078000987970953339 0.9292123222770724 -0.80545189976691445 0.062114066994441323 0.36509918791455953 -0.042250207005314254 0.0020608796560828441 0.5392467882462153 -0.74739219705550408 -1.1800390444234181 0.24630005331629495 0.082637133518426928 -0.1517505179328526;-0.57015706933878874 0.32628092579238344 1.2478004674987058 -0.091280633600025321 -0.40694763088836444 -0.94641293766570112 -0.51374192202449076 -0.22416595788878815 1.2159421142202786 0.50501781572547066 -0.54183898513363016 0.23109044029332365 0.84714991457292588 -0.41442905417491566 -0.53558900870302073 0.076136845423702346 0.54363473752542424 0.67497006684350713 0.76230567924155457 -1.1296415192681948];

% ===== SIMULATION ========

% Format Input Arguments
isCellX = iscell(X);
if ~isCellX
    X = {X};
end

% Dimensions
TS = size(X,2); % timesteps
if ~isempty(X)
    Q = size(X{1},2); % samples/series
else
    Q = 0;
end

% Allocate Outputs
Y = cell(1,TS);

% Time loop
for ts=1:TS
    
    % Input 1
    Xp1 = mapminmax_apply(X{1,ts},x1_step1);
    
    % Layer 1
    a1 = tansig_apply(repmat(b1,1,Q) + IW1_1*Xp1);
    
    % Layer 2
    a2 = softmax_apply(repmat(b2,1,Q) + LW2_1*a1);
    
    % Output 1
    Y{1,ts} = a2;
end

% Final Delay States
Xf = cell(1,0);
Af = cell(2,0);

% Format Output Arguments
if ~isCellX
    Y = cell2mat(Y);
end
end

% ===== MODULE FUNCTIONS ========

% Map Minimum and Maximum Input Processing Function
function y = mapminmax_apply(x,settings)
y = bsxfun(@minus,x,settings.xoffset);
y = bsxfun(@times,y,settings.gain);
y = bsxfun(@plus,y,settings.ymin);
end

% Competitive Soft Transfer Function
function a = softmax_apply(n,~)
if isa(n,'gpuArray')
    a = iSoftmaxApplyGPU(n);
else
    a = iSoftmaxApplyCPU(n);
end
end
function a = iSoftmaxApplyCPU(n)
nmax = max(n,[],1);
n = bsxfun(@minus,n,nmax);
numerator = exp(n);
denominator = sum(numerator,1);
denominator(denominator == 0) = 1;
a = bsxfun(@rdivide,numerator,denominator);
end
function a = iSoftmaxApplyGPU(n)
nmax = max(n,[],1);
numerator = arrayfun(@iSoftmaxApplyGPUHelper1,n,nmax);
denominator = sum(numerator,1);
a = arrayfun(@iSoftmaxApplyGPUHelper2,numerator,denominator);
end
function numerator = iSoftmaxApplyGPUHelper1(n,nmax)
numerator = exp(n - nmax);
end
function a = iSoftmaxApplyGPUHelper2(numerator,denominator)
if (denominator == 0)
    a = numerator;
else
    a = numerator ./ denominator;
end
end

% Sigmoid Symmetric Transfer Function
function a = tansig_apply(n,~)
a = 2 ./ (1 + exp(-2*n)) - 1;
end
