function [Y,Xf,Af] = New_NN_for_BN_15Neurons(X,~,~)
%MYNEURALNETWORKFUNCTION neural network simulation function.
%
% Generated by Neural Network Toolbox function genFunction, 12-Jan-2018 22:00:28.
%
% [Y] = myNeuralNetworkFunction(X,~,~) takes these arguments:
%
%   X = 1xTS cell, 1 inputs over TS timesteps
%   Each X{1,ts} = 135xQ matrix, input #1 at timestep ts.
%
% and returns:
%   Y = 1xTS cell of 1 outputs over TS timesteps.
%   Each Y{1,ts} = 10xQ matrix, output #1 at timestep ts.
%
% where Q is number of samples (or series) and TS is the number of timesteps.

%#ok<*RPMT0>

% ===== NEURAL NETWORK CONSTANTS =====

% Input 1
x1_step1.xoffset = [0.690196078431373;0.235294117647059;0.0130266639527783;0.028619580704254;0.017338489721148;0.0105911602626441;0.0130266639527783;0.0117669373016411;0.00587020075235015;0.0117669373016411;0.022510075310401;0.00709524994157602;0.145098039215686;0.733775094043769;0.802831671076735;0.686274509803922;0.258823529411765;0.207843137254902;0.028619580704254;0.018962962962963;0.00709524994157602;0.00549562385507836;0.0206858598879767;0.0130266639527783;0.0254427030327702;0.0264740409043279;0.192156862745098;0.290196078431373;0.733775094043769;0.677834256809221;0.258823529411765;0.017338489721148;0.00897856782082306;0.00258573248599709;0.0111687360065133;0.018962962962963;0.00753857867637636;0.022510075310401;0.0206858598879767;0.0234610820875832;0.00847987576422341;0.015079991858335;0.0244385040444475;0.290196078431373;0.772728679014858;0.196078431372549;0.00753857867637636;0.00415653104763628;0.00446814573580297;0.00847987576422341;0.00587020075235015;0.00197619316854;0.00330925511304099;0.015079991858335;0.0130266639527783;0.00258573248599709;0.00162833299409729;0.00549562385507836;0.176470588235294;0.724245667201906;0.192156862745098;0.00709524994157602;0.00258573248599709;0.0136889130123407;0.01580954534832;0.008;0.000351719926725015;0.00626142283133938;0.00587020075235015;0.00709524994157602;0.015079991858335;0.00281375941380012;0.00385975228230469;0.156862745098039;0.792712063987456;0.137254901960784;0.00258573248599709;0.00237037037037037;0.00132389503283051;0.0206858598879767;0.00237037037037037;0.00385975228230469;0.00587020075235015;0.00626142283133938;0.00587020075235015;0.0136889130123407;0.00330925511304099;0.00357744758803175;0.152941176470588;0.802831671076735;0.172549019607843;0.00513733028774755;0.00281375941380012;0.0130266639527783;0.0181386043075439;0.0100338482182569;0.00549562385507836;0.00446814573580297;0.0100338482182569;0.00357744758803175;0.0111687360065133;0.00197619316854;0.000642166285968443;0.0862745098039216;0.743387746794219;0.215686274509804;0.0100338482182569;0.00330925511304099;0.00897856782082306;0.028619580704254;0.0130266639527783;0.00587020075235015;0.0111687360065133;0.00357744758803175;0.0111687360065133;0.00587020075235015;0.01580954534832;0.00197619316854;0.125490196078431;0.792712063987456;0.250980392156863;0.01580954534832;0.0105911602626441;0.0100338482182569;0.017338489721148;0.0105911602626441;0.00897856782082306;0.0117669373016411;0.00587020075235015;0.0100338482182569;0.0254427030327702;0.00709524994157602;0.00305481300555593;0.145098039215686;0.823328523720138];
x1_step1.gain = [4.95273186044746;2.32559090319282;1.85366939988261;1.88294146727264;1.85532773709257;1.8682016148276;1.84797990991704;1.84480426889574;1.84183399708816;1.85642445460532;1.87040299704176;1.83046995872066;2.10436680732295;5.5732072987765;6.84214786038716;4.88400025936023;2.38615423773311;2.26578127765156;1.86915635314957;1.88037961821719;1.84451918730575;1.83703122557556;1.86292816176039;1.85165843695827;1.87242908286887;1.8709018688906;2.21289089506704;2.47873584457041;5.53086162502396;4.86317215727571;2.39287693791496;1.86844906930146;1.84740923190497;1.8329721009001;1.841261730815;1.88543891748918;1.85323083597181;1.87754311024362;1.86709713861798;1.88678760501827;1.86473048852855;1.85360687854274;1.86405617792028;2.48357355996632;6.13111352151897;2.23534884142;1.84424223916364;1.83912658429251;1.83507181316191;1.85430671199484;1.84848266614025;1.8383725391533;1.84629019396165;1.85796302462388;1.85745714434735;1.83258710608736;1.82785976985536;1.83227925147353;2.16840916748772;5.37370791331633;2.21933796420824;1.83617889478313;1.85593023921657;1.85632107422962;1.86405735275763;1.84543916956442;1.84124294851869;1.84149588512698;1.84921338879107;1.83898384248558;1.85186893375914;1.83426691453443;1.84068786733913;2.12488839852153;6.64676156670347;2.08884781128504;1.82930952260154;1.86429610935801;1.83090242442243;1.8713330986558;1.83152348528201;1.84459357645564;1.85061783201726;1.84419505552047;1.84330277587138;1.86227885832067;1.84405812255631;1.83991749773403;2.11647281547843;6.75889728396028;2.16635770430614;1.82814057447932;1.92165401478832;1.86214447064609;1.87135988125458;1.84406950217784;1.84817150951537;1.84173824423733;1.86617204297122;1.85436045122951;1.84430080920377;1.83786206291982;1.84040639742154;1.99402539300994;5.67994991764946;2.28066942249804;1.84436734034812;1.83856575467319;1.87631736147538;1.8704890927323;1.84695389303463;1.86429402678565;1.85847724797049;1.84970895239083;1.84583996322366;1.84502975384271;1.86281220115479;1.82808179347229;2.06197471422791;6.62467213555974;2.37097482143847;1.8621999511364;1.84577501796725;1.84638368323236;1.86455661888145;1.84344249602818;1.85096798751312;1.86373137792573;1.84048851302378;1.85027732363952;1.86954783514141;1.83026399903744;1.82535836828908;2.10435431348757;7.27393104034087];
x1_step1.ymin = -1;

% Layer 1
b1 = [-1.4701292380964273;-1.2248752836431087;0.96626285823877822;0.89556157831404726;-0.48281590100343913;-0.57108853293147654;0.10652904882633503;-0.15306813657457086;0.11254191372976688;-0.31972406353313471;0.61734157435792003;-0.79636518001891876;-1.0410719945155409;1.2846843838378417;1.4901892562624171];
IW1_1 = [0.10782461839708793 -0.16080669675824971 0.016138840689978423 -0.17544845652792157 -0.12560742696055219 -0.13262064890715672 -0.18446475674695623 0.02249859151886351 0.067845400343811854 -0.14968311851156751 0.14453478188078769 0.13878040925389781 0.081573552123402018 -0.23165261650432067 -0.21843214917342896 -0.16080157196926601 -0.12301583352072039 -0.025280781067508664 -0.093982894651729848 -0.23017881589431985 -0.024955361145754584 -0.14325480388659509 -0.25788915016757935 -0.058247017668012525 -0.092091903096227223 -0.071480817799599583 -0.18453018052117795 -0.062719503714988106 -0.13849652067097487 -0.15296180273871143 0.0072755657686345799 0.065243904976523687 -0.13753944610109414 -0.12465593047939103 -0.056316727735369179 -0.087597931729506959 -0.019007391169927661 -0.070999736495494029 0.15324088183919737 -0.040403104813732951 -0.19818606609796924 0.18586563547866569 -0.17786843560702198 -0.249503650106073 -0.14131336181258397 0.02404888487348833 -0.034794059458803255 -0.02173286964367294 0.072554177454914034 0.091597867786829892 -0.059817052208054125 -0.16689727198464854 0.13569809401652386 0.11176452052287998 -0.18682344982513985 0.018229393882944825 -0.1355964604543142 -0.18218783548383249 -0.028498610672126549 -0.1073752876276392 -0.11432880253051314 -0.18172090417793085 -0.20432383811944041 -0.016846657246732819 -0.13398048082420874 -0.18801775435902171 -0.00045655016649785485 0.0011357979072143343 -0.1501339138122974 0.17759868438999921 0.12900649814628712 0.16911338945993215 -0.064466424474127759 -0.18119405104589498 0.18680451237885179 -0.14979891170916204 -0.034603399562130203 -0.13115321744628913 0.097751460269214205 -0.26744778860598706 -0.093708659830611649 -0.012419492652870836 0.23900662778712398 -0.072406585465571799 0.033119703326605979 -0.04128857100327242 -0.14031963987498736 0.067715464532284636 -0.16632007422539577 0.2045619460381122 0.01152478147865147 -0.024688810431270431 0.053140471061063059 -0.11603515692191031 0.14800952050592789 -0.081502569945530054 0.10269733117686375 0.078911866028030436 -0.16094985044609847 -0.046195788308937863 -0.06493724546319897 -0.12929343018555584 -0.055186970847359212 0.19749700754875393 0.043631917077903835 0.083218443596690436 0.096175679512797249 -0.17918335186084769 -0.23304198739031742 -0.1521119880361724 0.067056238891576025 0.0052159248371181259 0.12659278494055407 0.19101672651501356 -0.084758079921166199 0.13346140188669689 -0.050141605213327826 -0.0013848242828631949 0.0043854187912271379 0.065757560188808503 0.1839872744495544 0.07901794258630862 -0.093395844253135032 0.17666067907997762 0.11093441161911638 0.018104537152024591 0.056910258923848954 0.18481175440758355 -0.08630330573000608 0.018483827487946834 0.039708291514797003 -0.1925621108807305 0.14184041519967791 -0.082110739088522275 -0.031594508365416538;0.045853234936718563 -0.032737295367238163 -0.091750649535980583 -0.0067585574244464946 0.11524667928182765 -0.2534574397681239 -0.28172834243175504 -0.12603255090178578 0.27193721093400169 -0.18858240388236294 -0.089881595118814564 0.18045722887449014 -0.065842250369168367 -0.10023672653513425 -0.1184661409978934 0.21634009862253528 -0.074155830543267992 -0.19198166851058199 -0.20511876121872766 0.09992503507701829 0.22997813895999941 0.042378655069586491 0.0010400298166320654 0.076073390255863418 -0.10183439864658413 -0.34396480160825837 -0.075589549909985468 -0.0028623495950186205 0.070002374530801964 -0.23154838233878755 -0.070449163820582889 -0.030072170898824069 0.18254388296405294 0.083006583964044492 0.039718965650114582 0.073844523654271257 -0.18887383227366933 -0.16489117798664674 0.089467551876602727 -0.039620727491984989 0.1078824368062537 -0.18594577194620354 -0.13470570383315553 -0.20423230298253259 0.1115184348575443 -0.094672008594778728 0.12886028172625408 0.032974239712681895 0.061382828846537008 0.19771958371798123 0.034923966389538465 -0.30880757764436295 -0.17664410050211352 -0.15184704354373463 -0.058952179799539976 -0.23199959592210281 -0.23634887036871488 -0.37305345107491122 -0.25690091531480469 0.15692431997127429 -0.042656439939791395 0.17103259724041026 -0.01206217234736128 0.29422921993257428 0.27004280844698958 0.078059721772755081 -0.096829722905832555 0.33461670765494766 -0.18278195947756823 -0.18259689335229121 0.072257952682025492 0.057657927498188127 0.012998086515645404 -0.040253968856008203 -0.25945077229320579 -0.018609729416344867 0.057447103870768033 0.14775611221940052 0.44022346870492135 0.10376616503323857 0.33828722061544203 0.18236648425277313 0.16000459364484326 0.10434321525109354 -0.16966627813296631 -0.27240983311649181 0.42980902019626677 0.15050883323706882 0.15820261469793592 -0.00069025836853349128 -0.0026660681375838069 0.06267779360105262 0.064389746471148465 0.10345807285385833 0.11259296830853537 0.27656675391162161 0.38465847628087269 0.2350399628774088 -0.18880321557325555 -0.12573981214240687 0.39812458177499521 0.024557374219932059 -0.030200556832114457 0.039785689025332249 0.25844927088519259 0.12264538025796483 0.26035317741398784 -0.023431592826001667 -0.011428285894669148 -0.045503647355366383 0.22949754693457239 0.16203229969470076 0.12044797982956866 0.19542790509344898 0.26240502790366488 -0.088829025080384025 0.012220142227221396 -0.11283544139355635 0.21189152925900531 0.18907945240188107 -0.022101063110778994 0.011643473505169291 -0.13900312400683046 -0.010184732052520174 0.078304799633990479 -0.28546736016962121 -0.15797487532447876 -0.29231861496752537 0.10933882706588237 -0.10232009404782838 0.094251408582253615 0.30483763001174391 -0.27720979006537566 0.15470330938915244 -0.073030492802810612;0.08441022820070726 0.16882577468719365 0.1153028361762895 0.42497098902071284 -0.037601418170990074 -0.20501591575252787 -0.31148821138431743 0.25561002276001143 -0.14336820304146761 0.012075194911748166 -0.015622128599784679 -0.31678783646045366 -0.28482924887501304 0.15223084619080954 -0.17790392964279481 -0.29521400678611387 -0.025134113512251571 0.3415070489824657 0.37461920369308688 0.13484107310604679 -0.39798003610864419 -0.073585957975914412 0.3385229561338301 -0.40487176061211694 -0.22668018568543141 0.067478457948753581 0.15808358190134322 -0.17170690439184377 0.17103940459559619 -0.037098441816873606 -0.23123482729659847 0.064716663461977103 0.039424362694663095 -0.092059688125744513 -0.31926740178782675 -0.40179404015259712 -0.064120944768958174 -0.18625120077063942 -0.64047973890950294 -0.37903879821308689 0.0028399872539124271 -0.022398675376271663 0.088285469022141655 -0.060819750660478331 0.02953812276600272 0.078059593566636151 0.20495137319900431 0.13651502902825774 -0.027359620723148969 -0.057175667516451263 -0.51498251332730882 -0.38024917302772054 -0.75208610332893111 -0.70631662322986843 -0.2300455190976986 0.18271975274776722 0.072759775398572743 -0.12521965159255818 0.049963419668270649 0.41906380335010324 0.18763283889428969 0.57837423662716836 0.26185457046908828 0.06120952664925338 -0.25826308484884186 -0.87701403519012078 -0.51028849831307987 -0.41700652833925594 -0.14002665528144559 -0.17102593539851038 0.51566776202054387 0.046126250510319294 -0.25018417778520846 -0.042715153171055745 0.011407281792673677 0.25471564679082498 0.063968563638788487 0.041588922484260035 0.26019711971086945 -0.061053768525371581 -0.66345489736708607 -0.19090700464781205 0.048003805070278995 0.25357193132462758 0.10953633245811091 0.58685958548998551 0.41689526858857218 0.4726625139306963 0.32304752990547703 0.17316742286076586 -0.013306180341683169 0.18449243617655367 -0.27735538769962303 0.17631439001248234 0.21419953385185322 -0.39118781905528427 -0.55380554001734217 0.20791089085552769 0.1966323835928751 0.24629597292577346 0.34615165861613884 0.3985577202079385 0.36409759157884297 0.13934182424016447 0.24605241235520495 -0.020416883767219413 0.014021968769796613 0.032930066211303489 -0.1112221038915743 0.52227406847191871 0.078230880438597578 0.081324788342625035 0.2736077791528726 0.14110876752086049 -0.22613057367191197 -0.15540649796055747 -0.0049458525947198902 0.099824729189459047 0.074354716378746341 -0.04853787843228944 -0.14827831410974979 -0.16405438194221308 0.12512046892462406 0.019712681542780757 0.22745850859105884 0.33316366111235363 0.40363851629255365 0.23367190733423418 0.096188767677112291 -0.33055516939930724 -0.01498543681791953 -0.41337174098488449 -0.11619894135127698 -0.049449488100228832 -0.1313019800864785;-0.066350880589771649 0.011153031837603938 0.08534507586782579 -0.047692036509118137 0.023885547536560629 -0.22288571054820322 -0.23039156896199434 0.28756499301991806 0.066772618016880295 0.2440638011328122 -0.092272660417024949 -0.24533821426308414 -0.22797766124565588 -0.19880679652413988 0.01622287271361245 -0.34783795910155946 -0.21204646899268156 0.098514355636297513 0.040740768141350914 0.3311546254745924 0.0037290707780811496 -0.038057393604388749 -0.29549133700452013 -0.39478354029631524 -0.095393616452855642 -0.2180958106150202 -0.48693580433601552 -0.30749572412788967 -0.044908574099424697 -0.023126379713939986 -0.0096571077648920749 0.24283198637477307 -0.076106096071800772 -0.28497298265323151 0.17512678790007552 0.35404432143535486 -0.14517956077615232 -0.28822465068518244 -0.60449697368025224 -0.22581296305845711 -0.10874866679397481 -0.16375780040889995 -0.11578209947974137 -0.11061548359669207 0.057735587441986418 0.17601134314364322 -7.5687565536625622e-05 0.045567434408004925 -0.045579305808722298 0.30168961993292698 0.46253807864626723 0.49517023806917665 -0.039773842511038028 -0.37375830188056403 -0.53520985180143621 -0.25072233967560553 -0.12406786141145237 -0.16799767349431116 -0.23250620831601154 0.31872365050012624 0.25453481104904951 -0.16401831423911714 0.22834520135225192 -0.033332989128300274 0.06063038204453336 0.11918705577367172 0.35422004749142633 0.62577189407740219 0.036591039845897649 0.074046593915054235 0.065889543166807785 -0.061746520106673135 -0.051136525798115569 0.047804591924342131 0.05816468287563123 -0.028936064959534432 0.026461473897669716 0.44001986624769257 -0.12334270608586384 -0.014096463339184115 0.0084496310666137241 -0.048999636808006557 0.37621686314137914 0.707813959489072 0.24508477797245073 -0.11141156830461738 -0.047252027714382264 -0.14923075044581718 -0.095708957413492904 -0.13191466708164587 -0.18445409170391661 -0.19696225477911455 -0.017519111332952246 0.13256158201432622 0.36170640690726008 0.038554667066660456 0.091176535396087666 0.34521305535381769 -0.016529195428659646 0.15103552037159867 0.1082410127194912 -0.36593870511507931 -0.21159849675688694 -0.14935498004251282 0.1265457398304454 -0.13810436415663419 -0.20165178356803309 -0.25134725464756819 -0.29160610774525259 0.13040609188035213 0.4944186871659077 0.51712992932761603 0.084991197375466829 0.064093653634668638 0.50451527418642206 -0.0089631306687686131 0.032566765894823629 0.011466538624089018 -0.08142439575699921 -0.19006917425795763 -0.054556622638652699 0.35008846381012826 0.13183838039186041 -0.6307707566384062 -0.34390800354134293 0.02849329867555574 0.29423648540904551 0.12818139150967892 0.29642036242013831 0.28022038563898538 0.015300917990855074 -0.22605253866848241 0.11201000196482182 -0.23257750844863831 -0.23336989889645615;0.15178583532843848 0.098753522244265507 0.40035836911596823 0.29312249176557298 -0.30252077219886586 -0.10634944264134069 -0.61770699223458314 -0.25214421956559885 -0.5038455461583432 -0.25580672453654507 -0.14527510243522199 0.11867326534355946 0.21751034741847794 0.19397687781247511 -0.1337506485155267 0.030970077427983887 0.24457918804669479 0.21534959947857749 0.25102229150986322 -0.17461682571260514 -0.080370765262135518 0.19170386200165296 -0.011442870863606184 -0.45327111729151476 -0.084169414870176151 -0.21528139375333588 -0.0013704008405090154 -0.0052738383648671654 -0.076724518968580374 -0.079309497906858012 0.021517763393678939 0.10389308318327628 -0.013007341458009072 0.1486484990204919 0.14093040799372875 0.11220660174703848 0.012385363037104047 0.32866002373878983 0.18198315662919501 -0.12871212565078646 -0.2810806977467426 0.16852385948223622 0.28706895642164343 -0.14917502955516329 0.012551753373912816 -0.15713857757866284 0.16509116995617851 -0.42261259074568192 0.12945864127121728 0.045905598889339275 0.0040103099481472787 -0.36300433075700517 0.041463259625780076 -0.29613501045625829 -0.12396006554242132 -0.0016446234923784401 0.23890281075581374 0.45223405500833674 -0.13519166027252427 -0.044273644577059533 0.20602086992078536 0.17761708953819894 -0.0097593220139312528 -0.017689835238149824 -0.076657794773871246 0.14887864742793 0.22629527548580361 0.0076369989102492352 -0.38609802271185523 0.066282785218160972 0.34572856658486495 -0.14379181869766033 0.23913017711668935 -0.066352619803989654 -0.087413537338293434 0.063840591997352467 -0.11953375442185685 -0.28124901449085155 0.11193101465229709 0.19696131116785193 0.0044024280716502802 0.64388940118798432 -0.14957475219644506 -0.60101425851432533 -0.070472193071668091 0.26771890221629918 -0.38431792875422865 0.26065982056558518 -0.05547404074350952 -0.17530928113940292 0.38324261884429112 -0.21747810359430553 -0.071462512225968444 0.017683164370899691 -0.194797458648722 -0.26552277547569597 0.44643866509800983 -0.057514937600445376 -0.41659483040986395 0.16694872378710188 0.27804408002646097 -0.27505818157535594 0.35650370772093426 0.48596185763303845 0.12753896127199818 0.12037712719198902 0.20312494515507448 -0.14469630696321756 -0.11699009550757861 -0.084614725896681994 -0.38614238039110038 0.15533821230022263 0.030121364780649321 -0.049334286432726318 -0.12196385805132491 -0.26131252958206597 -0.094412423585019653 0.44888399642518129 0.33527230937491842 -0.11921086455119816 0.10244262219831474 0.07759404458467814 0.16187445051924715 -0.1622639417647023 -0.14207108405462635 -0.081901802703646956 0.016971112737101161 0.037657679221637375 -0.23242417680259336 0.030571994280654647 -0.034710557008411511 0.19213091221573075 0.37503905073402177 0.26961972777628296 0.13369741869712487;0.10362894071960489 -0.22818876361619614 -0.10296837067652974 0.13722904346707107 0.44145292694808319 0.11290291121325922 0.33487638561656519 0.1622374539990783 -0.27250700864062433 -0.21007365345880483 -0.29923359545353162 -0.29601455811491578 -0.048705055569683325 0.19921558138347203 -0.10247767487515586 0.059258498420534413 -0.057338948919972994 0.12363248594055834 0.30932783473295961 0.17773335566292445 0.10615436611862884 0.14971020433972862 0.34954683026120192 0.3179434141463785 -0.048384208345031411 -0.12050701392692774 0.10129802009520258 0.29201600413143841 -0.22568390886536491 0.34375751868804044 -0.17042084359240964 -0.40867076245630912 0.20567065364959394 0.029193611956598024 0.28597099285207078 0.35852044642087 0.2311612987961357 0.47529686308903452 0.66639693072172457 0.40960178780578116 -0.30996187694358401 -0.10118157519518887 0.077098087081739403 -0.098049297359581802 -0.060452317120929251 -0.26580580544527138 -0.17898635653190684 -0.33528199602533121 -0.27273326646019092 0.1409930954915081 0.47181475150501329 0.093110954726699904 0.46010329148478546 0.32141535547359318 0.67407937889179037 0.16841662264413571 0.14589226050679274 0.099589985034646278 -0.20735285689756353 -0.10313900007771487 -0.036203792881871477 -0.22281309223613596 -0.6023971912211975 -0.69202558872756836 -0.13553728893298755 -0.32196651131891135 -0.1984537531072515 0.0020968678476869429 0.19648318683807278 0.26006245648630377 0.17916796425254844 0.07713999704561085 -0.2222212639227116 -0.41835086883554573 0.23856975077081533 -0.17252355746777151 -0.46115779321793432 -0.062146065272770765 -0.28848973480874962 -0.19910000840037106 -0.23236743976752394 -0.19353952423182105 0.65018561428769595 0.2933212194512595 0.14260324480396827 -0.31068586579149093 0.051759719504492624 -0.2073855988388878 -0.37402527333430485 -0.185111256967076 -0.079871124540443206 -0.10242248991372875 -0.1794708162881537 -0.27031989387166766 -0.040435746668898834 0.13639302639384487 -0.042499154531683819 -0.058240625779717038 0.30140858742618171 0.37096185464275533 0.27240659675426498 0.32638930398335392 0.061754567498927902 -0.35118765010668457 -0.016628297157914779 -0.010154725745471258 -0.35066612305238082 0.39779190617238952 0.36249841464607868 0.10512678988173833 -0.17445334314871222 -0.29605934510698667 -0.19156776675745732 -0.32364470788281646 -0.62583864536334399 0.12648396704607892 0.045810657500199123 0.17076763116263943 -0.19300055630168986 -0.06087062151279108 -0.19072118520491885 -0.17303055396667733 -0.0062823178025197069 0.46904985661343501 0.63008326846602747 0.4572385672007474 0.17604819011697687 -0.40816086827034287 -0.69263188743473192 -0.4154561794146801 -0.07569184914906249 -0.055799728487892795 -0.15253140022731068 0.12139733391361275 -0.066518891647016298;-0.043929785016806312 0.069753590888518402 -0.26870142353914378 0.10865081767459653 -0.13247680419491059 0.23833939862586084 0.36578805307098317 0.22618197646069368 0.013913389362148507 -0.18013566664691197 0.016702512706244909 -0.46194346837761852 -0.16687173076891096 -0.0017488711345838414 0.166454885401255 0.1169145732754247 0.06594644782905483 0.028132219165584917 -0.010343661559176504 -0.18360111344853761 0.32436708774342016 -0.024197845537393268 0.07047738517696138 0.045780679310300339 0.1638481703557062 0.18596964184886941 0.07642731539658075 -0.09195230790530505 -0.075727252625633498 -0.031514182259952575 0.10157177329778538 0.31862619082710897 0.1780628760586955 -0.075966973815332614 0.0053253477509591718 -0.11025472929309542 -0.34935368798321637 -0.033459079634701128 0.5472715924441669 0.48012987553982223 0.21299717865971649 -0.1452678248809125 0.16962554138505459 -0.01472759544950601 0.10599927046196553 -0.063679492446745006 -0.040463394112082766 0.21601380506656923 0.29330367032702909 -0.25562336609405656 -0.56441810170775131 -0.69903408954985358 -0.26047694238163338 0.42286593966642544 0.1053903343535359 0.15724746893385982 -0.44292204452790929 0.072715443438696001 0.099663275378737523 -0.077683030834262118 0.22159195203552684 0.10613164938246925 0.41773260682307783 -0.059433466893358294 -0.25523543346890132 -0.32869587831690594 -0.00023002403602267996 -0.49633055117894093 -0.1473848946027049 -0.38420923672675877 0.073969917779525898 0.19827711648315618 0.12859171946586415 0.32538081347695985 -0.044827000708428585 0.11031250902641669 0.10568566728266585 0.50962860917928798 0.37738602686907213 0.060219451134293112 0.14658795313483447 0.35852254149793739 0.14798138054437746 -0.5318155431046091 -0.24881335848723371 0.2216798590298048 0.093395902988526125 0.3690681833146745 0.16257400795914778 0.47450546221549139 -0.041662895471448809 0.10598836473406421 0.37241822663973306 -0.099617689368098672 0.044882151329445417 0.0032948095770473935 -0.44225693433824442 0.090450620527323777 -0.65954175167281459 -0.53605727732038866 -0.15997249692131227 -0.31463408446812297 0.20384392478971547 0.051684240746462995 0.25478529955453777 -0.039837850454722747 0.14715364235482375 0.12979345263181533 -0.17878215976951944 -0.14293977250948128 0.18861994627587261 -0.76676715777589888 -0.36059275063727481 -0.35006955370453691 -0.088821193706484627 0.073407501076754228 0.058613258946157196 -0.050763909376085541 -0.13919270039217455 -0.016044429290881047 0.25496675221937259 -0.18779425171649189 -0.19655007083245787 -0.15649355951549551 0.098225408114240256 0.099315627357057401 -0.11105081425516639 -0.49708286346926567 0.16800835035262396 0.24794299686730834 0.20085364199306133 -0.22811823751410434 -0.26537236969106714 -0.20084010876148939 0.2386313599666515;-0.026416525469369911 -0.1659886526125213 -0.28896309568010475 0.19514332070239618 0.0097795109093634369 0.093627647088774288 -0.15257987301503728 -0.14441887112197216 -0.048080544438915462 -0.083356588145767338 0.035142389252403948 -0.062385230019450302 -0.093586865313957115 0.11000671040973048 -0.086921598798930133 0.14538841907565586 -0.029339219676565484 -0.083468174855472796 -0.26625508770525647 0.19517798375991829 -0.2154781787874952 -0.57152541732283868 -0.52983910499806852 -0.26175511001929608 -0.042949296452205937 -0.093294933829668858 0.067661544497764695 -0.03049386150127386 0.1809862849024966 0.10225532412726104 -0.10675296647596316 -0.26130232297440686 -0.32134110955082945 -0.2214646476431818 -0.10355587795923224 -0.35348769165725213 -0.18000794864812678 -0.094713075417881654 -0.031693067174759774 0.0092751084991024215 0.23679323138720212 -0.27379653296230927 -0.15589624913467542 0.057524207204738699 0.24067421606476894 0.06022186509131898 -0.12254507577592466 -0.20485655496336486 -0.14590540164136015 0.094170505720933495 -0.12640884656875367 0.055922389425519775 0.52382584948900013 0.30433736980390275 0.31486870946084078 -0.03166920334657599 -0.12409580527932219 -0.26518542452789645 -0.18796190823732328 0.18364818089154486 0.2444513432844895 -0.47842670360515199 -0.24269816085232118 0.015201115426132854 0.17885598684059961 -0.25753925793505522 0.25982982579791014 0.62378275814040773 0.54950747256041255 0.14074202656077675 0.16322169515946502 -0.63070108599220187 -0.17365905004643356 -0.0079620358535440281 0.21042992066661526 0.12564077394927514 -0.046377748726338208 0.11419401688218446 0.24295897478612452 -0.33866315795247859 -0.46138956795310448 0.7149673208671633 0.15519935630151285 -0.0097639049227162683 -0.2797032911812658 -0.21600168669940506 0.084470774067582466 0.1929101060645205 -0.1664391087332073 0.17504351639039181 -0.017397870222634414 -0.076019676306228148 0.090364487423600232 0.3375361467627816 -0.038622602577846235 -0.42360176273106104 0.25549470529703494 0.30059220127426406 0.28738894830499395 -0.034337449202576698 0.20161041240644353 0.043424807476200762 0.18042502673651506 -0.028522174399164456 0.12370223954338487 0.06374985907715422 -0.20283434208197512 -0.0058780949725125526 -0.16387052188404749 0.12705516898032357 -0.17305958160539189 -0.39540998857286652 0.13735833771977521 0.078632364335824143 0.11297689929327136 0.18718338650495508 -0.0036448630831552387 -0.085820412686670955 -0.17176225390555583 0.01568316658020873 -0.029928037367243452 -0.14518258025113023 -0.10585838957266058 0.24458534906755477 0.37236074429312094 -0.022516937200302782 -0.2244640888917567 -0.045185043303994844 0.010983933674709684 0.21481702281891296 0.23881852154875807 0.1275798994598033 -0.10175720166664812 -0.14263105850470434 -0.025617697150388204;0.088264587128132482 -0.07356588287094197 0.1730337639312855 0.02906169445634444 -0.13442548496708409 0.055748421618421258 0.22331707587177221 -0.17801966929186852 0.17883369781413511 -0.0725708441630835 -0.085439915842242434 -0.33679465297341549 0.098439057068020183 0.081875666187808255 -0.036638561151759397 -0.071688799575963788 0.19255917861245486 0.050966517386882557 0.04468624826196952 -0.23333268810101468 0.079519876515163471 0.010855261969129844 -0.10624734571849373 -0.2518031052726929 -0.26487672839539678 0.060873026968823456 -0.10719598309295209 -0.19026533162799295 -0.18464237446259837 -0.098471394050638456 0.067242638925986684 -0.17799800911703442 0.12317545678654897 -0.20436343582595901 -0.0080982515690237074 0.09290752279178939 0.099631185541567552 -0.13036402120025301 -0.042931342044264263 0.15877179607286479 -0.076243141027700995 -0.064541034149821916 -0.061473130833100659 0.10151358821079536 0.20970674305113959 -0.081700535410840255 0.0072019467314686442 0.20790596863460697 0.003483894281672124 -0.14449368932558632 -0.40361520548072138 -0.31680549627780563 0.15059127360790631 0.10095372338961904 0.13273749199025933 0.16306761105486553 0.22365924320087963 -0.07163005707081474 0.0027133313088328853 0.00044325595231939097 -0.23220902506027419 0.014888271794120157 0.015325388569408384 0.13547775070719129 -0.17809550682154707 -0.019369099864686677 0.044186891083629082 -0.096456199530350353 -0.23023377326375699 -0.07850803020169797 0.05087476908890342 -0.29366108167269822 0.010434293628507514 -0.0027707781650546919 0.20954797754323307 0.0015547860842040509 0.0023327105091058165 -0.12652814758344313 -0.068527279901832924 -0.034917612886959555 -0.087620627328023282 0.14828618790278011 0.10482589007470516 -0.023749976070366715 -0.18992781999343072 -0.25866637325982339 0.020508909076134386 0.071458070678401375 -0.088412792111224242 0.20864696499932417 0.085287722365982074 -0.11541974060388459 -0.041531873721728257 -0.089343763854540251 0.18059811507911022 0.25322793353081963 0.1660837273266999 0.14937709935534238 -0.25544749979174236 -0.029203345966303317 0.16305626466886466 -0.11350476838958379 -0.12432320484792864 -0.22691823986837178 0.17054112268878008 -0.11685262762773589 -0.14953326005582487 0.09274769966427801 0.20682746876006927 0.030044050966390515 0.21103285837245869 0.07176807988791542 0.13588974854919886 -0.38204877795669057 0.016550112388295287 0.14935122179796498 0.12121597512777492 -0.1490539146149161 -0.2263249039320876 0.16020027543150187 -0.14472032688023215 -0.14309206210621359 -0.084122981077152201 -0.11331300255074013 -0.29643357517249097 -0.040358898358330349 0.0079619262002311661 -0.22825854582584851 0.18697414545010521 0.036668165677992491 0.093577254188274728 -0.25011168275711154 -0.039558713749667705 -0.072533156981050201 0.18906930505589506;0.086241266093388419 0.22020455893862437 0.12681274789293348 -0.12096202647104035 0.027262422576829651 -0.14368283219793462 0.056603875268833641 0.39548852203264673 -0.052870737582948614 0.25936836615287417 -0.039031031766529896 -0.049800159203994512 -0.23338485789391161 -0.14101459876426448 0.10192405354854575 0.022067311136099783 0.43805745701995125 0.44859072075779372 0.058455392920605899 0.064863967076047593 0.29978162965867328 0.43537606091309983 0.82137174063034202 0.60801698869632481 -0.17231001507142366 -0.32368617455365567 -0.48238439385388576 0.069659918143870236 0.21851934570991227 0.13158564455556127 0.12535122442810573 0.19642821406008923 0.052247138643189035 0.30786671319677689 -0.13095181286891136 0.2284509471700189 0.72756813871272341 0.72432668055993721 -0.14404056615278707 -0.12890880412912481 -0.2734861492992402 -0.38333820938089519 -0.18872200470789183 0.21202281437054443 -0.051514802385250628 0.042973867853669016 -0.35197743822695415 -0.14724631956295012 -0.35363142099691081 -0.081289882151204571 0.017235158177739303 0.45068802815244274 0.26586918181801 -0.18596485450955225 -0.050679225891265008 -0.32836555662074879 -0.069113495904890979 -0.21686374147673554 -0.089611894477361065 0.35159344989081454 0.003401331804614857 0.067746639424861491 0.19729252790954485 -0.098529776282653067 -0.044270803064841553 -0.12158210634635465 -0.093398395707904189 0.082645481681377808 -0.14849884236308056 0.087191037965929641 -0.30091908393252026 -0.14218405364897715 0.24041374927925988 0.15434541742525618 0.14252795814866454 -0.34180512202096069 -0.35138047809705081 0.14318300406162901 0.18552689333385813 0.18609453189059891 -0.062177983743232162 0.066298603431821229 -0.2467725547069084 -0.043276607539877693 0.37302573722833299 -0.065461776607550481 -0.35349862458831943 0.040897226045862593 0.035534431111316114 -0.065536951833476062 -0.31801012984076771 -0.35277715395473247 -0.1246900293829641 0.26524618161389435 0.72308889898361683 0.099338726558206164 -0.25339902495958294 -0.46693820304875233 -0.51444863162026899 0.12776974658297149 0.064383328790212427 -0.24236018953254626 -0.32115384400553054 -0.34718218792239974 0.2148629134929235 0.15793882907894943 -0.28574469120206875 -0.0066800243505874043 0.23166011358088939 -0.18927183804308642 -0.070176223953488104 -0.27106216696452617 -0.11672568739775419 -0.55760816559383675 -0.20337503074055494 -0.23176157355167609 -0.47011247627701191 -0.39885120710985494 0.13166151112306018 -0.051782391645676967 -0.12435363207778156 -0.023011711331096345 0.2187380486048412 0.23899308000223324 0.070901112704369024 -0.37526435337464825 -0.036306706952522111 -0.029455790623723423 0.043793536573939397 0.26011006051539204 0.20754345004163569 0.21188713679517174 -0.40578933377179277 -0.35006407251726918 0.17334649802547447;0.155550948190877 0.084676926651742368 -0.016233114022687244 0.1554041412052295 0.14852135156263355 0.40964654772130721 0.010146294635603188 -0.10062886021579988 0.26890171219201986 0.052559648749511148 -0.25696837495214514 -0.013783317244884291 -0.26201111393076271 -0.12126964434851845 0.19366809040156616 0.10528744566332639 -0.24788980401299621 0.13052991012398879 0.073674880249034874 0.126527326528387 0.025694201120509214 0.38431356800365263 0.15940130411117309 0.24172002904726805 0.074316962828797836 -0.18284913110553525 -0.14271866430231017 0.21468043847582513 -0.1715742948938152 -0.02920444576383463 -0.19319766179037781 -0.43450758773070414 -0.21656461912901365 0.17848431034326745 0.29918162775917245 0.38408235895544429 0.55588161725340213 0.11263784838672394 0.17326912702943126 0.60857632904321024 -0.16225289413877703 -0.20835062494674655 0.23878236508543965 -0.11557983126487714 -0.18963459966526278 0.061773923509267678 -0.31771128250086927 0.052218988576957448 0.13520410038556221 0.48540710520485114 0.32495528791324424 -0.044225428245077011 -0.017872970833414797 0.098949209755447826 0.18043999528395485 -0.37516301185966822 -0.041547595429851994 -0.25378825260175775 -0.046030361559197437 -0.2127452355424711 -0.15101374190645925 0.016582776601658133 -0.26979593495498877 0.0092155223942808687 0.031091906083803911 -0.21181316416961343 -0.23760579144753002 -0.26331049029498299 -0.10231383725494667 0.26829911783457178 -0.20871350782392523 -0.13881159903631773 -0.3802893223127603 -0.42668529476768158 -0.018300538162020433 -0.13753557987933121 -0.35642662160409533 -0.069723586604820337 -0.0074022873663279068 0.55852677046865973 0.30730272346766763 0.097268329988572585 -0.067026083770467065 -0.19779847098403672 0.3508391397854837 -0.067100806629748974 0.14658802057580964 -0.36981748380525359 -0.14499740216222021 -0.18941314197997716 -0.22252053264789626 -0.18699079773241492 -0.70578151782491194 0.057830060487312686 0.11815181126882893 0.087439554356900831 -0.29489390655357067 -0.15319319120937325 0.12001484468464205 0.53939760379754698 0.1130438957015987 0.12719551117093833 -0.044258974121221636 -0.081435944076008848 -0.029751403018369597 -0.090164783920087282 -0.3930775608690642 -0.45616993356919022 -0.066261770687758445 0.093368406705225976 -0.37716503158333137 0.06452897486383205 -0.23062976573776764 -0.13951802791289258 -0.027655300468457423 0.19710159490052515 0.11700853079105228 -0.12097275380708512 -0.20426831737126047 -0.093883831685943928 0.079381673527457022 -0.14262969913218446 -0.40170948248216981 -0.16624976930919075 0.29651147544238138 0.1856171753990285 -0.081885526295744956 -0.1671836933185043 -0.29292159015880459 -0.041744826579194538 -0.16111661033855137 0.099050047163834615 -0.058837553852764242 0.075705485945511672 0.19671519275129418;-0.022075314814662291 -0.1594831463858318 0.19135468391885849 0.1022508497606897 -0.054369071982108184 -0.01750778877773131 0.126903919819082 0.077315271121205592 -0.24025526912744563 0.16089433103750278 0.2333848274304087 -0.079692574430967542 0.085121759993032967 -0.15063419269730738 -0.21602061965832675 0.010361361319348587 0.047516591665622762 0.022520417653130762 -0.12453002928034798 -0.27661824405065655 -0.18629870519117769 0.14162230262340839 0.13657469925191182 -0.06494703406470978 -0.24456151618212879 -0.20023107058451259 -0.10543352801768191 -0.071009292747387334 0.097536588423098189 -0.19637604442048423 -0.17354478568682849 -0.29122467199360569 -0.11961344481135756 -0.12701929831451109 -0.3732095174797565 -0.19522685564858727 -0.11136633449140593 0.26147822995365794 0.10894604051951323 0.1616996040598507 -0.10369524555356803 0.12657241127127616 -0.11393448242718261 0.17018509686464969 0.07523204129803325 -0.31222414000137216 0.011124207531222782 -0.059302529765550713 0.12573751324195312 0.2008725467490047 -0.074779608301109177 -0.22072712888790935 -0.25434182214489504 0.16559535890505786 0.092270775205394784 0.046452733897287733 0.0076088460248694657 0.024391412643086183 -0.26289702964395995 0.019358993908115338 -0.15534183457170314 -0.16379037038934474 0.043072187418749082 -0.073498027189290244 0.067798299807995191 0.12015737426228092 -0.15524201404118215 -0.22738234080549741 0.12467181118388414 -0.10254852959038431 -0.078940114207582582 0.21155028908813583 0.15726855908332357 -0.035008010559112054 -0.20882463188426151 -0.213351561258909 0.016419319241721974 0.053218153619623787 -0.045530355234761635 -0.071397632558685489 0.068992181749901335 -0.34384069528064437 0.10233675583224366 0.080833766829934636 -0.03837915816415547 -0.061840086561906878 -0.32908258959756537 -0.12735800757147808 -0.10935059741054544 -0.11335160437494433 0.077624735179550611 0.19552465596598517 0.20903505783782131 0.1881035389148768 0.0019928218613028425 0.064468662788500664 0.10398054198090977 0.038345581102003076 -0.26999757645560135 -0.33995559379250068 0.06914750936176238 0.24507430617566209 0.27542337634149677 0.023955907580505489 -0.0033267475637350011 0.0035606963661491565 0.267279787335576 0.16090771335190585 0.29530857166986779 0.016441418233874069 -0.21186550346699284 0.17862138925669532 -0.051983606327960716 -0.08420963752403629 0.11345188972383029 0.19128915885491957 0.18526545441097372 -0.0017847884494796911 0.19307328137616492 0.23585199355254971 0.038471711902857628 0.2697225457018777 0.21429051659627144 0.32116835835872926 -0.032066268188323289 0.14594382684780052 -0.007728145261551694 0.13918499749310448 0.012280371206496653 0.055015377861197728 0.22615782132089743 0.056364643913531028 0.078338304400804096 0.027024382580618758 0.10856450116748442;-0.12884931689828683 -0.28591412259197457 0.04818122786884823 0.26363132672760742 -0.24066762525535051 0.1171263642543489 0.32015656893048111 0.20287712312098236 -0.18100299948438853 0.098961352251668869 0.0079579216555951612 -0.14906886546551804 -0.23753086176878563 -0.18526689938035487 -0.13774193659072814 -0.052608833691921049 -0.12680508805760524 0.17919570825885558 -0.24714768154425881 -0.14312550824085973 0.094388712997435911 0.12253083475519694 0.21218234876766656 0.062652258389279167 -0.2374609280189198 -0.19315006680865915 -0.10227162146615298 0.089263647074832642 0.05214706381715177 0.0010914766816499306 -0.15756525967697557 0.011342565059803316 0.40692604687732459 0.32880144820031337 0.1319861108350435 0.21175120591512953 -0.12552240415554533 0.39928377465484782 0.10256311877785093 -0.16432373130008288 -0.0092727771145446128 0.041241915673436928 -0.11834571577937045 0.10715333981659475 -0.024743005511620147 -0.053625367420870658 -0.24987505954855696 -0.09458311448583108 -0.21280794873529918 -0.015963731512965249 0.35850815146115061 0.32729288299050385 0.36500765999133616 0.091049793732957851 -0.097839561420419913 -0.087124055905871217 -0.1191189590859652 0.1023770260451394 -0.0043577677368520683 -0.015037843299672926 0.15060873466918001 -0.16359242008120023 0.14923377367647189 -0.30993150834555983 0.12316966354889097 0.49229731974667645 0.36556060123446443 -0.15112733924661276 -0.12422437874364328 0.36140396095254318 0.34378778828928469 0.11162803949580341 0.048060276257234066 -0.090830411820173193 0.043421355437883162 0.071287749408563528 0.086433875135288815 -0.14580027751702643 0.1356157050706133 0.098156408673980053 0.10995184634263475 0.22436154720845347 -0.044902920676848854 0.3814456399783826 0.42031345875687692 0.19346927237585138 0.27980785959085203 -0.24426348608235501 -0.065313592807044851 0.20989454619273046 -0.30667225755936811 -0.0082187993877546241 -0.28366091896569612 -0.2753779829439067 -0.13467303839064132 -0.11111396528474306 0.061582039624127893 0.28357866726430153 -0.23957969117708539 -0.2226835775528731 -0.18937493016677157 -0.11608987187614751 -0.10380379062156989 -0.061791375612282186 -0.0094069440179330409 -0.038240244504622371 -0.13316192517187106 0.27280991506415203 -0.021369930811301823 -0.14478156121472613 -0.20759770434945682 0.093653502692543009 0.19041485600516869 -0.14723060268010912 -0.051390947651909213 -0.27990525917518594 -0.29878796551847309 -0.066427890831625674 0.13516590182955909 0.085110490498365957 -0.077769384817827261 0.011381297089110927 0.12791429505057134 0.027586439591861113 0.031267095974071922 -0.22904295821582057 -0.21914059253566739 -0.10956278219306589 -0.11442952131863335 -0.16017082944427408 -0.47372336919793462 -0.13451487819783883 0.19934964859512999 0.028035837673778981 -0.12598461382494419;0.16570235636236169 0.20796896121009981 -0.10667767949368288 0.10807523417624626 0.080473176845733199 0.069514014203372915 0.18192830013720004 0.19276258662570991 -0.084478777362589269 -0.16019411377476131 -0.048012530991605337 0.072078797687274918 0.12736183141580987 0.15190082871758098 0.16753094431677296 0.20978388077745036 -0.03181785470968311 0.090034089851001184 -0.1393856153676474 -0.093142905879832913 0.23924629257501179 0.052308337755790496 0.041839870121927553 0.23273729183202743 0.044426079805736332 -0.069858975957431194 0.10453073113445785 0.039501020270236158 0.071423855671029948 -0.14393387166474134 0.14518746922420472 -0.0059995578445340043 0.052661767164862081 0.083957729131940578 -0.042501457214435309 0.23719833044836824 -0.18865766374166459 0.021635847716416332 0.19256556234151681 0.014694446195766847 -0.1727621071411477 0.25161352610371757 0.018264311818683984 -0.10389934659525378 0.028144720278295034 0.14781180727160198 -0.072021824256230507 0.11728095623063994 -0.14356143050118275 -0.051966766466874648 0.038016383189167849 0.0074036714349674758 -0.087041272888287627 -0.061426741109535679 0.032878231715039508 -0.18453944471088568 -0.062604288353484694 0.20788770868662651 -0.11453189844344261 0.060497982294708749 0.0062675406018867421 0.163418764063853 0.094780356159073653 0.021464629254300108 -0.16302950648958345 0.076739364602451871 0.089299456732115895 -0.080976589644061625 0.19707345801680282 0.029183331332353343 -0.0036873496339963575 -0.013348292959378939 -0.10667248271119766 0.019361330033024763 -0.05424248110306782 -0.13488792114685152 -0.13084194327325405 0.082816729539288481 0.06432249756961754 0.13148099143067563 -0.074471533147543151 -0.069260620799769107 -0.14421998539839781 0.14642534275070915 -0.001455245296569332 -0.12633304442080434 0.062254464847239642 -0.098453726395439367 0.07935209512107852 0.23935326501878029 0.17705708457894886 0.11135819690601029 -0.13898995499791958 0.044352681087664873 0.21539438721609175 -0.084232823010381597 0.14109137369982522 -0.062041242618530154 -0.1422016317054674 -0.17194350571313524 -0.021099112928186132 0.1642022681187307 0.25270247998734963 0.10589536773856374 -0.1398834325716419 -0.07391572609066055 -0.05572405137147228 0.021576110041795597 -0.095696766262930499 -0.17975770870186006 0.17151267330438452 -0.066033002845610547 0.10742171264439776 -0.017400260026208501 0.12192002421004411 0.099026874570114096 0.11634154707396899 0.19075022426913846 0.16743540801210463 -0.20672735201176162 0.19594003026236156 0.19061432787047269 -0.01576689052873961 0.053790288211338376 0.14976989330619242 0.18657164297505721 0.038870229379079163 0.12972282849391589 -0.12388795159503208 0.10678570420735461 -0.055486063745264505 -0.088101609762091318 0.21918971171827126 -0.047353761599910497 -0.10848764993646579;0.050429936744600536 0.20024537265898579 0.25924531399976475 -0.096952573373188869 -0.36444352069960956 -0.11385363094877347 -0.44375551039001976 -0.2676214398429454 -0.25925810736759702 -0.2900400408109064 -0.11200822858458787 -0.079858939326709247 0.03985642788702929 0.14350530039697437 0.026478256609334144 0.093511582362183376 -0.029113345699637659 0.038446935892424157 -0.15812493144644962 -0.34565535824787003 -0.22292808437249473 -0.21014297591788281 -0.39177033858412424 -0.35635440573417637 -0.40833241925432678 -0.22343801057326593 0.14502217742685172 0.17274603481858092 0.16951440669853388 0.20912662421263961 -0.070577379021002043 0.11860591291857678 -0.16718103721191077 -0.091398962792433022 0.053622568929800281 -0.29938198517454756 -0.078967545885962345 -0.54179959359415197 -0.2403715624886438 0.071720849799449024 -0.13022863116629702 -0.2447282897865023 -0.019189046979452958 0.12406875339774799 -0.03640413675541232 0.14001098272452633 -0.0020599559993864586 0.31461962424682421 0.29785009208541968 -0.13729053286199108 -0.32819743214307595 -0.15996864613304182 -0.3865171138960572 -0.31004375995966682 -0.28018896042787289 -0.22719937865253609 0.019977014914490755 -0.066583973867562873 0.030693090354607069 0.055796085009529164 -0.13792272835861732 0.26864618145988173 0.074356093710850071 0.33889585826199403 0.15662423075626117 0.1764021976532118 0.077706019905694451 0.052699930637037561 0.34995484278876721 0.28947070854074186 -0.15453192826426834 0.043359949209917675 -0.095915814653283304 -0.17028340313057702 0.081156177738956392 0.073056532120209877 -0.03029771185108885 0.016892692189997619 -0.029216203789956242 0.48815204465973122 0.25257105024911658 0.29051152528523388 0.22293907827546741 0.27788167517549711 0.55537968585779462 0.23246072438887441 0.10829421643398646 -0.10655506940519746 -0.23569611536390253 0.14703371323963965 -0.13129366611013027 0.12930675929793298 0.27707774245573136 -0.13435509616043437 0.11191355317668027 0.13897056995875282 0.21298190426820698 -0.20907340848715186 0.13554507363939142 0.36287046796422173 -0.033184993373718795 0.088791792496281455 -0.14797114464386946 -0.14904293228009585 0.11365663158707505 -0.17307090903352559 0.20393178595359668 0.36315055829774623 0.40429983501063682 0.34728161300501303 0.029519823360310702 0.11566508028143829 -0.20396959710934012 -0.0016217650752145573 0.022929323465561188 -0.13645120169896693 -0.24078674229363478 0.19922330020286036 -0.18453688905336788 -0.20403584638853212 0.085811577602514663 0.090941678706319279 0.16716742298355822 0.052516324602027924 -0.10236279161214186 -0.44369413832642529 -0.18399414268558009 -0.1530791110553951 0.024092935703656736 0.10136488637972867 -0.34012575316335841 -0.23002286626003901 0.027455632398718656 -0.032068984162756137 -0.17898972692117537];

% Layer 2
b2 = [0.41961317111286567;0.42714964296814983;0.66758069641214601;-0.60583407290559987;0.12074497590470737;0.96574164999830858;0.4626827811191237;-0.60191918379305087;-0.040610976093439673;-0.84441291835271803];
LW2_1 = [0.78782119507089843 0.94960346421941355 -1.3120937761151636 1.030931384706232 0.18832627678691213 -0.88456166503106926 -0.96185648010203972 0.96548223192358851 -0.17684353079365939 -1.0887381488344983 -1.2611313997028109 -0.35973580027862928 0.99625815669816198 -0.20154323082829612 1.2627741165747661;0.36495750996632542 -0.67747604963355534 -0.84260177985544293 -1.0416095709758166 -0.50749486995012771 0.94577035257412445 0.81392282823227768 -0.075147623261294233 0.079150283901957955 -1.1250427004550201 -1.0591681214418376 0.45057669103699649 0.69686382851294015 -0.18392481894532459 -1.7601402807763391;-0.3957281162264954 0.54901870750410664 -0.49040029509021127 1.5094897320871572 -0.79299261883319982 -1.4088558100402127 0.78934049754237856 -0.37071419153615931 0.65407887160946898 0.82102706012340798 -0.24995493931454368 -0.2756806360012119 0.24404115934189666 0.69908733062386219 -0.13094302526436186;-0.44428759228243031 -1.1092708991267433 -0.32922191935023154 -0.10038961072049166 -0.055407805813672106 1.2159805525314968 -0.33466292335336517 -1.0731293073158557 0.55531125645410173 0.93786375662743127 0.54761532681417424 0.19820100530290335 0.77554933938340331 1.0895490123624196 0.24210991623146294;0.74037497870894398 0.48760419951141903 1.0564367343383469 -0.23584924134328147 1.1393949760986897 -0.71935336458564669 0.63539555516874247 -0.66813646915292457 -0.22286073911654294 -0.62321536200996452 -1.0277027652674393 0.0063776507850753558 0.67904820582169623 0.68338123898028125 -0.27627835620968744;-1.2483388389102565 0.58392778071379037 0.74760153493577208 -0.5177606996218852 -0.88592082467899014 0.49851857167026292 0.32266585037037787 0.88696974398525208 -0.42018923299114236 0.31487376559850944 -0.16928631900846636 -0.16007518288160438 -0.13384972040241364 0.12433289459410608 0.25994342511631563;0.30040319439107038 -0.8019560307062259 1.0247919256345799 0.55456850210877062 -1.028652083717714 -1.0116025197990601 -0.19864723435351919 1.2801456867709449 0.28139861747656214 -1.023032719085796 -0.8531297063815616 -0.58205787557844302 -0.81588784095435707 0.65007455401325376 0.0093520555869630196;-0.6770298476982417 -0.3447047165140657 -0.51413635846138706 0.89907211274868026 0.46702415713449053 0.72419540207373845 -0.98064790573399396 0.59814679488506339 -0.41928153827705095 -1.4397011980339267 1.273735162926845 0.72794325562250606 -0.32825760578557012 -0.30367417160584709 -0.68539237371509454;-1.0049017464305818 -0.11187821881859202 0.73822849413992997 0.19792872282343979 0.70382601276049961 -0.32522552182479569 -1.1161167323812651 -1.1577189080677759 0.12033126718825472 0.78954940070253432 -0.92546408966088423 0.88386195496586406 0.13756809481151633 -0.42852209410957992 0.76758717343082161;-0.54361912876685159 0.38464767130973437 -1.202123549813136 -0.65756459694419533 0.91470998002801029 -0.68294549738618415 0.71826559518914479 -0.72585751462886494 0.86328799860584027 -0.56699812126446658 -0.022675236093260845 0.65332915605882436 -0.83498797657016333 0.98095372567267936 0.86753216085944607];

% ===== SIMULATION ========

% Format Input Arguments
isCellX = iscell(X);
if ~isCellX
    X = {X};
end

% Dimensions
TS = size(X,2); % timesteps
if ~isempty(X)
    Q = size(X{1},2); % samples/series
else
    Q = 0;
end

% Allocate Outputs
Y = cell(1,TS);

% Time loop
for ts=1:TS
    
    % Input 1
    Xp1 = mapminmax_apply(X{1,ts},x1_step1);
    
    % Layer 1
    a1 = tansig_apply(repmat(b1,1,Q) + IW1_1*Xp1);
    
    % Layer 2
    a2 = softmax_apply(repmat(b2,1,Q) + LW2_1*a1);
    
    % Output 1
    Y{1,ts} = a2;
end

% Final Delay States
Xf = cell(1,0);
Af = cell(2,0);

% Format Output Arguments
if ~isCellX
    Y = cell2mat(Y);
end
end

% ===== MODULE FUNCTIONS ========

% Map Minimum and Maximum Input Processing Function
function y = mapminmax_apply(x,settings)
y = bsxfun(@minus,x,settings.xoffset);
y = bsxfun(@times,y,settings.gain);
y = bsxfun(@plus,y,settings.ymin);
end

% Competitive Soft Transfer Function
function a = softmax_apply(n,~)
if isa(n,'gpuArray')
    a = iSoftmaxApplyGPU(n);
else
    a = iSoftmaxApplyCPU(n);
end
end
function a = iSoftmaxApplyCPU(n)
nmax = max(n,[],1);
n = bsxfun(@minus,n,nmax);
numerator = exp(n);
denominator = sum(numerator,1);
denominator(denominator == 0) = 1;
a = bsxfun(@rdivide,numerator,denominator);
end
function a = iSoftmaxApplyGPU(n)
nmax = max(n,[],1);
numerator = arrayfun(@iSoftmaxApplyGPUHelper1,n,nmax);
denominator = sum(numerator,1);
a = arrayfun(@iSoftmaxApplyGPUHelper2,numerator,denominator);
end
function numerator = iSoftmaxApplyGPUHelper1(n,nmax)
numerator = exp(n - nmax);
end
function a = iSoftmaxApplyGPUHelper2(numerator,denominator)
if (denominator == 0)
    a = numerator;
else
    a = numerator ./ denominator;
end
end

% Sigmoid Symmetric Transfer Function
function a = tansig_apply(n,~)
a = 2 ./ (1 + exp(-2*n)) - 1;
end
