function [Y,Xf,Af] = NN_133Binance_14Neurons(X,~,~)
%MYNEURALNETWORKFUNCTION neural network simulation function.
%
% Generated by Neural Network Toolbox function genFunction, 16-Feb-2018 12:05:55.
%
% [Y] = myNeuralNetworkFunction(X,~,~) takes these arguments:
%
%   X = 1xTS cell, 1 inputs over TS timesteps
%   Each X{1,ts} = 170xQ matrix, input #1 at timestep ts.
%
% and returns:
%   Y = 1xTS cell of 1 outputs over TS timesteps.
%   Each Y{1,ts} = 10xQ matrix, output #1 at timestep ts.
%
% where Q is number of samples (or series) and TS is the number of timesteps.

%#ok<*RPMT0>

% ===== NEURAL NETWORK CONSTANTS =====

% Input 1
x1_step1.xoffset = [0.813037037037037;0.76078431372549;0.440336461843484;0.686274509803922;0.419607843137255;0.396078431372549;0.392156862745098;0.256403826582536;0.251684857257013;0.158495420313454;0.228956645634032;0.242421331162223;0.392156862745098;0.431372549019608;0.172680974888994;0.556862745098039;0.865362914716059;0.823328523720138;0.454901960784314;0.0941354984131292;0.323216560749636;0.073880664299553;0.0621360411907939;0.0603086294110108;0.0485096682271524;0.0410986423019804;0.0567619995326081;0.0357451658864238;0.0603086294110108;0.0603086294110108;0.0802707857460555;0.0585174028088744;0.388235294117647;0.908804185418881;0.908804185418881;0.380392156862745;0.0550420577304355;0.0550420577304355;0.0397134133930389;0.0603086294110108;0.0567619995326081;0.064;0.0698147771219214;0.0550420577304355;0.0517071111412654;0.0567619995326081;0.0567619995326081;0.0397134133930389;0.0824799511500102;0.435294117647059;0.886906242697002;0.813037037037037;0.356862745098039;0.0454468341738849;0.0485096682271524;0.073880664299553;0.0698147771219214;0.0485096682271524;0.0357451658864238;0.073880664299553;0.104213311622227;0.0439649908406269;0.0425157141672509;0.0802707857460555;0.0621360411907939;0.0485096682271524;0.364705882352941;0.897810706289436;0.865362914716059;0.345098039215686;0.0410986423019804;0.0469616060188012;0.0567619995326081;0.0870191404512593;0.0533572155505801;0.0533572155505801;0.0357451658864238;0.064;0.0439649908406269;0.0759715041726033;0.220263036087176;0.0439649908406269;0.0383596655886499;0.337254901960784;0.833706492977814;0.844171306661842;0.301960784313725;0.027532879510897;0.032050478322817;0.0344836902850337;0.0718285425665845;0.0517071111412654;0.0469616060188012;0.0485096682271524;0.0517071111412654;0.0585174028088744;0.0410986423019804;0.0550420577304355;0.0264740409043279;0.0425157141672509;0.349019607843137;0.813037037037037;0.833706492977814;0.356862745098039;0.0454468341738849;0.0344836902850337;0.0550420577304355;0.0567619995326081;0.0621360411907939;0.0485096682271524;0.0410986423019804;0.073880664299553;0.0533572155505801;0.0533572155505801;0.0357451658864238;0.0357451658864238;0.073880664299553;0.419607843137255;0.897810706289436;0.844171306661842;0.352941176470588;0.0439649908406269;0.109511304098725;0.0678390061137873;0.0718285425665845;0.0383596655886499;0.0567619995326081;0.032050478322817;0.0397134133930389;0.0485096682271524;0.0397134133930389;0.0425157141672509;0.064;0.0870191404512593;0.443137254901961;0.813037037037037;0.833706492977814;0.6;0.216;0.40073106120572;0.407843137254902;0.233387942797265;0.169058416446163;0.114985880242139;0.12647636278656;0.12063993486668;0.114985880242139;0.099089007998432;0.291098235218732;0.4;0.443137254901961;0.833706492977814;0.833706492977814;0.854723326623998;0.76078431372549;0.440336461843484;0.733775094043769;0.749019607843137;0.42022274992273;0.426857724404641;0.256403826582536;0.251684857257013;0.158495420313454;0.228956645634032;0.242421331162223;0.623529411764706;0.556862745098039;0.172680974888994;0.556862745098039;0.865362914716059];
x1_step1.gain = [7.00968606041476;5.90405030672216;3.03962458826166;4.8601610282094;2.94083638114669;2.84380984573813;2.83123871128199;2.37164055488685;2.37034842138942;2.1413166342099;2.30180694221725;2.33814248049486;2.83594158427042;3.0145156495088;2.16773527304359;3.69614545431788;8.52580445544032;7.31859800237328;3.13352561003551;1.99035502586671;2.58528585096279;1.95158642745355;1.96249593987279;1.93194895810145;1.90277355744161;1.89256889271101;1.92604479522165;1.88714705170179;1.93633418348533;1.92733841424009;1.96949149663795;1.92880639276437;2.81526939830809;10.4877579013681;10.5286094724553;2.78408558763357;1.91414853917569;1.9184745042533;1.89912393318374;1.94701025515748;1.92473990696483;1.94678689754753;1.95418788253752;1.92195248780533;1.92236523827848;1.92576102654971;1.92992432632924;1.89475876318148;1.96928278166439;3.01073971489888;9.40048103503306;7.02231613420337;2.69210031410482;1.9060653017838;1.90589466368245;1.95444533303242;1.95403390521239;1.91882921373822;1.88329314583555;1.95791479255546;2.01587493683234;1.89620121448319;1.90230344440433;1.9755955853582;1.92707109174403;1.90588410016371;2.72409956400052;9.92839758136309;8.63488167872538;2.65525988369036;1.89363931312486;1.90053201395126;1.91872861816993;1.97837229501955;1.91899837464193;1.9159617478577;1.88807054728952;1.93364933138484;1.90174751250359;1.96443833338395;2.27925398155789;1.89537759924907;1.88735248569182;2.62325759818305;7.51229695178391;7.88588710271195;2.50678957959639;1.86889848256771;1.87631754561404;1.89450168296759;1.94886652092374;1.90913110805922;1.91646348106912;1.90980633719392;1.91870887392154;1.9306954306849;1.89585752154258;1.92493816482489;1.86788366905848;1.9004189388748;2.66501968451;6.99090125469146;7.54798135991674;2.69138934405405;1.90903115329481;1.9713833559237;1.93335736673689;1.92285312705761;1.94952949902375;1.98493239129088;1.89547660997838;1.95232749230578;1.92582740312981;1.91465715864266;1.88533661167464;1.88537518616111;1.96155087829566;2.94374807241693;9.89814850085464;7.82472876693075;2.68058889021887;1.90233813673554;2.02035699202253;1.94142730562955;1.96231118701226;1.89354800469563;1.92911618843055;1.90019554733081;1.90261260151916;1.90238936708989;1.88991372548132;1.89279109365127;1.94158064053237;1.97759722300798;3.04542819376191;6.96961229885949;7.53227733534504;4.00798500099886;2.26335713637102;2.86737199282264;2.90292688740016;2.32868769263222;2.15199502275167;2.04676647735741;2.06977710696617;2.05748493550433;2.0381092439473;2.00690893641721;2.49088070655848;2.85746817937672;3.068018180216;7.51686349544248;7.52508725830133;8.20326246969749;5.91786565535961;3.03526345290762;5.48635389865843;5.71212624591232;2.96333673599616;2.97283567771881;2.38507627556558;2.36305367924318;2.12812487643918;2.30799603369033;2.3369707039101;4.22039914522826;3.69571215867586;2.15706168575944;3.68562462762322;8.57258142046622];
x1_step1.ymin = -1;

% Layer 1
b1 = [1.3619029352286458;1.1182814340304248;-0.96958921058322634;0.80499245889077387;-0.40315566434139422;-0.27742445911722236;-0.071449933139535071;0.26576430393721806;0.34862387510888676;0.6035536575853474;0.75197789828933648;0.96925658319018637;1.1788153971482371;-1.4465425932269784];
IW1_1 = [-0.29915486836867861 -0.036878820563218423 -0.20073043502598117 0.20722262620615076 0.16484863780505846 0.11444538961302869 0.07250061793289983 -0.22421604720444771 0.015779457451636475 -0.1546294718443546 -0.042583221690813799 -0.0014469365633389517 -0.084342473187320521 0.13026381430824982 0.26360481438913819 0.087451028621007065 0.041035779747329915 -0.18197406606570338 -0.18381823589488611 -0.25357796099074309 0.19719740703462463 0.26752879790161194 0.18253179379040774 0.3393808282455843 0.18519502291476428 0.13665471921898481 0.13929121919739751 0.092883874501532002 0.13707856322664125 0.4058363218497123 0.17264489772715366 0.027537816274361963 -0.080566539332913384 -0.20766067867130261 0.01817418490403315 0.046894270676481657 0.29729840860671136 0.092363014890285491 0.29637035475941809 0.30518895767253251 0.33824007152092339 0.02493624536529335 0.12571991517407871 0.05564568516053113 0.11773418389359086 0.24564214641503546 0.31299253661601995 0.25915829893790754 0.15948060812898601 0.11878358445366029 0.049020292531199827 -0.0091907916606643325 -0.062609650292656777 -0.12473660878877806 -0.0035033974830946829 -0.2488024113295757 0.010423701350882265 -0.21360044765953978 0.088623401886973083 0.0057565508193617963 -0.041426882039761879 -0.00098856002653462767 0.16567044765988667 -0.068501923120380365 0.037479245904031053 0.10810006886659584 -0.058916809571653239 0.076051618586506359 -0.10687634947642172 -0.22220559856579492 0.11042876470394716 -0.098515663132009088 -0.037915122204819789 -0.27538227848198865 -0.15940073143199301 -0.0054395052409113879 -0.22281726698220175 0.014608119620717595 -0.069742810109849049 -0.1827997530036875 -0.077560372855866519 0.022027832003827328 -0.12154095807377929 -0.0019119995694048988 -0.014838362194859265 0.16918898486234524 0.081491836540812587 0.073052235770193055 0.10382980025264171 -0.1118974985290703 -0.37791459143028211 -0.045790966001604108 -0.12150886793313483 -0.21390158805484505 -0.042416536685012066 0.023518446611193497 -0.18663741413404705 -0.18170854344934859 -0.097735067098474862 -0.13673159327109219 0.0083190649213558676 -0.0031573219057381258 -0.084912212453478256 -0.15742457051195571 -0.22859769056383222 0.12289648388142212 0.016688402976674732 0.11518443957989896 -0.045705372576114081 -0.055250412714062676 -0.15830550587360073 0.22441921144883986 0.057710072050500515 -0.16159973513496112 -0.25866253337841461 0.055277794016311714 -0.044016726871092988 0.011809559328042334 0.27108069549790909 -0.1884173645380641 -0.10997100511666996 -0.028134915959032714 0.02797464394732626 -0.028617146510582087 0.15227776462784895 -0.11191181553444515 -0.1052873088765417 0.20298788747976676 -0.1535645409424598 -0.25633056291827644 -0.39936911987350854 -0.25720723967708486 -0.2391680437377221 0.11507405198292925 0.10406529393939179 -0.16513513243089906 -0.063873026454988907 -0.00039850352432773621 -0.19110886555436979 0.076092472295699126 -0.030288408291824227 -0.094815743942273378 0.16232734098517404 -0.1314721534987896 -0.091362286873841778 -0.36329323575964706 -0.19242287630562308 -0.2653255477417103 -0.33698677665505117 -0.15324773555709845 0.15901664226315565 0.11020747659126816 -0.03836745601428472 0.094774643870343109 0.050463839205865314 -0.02269089252797387 -0.12719246076747481 0.12113873599943208 0.025301640270088258 0.20594083886930151 0.208028323780799 0.046790208962256816 0.017504501430794482 0.018679121757826381 -0.24371594643930772 -0.1084570773591045 0.12094421601907067 -0.085088694602291834 0.043726395533634874 -0.1674340770628196;-0.1185160087133348 -0.26004751616113875 -0.16448005359650722 0.012483067991941304 -0.25379247417396472 -0.29102550389986942 0.035140158215818743 0.13055127603719124 0.22805003815550859 -0.018950869728612589 -0.28014298857527409 -0.0051397906034212921 0.18188656621077631 0.23364358112295577 -0.31991117388136814 -0.14950861134072688 0.089002217187894847 -0.032138717864825965 -0.18952420699458322 -0.29485476251429787 -0.28286928921958066 -0.2767656053813114 -0.18087935792677459 0.1578860143597095 0.13389321411574265 0.28421110943417033 -0.057991094127151387 -0.43986473894612893 -0.58066085268879586 0.0052155107566672449 -0.36335782158845786 -0.14260718655362886 -0.10125239593743497 0.020261987492995216 -0.057760843117612148 -0.11437466043788344 -0.23218420775980469 0.12009446614174966 -0.20597684158606522 0.28937474199862956 -0.069848898327922043 0.16613243362636976 0.34753902812001386 0.27639586537514355 -0.27108449093284454 -0.4451525877522946 -0.10266352455292353 -0.084725456886744543 -0.23455987010172027 0.12497147196298566 -0.042650688116630774 -0.15103071160486284 -0.20485916430952206 0.059196376604390546 0.076885495788360764 0.23805806854900599 0.064173653253074905 0.11460351807658674 0.074342283697853617 -0.1450468453086424 -0.011812170368298023 0.1341147141367586 -0.29418252280691759 -0.48212018302681742 -0.029817573084047044 0.078871375440277156 -0.040393393772802391 0.23567982473329468 -0.085631348019648224 -0.032924364294439103 -0.12064805094647693 -0.13633143661678898 -0.00098175829923862401 0.26016863046762506 0.3848272345767072 0.32841883634530855 0.053893586943150967 0.13155124999832979 0.32004444689994438 0.085544999125955326 -0.14353393186170232 0.18072697497568668 -0.082176481091920245 -0.043447009390593712 0.023895940001297716 -0.25084546084007731 -0.229820502387973 -0.0062190618571539517 -0.029926737731411399 -0.05662521502425414 -0.060812403359933098 0.40830219880228996 0.29797584371069907 0.19269312289922649 0.20941029103161629 0.21868668864393945 -0.055578670885306804 0.13499620204764687 0.033719840773212259 -0.11516282021297516 0.16025697536072825 -0.090046383641864028 -0.055849293392131946 -0.14782430646064976 0.15094715119584773 0.21584472662070334 0.061427294117269229 -0.39414985347188974 -0.077726365859645194 0.073986410218143853 0.23511592236809339 0.13155167907939097 0.17104476435496493 0.27075294241269487 0.10878318272496243 -0.055447068118329897 0.02769965666481345 0.093321860117904679 -0.025248648853047034 0.2621086946184969 -0.080998529174999959 0.013416497739599381 -0.018907929146281061 0.23131631181883006 -0.12228106294311464 -0.4021859342464752 -0.3503259659931392 0.11332726836412681 0.35461528701476697 0.33058149486409893 0.33342624747942684 0.28862288737956493 0.053662173559760752 -0.13427079240977391 -0.20604921682568372 0.11199900149181813 0.05121844367062784 -0.20205027248820004 0.22086191229012048 0.12331034556610639 -0.24502806767081745 -0.3861153675987789 -0.19584967718634558 -0.26982900052897557 0.19679471521195879 0.22462361206659331 0.16872643269022064 0.005031432179389006 -0.05341717825249908 -0.091924859934085001 -0.17454821328210182 -0.070693924069619371 0.21396989388300272 -0.20159205666749863 0.07571064923912238 0.053447083854647214 0.18590161365280225 -0.032532710269398475 -0.1569522719277853 -0.072440127594430526 -0.029607888632780514 0.25928382295976293 0.13302691416323853 -0.16896375608675238 -0.12225091410728632 -0.0095584389607774444 -0.14705506714001859 -0.013900445330098673 -0.09661557669866197 0.037354825087028087;-0.13314539184783705 0.10047967602120968 -0.17268179289717661 0.21788704469092354 0.046178382589367635 0.16917286300246764 0.16212642805072564 0.08103148903496589 -0.083962803250375542 0.26919241653114634 0.11697727123391721 0.24162224227980808 -0.24220921772237736 -0.25000337370618947 -0.12290151340702438 0.041909464651824511 -0.17084399572259951 -0.078370375872909931 -0.1542876100241847 -0.1418754920557404 0.068990556182187399 0.12191230209588481 0.016440399685281513 -0.00013195492783303121 0.073487869610363632 0.26870301239101935 0.3210458982678811 0.58615616341340115 0.40977472292135636 -0.13004642890553217 -0.10097718094661128 -0.27317897623578136 -0.10196166056073173 -0.089533882793342803 0.012551188843096514 -0.26378739431135434 -0.30584579389355904 -0.42685474509963411 0.050792738773251196 0.092407244448515335 0.36349364524795025 -0.07382745669788196 0.47318400942527822 0.52082046259630832 0.39036397939111217 0.27884710583799038 0.13146160625602041 -0.20601324891511055 -0.16583979099882978 -0.27130696616521344 0.045804673697610619 0.094125224628452298 -0.23672484480994427 -0.31061155181812494 -0.25337689167528155 -0.09281626669627846 -0.060701518196885761 0.13362370362653181 0.22217143963265035 0.15129118003346381 0.51971592402636768 0.28897321066849346 0.02846607327455394 -0.21824690326361748 -0.088085589019899074 -0.24267830876312296 -0.096990124951136222 -0.050926160412993929 0.037825312453985217 -0.11970849285207268 -0.22951525743624882 -0.14386877685724075 -0.13520775458142945 -0.16257802660126833 -0.056135558896628406 0.033866323673578183 0.013749369210412874 0.028965195592218152 0.13328569757731484 -0.055765736801281482 0.21675512412685813 0.21629576539484013 0.03557644242730848 0.060626530108173732 -0.029859420788974078 0.10887223855736475 -0.31294603045123209 0.054022009740787844 0.038755962455903549 -0.095666584335910909 0.10620342687230315 0.14038457433286292 -0.21667199439278409 -0.16918788806738203 0.098085862740122168 0.46796211029997703 0.082680489022506187 0.18490196178903096 0.30281823643075667 -0.013982119224876778 -0.061814915517053641 -0.14762579914251445 0.035951672863043745 -0.03373811671580576 -0.31331683267136134 0.13225530153928261 0.22395739460832659 0.0090298093429827565 -0.16115581085695169 -0.054711289579138858 -0.19118573913415918 0.16120765926496272 0.17053675655431277 0.20571670169605502 0.066907017898032717 0.10374085164757263 -0.016706514699734033 -0.048600161862822955 -0.0027230841485323485 -0.0061751086432203063 -0.06562976169238241 -0.42342897096063148 -0.055705167815026872 0.098405929620931268 0.1248208087179481 0.085286739683908735 0.19877185402344344 0.035340017033234888 -0.13421937810920945 -0.23383486744813339 -0.10305047361728123 -0.028506317146784494 0.017133249620076531 -0.17612667104511867 -0.14159135073265167 -0.0080620356248030205 0.0043764434500491037 -0.087500202005216049 -0.14357420375302876 -0.19001206133987913 0.10545483238175563 0.071221527063493106 0.15688319524057179 0.25505250683691666 0.19821848427981556 0.011490342079172104 -0.2146845884358545 -0.11513290994498221 -0.055675203274147572 -0.0742704468593747 -0.049258143202530219 -0.025833574494618129 -0.1032195758280807 0.16553479084252981 0.042846433628959457 -0.035324096914768767 -0.11541507438051132 0.10941782602439362 0.13180692513281891 0.1561722758833291 0.0022437566887414549 0.26222018895864074 -0.20506228954338593 -0.039125923518380019 0.089914063492813764 -0.03430107996727487 -0.034262495015865944 0.086709724499665172 0.099216261781381196 -0.0094996537747570192;-0.18796524221924774 0.11975706147412914 -0.052958357201913782 0.048204434361467631 -0.027566842376078336 0.18238709061251429 0.19094683379259936 0.18824923878041436 -0.058623629359344509 0.12923772515035017 0.040057593498431548 -0.086742401099128022 0.2488045838794741 -0.048492064716252933 0.096394626767997399 -0.096853149561945309 0.0010932875804481406 -0.14351294626875835 -0.09094753198426471 0.096974539506364824 -0.032233398833655003 0.096793371194413558 -0.061634659856005122 0.1848999694780685 0.28645808590172978 0.080667638860595914 -0.152696838705912 -0.12137549358267902 -0.24609476543707184 -0.11295038588464501 -0.011933430865195958 -0.038061655335592366 -0.0089691270255389394 -0.15339002778292005 0.19271929866422505 -0.015705903050982389 -0.10991232749816449 -0.04979262840086026 0.12861664566593758 0.1323370721403993 0.19229155607934598 -0.096216408891083974 0.15568386044994484 -0.033446130335846917 0.036259609449352505 0.031456460392932824 -0.090325902162868232 -0.14064319533895442 0.043527258742622872 0.11414878102481328 0.042394682573639861 0.17994821142060954 0.18264858874647918 -0.055674092117635278 0.072691222248697202 0.053911720066284377 -0.023872067981688141 -0.13750564201883611 -0.048988822172952813 0.025859871514803422 -0.18842265967123664 0.14449504331017923 -0.061851978129480019 0.13756813827217537 -0.10840520133684978 -0.13962364749363071 0.015725412147152767 -0.17868509508531891 -0.068121954508640045 0.034369849955492283 -0.034034117395706893 0.12417953267668384 0.037820586458607294 0.13674084252262994 0.031913096455603571 -0.13025248726520997 0.059710064792733338 0.062596994905248976 0.083918094485833941 0.0010096595655723723 -0.16762639239707802 -0.20735632692641981 0.084106808005408054 0.031893144676704385 0.12595503310489412 0.089992532742479231 0.055354198423000267 -0.22751464941908853 0.066379104297607683 -0.053613355755896867 0.046027215091206351 -0.11927719457120396 0.14577066003790023 -0.034678435524453738 -0.081022117588704118 -0.10498109495769674 -0.22043581397965537 -0.046335756704005068 -0.11501136075962166 -0.074023027998872795 0.20401205880476977 0.039633938857593608 0.067809279164129196 -0.030968554911652246 0.026664059995378291 -0.22626671360175407 -0.26301128376202088 -0.21005056596343749 -0.069567276850529755 -0.086855653781314213 -0.019964021063039142 0.068663191816409522 -0.05470112746556894 -0.10465004810179203 0.058532466405867511 0.037146469167580361 0.092863218638101194 -0.080613993182745133 0.1334746934479015 -0.021007005485063211 -0.036080850465720543 -0.096895881317642971 0.009481188628069518 -0.18685304003607983 -0.038093115988210698 -0.14833585843394256 0.00071052733559689193 -0.14689366866957673 0.13995037962519855 0.01905530456119334 -0.11971441599824113 0.083847034160206363 0.14675512137460886 -0.14228558203038008 0.058156927300338064 -0.030124411447649192 -0.12438707777719667 0.1082931369931491 0.079792243239875021 -0.018047564327487772 0.11528610305255273 -0.036932406935466705 -0.15647973864747766 -0.16377577961014705 -0.1164674372288266 0.1756697374253065 -0.058844918563480751 0.0088863422771940821 -0.12131008113373645 -0.036519556310006231 0.19031172632042778 0.1427280521538237 -0.12610003935129036 -0.12887769895457202 -0.13739040124911039 -0.13791983563518889 0.069905426903651285 -0.16653168860847792 0.094215652585091417 0.064365145565144458 0.025248153123706405 0.22067376347510426 0.13158534385828749 0.21966644386644071 -0.0089669258823652752 0.28498105717826755 -0.0065799647821160974 -0.022872319691971323 0.1431168895666626 -0.10676979963194982;0.23666454907712925 -0.16673720074271689 -0.089754357257993481 -0.15210003704411723 0.063432834469847349 0.0030019264146065486 -0.33170694258976863 -0.15730998200688637 -0.078840951195601458 -0.1974482650227922 -0.37244037466099783 -0.37586747153050915 -0.1385499664165914 0.20023169788306158 0.071241943051552806 0.086505494547280279 0.060712058768344082 0.25095237139534149 0.035236384278602241 0.22500507412758242 0.0045010277324015312 -0.1367138976204455 -0.17895447364618644 -0.27686520225374928 -0.14712726749005756 -0.31720266889093984 -0.26967401372639221 -0.42789684513001974 -0.31949783546321242 0.053197512170860856 0.033365175807829925 0.10348404464106159 0.033580628733770677 -0.067257696325712699 0.16593316870200825 -0.11170038847955772 0.016371732911082355 0.11352818201163217 0.28161005515104265 -0.38510625295055861 -0.18337870057849134 0.25465569083519718 0.018730540408111555 -0.073247873443259268 -0.37436557619388533 -0.15474195284781406 0.034169103706533359 0.065705678017068322 0.14817552647653481 0.18094780749718506 -0.062350639153080888 -0.033363210371134537 0.18030401070939164 0.0042267610017163275 0.13940791813932252 -0.20768215082643041 0.20056421833762397 -0.0063934576629816314 -0.13528018901088806 0.17848923342297476 0.15274543898603063 0.38492281310196436 0.10347526682268972 -0.17659177358017705 0.053118301186794177 0.081826551991767318 0.010835587020955486 -0.055543625965690686 0.084561412404068365 0.04779922475552259 -0.01576447744207022 0.043330753252546504 -0.25356389131036355 0.30859068797233402 0.26644275547348123 -0.13803743306882335 -0.031662827625997314 -0.00025610112273204404 0.1629193763844998 -0.051041326650211785 -0.28476726293426008 -0.24791592317398564 -0.14861310205847736 0.19219721820690944 -0.15147578186631555 -0.1417912794647386 -0.068481072406341381 -0.0041975278494515815 0.13278299447825412 -0.2068029132413505 -0.17436345892692245 0.10410345627022345 -0.072702334963909238 -0.049616583476961129 0.14849024633986405 0.24335361537871364 -0.098691422067594806 0.093998195692126557 0.12201781388113046 -0.08220322663729189 0.0031174557024309575 0.096636273343019927 -0.11589549994994687 0.26634810142770288 -0.053891665402576699 0.15073436371854151 -0.1981871240121926 -0.13574148698382932 0.22670168732775689 0.30745075323088411 0.40648712648996321 0.17134492282253413 0.34125959420573376 0.19644380000056316 0.061453326928850388 0.077777166174144319 -0.054032991691780059 0.18696248145767519 0.16754160101452298 -0.094881647541179656 -0.043464350482389301 -0.15592922869516782 -0.21248976682104698 -0.16358429661584714 0.0021829404607426875 0.1109797462634747 -0.096532311968748313 0.084252113899515368 0.28535971709871882 0.34633724416700723 0.1425616173667994 0.078520015702145673 0.059536535694399692 0.10073700430323601 0.10609307916035693 0.11590920511692604 -0.19148095867140932 0.051205094475556379 -0.090124630639322439 -0.032444348023505307 -0.46716168034208583 0.051020802769017076 -0.048133786971512757 -0.075235860374028102 -0.13490221459956381 -0.010248477420526531 0.15725170622388884 0.30143067382931688 -0.020634276736413045 -0.03341742586590242 0.28157213091844663 0.12580248101806488 0.18099958416526735 0.11417601547782268 0.10799976715727555 -0.024402172713516867 0.080141191940584416 -0.054091549074023103 0.16915582962757428 0.10881415475082913 -0.11471916062943911 -0.051219652996760547 0.030565775483160505 0.10212550351793959 0.34304783663077998 0.060232227696272921 0.034926844582478099 -0.078677026104618811 0.22398873092221555 -0.13950902469800577;0.121705576855923 0.19086002593622317 0.16194875434889652 0.082328354944658608 -0.10739697385101653 0.17745191401250951 -0.036617102415859359 0.18945105660561617 -0.24168329592903418 -0.17053329743893592 -0.50655499864538223 -0.087073381047350212 -0.11816718620499526 0.11407109740066505 0.012445398591003652 0.18412631559729495 0.035723877977945469 0.10834522170951287 0.19618716024980939 -0.055685698194602319 -0.11569227722599849 0.12701295880762964 0.071299687441160567 0.18913725779351909 0.16017408121546262 -0.053515642334406359 -0.2150175802811527 -0.74603244240532496 -0.38924524801608035 0.068053175289744278 -0.05564781828527942 -0.095477319577268682 0.25234889140603373 0.11238098086338363 -0.092107491143607695 -0.092340405377949283 0.034765084063868967 0.075714671288707402 0.12319092420494449 -0.017703496815186008 -0.07573181588488781 -0.66559796893086387 -0.32397292694513879 -0.13806055425444991 -0.46208152149357884 -0.0031413878993269205 0.27283682897430767 0.1708005410603497 0.039099028184762116 0.074785641458665869 -0.0083284005646745811 -0.031734711952896837 0.023544586112812203 0.35600715330000143 -0.080120386173240812 0.10580278843041664 0.1207685071391945 -0.26263359299562328 -0.60870073573210526 -0.46711042442835132 -0.047808108303241406 -0.078289296861146856 0.13392634553624216 0.19568940403136856 0.21610010977834992 0.1373188448971521 -0.12039070009141388 -0.010155052553332362 0.31982931577742119 -0.20860833559990477 -0.057871759858348581 -0.02817763177508735 -0.11763020284142021 0.39036944541716462 -0.016831454013250775 -0.45279061541338983 -0.44957262505765755 0.026088631786206955 0.33821079235649981 0.14801552293568079 -0.078438528524512746 0.21670672604309824 0.2274862555337315 -0.052940790174818578 -0.05727517098697521 0.018701239775858188 -0.11118800130755493 0.11892211174692073 -0.16657957299598553 0.21215363341504656 -0.010817897413153759 -0.033123245920627924 -0.17306840145849361 -0.38112093670404223 0.051332916313127322 0.038068065036912915 -0.10891810727913039 0.057240666232534092 0.10683168556361256 0.30757605055539977 0.28720402713527787 -0.059788167629050641 -0.10840220188718841 0.053865084743820998 0.037884801976219989 -0.1413714493432813 0.26788165847586237 0.0026484995005209497 -0.014248020220070053 -0.29253676978826415 -0.50591057828479846 -0.0037549541511302477 -0.18395246859208553 0.10614243777652599 0.16611778733468496 0.15993483541625847 0.015633701209895261 -0.070323808782121078 0.091726198787750082 -0.18878711788559097 -0.0054410125339950672 0.12531399813154642 -0.32264810170637026 -0.27976276963121349 0.13270752786598619 0.083994300658768575 0.083494808285080824 0.33938428989960046 -0.045992836936458184 -0.39521708050588689 -0.32754852678547069 -0.20897613696452422 -0.12720202314406565 -0.18878996455242986 0.047438784846094817 0.065506077812590768 -0.086582926950289463 0.06050202792286942 0.090573561108895612 -0.073261934519377916 -0.16347002584809814 0.018134947215941968 0.26626347922604704 0.48079889897554112 0.58790701581538718 0.036379495280067765 0.082581400444467851 -0.055004729297482707 -0.31931674309862501 -0.30447650422888767 -0.045296038958772294 0.23336426874388921 0.13371755611675576 0.16281755749194154 -0.070540944176954695 0.0060183294621670956 -0.00090906835038951587 -0.054125294526595709 0.24062521288947811 0.23256638526679221 0.34856778753538958 0.077429138760496619 0.1800491869135607 -0.016078104175276071 -0.040415534888491846 -0.082486419973848021 -0.048503669078991819 0.29066330645067234 0.065716414013193877 0.028131786774566819;0.023706425112538638 -0.046419804438489275 -0.018029074539135791 -0.064819052811074029 -0.10984642471146745 0.16169521485541935 0.1768507453342015 0.14302887011255072 -0.053873046954104331 -0.042387676213750357 0.15889271538814062 0.11787985658913953 0.21862749126906975 0.0054686147592468122 0.15787448271831986 -0.01926720228726761 -0.1147555322039657 -0.17235641118654613 0.15780782522650294 0.10493463453030513 0.094865212152141568 -0.11242274640847748 -0.20898501260064342 0.09489765234537563 0.10313427060085473 -0.15634815663102603 0.12058457733199611 0.20738988187406654 0.26412515686675792 -0.32083082943702085 -0.032629496387176646 -0.20874098004198283 -0.01018307321778435 0.10177368493117833 -0.0084903925454967652 0.090227984531897176 0.15986316056195801 0.021979958995714411 -0.22825638867939727 -0.082356776060555095 0.25983447545366928 0.20583152038832442 -0.024356911367318303 0.13320543066289389 0.45285866237854033 0.24837370529097597 -0.34879203424761479 -0.05731202115077362 -0.081701534784344276 0.036146142939507048 0.055601200455393074 -0.10819511596073079 0.21024026183786065 -0.13509045511079423 -0.13169317734405292 -0.037761046718709751 0.12179737812591372 0.2327892315569304 0.26185319855604916 0.019166987805789217 0.22243505273199499 0.027265655851139443 -0.013777602580029569 -0.0025178360522119863 -0.097308288225087733 0.0028355306622736649 -0.13017537345995286 -0.0018240447369831966 -0.15893303588092658 -0.020715141494334937 -0.083521952335674776 -0.0067380476916305285 0.10771103576252108 -0.14040582650028691 0.01259369578349843 -0.078181941824545367 0.25096518631786457 -0.17401726905731679 -0.31047551364216985 0.094115809709086271 0.055201143314472338 0.13284253697462003 -0.1302004407696134 -0.21155004151623069 -0.010931604721589848 0.086346921127131965 0.058240610086094852 0.20253887960040354 -0.07279080575582296 -0.11831665231703439 -0.11229044007708279 0.063863921029329696 -0.083215072363083217 -0.029079014299048089 -0.17712468047666308 0.059545434708254831 -0.10976900688807122 0.03357929839480836 0.00059557589938419178 -0.096070321105211173 -0.19287916261962379 0.04832263739579154 -0.10012764989332794 0.074145128098726115 0.33087898929298065 0.017168346831015611 -0.15250387145962269 0.12058036005786077 0.13313128045816394 0.1662850930539472 -0.14551844847274242 -0.0050264058671737289 -0.031066801356571066 -0.0593203503115401 -0.063003978995029145 -0.068403649883237147 -0.030777110347431174 -0.16963158141343151 0.055692735201453382 0.15014715753703636 -0.048925354077352837 0.32080557894770506 0.11804394554046777 -0.25797930965539817 -0.29436025610800337 -0.065230706540335928 0.031452607089923215 -0.11905458116153361 -0.17657071567113344 0.13785934771449157 0.0604154265376564 0.012384151276598736 -0.011568888713612606 0.048468904834985366 -0.12866082992440661 -0.079300530902097446 0.065437121836857737 0.12584669996597075 0.12237142825295871 -0.021105019549405128 -0.075827344824724571 -0.14012801372657779 0.0092059254520722601 -0.05321507850169329 -0.2533605871978869 0.021018785234276843 0.044394863664957651 -0.0038028749409191129 0.22609034486615429 -0.13617074801812631 -0.089261964597647181 -0.0025448130934477651 -0.15494495359175667 0.073329536897658601 0.21987898908078951 0.25088270319909711 -0.073470125341326922 0.10913147700878666 -0.15148362928730072 -0.21473961336502151 -0.11576603997104457 -0.057654584793486417 -0.010432766107693987 -0.14543957644603767 -0.0047668678296462329 0.054130933984167524 -0.1205582520381476 0.085034328053825631 0.13829077730406703 -0.13744003591433526;0.21840016958034358 -0.06942101761662918 0.13276589736658082 0.016868190716138237 0.18167672043295641 0.19806298265419359 -0.16601002282850139 -0.22856381157272002 0.027947798765298008 -0.38818656394884349 -0.30634181140501576 -0.024296749020337249 -0.0032916683900572315 -0.22639027422546654 0.069381074977969664 0.20989130446295418 0.0080219752807023804 0.10915372800269138 0.11057795755362676 0.24923124817862083 0.24157422753433516 -0.099115080746914982 0.19208798977090022 -0.31755264672361544 -0.28886825313406866 -0.31486996540847162 -0.26697213898947714 0.029213028782254458 0.14008346192325963 0.19880263196702863 0.01450208939249936 -0.11173742192270139 -0.080895806424262098 0.043067103854510215 -0.036131903112936271 0.15036074145882047 0.18197078992096366 0.034062923276207302 0.17607134426512933 0.21049212106028214 0.31906388162508409 0.16647360603634523 -0.43752744843434371 -0.1311175272137404 -0.011802585381233428 0.10341556710620994 -0.10762446335370343 0.049994990488584759 0.25392426999589168 -0.081415978555781809 0.062002590556441028 0.22983430340122474 -0.035852552292187478 0.055551303914199546 0.15286952363028819 -0.19584017382331648 0.14719387711011114 -0.081246764302696228 0.1031086913775353 0.089373371696349443 -0.20020970246124326 -0.24736267063201867 -0.23357302178620881 0.012620001984668942 0.33431749075641676 0.25852845010958864 0.15100773807227721 -0.08363243933652971 -0.15455244633438769 0.0093743806097357271 -0.016956659725562945 0.19989443092404716 -0.024073366871771817 -0.20589268302860231 -0.35088698548703307 -0.027074652097449414 0.15024420415006304 -0.3536686032103673 -0.66115261937347403 -0.2992269224323918 -0.23375291632874448 0.41983531059463269 0.0070767921518566125 -0.042556063573589452 0.12241867979949608 0.19180351079902469 0.15589262433203224 0.072655474508518475 -0.023277162729177108 0.056468858489892769 -0.18579794129934296 -0.21874547572106662 -0.19133215382167731 -0.020016654961954768 -0.12235493953286861 -0.38647626136091134 0.0009545712618909334 0.10340478736646391 0.074947445441209265 -0.17819897636909993 0.24618250166130004 0.22049240096595527 0.17226484405714979 0.12668932871288943 -0.14193295636151582 -0.091665958632833763 -0.090955519587728337 -0.11256801948252264 0.23574795497921536 -0.12313781182931151 0.02684921131762158 -0.23489929407108182 -0.034141094276385696 -0.11002674348392373 0.23986307400743195 0.040564579215088735 -0.2254373519487449 0.19060044464119361 -0.047638152050164917 -0.10476864281597917 0.2026911049288713 0.10762228943053971 -0.27339030403166908 -0.21377225229598179 0.13568766966868145 0.3146837077849276 0.002274381545260753 -0.2763449470968502 0.071951334761369917 0.23079690000718578 0.12533671303843416 0.11530011098022284 -0.13435093800921671 0.24206880545221135 -0.077561552948997428 -0.20351568832518099 -0.23286911216935871 -0.033363123068720732 0.057656903395132915 0.21037588269947199 0.01502431881028294 0.061585630655839475 0.42382721877657342 -0.076121530148244437 -0.15591368298420147 -0.02329570993786852 0.19612520385693888 0.19513777434212715 0.35939155450627119 0.17357054347938222 0.078643230892919372 -0.053204464341704914 -0.19268670964308188 -0.076599372489887102 -0.16456789444614073 0.083902442980432757 -0.22405645501964069 -0.081162175760433844 0.21235591994391168 -0.027076052101432484 0.0041743632858797716 0.072361733619389051 -0.032565574075045359 0.26416735787243717 0.17261632501007473 0.23963471292893881 0.056193584901128336 -0.093044581333235551 -0.03433441355116329 0.047889397432216485;0.04249626526974086 0.10093235102067365 0.061642408598494305 0.057597850665546312 -0.046197863900071329 -0.085350727423005368 -0.34432763345769857 -0.29332786244577863 -0.57977677940698158 -0.42085564445261653 -0.10804909709732828 -0.34687587303010864 0.062853653753847577 -0.083126285994939778 0.0021614437905558177 0.16950642601688756 -0.14970790518139751 -0.15564195831134517 0.10059776887815844 0.29214323944746717 0.15522610728031636 -0.082743061404997709 -0.11427529661754239 -0.27824054604890913 -0.11817779951774225 -0.26084833410743774 -0.35536575210784094 -0.20343103872981966 -0.11096744562889375 0.07140007193257078 0.1345984549859659 0.070445638395604748 0.013305602698629156 -0.127753639017642 -0.086275081534470555 0.16345785009722333 0.082130161057146212 0.17106413138640916 0.09456873857186969 0.022305933562732801 0.43903553014677033 0.43206283431627934 -0.0057404805348595335 -0.10308089603516343 -0.073579133253452597 0.086304224884527325 -0.073641312677697787 0.13933645701712208 0.064949973001957831 0.0092573988278904246 -0.17209609660578451 -0.059636596614326548 0.044339700457148308 0.036458885127097364 0.10510157031530616 0.058484773677485516 0.22895697184179292 0.22458537987996399 0.22055910163944101 0.44900770622706904 0.34165473565596111 -0.10296622523561931 -0.12550489865803321 -0.1735546992305477 -0.17454694005108479 -0.0082096800851572411 0.14970594731725737 0.13527716415551727 0.050239143446299796 0.0052112809838215646 0.016705206009869588 -0.21509682395811436 -0.091368566241507965 0.065236178032121186 0.05021996040413327 0.37278072776688659 0.046709206058866672 0.15134560230446931 0.021146692250962208 -0.02605254521237706 0.013538959329164397 -0.1426881158347057 -0.11767386960156821 -0.029980988209732547 0.11900598034296911 0.17147038922793925 0.1369800634132477 -0.044777947033627565 0.084914645214169193 -0.051541575878998151 0.16968932717441262 0.27570341616680955 0.30463225511899433 0.30627160896779798 0.26284203576198717 0.18890498562569097 -0.043129822232504278 0.028494430952100337 0.028255060352801536 0.05014717213538198 -0.050195771210520782 0.19231872513137374 0.0065882781317988161 -0.089316935444147399 0.23583899132116165 0.32917610890464638 -0.082386420089909929 -0.018771445492107741 0.055390105586907226 0.059253496963931333 0.027721400094867853 0.41906267725143881 0.23370716898805752 -0.046797217046669039 -0.2018068245686922 -0.24648004931805581 -0.095924977576083939 -0.20425630298326841 0.14117343343859423 0.026080041062771158 0.13268233462809967 0.14658857652324628 -0.2225952027558262 -0.36263104449380024 -0.12172418076565304 -0.076234322044428052 -0.17123896344836137 -0.073216900463710433 -0.18282000602712717 -0.013135306843379881 -0.22625064536421546 -0.25091716975948636 -0.045165277797768702 -0.033328903339548493 -0.050368804324198657 -0.23016601268761597 -0.0030046329861105245 -0.016530998146680801 -0.12022084646698666 -0.16330562041330807 -0.25885409760208955 -0.20756552759329638 0.094760928966622748 0.024867146151718998 -0.085112990793999616 -0.34722769687056454 -0.071218630042852199 -0.047988866255039085 -0.14066127133505305 0.069553112251344779 0.13322808959479349 -0.076753212495049974 0.066156420443566247 -0.10131268469376593 -0.21342603545204936 0.14366142067002083 -0.048555652046236186 -0.07881057567673215 -0.087161348508343658 -0.25103672374922725 -0.23827344631129715 -0.012097865157856746 -0.106274169247629 -0.056498996408868518 -0.09689235000214573 -0.036290484480368153 -0.066006085171596812 -0.11823109906541762 -0.097698813652855654 0.066063538512357051;-0.069911951073570539 -0.054400790873456215 0.10973048459685583 0.086747541808219711 0.036870986511831051 -0.16303915273262254 -0.076574345800205862 0.013169012019538269 0.047134796914727078 0.079985761119397716 -0.14430173132163276 0.18658974531337977 0.09090634300673614 -0.13850607816732388 0.044809924557684046 -0.1297145048166462 0.088288587749434697 -0.052348457179283603 0.098084167138236061 0.29637735799411746 0.015784374328882387 -0.14326129087959127 0.21067237797183869 -0.15961176840065103 -0.24178564125877178 -0.21814016137652484 0.016153415531015014 -0.04543704716998704 -0.13617999683544424 -0.2580583028062966 -0.23505213779465692 -0.0046987496669851445 -0.059301696427694811 -0.062181220924703198 0.058371529852730988 0.15850519683971626 0.15932854869209387 0.037289219999662879 0.075111904587562478 0.29527261002997518 -0.096527918769361731 -0.081149203363438907 -0.27359464582810106 0.066355239822654982 -0.072524123639346336 0.098355912318086561 -0.12877174769219893 0.046120376613054855 0.015734300854884361 -0.016094719695630019 -0.048822657815012972 -0.011397730663636736 0.023050903311562738 0.31462481944882698 -0.15462809018829571 0.36139400655756809 0.16936039320402274 0.00019085093289141365 0.23476490231335459 0.10628186658695292 -0.00086889696396353321 -0.33300378096401301 -0.16090091964927958 -0.03239425218777392 0.22905315614782062 0.0083068327452048354 -0.093999196583643779 -0.048550834838757169 -0.13378216956603217 0.030202917451098245 0.1955164487608485 0.049985753557493073 0.062941189637749528 0.12894695307349927 -0.10890888198653645 0.15496683528884242 0.089052055640563621 -0.4097844638221862 -0.25576953763054822 -0.043533943098995657 0.13303467725735682 -0.02084736245037825 -0.37549809515761556 0.17367429128984693 0.033491083599604253 0.095610426810805629 0.24775726463807862 0.08667551294374376 -0.14839145380673116 0.16510172213340388 -0.09331138067047498 0.36468585795334824 0.065271134561626407 0.086854818130318312 -0.30259776730258381 -0.39188386839867995 -0.1146713661677289 0.072659763319957382 -0.2526786887768398 -0.49148147988318724 0.060331680306579621 0.16299841802686932 0.030185572068393656 0.058782573933643258 0.16683478457224732 0.038753828855866188 0.0043411216328802914 0.09647637868901919 -0.0062924612896902371 0.012130027479294613 -0.12794405006642831 0.14246358566314182 -0.22095779072952251 0.0074967563266767614 0.24028200088147345 0.070916566974050743 -0.15281176309515074 -0.20802451783258757 -0.017702596086104017 -0.19261858207931973 0.090338954861914525 0.38589773743274502 0.10551325451371571 0.014306101337223804 -0.34281875529193179 -0.3717996922309828 -0.080820008194987497 -0.10439857782061995 -0.13921450358706261 -0.039825167246366824 -0.14294963019483217 -0.14027642441139904 0.16637572247968013 0.011748370795798067 0.10419663258223257 0.069162217029901218 -0.10525176985226065 0.033395395336735384 0.13858325076728092 0.12822145227359757 0.0041674236811686822 -0.16719574941324478 -0.2822519974928564 -0.019002570498866854 0.08271573063764126 -0.017279805826430635 -0.0060559994179661802 -0.16700186280225063 0.064444702071457138 -0.18994634708742889 -0.044032125481320343 0.060646253132137645 -0.20737906265024261 -0.15181663822688296 -0.075015758475382097 0.046969741568827057 0.11217345861160544 -0.054400523209307654 0.1392331413875661 0.073374714841389577 0.16157222525862538 0.17584929290413481 0.073270745363326159 0.019480336227912707 0.1883810948786771 -0.14040492800857671 0.0038486371279446499 0.19865879300182837 0.025212724729247748 0.1144462624727893;0.26795852172410894 -0.3269654696315239 0.00052463755043728787 0.014457775624452083 0.14910336857975162 0.14616076325622479 -0.36503460595129761 -0.36951280960959015 -0.41666423804895669 -0.23076039477894592 0.24093703979855527 -0.053568198433398002 -0.025449739633230942 -0.16008657561637518 0.15387032566176251 -0.093862322792971895 -0.12582464610010477 0.19442119686232076 -0.16152958187551822 -0.081447727129753664 0.19076581925696998 0.50235199264676589 0.30073594612604132 -0.49870595070834439 -0.74156288952908922 -0.35270871285010075 0.079820100825272716 -0.169629229437854 0.1569484220944794 -0.144614185508113 -0.0896701495498297 -0.01272312185242906 0.1978275092565864 0.25032211467448928 -0.060382503792195653 0.16370299784317602 -0.30196711315182245 -0.015076187727096485 0.13423175898159301 0.17438007561603566 0.017524826902591484 -0.30089556790806193 -0.059924297755184659 -0.080945786870825598 -0.0014206040433497916 -0.045012384770739704 0.13584795221597812 -0.066324266985759939 -0.18305458373216513 -0.23034132580020408 -0.0082318146682229115 0.076316570411241749 0.056584613569534363 -0.17916686591476308 -0.083633774004311962 0.16546229282341976 0.21905708642921179 0.067722726121240764 0.14916998929280673 0.14413298450779097 -0.04517841638187918 0.12389371845334576 -0.061386120734338058 -0.20709658594608488 -0.31098493083868567 -0.16761974541209868 -0.078948671933209313 0.10121164193777485 -0.020061767495139868 -0.039698707878966663 -0.10620984977407134 -0.0016105844855958881 0.19455504176601723 -0.050165655621988457 0.16468123907606622 0.20902345414166729 -0.017444594474008909 -0.19143826077178699 -0.05853093093250103 -0.070558951196845285 -0.00083813736035939215 0.075986362857448919 -0.34681682517847806 -0.041272708062159984 -0.082446439522454867 0.029080573907285481 0.26375685808567578 0.13293878485455674 0.15069385403301527 0.19814000026116452 0.24393783005259187 0.061055661641644624 0.22593455565289411 0.16099534540174612 0.2309953246303264 0.34345256025158932 0.36921241951635458 0.087317740810192973 0.20036511551522257 0.13958689187407392 -0.29054145403322984 0.25008718234292721 0.21603156042442939 -0.13947033308510379 -0.054446932866822451 -0.039871993302157828 0.27470816485906024 0.16709345688492916 0.3132921464940297 0.07076634653990109 0.37187245783929312 0.25240859966330248 0.253230079503865 -0.019458579504367756 -0.087616547614641382 0.034935421795320824 -0.010063096264646468 0.093036965269396033 0.065234215226276759 -0.068830402631195928 -0.063181620096106103 -0.34038567471921072 -0.22704524296558193 0.12394857246874823 0.4294758045363849 0.63262988030582568 0.1490744998281445 -0.0049695180391029917 -0.034277508214652801 0.011974678106554096 -0.057304297616092098 0.068601087502671895 -0.059333699209991819 0.18184038542492453 0.10951749939379354 -0.054599664335616901 -0.14512282711574409 -0.33650118365173304 -0.55484080509708589 -0.52806549326974161 -0.034624844227707348 0.063081055914696468 0.32440583987150884 -0.020746072301930148 -0.25501623047884558 -0.01449112168277482 -0.083045037523205467 0.18990379247061212 0.068601048871342191 -0.080546279635497889 0.066474732271108242 -0.2482718360758536 0.087131976096051084 0.22015624394933458 -0.005542917579528751 -0.26057845345437336 -0.34396007287505459 0.23062059976543134 0.026267187197272709 0.056184037214902838 -0.19251394162868676 -0.22811748732482234 -0.32785565821648238 -0.049923620589518027 -0.0075226440838369931 -0.15778251397581586 -0.064465068653263569 0.086703390621457349 -0.046744173931859777 -0.059592945628220338;0.071022356545529866 -0.14249762100579064 -0.018090049876571923 0.098810054867812386 -0.1815445550431305 0.083687806918110591 0.020037263392996107 -0.10926910442964288 0.042029020930483107 0.12577934614674069 -0.20092279652219172 0.0076085443795998351 -0.089325841116244378 0.0083533474399528854 0.039442932521629781 -0.0032521636240151214 0.13665129542737653 -0.12423078474110698 0.12802069785916476 0.030799984408796961 0.020256040018659452 0.11470302545006415 0.15057781552113739 0.15721887371457438 0.1008774120174685 0.1516857916064859 0.083658797333480431 -0.10089859297622256 -0.083838547855901446 -0.011856134340629692 0.05629531503300813 -0.16812134377394394 -0.11538932831583447 0.13360092563603965 -0.16088791610495706 0.0034900651289280606 0.08577974106687962 -0.071806470736139716 0.18802360025704731 0.069017857448844214 0.18084367004092294 0.1141305121503796 -0.11992431615559156 0.15193185182997568 0.086401974203674931 -0.11062092357373178 0.018306763917448583 -0.085999126554149805 0.1590455344138943 0.0068362075180897356 0.14689924165331802 -0.15604831017928739 -0.077364858795036059 -0.18368374337286547 0.091312087088857047 0.072981254632483811 0.0018266475715877201 0.046656783902623913 -0.097111671821127635 -0.14683596995047038 -0.1815645539164587 0.173904281545469 -0.11739748361122881 0.01848724471145486 -0.13172556220245457 -0.13166615979008994 0.18756981790139024 0.15012398021043785 -0.0046669457091889251 -0.14701299579310315 0.076148237703788604 0.097043397150932867 -0.076922406788346206 0.0094958746846486551 -0.12705783554073177 -0.001804737307323008 -0.21320377580005326 0.046906898504622659 0.12927713412226649 -0.030166277210376843 -0.16431314209877904 0.09142365951019521 0.0045937225621235193 -0.11399802869366032 0.096762476085948068 0.10510594307731219 -0.036707474305916504 0.11597876650044618 -0.082007324100480436 -0.050861360057813103 0.032653157341679687 -0.11346764544560682 -0.19736370358416289 0.087217919450437317 0.066834506803059718 -0.11694465335967663 -0.0061496039845715927 0.050435123326935637 -0.025338013538791296 -0.079913412502558442 -0.017345731525451616 -0.049714034601156032 -0.044054539359698636 -0.12030809583714319 -0.082492092735974271 -0.044540591124978886 -0.095513218875566658 0.08420611808463363 -0.17684685935650393 -0.3046196610706019 -0.10205100222929737 -0.084074763526447646 0.019135995979571885 -0.09186582820139004 -0.11715371468528066 0.27293949522689226 0.12650657839898369 -0.11295905696112966 0.0027443236667392839 0.055417548460104403 -0.075990304009416906 0.085063898413003061 0.071373007762649904 0.15947450341632491 0.27583631764294492 0.21342072049870442 -0.098823592967725069 0.069417771582703847 0.19701322630972778 0.070767475082959649 0.081417946595667506 -0.11151938129546025 0.028357268717210712 0.085912008911426183 0.00059223420434834648 0.092749216926064998 -0.079357843805814024 -0.1512847733160903 0.16365720940656719 0.033607066158873281 0.075898387601969944 -0.031375185882012997 0.28208947857208683 0.14369386133744283 0.20262153982073791 0.032161454710085469 -0.018057989507636246 -0.011732117608744945 -0.14937477438133714 -0.085896573957410238 0.17580171662444247 0.065978238000336295 -0.050680124714489329 -0.1630175935756086 -0.046410410714324307 0.16443331243385095 0.028236154773299535 0.043535961351690411 0.15641360772047802 0.14481932627416932 -0.076422160920441282 -0.077653529928941992 0.031927233438189449 0.11833577431824878 -0.16267370579341145 -0.18627835620162764 0.031224034786961081 0.048262935871846033 0.057806027513656918 -0.1875904485230388;0.21987143890152661 0.27168250638253383 0.018761192332145481 0.16689328050421198 -0.10563768917184055 -0.062408397473588437 -0.27764197474815172 0.12297545134500205 0.0064464086217379483 -0.084362663816816813 0.040990061178907508 0.03604127166669558 -0.064214575614767497 -0.078817117182294602 0.16846283517871327 0.24050769794899848 0.15385143664742917 0.065505004992118226 0.010142313789486379 0.046673368932536652 -0.073168215392731717 -0.041103381645372195 -0.12683871414741021 -0.048292484307875944 -0.32451062800516872 0.089748091757728368 0.35601275574632307 0.35716193901020993 0.40569273143055196 0.032808831906082588 -0.15452139430201303 0.11741944221046381 0.02580019202929618 -0.18652733002664099 0.11499003113594129 -0.06190080357413337 0.094307004507493727 -0.097365398820890334 -0.14891696655782471 -0.46411528511733757 -0.58829438869160966 -0.43289080654043566 -0.21929381265092732 -0.11092907930182126 0.20163040794971146 0.3507554506427587 -0.081924331301209269 0.069708439404829264 -0.0050390850021605595 0.08557152307971172 0.047315125032485528 -0.063693330808817256 -0.13410829127167601 0.14568182100057014 0.036209609205289595 -0.3855323092330265 -0.40476642927743633 -0.26852645514544077 -0.28657728162550478 -0.023580436236337394 -0.19630176000128527 -0.036930228027692372 0.43195007613988357 0.25998812692357215 0.14984772792300674 0.0084676030408803865 -0.028718559871721387 0.0095701585676405618 0.11093081332421874 -0.047434619100110702 0.13437729686686173 0.18138028081811775 -0.092226276069457311 -0.09987745402380066 -0.15058043347569747 -0.0071375942354335153 -0.069062995117463277 0.15782771751471764 0.012104303127516395 0.20091197906274361 -0.033100477319774731 -0.015438349464129284 0.095515554045306386 0.10140486844268243 0.18686041917710353 0.12770969322323367 -0.16142487805495795 0.080627768023873003 0.22702870418221308 0.091439737112169669 -0.030770667463387687 -0.051000107266425496 -0.15290316448190608 -0.11823951031748244 0.082940759416950852 0.11086671898897831 -0.0036482455504818416 -0.20049460482702791 -0.052823970107192142 0.20000395232613172 0.010810191137311707 0.02629524790006646 -0.063214549704572756 -0.21084214497845705 0.10824051376369842 -0.16736696395397963 0.26836540381643242 0.43477706450755305 -0.097751096275001725 0.032869571078874116 -0.25614031101324747 -0.31330380887037679 -0.2520028703078751 -0.23828936605845361 -0.35675571175593696 -0.14389209835125583 -0.02003998774777413 0.25602474961587418 -0.096062256003779128 -0.26734451107518747 -0.057536202344780067 0.13290846136490023 -0.22963829930538035 0.15043348250607827 0.30531766248303088 0.12982507104039026 0.2360557463827869 -0.11968972980426154 -0.084365087710055409 -0.028881298026974887 0.072933302385655513 -0.054705488176673964 -0.11266140014428569 0.055578541179663377 -0.058017319509269825 -0.13155802430946467 -0.088485216506584682 0.076530195467627085 0.32736962355474669 0.089868877596694166 0.062622859992939942 -0.011661739349420113 -0.14459558069531575 -0.19902214283341327 -0.2892263353333448 -0.085813901763960226 -0.17094436280848618 -0.18754947769234021 0.077997443851031439 0.05979530016455073 0.25243687127394593 -0.0054281322145070905 -0.053653751790687182 0.16855816803602733 -0.072987649009012903 -0.22180115111743978 -0.16876788460829423 -0.033450192943935746 0.066103852083693446 -0.084775408799220561 -0.18993228544853935 -0.2022783028357733 0.11422589569467143 -0.10713961151223504 0.076582847440317819 -0.35047200125352745 0.073290496056072144 0.1963964215015099 0.053531089543494649 -0.03747623009785208;0.003608086623355987 0.15518654547872096 0.00016166432403977803 0.073500087118703733 0.01417238096859773 0.049934188633380672 -0.180024278154368 -0.067514900602780883 0.0072936667853259292 0.25603434542848191 0.16126113815481105 -0.11150932636166185 0.02593145664567682 0.18575536480440433 0.079210412175907949 -0.087926523562904757 0.15036541941134682 0.10869282335899835 -0.050757603710846651 0.15856811831117509 0.045104412360689072 -0.0084211669376859141 -0.032304191394758819 -0.22333926184172209 0.082348726436883568 0.0017132259414929796 -0.0086510532603505143 0.23937752592181918 -0.078865782033617923 0.014045691455271594 -0.1116801721293027 0.12855473376608109 0.025538250029845437 -0.14166579176350941 0.12543096702370707 -0.21264424119569028 -0.057647496733641661 0.18789407792477525 0.09181234613717365 -0.06025773935800615 0.11925476447305818 0.30724516749385566 0.052557128335234883 -0.026452885653210655 0.022932027478007863 -0.094375034071072741 -0.1558889239437074 0.12824276334667409 -0.10008125971775812 0.12733484823113914 0.075890633391952553 -0.22034192941360156 0.12076800020085082 0.11063773862190977 0.043604445316425482 -0.12880778950058219 0.024110733126906772 -0.14000024036061953 0.23435449503180314 0.19956293061790656 -0.043896037385417731 -0.010330213367447045 0.14792511778398329 0.15422297361560433 0.15616384757208249 0.041816462054893609 0.035636935901857542 -0.10297464010018167 0.10095226098282138 0.067574893802152217 0.21460222716135502 -0.037236189270141801 -0.13864380866985213 -0.24916538527273505 -0.16114986795808287 0.18552433390180134 0.0092179383867818151 0.1723205351024546 -0.0092551327502796033 0.098114872239705317 -0.10831457141306712 0.097743379727481317 0.058653405478145113 -0.062131919824606897 -0.17762529104224337 -0.052426364967197985 -0.13826354818880315 0.055362874690567561 -0.13608670300284947 -0.092429792789932588 -0.14381011588641981 -0.017179001408278161 0.086761362547225079 -0.077081364501210572 -0.15996935828442552 0.045202501848748085 -0.22635367395436617 -0.042385596870654352 0.0096940109565824151 -0.21544408414352084 -0.20422941212252763 -0.0408698437562156 0.13795499955870152 0.10684083632452235 0.0073841023673382206 -0.0041571369826228655 0.16778827907703719 0.12698900227612775 0.15690337018896902 0.092140641082219449 0.1282325953542561 0.048017785402993902 0.067701697789877086 -0.056423203655612472 -0.03609117470402854 -0.037854572222370174 -0.063708392486575768 -0.076827405578804478 0.0083101480437177654 0.02986312020565754 -0.11099031253162744 0.049883430407966445 0.2468642138733162 0.053585241071971434 0.064819663525224891 -0.09236626902586495 0.10770315462839129 -0.14286343820232428 0.11449610213388554 0.15512419861603524 0.023436250432656531 -0.14099184225706587 0.15857781043488878 0.15189113129201179 0.13551458322529 -0.10713842083902123 0.030995685144329099 0.13982856070739091 0.093498168148647864 -0.068996089043012035 0.0078746771116093468 0.13217753038611404 -0.13289487785244852 -0.05654245708125627 -0.24999771002763324 0.0042475085950815358 -0.14188807119866736 -0.089452622890695166 -0.14418411725210034 0.14105726925199527 -0.10503104330024129 -0.13312541456188079 -0.047260277510337616 -0.089871881346898802 0.090604180761931122 0.20227391219571647 -0.23890902274972517 -0.19971941388878131 -0.046956124703530236 -0.030984036119317871 -0.19057430432927344 -0.14891294711263878 0.038561478594255107 0.16706122428546019 0.1362259901530187 -0.19211469063382355 0.082259819422880631 0.055511013993512728 -0.11834869550445003 -0.024581153812870973];

% Layer 2
b2 = [-0.036853146706196882;0.10830830465287758;-0.94714537655405084;0.39636789448580945;-0.69095338374254178;0.77027598241118955;-0.072787016296669435;-0.10503367056372345;-0.098186331183081205;-0.28039782794562279];
LW2_1 = [-0.4089882476590731 1.0730553156259812 -1.1983330126572111 0.22806058126496365 1.147653116092612 -1.0441798141098537 -0.45111180134042267 -0.48340969738458817 1.3492253105560297 0.20506356148632479 0.69905587658832991 -0.41899378744500415 -0.81393194232579114 -0.40886446432061074;0.099737267458416073 -1.5464396120080981 0.21481140637117682 0.79619432067002638 0.096896946688122931 -1.0400132585865576 0.39788267578922609 1.1592866171382412 -0.11125036645592949 -1.1430578354973533 -1.4062185488427912 -0.17879073227665318 1.7682222026380889 0.4926581090945259;-0.93572247551901355 1.2245147203852349 0.4168828294868327 -0.08925968319812301 -0.57835833551388471 -1.0325702517711315 0.49113538796399564 1.052651383090107 0.074014926240597897 0.39192731270990855 -1.2163482186358687 -0.066874276896139437 0.020402502555184398 0.32623125828823535;1.200260785130602 -0.05167141959906156 1.5998650772122684 -0.41076938082727427 -1.0928372654237553 -0.46665193776360286 0.23646243565374622 -1.0776291639063977 0.54365408236581181 -0.075263763809606241 -1.1133719941184288 -0.37023262216573166 0.33753027214996562 -0.38182283281399659;1.5554725870142776 -0.97805309853686873 -0.25484540702291203 0.63389397530001046 -0.85930622366077991 1.1630058028903176 -0.18182782795383695 1.1483995683707315 0.32410315848545279 0.80422926220407576 -1.3089706986238023 0.0095490606196893951 -0.69347865557666699 -0.54536044895604774;0.48952483501848643 -1.2562697665369225 0.79796973604626753 -0.5877679573368777 -1.0932230378665093 1.0077365432638288 -0.73464084953734266 -0.35772341909443867 -1.3431367701451093 -0.6283585192409471 0.81015022269574388 -0.053043095682335555 1.0784274021427034 -0.75741297355086168;0.5783510795451664 -1.276754606344759 0.41768386256864648 0.11372006267567981 1.2804942970187287 0.57497532979748989 -0.46712724316805843 1.4003321084337164 1.1997085514070371 -0.40572787488955853 1.5031550114596686 0.44527436089488198 0.1455373703711276 -0.97902205110404328;0.45719918343975258 -0.17746084302737761 1.4172699307119194 0.71229518204482334 -0.38533610130211693 -1.1008096149815692 -0.31875586694509828 0.9060709906019363 -0.66146929928940068 -1.2818250165853449 0.7648827333050463 0.015633112595527864 -0.41795685536042898 -0.83517115174974699;-0.43016449238084309 0.7006323340320264 -1.0659973650517511 0.23657760235150496 0.21125845862322684 1.4561490191637794 -0.89318047176374904 -1.0268427261588338 -0.41568663650078974 -0.50540865072219243 -0.85996155689807174 0.72398469717623348 0.5219677621894383 -0.77063436379445338;0.43789838608320725 -1.1335220544945142 -1.2343424320082428 -0.46504151335663041 -0.60029948996731564 -1.4082028198257055 0.82896770996279456 0.90119322642100053 0.44659638447282757 1.1871951208567078 0.65377205566903818 0.17536853574693953 1.1370414438173002 0.065149809485684981];

% ===== SIMULATION ========

% Format Input Arguments
isCellX = iscell(X);
if ~isCellX
    X = {X};
end

% Dimensions
TS = size(X,2); % timesteps
if ~isempty(X)
    Q = size(X{1},2); % samples/series
else
    Q = 0;
end

% Allocate Outputs
Y = cell(1,TS);

% Time loop
for ts=1:TS
    
    % Input 1
    Xp1 = mapminmax_apply(X{1,ts},x1_step1);
    
    % Layer 1
    a1 = tansig_apply(repmat(b1,1,Q) + IW1_1*Xp1);
    
    % Layer 2
    a2 = softmax_apply(repmat(b2,1,Q) + LW2_1*a1);
    
    % Output 1
    Y{1,ts} = a2;
end

% Final Delay States
Xf = cell(1,0);
Af = cell(2,0);

% Format Output Arguments
if ~isCellX
    Y = cell2mat(Y);
end
end

% ===== MODULE FUNCTIONS ========

% Map Minimum and Maximum Input Processing Function
function y = mapminmax_apply(x,settings)
y = bsxfun(@minus,x,settings.xoffset);
y = bsxfun(@times,y,settings.gain);
y = bsxfun(@plus,y,settings.ymin);
end

% Competitive Soft Transfer Function
function a = softmax_apply(n,~)
if isa(n,'gpuArray')
    a = iSoftmaxApplyGPU(n);
else
    a = iSoftmaxApplyCPU(n);
end
end
function a = iSoftmaxApplyCPU(n)
nmax = max(n,[],1);
n = bsxfun(@minus,n,nmax);
numerator = exp(n);
denominator = sum(numerator,1);
denominator(denominator == 0) = 1;
a = bsxfun(@rdivide,numerator,denominator);
end
function a = iSoftmaxApplyGPU(n)
nmax = max(n,[],1);
numerator = arrayfun(@iSoftmaxApplyGPUHelper1,n,nmax);
denominator = sum(numerator,1);
a = arrayfun(@iSoftmaxApplyGPUHelper2,numerator,denominator);
end
function numerator = iSoftmaxApplyGPUHelper1(n,nmax)
numerator = exp(n - nmax);
end
function a = iSoftmaxApplyGPUHelper2(numerator,denominator)
if (denominator == 0)
    a = numerator;
else
    a = numerator ./ denominator;
end
end

% Sigmoid Symmetric Transfer Function
function a = tansig_apply(n,~)
a = 2 ./ (1 + exp(-2*n)) - 1;
end
