function [Y,Xf,Af] = NN_133Binance_12Neurons(X,~,~)
%MYNEURALNETWORKFUNCTION neural network simulation function.
%
% Generated by Neural Network Toolbox function genFunction, 16-Feb-2018 12:05:31.
%
% [Y] = myNeuralNetworkFunction(X,~,~) takes these arguments:
%
%   X = 1xTS cell, 1 inputs over TS timesteps
%   Each X{1,ts} = 170xQ matrix, input #1 at timestep ts.
%
% and returns:
%   Y = 1xTS cell of 1 outputs over TS timesteps.
%   Each Y{1,ts} = 10xQ matrix, output #1 at timestep ts.
%
% where Q is number of samples (or series) and TS is the number of timesteps.

%#ok<*RPMT0>

% ===== NEURAL NETWORK CONSTANTS =====

% Input 1
x1_step1.xoffset = [0.813037037037037;0.76078431372549;0.440336461843484;0.686274509803922;0.419607843137255;0.396078431372549;0.392156862745098;0.256403826582536;0.251684857257013;0.158495420313454;0.228956645634032;0.242421331162223;0.392156862745098;0.431372549019608;0.172680974888994;0.556862745098039;0.865362914716059;0.823328523720138;0.454901960784314;0.0941354984131292;0.323216560749636;0.073880664299553;0.0621360411907939;0.0603086294110108;0.0485096682271524;0.0410986423019804;0.0567619995326081;0.0357451658864238;0.0603086294110108;0.0603086294110108;0.0802707857460555;0.0585174028088744;0.388235294117647;0.908804185418881;0.908804185418881;0.380392156862745;0.0550420577304355;0.0550420577304355;0.0397134133930389;0.0603086294110108;0.0567619995326081;0.064;0.0698147771219214;0.0550420577304355;0.0517071111412654;0.0567619995326081;0.0567619995326081;0.0397134133930389;0.0824799511500102;0.435294117647059;0.886906242697002;0.813037037037037;0.356862745098039;0.0454468341738849;0.0485096682271524;0.073880664299553;0.0698147771219214;0.0485096682271524;0.0357451658864238;0.073880664299553;0.104213311622227;0.0439649908406269;0.0425157141672509;0.0802707857460555;0.0621360411907939;0.0485096682271524;0.364705882352941;0.897810706289436;0.865362914716059;0.345098039215686;0.0410986423019804;0.0469616060188012;0.0567619995326081;0.0870191404512593;0.0533572155505801;0.0533572155505801;0.0357451658864238;0.064;0.0439649908406269;0.0759715041726033;0.220263036087176;0.0439649908406269;0.0383596655886499;0.337254901960784;0.833706492977814;0.844171306661842;0.301960784313725;0.027532879510897;0.032050478322817;0.0344836902850337;0.0718285425665845;0.0517071111412654;0.0469616060188012;0.0485096682271524;0.0517071111412654;0.0585174028088744;0.0410986423019804;0.0550420577304355;0.0264740409043279;0.0425157141672509;0.349019607843137;0.813037037037037;0.833706492977814;0.356862745098039;0.0454468341738849;0.0344836902850337;0.0550420577304355;0.0567619995326081;0.0621360411907939;0.0485096682271524;0.0410986423019804;0.073880664299553;0.0533572155505801;0.0533572155505801;0.0357451658864238;0.0357451658864238;0.073880664299553;0.419607843137255;0.897810706289436;0.844171306661842;0.352941176470588;0.0439649908406269;0.109511304098725;0.0678390061137873;0.0718285425665845;0.0383596655886499;0.0567619995326081;0.032050478322817;0.0397134133930389;0.0485096682271524;0.0397134133930389;0.0425157141672509;0.064;0.0870191404512593;0.443137254901961;0.813037037037037;0.833706492977814;0.6;0.216;0.40073106120572;0.407843137254902;0.233387942797265;0.169058416446163;0.114985880242139;0.12647636278656;0.12063993486668;0.114985880242139;0.099089007998432;0.291098235218732;0.4;0.443137254901961;0.833706492977814;0.833706492977814;0.854723326623998;0.76078431372549;0.440336461843484;0.733775094043769;0.749019607843137;0.42022274992273;0.426857724404641;0.256403826582536;0.251684857257013;0.158495420313454;0.228956645634032;0.242421331162223;0.623529411764706;0.556862745098039;0.172680974888994;0.556862745098039;0.865362914716059];
x1_step1.gain = [7.00968606041476;5.90405030672216;3.03962458826166;4.8601610282094;2.94083638114669;2.84380984573813;2.83123871128199;2.37164055488685;2.37034842138942;2.1413166342099;2.30180694221725;2.33814248049486;2.83594158427042;3.0145156495088;2.16773527304359;3.69614545431788;8.52580445544032;7.31859800237328;3.13352561003551;1.99035502586671;2.58528585096279;1.95158642745355;1.96249593987279;1.93194895810145;1.90277355744161;1.89256889271101;1.92604479522165;1.88714705170179;1.93633418348533;1.92733841424009;1.96949149663795;1.92880639276437;2.81526939830809;10.4877579013681;10.5286094724553;2.78408558763357;1.91414853917569;1.9184745042533;1.89912393318374;1.94701025515748;1.92473990696483;1.94678689754753;1.95418788253752;1.92195248780533;1.92236523827848;1.92576102654971;1.92992432632924;1.89475876318148;1.96928278166439;3.01073971489888;9.40048103503306;7.02231613420337;2.69210031410482;1.9060653017838;1.90589466368245;1.95444533303242;1.95403390521239;1.91882921373822;1.88329314583555;1.95791479255546;2.01587493683234;1.89620121448319;1.90230344440433;1.9755955853582;1.92707109174403;1.90588410016371;2.72409956400052;9.92839758136309;8.63488167872538;2.65525988369036;1.89363931312486;1.90053201395126;1.91872861816993;1.97837229501955;1.91899837464193;1.9159617478577;1.88807054728952;1.93364933138484;1.90174751250359;1.96443833338395;2.27925398155789;1.89537759924907;1.88735248569182;2.62325759818305;7.51229695178391;7.88588710271195;2.50678957959639;1.86889848256771;1.87631754561404;1.89450168296759;1.94886652092374;1.90913110805922;1.91646348106912;1.90980633719392;1.91870887392154;1.9306954306849;1.89585752154258;1.92493816482489;1.86788366905848;1.9004189388748;2.66501968451;6.99090125469146;7.54798135991674;2.69138934405405;1.90903115329481;1.9713833559237;1.93335736673689;1.92285312705761;1.94952949902375;1.98493239129088;1.89547660997838;1.95232749230578;1.92582740312981;1.91465715864266;1.88533661167464;1.88537518616111;1.96155087829566;2.94374807241693;9.89814850085464;7.82472876693075;2.68058889021887;1.90233813673554;2.02035699202253;1.94142730562955;1.96231118701226;1.89354800469563;1.92911618843055;1.90019554733081;1.90261260151916;1.90238936708989;1.88991372548132;1.89279109365127;1.94158064053237;1.97759722300798;3.04542819376191;6.96961229885949;7.53227733534504;4.00798500099886;2.26335713637102;2.86737199282264;2.90292688740016;2.32868769263222;2.15199502275167;2.04676647735741;2.06977710696617;2.05748493550433;2.0381092439473;2.00690893641721;2.49088070655848;2.85746817937672;3.068018180216;7.51686349544248;7.52508725830133;8.20326246969749;5.91786565535961;3.03526345290762;5.48635389865843;5.71212624591232;2.96333673599616;2.97283567771881;2.38507627556558;2.36305367924318;2.12812487643918;2.30799603369033;2.3369707039101;4.22039914522826;3.69571215867586;2.15706168575944;3.68562462762322;8.57258142046622];
x1_step1.ymin = -1;

% Layer 1
b1 = [-1.3235320624710922;-1.0160666958267983;-0.76308610712175629;-0.62842759888679789;0.20730823306399662;0.13764027858834746;0.21942837192724923;0.39716122826201111;-0.45604142785450574;0.90090118275996811;1.0518296077304308;-1.3028354328245682];
IW1_1 = [-0.13800697262413583 -0.11039690797901147 0.025772935736966953 -0.08536671107840893 -0.1359308048486727 0.093856134343697523 0.20333594656863216 0.34614708872019556 0.25495626669572163 0.44273276063685668 0.34705976011124923 0.36019425798634697 -0.28154744542964238 -0.047337822113700877 0.1905603981692488 0.067013425290252809 -0.077865153967580938 -0.0048569800681869911 0.18841432916909528 0.038674309617664875 0.11023884283323898 0.074682939960116643 0.016119221569942079 0.45293528572434627 0.40326513170598705 0.56787015802157259 0.35170799109326822 0.47289763522269918 0.41208133620061688 -0.011508668964774434 -0.28872792837800576 -0.12956980698372544 -0.1557249707233144 -0.30593126064324822 -0.25248352779352307 -0.058157790849637639 -0.094985495888572219 -0.31686329011812597 -0.14872365032734494 0.3435655095934641 0.22335454579967975 0.14845867104411326 -0.0093568513395827866 -0.058469938844348514 -0.1360284404069273 -0.13897369821742778 -0.3818836694482623 -0.13748179472529926 -0.3552468820484268 -0.10109659601889806 -0.079657976773748002 -0.024196381190429356 -0.082250480737408913 0.055482217819003102 0.049341758774034718 0.32611115341253188 0.17847662871638201 -0.039133801157952383 -0.15670804483241066 -0.4088632623109949 -0.37459252768008178 -0.33488544932033243 0.0074502437974167017 -0.06363447898274105 0.15524955123569914 -0.11546005414571175 -0.17062357448996915 -0.069633952784058734 -0.057629246791971803 0.21605046496690306 0.08521719150972322 0.018252103736681888 0.23912266644643729 0.077465555025007307 0.096549169857711656 0.25237353124610135 0.052897135163060466 -0.027890372641579286 -0.21015619075406919 0.04621346921890282 0.33197893808437828 0.12136890979289554 0.11957622879022063 -0.015031875888287929 0.12451882220633227 0.10216466185514722 0.18194967638065693 0.035651049609194817 -0.11613352551127049 -0.025617407446075983 0.21090030514731573 0.49301706107168836 0.33124733922337835 -0.017636514390423103 0.13315673526797092 0.089748009183368865 0.008896743047546618 0.10407227650742124 0.15140325618673275 0.11290520615306787 -0.16134014607895975 0.15369036812217296 -0.21923744074136109 -0.1134849182421285 0.075926339607198731 -0.17578486464919468 -0.083618333156958907 0.028153225268190592 -0.4127982508238755 -0.582800066827456 -0.5774999519329943 -0.33229595285917135 -0.21455627993317597 -0.12384435676156136 -0.42543035703546039 0.034259781314015289 -0.026917893919491839 0.062446016209093826 -0.074662021456697467 -0.055098596335999964 -0.13558433627922858 0.31496435535329181 0.18323124809551178 0.35721870621302165 0.16194785596415417 -0.44234425149552664 -0.25050257284736582 -0.18389725164812901 -0.13055378613978191 -0.42245373804944164 -0.25046223478747354 -0.051116137471447651 0.19597931041483316 -0.23863621573566091 0.016764082069309603 -0.08946842100183526 0.18889965548645815 0.16271597479406716 0.34963456168124823 0.37037797581834453 0.045323871000561886 -0.034359421327696385 -0.04558812852640276 0.16459605479459571 -0.0009738384634536345 -0.11709066484867871 -0.032751174996697004 -0.15885840965646239 -0.17424247522237007 -0.12361610788977588 -0.11612415132922228 -0.11255744609924184 0.0079120720757677558 -0.025716175938209608 0.098000831254948143 -0.079209202723063712 0.16233469654979452 -0.081058669789083562 -0.086748087222375925 0.12214803453752986 0.1518486918980709 0.059757292680305912 0.1600628458375323 -0.020041044600453483 -0.12105844542339056 -0.36081687298130594 -0.041019146011634894 -0.052178188913127921 0.20103824803818257 0.14817663218432048;0.1308524683256414 -0.19329586256229708 0.099622163442748046 0.17108124383016413 -0.013205659474296288 0.057253322584871529 0.067338510551409325 0.2791229599616975 0.12830933413385318 0.0053337020303793458 -0.19334963166006502 -0.1322278779038801 0.13490685395625404 -0.075911042480896612 -0.035433759972928192 0.028737958193159774 0.059175240102635744 -0.12584295003273765 0.20469018024252802 0.15407589249935458 0.21523390742288248 0.022972518893203044 0.31197001858231049 0.061999589533292973 0.13958804476003692 0.21020702745678788 -0.22796887288543538 -0.23299999605205415 -0.051260098998084293 0.064776604348254788 0.046558989041640582 -0.29896443425767238 0.075154407467341949 -0.25265006381549771 0.063582775973821198 0.08447025934930788 -0.11979926951735949 0.1246301627766391 0.24202670728709702 0.40222651814407023 0.11824157813763155 -0.20605071998084215 -0.067479719664681012 -0.15133305684492521 -0.17747209578235365 -0.33780450601892142 -0.28165289429149776 -0.018309000719313778 -0.18956626254936654 -0.0079202681002231348 0.070035356136468718 -0.082326971682953401 0.043775363043992765 -0.14116420494458073 -0.056158131849006837 0.24696659486103623 0.34681573651546166 -0.010533730679664901 -0.11461790472069198 0.087439324437262156 -0.25617709387090282 -0.30860879794624108 -0.63062742968600005 -0.49436214201848389 -0.027261378294436436 -0.18263456679222123 -0.066801017036313651 0.026228812353155339 -0.015059230004350494 0.18109206249778514 -0.19959338554394468 0.038690234614764916 0.25289045788629438 0.3337114545705494 -0.2000192062401189 0.21201300933314002 0.035174404669739458 -0.29251925483606467 -0.2135659310372833 -0.47522894823625839 -0.066300155304363992 0.10883668538126501 -0.13311373014138106 0.27170210443704235 0.13840032208677466 0.11702159735288675 0.18916126349934625 -0.17050134989746274 -0.20543247380712565 0.12361895671049715 -0.14171067571737667 -0.067886882980446539 0.13075351056168164 0.086216808412090104 -0.06678222046321021 0.075891527440004838 0.070143963455504166 0.15551177094077157 0.1675881637105332 -0.14490047826020105 0.095071958483273419 0.15175224859218467 0.058450797352425941 -0.16030154554863563 -0.32967220101368833 -0.069788797347222695 -0.23705576830180805 -0.18700806233042944 -0.16623457177300807 -0.16305009262510883 -0.16414003978549133 0.12090128756303901 0.16311526168722215 -0.032653658802402105 0.34388528887566999 0.35814689219137397 0.065991272475031129 -0.12934001915710139 0.29810936795713894 -0.1770329486254914 0.083625404736668518 -0.34506131429030817 0.18583431100799555 0.05433459720860824 0.090164622182769896 0.090801581801845499 0.045505965253891952 0.022746631304618774 0.25017219852731748 0.077451636600086804 0.050442983856623255 0.08168475637518674 0.20477033658647739 -0.053403130954210266 -0.12527941748498359 -0.085938865885160587 0.10837301477452085 0.025431454756421529 -0.29967592852556552 -0.13592456131934871 -0.16955879511642971 0.22737098047039761 0.38269253968757455 -0.0036071975463412686 -0.0098896359099873311 0.10934987719294023 0.068138150419928559 0.017129531680998539 0.06903662567020051 0.054379181940760024 -0.022999003215813371 0.027531856018660834 -0.0047387384178317173 -0.19857791930001339 -0.013414211623186619 0.225240535176432 0.25292927903715973 -0.060793578925247047 0.3179746578068634 0.10035299549835008 0.055155476078679481 0.074499015684508021 0.24982922088633494 0.36564174987887632 -0.12368048906818307 0.24218455183952056 0.14357377381536426 0.021919336939647691 0.0073733308114816605 -0.10184096734213843;0.15490434614479967 0.14036867664766559 -0.085076745309514812 0.047551267946117692 0.17509210296099462 -0.077628726858002747 0.066150946257750642 0.069404062802727595 0.0049276755341169853 0.015111502420388849 0.009263379857734658 0.069620977308013698 0.1680302899783076 -0.055215670366391578 0.25812498673496737 -0.049530407976070223 0.08396412454502733 0.025883583890247509 -0.06073663883597806 0.24218380632720568 0.14953721081742824 -0.13490718101422622 0.096361386791668641 -0.066913655301197944 0.092006700205199438 0.047589486471820486 -0.031189397109368196 -0.01011541781495252 0.093599924778643234 0.10613612168971452 0.15074861967627945 0.01463334272493113 0.25960191175537556 -0.051788663087172608 -0.15507222593218517 0.1050672430654051 -0.051691851957031014 0.25015710233417776 0.11327587947067834 0.26706863760793464 0.056681529973680506 0.073112497765844844 -0.062945209491408249 -0.15184060844495528 0.030805523816827197 -0.14149642685968858 -0.0033185583640995878 -0.090722129031709176 0.19031833683917651 0.15543088963357554 0.027926586749266638 0.11490140199080147 0.14195516672295291 0.14381085251118075 0.011844514374431394 0.067485330207982738 0.047245659833352598 0.15091017375447024 -0.12363107313781829 -0.10791117858722905 0.082330555187827184 0.03034747300772556 0.16981305016696513 -0.10927161434931437 0.0081772244165346231 0.13166490615922105 -0.032976801669007183 0.050768407517107823 -0.074397470127286522 0.10584063642255515 0.034348821922757802 0.19221470489794026 0.16683408677958436 0.18192124794320666 0.16671906386985208 0.019914774210961099 0.11896807358577619 0.0026390367276947109 0.069305639843844719 0.093665668559272428 0.069266449486798165 -0.12618654588629702 0.16213153980746225 -0.027456188196486497 -0.079959784110273768 -0.11273674790536432 0.092140148932027294 0.059633973446777698 -0.0028103116595297418 -0.050210466220430697 0.0091694603836266157 0.045185395549836194 0.11104187741346547 0.2268520815564152 0.14104855514700709 0.0079505867436732314 0.037317953686682483 -0.029708351178899198 0.033533312316620531 0.018026643442226268 0.18285570474600393 0.21202908472956847 -0.14047416896195078 0.16449437306474585 -0.12789752101252252 0.21674072904234779 -0.31259061425905083 -0.19452552031963624 0.078476640190677793 0.13716935025369983 -0.031274462649473235 0.15147285954728051 -0.13623738893455659 -0.054084149429656898 0.058722630746857594 0.089540399652977803 0.085019567267381066 0.14372392986383337 0.17474096128341501 0.11381254024107236 0.20416463753541669 0.22617458874206126 0.0058348003383307161 0.029092878759174715 -0.056261475492172586 0.047960898460860775 0.038906623660044153 -0.076239848026312021 0.15943184602666832 -0.10239984638771718 -0.15561423682510231 -0.08271946831745236 -0.041588129852104055 0.0004765866190487183 0.053031990623994468 0.0014269124837226854 -0.062620417795936342 -0.090611621991617 0.248848944694401 0.12604764619605469 0.16939910024585486 0.20124301917846091 0.14863391478846436 0.20854911298873186 -0.025674294146125789 0.24714493384311642 -0.024501849913176939 0.24370105835264039 0.17481987704362248 0.079846154242755471 -0.04046039534583111 -0.04311704123133854 0.15371701560653045 0.0083092926412528783 0.14753203047719235 -0.027268524621169028 -0.019321084941039166 0.21484748887094321 0.028612756344076774 -0.13321894086147748 0.24227694489198112 0.17254342254578339 0.11708930821483615 -0.055137543420877871 0.19105187246131267 0.21050335026643227 0.13276921918869428 0.035815250800050998 0.20226529534213622 0.069540414710797235;0.12575168842863502 0.30569086313872867 0.010507251688072199 -0.0011774505476165272 -0.24455776234486148 -0.092957876166221809 -0.19341206005603645 0.39638238225657346 0.14630067663277604 0.23736678487956109 -0.082470533987161629 0.0024517868045749176 -0.53398483705502842 -0.031582231349627309 0.15078551141063362 0.24013586895409919 -0.12992925464774727 0.2293158495229741 -0.032126911518358434 0.11230093399034147 -0.16056473059311385 -0.15608150082595418 -0.096615168613550573 0.32271147217092244 0.57333441409088004 0.16082444127925891 0.082440037263361493 -0.25267415587921327 -0.00078150800770853714 -0.052758053026561939 -0.36898659006226642 0.09319066934687624 0.12429136632058506 -0.09588157679526578 -0.028660743886595282 -0.31190724170312323 0.045668335159231341 -0.2769046272908447 0.00092073997934925128 -0.29614663020997284 -0.18499658511858011 -0.34331071144005504 -0.11671145799748481 0.069306509988479995 -0.27956571657467028 0.045018284312053909 0.051365347444528128 0.069701090864919976 -0.30380783860110239 -0.025210237340370326 0.10425780168158474 -0.19172213596319959 -0.10010411123919737 0.19380586668413391 0.014050811084534169 -0.066575224299802366 -0.073689011197560786 -0.17255646826629079 -0.64651115355987476 -0.38203803189524171 -0.13954067735829745 0.42769531744703493 0.52968804871036423 0.21665884780045436 0.009621080479531639 0.099501691377042831 -0.088337770312356761 0.056719997836871559 -0.0059292241613020276 -0.076954692436607103 0.35226944461979676 0.020130323495618625 0.26161816069765015 0.29826185450462533 -0.098911561344468088 -0.61003579826037047 -0.57769364097481302 0.25791430282929206 0.61004002967508486 0.36197478175301201 0.020566956799418966 0.069222132082077267 0.11255662100348152 -0.16989407443060223 -0.037555979483847327 -0.30622821792728588 -0.1793296389909293 0.025569764352734774 0.12070734645384661 0.23085415182401683 -0.0079482436462009858 -0.048228058795160844 0.025832069475250113 -0.33008730333393843 0.086899237080919192 0.4285291577996217 0.32610872323248585 -0.10343655852196625 0.26298428394630519 0.34067531352359726 0.11968331489011305 -0.058488729832580091 -0.10619321522235331 -0.10981791623463658 -0.12848723998031233 -0.18344760313731701 0.032357807062995569 -0.23233181798075664 -0.06641408603276544 -0.25359916991179465 -0.44093303879811485 -0.24892185359456842 -0.19592298207846159 -0.25708495118192809 0.15190977997672703 -0.096064230298250425 0.015016084514929752 0.075557374745620312 -0.18954138201218645 -0.28766150917648758 0.16008495138712042 0.15540929480924487 -0.41005515377963869 -0.044586502441499309 -0.0051676746384411876 0.095265575756497869 0.0049162445072305737 0.091473756272135637 0.22675638647686402 -0.07965752587705327 -0.12239147276609448 -0.32168078703941866 -0.19574756220435938 -0.032105827215134199 -0.058287092722151379 0.063193559210925052 -0.11812637485544676 0.036206528641544534 0.28199547167550365 -0.045558166616876922 -0.0093083486963073444 -0.10954168190284719 -0.039658627840244126 0.38933112876416104 0.53791447833308159 0.29979081692255166 -0.16236516535330198 -0.087839666605171868 -0.29401553420148474 -0.36630255071988782 0.026847853698617731 0.15507798754720467 -0.13528152900808257 0.0019787781506182592 -0.056280000753990859 -0.081268575225855053 0.1388906172787594 -0.047105530608391295 -0.0092122128935131532 0.19963643419299507 -0.083773006026905086 0.01660712385752974 0.23283882387092328 -0.10051854957011722 -0.14653272533397346 -0.27234241058341652 0.16803090748490743 -0.055352177456592329 0.036549273545791669 -0.14295230577198087;-0.25856184215103611 -0.23447094047684316 0.050884574614865903 -0.033738371237798957 -0.27782681489537636 0.076032710530388223 0.045758290830196544 -0.29432003299510662 -0.20037635212993402 -0.037110498307578031 0.15430276355255559 0.10177007531377077 0.077085308404161529 -0.42603345802662046 -0.35631488705249581 -0.1923293441391995 -0.18207908807537029 -0.08760386448379022 -0.12051323912458282 0.11385165224981079 0.014378093861603601 -0.21333480992685019 -0.1346527106265652 0.12510489782554571 -0.3092708045505031 -0.14035166133417842 0.17564739042050057 0.18708474979528239 0.18644743309466669 -0.025214732506710816 -0.1677116857803102 -0.45326573691951405 -0.10287552336667898 0.24910262283439613 -0.0043175217318590278 -0.038865960889332044 -0.23583989963292723 -0.39478198139718435 -0.23186088880348152 0.10589877529692468 0.21363231175470146 0.22311627736151152 0.32651882510918223 0.92868030163249515 0.87238212068507159 0.042328758448828885 -0.09977517251997374 -0.35107043367180468 -0.26704591548667739 -0.33446605892722331 -0.090441938661391788 0.11193503994666539 -0.04658631183553099 -0.010925845761870284 -0.26268854104873923 0.05456929829027185 0.035305156867050949 0.21953155339995856 0.18576082454707044 0.3511646791198525 0.7315399149907198 0.65461577941166493 0.073498722326799645 -0.15931815608328434 -0.25877989041503602 0.057986751939184497 -0.22679878796849773 0.077417567325052172 0.0083865853146179274 -0.1735687271422906 -0.063703589568831404 -0.15245116338240966 0.051555967522741046 0.19299276244189972 -0.052620430413810981 0.22080554032508146 0.10110036777723848 0.4472749180127189 0.3688465275993934 0.23831292728452955 -0.08230863901625278 -0.16409457746934336 -0.12684973174774769 -0.11268152995873447 0.2361647082518244 0.13796643178965048 -0.038421664047687265 -0.046396533814938246 -0.034274892798667356 0.21659989295639759 0.17228272380139653 0.33116581760864516 0.10228705399998281 -0.14917558439272471 0.28680230910624732 0.35948119191075034 0.33513431647242958 0.20005589230240009 0.081881514373520925 -0.23255911714052338 -0.26940261622524897 0.20366770457228422 0.13179562073230705 -0.047676992306447882 -0.15327059212481328 0.035819008127651937 0.059742366731806613 0.3726288930443965 0.048387565733133769 -0.27507567712036013 -0.16059189083854025 0.11637147214315369 0.45629923036535214 0.21010932640567551 0.15807086605015319 -0.14291146052732523 -0.38572609313530226 -0.036083079188211423 0.040130489005667937 0.26828330638330827 -0.054739304693113583 -0.097355194492996053 -0.045407850058035319 0.11002145897235006 0.29762372628891215 0.20013821628748366 -0.10615889214373531 -0.1841044721020362 0.053230523033060403 -0.18941265628145926 -0.11432390514450727 -0.15112752395173443 -0.28194451240164015 -0.24589164322515206 -0.30002246516998743 -0.1834211802252293 -0.073618715268893839 -0.21602683041576126 -0.2100625460344254 0.061452730015145111 -0.008571792835337105 0.057314767627392335 0.16269448941832132 0.05317153651067405 -0.086144692281452509 -0.26939760545254698 -0.026694405976570475 -0.14190753496149344 0.0056855814427986947 -0.21632743456502104 -0.36191571354773494 0.12459868792630559 0.074334072478870791 -0.22310518810914101 -0.10369160227737598 0.04171433788657327 0.19674931502672441 -0.13078389057928688 0.039345923153932087 0.021908867334592262 -0.047872895841611862 -0.02224394322642554 -0.01138230997750608 0.18625825300949897 -0.18279221753605496 0.08092191285774944 -0.11001085748731516 -0.31708777730673499 -0.071751222450300731 0.054872255572638466;-0.16237379414830228 0.20777991441576582 -0.080430625689619048 -0.099248837956521938 0.083456140255848785 -0.25511665759132302 -0.031126169233256448 0.1985770983460251 -0.093620552626392656 0.25319322270647349 0.096311390135620442 0.15370156325429155 -0.020497182225910467 0.28656705687070644 0.18699165315799587 -0.077461391796290566 0.18710623532513837 0.050253598241998279 -0.10698440373443957 -0.24329525500992141 -0.14627261170605763 0.18346164723136338 0.046036264323675719 -0.033910297237568228 0.13375875401171813 0.069006756275484818 0.15558701622967225 -0.10028738492167065 -0.18733897499520433 0.10604805884749575 0.12088715283964402 0.1429519981333251 0.26645070840507795 0.1389025061738384 -0.11815362497236992 0.048962223563827463 -0.014921577540229014 -0.13460016105627767 0.36641130646969339 0.16087502751560306 -0.22064827732966935 -0.36071619673703847 0.06400714390420964 -0.17598318485754147 -0.20063837102646484 -0.14191494710032906 0.068719612027133045 0.15927963756580402 0.11925430803239162 -0.087996455263716217 0.012795596543799428 0.028066661334570898 0.089240715691943917 -0.15314625898800682 0.1691457513921531 -0.122255700310455 0.11649471926400745 -0.046557545870080812 -0.32726053085049073 -0.49421165238774545 0.038017302216570896 0.16406431718250025 0.31844895526094469 0.15365948413526509 -0.021468537963789325 0.053555251737597447 -0.13214016947440343 0.15428758383111946 0.0077274403562017108 0.018660414925072515 -0.20807996239583421 -0.26062435313119281 -0.047462490213938252 0.00055461496008199582 -0.093373099906827878 -0.13021633798217061 -0.25497280955041635 0.23281372190063718 0.29518092816301345 0.095297069977188703 -0.066938565264225786 0.16609869941750927 0.18040112000886541 0.055715050800367101 -0.1761939810645515 -0.19020438677156007 -0.14240133755575318 0.090834678844663119 0.016463358851075732 -0.049221130996841493 -0.058105464534936514 0.045989233674979223 0.19016632386912319 0.14954992893843033 0.1637700977489796 0.37190685037620402 0.02300032029263219 -0.24712899584910117 0.19222691950535267 0.2972649679666457 0.032928238465380941 -0.15521096994594683 -0.13418517829796947 -0.074606663136061804 -0.23065342537638026 -0.35827933209159291 0.20024857405012172 0.034752610751649191 0.071744293544323226 0.067451489089349587 0.23446489404827919 0.06346979748289748 -0.19624316140233475 -0.31295366914341693 -0.26062388784089591 0.013191446450234966 0.31478741821554168 -0.05003235503020869 -0.22678190743310492 0.1292154120622741 -0.23324256975780491 -0.11543896933671666 -0.1562996500540545 0.052749268607309184 0.26587333387332007 0.26778954294244589 0.082155605389731712 0.15784271614216697 0.063328229871740291 -0.24853902160763339 -0.13304419047553004 0.069213749344420691 0.097935827004244219 0.02807603721833403 0.098048435799425682 -0.13250716511947994 0.20082755389036616 -0.16978751846747295 0.054471471537817923 -0.05185312464674411 -0.13130054347021902 0.059338996378230757 -0.017859819766512137 0.21254543644134216 0.17927254453312513 -0.092612624366843879 -0.053494184954613576 -0.17459574886974791 -0.39967984269213558 -0.0361436954240568 0.15003251271783183 0.26090844871233732 -0.096592725697926707 -0.051219694041018719 -0.085257130726475339 -0.2561113014552383 -0.023598354136306194 0.13341472082458261 0.12520559876803702 -0.088379721778127196 0.094815784729400249 0.13044757176546312 -0.17466483050886347 -0.036746731204929071 -0.19373692034620343 0.10788329139283243 0.15113186989790059 0.12492359902439541 -0.12894564121734214 -0.081322384633415068;0.25821155038631405 0.13645784431716715 -0.10792111348351804 0.32993843370088988 0.21440216957042754 0.27727879078997175 -0.056141983579073351 0.43540556343224951 0.23004829998731854 0.30544618478964147 -0.097005571775688609 -0.21038749846524132 0.020180511807435342 -0.082324036464772876 -0.02016282193735263 -0.24086353461174634 0.0094971229849429798 -0.2794102474966626 0.19608385897465422 -0.036428691022192858 -0.2278376214479241 0.17681672533917261 0.37519197526078962 0.014236054440344308 0.1355757648825695 0.29670063363622912 -0.075506042475988591 0.027747277988489083 -0.32719074145770677 -0.059590595034126753 -0.19554566348669383 -0.21022874211177722 0.065405859500968042 0.10895681904282951 -0.22632044550052541 -0.21064961535823015 -0.13555977181019882 -0.10886385241975109 -0.25557126467726987 -0.058741950261672934 -0.62840720821226748 -0.82159770307014224 -0.55305137104542856 -0.22931688703415778 -0.039514122700661382 -0.31846086864889167 -0.085816649853144633 -0.32020786957372116 -0.066039135185273976 -0.21274171381075546 -0.16413483335535098 -0.15611635877689173 -0.24263799276740272 -0.15909859909047208 0.17617518145363942 0.48556490002393604 -0.069223910075979958 -0.44042578053430587 -0.70404628763821298 -0.45770153083567566 -0.43962934848039315 -0.29910447497146492 0.069126050104167808 0.1185310879039471 0.017274363513594716 0.19822951923931642 0.14678758655088636 -0.14454117062530458 -0.043172102793183398 0.13047680462783665 -0.0066993413356521512 0.45282055021213491 0.39630807017756259 0.09185482456875016 0.071773366359885404 -0.28439596033957809 -0.22028378945321045 -0.15593225238850145 -0.3139205979454433 -0.25503790666561255 0.14807635181263903 0.15099696538062921 0.22324937169216877 0.069247451813321467 0.06055810858306114 -0.065243853776845467 0.10468112009411544 0.25105902802279223 0.020862121756932417 0.32543206875536457 0.23956797298191354 0.049634761988169476 -0.06514869474315936 -0.130956291966702 -0.32768095990507307 -0.48855522692004522 -0.086651247975580201 0.2701111807141609 0.053372707239139713 0.058729522910287491 -0.013639667727898604 -0.10814276184758025 0.10449528444950711 -0.2472116678149148 0.007642178589944584 0.072182539770040077 0.59423754138444984 0.25693254656025838 -0.2254735179584188 -0.27222871673889809 -0.50054998026834852 -0.43536211509884665 -0.35194667949385355 0.020257161091823087 0.2103225903837575 0.42016654173495321 0.033059705393012159 0.24257717115792066 -0.16502290742102518 -0.17542984314851018 -0.012993143879203238 0.106630842217505 -0.012648157060814449 0.44696904504453361 0.17301973102981891 -0.003556113532040195 0.39299432854260558 0.10552824096870989 -0.40959634400767064 -0.10986117045816071 0.25479560204919011 0.28029204773434147 0.12706611960925257 -0.18096731265760899 -0.036026696418273406 -0.10160752710960796 0.19051495631122095 0.22131225363945103 0.32054524026917541 0.11841338758796029 0.26589505852435041 0.13037176386850954 0.35446329633164908 0.20359362114756668 0.30389611421598267 0.049810207948882051 0.13967565399612444 0.21243508814218642 0.34792390621855607 0.0158689878410209 -0.015055779158135021 -0.176438445256629 0.075835643148931403 0.011734122890921603 0.11659837581804743 0.18682145110998877 -0.07952841934454595 0.070115346181479979 -0.14237303855797231 0.076169586347287238 -0.087143351418487863 0.14015880414902218 0.050257506787190299 -0.2209505487179719 0.052279239612733459 -0.26706828842881319 0.053118024216430006 0.18753211819040805 -0.10524548348930586 0.16668410763455652;0.25443969203834643 0.082881655935635748 0.3137574787620675 -0.051845895659563219 -0.25976005973493238 0.24976111558491279 -0.048077762294479978 0.27926045599901511 -0.026473040443181675 0.19988786713842743 -0.24442466688080719 0.12024966902845188 0.051413531103472895 0.092081871537610105 -0.077889926450572536 -0.00066693359848477105 0.041101776188455258 -0.025691874189642108 0.25889368889809611 0.32693917139130346 -0.047378199751568512 -0.053257765074975164 0.017355438436736519 0.10624775741461824 0.25097116121402563 -0.15736447194624542 0.019669601338629564 -0.033482138548997967 -0.18706581807238548 -0.049493442229731288 -0.010328393117508845 0.021190041088036283 -0.076551711437287367 0.17192039868787445 0.091538703960657691 -0.0071626915147750235 0.31776529357222194 0.072054342892334394 0.05717282203866627 -0.17029199214068541 -0.00095035788687352924 -0.28138374376813857 -0.53119099218418608 -0.26396643702503853 -0.23129950957524828 -0.13354033989800299 -0.31655186876293101 -0.061023692415302026 0.097159920229931002 0.053427242409846469 -0.13102433776238595 -0.15667661666516322 0.33936219075642154 0.28198808909915246 0.00070489883813656452 -0.046560111649843895 -0.0648385232312748 0.17846912315997962 -0.22045736032423963 -0.078455669599460126 -0.15831890477482327 -0.18718745169081627 0.041599171379796747 0.25566608046472228 0.037669197888928384 0.30932720815992704 -0.031595672638841832 -0.085115414769406358 -0.043858703173965508 0.12215884277806251 -0.055936274574673733 0.27022545247232582 -0.28645834715892815 -0.31912102568801232 0.27875540838983753 -0.14082303573847846 0.43814998630485957 -0.11238513366790019 -0.39276566387798195 -0.086835210025205917 0.16427799300996515 0.093503363054406485 0.10409701839544214 0.11973124170752988 -0.22463519083571781 0.17565249278824963 0.14429852195020096 0.15084531894872222 -0.089029113159559858 -0.081587659195294454 0.14778004099854125 0.11039987671949721 -0.19455260656197637 0.2752703063422805 -0.39474027280849339 -0.44189323004153647 -0.46945863568047447 -0.16747565772858131 -0.42830689546381284 -0.068790794301043151 0.01352651896289676 -0.09895770658556112 0.013325744157175547 0.1746040694671466 0.32659998230492215 0.028411581457395332 0.035893689833730841 0.064789061505436757 0.10577986532182081 -0.15902899790087313 -0.15316208977599438 -0.20239538536123536 -0.32995324938244536 0.042025685123354799 0.061567040393292735 -0.27843834182420985 0.02736023144537391 -0.029345733740979651 -0.034600389344552819 0.069862920347742025 0.14151001431319316 0.49704049885034685 -0.086385347698368267 0.085424034971656376 -0.10984226653046728 -0.015397937801933726 -0.046139923284668233 -0.12977811312365647 -0.024901541593278214 0.28796872325614464 0.063093386097906129 0.092337335004988211 -0.20952102579669926 -0.21648649358915603 0.061896809029442383 0.044555490729304315 -0.13787946736979367 -0.026515382741050073 0.18640917080545222 0.20262236311903808 0.34043653110099314 -0.14599906869386839 -0.24314200636534372 -0.023337752884189142 -0.14221539270708183 0.11162448364207343 0.16771208241558502 0.2122998183403805 0.31917562778594422 0.18247386147125053 -0.19441699548699584 -0.19311438279216805 -0.11389424022701419 -0.070274036671691867 0.018478351660439929 0.18040640830907631 0.13751409395615 0.024421290662531524 -0.14612358083018911 -0.15727180952482844 -0.041963182580776283 -0.17038032787082447 0.083120407902336185 0.062893048955311379 0.018020215653088055 0.29279848245555107 0.00065647864451740781 -0.035464134284776863 0.1366452371736826 -0.041560882569528897;0.010471795156103504 0.054027154961323265 0.10496368472667179 0.043635059819714238 -0.0025029817639231214 -0.067145821645397022 -0.01141237127868782 0.11470534710077888 0.10385383374993029 -0.065701820670958325 -0.17247368864354262 -0.28748115289577869 -0.075579623977249571 0.18235108113049911 -0.15543346927098992 -0.030254151024183749 0.13469088789844949 0.11501558145489109 0.069551119749936816 -0.080689270775383903 -0.24782303937746816 -0.28094373722058069 -0.098216814393506699 -0.10653337673571879 0.23507284798496397 0.46021921658625226 -0.45739037321645126 -0.65806260451869147 -0.63811642077818154 -0.25933905962768639 -0.17172951610520604 0.25083958841176041 -0.009465009542981722 -0.098578504668483391 0.01812312886877606 -0.19738434160837739 -0.23558326658245579 0.020993543442141056 0.1964889582147529 0.0011326875781716038 -0.19445745389858426 0.18842490002856571 0.29512988105484556 -0.13138388669156631 -0.53499857553615027 -0.43024806225589934 -0.27195175348485512 -0.12382573626564912 -0.20861215839365793 0.24448342462542019 -0.065348887380661205 -0.15241371616831875 -0.09385118363349243 -0.14875535429215628 -0.000246234472826584 0.1825159979011125 0.29030605229806461 0.14000160214508353 0.058547331911328555 -0.23506764728023896 -0.12814995085512332 0.10425954829485415 -0.2946390927765431 -0.20188211822579655 -0.38466982746932865 0.073421362319328567 -0.10802502461719067 -0.15490262747287709 0.071918483670316363 0.076429150342024868 -0.025856196433278439 -0.035695677582959232 -0.059616919817929583 0.70187012156866346 0.39881963336274762 0.25684837151515655 0.050450863667282013 -0.29476669924453308 0.37006955257833274 0.25198932906396354 0.15653974160088793 -0.33000564309822239 -0.13243346506800435 -0.14201235436856879 0.093343290595828479 -0.27593397756023319 0.021454067778323763 -0.071215235824574688 0.059788963751647273 -0.2732196384872273 0.061206760740814083 0.19462319727398097 0.24007436645415547 0.12398075968007055 -0.039126699299670283 0.6185110631201316 0.36476661205160987 0.37388794832516686 0.10062196405501099 0.12220528465553757 -0.043864474203319993 -0.15404955644086529 -0.17634059219788842 0.18129213484571824 -0.070569703034309525 0.040879374212720608 -0.29127799619317507 -0.67402792956346658 -0.048392470859923487 0.30772765848367467 0.30888828077519831 0.12961443613591431 0.26985639790793364 0.14624717055915007 0.38656732074801547 0.26115108949879617 0.27176822224772185 0.17812834875561701 -0.12376371148338568 0.0052809932634816908 0.097015396810905111 -0.093208001882764527 -0.071919628566460531 -0.080837029142901126 -0.60010859326275334 -0.2444997996117502 -0.016906202167689087 0.2868518980506673 0.565717559890763 0.37741471991646547 0.54794497667170683 0.48323981911047054 0.16135067918780219 0.062118089846471651 0.090188132496246132 0.085459858532633007 0.0032213281770232015 -0.033205585531274506 -0.068801716481976027 -0.00013162868353228216 -0.11400017179555499 -0.16183471756658599 -0.29150371306587131 -0.075348345756864485 0.12662543222173889 0.20620272575188878 0.50031847519455908 0.45751427274980105 0.025411083917526233 -0.093771327647034913 0.14887338392719718 0.21490937655915981 -0.12977599787262603 -0.17077392054792975 0.16352267460045544 0.060153521421454886 0.10468000805572511 -0.00054025657791271532 -0.21802623419888201 -0.3225954448593305 -0.00099658884872972937 -0.29933390520800834 -0.104972673416 -0.37774575643590402 0.092044950467405018 -0.30066597320479599 -0.087596642644422587 0.21281707317862816 -0.071087732770386977 0.069210741624343014;0.059177135165160245 -0.0028344389304280795 -0.11592444264620329 0.051655636927532833 -0.0490641648521161 -0.16062111809725993 -0.0106738415116604 -0.18058936794554858 0.15759948405181748 0.17668359592413491 -0.027592499187953916 0.12181754468931302 0.13764680042972688 -0.026334884194848838 -0.019680043109203384 -0.006759423649075876 0.0095623200583243827 0.057296020485058587 0.018272974101691992 0.032402522739916645 0.082992207130672749 -0.019905061978105352 -0.0075970414703226442 0.038441646130722665 0.15215110072375185 0.18179415802581031 0.21790809419623311 -0.013000523904478783 0.15367320267901308 0.074750730904719023 -0.14488752674812155 0.15571866754396202 0.011900302240055706 -0.13668904278363575 0.095490473279662383 -0.18597090108281511 0.16884357058517407 0.088649172587610653 0.21004448980783566 -0.055507796199510212 -0.05072100653978636 -0.1322382123561103 0.089423554373903064 0.084917670466821624 -0.053180779262435619 -0.077376413094933524 0.19376524704804607 0.22646901767378688 0.075485807386863307 0.078431956824668317 -0.17035701324329411 0.18704094478871255 0.11024763299881712 0.15724645244154584 -0.071746897691422395 -0.1185605187937266 0.16513547128187017 0.049195839006989713 -0.18716059983258193 0.05140351384854569 0.071437224455932938 0.025035592414767813 -0.089408944512920654 0.055983382725474179 0.25227007484855196 -0.074575413444721281 0.16038400763285607 -0.1086378622726453 -0.039859737811701684 0.1002716614200206 0.20234586264919444 0.18577019121100352 -0.19198411496741549 0.12417945940152147 -0.011991171161059798 -0.1719294646889396 -0.14963234686669094 -0.042703378144346979 0.13375361268608371 -0.072759860277285815 -0.041148421345484847 -0.10119409175651239 -0.10240032378931944 -0.067748184179700688 0.12655888394629777 0.14119326136908267 0.018366077934484734 0.1665005522133535 0.020797392967567555 -0.11882775508279829 -0.0054046559678703563 -0.056673625410118257 -0.024811095857022909 0.1035939279407231 0.13089616488939601 0.13259269407872612 -0.070195635868048931 0.06078753654049459 0.037378944784127198 -0.084717114121492604 -0.038380030820617986 -0.048800198980225258 -0.045936020726788915 0.047746130241617987 0.031445117983089875 0.15024682347876536 -0.064663795802578861 0.18409437582039717 0.1099145317283588 0.017735946697207603 0.095985353875783455 -0.089815031287877739 0.068530385496349405 0.10263660053511418 -0.051376688001764384 0.031210087057333961 0.17539944815282613 0.061329530995972548 -0.16741984186854861 -0.043192151029138058 -0.13899396902103917 0.034355018034745888 -0.096906138842336828 0.072380651823439585 0.16846515035744192 -0.036560592898132287 -0.11154382173881944 0.22700693834839331 -0.1118292607200455 0.18743082392353791 0.043236746306652411 0.0056468618431476433 0.11002359497448205 -0.02812961081963912 -0.12350032158006251 -0.17933320229070676 0.15624234720210001 0.15841840172280808 0.13316860936646979 0.10890219419264162 0.14661873629234631 0.10330109157410289 0.099177070064758358 0.038147016824542357 0.11215313525356384 0.099560326693685336 0.13735001393948498 -0.10114357258001733 0.12121430374225074 -0.032159888891602935 0.0033624107374664947 -0.19172309141037872 -0.013125960983271416 0.13279425257791194 -0.1038253539394491 0.15292903905137076 0.046238327617723507 -0.014446692212654991 0.12187623681336837 -0.029815522868526591 0.1300773774556942 -0.081676756149438048 0.15458780411794071 0.020804612194626853 -0.15867707869813794 -0.061098757702724972 -0.068440732340764102 0.12379611820309272 -0.048687852869724678 0.037385768101706039;0.16929765235942368 -0.089347458345933273 0.042411568852087841 -0.19759438328068099 0.045714276350171834 -0.23850718512464289 -0.30743561489342247 -0.59825649845806117 -0.28243045884545431 -0.33131217678416669 -0.071351641176832778 0.051449301246127468 -0.15101317964310199 0.14110408204145222 0.044788705406647679 -0.085187281072873197 -0.07524303318916678 0.27359732567056405 0.15916556221061429 -0.065726317206992207 -0.082127304249144772 -0.11165657248152944 0.14793085088558999 -0.42338490910228888 -0.64018539665066299 -0.78911290345186902 -0.13042126730582215 -0.17467757564668882 0.20240817992978716 -0.21120943926519062 -0.15652313722116531 0.19414629125422933 -0.16402252122909786 0.047705173235307978 0.19883809137030714 -0.06173993826720902 0.047180742846290737 -0.029028289103286808 0.082374617103675607 0.080562777640594413 -0.12609400811452512 0.030455568498048122 -0.21723994133607791 -0.30445566393949225 -0.068295628848795004 -0.052606400446639605 0.097983830065925523 0.16926116084181353 -0.1616028159245215 -0.074420441889534769 0.179804767851929 -0.16083814325622056 0.026130851760380092 0.10229939647121505 -0.13093370899999962 -0.050561614855917002 0.1423790414533444 0.15448653877246657 0.30120287160204628 0.13899845445457526 -0.22766094933087289 -0.24591403868909206 0.038740564225611056 0.086635021590990111 0.088027528726902185 -0.13908125167184576 -0.16562141926309998 0.052523109642705214 0.075176564001668236 0.17115167054829389 0.048272482126006072 -0.084124556712158544 -0.11107541873976766 0.21316908601505388 0.2186452661145018 0.48710200657020336 0.44647427269859274 0.0081004316993185423 -0.0083163165985456113 0.28613498436528539 0.14318160049135545 -0.041912164625213098 -0.24991480766327342 -0.10164111902326119 -0.030632632124115107 -0.0002841318339477691 -0.053236906988399023 0.17990332838126546 0.017284895782816227 0.15470147102213413 0.34934334787596427 0.71354196699137706 0.45102048263369204 0.5359126310699277 0.33416390455434059 0.15975408179769313 -0.1027047262697932 -0.10398008426461736 -0.18537370150994481 0.0033660493789977484 -0.0022741421916687549 0.2702678583288729 0.28594854773855582 0.22015431777565794 0.14357324375058947 0.18768182945989856 0.078328411476069143 0.086424416678243465 0.56954865999398496 0.072008055793922124 0.24517304838511128 0.085440116747909245 0.025371560713446102 0.050651831961230305 -0.047731225660764612 -0.22347522620480562 0.15461125710679011 0.14398040413779059 0.074234378406294474 0.10161045085430821 -0.0066482665719873168 0.16305550900581983 -0.05140740611328954 0.08415992687178335 0.11952956669121835 0.085669639308229309 -0.074531163568232708 -0.37869308540756891 -0.28223099070911262 -0.10175981629689222 -0.011210988776802858 -0.073411804471976025 -0.23789411669211258 0.095923599053658576 -0.06445758048955115 0.032852093304897557 0.15793525920658952 -0.19558346747505723 -0.19758070742730136 -0.003283295333617237 0.08104720636219033 -0.045359838696789251 -0.11744240678552371 -0.44941098676391122 -0.31236394897053327 -0.32881774797457197 -0.1365782839526532 0.20396786842213604 -0.055277958989044695 0.15816439587234107 -0.081225790434772474 0.035332629793266963 0.11622588744547381 0.2803577428683719 -0.019346011469312595 -0.10146515714633125 -0.223886642715275 -0.21055916635710653 -0.099433622737702357 -0.34091361780185409 -0.36257034306723629 -0.029981103294900599 -0.1503899761666283 -0.042408914240703373 -0.13777466224859933 -0.099650842530471934 0.030296464859518597 0.0243862662854578 -0.062425659518554326 0.028444704896338081;-0.19813752469676366 -0.16906799246769197 0.35563349378977149 -0.13719737133485033 -0.007282984376526554 -0.060216645504487715 -0.18533865972908536 -0.3002696911050533 -0.47743859842903402 -0.32030148017134835 -0.42735551948541678 -0.15794427253577537 0.05166545445824014 0.0057462365520795939 0.044673005116293768 0.3673463727916686 -0.022256045021512804 -0.14711363296936919 0.14465202245136652 0.21116479456518658 0.050317054690845055 -0.10407586869533952 0.12066393586757336 0.18323616662834344 -0.010848317637063268 -0.16374216076328321 -0.33481180244437686 -0.24325949428030216 -0.0040586783350481355 0.078347097644880764 -0.057980897985584721 0.074101568082676372 0.19237196898270945 -0.17287914072167618 0.095197789425514961 0.30923299844928087 0.35587999226249928 0.38746812899199579 0.081514863616527669 0.33081944558602988 0.46312785860588923 0.16332790553330878 -0.19769744594228778 -0.18262851456143064 -0.034076926205106953 0.0018206082151897228 0.19911590714238875 0.13248654412344274 0.01223079891738443 -0.0043629210179113448 -0.13085833991022242 0.13407681049891329 0.029013953552503902 0.27408398360772668 0.012294373921212997 0.063120819209948803 0.26299257961523015 -0.20306478227116689 -0.12294843283371241 0.17138075755262805 -0.13951042822641901 -0.0027513878695660642 -0.036933992569889509 0.089455748916227679 0.28988140650494509 0.17533350629615913 -0.094049664084643311 0.29407946054575024 -0.092652200241136018 -0.043600386314103637 0.13982558193296243 0.095011298497043623 -0.14576551110336078 0.55251677361966767 -0.43714151800283568 -0.18539267564415191 -0.30648408710196173 -0.23447545911310283 -0.30037979340085863 -0.1779174328041975 0.1144856148163058 0.1690524398186708 0.31545449719690644 0.017366655359741804 -0.033883597295122768 0.1919242805533897 0.078704606947277017 0.083203277816899693 0.20428396722703487 0.34239619669761773 0.12453546935971643 -0.43415897798748193 -0.016534449024503739 -0.34510076709107423 -0.27450676749632485 0.11985302285967808 -0.0087640441751468141 0.13219838911425486 0.041788077452049717 0.036654880330386996 -0.067463697530275202 0.15510890573490263 0.14704763209656907 0.058622644994954301 -0.16955120445161564 0.32842032559013112 -0.047567031347093988 0.14526805401409656 0.085398941948105697 -0.27204169598438288 -0.17494203059856153 0.18143716844616617 0.21692781520003243 -0.035968332476461598 0.11305659547749811 0.060822036270800628 0.16830428585026078 -0.23144167785059672 -0.072153173196120662 -0.23843799160904589 0.041147501034600131 0.20827647495496326 0.088296950671173824 -0.83129253792499147 -0.096224053543990676 0.51489082392245589 0.40988067057157396 0.19324859125574723 0.053188967844653573 -0.28191528340510347 -0.31420833354110506 -0.42607409763662013 -0.38296787437757973 -0.19388823901452357 0.096489406633261221 -0.052299665852058842 0.015646920850290028 -0.17116389560640569 -0.059381413168657041 0.032565241343595945 -0.33504012828134672 0.13626045548009394 0.59958889280621541 0.2710467023414932 0.388487026543333 -0.096183302572686674 -0.21961609933587364 -0.67893282790872755 -0.53714694816677855 -0.39145719406791074 0.17365560610296896 0.11257956628620977 -0.26666459033287376 -0.032421467403938212 -0.2881041936237756 0.2997375840111331 0.35676836418585561 0.16951959021493349 0.3470348839173496 0.33447792559652967 0.038410292277189992 0.043555689428310909 -0.013483927306543792 0.12791559750807482 -0.28219578150497382 -0.10047684382585303 -0.072132016474543065 0.32787573265687076 0.14893864401445711 0.019501564324552655];

% Layer 2
b2 = [0.18887882735955722;-0.15088414652078347;0.44368484365710636;-0.14326085184117796;-0.63519624865191959;-0.22800653405927274;-0.38471138803952293;-0.13468701754299714;-0.50029672439993078;0.48970299383621435];
LW2_1 = [-0.76336893823990104 -0.30878046178648993 0.43327874802104654 -1.0726835217396491 -0.098509058221773249 0.69070441016568151 -1.2734008017574467 0.056569244661176722 2.0792104613022153 -0.96127096090686603 2.2725743301967709 -0.82510327984659626;-0.34025926016126545 -0.97396973532188669 0.19225400054523181 0.18645433330844083 -1.8295329098178643 0.45521158212633689 -0.79169573866443443 1.4463562966431953 -0.84394642113767848 -0.30383233605585025 -0.9879933447603213 -0.88844421501175208;0.88984651219372346 1.1216523449406413 -0.60876815040196974 -0.73715428275042683 0.9878633007309241 -1.546579195249203 0.91707438172094702 0.83480297322631136 0.22164391318126439 -0.2674187886785569 -0.94890286449022965 -0.34027272172224599;1.5619553691929016 -0.33400918965116472 -0.1702025205251935 0.53371835710751803 1.4886164700875673 0.38108150917454919 -1.329481436725015 -1.0361684436341163 0.45278673903151084 0.43998222318053121 -0.73299876120556418 0.37781170066729364;1.078391528987424 1.0022924476569381 1.083055880075863 -0.1030941468128765 -0.60342462439725075 0.23962417940683139 0.41474494313810645 0.72806360330159703 -1.2963080738623518 0.42418510913223212 -1.5034940073769645 1.7489580376808751;0.87077493403389983 -0.38184991078394137 -0.52155157685024078 0.78027231246604944 0.36390421608460577 1.6591784764586397 1.8424127504050944 0.40138619317663493 -1.6672679582460679 0.94806993628166802 -0.24424053542079044 -0.58677428702002876;-2.0873220605049148 0.24431976849763454 1.2135372084635454 0.028997137561338142 -0.054875789436561899 0.58114918468723942 -0.47708829830416566 -0.62956334362965061 -0.18865306035069479 1.0707293067981249 1.0636273167617338 1.8801431689400292;0.23455564769504483 1.6169901082755249 0.54702850071053877 -0.99743207965914449 -0.57036796714253479 0.35725226608682514 -0.11716286056046842 -1.4483645311561391 0.89441842691181173 0.45632009768441395 -0.9880540529909736 -0.81986563204541829;0.55502478648420905 -0.2459509342295948 0.34421381161408227 1.975880497822599 -1.8978892571651256 0.608005165506462 1.1572078190613069 -0.01054648457103707 1.8350353656167218 0.61327524996500393 -0.41154774317195653 0.47771445175059335;0.037330682778191134 -0.47570299068414662 0.6032555047313497 -0.95554273341767892 -1.1184957775062627 -0.39673041449996993 0.68711959245812992 0.98374633835095204 -0.15832221777334121 0.36364742475281181 1.6602012639626003 0.01200998478347751];

% ===== SIMULATION ========

% Format Input Arguments
isCellX = iscell(X);
if ~isCellX
    X = {X};
end

% Dimensions
TS = size(X,2); % timesteps
if ~isempty(X)
    Q = size(X{1},2); % samples/series
else
    Q = 0;
end

% Allocate Outputs
Y = cell(1,TS);

% Time loop
for ts=1:TS
    
    % Input 1
    Xp1 = mapminmax_apply(X{1,ts},x1_step1);
    
    % Layer 1
    a1 = tansig_apply(repmat(b1,1,Q) + IW1_1*Xp1);
    
    % Layer 2
    a2 = softmax_apply(repmat(b2,1,Q) + LW2_1*a1);
    
    % Output 1
    Y{1,ts} = a2;
end

% Final Delay States
Xf = cell(1,0);
Af = cell(2,0);

% Format Output Arguments
if ~isCellX
    Y = cell2mat(Y);
end
end

% ===== MODULE FUNCTIONS ========

% Map Minimum and Maximum Input Processing Function
function y = mapminmax_apply(x,settings)
y = bsxfun(@minus,x,settings.xoffset);
y = bsxfun(@times,y,settings.gain);
y = bsxfun(@plus,y,settings.ymin);
end

% Competitive Soft Transfer Function
function a = softmax_apply(n,~)
if isa(n,'gpuArray')
    a = iSoftmaxApplyGPU(n);
else
    a = iSoftmaxApplyCPU(n);
end
end
function a = iSoftmaxApplyCPU(n)
nmax = max(n,[],1);
n = bsxfun(@minus,n,nmax);
numerator = exp(n);
denominator = sum(numerator,1);
denominator(denominator == 0) = 1;
a = bsxfun(@rdivide,numerator,denominator);
end
function a = iSoftmaxApplyGPU(n)
nmax = max(n,[],1);
numerator = arrayfun(@iSoftmaxApplyGPUHelper1,n,nmax);
denominator = sum(numerator,1);
a = arrayfun(@iSoftmaxApplyGPUHelper2,numerator,denominator);
end
function numerator = iSoftmaxApplyGPUHelper1(n,nmax)
numerator = exp(n - nmax);
end
function a = iSoftmaxApplyGPUHelper2(numerator,denominator)
if (denominator == 0)
    a = numerator;
else
    a = numerator ./ denominator;
end
end

% Sigmoid Symmetric Transfer Function
function a = tansig_apply(n,~)
a = 2 ./ (1 + exp(-2*n)) - 1;
end
