function [Y,Xf,Af] = NN_133Binance_16Neurons(X,~,~)
%MYNEURALNETWORKFUNCTION neural network simulation function.
%
% Generated by Neural Network Toolbox function genFunction, 16-Feb-2018 12:06:24.
%
% [Y] = myNeuralNetworkFunction(X,~,~) takes these arguments:
%
%   X = 1xTS cell, 1 inputs over TS timesteps
%   Each X{1,ts} = 170xQ matrix, input #1 at timestep ts.
%
% and returns:
%   Y = 1xTS cell of 1 outputs over TS timesteps.
%   Each Y{1,ts} = 10xQ matrix, output #1 at timestep ts.
%
% where Q is number of samples (or series) and TS is the number of timesteps.

%#ok<*RPMT0>

% ===== NEURAL NETWORK CONSTANTS =====

% Input 1
x1_step1.xoffset = [0.813037037037037;0.76078431372549;0.440336461843484;0.686274509803922;0.419607843137255;0.396078431372549;0.392156862745098;0.256403826582536;0.251684857257013;0.158495420313454;0.228956645634032;0.242421331162223;0.392156862745098;0.431372549019608;0.172680974888994;0.556862745098039;0.865362914716059;0.823328523720138;0.454901960784314;0.0941354984131292;0.323216560749636;0.073880664299553;0.0621360411907939;0.0603086294110108;0.0485096682271524;0.0410986423019804;0.0567619995326081;0.0357451658864238;0.0603086294110108;0.0603086294110108;0.0802707857460555;0.0585174028088744;0.388235294117647;0.908804185418881;0.908804185418881;0.380392156862745;0.0550420577304355;0.0550420577304355;0.0397134133930389;0.0603086294110108;0.0567619995326081;0.064;0.0698147771219214;0.0550420577304355;0.0517071111412654;0.0567619995326081;0.0567619995326081;0.0397134133930389;0.0824799511500102;0.435294117647059;0.886906242697002;0.813037037037037;0.356862745098039;0.0454468341738849;0.0485096682271524;0.073880664299553;0.0698147771219214;0.0485096682271524;0.0357451658864238;0.073880664299553;0.104213311622227;0.0439649908406269;0.0425157141672509;0.0802707857460555;0.0621360411907939;0.0485096682271524;0.364705882352941;0.897810706289436;0.865362914716059;0.345098039215686;0.0410986423019804;0.0469616060188012;0.0567619995326081;0.0870191404512593;0.0533572155505801;0.0533572155505801;0.0357451658864238;0.064;0.0439649908406269;0.0759715041726033;0.220263036087176;0.0439649908406269;0.0383596655886499;0.337254901960784;0.833706492977814;0.844171306661842;0.301960784313725;0.027532879510897;0.032050478322817;0.0344836902850337;0.0718285425665845;0.0517071111412654;0.0469616060188012;0.0485096682271524;0.0517071111412654;0.0585174028088744;0.0410986423019804;0.0550420577304355;0.0264740409043279;0.0425157141672509;0.349019607843137;0.813037037037037;0.833706492977814;0.356862745098039;0.0454468341738849;0.0344836902850337;0.0550420577304355;0.0567619995326081;0.0621360411907939;0.0485096682271524;0.0410986423019804;0.073880664299553;0.0533572155505801;0.0533572155505801;0.0357451658864238;0.0357451658864238;0.073880664299553;0.419607843137255;0.897810706289436;0.844171306661842;0.352941176470588;0.0439649908406269;0.109511304098725;0.0678390061137873;0.0718285425665845;0.0383596655886499;0.0567619995326081;0.032050478322817;0.0397134133930389;0.0485096682271524;0.0397134133930389;0.0425157141672509;0.064;0.0870191404512593;0.443137254901961;0.813037037037037;0.833706492977814;0.6;0.216;0.40073106120572;0.407843137254902;0.233387942797265;0.169058416446163;0.114985880242139;0.12647636278656;0.12063993486668;0.114985880242139;0.099089007998432;0.291098235218732;0.4;0.443137254901961;0.833706492977814;0.833706492977814;0.854723326623998;0.76078431372549;0.440336461843484;0.733775094043769;0.749019607843137;0.42022274992273;0.426857724404641;0.256403826582536;0.251684857257013;0.158495420313454;0.228956645634032;0.242421331162223;0.623529411764706;0.556862745098039;0.172680974888994;0.556862745098039;0.865362914716059];
x1_step1.gain = [7.00968606041476;5.90405030672216;3.03962458826166;4.8601610282094;2.94083638114669;2.84380984573813;2.83123871128199;2.37164055488685;2.37034842138942;2.1413166342099;2.30180694221725;2.33814248049486;2.83594158427042;3.0145156495088;2.16773527304359;3.69614545431788;8.52580445544032;7.31859800237328;3.13352561003551;1.99035502586671;2.58528585096279;1.95158642745355;1.96249593987279;1.93194895810145;1.90277355744161;1.89256889271101;1.92604479522165;1.88714705170179;1.93633418348533;1.92733841424009;1.96949149663795;1.92880639276437;2.81526939830809;10.4877579013681;10.5286094724553;2.78408558763357;1.91414853917569;1.9184745042533;1.89912393318374;1.94701025515748;1.92473990696483;1.94678689754753;1.95418788253752;1.92195248780533;1.92236523827848;1.92576102654971;1.92992432632924;1.89475876318148;1.96928278166439;3.01073971489888;9.40048103503306;7.02231613420337;2.69210031410482;1.9060653017838;1.90589466368245;1.95444533303242;1.95403390521239;1.91882921373822;1.88329314583555;1.95791479255546;2.01587493683234;1.89620121448319;1.90230344440433;1.9755955853582;1.92707109174403;1.90588410016371;2.72409956400052;9.92839758136309;8.63488167872538;2.65525988369036;1.89363931312486;1.90053201395126;1.91872861816993;1.97837229501955;1.91899837464193;1.9159617478577;1.88807054728952;1.93364933138484;1.90174751250359;1.96443833338395;2.27925398155789;1.89537759924907;1.88735248569182;2.62325759818305;7.51229695178391;7.88588710271195;2.50678957959639;1.86889848256771;1.87631754561404;1.89450168296759;1.94886652092374;1.90913110805922;1.91646348106912;1.90980633719392;1.91870887392154;1.9306954306849;1.89585752154258;1.92493816482489;1.86788366905848;1.9004189388748;2.66501968451;6.99090125469146;7.54798135991674;2.69138934405405;1.90903115329481;1.9713833559237;1.93335736673689;1.92285312705761;1.94952949902375;1.98493239129088;1.89547660997838;1.95232749230578;1.92582740312981;1.91465715864266;1.88533661167464;1.88537518616111;1.96155087829566;2.94374807241693;9.89814850085464;7.82472876693075;2.68058889021887;1.90233813673554;2.02035699202253;1.94142730562955;1.96231118701226;1.89354800469563;1.92911618843055;1.90019554733081;1.90261260151916;1.90238936708989;1.88991372548132;1.89279109365127;1.94158064053237;1.97759722300798;3.04542819376191;6.96961229885949;7.53227733534504;4.00798500099886;2.26335713637102;2.86737199282264;2.90292688740016;2.32868769263222;2.15199502275167;2.04676647735741;2.06977710696617;2.05748493550433;2.0381092439473;2.00690893641721;2.49088070655848;2.85746817937672;3.068018180216;7.51686349544248;7.52508725830133;8.20326246969749;5.91786565535961;3.03526345290762;5.48635389865843;5.71212624591232;2.96333673599616;2.97283567771881;2.38507627556558;2.36305367924318;2.12812487643918;2.30799603369033;2.3369707039101;4.22039914522826;3.69571215867586;2.15706168575944;3.68562462762322;8.57258142046622];
x1_step1.ymin = -1;

% Layer 1
b1 = [-1.359318741664286;1.1148375484696571;0.9826607637356608;1.115962762557221;0.61179196964367144;0.37901852259105107;-0.21967986396551326;-0.15095585302034412;-0.12440880438952009;0.17637100728937344;0.51843440491684456;0.65255413997452771;-0.76194628988116175;-0.89098472022973552;-1.2223534435341659;-1.24492463899828];
IW1_1 = [0.14892465794100102 0.089018611680925605 0.12759765291170311 -0.021815292489827637 -0.25549851982007526 0.035524676578288963 -0.20001204115028728 0.040359643180212471 -0.2491590518749292 -0.072096303443507745 -0.025172411071918709 0.088470035994242135 -0.096813545104336859 -0.38953389642221647 -0.18396847669803709 0.069395697195666864 0.022110793439784275 0.020058592062127251 0.055616520362234675 0.20344724497029348 0.10524038592758164 0.004112416912299635 -0.019630726242233831 -0.060892960307223361 -0.11989427748853207 -0.27631659847409507 0.10400355887337294 0.32546107224946907 0.11762760163199279 -0.25438265260604326 -0.38988867082551198 -0.33344972989619509 -0.11343460922573129 -0.097277392115522832 -0.061441681212453379 -0.16440758907822162 -0.033807994630556094 -0.23420874172385978 0.011714282949169088 -0.10748343768087057 0.020204778502094258 -0.23007603139675939 0.28041920005605631 0.55218731247572761 0.49638114621965229 -0.20329781729350702 -0.23620734948225885 -0.22998757661768524 -0.18142626824874347 -0.065073154576351336 0.18880272311339891 -0.016179209886691408 -0.097138616883048867 -0.0023806617310233608 -0.20949956358671412 -0.091466908140605291 0.088593148000816732 -0.29048360424792075 -0.025682775376713762 0.037910558201352099 0.4778472606972865 0.33747792345825678 0.10784914063143072 -0.34670664503609694 0.21177692372393642 -0.093375890867930536 -0.12748452317475717 0.18511851583067729 0.1364525470076246 0.11311417867793831 0.13059095536464307 0.15560279942544353 0.18370846284070494 0.48136513459075053 -0.00051354422691420563 -0.11660713856685939 -0.032330335208821462 0.033241062411052041 0.19695249949905635 0.027925068140675996 -0.015968412278516107 -0.097831929377467625 -0.31505114980275123 -0.024002440685443729 0.16162090254468067 -0.019008140061731165 -0.14237220430020589 0.0021447126094507139 0.38251680173356845 0.08017221148790632 0.37326685701332762 -0.06768762317231522 -0.22058513827703929 -0.20219967246812773 0.15431429476743266 0.2783811303653051 0.27173336840233786 0.63610529082272194 0.15864322825669805 0.015262879810345405 -0.051761363478321873 0.10941447673565619 -0.030377159298179839 0.058878388702831123 -0.13265096825765629 -0.028691193821024457 0.14397865360183942 0.30262510954812483 0.35036052014708968 -0.39378039622984451 -0.080448928011315826 0.023750594207058114 0.41279805584151524 0.3949242078441027 0.28544870420689272 0.023786705586571758 -0.26172004233014612 -0.11703132610940596 -0.093584701822795366 -0.10352643876020938 0.013550665329891463 -0.37673975414102223 -0.083213103730859064 -0.34338889076755347 0.2286478259302018 0.53039976834102198 0.040624331720884373 0.051229541653713941 -0.042332441213875444 0.046760448277249594 -0.024868777447098016 -0.070303486241330315 -0.23456072629607075 -0.30696376949158544 -0.080845680944024695 -0.054325123202581177 -0.053929131705793533 -0.19642361644218093 -0.25960781420698148 0.069011360932883486 -0.13069026104306458 0.13707170313862649 0.46994693264810039 0.31850588088476017 0.045587473177588558 -0.040186477922255388 0.19277308314183247 0.076076084459510571 -0.13233175122664956 -0.074263339841438097 0.04412646515380373 -0.12107369761191147 -0.47720032657693295 -0.090570446523618925 -0.10957558443321923 0.16599100243741288 0.20252879672221996 0.17691490715964586 0.0063935081967541928 0.34984896250324143 0.28337171901455127 0.24782715014722803 0.065858853205697218 -0.032181407023778225 -0.04884155155393189 -0.0013461413395691449 0.13888395967862549 -0.28723195947925639 0.13329572828478956 -0.038604403449223348;0.042180628771775593 -0.19769238921745172 -0.12551700110138669 -0.029404803277495246 -0.036620014407403569 0.10555487472192861 -0.019358599778862156 -0.20607903736036917 -0.3304101353480855 -0.53971735187204239 -0.15436085604222502 -0.41226539688543901 0.24461137008513842 0.049179922978751858 0.024121630444509434 -0.00084114180115534747 0.06651329872944807 0.035697596742918586 -0.16640414591777741 -0.15253794632110909 0.085077139358562315 0.23270058255972773 -0.21921188123523019 -0.13474540135104973 -0.26735950215567417 -0.39696556532484667 -0.037483004146878357 0.12188176596749491 -0.16481174180878774 0.068566191673840024 0.27847787277082564 0.024595388140504715 -0.068445148485301102 0.076271681263639882 0.096050064883992967 -0.031112746583049165 -0.10762010775448533 0.30561417041300698 0.16670180464347772 -0.17658220675999467 0.0079577528841463449 -0.012791629109570574 0.24435032809276136 0.062180037477818695 0.41265433746266439 0.24917079676448933 0.33268030621225747 0.32316781763535829 0.20982825113247516 0.19345495941014637 0.044656613756708333 0.15757447380352566 -0.22322414828936829 -0.15967784393945106 0.20467765647649466 -0.095442085240866309 -0.21241743433811319 0.076954696886299537 -0.15417754368604264 0.45267304751572046 0.10051573906661916 0.19989960348186717 -0.16188965842108505 0.02728019587856818 0.13601299180349255 0.045878725117474234 -0.076519716794526627 0.021773123890138149 0.14689277310729482 -0.064856480310168704 -0.13733184900189707 0.04540415403211763 -0.21136046400878236 -0.15581002555006324 -0.4577717673978855 -0.22964228251105748 0.053990195584642832 0.040492625059879071 -0.018746740550513761 -0.12207871761039223 -0.15306816190396383 -0.19317510817850533 0.20503043582777747 0.11807193549184285 -0.14833971140805205 -0.014215129249746661 -0.042802854476945852 -0.25463633363145832 0.012692676579300309 0.072742133337329942 -0.30889299845876023 -0.27213476980385265 -0.2023724424236 -0.1413680931682707 0.21720625297656951 0.18513621189594742 0.14729466427392426 -0.057453161863516143 0.16267805245630226 -0.14694444555655178 -0.11711889187154699 0.26167452532913155 0.1029868700552901 -0.2076961330867082 -0.10043457264022049 -0.13240981214047573 -0.32917936156746658 0.026097839675966832 0.074143610165844434 0.39922494426697475 0.12589619778906061 0.10754924790059744 0.34843374181365716 0.074875550750917869 0.16389542095477816 0.05803462815628263 0.07953661766151178 0.16472129790425893 0.1093898254823113 -0.13542224738157707 -0.19318788817677829 -0.29325636779990805 -0.034019181039386379 -0.23059010367405849 0.08597407424281886 0.2783239039410676 0.22366844976058978 0.11487337979825575 0.14215327759160049 0.30237873533807014 -0.025284532540228642 -0.069682205886562959 -0.28949848572296388 0.24108603846602189 0.086371479367615009 -0.14117279484799128 -0.19975201629149578 -0.0459811715624786 -0.26390477958516495 -0.19634070556581615 -0.16435803334185389 0.31692622628530986 0.094272933722600621 -0.17847322512572072 0.053848992137492918 -0.022964525177568723 0.11517024190224248 0.3048778818725163 0.12467892434440335 0.067573534052220885 -0.049198721570755007 0.17274194141500648 0.046022456568854633 0.25426247219482628 0.0057800279421042853 0.19987614934204162 -0.057905957145944889 -0.1405407857343508 -0.018639734258477189 0.11862603634488156 0.20492111144269076 -0.0036288013044389078 -0.02200013753389822 -0.096698844543931184 -0.18823379495030781 -0.074788145601312583 -0.090440859273397345 -0.14721834951330967 -0.090489771965503743 -0.22620248179857444;-0.10672119377268537 -0.20971669737284632 -0.12052721010903511 0.092089175981977273 0.19432881490133941 0.14577309486423057 0.12940550115359731 -0.26988562637549141 -0.38402733322219185 -0.15561587752508696 0.15801482501119468 -0.16716587194220811 0.13973198137250065 -0.28076752648238301 0.048907481671281838 0.11340816310019648 0.048284223963635874 -0.16994406662916528 0.0039012144102679859 -0.25640083644101797 0.21733337104192718 0.040719394784410855 0.2511336455275795 0.34733704908876489 -0.16416929289834084 -0.39433479603096627 -0.1223889441571937 0.49710657320384011 0.19180953557021996 0.30773759673176276 0.0268649280482324 -0.30174564352391769 -0.21829193431612651 -0.098073320408937625 0.22418438931801396 0.064730406709592597 0.096074826502227151 0.094129927769746657 0.15982039911577783 0.27772736312732194 0.53192989285456727 0.049495688736816076 -0.25147250014091577 -0.22514977944698858 0.26202798107461067 0.11352928617805368 -0.0044477781438011631 0.11355570257021436 -0.19440954933005264 0.053519168490392781 0.11091148750483541 0.18379888823934043 0.23741801973350682 -0.091867734192912692 -0.050969572739610766 0.20460476864091995 0.49073419958431935 0.12267788019955908 0.20897303281117463 -0.013452822985055027 0.278582501232018 -0.37855253286955037 -0.33455456709988374 -0.14226066689040487 -0.03951326618685988 -0.033698464619079528 -0.11315874576300039 0.029455465865608807 -0.15724029368937759 0.15517070006042133 -0.20635956805928332 0.22486134249404391 0.25012475667769563 0.47703064706358567 -0.52863628719946032 -0.15934182678603104 -0.036744487967505617 0.01850319282533501 -0.66445137695502565 -0.42540113392635293 0.21892004597106521 0.21994857764449038 -0.17963063653218217 0.13165248540386199 0.058249311940569273 0.17350724844549636 0.28398322781885188 -0.025142069521659646 0.14533240114709042 -0.024296038157114331 0.19943906792102375 -0.4022558304094509 -0.064998743226379441 -0.17980807360970796 -0.15983706733567743 -0.26407491920594772 -0.19025416890530106 0.36362949610359269 0.30164249043862246 -0.3450002166453483 -0.22781973803777006 0.32442896326109744 0.12369187556437417 -0.1903113196110002 -0.31134385965497502 0.042943651460545809 -0.12845926764399124 0.045043159613632283 0.18321793485772378 -0.28063416268683672 0.014776492706780595 -0.13425826578495365 0.1934200076522265 0.18466250983546317 -0.046764859852420557 0.27870656161315427 -0.20764484871140731 -0.25324837618833562 0.31037192398097457 0.11457837541091793 -0.12438781272691865 -0.18641274350437134 0.024790723156850422 -0.42380794804120842 0.095049426568623988 0.61524265279017176 0.09857861586220136 0.10167938282082813 -0.066540493024685649 -0.43546033591054151 -0.54284754464716489 -0.14997912704000632 0.12804356379863932 -0.06738194909243439 -0.15831872467692812 -0.12359723041164064 -0.077498785475149518 -0.23086892445582344 -0.037519082361658587 -0.19710359060178445 -0.03240837281994241 0.14306867057887188 0.45797178163341151 0.22714995780509384 -0.089190729298307236 -0.19983300105615492 -0.11108770050393213 -0.37043368699236118 -0.3442546782045241 0.037917329091358497 0.15535310928564633 -0.04829401941221409 0.046568873544010153 0.13678586548612248 -0.25316077700863215 -0.062697483389849012 0.01583668240443558 0.1568469506286389 0.26263330885751196 0.13001449127293618 -0.019867863978286403 0.26052077077139968 -0.12093901288473276 0.36471291323890825 -0.31378958303368798 0.038363113418301911 0.044389257026915152 -0.13008294081776009 0.24252486224770045 0.144537009714197;0.05778160433010715 -0.064084015287615759 -0.011471876797394736 -0.0079882632168588076 0.14633210142440273 0.013596921794211753 -0.096075411118236309 -0.14664546663422071 -0.18668539008774229 -0.39559261497795078 -0.29723350146975813 -0.23226344977233107 0.092558290299899856 -0.10126201888190313 -0.085034509248047438 0.18398706587100344 0.06793311654866456 0.17322174428505302 0.18207670756381625 0.11054545844604168 -0.083234883411813537 0.27066543555763506 0.096605859561742599 -0.10212406421583764 -0.032537429566420403 -0.48482169144046511 -0.39341283027370572 -0.86466253282742622 -0.39673033438784855 -0.027234899610185402 0.056983599475763071 -0.28200642487483746 0.099294504197928068 -0.046733724003120099 -0.24104875450034385 0.013204684510422452 -0.22000836668054261 -0.22511546624829001 0.35141061965260006 0.14148582288594 -0.20392173230680949 -0.59242128569248165 -0.34847843833770142 -0.3217652164702306 -0.3455523950651852 -0.24280466881108831 0.13210443075912881 0.16050558021248265 -0.045725819377771031 -0.098589148810931088 0.18186717534710778 -0.12229437344486996 -0.0020276072185875915 -0.021142493331988633 0.09419126133636592 0.30232008329007726 0.2030470341932652 -0.24625820476459567 -0.59793397681831251 -0.30953082822483569 -0.21041246638546104 0.02475937275476545 -0.13631513940774886 -0.35874270618727727 -0.054026996744779024 0.074661119022537789 0.060257460226408106 0.33746380495018419 0.11895360858363903 0.079525029427100699 0.2249306230816234 -0.1360484215650086 0.27675627804427577 0.49688842287568402 0.28353504585197919 -0.19440526912766309 0.065852564394440233 0.13612154058293577 0.34248486757763125 0.20498961507133487 -0.14150101290906578 0.027868741660343494 0.077466329348847951 0.089017112716436891 0.044093950098426121 0.070214505988331025 -0.13072922054254418 0.15218072744239058 -0.061042887061345356 0.17810152863199344 0.20753498746483498 -0.1809631571462347 0.013298283213709317 -0.13502294606713705 0.19475357594564463 0.27548936222518378 0.37877495912864251 0.11713293580566594 0.53939706998538361 0.3976448233923251 0.10156555370384876 0.17873633282220147 -0.26734334709484447 -0.091202767832907566 -0.29025773764553814 0.18251517152065797 -0.058223941926605176 -0.020064373118474251 -0.15546134740164663 0.18092316303871903 -0.17376169834145561 0.060072480529288388 0.15030444867292617 0.17208367364407418 0.076799093077961469 0.32099054958752316 0.10007803400831194 0.063969327790554642 0.076604581104831329 -0.055170885051035061 -0.18456358448771598 -0.37350023814975181 -0.28700212571483286 0.004183617838466016 0.29013441483576474 0.32560832680952151 -0.056292263528284744 0.080664654182159914 0.17575776756167441 -0.25541623236064515 0.21851056886358441 0.061262357521903101 0.011794487880222682 0.041643799564181072 0.085441352664221329 0.28856444649752833 -0.21157717600117976 -0.069591435827621673 -0.28891175792513263 -0.25620407144074275 -0.04486096021683484 0.20977355589507413 0.43633159754798773 0.30403809895615203 0.28474343365635912 0.33381937729193578 -0.024227590089682356 0.11683327952856948 -0.079627369663114733 -0.12498768031873454 -0.052041663451338198 0.12395202710826059 0.21051795765392969 0.22283764340148865 -0.252724520361717 -0.064051575399876534 0.28025985340812537 0.015035349446709617 0.10805245955177395 0.023752382999659288 0.01105009098808518 -0.13418647883683976 0.19670754605586291 -0.22001768983170589 -0.028005082824058104 0.076489766626565481 -0.0022286090336096805 0.14799573879416125 0.12710064049386688 -0.061646097998767843;-0.17717175397396137 0.1198580440379319 -0.17712182030567208 -0.039335156091315757 -0.20909461192778159 -0.077974400599713958 -0.31757861252408925 -0.24439375446120826 -0.30260488558054766 -0.10462004269627716 -0.20555144781946971 -0.13881418707301466 -0.13938012876844452 -0.06824955143222268 0.012279845652565863 0.10078799902879391 -0.10564798342348831 -0.065571026935587529 0.11732701943120664 -0.22520847812700032 -0.074326095274667464 -0.24964776959534024 0.021764757711932852 0.080608337836231711 -0.047299806086231057 -0.039910979814270074 0.070084853352104196 -0.17867060946086677 -0.04803766503440398 -0.11125709856821792 -0.22715902543351413 0.044455644750478571 0.0623397427313266 0.027803457214004706 -0.20100210265160742 0.14317952420369251 -0.16816177277002342 -0.1024120780605855 -0.016360485223573241 0.023460644449760936 -0.12267756204366297 -0.010423533171313613 -0.14421839845172474 -0.082401796149220538 0.13015904142017246 0.0073695919005074533 -0.21705527492142759 0.13473088387848248 -0.10046174585400178 -0.033072363586169717 -0.20906052572806533 0.086701281403545355 0.12985899639395629 -0.15654645920221713 -0.027945780661752913 0.0020931460305273204 0.13533071956197554 0.094206243479659058 0.059784968555043741 0.063727181001131908 -0.094812341229573938 0.019237632193775812 -0.20214345226649777 -0.0031589237214811887 0.00067121959829695107 -0.22340053667785856 -0.11883568990303713 0.12792782379359879 -0.18512569616699931 -0.042577247971111815 -0.076438597449405371 0.099253710860662078 0.090432193181495285 0.083412305506629092 -0.14561088889821475 0.15329220143965511 0.13581449402136653 -0.23435955531373504 -0.15661802710961628 -0.13078121640938437 -0.015547420539635844 0.011774172342014968 0.074899861894156233 -0.14567776568453866 -0.054822713952994186 -0.12655572511929128 0.078111913426899465 -0.16734218395509196 0.079450761610878773 0.098584653894864011 -0.074786554533403951 0.051822541343462536 -0.00062752319131583779 0.049586359595124481 -0.084628190979922524 -0.10316177353381126 -0.0064735366671522434 0.16246513619761904 0.13473709693721492 -0.021678576769499046 -0.002081865347850393 -0.054186738702485727 0.034176841453613216 -0.13104664748555103 -0.061611936194380074 -0.089168696731209987 -0.16324647042455201 0.16444098930804177 0.18051431160031589 -0.11932834453676994 -0.035512416480023741 0.15559849909770304 0.15403785876832105 -0.19924660609444955 0.18111465300896787 -0.10907273871352371 -0.080170409646370872 -0.010714994408112601 -0.16617582186521826 0.035314343824797083 0.072090893717753068 0.012054046593751439 -0.12115293505235175 -0.14062477346407123 0.041014869118747549 -0.066046414149242935 0.15666778656927138 0.11074328625664906 0.12839099189937631 0.22407572676105145 -0.048679309869827804 0.060176301874653025 -0.17501492298381841 0.13275634271955855 -0.12532064545616139 -0.13022430486139239 -0.062984013527610128 -0.040330824654382147 0.024244170269812741 -0.22545291048219143 -0.18667516766891723 -0.096642595886506366 -0.056443214720157155 -0.082234935032134734 -0.11600893315240243 0.044692294842668609 0.14151995340413254 -0.10358147654367721 -0.19803884703574143 -0.068455939633381771 -0.081610770160353646 0.059215452074772565 0.04835961454461371 0.0073695483863005498 0.090457745406044995 -0.073611855393469955 0.13446038752916209 0.034276867992287484 0.086217197572428544 -0.071682709721616875 -0.01373442676016296 -0.093946877099870332 -0.21088560325101788 0.053474774834312705 -0.1856072539329599 -0.08286873319905147 -0.12542802536896211 0.11510096440156256 -0.22526670014135952 -0.1728673804970976;-0.21940118074831924 -0.029868725263723056 -0.083675964184894924 0.18027184771620772 0.14146285615689475 0.1772826335965077 -0.11920997805985807 -0.093461685894061827 0.1578323062533166 0.14410372495240772 0.36878333532640972 -0.0013657381588280508 -0.082525373438960034 0.135211965779517 0.077192373197909558 0.20068115543948978 -0.035945899669599969 -0.32697173185797834 -0.080411528618641023 0.13886516921137224 0.22145054317633409 0.10371125030816361 0.22728250399284514 -0.10848529687074686 -0.110260497422615 -0.23586738313861477 0.18802361044951996 0.72784235955350585 0.30248021784542023 -0.077640375563379771 0.24006989990667335 0.24690133843142295 -0.13587804206174137 0.063984805953161736 0.21873094201441562 0.12502799178663415 0.054924760794123818 -0.02887216811103846 -0.1223646176770834 0.18570469887064237 0.10702822833360483 0.24642162480932481 0.10305600501359362 0.063413976977201233 0.40353416463071318 0.44166838613945075 0.071372605474569806 -0.17749100590686079 0.27003558529100496 0.099545075573029024 0.065115246589749501 -0.0032487910208861721 -0.16757850431134858 -0.26156030710652101 0.063767609797776695 -0.14351450309787644 -0.1927654844943629 0.056310280968469691 0.29010193731845713 0.16425359643255841 0.14639876005383143 -0.1712771087196395 0.26150843322551898 0.24857234487688354 0.1163620220293725 -0.15996847039751091 -0.035489847299545046 -0.16536233078505322 0.0047476149716127094 0.097524342019451357 0.077647483236068071 0.091938412252616605 -0.03100031305615358 -0.30154555538290423 -0.087075918927722318 0.22267068555713757 -0.0048394747883955952 -0.15331889024820219 -0.14944410924664503 0.061947414711584145 0.023118819756109965 -0.32304072033059633 -0.24109588800792728 -0.10539188103479502 0.13877963921291672 0.052324748524858841 0.11022004939785007 -0.051631529738452038 0.085462499199094877 0.06232507489698539 0.0078425785864742643 0.21334479546103796 -0.074038909560826774 -0.22462052272313929 -0.18031686016800988 -0.33781835999976173 -0.14278764124968271 -0.38753454490211375 -0.30400348097897945 -0.17795360402646015 0.0018091334745877104 0.16562900942168954 -0.023803719077630972 -0.20247745207424958 0.011813104424736865 0.16601134477866347 0.16943056611234014 0.13468754770048644 0.027576755605825509 -0.029278829470368216 -0.081252003906415224 -0.18065003940156096 -0.072834551476820317 -0.13228836491602017 -0.37758351907588672 -0.34354624840467068 0.023102134166687417 0.11987852332047276 0.17252917148899313 0.017292855918483528 -0.07872511855069661 0.0019225952807141846 0.08016855030211989 0.10719922729210253 0.07907731540479794 -0.037642003963372112 0.2425203828778815 -0.18810966551375236 -0.33123516825319255 -0.50136676304163952 -0.33851992642416334 -0.43188082997759286 0.009590568062427255 0.11012839617969974 -0.0053414843003265731 -0.069355587034792859 0.014043235702052704 0.14848580908609363 -0.19982643145995482 0.03693463559380572 0.30085601366875858 0.10403024548618123 -0.032987232734814971 -0.44039873861922019 -0.10602600298577629 -0.33533755106790702 -0.16295368280136874 -0.33158540954300447 -0.09108090995017204 0.11416809848126287 0.026842529877027104 -0.16734831225090244 0.1075750423180484 0.01942887659966892 -0.069493519392242631 -0.2065569854558949 -0.33815596493355515 0.053113212833193091 0.11984592178576825 -0.22805951345666184 -0.050037313793251471 0.14718974365530874 0.15705711520510524 0.028936855508765957 -0.18256980460992456 -0.071939086259638449 -0.17504762116652772 0.060670480241396575 0.036404829776531714 0.059744150236369059;0.17275915533311456 -0.10986559476104879 -0.081877482334350521 0.13370563224649826 0.17405162169545313 -0.021879843790333437 -0.12524220785779713 -0.075640090436704707 0.011469227168190273 0.10219893517898736 0.17818598478472794 -0.10447528010563852 0.14238278201965571 0.16651498483176544 -0.0004272028245296787 -0.12173421151919628 0.13945792853258249 0.19617826540355035 0.01505496321213688 0.017034215368250932 0.077458986504749791 0.19795860792904504 0.11964578273720441 0.13528678237800604 0.10593325785927371 0.11367158637737713 0.12244809471805582 0.032085589811502897 0.17171640355811885 0.061809251144540535 0.098686949720163536 0.12580556808588483 0.073875616311662506 -0.16410438051404777 0.075725685520825078 0.014805882617849377 0.18745846965487639 0.18049265019472299 -0.1607486208054833 -0.095339903487399777 0.21608901241106959 0.10617406821071711 0.097601485963963688 0.051183833505428662 -0.21429791069844351 -0.037841097511963004 -0.15551974883776887 -0.15526003998464646 -0.14827082799504349 0.093023414432277268 -0.082808995263446525 0.19574269230086538 0.038898680687994125 0.13196883467245735 -0.021940378249852691 0.17844212660982689 0.0341335408547404 0.0080505287625481474 0.33866680652866876 -0.027305680612560675 -0.13772117867505776 -0.017857150401723677 0.077347926741856199 -0.19718314231613276 0.19514662962198293 -0.035985608083346998 -0.11724605169388301 -0.057063158217215311 0.0025048950472946023 -0.045883037511253458 0.14963908428515904 0.10850115112641294 -0.16236939826591337 0.23341573110382993 -0.040572975157521118 0.080090576840820438 0.035285084554256239 -0.10490503401436761 0.14674065224097479 -0.052041022005338541 -0.0060625859749814538 -0.054623368271117675 0.13409406402762963 -0.066613916338043172 0.068506281427793789 0.15363689750274515 -0.083364895713245207 -0.081650509864217319 0.016713986982227737 -0.041297956919742369 -0.15472455757119769 0.1606728753793617 0.025624465947820186 0.13311895994350925 0.052628766423585487 -0.10270318374313889 -0.075070965817815971 -0.011582811689161166 0.014994095480497066 0.044073094159229838 0.20913554139322368 0.22634627871915147 0.17397409616193213 0.0073484106899838163 -0.056053627893465865 0.30665566881001088 -0.12572673855719571 -0.12351423975174901 0.05497522071319659 -0.1906471705599834 0.25690738953022385 0.11238301107579994 0.14571988531113819 -0.008085470633621434 0.0088280843527348569 -0.13996956824374554 -0.12763836486449884 0.18549656382580054 -0.069961466724929491 -0.1167425916167311 0.20704675408606782 0.074165129237313596 0.18394031344298539 -0.049857746901372062 -0.2211608101385768 0.069548128842873508 -0.29950095012898498 0.094066530024680087 -0.020483304591786992 -0.052786493359569975 0.055471083274951601 -0.14135853738820023 -0.024715199180356941 0.13960414994065912 -0.070527330550896675 0.00285990582687542 -0.12351482743660624 0.020824526751855147 0.1339837309849731 0.069227046295898167 0.046386106290573485 -0.028709077104977585 -0.1348258736587826 -0.088040419832073169 -0.0092018795106037048 0.055307076647444497 0.14101013947708077 0.094524276097053203 -0.055621174935913287 0.055813685158351722 0.1255974383682201 -0.10240344178168248 0.10161465590399336 0.243684562232476 0.059840229785770381 -0.047888273071043833 0.020281190874385763 0.051138315432783729 0.048741429212871945 0.10828870084175217 -0.03007688741788369 -0.055646444797502768 0.034959513703795325 -0.064303692885253116 -0.036325325690212296 0.15039901320300006 -0.10186078841405441 0.031249697703087793 0.22699458238060796 0.052562738278556259;0.11686618276110675 -0.12963999833815226 0.013643483211026536 0.10277624812290935 -0.13406059345562676 0.0037251175652343888 0.037465488012468642 0.045904868149788211 0.10421069256747008 0.12585392403751222 0.011956223484914846 -0.03544883095689931 -0.087229497045129847 -0.17865272961348563 -0.078827515040943472 0.050939528842119712 -0.068638366886949603 -0.070522035962968868 -0.18324187567554465 -0.13899186304979452 0.030175360212109321 -0.17044702014332477 0.0065827827855938397 -0.02504771672652472 -0.18819897285018791 0.17524783935286256 -0.0066008781076388381 0.094783003004975719 0.066854179044094908 -0.18369115090551713 -0.15430961349650366 -0.19051631935577068 -0.20214904871723893 -0.28512591285150213 0.21943996418041856 -0.10786675413971762 -0.26975021813296562 -0.048855007176784732 -0.080198458888364507 0.24023022612435016 -0.044122827126196175 0.20388444633986816 0.32710240067623308 0.36123005067508873 0.16187877015096203 -0.081432752057532212 -0.18523197294282157 -0.2433774031672567 -0.15018328736262793 0.089207641033848539 0.16442036614338965 -0.044885909520589774 -0.035896980570359199 -0.34747823460628996 0.14819040099506905 -0.022704152338561191 0.29795642971169645 0.25403788790244469 0.34249080084660538 0.042935474048331312 0.2104799207401066 -0.092634798777012486 -0.17041826865355442 -0.39712907767244049 -0.045746789251718378 -0.060839654556628757 0.086808841054819924 0.22120273959949005 -0.1335657979064078 0.015227201475241949 -0.23383147262173681 -0.040410289410325193 0.22158212648435763 0.30074585256725639 0.10025900008591587 0.2343291262526957 0.23540561821978467 0.086446073663515338 0.22446388806483791 0.045743724567996913 -0.021137988791317858 0.030686089568274656 -0.16241440534922549 -0.16633729638633349 0.15319256857578487 -0.00093143211144659614 -0.089564954014010351 0.099086958336201916 -0.046155347220808815 -0.051683912907518066 0.10692645190885763 0.17908792807336146 -0.011864854091474164 0.26206778965674976 0.1291385086925633 0.37783193676365895 0.078671296999379761 0.30810461007027712 0.077468305108475466 0.0084909804252534301 -0.1078390832326296 -0.067021874298959366 -0.0026698500372009716 -0.045301861967873086 -0.11426290897020738 0.15377799996910538 -0.14301219048368954 -0.17386517496685613 -0.17647937476695172 0.0095323390681486785 0.010265361656082137 0.16543592726550818 0.4015361710567632 0.23696063816074581 0.033877794116404597 -0.11136987077201857 0.27153334333070817 -0.071978856066443317 -0.015292125080616455 -0.071226164591972826 0.10466639926348031 -0.18460128514068355 -0.081660909815895105 0.16459383525183602 -0.046141812688011812 -0.0058546388540086248 -0.23647870499422063 -0.072616981973189138 -0.0062552636467425021 0.23381054660032879 0.19857641107354995 0.27226753731666126 0.11508615237868397 -0.02541599770226715 -0.16444697887807166 -0.10538081799070605 -0.12941915885666622 -0.13633987615657189 -0.097885029881123325 0.015059470020419642 -0.33635811910369923 -0.15225202051072706 0.10097653298994071 0.025550068805864669 -0.039228090530757737 -0.15489975712124815 -0.020280868336294527 -0.086276807442149495 -0.11910952989803583 0.12150368020427067 -0.21772469915686268 -0.18883359242503708 -0.082813772238513911 -0.059352840466035874 -0.074100616543328279 -0.17998270071559738 0.035820045942249808 0.072906356776035158 -0.0080828114048600089 -0.03224217691167134 0.025207965866752738 0.16540126985498732 -0.21985768608482889 0.01655248221594588 -0.097141554724331891 0.14432841465366383 -0.17942730000518217 -0.025995193165655631 -0.0082356652034783918 -0.16682046719200111;-0.29380771119893362 -0.097743596751374728 -0.081888772444285121 0.013637067571548917 -0.1275692902733308 -0.1090438376144391 0.17988552710236183 -0.3052863923623399 -0.2206806248537882 -0.21098919073544004 -0.076947493963416269 0.13581223265250975 0.28337237468836696 -0.16240163808295574 -0.3068867326463085 0.1251757270304385 -0.18146940113865004 -0.0093303111574037419 0.091972302818660381 0.042347595288183396 0.13628551046630538 -0.12320512113849313 0.075620170634978376 0.23147905375563943 -0.09091277364717075 -0.16627707288708801 -0.1334120882306834 -0.11355644406857683 -0.15112687922401408 0.12666171320768235 0.034704519006262508 -0.00073409687902030885 -0.16507258078233616 0.053590292806792117 0.050049663915622308 0.17020986249138781 0.28817695997817344 0.35760818185453463 0.108849356021799 0.098115544085389111 0.53787385851533309 0.35871854361453781 -0.045052125543295796 0.27378561275059066 -0.019761766175772071 -0.047523827143259929 -0.11636639170546299 0.11603558118512736 0.30747023441686727 0.1567227584300448 0.15962897351180011 0.11289096071020015 0.1197031459589579 0.24975991290246363 0.018398167217227784 -0.14316249471781539 0.087759618056963681 0.21153307806013807 0.18921183293010418 0.34404051468141839 0.31954938473520378 -0.20547962646667339 -0.34756283714860259 0.14410556718243159 0.084247336127524705 0.30085877111995291 0.047940875258632332 0.067537379256514082 -0.01578082331590118 0.22579296674614838 0.20607626156489664 -0.29040714241694687 -0.23517070234418835 -0.085725445478194079 -0.18059441124679404 0.18875563540288443 0.30334988458299478 0.013546277077185795 -0.17599835314220308 -0.12196665512657164 0.1123009498313194 0.096228526107096951 0.074495068280295659 -0.094007957955674182 0.022435244451423274 0.0046918620256497868 -0.022834207823231985 -0.20776945323159732 -0.048403104357911182 -0.3482306174943266 -0.14121804151530676 -0.057887600963031471 0.066395429684355703 0.26226549599721261 -0.2283003280291804 -0.39159992956417 -0.20716365962580877 0.00080845634268490252 -0.17919071712851381 -0.19266483327667566 -0.050032805119323363 0.19381933230417481 -0.021452978688455721 0.061596891349046522 0.20909714347845512 0.047663841107934049 -0.23633978000231318 -0.29846250103528621 -0.093750130916006619 -0.16302265117605783 -0.45786371923163449 -0.096221933867801937 -0.11108718935866956 0.090294348702150903 -0.1940428227929972 -0.27466091670150405 -0.12851217137203952 -0.022834914031582887 0.11056249780622047 -0.028318591061064415 -0.033234642545648736 0.23325120013943462 0.1682474009056617 -0.28941246945590804 -0.29821912554516022 -0.42781245292340975 -0.32283160085022428 -0.28326600947066516 -0.018574761826655618 0.064796911757314501 -0.017583666761159539 -0.10702875760089829 -0.04633260556703192 -0.31723048473922172 -0.01100477604737045 -0.0066954716687457694 0.063467041317351786 0.071495360120864854 0.30745760394675964 0.31741050180639069 0.10416983695019665 0.059685052894651147 -0.15519770878300038 -0.015394595062523124 -0.13611934485200239 -0.040370929465482083 0.14366020162139007 0.16416005877754097 0.2784918275319152 0.04053923376530278 -0.033377626317194757 0.0225147638265209 -0.20852222688761596 -0.27473037640469233 -0.10010170668500391 -0.053887580285436817 0.050622832289935707 0.081694365403540525 -0.05961971835760338 0.15035942452460876 0.23192065455046962 0.029563563133923394 0.10691744225064033 0.14529582522594692 0.10955693968611536 0.18574490421220452 0.11187349657714314 -0.078443484752024562 -0.12275737260942272 -0.028244215890489182;0.13237458734571889 -0.091374113193284839 0.23394838342067645 -0.11295028119792701 0.15496064559921544 0.1423103997057778 0.10945507511606102 0.40876214385764553 0.26535489397558482 0.12075190990699702 -0.15053200029441993 -0.17323037163493096 -0.031433480160841888 0.2833899901108724 0.017540880238304829 0.037611495491945104 -0.14681351652108648 0.10397811127249802 0.037330193795423391 0.0127221862057609 -0.15123486024229954 -0.048337061914438664 0.14445591086546786 0.36908890639222947 0.42942233062251434 0.15478776257353721 0.020920408441454187 0.0025849327313126735 0.011039739917543959 -0.0071836096714292781 0.18727743868125404 0.071125498555196759 -0.054051472834729393 0.015613331987660854 -0.16275480025889019 -0.077819596384466838 0.01941914869372572 -0.0052065590858672919 0.069349074986679859 -0.13810613007229408 0.17178080350225555 0.038453603741457301 0.14892034541621768 0.1849187241313168 0.040674934241877903 0.20032775351807225 0.098695398532208711 0.10892362259830723 0.036899269594880817 -0.046843669147896484 -0.084578399885792577 0.12368319560232879 0.10907847042978058 0.099459336692304626 -0.12644758581887114 -0.17108220629663323 -0.026920021229260863 0.091172080273685757 -0.19179646826544158 -0.22111672285824838 -0.15553632711260981 -0.024217163522227164 0.085756218038568338 0.18076393958073872 0.013296437439634805 0.062309893286882842 -0.042647828803663634 -0.099139634875112501 -0.020762313951091769 -0.016988737813947056 -0.1952198830797103 -0.18381683887026604 -0.17620325737042203 -0.036889454276539974 -0.31452723659654447 -0.11939200287682836 -0.30248020189293584 0.03643750608980495 0.082208793158899202 -0.065487276151940485 0.14116267043073949 0.14853158043336256 0.28190051462703297 0.12350739221855578 0.042842900959797439 0.079284141688717183 0.02552632981279658 -0.17119803808259784 -0.11732934965055652 -0.013226333251703453 -0.11050866100783596 -0.11763612969281431 0.04895704117107158 -0.13346264644551126 -0.015032013274566611 0.071543326657508885 -0.28209388495537602 -0.21208586119713135 0.14061577621426299 0.13557841008209789 0.17129943459166297 -0.12633850417375911 -0.097766313319313264 -0.082567519653480415 -0.13378899053118232 0.071725151103383081 -0.17510404743438587 -0.20544395295178627 -0.11350269514793536 0.02679974100243088 -0.29355912664219924 -0.25625906735650189 -0.20774313521113277 -0.27026952762168349 -0.19024095535631624 -0.021621788013164698 0.10554342733547098 0.14416836826537119 -0.12490353279400616 0.045748125387737891 0.16606733329314838 0.027534915455465981 0.11360877753018077 -0.090303878393793266 -0.18653236764541123 -0.024282993063577354 0.2098019647907155 -0.045264104924921285 -0.055100460107412402 -0.19538378383290073 -0.32105492941257469 -0.25038098237641399 -0.088546571055296772 0.019199706468471446 0.17765957116292228 -0.19712188522904597 -0.079767589922493193 -0.083847619204729926 -0.21270877139125882 0.25471203021444805 -0.017143872129088713 -0.14882896766928888 -0.19879771795882575 -0.0034809791311548616 0.33258493666231542 0.0064194739616530716 -0.13644334847211054 -0.32287190573440294 -0.1263869898698903 -0.20985336014652359 -0.23659424708323393 0.11199217207307202 0.14463494937881241 0.095083873651606352 0.0063988214273497067 0.10971151587213414 0.084037484725115172 -0.27903184689497079 -0.10896667678635984 0.18545813147659693 0.12059845974578008 0.16409942205026098 0.10739406445973021 -0.08094828815251047 -0.17236559896034614 -0.045814606690696584 -0.087506455675420966 0.13452272137400176 0.045518020858159071 0.12660129924206476;0.12251914333402224 0.0020106174026467117 0.10094517349954674 -0.079479073043487128 0.12843772005255694 0.02874124362393719 -0.18780364806825778 0.049545787143154156 0.17036689783170811 -0.074961429099116947 0.084703485866648665 -0.023200546348024598 0.063247848845231783 0.044252025945030998 0.068245079833087516 0.09295825807087682 0.14730379513931338 0.12764259950053572 -0.037086477386271348 0.17160123861896712 0.15212601411583904 -0.012068118235559731 -0.17006842810275077 -0.13484028602159812 -0.32727210123179229 0.12026995144349538 0.0087428183463721804 0.086919565036862337 -0.058376606829554263 -0.0053007486229875098 0.018404838787848238 0.10357630166527138 0.082352683780507988 -0.077209559425718985 -0.10622834932328577 -0.11786907440199196 0.032922856947211324 0.083966430556743132 -0.10536650152286149 0.080952556297195416 0.021827896373064013 -0.054566447382264328 0.084666182057929446 0.1634479038410814 0.0054526289115375678 0.10720414968696318 -0.064740597267536115 -0.18936799073058699 0.0033394880291887823 0.1285406425023698 -0.088709085876888416 -0.02504192980627009 0.19155459897862567 -0.068922996285480029 -0.099527952528015468 -0.051314959276198856 0.16245141699915411 -0.00749575346300165 0.1738371608639627 -0.061314571092775605 0.068956251617065742 -0.10201583029781378 0.080248214108465166 -0.01636182324198435 0.12003177142333164 0.087718614914954612 0.15289828485955806 -0.14402129247588541 -0.2002850568518261 0.017517160256457741 0.28251588417165013 -0.015278756311202558 0.091124617827416543 -0.044735457558738201 -0.14485640325556171 0.30098266271584989 -0.1398497869060199 -0.26319258764872855 -0.093745280616852084 -0.067248880889648963 0.034290374522862224 0.24224465432405101 -0.056569306605360394 -0.04408997283004757 -0.0028141163956429422 -0.14558667688216684 0.089433988937464348 0.18463389687605686 -0.11685524033347995 -0.2366767180805765 -0.13031950779303467 -0.053774815236471117 0.11426340481221256 0.024169286610637743 0.018066055632615832 -0.23060030647770621 -0.10332590839144978 -0.09610015987103826 -0.041851371816251356 -0.035635640770836426 0.15732526667809837 0.028847421993901501 0.13638213264284629 0.092290802449320294 0.12689281803678368 0.18825652131501169 0.13474189718610288 -0.010368689747937315 0.029825572596015835 0.011742234912077728 0.15469024043232121 -0.0040283672721210476 0.16452792228386756 0.13263477116448005 0.0003000124779462569 -0.05925711219515515 -0.1718787649979536 -0.051501040966516504 0.043163216156585554 0.084117306980002263 -0.10883789697736737 -0.01075597409658675 0.13282000741324135 0.11516693264470843 0.096444663530196886 -0.13876883551308669 -0.15321319289282484 0.074959238298528671 0.074539284673929673 -0.14578361082994462 0.19872501965485889 0.076095727937455934 -0.16682593573659354 0.0080036859841009552 -0.11934064559071589 0.0066220204114220199 0.067426027688091889 -0.056629816138973429 -0.14802426950041733 0.17743825897941792 0.1151130667306943 0.14427549936312395 -0.17476347732148942 -0.17316514117357856 -0.042894076039041919 -0.18542003170852975 0.18644917113548037 0.035646879630506001 0.18652485913345931 -0.12889733504961004 0.0049059828580812082 0.1560935402440094 0.15327748448499942 0.18694160774931939 -0.16300170718522433 0.015804249097230081 -0.088581367949165962 0.1708145412374068 0.13183835784180531 -0.045942822285869579 -0.098422273402413094 0.23342159480753583 0.027176739617674556 -0.10298010722061467 0.081353429981663256 0.18196542485453165 -0.15792795651003527 0.075601642540417485 0.054829828482012066 -0.16305588211225472;-0.0041794548340008345 0.018271467577528601 0.043269108485521908 0.10145431589357025 0.016216955549966269 0.23165490489797252 0.23827554693139799 0.59098015053520037 0.51620061622162239 0.23005842652426903 0.16787680861357412 0.26672050514824591 -0.048274136008361321 -0.0058184195937957661 -0.22387353885318073 0.075016510041139448 -0.13508374998138079 -0.20761706609377203 -0.093251412437690764 -0.24800446286334291 -0.20127959549422847 0.029685515990675489 -0.03921780421204539 0.30435925243805007 0.53543333609919375 0.60162851489966052 0.21182173424896375 0.098256267911713643 0.1750465219638217 0.23852806452323877 0.055047483132797052 -0.22029335249390741 -0.095863283032884952 0.0069786754580484249 0.078835864874685371 -0.095810044872532391 -0.11779491374031811 0.20582623428901783 -0.18383172592459296 -0.11675105449206115 0.13751389606333653 -0.053611538792676501 0.181960788805755 0.4134694880111075 0.14005868114011785 -0.013916617155037059 0.027067498839465107 0.080384314521045719 0.017965317038441418 -0.065831832080322075 0.069457571327267112 0.085705866556612872 -0.19385723471756766 -0.10834377619827418 0.00063254423333811757 -0.023550766508583496 -0.08472825160046632 -0.36778058541383724 -0.34709594493971169 -0.17297047226225853 -0.054565314104413051 0.14012083723798913 0.016100664433070306 -0.044863627658426421 0.022910024248135142 -0.12662059089247876 -0.021953937045579408 -0.031200928405780894 -0.10605059692846232 -0.24681859977191567 0.031619095148132395 -0.11586686177734073 0.054622785995960411 -0.19676958149704851 -0.42870370460899604 -0.22362762389412977 -0.5062320021415414 -0.16687785894640536 0.062509117220674315 -0.29026617937574761 -0.11115705676068868 0.083630929569965262 0.20846173536257356 0.20407231452882718 -0.046873579293606478 0.063484980200186905 -0.14973996012692664 0.031198390640087371 -0.061677612802469577 -0.19154282104452094 -0.39204848062226266 -0.35008308783476166 -0.48939512794117324 -0.60797062342019237 -0.10480538236975374 -0.20629610545242338 -0.015553245539244078 -0.10519266888167955 0.16187460724671826 0.20150960357635656 0.1450660897772417 0.078582907419985859 -0.083451825390368911 -0.1297153585506563 -0.33381035443653773 -0.076770737702579542 0.020087947538625146 -0.069372854014912486 -0.44921606768568317 -0.12128944574561742 -0.18217545335837956 -0.079453494722907608 0.045094107811537804 0.11716080071214069 0.069399304190711233 0.21410395881198155 -0.20346496308408862 -0.15219069685711156 -0.27285489469439234 -0.19869906778416807 -0.23444870624968125 -0.10614669539530874 -0.040566144630661265 -0.16073296341485718 0.25850128180825777 0.040383464523691834 -0.114209222322605 0.24390684798851814 0.2476695003952844 -0.079247220546726074 -0.046724590090299258 0.10827719048111474 0.20407014820797026 -0.26897774732783186 0.016861407525459393 -0.17696284798612241 -0.04993053471134129 -0.1435163819725043 -0.22372785366774511 -0.060357496710697421 0.1083129223466946 0.11375977293163962 0.0515472083509445 0.51853208732395062 0.42171325913917218 0.19102731236233816 -0.10666342754078466 -0.1666844312062532 -0.093709095260670006 0.02114162064251399 -0.083116450861955529 0.034243641644789574 0.077376695334107876 -0.13683322023620431 0.10645238783106838 0.13682883160458739 0.068874467788279825 0.19336972277117406 0.29389732913556615 0.48368190884982193 0.38846122744320383 0.26276268784034279 0.20213901471918611 0.076593241257541092 0.075614054430777927 -0.034458756119520977 0.090084864580093488 0.09422093064037422 0.16206402724187124 0.073890472722565548;-0.11878394278137773 0.11484481060262557 0.095596384866787801 0.00086567472278811786 0.008894062260818061 -0.10999637231614126 -0.30693047150576164 0.030497900250056845 -0.079905835473918913 -0.10475544488945837 -0.18483684574165227 -0.20675646168221096 0.097732058936894517 0.096868937949037601 0.044010160954102283 -0.063306825240017572 0.13298703551687319 -0.096782816362272414 0.12456594916590492 0.1499172388095189 0.00046436345921612669 -0.30640504860424533 -0.26512303109045482 0.0038783397536171641 0.045821651563337999 -0.027501497212708857 -0.29173095379580322 -0.3074030932316304 -0.47330965263088376 -0.23797270454526612 0.055208615272682005 0.43454282816687434 0.17728220373550585 -0.073894576784468799 -0.13225500939750481 0.051024051428850352 0.36683791795829401 0.045919834518248617 -0.087939206775552475 -0.072146575763218229 0.22163496622386256 0.16865874486935314 -0.11618638678949617 -0.16409041529940557 -0.22359136134416166 -0.34393495701867371 -0.0874894840915178 0.058440700532460921 0.30765140272749136 0.20898480256602234 -0.12886094386317654 0.030407207260470602 -0.064785042652851163 0.18965690806067656 0.035682278899050686 0.046572693939190835 0.24368890445033317 0.35795887658131875 -0.078922867390766885 -0.12491120903089382 0.051856204344037801 -0.051648374382960653 -0.021028067158306869 0.36317400988119808 -0.008634645721507744 0.011018530445174059 0.10773333115480903 -0.11354012763807043 -0.092504637088870537 -0.16275393061568205 0.10437379145012567 0.11224696453118001 0.22701513203857648 0.22985542091183497 0.033284709262053964 -0.32942628092029458 -0.23357022259103299 -0.024971166119370003 0.25254123769566572 -0.036010431217712004 0.040260693815306586 -0.031912926654958512 -0.062064772271820078 0.020068631688249045 -0.2061521930411456 -0.028293176067868089 -0.15152150215870061 0.033238923808847243 0.19590666906590659 -0.060322592334642683 -0.11751177219512401 -0.019796095142578643 0.03160724294231914 -0.016841316256047418 0.20816936998896488 0.14621858680553768 -0.12354978379298391 0.060145091362260879 0.12794863484247426 0.021059022399176168 0.02279322310804479 0.21320664391859329 -0.092711683672675835 0.13196045991386041 0.32332246304036338 -0.11149835954457296 -0.25140122841669638 -0.073569733526421988 -0.10687452125797905 0.10101755340434224 0.056998086240277857 -0.022587051803037436 -0.0083018872918698954 0.12827045017889221 0.30445896031179814 -0.0036751982169567015 0.00093505774415539398 -0.079000431488646439 0.067240140239337776 -0.16678940474106482 0.27071159719178611 0.0998545561528391 -0.14978432242334194 -0.21265297563147423 -0.46113295494794826 -0.098139796575775859 -0.060898162247497445 0.22055655002062383 0.26567477674369183 -0.083410814626036459 0.13822218916617698 -0.087416615264633846 -0.18725950854683923 0.031010910701094324 0.025266267385423147 -0.20129698046647082 -0.062731606091761788 0.12657512795438741 0.13941800786879036 0.34759945480777343 -0.045230848993941593 0.0072098801061900386 0.11690939711503069 0.027933450680279304 0.32800274645355282 0.028151931027020991 0.0052820105598732035 -0.16836562649934339 -0.044988781574834102 -0.14556528550692421 0.16729467616555063 0.19516436250224511 -0.34091037985583805 0.049756938080482614 -0.040898448968898424 0.27935832050268034 0.24923401682016719 -0.13478945884755539 -0.083446602224481567 0.067796066687919654 -0.02233956556292277 -0.060755697954946133 0.10080520588052361 0.14653518758403086 0.01020129139309376 0.13791184470587328 0.14176982502515612 -0.088676671309859498 0.13483965666074155 -0.1322712877164729;-0.25660254809685656 -0.14871269088374336 0.18896560280252966 0.075432139060285744 -0.00325597073124581 -0.24911836128494186 -0.2049631838236175 -0.070652969946881458 -0.039398535771404897 -0.069294113709052155 -0.34081687540270184 -0.19127269818480633 -0.17619240814162423 0.15119956901288675 0.36617003421886568 0.24125617188155998 0.077737666844875597 -0.084180463076663117 0.14253544810107738 0.25439739234529796 -0.21294979805876119 -0.12170062979195101 -0.074185083019335768 0.30490137152408209 0.1305516573216717 -0.26980372780251433 -0.35525137216617675 -0.20639383919621848 -0.16661618609936479 -0.038457233576192157 0.22512072547567111 0.27407912627936626 0.08369321604637131 -0.21101992227085314 -0.015360793375285578 -0.14215504465056752 0.18135207157662664 0.083079243752541068 0.22562704133745401 0.2882514224499424 0.0046667212990079473 0.02016227870059456 -0.13134267679609488 -0.24959909918707193 -0.15755823403414179 0.00026617260901460639 0.28875252962554576 0.25657773833314762 0.097855744577535764 0.027948236420659665 0.075319247243197177 -0.10500526891288416 -0.22482314522626468 0.26278826247952558 0.22755742322847963 0.06292074901725711 -0.22572026866957381 -0.11114018971515831 0.049142139795138304 -0.075835963320854308 -0.13544178602127255 0.28923324297615161 0.32046117468001667 0.16019325980103927 0.13031266364453975 0.14911034037478282 -0.13175380330243611 -0.0036692579084637465 0.017061774990977913 -0.074276486023716407 0.043747093371360221 0.10722201700216642 -0.20143001396836255 0.19813861791113199 -0.039581525441221774 -0.25899207779714101 -0.44363445400139023 -0.12180952605732695 0.19381966383837909 0.13929046152306127 -0.041398695942910957 -0.057910225718412485 0.078591854352153823 0.018580503271734803 -0.16032952502733999 -0.00092819577177262035 0.14080906783469982 0.0055948461026864805 0.37211985129626574 0.037642240070673419 -0.037272950493244521 -0.23699101344476114 0.13678906160397225 -0.35869418178047735 -0.17902586846134988 0.21442481183599943 0.27252964641438654 0.077579286720122015 0.059232060497114054 -0.054636472846936159 -0.10661679610324347 0.33992760747739037 -0.064823497853147047 0.17476329416587993 0.16903966222186462 0.26665407007237102 -0.020792932431136068 -0.19249694525312325 -0.1953124892534677 0.14857280361079606 -0.024493929269839336 0.17754646400701077 -0.15129276699826774 -0.24057728384803406 -0.02250149942766741 0.085095028106997317 0.02214809389270303 -0.063493723475584657 0.10445845079499393 -0.32532282463326551 0.40612296976598078 0.23847529652816177 -0.10294565060735916 -0.17689057339164213 -0.20056800953493339 -0.33572950109027117 -0.088216353057684063 0.14956694696710782 -0.19256755392078462 -0.33271433731774736 -0.2417072192818816 -0.38134374688013051 -0.049671960534686643 0.043635692605216991 0.32412263717417789 -0.10924649123537122 0.0068693010684393986 0.058102265543680878 -0.046290089279193904 0.18218080591157521 -0.13567155492831837 0.19917145966982872 -0.038937482858393935 0.29497222803126671 0.25812348313891181 0.10124610556363378 -0.40912216808430313 -0.50163610235192024 -0.46492887100415281 -0.12469324376447803 0.054775335689200046 0.066937922134809286 0.0011001634071413904 0.13638951785374701 -0.18282456640029604 0.34704987520074571 0.11591069330994541 -0.20493192296805979 -0.045730195134829878 0.077718301248185309 0.026180284436762395 0.24994397789516476 0.037716335657519758 0.07081629878717105 -0.094844322071626089 -0.30093205057556538 0.22989119707666653 0.40109144040957967 0.022708194144153628 -0.12920977774403583;-0.098996949848040236 -0.19961159027476963 -0.081965006433788234 -0.21644869101862371 -0.19255463768652503 -0.20010306067894601 -0.21381937210920324 -0.086515983303958655 -0.010210112044889405 -0.052648685165926724 0.1266565642113448 -0.05557755652646678 -0.047527499475254961 0.070861451080878338 0.12278722076368923 0.017329460107829101 0.011080042652043856 -0.029612313757822334 -0.13762408632700304 0.19657508301924304 0.18044903095235681 0.24989596981637852 0.25612129182559257 0.0059153386350568335 -0.1588289911622833 -0.18529983867265637 -0.075757748549715481 -0.3980005541493018 -0.24904396355189778 0.03019762047581449 0.37623645365758551 0.024563872540158339 0.058022848516646193 0.063329991067476554 0.05272064819189886 -0.0065549163769381439 -0.082805165801004443 -0.072105384374325399 0.064449881583344998 0.12342569801793812 0.40456606484187635 0.1772933801149251 0.019986189275960468 0.0024557541166608378 0.019917276058606635 0.0013628912181993707 -0.096131620513533356 0.13207936353413999 0.29851155479938718 0.017036956827713473 -0.0019519960086355663 0.17121966416981332 -0.016202013678841221 0.28292654034774523 -0.14957486088535257 -0.066414980329254164 -0.067453640503346207 0.33318651033919039 0.41947807457976277 0.07573248266530716 0.52515931488565137 0.24503197413475503 -0.14127324491556781 -0.29204846946702967 -0.16162250217972274 0.18775702200721467 -0.031437755064042942 0.1889899602462434 -0.15172852816094784 -0.064202386037129189 0.012418962154806402 -0.082686890414410213 0.16082522778483849 -0.079997614136141523 0.23774652013762085 0.23656723093264448 0.042637259782627633 0.40461554683574236 0.41244335668766052 -0.092893692118790366 -0.059624745894994981 -0.11766685116953833 -0.084217147010840335 -0.010687977432959633 0.091409371203238929 0.020026100307567338 0.12134329746032359 0.011741030160067126 -0.057182428394162543 0.097419882329668056 0.056121560217614032 0.08657907891708029 0.446255790407521 0.28427340322340383 0.13513314625685241 0.36790220894998149 -0.15120995484812647 -0.16978434769256748 -0.15300320025667641 -0.0038160982097634466 -0.13154541461762867 0.030850131735302794 0.12998096336075829 -0.0657803989195756 -0.19704532028544666 -0.26458746425285462 0.075277483547471005 -0.059034545491694145 0.17175110587940795 0.007457017940826989 0.2956904330157954 0.33610017266339559 0.25576027231392706 -0.14817367619163929 0.29034198540969774 0.088864194508169736 -0.25961826335968585 0.12312855983447786 0.066630114586654965 -0.11150397355577614 -0.018402317445304645 -0.077675708345014319 -0.0034631084410716986 -0.12300643400877977 0.034508368862551819 -0.11750256129180875 -0.012144548881732676 -0.080763407366263473 0.1187158944331527 0.13071834259068946 -0.079786719257311622 0.075396071901440986 -0.078490937324092014 -0.12131169940130934 -0.14993171695849006 -0.062704361982148654 0.055849587309038301 -0.085984547175951664 -0.066143669594524529 -0.030175902651722247 -0.23899351692671139 -0.108916220828996 -0.14985443606163273 -0.23415664911932454 -0.23101373006846196 -0.056098509375871519 -0.099241552904560854 -0.4288618148924252 -0.10368681738418925 -0.046119259234978977 -0.063011016626360175 0.11828495458709708 -0.11056133378337467 -0.13315727526045429 -0.07710379877880047 0.16224497376249669 -0.10671240325562442 0.12467611084653565 0.17670892090504042 -0.034340924318821749 0.033831645226656583 -0.091367292546902693 -0.09538035829728439 0.051834449508923477 0.055841520672975813 0.23609066346101065 -0.0068347904086504159 -0.13113588455313019 0.07968279770169219 -0.1576282107890348;-0.0083520849446378775 -0.083858981774150937 0.055744889322459953 0.085138541608112892 -0.0066708300515243707 0.030815399492945282 0.15731211198890466 -0.027341625123815751 -0.00013961306543936814 -0.017092755241260117 0.1956246804027198 0.032717027365365359 0.12495601324794349 0.13863423451466697 0.075176488197475591 -0.034780155772416686 0.10673526862273924 -0.058672057778041506 -0.0072039502016699496 0.089960469462788809 -0.037889171568037401 0.018519064496914581 0.22045342600960333 -0.16696559005106726 -0.13967509267790756 -0.048721520164442866 0.16599499253977151 0.17437000824565466 0.2977129001835489 -0.032819529653052466 -0.042416127021407402 -0.1975753278648669 0.00013141114559067114 -0.24805866400428925 -0.18259910669354568 0.097544337954573096 -0.065655845173059849 -0.12516836896113417 -0.16886706780375096 -0.09977930714278678 -0.29213405797108222 -0.25632348881504513 -0.35955359056220038 0.068315872944630193 -0.19845769811799355 0.01977643471041788 -0.15154676981827156 -0.16256473929156137 -0.13416617722927726 -0.036292297745776775 -0.29305169413466137 -0.087694154939728736 0.19465574314133843 -0.010507793431087008 -0.12263835065977771 0.15986475088174643 -0.24401713759410296 -0.53279908515761065 0.029492647901901162 -0.13792242822413736 -0.11090614324214579 -0.13550048458758304 0.12441843362756326 -0.32250148806793222 -0.12490223055604258 -0.052491408865545167 0.15526319389701607 -0.12556446164138385 -0.12078224504932036 0.10605486903782102 0.16465296037876734 0.31612123578522466 -0.11833165812885037 0.020450980493250687 -0.11506473681741575 -0.072526260976396098 0.12578785218970789 -0.03553400922926097 -0.077892182437084137 -0.1712408825040197 -0.064389983569928685 0.091254849452940628 0.1470656604537631 -0.034723604261066049 -0.050913506349265593 0.030729285631003099 -0.038214056932563356 0.055508777723462452 -0.13562665683691799 0.1927898358521429 0.16951919024871814 0.15403133197235111 -0.0045413372168957994 0.088796471503597957 -0.18299628105163052 -0.13623755286521275 0.061988353872512648 -0.2460782046533852 -0.19874534596595236 -0.018471227127338459 0.26392963759709115 0.19373503266136238 0.17856823526562565 -0.19345452347152847 0.036940795745893339 0.014507241451594254 0.30389218883301189 0.39663968929408072 0.22930055833897869 -0.070613313276173845 -0.20147057020770395 -0.2372830995587091 -0.13535321355093233 -0.17204695700007461 -0.24855450240146845 0.13017967869964964 0.074703673056715325 0.33806608257091098 -0.18858380362574706 -0.016722914353414567 0.13287123152050323 0.06920123017824005 0.10027350758013832 0.13107355589187697 0.31516759600309985 0.096933123132332946 0.12375062334448293 0.030982810917964371 -0.17076989051578984 -0.10524289856163484 -0.020063272219197095 0.16856156825016708 0.053053268293588932 -0.1070402223312132 0.0041004160910612939 -0.051410064730883817 -0.066823976670039587 0.11724696772911476 -0.042829777364848914 0.19890388739019096 0.1174657398402752 -0.048126517420187892 0.034866922474072866 0.10523211228958272 0.070988464497426351 0.062860727610104708 0.19328586464179673 0.26857882402398281 -0.023800501482050609 0.062460727836506587 0.062056657433051138 -0.19889320592973239 -0.028193863834290605 0.22080441614551033 0.011476122902756297 0.19935458560145022 -0.27526747073211749 -0.0074608442612867972 0.044004938223840932 -0.06165668971737398 0.048311775379121541 0.12801475148027253 0.24043293151250839 0.079306681885242661 -0.097851927605827393 -0.018301269285605937 0.1539523320059322 0.19537390824744663 -0.044108310570835994 0.084131687905453889];

% Layer 2
b2 = [-0.67191752734203691;0.87830338526545304;-0.5615687511081765;-0.64923502321748272;-0.078158781212256584;-0.17598623917280165;0.41197800901004134;-0.47072322867626576;-0.45477605510259689;-0.73851487764747969];
LW2_1 = [-0.61038865229450456 0.14918485286200456 -1.7066455832932155 1.1524284616476652 0.36896223264426031 -0.53256889042473687 0.50663184315445497 0.42388347670612408 0.61195587461820122 -0.5124475048017374 0.039747945669372731 -2.0125463689118797 0.25824823846778722 -0.61627199932569998 1.2512100865488285 -0.78314783380874886;-1.5229222565012697 1.1852168462478745 -0.48453943912948366 -2.1234296057700948 -1.0093935984000215 -0.18126013601617563 -0.60075457945175159 -1.0018642946502159 -0.1397238464462153 0.62786985305315468 -0.50854008098549031 -0.30492500673314171 0.43882641607277106 -0.24438805658105331 -0.81412083396429635 -0.6573801930002674;1.4373684274104139 -0.09882306198405344 -0.42867443110942777 -0.67171442113568947 0.75834482744826692 -1.1716415955304176 -0.13959629877906213 0.4091757392895668 0.81039093603893397 -0.5549765548203045 0.73065301157948426 0.41013876539833016 0.65400324179464731 -1.8079023130762031 -0.57520239718045996 -0.25779470753463518;1.2303860252121814 -0.18245764188806043 0.5175728707388374 -1.4155760469082137 0.084308719867605159 0.77121972394553762 -0.90337635279968431 0.54333404819246711 -0.67091947929860096 0.46606343101741488 0.34996049160528381 0.80528487608905441 0.52251649461282135 1.4815647328801933 0.38192657663205987 -0.95102580479577314;-0.91045417066560119 0.038419801899660412 1.4750246740346959 0.68346485655499212 0.03914472740635444 -0.26804516718018095 -0.1821969731350892 -0.55055530261428176 1.05064880303535 1.0685985818078174 -0.013292343127238603 1.8054055365479731 0.73824304764222815 0.91582063383353685 0.25223598078336984 0.60360920169212684;0.81985925400523951 -0.53846910685266991 0.055533010507978799 1.7326458331336421 -0.58951681292360947 0.71105104625397797 -0.22012358202027785 -1.1319458859881426 -1.2614160290979672 0.19454028004063256 0.3115439027977448 0.88082133792163442 -1.745340913044207 0.010610485525551246 -0.2551233089535066 0.65896696078715511;1.2708331606803576 1.9141759131610776 1.1874905594220859 1.9098442506893383 0.68854845754938843 -0.88429640779662189 0.012627769055232885 -0.048654204276444346 -0.3300131937923611 -0.34905167908513768 0.3283224056027842 -0.42803668070851131 0.46792708286435769 0.54688201694908034 0.68583299502144079 -0.4239764778200556;-0.28089869146445651 0.8516524272219943 1.429922322442382 0.76484176567540418 0.28266887558102011 -0.67775719610301 0.13562320380264167 0.41982554712218095 -0.87799192599177911 -0.0090387780171118266 0.34149629804800868 1.3031185307969073 -0.42454938536084941 -1.7220969606988916 -0.69244836529123532 0.047330734421075132;0.1129661585551327 -0.55251501837943762 -1.6480083500365041 0.89127927086812075 -0.24201462210522948 -1.5958416378886768 -0.04986158247266733 -0.57999128797689803 -1.0119251525618709 0.75717804450039106 -0.89760323330373304 1.0482701075399703 1.0256999969334453 1.1882034190811432 -0.77387597759438176 0.16471655272588787;-1.1099210284350787 0.67093236698144543 0.31630840690250095 -0.68615120643319105 -0.92771698415180093 0.98698317991054219 0.42536551412246926 -0.82916245808148492 0.065266310805411981 -0.1211447484361754 0.95194783714852893 -1.6013178487332729 0.30539509589140967 0.18060829624761709 -0.5719831633225686 0.65975362229069945];

% ===== SIMULATION ========

% Format Input Arguments
isCellX = iscell(X);
if ~isCellX
    X = {X};
end

% Dimensions
TS = size(X,2); % timesteps
if ~isempty(X)
    Q = size(X{1},2); % samples/series
else
    Q = 0;
end

% Allocate Outputs
Y = cell(1,TS);

% Time loop
for ts=1:TS
    
    % Input 1
    Xp1 = mapminmax_apply(X{1,ts},x1_step1);
    
    % Layer 1
    a1 = tansig_apply(repmat(b1,1,Q) + IW1_1*Xp1);
    
    % Layer 2
    a2 = softmax_apply(repmat(b2,1,Q) + LW2_1*a1);
    
    % Output 1
    Y{1,ts} = a2;
end

% Final Delay States
Xf = cell(1,0);
Af = cell(2,0);

% Format Output Arguments
if ~isCellX
    Y = cell2mat(Y);
end
end

% ===== MODULE FUNCTIONS ========

% Map Minimum and Maximum Input Processing Function
function y = mapminmax_apply(x,settings)
y = bsxfun(@minus,x,settings.xoffset);
y = bsxfun(@times,y,settings.gain);
y = bsxfun(@plus,y,settings.ymin);
end

% Competitive Soft Transfer Function
function a = softmax_apply(n,~)
if isa(n,'gpuArray')
    a = iSoftmaxApplyGPU(n);
else
    a = iSoftmaxApplyCPU(n);
end
end
function a = iSoftmaxApplyCPU(n)
nmax = max(n,[],1);
n = bsxfun(@minus,n,nmax);
numerator = exp(n);
denominator = sum(numerator,1);
denominator(denominator == 0) = 1;
a = bsxfun(@rdivide,numerator,denominator);
end
function a = iSoftmaxApplyGPU(n)
nmax = max(n,[],1);
numerator = arrayfun(@iSoftmaxApplyGPUHelper1,n,nmax);
denominator = sum(numerator,1);
a = arrayfun(@iSoftmaxApplyGPUHelper2,numerator,denominator);
end
function numerator = iSoftmaxApplyGPUHelper1(n,nmax)
numerator = exp(n - nmax);
end
function a = iSoftmaxApplyGPUHelper2(numerator,denominator)
if (denominator == 0)
    a = numerator;
else
    a = numerator ./ denominator;
end
end

% Sigmoid Symmetric Transfer Function
function a = tansig_apply(n,~)
a = 2 ./ (1 + exp(-2*n)) - 1;
end
