function [Y,Xf,Af] = NN_133Binance_18Neurons(X,~,~)
%MYNEURALNETWORKFUNCTION neural network simulation function.
%
% Generated by Neural Network Toolbox function genFunction, 16-Feb-2018 12:06:50.
%
% [Y] = myNeuralNetworkFunction(X,~,~) takes these arguments:
%
%   X = 1xTS cell, 1 inputs over TS timesteps
%   Each X{1,ts} = 170xQ matrix, input #1 at timestep ts.
%
% and returns:
%   Y = 1xTS cell of 1 outputs over TS timesteps.
%   Each Y{1,ts} = 10xQ matrix, output #1 at timestep ts.
%
% where Q is number of samples (or series) and TS is the number of timesteps.

%#ok<*RPMT0>

% ===== NEURAL NETWORK CONSTANTS =====

% Input 1
x1_step1.xoffset = [0.813037037037037;0.76078431372549;0.440336461843484;0.686274509803922;0.419607843137255;0.396078431372549;0.392156862745098;0.256403826582536;0.251684857257013;0.158495420313454;0.228956645634032;0.242421331162223;0.392156862745098;0.431372549019608;0.172680974888994;0.556862745098039;0.865362914716059;0.823328523720138;0.454901960784314;0.0941354984131292;0.323216560749636;0.073880664299553;0.0621360411907939;0.0603086294110108;0.0485096682271524;0.0410986423019804;0.0567619995326081;0.0357451658864238;0.0603086294110108;0.0603086294110108;0.0802707857460555;0.0585174028088744;0.388235294117647;0.908804185418881;0.908804185418881;0.380392156862745;0.0550420577304355;0.0550420577304355;0.0397134133930389;0.0603086294110108;0.0567619995326081;0.064;0.0698147771219214;0.0550420577304355;0.0517071111412654;0.0567619995326081;0.0567619995326081;0.0397134133930389;0.0824799511500102;0.435294117647059;0.886906242697002;0.813037037037037;0.356862745098039;0.0454468341738849;0.0485096682271524;0.073880664299553;0.0698147771219214;0.0485096682271524;0.0357451658864238;0.073880664299553;0.104213311622227;0.0439649908406269;0.0425157141672509;0.0802707857460555;0.0621360411907939;0.0485096682271524;0.364705882352941;0.897810706289436;0.865362914716059;0.345098039215686;0.0410986423019804;0.0469616060188012;0.0567619995326081;0.0870191404512593;0.0533572155505801;0.0533572155505801;0.0357451658864238;0.064;0.0439649908406269;0.0759715041726033;0.220263036087176;0.0439649908406269;0.0383596655886499;0.337254901960784;0.833706492977814;0.844171306661842;0.301960784313725;0.027532879510897;0.032050478322817;0.0344836902850337;0.0718285425665845;0.0517071111412654;0.0469616060188012;0.0485096682271524;0.0517071111412654;0.0585174028088744;0.0410986423019804;0.0550420577304355;0.0264740409043279;0.0425157141672509;0.349019607843137;0.813037037037037;0.833706492977814;0.356862745098039;0.0454468341738849;0.0344836902850337;0.0550420577304355;0.0567619995326081;0.0621360411907939;0.0485096682271524;0.0410986423019804;0.073880664299553;0.0533572155505801;0.0533572155505801;0.0357451658864238;0.0357451658864238;0.073880664299553;0.419607843137255;0.897810706289436;0.844171306661842;0.352941176470588;0.0439649908406269;0.109511304098725;0.0678390061137873;0.0718285425665845;0.0383596655886499;0.0567619995326081;0.032050478322817;0.0397134133930389;0.0485096682271524;0.0397134133930389;0.0425157141672509;0.064;0.0870191404512593;0.443137254901961;0.813037037037037;0.833706492977814;0.6;0.216;0.40073106120572;0.407843137254902;0.233387942797265;0.169058416446163;0.114985880242139;0.12647636278656;0.12063993486668;0.114985880242139;0.099089007998432;0.291098235218732;0.4;0.443137254901961;0.833706492977814;0.833706492977814;0.854723326623998;0.76078431372549;0.440336461843484;0.733775094043769;0.749019607843137;0.42022274992273;0.426857724404641;0.256403826582536;0.251684857257013;0.158495420313454;0.228956645634032;0.242421331162223;0.623529411764706;0.556862745098039;0.172680974888994;0.556862745098039;0.865362914716059];
x1_step1.gain = [7.00968606041476;5.90405030672216;3.03962458826166;4.8601610282094;2.94083638114669;2.84380984573813;2.83123871128199;2.37164055488685;2.37034842138942;2.1413166342099;2.30180694221725;2.33814248049486;2.83594158427042;3.0145156495088;2.16773527304359;3.69614545431788;8.52580445544032;7.31859800237328;3.13352561003551;1.99035502586671;2.58528585096279;1.95158642745355;1.96249593987279;1.93194895810145;1.90277355744161;1.89256889271101;1.92604479522165;1.88714705170179;1.93633418348533;1.92733841424009;1.96949149663795;1.92880639276437;2.81526939830809;10.4877579013681;10.5286094724553;2.78408558763357;1.91414853917569;1.9184745042533;1.89912393318374;1.94701025515748;1.92473990696483;1.94678689754753;1.95418788253752;1.92195248780533;1.92236523827848;1.92576102654971;1.92992432632924;1.89475876318148;1.96928278166439;3.01073971489888;9.40048103503306;7.02231613420337;2.69210031410482;1.9060653017838;1.90589466368245;1.95444533303242;1.95403390521239;1.91882921373822;1.88329314583555;1.95791479255546;2.01587493683234;1.89620121448319;1.90230344440433;1.9755955853582;1.92707109174403;1.90588410016371;2.72409956400052;9.92839758136309;8.63488167872538;2.65525988369036;1.89363931312486;1.90053201395126;1.91872861816993;1.97837229501955;1.91899837464193;1.9159617478577;1.88807054728952;1.93364933138484;1.90174751250359;1.96443833338395;2.27925398155789;1.89537759924907;1.88735248569182;2.62325759818305;7.51229695178391;7.88588710271195;2.50678957959639;1.86889848256771;1.87631754561404;1.89450168296759;1.94886652092374;1.90913110805922;1.91646348106912;1.90980633719392;1.91870887392154;1.9306954306849;1.89585752154258;1.92493816482489;1.86788366905848;1.9004189388748;2.66501968451;6.99090125469146;7.54798135991674;2.69138934405405;1.90903115329481;1.9713833559237;1.93335736673689;1.92285312705761;1.94952949902375;1.98493239129088;1.89547660997838;1.95232749230578;1.92582740312981;1.91465715864266;1.88533661167464;1.88537518616111;1.96155087829566;2.94374807241693;9.89814850085464;7.82472876693075;2.68058889021887;1.90233813673554;2.02035699202253;1.94142730562955;1.96231118701226;1.89354800469563;1.92911618843055;1.90019554733081;1.90261260151916;1.90238936708989;1.88991372548132;1.89279109365127;1.94158064053237;1.97759722300798;3.04542819376191;6.96961229885949;7.53227733534504;4.00798500099886;2.26335713637102;2.86737199282264;2.90292688740016;2.32868769263222;2.15199502275167;2.04676647735741;2.06977710696617;2.05748493550433;2.0381092439473;2.00690893641721;2.49088070655848;2.85746817937672;3.068018180216;7.51686349544248;7.52508725830133;8.20326246969749;5.91786565535961;3.03526345290762;5.48635389865843;5.71212624591232;2.96333673599616;2.97283567771881;2.38507627556558;2.36305367924318;2.12812487643918;2.30799603369033;2.3369707039101;4.22039914522826;3.69571215867586;2.15706168575944;3.68562462762322;8.57258142046622];
x1_step1.ymin = -1;

% Layer 1
b1 = [1.4437807486929344;-1.243407775896519;1.0377809391605559;-0.92755388410778206;0.77421719063360728;0.71821486596609185;0.42803051303939488;0.23948354781909875;-0.099725559442727693;-0.083474734348942731;0.27141229632917419;-0.40874347144804685;0.50875879386310352;0.75612705090040955;-0.85755035208169261;1.1007562426946851;1.2042111379482245;-1.4649778374570461];
IW1_1 = [-0.14580820912291673 0.14771261962378329 -0.060889344453055855 -0.13996773477769803 0.12576509501069516 0.1671084585089814 0.18473583744563582 -0.079405499177762365 -0.077390907750687729 -0.17857079761842726 0.15679636669418659 0.078683671408355943 -0.061806346906865428 -0.062847319443279315 0.11117095028249808 0.042483855715193246 -0.14787752065234278 0.056337960497457228 0.14127751591009838 -0.085611614942025516 0.036646175419358724 -0.042560222495348514 -0.14049980350218116 0.10355170452634585 0.1883599554445437 -0.068022885821861251 -0.022829605275351588 0.047904909068782829 -0.11185198580276984 0.071828202220670725 0.19158187950646455 0.11256578007089946 -0.12120450306387207 -0.10925599757498687 0.052956698467387889 -0.020096218037888511 -0.18104303101042205 -0.085325457064323734 -0.065853301761240796 0.13034425775800781 -0.11586678248569968 0.16432540731225947 -0.0015349027883680461 0.066351601814815753 -0.079968389693387681 0.10974671511596563 -0.079201985332271699 0.18532948211816747 -0.040969917747643719 0.17155420626711879 -0.0085246535965163382 -0.14062617550924905 -0.12974332895558707 0.11063889264222659 -0.079594790834209034 0.16833296331013725 0.067901545584926115 0.15922668950062568 -0.034619519508425213 0.13620158179242869 -0.18243455314636361 0.14708008422401 0.16241870685438073 -0.022867590840640523 -0.1871871954775387 -0.070700623833160905 0.076472402460329866 0.045929655610599446 -0.0075806184463608943 0.16259982633242606 -0.097158914287322415 -0.15532645282617039 0.017295441447743559 0.134256612281556 -0.19095983135348965 0.12396970923698077 0.13679891894750737 -0.12881691499022679 0.068889877891299481 0.091832481472535282 -0.17628956657619321 0.047076534869526551 -0.10383859523877205 0.14919320413645593 0.060310272788738697 -0.0067312680959766436 0.13429559919283979 0.023354704434453755 -0.088447250813164749 0.021914958583750865 -0.03551178189749734 -0.070563584982442765 0.0071336679557929107 -0.15493745279402724 -0.097661170876711306 -0.14914906790700314 0.04409680510949758 0.18513948840472871 0.091607031193122995 0.055863066807457784 -0.066343866410044514 0.012287033993924945 0.14506763619437479 -0.11132956618137529 -0.084833288976082055 -0.091555622347276808 -0.15963352186605673 0.11685946298832407 -0.18216769638759125 0.16216669719958379 0.043456303015056444 0.11758531219535943 -0.041208475225425395 -0.08219304569798655 0.029537561223466666 -0.11171218730911762 0.11945145829952995 -0.024145565903416596 0.071814328059516333 -0.17683714625833222 -0.080849282165969316 -0.10945143397352086 -0.08644489646273644 -0.1439008452355087 0.18132014177331146 0.10106081533087914 -0.012747818695894222 -0.013543574832447018 -0.084853783896097199 -0.015390371304002892 0.18032274349617478 0.1586651075558704 -0.038022080716404727 -0.068983491219146834 -0.024531561655923108 -0.016795761045892303 -0.041345059255939544 -0.0093053981854207234 -0.029289033941183287 0.12517983153235762 -0.063121961902082746 -0.00017265975311729718 -0.11903076773383474 -0.011889855939280644 0.092875264605759997 -0.0087203214821044827 0.04236708882160696 -0.11642434073454319 0.083064010891750972 0.12837365285007643 0.089219792818607271 0.12941393599792328 -0.14383328457343533 0.17391303628499566 -0.074450024650372273 -0.091842821404643768 0.002778304675064837 -0.06875931646876253 0.026645482188483907 0.10912820306966753 0.15698279778404087 -0.017510756006199626 -0.14765915818036998 -0.14322237791530257 -0.14953052894851432 0.2132084009798465 -0.11969952803461989 -0.14789756638502621 -0.029697553821143585 0.16302040353977654;-0.12549495188090182 -0.016476281070165178 0.17057450521863954 0.025226294019245182 -0.085628468177278469 -0.13440525141763518 -0.26807573823885561 -0.28167566755704443 -0.18181393130987614 -0.14047081458207669 -0.16395042667658122 0.11509220940236746 -0.079183419452680856 -0.08541611144356169 0.12857830820100219 -0.10822312371625892 -0.065788858661566141 -0.018428256420436911 -0.10651606256940054 0.10969545935159246 0.05473788402869649 -0.19146862702999964 -0.011593297190207519 0.13409018920874538 -0.16587534617203795 -0.13587671401214352 0.035038915275580923 -0.19016097292116343 0.16464344884065565 0.081292152287709918 0.039975578826969352 -0.061019913416410852 0.1903118401242011 -0.020269772600468021 0.0023768191985956248 0.11779441135426945 0.058516737136085913 -0.2159971224072422 0.096409945737994024 0.11857246083267887 0.12924046299074704 0.29209431766469768 0.033092752100776703 0.05212917965732481 0.097597479810363374 0.021729354719625244 0.016428621132007198 0.17906232251796816 -0.017852297513315598 0.21540816798786672 -0.069117749874689188 -0.03171553752837053 0.11080372808064246 -0.024411079311957407 -0.15986548239859955 -0.025661006471252631 0.07205997790383338 0.18322168516653306 0.43493158215012251 -0.072753397545436221 0.084866949357349827 0.3667876928018492 0.10534459963955722 -0.0075138585809422734 -0.1168166427970985 -0.054130364919866468 -0.13809866778115543 0.16952824984938983 -0.021156329777555143 -0.16721741412659311 0.01568422275213496 -0.17704044339234715 0.12397588822397552 0.063164939677431087 0.13097430114004957 0.14364328933973444 0.075223051124670079 0.2262911095197892 0.30860290253847134 -0.0019886445362557069 -0.099349950364011202 -0.17718150416498918 0.012183482204223356 0.015844260498818413 0.19984248124849005 0.11279381721756573 0.082857583623925424 -0.045346994608422772 0.13017034856198695 -0.011308049798341505 -0.068368959733044285 0.17512626855469707 -0.094378592376586329 -0.12976494183430529 0.30280132539673643 0.35117635160593907 0.0999273351625279 0.054796498782493638 0.077800452036448739 0.13425891074877516 -0.13341022463506394 0.15718538746811669 0.12337419499416086 0.18340773579794803 -0.094539885114113043 -0.017274778903084473 -0.082983922345189656 -0.11061136488715539 -0.11580520992576651 0.28927033761046222 0.25787958010382406 0.047350955345608577 0.29947290941136989 0.070249017113558937 -0.044732696497474952 0.16975010313658184 0.16552869360871722 -0.10892323642380532 0.064487930309827482 0.037863843394964514 0.18496344297164333 0.054979408845019215 -0.14827021429662018 0.13700956511581971 -0.20342557290744179 -0.11658307870275277 -0.053106707582473565 -0.090138702133975956 0.066711373964291207 -0.1518840669850566 0.032348994948324265 -0.19342288071204577 0.052102447121634574 0.007405689467149635 0.1264005485715067 -0.057715436589317055 -0.11427164039090083 -0.0093467249919584241 0.034043846206039043 -0.26514503296011582 -0.18007331866841819 0.060180690938014966 -0.19054637234764632 -0.032816044361921433 -0.13785948431337902 -0.025824151595310454 0.081287968282636236 -0.27138580694795728 -0.11800751482490125 -0.22247686247057466 0.15551219103320657 0.081139909797467782 -0.056469144043425255 -0.16526860134683086 -0.18675530093963635 -0.14215926267956294 -0.13240894035789971 0.18159345950395042 0.013518217591271446 -0.13104684017108506 -0.16077517758458945 -0.096746821827979737 0.051455934998789615 -0.027106990206719226 -0.26342561446027146 0.02890537777937717 0.02533433955818077 0.21811990045323029 0.14054670619449991 -0.21711268952537208;-0.15081853552741484 0.1530074984743991 -0.26615708655082826 -0.004830339006738126 -0.00038787888722230466 -0.082811670082046929 -0.088317809145598961 0.33785660863578409 0.094115893063276529 0.13488416837260458 0.059465647521631568 -0.094987212207664706 0.10727158115073587 0.34146700096580462 0.0053594905283003234 0.17938996038220273 0.077230577636699063 0.0019936305251417557 -0.187328074726026 -0.019511242590910464 -0.09508354732169437 -0.13585022335240812 -0.23507728178973283 0.34888447577873483 0.30003516471559727 0.45353391139556309 0.30336431064138136 0.18997324265283796 -0.10292055005266211 -0.20241857623313084 -0.092577073998521622 0.021577289090126649 0.19358029295806822 -0.11088270354867023 -0.06636527610189881 -0.28210141514216691 -0.28513304721741817 -0.09109482966152195 -0.16761679580162089 -0.14769250352764612 0.015081867621913913 0.21450275102448638 0.11513619829629246 0.23971292143191064 0.40013202295125599 0.13961744871816925 -0.14137509093405842 -0.032689311956005725 -0.031076598247521989 0.12620359644418724 0.18138586875892898 -0.11195287853105731 0.070493078835237963 -0.2962317686901248 0.015560331002944738 0.025356602486020032 -0.046587567382008865 0.11714257301417103 0.00486339140509071 -0.12053016858203397 -0.38374163922116666 0.24350309455969255 0.20196272056166376 0.1418188245954328 -0.21352274783670971 0.082620653322189 0.00098328131984644698 -0.016965758144009743 0.087131846223003878 -0.16866918518938592 -0.26508588925140331 0.254214879427826 0.14739428258775245 -0.012672252816120649 -0.10987268925195477 -0.22561575326809427 -0.33007527977639478 -0.41666190177994383 -0.023839791404446798 0.10562662136105759 0.014720752688874243 0.016910136813250758 -0.18972464969640374 -0.045704490518530011 -0.12032371041116938 -0.12364378727003168 -0.21309333540883585 -0.19968922640782777 0.080112241427039918 -0.19981541394139335 -0.030935711731078161 -0.26554575692507887 -0.32259235221021998 -0.16261212020074592 -0.27087847314169328 -0.070594128950420207 -0.028901892811670798 -0.18851119466331601 -0.22941664642700688 0.17387835355711964 0.14791190256236136 -0.0706600616593933 -0.053287854811671004 0.0080784108797335129 -0.16212988064643799 0.20630020549726255 -0.077187524718486319 -0.13197405307451066 -0.28794227243615805 -0.21103034983009655 -0.28260786320719644 0.089036022611012941 0.006466668185992697 0.22954985090395985 0.19507717784650638 -0.01010139997456413 0.042117552148290514 0.010566259126892175 -0.049827339573525663 0.010849288351482675 -0.10190824849267871 -0.065212786100293629 0.12681045804519503 0.12438326049555931 -0.17038199652312339 0.099588730103193648 0.070767521214587986 0.19485423868162943 0.041821797437599395 -0.12566560604236154 -0.17913293946955774 -0.0022325948282963578 0.036505116436318978 -0.18324605976793254 0.11999979764028013 -0.092119893934149821 -0.013797305212245023 0.24224081795561411 -0.21129526877117091 -0.041390833515867635 0.060174519666275371 -0.12839052105278623 0.029445711326714797 0.20617525144363036 0.19647279748403257 -0.050758505703501745 0.13735858644218299 -0.22378317817669766 -0.20847072671252137 -0.092001201979290612 0.21566567960611524 0.21913217393154355 0.17039591807943741 -0.077366500432351618 0.05273057082607694 0.20410914128177712 0.19205785907702871 -0.17364034602836922 -0.24869791167957533 -0.040357147599654239 0.10274794772594956 0.24520652827475478 0.3351480892072175 -0.13381426385190437 -0.17291296658981431 -0.2606623765010605 0.08725668777737515 -0.045165748261462746 0.018604858040493312 -0.092306339802703155;0.091513848116324181 0.067918377722432297 -0.2464562162239449 -0.06747779144581198 0.13177365624981141 0.15439843126021 -0.096181399360670161 -0.21896179092965778 0.049678723712706055 0.12012809256694484 0.28268043942604498 0.12253240446808207 -0.013428745804193197 -0.019657755753798484 0.098614006390328524 0.0042660741318342778 -0.19908949874955142 -0.029055998834693286 0.12187096639396625 -0.033453361993668128 0.1282111090751813 0.035724690068312227 0.026051924931859805 -0.22155989950160063 -0.1289984013458676 -0.027934991630754462 0.27702309334343456 0.36352246220903395 0.47057960729046078 0.042195560797633681 -0.27316846265579797 0.10695855524516747 -0.09398435878509416 -0.10931441637382214 0.15100542464523298 -0.2009816678418751 -0.31285626705209363 -0.12256445971365967 -0.10293248258069572 0.063609565872075557 0.03818860892407925 -0.16469723659089539 0.064927801498759874 0.34613580687497891 0.20565929995964541 0.31708116392004848 0.036905889379960324 0.061858703499126109 -0.046474346989789549 -0.20499846169144562 0.057219587500129676 -0.060664830262619568 -0.017333757084980961 -0.12964964705924395 -0.18526043905271583 -0.050371457725429294 0.13266277069263091 -0.19976671395940984 -0.027441453953712128 -0.076478816187581955 0.23142826869341881 0.096139776683491343 0.14968715987536585 -0.25255517611003592 0.013167292128450487 -0.25345189092566844 -0.2494096673407048 0.029529980813835115 0.030976688089452045 0.11250422843991 -0.07534141162337904 0.14398005169785522 0.031310898186240298 -0.049729592644052363 -0.15855399644869744 -0.043185284373478974 -0.11308153052053342 0.12778814660722529 -0.0053689910479564548 -0.027491701469335071 -0.051900093986442505 -0.070963934850130084 -0.13406582615759099 -0.10356771974277551 0.17902011057119016 -0.12778208842712538 0.14989056713344084 -0.0078389833159562463 -0.050686227024899985 0.18807189675107733 -0.068200521762330629 -0.25706482321062579 -0.17519694041057196 -0.0031532792565027072 0.065524842691269583 0.35234264021044398 0.18444307390214598 -0.0090625599766305763 0.1479192379174889 0.10716944024591993 -0.05691205630115849 -0.0034314256135044457 -0.1104967002640254 -0.21227589719389939 -0.32707033801741603 -0.10236728948441677 0.10729812897258023 0.22260706605543104 0.01371585323173136 0.23788998743699036 0.023517083773404283 0.14195910467984882 0.12515459016751412 0.0061989083482762997 -0.046946380761040254 0.093900535758686773 0.12412175605997851 -0.046021364284085549 0.041820686899981419 -0.004345292629986717 -0.30199642885071698 -0.55147273319185519 -0.1512698235234308 0.055118096853573793 0.60305998609668054 0.53061698221308018 0.20602615402586094 0.10291411330944615 -0.058781551370882923 0.1353514094061059 -0.11407078138916898 -0.1952497158426274 -0.081545070589105512 0.101664185764827 0.05921914328791146 -0.10634771889010179 0.012091406419749602 -0.15521796841841148 -0.24795678384844833 -0.21082511274307023 0.14628553132890065 0.18625898300005489 0.28544299250460087 0.22472812185516555 0.1642899676775757 0.14611783862939973 0.10311708105625418 -0.077049171574287159 -0.01159657218545878 -0.18335960179703764 0.073966237778456637 0.081213308836077969 -0.054132871544189741 -0.14723105090409078 -0.21234079583237639 -0.14416125601593799 0.031499655925011763 0.16422160851944012 0.15053020915347468 0.21704253733593198 0.091369012203932357 0.20080849454332839 0.088910513537818814 -0.19030834437341926 -0.18004905729444273 0.057611337737108671 0.053909912061554134 0.0018831480382012211 -0.14524500219284239 -0.10157798914053433;-0.0074066311012630937 0.1468012359032165 -0.049321828771550683 -0.15797434263947568 0.0092975706295446402 0.07926469726480101 -0.14433582256983332 0.02693825698554549 -0.16132294306247433 -0.18839391315501752 -0.3035167475193048 -0.23798238052585302 0.017249656939182897 0.068578161049440561 0.13036980277724575 0.14273047900962044 0.20309955523094159 0.25825375668583361 0.19307801143267808 -0.041348720858780753 -0.054651168112266356 0.16825819812316262 0.31546848398484745 -0.13130547641134069 -0.035951020290865152 -0.14609519115591643 -0.43368991127424056 -0.64151556715396363 -0.29620496506867267 -0.015312259492977497 -0.10488708100734709 0.0030475979936046959 -0.037439812465473732 0.12925349734952485 0.15422651480916935 -0.20163672618629558 0.052039172631252968 0.31854414227505701 0.22036487134881322 0.32838840119331725 -0.24142621892901464 -0.18744317964684834 -0.061243077787882717 -0.40079211760697159 -0.56339089973035628 -0.22941007408563674 0.21383107940929735 0.19889261698717617 0.11362364540577571 0.18156237301461553 -0.14207893162051141 0.13169838478211529 -0.23054366720875633 -0.15245279190013436 0.2327536461234217 -0.017279010506988338 0.19812050176028906 -0.34521284326850177 -0.26376550684092548 -0.26946739358902 -0.26468127952782455 0.11019346295876016 -0.24604733672771628 -0.31468268748209877 0.18962580698915904 -0.080028333388484404 -0.22812691350224529 0.079736472454956256 -0.11076116838273495 0.0015241053370923198 0.21297925560820583 0.1099517828099414 0.0098865087971932684 0.2690453586392435 -0.14390522591763366 -0.095166500437314269 -0.21527911731637092 -0.041823480745521863 0.19282046513103446 -0.023716144197551383 0.057512466612283979 -0.039574301296257004 -0.20602702554249122 -0.023873662700154487 0.0070140100087749124 -0.089398549557398149 -0.18175792764362672 -0.063673214214367155 0.33108180616251154 -0.15997484856109326 -0.04953102075450231 -0.025083722219610353 0.072507100218849985 -0.039967206959488397 0.059158357257718841 0.13568362703117148 0.08451573163862397 0.1186686523881588 0.21126652055230818 0.28232378537591685 -0.12960950012602121 -0.024783533845627259 -0.15979448843398225 0.15118776533074313 -0.18229864046638794 0.053279555087815678 0.14532979152400308 -0.22117581998543778 0.0072917970836890531 0.14709804172482227 0.24870346540427499 0.15174003518058818 0.069547868535303273 -0.026847864101422966 0.19846993728889484 0.32308863183843273 0.25054782035517853 0.16890932582560522 -0.13424366336973692 0.032745040382299806 0.14760339856712767 -0.26137038492422793 -0.2584516418572374 -0.19751492004769139 -0.013962247494053207 0.34114806895259836 0.1435936482503064 0.29830983791252291 0.019862412578677366 0.046297620898466826 0.1863457177473519 0.047645849034987343 -0.094460203689376104 0.021756315069342304 0.17948479358649932 0.067852879811273026 0.032088134941523121 0.18856993735881997 -0.23320764024190946 -0.17227667853179829 -0.049941994058451226 -0.0060571346997675465 0.17806169795552851 0.028706335845457381 0.20840554451193588 0.024185493601941922 -0.085004075593289471 -0.06212610897423481 -0.17733729914969548 -0.049294393115649406 0.24116693231921191 0.018328079750908853 -0.066394905157813294 0.13348193082733578 -0.031888306093221089 0.078284378567313365 0.16683131265744758 0.050984256390875213 0.11776262842779399 0.3061430155438023 -0.026786840589487708 0.049969615850420895 -0.02292086892618684 -0.10934968080015327 -0.12310752540243022 -0.12447114021719935 0.00022586362774064243 0.021430415552499239 0.055476100353551425 -0.036549061759618293;0.01702914378326266 -0.11742238174161748 -0.16809662605226819 0.022976983957977277 0.26490467350899843 0.013095327174671077 -0.0066938049604046953 -0.15050293663014305 -0.25277839739840713 -0.22171247364282068 -0.089023583661323583 -0.21454112454116511 0.18470672192791077 0.17096333586974655 -0.21756383667353696 -0.015673859190827959 0.10219672119205309 0.28003054575087977 -0.052438646010312617 0.10328400046268729 0.047738245113497141 -0.13513533686957063 0.12285350017010988 -0.020078566464765128 -0.089381908871878898 -0.11286227572606324 -0.32689358281522557 -0.53602002965146667 -0.59346785392934953 -0.09128146358214824 0.062658904293220366 -0.19430884621229622 0.30619388139500303 0.15078255401063292 -0.11996276313443927 0.11447382787637941 -0.045849623736773766 -0.26249900059111275 0.006684905242890212 0.30914604776140514 -0.31169350742439922 -0.45973082398108356 -0.033460520705135499 -0.07757246041615716 -0.21305626990025819 -0.33113418277532797 -0.095266152140257285 0.13569990580091815 -0.15857519803763276 0.039426513574766224 -0.086798182330042273 0.14347671739537632 -0.16659386483272071 -0.18036931626509164 -0.002795653032072441 0.14967461120842596 0.31293532170590571 -0.0066671323037631892 -0.44403837106756527 -0.21674000443544628 -0.020960922387472967 0.21579305663282997 -0.10596950078377063 -0.27827163454466991 -0.065214290543375547 -0.18252007718074348 -0.021280004698586694 0.031669394694031301 -0.010917432693400097 -0.01231523157040507 -0.18514689210657304 0.24799545013843385 0.19866637127463332 0.52491770752875244 0.22035784487961821 -0.1514923515228957 -0.054125468632721163 0.035924230332152224 0.43278335784605038 0.18691231743340289 0.050963612442758759 -0.12363128529419778 -0.048457743612294012 0.038527465351133466 0.02072690366711186 -0.006300048039486689 -0.13591709895210374 -0.2040620365551391 -0.032572342084834734 0.21088090926841518 0.048519540338525631 0.059325866510815339 -0.0029092376105645983 0.16805895335497936 -0.041015262793263563 0.29725374376486718 0.43675853742146392 0.44830782056813245 0.2108104374200313 0.061632544677190482 0.24873150265284333 0.13171476931657464 -0.10345015426989 -0.0045090766180351837 -0.30814700921981619 -0.20570916016034071 -0.16070954944013444 -0.006029309638361343 -0.075611534831840327 0.09827010981547997 -0.028981166184250368 0.1677517632958358 0.092096269891615026 0.25100746174617117 0.13891689031532339 0.31911534301715361 -0.011361190200126084 0.2089835486420098 -0.15174055308040532 -0.033684029282421438 -0.097039689643968863 -0.19514005982691696 -0.33385522884844698 -0.11303162936850569 -0.065973636635004787 0.17839635894804054 0.11139337872909327 -0.095729290177266627 0.15206966008219172 -0.038020193883441071 0.29688313864286248 -0.0085838347862827666 0.226598304161404 -0.1429247861809497 0.082968704962660372 0.13615751574691931 -0.052962831040727215 0.17905281688585273 -0.13898037219202583 -0.17596666006639577 -0.017558315472922768 0.22188174096285965 -0.013546806551222432 -0.08499219110727313 0.15692761075042974 -0.013868372457253612 0.21065365838353181 0.27379407292214225 -0.067978032668615199 0.14636396426148657 -0.014571589586093708 0.10315500780289864 0.064852525455096691 0.14434564144050749 -0.12530445104805282 -0.10127254518344415 -0.14306105669512825 0.11284790924427852 -0.0055640997140869409 0.020331683023359051 -0.07449286983987094 0.0010152267849096279 0.048958892231240614 0.047373817300740417 -0.043816725274658117 0.12587642271072796 -0.017224094790951081 0.0091725713583808502 0.070962094615038787 -0.096181756871712085;-0.11059668669777709 -0.18974532753373399 0.046850799983624118 0.009432083751934571 0.24702421219850867 0.12197932622056026 -0.007460301827280363 0.17056955939367377 0.18104937824367484 0.064633936508897635 0.19133743761415853 -0.0015238809555541692 -0.048151004851494525 0.1578721977091701 0.2381746871016189 0.22385456840645335 0.18108029146391116 -0.2509274009491968 -0.23318800905966638 -0.0099340695113365948 0.078373075419489707 -0.1742914461950717 0.060236459968609615 -0.13545007896187933 -0.064805429534655498 0.19246601169096766 0.24417155988449527 0.33647053987433484 -0.038468400164530174 -0.0058878704704401269 -0.11273054248335747 0.22221958557978796 0.0053909257441296507 -0.28065539373856918 -0.014205004563303434 0.060257712480628119 -0.039943549451994881 -0.15419136060760172 -0.0013700543226298142 0.02605781301306739 -0.049221651852148093 0.24836891791742394 0.14218933823548091 0.0017712235408399227 0.17519867167033487 0.11843529138052257 0.0037672868180461446 -0.16029457255771029 -0.1974914733945306 0.085253392689396301 -0.12440116508929577 -0.16316885502591874 0.016028274872476031 -0.20486184815008679 -0.19257971504711693 0.18648734675820636 -0.14381082463891606 -0.12258207203408492 0.27236822905275032 0.17607363705066242 -0.044986667274788374 -0.12149591825343101 0.13948947173978574 -0.015822689296414706 -0.2793760875576361 -0.23123657587454871 0.0094480604207216028 -0.17944004057697091 -0.028147986650485689 -0.19521431146851112 0.037655744522752124 0.10455916398806589 -0.10165173584133462 0.10496695470842261 0.17391488394525439 0.17119790170778351 -0.10983479941055622 -0.20458828259942952 0.15673396803577025 -0.13295610790906862 0.020821981586119285 -0.074139591846149336 -0.27344156862644148 -0.24622862626458172 -0.042281537253384925 0.10092953746638055 -0.069071913364664256 0.22419924736603791 0.14396322393130254 -0.3070101823244703 0.020366145700025994 -0.11721373984285563 -0.034491066165211075 0.13404293403668946 -0.12004380100686969 -0.071526808047689322 -0.055376128774376497 -0.12948945703737441 -0.12104398607888206 -0.26440622914030459 -0.13525854598065909 -0.069419787590957058 -0.081139193710931021 0.062752809393674253 0.068435099924760351 0.057669810321913317 0.073856279519881607 -0.082036214774680899 -0.047991160632693229 -0.027132269724808228 0.25058405170417819 0.010786264167877747 0.0094656940658122985 0.044959112465923497 0.03912764450779737 0.043400795425686735 0.065047210484151533 -0.14923791564729322 0.13421032065383093 -0.0044120465453272662 0.070242932622049961 0.1801826446686132 0.17753727116411916 -0.097502698396573925 -0.2286140300502166 -0.086204152999732414 0.14868965002150547 -0.053245213362900695 -0.063600581509189985 -0.17082280333983388 -0.21923965539284967 -0.16525328153436719 0.33429474603962706 0.032399280571545799 0.082683263040200405 0.14741140880343193 0.072045117212981985 -0.042538587992383046 0.11466959380732185 0.016235388373242284 0.17771935942400957 -0.26332173909878931 -0.18325662432784906 -0.071962329956236387 -0.22256917284019079 -0.0060332667249578375 -0.23831217034557117 -0.21151573431982415 -0.043661510056845064 0.0705144518874493 -0.075533961314666734 0.08496905221218011 -0.09698634040273009 0.25812387639416429 0.15840655269318948 0.028998587479492188 -0.044260103085219049 0.17729937919245478 -0.14073543672329025 -0.098937565945100364 -0.28289585389820565 -0.16014712677309909 0.1220510495397977 0.14446917075107574 -0.1287587698285359 -0.22469877905791608 0.14617021651942702 0.015643651188031488 -0.17474805803024521 -0.0010764295596327467;-0.13664890101521668 0.082581758633399172 -0.083656679742327725 -0.19821516032052675 -0.12853882190632512 -0.15802712860576934 0.017726184698310943 0.14932700064972232 0.047895172891771615 0.06934776965779077 -0.1706290759472914 0.070844817266805984 -0.086316663177205349 0.14419628347488642 0.13836345199154559 -0.19969890735180063 -0.058059245681461043 0.14385096790329505 0.084574504511760323 0.051862483168916826 -0.10037565183458486 0.008321249159835899 0.041535578210923525 -0.22300926168593455 0.11446064483206141 -0.068512491236847411 0.049080809109866098 -0.26282924363965315 -0.28535776423548609 -0.17249884194265711 0.013155385349917382 -0.18872945400814539 -0.20703613298812129 0.1655489754934808 -0.010345467052625137 -0.26738089939747645 -0.3577946014792045 -0.23434290127889373 -0.23735378637317006 -0.24030132925748685 -0.11817315731065137 -0.031414946516274016 0.13279551400565293 0.11814214122609479 -0.075502823689210768 0.024041083808237024 -0.2103013162905345 -0.059176650473440021 0.028617958780513816 -0.088042324673510336 0.12658536073073448 -0.065201515394739881 0.045297640764697535 -0.24039840274823229 0.090515439255539967 0.14110076631497298 0.098545302304512847 -0.0027852815080873596 -0.070541245155297 0.19063605558428151 0.18412735820701054 -0.021843205630148486 0.025842426456608288 -0.062533957736937429 0.14806306736984737 0.13621485688778728 0.0085149470461008125 -0.12307086310783927 0.11707416389279492 -0.050506416840543883 -0.023496924135932799 0.22467023449700246 -0.094269252785835256 -0.078447961161239102 -0.063355610134375143 -0.11054125789489835 0.2679202825896968 0.064875054904033974 -0.035100072227960182 0.16448201061992346 0.064451515540005222 -0.064301938124492156 -0.017282383375247606 -0.106720950236125 -0.15552128432217902 0.028730685647431115 -0.14124718731183283 -0.13712495375181244 0.082132217753287551 -0.081614257046859359 -0.1321450067780528 -0.197708335479994 0.014187556548968024 0.13444018986631506 -0.059953819806312189 0.022322717898150404 0.093616071672345522 0.019089738063753553 0.096943448782545127 0.19253693952515943 -0.17950889402381587 -0.092104894626084399 0.12501774730901213 -0.11553335026459288 -0.10073120307490516 0.095940372978370589 0.037926993154400609 0.074833717584869563 -0.058018621006673439 0.051977267470877657 0.033557868888446175 0.084626360296438635 -0.26796303257678494 -0.12208369914364831 -0.0036153447746612392 0.17567680862618776 0.24057648426828659 0.0086821503001032318 -0.0082731261625187957 -0.093850736257104245 -0.019830011953931265 -0.14499108628210405 0.12477527277611308 0.029909222480311647 0.090474476274459065 -0.15096540092983274 0.050557253082650043 -0.078239870900769531 0.15717642426475512 -0.050800974619144512 -0.11310928319380362 0.11372796212841681 -0.03418671392615396 0.070612567676255261 -0.20199339216675236 -0.038851618452007179 -0.053208591375387075 0.11770312349697647 -0.17728463412068196 -0.014060220410404516 0.18049946952715185 -0.16499901381311805 -0.078116286212996072 0.14424502994326646 0.13578832814528088 -0.018196613744135427 -0.06972265900387517 0.079611402244868124 -0.0093477305766909088 -0.12252942555514459 -0.083002858668433793 -0.058474556218066027 -0.095821934550963661 0.11908589366681309 -0.16130071546657085 0.038709846346524461 -0.038867455284195787 0.044911855793223779 -0.14344090651122138 -0.22043662361130109 0.12735984618523746 0.12243977394846929 0.0032515343909151695 -0.018627041669020676 -0.058109565595785791 0.16194790015701671 -0.052090043121779825 0.079578279296421986 -0.11821449541696254 0.046578453495384989;0.24205047211419503 0.18806203481734177 -0.018720679819493619 0.029313407553139065 0.02033540079062977 -0.032207641230814404 -0.11648500422330746 -0.038826943202960956 0.15606637734558382 0.21366213683993079 0.23939977218522296 -0.13051790244517375 -0.075784514016887419 -0.061783123974452743 0.04608361516456768 -0.08772991777555994 0.11915878195204678 0.2425913353482502 -0.15261213525401907 -0.13333543329625083 -0.27978218028641655 -0.13948713138926822 -0.29849593330750018 -0.35121154950679606 -0.021707623220659271 0.2041363167358819 0.2099384670258346 0.26068273037318584 -0.062655144901635595 -0.06115376499534949 -0.14001888143859403 -0.047353102360388102 -0.21290177883132519 -0.17105266086545418 -0.0005467572397193682 -0.029084229825358195 0.0089344280587792171 -0.25973649572341317 -0.17391162535564389 -0.29671218739181088 -0.62895767727395813 -0.21287426268941395 -0.15742425610958644 -0.30822731588089225 -0.24084190338790598 0.095484852672693757 -0.016219877275082607 -0.15425219597249532 0.024969131074504478 0.032310442720022071 -0.12638449069757685 -0.21067711815290596 -0.15360911355385473 0.12677716820703822 -0.0852336849393526 0.056782034854473848 -0.28836209698036597 -0.09505975254582498 -0.40113475526616599 -0.0092806954410937469 -0.36936418404507648 0.0067232220144181594 0.43007196447146856 0.24695022779774142 -0.056997855326335778 0.12224334467440114 0.092624980837226714 -0.17099586606981754 0.21658930823848302 0.096496959190535303 0.094630899093782611 -0.024988616001366839 -0.0051642733158746325 0.15468585049820599 0.23618182031450904 -0.23986271342017335 -0.0034675839957408593 -0.07439900118046644 0.11090978926175805 0.17945758471841941 0.13984440551213423 -0.011917463880446681 0.068917767210016453 0.078209665240983647 -0.086384680088567256 0.0072265568217497415 -0.0056958956253917205 -0.014265846838880937 0.21432439980460286 -0.12059568345441658 -0.099005581195725917 -0.16360267930769795 -0.35544662880701899 -0.34975048216292348 -0.21284321189589811 -0.066255293751084202 0.053694509397544977 -0.010539324326019384 -0.19150948564927131 -0.081390112412273313 -0.15679082503535333 -0.0097919331040893856 0.044360075959766133 0.24855655363316534 0.25681698902082867 -0.025942986416653772 0.1559305626851239 0.2667668134821099 -0.0085561285271306756 0.35887996813800421 0.026630482755098075 -0.23021202492816129 0.0014218633847064574 0.024790579908169075 -0.12185014547788829 0.17025633604098911 0.2119937829536718 -0.0011085683430196924 0.024194990662645677 0.06422718938392194 -0.020240170677279155 0.22821720609273655 0.10556171650482551 -0.076463446609042043 -0.16087891419071812 -0.10709206089176988 0.17474311854873809 0.17889246544850043 0.042474028923392498 -0.10441952990739016 0.11813716246543039 -0.046807497789474121 -0.051701161543568928 0.1842553508853268 0.12039001958105777 0.094119325324771838 0.086774447293945609 0.2315907882138053 0.29388586882055118 0.16232735696616929 -0.11828111755438052 -0.12736420508190974 -0.27295892187338505 0.042005209685041733 0.23476690578585846 -0.0098988575703563529 -0.1312830450879352 0.073219621106214078 -0.10580670869787048 -0.00556378333359734 -0.10460986166547027 -0.0093147432438023502 -0.11860693329732813 0.068613572748871615 0.13389366996913996 0.14767398817097624 -0.1623106625135341 -0.22016181654934086 0.086306273348008819 -0.023062124483205194 -0.16984264064755766 -0.082619893413412374 0.26068319688578734 0.04020458013583679 -0.17166550311240086 -0.14854219993274625 0.10240042115134249 0.057352055574820947 0.071947628221680673 0.046985942242217117;-0.06735897344866254 0.045305510571608421 0.041589544528434601 -0.0004727664487839886 -0.13360433284533257 -0.1555537813577641 -0.40347258433836597 -0.2194847199653194 -0.41760430675392524 -0.3952913023462451 -0.16819407454476659 0.019153216244733984 0.0072234109140515389 -0.18506841431377988 -0.17596288728174347 0.046607982063838677 0.13067717382262001 0.1298731055037991 0.11651018860979948 0.0864372092110159 -0.16647756319481002 -0.22403734266303088 -0.22505026609982037 -0.2579565356825631 -0.44948158127794174 -0.5433532743438243 -0.44835704939451276 -0.13932217217763351 -0.23366059407059264 -0.040001347752760479 0.050052115696397836 -0.13866377944680941 -0.050073815087373803 0.21047690452468629 0.033350725026083099 -0.036430972515545348 0.30126957165068163 0.1652835165208939 -0.052881787729749795 0.26919875198091459 -0.020780395917931193 0.046679342529431567 -0.12026136999758806 -0.38395049225959882 -0.19656117487333341 -0.16389644048870977 -0.069298159787769056 0.055409123806683565 0.19670844812496741 0.078760126770892822 0.087718751325887329 -0.097801003033658865 0.19085499793369706 -0.083479650381827031 0.14753908136324939 -0.084930514860382139 0.29142097362731084 0.035677242838114749 0.091642708108907261 0.16127482960170891 -0.010938046923859288 -0.37568697827858882 -0.32911506974384458 -0.02681163202950592 -0.10174301165492702 0.15505905417239282 -0.22403024158562482 0.18471515844622924 -0.11239677358175691 0.10284868078414916 0.069757439562365256 0.031098050131975006 0.13908593559227195 0.13029336653632412 0.32280950021937327 0.43050324725430811 0.53708738427914815 -0.18492668780719995 -0.13408196698139516 -0.13508256711279013 0.014508050541974293 -0.25827868549795929 -0.20440354404128921 0.0328757025493931 -0.048546401445226879 0.088510507509147893 0.076965736085009354 -0.14258229435855602 0.2678458896086916 -0.0069588020559778023 0.16018567071866904 0.35079758596781829 0.37072673898282577 0.53902177074245483 0.07923039903480629 0.10220248035088031 0.29027603322283146 0.12033655974061259 0.1186219691633873 -0.20057039634102772 -0.10667442168246896 0.078716849617104387 0.257586017886133 0.24455928022039747 0.2987518932056315 0.2585114140839691 -0.17626171351293021 -0.074577852395719721 0.10591999547560926 0.31051409200704488 0.21611789362187861 0.15001586221647784 0.0090896307371806078 0.078992283802312574 0.19717364846767083 -0.071599231970756613 0.094531535230094804 0.073684849064977395 0.21809669006438157 -0.10643779420053293 0.21547832350093055 0.15178815479331731 0.088449556723230571 -0.05480435191997686 -0.29050220073186406 -0.0092418944424196917 -0.039425102056998812 -0.19662143096353968 -0.05202728367664148 0.25687500557896836 0.25035658958614937 -0.045998759352070907 0.10296048523491289 0.13295094175912878 -0.16933578733727217 -0.026143180008216329 -0.14902085995741968 0.022341037643944982 0.23599469087170782 0.18821645871441656 -0.28788147777375744 -0.055037338093413657 0.036311130489820605 -0.44336722727799216 -0.34238773430034236 -0.26362983075321017 0.11352892812378219 0.31410226227976229 -0.06032306046454515 0.083415858476369092 -0.010654529476473813 -0.11563879870737911 -0.060315590176159138 0.079494593239858968 0.023425115671271025 0.050066545643793266 -0.1998990430591093 -0.16159652909169991 -0.22142280772754563 0.022707911350546926 -0.025897132395854207 -0.09111918031027956 -0.15392939190694982 -0.028511603263913991 -0.085820231567753688 0.12925857712818825 -0.14455654697447498 -0.11819893512352707 -0.05271660553258016 -0.12207359388781223;0.10652031221927498 0.063542525931850835 0.11926363429736468 -0.047345762851234444 -0.04187519422741004 0.069389791481874033 -0.0037881450361637635 -0.061559423126158877 -0.33436406248628942 -0.13960310367755085 -0.35912927129927319 -0.2776497745082408 0.058338018081731065 0.072418268320875084 -0.076879695599314762 0.052901941277628942 -0.14068114744799295 0.070558678731904662 0.065838071793351161 0.081830870086568336 0.049974947622394496 0.23464083951925743 -0.0042508855782624998 -0.014687355258121145 -0.004229967933194247 -0.32984472471117537 -0.37963444433808907 -0.2144807390165617 -0.25518829959692552 0.19047302211035494 0.31810426009475051 0.20821110996444303 0.051493178374737825 0.088891497550986645 0.067860721380989267 0.17894071021774396 -0.06410998834794944 0.42411310053857421 -0.0090839330822987188 -0.091992855304794452 0.036136298709325734 -0.068658715505301185 -0.14692930866805598 -0.041605569800169176 -0.27271604038218028 0.09411484606261028 0.16244653495835953 0.057879937603926658 0.28854389790563761 0.19434917714802893 0.1346620123070674 -0.097994229636626934 0.17539090625568179 0.17704149872685962 0.13798087296754324 0.080489196061494933 0.15356432823776198 -0.20905735115761528 -0.4158869572692836 -0.049240644980452795 -0.14548956731949417 -0.10758059416761205 -0.083002022247293181 -0.071807125411294415 0.25578154090690763 -0.0097281209693125762 0.13303152065656709 0.005261676251455686 -0.023426345357563154 0.035622511406297956 0.17594186823975788 0.028540326618838527 -0.10056531583188662 -0.22179760627695727 -0.45680722085236092 -0.29149636432596893 0.086198331054901073 -0.19812275467197679 -0.013480063831185683 -0.19468388253749663 -0.01005437873574988 0.20996725862454468 0.083167036303699773 0.16925446965739113 -0.047387681655828844 0.015796298451323035 0.16370381241232462 0.11130766097786528 -0.10165518749253881 0.026167847552242409 -0.37935788863981829 -0.41574851525453971 -0.1686899039679513 -0.077696108798230051 -0.0920868248653018 -0.012586490890836785 -0.14655002080391524 -0.023863895730480172 0.057353768868654537 0.21906990762981687 -0.0054537135732854311 0.14993443138953808 0.073770896056545132 -0.20568742729082098 0.018477844852135706 0.021847460412869731 0.011661615894552325 -0.18193446581538308 0.064988170329459499 0.17385598782543049 -0.063475714176442016 -0.040934408747734359 0.20439739596061682 0.046408700273619721 0.20267960762449705 0.083790104254826289 -0.10259266359174515 -0.049327760361949677 -0.096592336685103516 -0.083129673194098141 0.1914726125973101 -0.0767890779213901 -0.22398177369402963 -0.41342663849070399 -0.038438780194044002 0.44878233980843474 0.36198661162898399 -0.060812030399398809 0.20160767387823492 -0.080290179937413192 0.012263521999062712 0.0043272754312520499 0.028128541465726575 -0.069641678765695464 0.16326876729311909 0.088239212984013479 0.041837433688627371 0.042804336088994685 0.036612177157217277 0.0045804249299603523 0.026275439632297469 -0.022215411050338023 0.22870461647654666 0.04442739891843886 0.014855789414797052 -0.0087926814081679527 0.18880187015711181 -0.0066919031852819746 0.20902883461937144 0.16772729191577948 -0.14470027974814656 0.20424745373169254 0.019943869054074154 -0.029100367909289857 -0.11899831641720746 -0.137226690050995 -0.072043900051486517 0.19143722669953342 0.030261696123922259 0.039189162009738272 0.19269301574514189 0.015495216832116632 0.2191526272767676 -0.061401243738489861 -0.034177017067440307 0.080042657614074961 -0.037642050384935656 -0.058466410197677288 0.060392251024679419 -0.031405088534247914;-0.11407740848874898 -0.073419198603895786 -0.12976459238260912 -0.1903729253592559 -0.058913901831967597 -0.21537185590670407 0.065702620368873782 0.28619646167371859 0.05872023913060706 -0.11380059358711325 0.0036027731713589271 0.10417264670897376 -0.13405636607960814 -0.05336726844706622 -0.022983893499008669 -0.11810846520325551 0.059020069825764625 -0.00063129194785684008 0.12246631427253037 -0.071424973109740164 -0.19799388548173827 -0.10029806533797095 -0.18007530813487008 0.42143959267611325 0.57196971748203285 0.0057998187523250989 0.040945831255321752 -0.30153788175198643 -0.30084737100790632 -0.11534269027831534 -0.18456221317043395 0.1086770529871334 -0.07566881157440665 -0.041815333867911628 -0.019843641922582318 0.039356640076927123 -0.094964988146764837 0.080306265745017952 -0.15965938107325262 -0.32914854684842759 0.16134569367236268 0.33910562715855663 0.54098317312945499 0.12197325868751309 -0.062619158303928585 -0.22530000108208337 -0.367935761692188 -0.27641842951102991 -0.19019749010801379 -0.16097989515901209 0.12145552488171946 -0.17802932184732467 -0.033318201624117763 -0.10959334511718691 -0.014091201710534833 0.010121324762852883 -0.036228435149181525 -0.1617938419565067 -0.14955624038284776 0.34487363469680499 0.10044276079570755 0.10625405447007998 -0.25199295081468048 -0.43845733738271175 -0.26994389618908332 -0.32102399304173446 0.072852397436239807 -0.14608697381426899 0.20703816012386161 -0.055682737509262344 -0.16593905896684294 -0.10745113348922407 0.10941931496546717 0.40210455416438418 0.31209641172133662 0.27647167795862759 -0.086787248432444397 0.38694970184575439 0.49583139100190216 0.32871896042977994 0.021909610508278308 0.018599802816806624 0.074809058305471451 -0.12660464530880952 0.031372610545193406 -0.21195852161113854 -0.1968273168557178 -0.06888672700189756 -0.28175902165441918 -0.22983919768883551 0.11863243841440325 0.29075316399305218 0.3254466470121512 0.17107107992664122 0.17042744215833619 0.17985363131817905 0.12727208756472169 0.096353040707957624 0.0078997954891195724 0.12398365971426456 0.022744432670282786 0.020328290295750215 0.10537999867798835 0.098010478198889917 0.056226833050444056 -0.17691470920007402 -0.11470436595048428 -0.20037697600728852 -0.067906458638835598 -0.015700065399873116 0.23574635091385313 0.012102109709059014 0.36793294141357702 0.29015255229274162 0.14883490768161461 0.07015287532055442 0.14086855239758067 -0.12371388224158388 0.12444921533709803 0.20868844040642154 -0.025569164017504791 -0.085624276903835339 0.13518085280321843 0.040740920374495108 -0.25088295092163071 -0.41088711621922197 -0.19004416964247173 0.043516821704770836 0.21450090418088413 0.13522604111279918 0.19611595093367554 0.089029821374851395 -0.047615740111089204 0.083375832278122328 -0.084380530623433772 -0.027714378183625044 -0.0639777512094101 0.23405931244654257 0.1964417863792309 0.13634401592033504 -0.067503966700622364 -0.14471604682667419 -0.43838992662604098 -0.22258589094055725 0.00030074536275743617 0.11420746312765392 0.0085608120403551733 -0.11428581629594556 0.097048674302614393 0.12764879268224572 -0.07597594145140045 0.21141635615072962 0.035102978903477633 -0.25495808821656402 -0.10685059760424249 0.11305391899400347 0.17204656438610882 -0.22810766223997228 -0.27412393354647779 -0.11302168847157625 -0.16317950879791759 -0.13174627813857248 0.2047408379949015 -0.011017522324798246 0.037284082192094434 0.11818263263831326 0.17411216110371935 0.02429389322276021 -0.25890248879026712 -0.034529782114157991;0.13144502587155321 -0.16987418938785218 0.1037464178167441 -0.087772356929282674 0.093860866628186365 0.14439131716215917 -0.18197600153958121 -0.22021746416952351 0.032764583915711985 -0.190217654103567 -0.14589403278915597 -0.14545706194070093 -0.18411409159134456 -0.14514978429396122 0.14747947853912513 0.056380736889473586 0.080450092360165426 0.11093326777371991 -0.015468776797851764 -0.16479784537773398 -0.089709443437539768 -0.019952771405892775 0.034397999048569612 -0.13603778039811992 0.082493006221291479 0.077723477122885312 -0.09844613064219021 -0.10351409299707975 -0.19292134006981165 0.1317834017259934 0.093664944783923648 -0.10687513362199057 0.13166013735039536 0.051925496163020002 0.17872425821357946 -0.11274086393980619 -0.22430019709664853 -0.10151790438764079 -0.11324350867317036 -0.054846659649902263 -0.05665864451139084 -0.31830940701547761 0.036334148103166451 -0.14204124734711515 -0.14385760113261617 0.10750031509573658 -0.12705810795778544 -0.01382293631812751 0.19501915042775952 -0.22654166147690047 0.11936386345275214 0.105147166647793 -0.14565386020878726 -0.13479397369805277 -0.015672992648395698 0.017666098537138544 -0.039431598970767132 -0.094689306640524412 -0.24544573136568604 0.020058266433232663 0.015837592301783221 -0.0099425202517759662 0.10725473867369942 -0.194603317734519 -0.10817341566267775 -0.058925421145527207 0.074704375645410576 -0.025369400819520639 -0.16458259854126764 -0.21734331276896665 -0.076537296857710824 -0.039768662296868637 0.058507616043666194 0.11158839564292032 -0.22240896166685817 -0.32330183372313481 -0.21134285501846936 0.057721623277084681 0.1331719708911685 -0.17099122745266981 -0.0083338687592191228 0.034051946690945092 0.04204099521368318 -0.20152334846447498 -0.17616614545112527 0.162442763543548 -0.12020691225985441 -0.145105698084565 -0.029111096380462581 0.078632035061579161 -0.04029412786971847 -0.13237001319479941 -0.16845004292613852 -0.16513077527017436 0.032398234413871942 -0.085294500852959962 0.13332641123727998 -0.037605950552268473 -0.18848564755126002 0.19210445123819517 -0.16264231483555752 -0.15654131300163357 0.047884949318696655 -0.24236891684809711 -0.10489156081990407 0.12194859795207871 0.064842265708457802 -0.14159570454295231 -0.037105765458650311 -0.14737549157188182 0.0052875578653916594 0.01079049729650911 -0.0062174646121285482 -0.0086215974011094529 0.082957742691815689 -0.06435288812681976 0.11631112517384619 -0.14108651002899758 -0.14994994454119542 -0.074955220772685752 0.10691449829989845 -0.30732493532788407 -0.28961392395812663 -0.072066379295014998 0.00042851115510533864 0.044739749581016584 0.18342900388315264 -0.16118678208696036 0.090662244286354485 -0.15740504697451327 -0.051842642053661847 -0.094450772484084317 0.049442869354557883 0.03076192746245467 0.11410646170324477 -0.17865151418669248 -0.14272800748366682 -0.206971121353897 -0.16542456641429043 -0.084175141082242194 0.021725440368350356 0.092920550703588511 0.18080894638932213 0.076744841095806843 -0.040212057928821446 0.029880558863677471 -0.12245747449928641 0.055112765876311205 -0.14858989011025872 -0.17445129015211314 0.055766447729543506 -0.14833428523002101 -0.0058684667411809995 0.069920998583374736 -0.20237341840282971 0.021423043055975088 -0.16232127555418505 0.016620152762053215 0.12551837492207993 -0.10139267277753068 -0.15996253861337686 -0.11850164222693056 -0.086619707465840218 0.096384344238833602 -0.061268959033204042 -0.068232951216330759 -0.19931988175999696 -0.14160587897985547 -0.10690621952649644 -0.20361658119857914;0.15499588628646452 0.1354088717595828 -0.097589927853104955 -0.030995161030542735 -0.12201953948246132 -0.2933732409291534 0.060144306834728552 0.087129771844514786 0.094056226308660507 -0.20463231481085817 -0.21924388212470244 -0.038414289326511045 0.061366816433682997 -0.022595322984852118 -0.019011402259544209 -0.085305986653717802 0.11396077681372831 -0.03692440869443557 -0.10701000487507883 0.068865869593139312 -0.098928355736696047 0.0057512874473442128 0.11685896909283196 0.14498550198308599 0.42458780854809519 0.39532616487116662 -0.032008885841784331 -0.4024289576306247 -0.12419474107850718 0.17890174373559659 0.1439716875343722 0.11833989176542385 -0.11325867723315752 -0.081721532272930303 0.019625513035128286 -0.2409348008067258 0.0052678407510897435 -0.023745235643396298 0.023279153259128771 -0.12199900304187168 0.076984024747341992 -0.04939678523718722 0.15861082923677383 0.18876111551752106 -0.33076472359756137 -0.32584068702459923 -0.048592317212386743 -0.14211002373060139 -0.098358676662487085 0.16847964197081824 0.017102616228082061 -0.17670194022797148 -0.071003293016934657 -0.12202474542802709 0.02449659467964356 -0.064215539101477037 0.08302816292920584 0.15496463917795261 -0.031545436537173011 -0.12373590556835443 -0.014836223613125926 -0.09875612442904376 -0.27254652760175829 -0.093867633724346727 -0.26814699224822369 -0.039372292251040421 0.13305497118929954 -0.010743276136217133 -0.053772641271779671 -0.10624330591445232 0.025429700901424178 -0.15277788164083464 0.0107030970575035 0.18345531498540507 0.043926380737373455 0.17325009538290528 -0.23895809126407064 -0.085162795870763003 0.10522946548404197 -0.15085171681026879 -0.20714431267548911 0.037793653896989604 0.14050548432646764 0.074475968053476171 0.053726517335548403 0.07185717410972757 0.089484043540211583 -0.23885385554196609 -0.10843281717894704 -0.040288591885619625 0.070375078344288342 -0.19679289262534927 -0.083595637651604007 -0.0084906912937722269 -0.10400718879281201 -0.035604406429942947 0.14185542195159098 0.15740724113804416 -0.058587608938864569 -0.036084791619878008 0.26853028432415216 0.054225399198940455 -0.13685747074079116 0.081743928415090067 -0.22943746855447955 0.012550006726893298 -0.30693096194826425 -0.41357816444567003 -0.11864364969581986 -0.086167096636669646 -0.19066529426197618 0.14379303700375159 0.19999323688897808 0.061319459421992614 -0.011466770676795366 -0.081831987696861189 -0.033530245856888727 -0.22881718537816051 -0.16252009637267642 -0.031972591397723245 -0.0027279148692641764 0.078410738612766456 0.18438575403011592 0.074100650357623116 -0.069372749668008965 -0.41227364260453114 -0.10942170269155939 0.21287812135795803 0.086499357892501433 -0.041647849396581268 0.24456237473085615 0.011763953496665695 0.2871486630824393 0.012766068492410937 -0.11288864858586234 0.2140612506422136 -0.11772133239519963 -0.06849587002925063 -0.027329323723439526 0.1450680252445162 -0.20514334056058892 -0.10303306819909964 -0.018569061510024885 0.18374123133883113 0.21566612890701534 0.16258837093392153 0.067031694890622481 0.045686129567856865 0.073345233965616263 -0.068325586173597908 -0.1379834094733543 -0.027778244221324154 -0.0517399564684747 -0.05506740701845949 -0.010168644351108969 0.083978490400056172 0.024138246118382903 -0.02062228924291604 0.062670978607385977 -0.0081432551678798024 0.29415700124661065 0.14662890230839426 0.35887559134353131 0.19700922846705821 -0.093529689957773096 0.1099568305665122 -0.033782789929862438 0.07320256986726853 -0.1373935247295377 -0.11746129685414235;-0.04634958462240063 -0.065120637839246348 0.11791041733367108 -0.11096460686634556 -0.015077138096806714 0.080400368596961549 0.16902412529554603 0.073155792383508125 0.25233802861526466 -0.16633130191741374 -0.026529725353925115 0.0063710982796464487 -0.065446208397133887 -0.32271528559925738 -0.11368119156316112 0.10232470496190792 -0.0035202757639788045 -0.11016807062986389 -0.16007126687105744 0.1576274159807759 -0.31173220367193372 -0.31031411508744622 0.036827964815192994 0.033903453267841561 0.35262540720024826 0.30100689634352912 0.031167144035772539 -0.35935931601790283 -0.32077721482355021 -0.13214526938421128 -0.28127196149422656 -0.30189629141430452 0.00015866274550956094 0.046854897875703766 -0.038216125678463837 -0.25335153165558949 0.0069222853555308637 -0.040389147308260001 -0.11083262683093667 0.13455645782181547 0.02036261263811669 -0.077648746375494973 0.14868587107577835 0.20759938221718402 -0.13341339908306582 -0.29346842125208483 -0.014378661148634026 0.076718756023858678 -0.32556623062035972 -0.092691519750405252 0.14200118309993828 0.029446180404301518 -0.017688260498169496 0.047856725504271502 -0.11366247733131199 0.10362830420609702 0.40119733134835572 0.031722687113299869 -0.29103170309789639 -0.26895165893476042 -0.0098936041231963735 0.2228707126056694 0.0047362121070419119 -0.24157510676626576 0.0017818214585983423 -0.069676917260453539 -0.16177224425466311 0.097762606352230622 0.13917149641609944 -0.093211988292499631 0.24270482503219634 0.050572187510342419 0.055471757717905343 0.38896573173790328 -0.045694700413769392 0.043642449555060761 -0.095097050041134765 0.047524790204255339 0.29205820823641543 -0.12994955650186424 -0.12124896472847201 0.30201791669532108 -0.33624338866294989 0.060061941937376788 0.12554530894060142 0.045471234047701259 -0.010069028639062089 0.13566844249605758 0.020731342472934948 -0.0071234997093642637 0.22681547048552236 0.046896991413564987 0.16905728584037313 0.045701378997624567 0.1185672303623705 0.11215057330825762 0.10655188249034001 0.38408090839478787 0.15326001831995284 -0.040784393065934309 -0.094043880582054276 -0.16876330639638887 -0.024941783126793193 -0.0040045899241032135 -0.12766875412049972 -0.066846842989815303 -0.26451488547574581 -0.12075109374997774 -0.033138866438668958 -0.087086232436388925 -0.13858896479606514 0.16498558025420346 0.2683506687008485 0.037406940078851973 0.40811239421060735 0.11070344017864112 0.020664648783225797 0.0133147767366249 -0.14805590006305927 0.048310518420236315 0.011489922946926457 -0.18554136497516624 0.020009417926829531 -0.12832372625473279 -0.14017974288355808 -0.10073503139350823 0.056375652824366324 0.13422343618844326 0.23643875086300936 0.027833441120788692 0.23336026107067598 0.2146769667925755 -0.091698453392203352 -0.23396134024436685 -0.21524972990670266 -0.013947036489536295 -0.13820447681853412 -0.09891425908675501 0.14525492066201787 0.14514014734178918 0.031861403804505438 0.059730925651263499 0.075684729917512836 0.1856436652288779 0.45855938241046457 0.20970369658821128 0.18869828478982006 0.094660457433634437 -0.00069263325615638322 -0.28691331233404604 0.14223627712820824 -0.11428086893434475 -0.17687138883528139 0.03164463926948001 -0.096535428481610869 -0.12779605601090713 0.057055219906709378 0.0083595650179299642 -0.17132589526350692 0.33352243845197777 0.015622685610637276 0.27351223526001361 0.12192687899999589 0.14456379468248623 0.13037186755961636 -0.14325387335943246 -0.058623728766806806 -0.12221935285611185 0.047733617322809556 -0.16678677971554082;0.076808394449265835 0.053324686496493509 0.16640365444426541 -0.021476252828279013 -0.046671825367069028 -0.085990010769980363 -0.097832527425264632 -0.1429958216289279 -0.28447127701095448 0.042312412306091077 0.064743512004540968 0.10451209854259522 -0.01949084292983741 -0.17759835145742828 -0.017403534065256916 -0.15805762651015157 -0.15393444415953961 0.22815233843353316 -0.052100312254595507 0.12125461461473573 -0.11146165483376638 -0.12508748096684033 0.06676579621048627 -0.4214275348978469 -0.018379637646489318 0.056916090689653476 0.24887618056962349 0.18649905678394527 -0.11194063190579984 -0.026409074226542283 -0.39673349024213306 -0.02611466132612867 0.10311339676149611 -0.079407301024535887 0.12248479392532212 -0.08081507360785771 -0.16099540537862939 -0.057872366641881848 0.065917771076885873 -0.29632076242557148 -0.29710284975487122 0.016876365555361081 0.16724278208413659 0.20414637816001074 0.22812490774530989 0.11771316761614757 0.048064477426263373 0.082749784979071886 -0.23426146448877519 0.11249751174194909 0.063590394249203902 0.082785944165673545 0.064956628935616836 -0.078300468141075399 0.15937982056559696 -0.20498357494831174 -0.19606218911204989 -0.10385782030448178 -0.13728911221997461 -0.026997971504355865 0.34357367275246936 0.1746439914029691 0.19009938707016102 0.22543443485968229 0.15253933440482725 0.22529207413582278 -0.093848870116408786 -0.15134147730497627 -0.073039261721568272 -0.072791951975315489 -0.035051256315944294 -0.02422801308834505 -0.010100245720779459 -0.0097031128852896626 -0.070940793924462051 -0.11082395690648982 0.052032791393564447 0.09666480201580839 -0.30153609459041258 0.33819731028613476 0.021860409915495795 -0.23057814855697539 0.0111698626486072 0.039334815743048666 -0.14192254859933989 0.089690122056277771 -0.16137452860406615 0.16302789474875332 0.13067090610162341 -0.035232618325726481 -0.031452967020755354 -0.25794178001949419 -0.21901660340995743 0.060149736901704436 -0.20965503357763027 0.19524561858580736 0.37475505819380822 0.27852197484679408 -0.0059681840384012124 -0.070376210615961388 -0.12212111280945424 -0.031071567000772876 0.14958249079773706 -0.0038394644879846404 0.025540082329541774 0.11544580026186485 0.28163794475805415 0.17269677369471162 -0.097889531270220959 -0.24830502724116252 -0.16615643008715977 0.067715751962479809 -0.19142265636478156 0.31658763499323034 -0.13048839499622519 -0.065205999998315542 0.077011701383055131 -0.047750035719052515 -0.2481226224784375 0.12298779757942638 -0.064367243601511581 -0.00367151302214285 -0.1041997464231343 -0.011095754037598562 0.24507413537357919 0.34290264190024111 0.12581050712613651 -0.184287394985505 -0.06150214609769613 0.19279829152550401 -0.027047238931631877 0.12980926213191141 -0.039308987201954228 -0.063455746841950586 -0.1190112299996791 0.043131223576208327 -0.098213338258122396 -0.0042278653511464747 0.12156100994974815 -0.048984910097630251 -0.16966229400399724 0.052410673973893693 0.11331643313475416 0.0075371761797737502 -0.18252772988880589 0.23189324014445681 -0.13847477275805287 -0.059234234963788858 0.097099458847843462 0.083194272158482976 -0.083157823667105765 -0.22488321386231033 -0.019325360342602793 0.016163143609909565 0.047419958711090421 -0.19355517504736305 -0.24627800081575948 0.17986612194041113 -0.022463158860350028 0.0089137027592379875 -0.079247437512479882 0.087529384749564398 0.1680307408610312 0.017792568617958426 0.11695789581529298 -0.0123011314427229 -0.022243945296915663 -0.10271359112398579 0.082411774790349626 -0.074700019564867298;0.065976659232466817 0.025991744390581224 -0.3191206926610124 0.14348221892889385 0.080769323360455086 0.0062568620103510032 0.34264220543186341 0.24587732117655955 0.065079929524012453 0.34909439948540077 0.11045821749708998 0.19929332585467102 0.0028708361638490809 -0.25842185613437885 -0.16419004783264921 -0.23953319911542709 0.13939518912203763 -0.21912159231522738 0.11543241541322521 -0.24050998199682633 -0.097910064060760083 0.14399845057849481 0.12148516092790486 0.40203151400401921 0.16817712004575106 0.22651555225386147 0.11094813068387878 0.25576297900997269 0.30298339652820094 -0.01339847896131963 -0.28299100504116781 -0.13119387673293309 -0.14616574572153715 -0.017248011382761899 0.07438708914324936 0.091050586637551945 -0.12917063704419965 -0.077643785513539343 -0.069725581274264592 0.18134576764669433 -0.086291497332240896 -0.28613562431897827 0.014044625683580867 0.18312768351199063 0.1660525481451039 -0.042387022769866431 -0.1689447201389489 -0.29795248342255942 -0.21517325399335896 -0.27516551907431047 0.027085232594969168 0.0052843543729000171 -0.044236748948825511 0.013334659967996907 -0.089516587928850699 -0.098079648798831312 0.10521108218366534 -0.24307094062282486 -0.16629244827565781 -0.25445496807387841 0.19627404514068469 -0.34027282722050678 -0.27411046454023336 -0.079005269696768174 -0.0041547219909482836 -0.056630758122890978 -0.061834200215257019 0.021952457828205527 0.032921390920967894 0.055126313781462606 -0.16290826269133346 -0.16620954618124309 0.20019773100629376 -0.16791113205051461 -0.083615578896595669 0.2247664209967723 0.11678059035254741 0.18998158805037682 -0.003793662740962365 -0.062437040498028028 0.00075790946451557008 0.10610498709599267 -0.050703401313736442 0.1811791487900293 -0.056804390156903264 -0.17227495189573377 0.024454774547032671 -0.26124119778820099 -0.17515469820873181 0.095465507616887102 0.13345510849863537 0.049555792135624589 0.11119698375784302 -0.14184142915034884 0.095825515360437138 -0.17094550689044644 0.21472737048099919 0.01089993129605802 0.2321953789340751 0.073004367919275087 -0.062111573960908439 -0.098917469525616683 -0.011381217421246204 -0.13633515189821938 -0.038316635287860792 -0.16203079400472323 0.14067444977677854 -0.059857624936581456 0.036406995274130279 -0.2666499242708894 -0.15911658187113437 -0.050921796065153263 -0.2298944363409039 -0.03980862781274111 -0.12419170330690089 -0.16058106471609437 0.12142715219116876 -0.23861514722524527 0.13233707170727613 0.21667442739447432 -0.0849087703162099 -0.1348069117216463 -0.093031576592796955 0.39330373959651749 0.29891605283060907 0.07395587066323446 -0.015296026631567747 0.025389230859958856 -0.11713710893717935 -0.082569102015916204 -0.066852523223226018 0.24601884922936082 -0.25575475724959085 -0.19568036161935551 -0.12684807588240962 0.05919683713488863 -0.010332690776849089 0.035732412387819226 -0.26184579861205382 0.11383611594677789 0.080957656449862664 0.0044289652569082325 -0.25651040678315751 -0.14330445878411094 0.068682214083295709 -0.037296795134593767 -0.09594852012636311 0.21790874031031846 0.20372754346474589 0.16730624511045228 -0.048038591616639238 -0.074624703726633643 0.11188622507686231 -0.12025077484509265 0.02030853405372969 -0.20537608762819143 -0.08648625170232685 0.11168240180108074 0.099960344985667512 0.17328248672038693 -0.11470601458321124 0.056380127967224219 0.0040547038968867626 -0.11237766896570932 0.21308310908494205 0.098869711721350062 -0.19995351278778881 -0.28802382889613304 -0.21084090082332277 -0.18228157606598949;-0.12742356326156604 -0.16117608570774536 -0.28752970927869465 -0.18747181979654692 -0.1502255647699626 -0.021390494853979806 0.11856039311232372 0.074791151966120809 0.11839300334725963 0.15278242769823749 0.09154180804039079 0.18759614104537839 0.21338564339062416 -0.29237491841076485 -0.20691069238978654 0.04755022914142059 -0.068907410865028315 -0.015234303113816103 -0.032144697042539118 -0.22834614002274345 -0.13645850910150151 -0.041356401530353644 0.08130073415501346 0.092095118847798946 0.049504305218443775 0.32365961648418534 0.34908366398035667 0.31793218737863033 0.33718601984245156 0.18480746496462289 -0.14664767225262193 -0.050662829419750186 0.033600888056651027 0.080210164412325285 -0.029751559752682021 -0.11477721377081883 -0.14689605508616874 -0.071845406778275223 0.05104400178734006 0.012684389377987819 0.33725027763194881 0.23584300155994453 0.11112755508451456 0.017080564901705855 0.16152392591577422 0.020761667052395995 0.082267682190253627 -0.19351457830642924 0.13846155876912133 0.078080078598726343 0.02868893594935433 -0.16809443647537509 0.012312869323889421 0.016315922277412007 0.023870320537087195 -0.19858410127348017 -0.0026042985522472381 0.30854984791363388 0.28731864315279537 -0.041286516130391318 -0.10246533645776373 -0.26904118095631946 -0.22727376798668569 -0.21903512431332522 -0.12949677204664026 -0.08264382279035308 0.070582784365045059 0.085317942778814757 0.03159814481398969 0.12501536632601606 0.016011753247711858 -0.077743009593294568 -0.031486942005869704 0.097644945478541606 -0.083924040093690172 0.21263386305113841 -0.093100719541173868 -0.26578966930641945 -0.26576811162175584 -0.12467008187596004 -0.034635866228850537 -0.098790249443867342 0.15264930909736679 -0.19883779374719582 0.0066915804163077824 -0.21061520462622252 -0.10483627818392349 -0.21303770677106074 -0.16743669409084999 -0.18444977596228146 -0.18276081782494857 -0.049716271930749997 -0.17720839890662399 0.04888870365772241 -0.26784808530654336 0.079150168887777206 0.082835361441816399 -0.13687062498711186 0.072475002255882298 0.30190123445390071 0.045884469404499813 0.029916033143185125 -0.13313665271758723 0.14564114072870646 -0.19158590796882063 -0.042009691878895805 -0.13523163585238912 0.08147019714610404 -0.058135545714629734 -0.068608079181585124 -0.14529579449149843 0.16849653837299422 0.2769286837854168 0.15698994466310501 0.1300211547063132 -0.097589388840360544 0.1393065276299883 -0.07459183900141618 -0.081367077172156133 0.1340687683948206 -0.14183192596904445 -0.017422326586520452 0.11216707541894544 -0.14708332681130748 0.1241332113741323 -0.073475352791479098 -0.040962270167250528 -0.044373864051546676 0.17959050095603948 0.49481058782153314 0.18852901626123933 0.24587159304305284 0.15705263387550628 -0.18604597149585808 0.041073086972011043 -0.17461471920167129 -0.22414527376304677 -0.24984024974835875 -0.0095490908861303285 -0.15061143884165082 0.0056670316078064609 -0.088872776630423464 0.058440597550112036 -0.045267117652275576 0.080177853119495476 0.26197103976132402 0.29527018661290627 0.22699430819221481 0.19598567528199448 0.11260167004118093 -0.038666724965163574 0.08574830445717832 -0.093132502142018042 0.13845203814512633 0.10484219480169503 -0.025275270259931079 0.0066952703992640781 0.023551510134147594 -0.11386936993330773 -0.079130565786830268 0.015247552108760399 0.045361055817213336 0.0067338130813118504 -0.030647693046626755 0.11576990747507566 0.16602447242349536 -0.15321255112738261 0.021421779300510094 -0.10165167766209555 -0.012358051028718051];

% Layer 2
b2 = [-0.72729485705104069;-0.53994069208688744;0.01959430930811782;-0.49396837764846468;0.14549664455187031;0.20632470750246215;0.82900715833810235;-0.12479699018269047;0.27378881339257688;0.12616421501718422];
LW2_1 = [0.25659453126954795 0.91377983532313567 -0.76601708169463778 -0.3251632582284682 0.41604957872747206 0.72247866857125831 -0.00056463511894298574 0.76286242961801842 -0.89890656261993174 1.1732282670402117 -0.7503887334476238 1.0266628875254569 -0.78486456094616741 0.19845502045991767 -0.17152464903614159 -0.55701824706158798 -0.31620025869100388 -0.47576452359072485;0.52210191738322498 -0.29818065060875637 0.53518419898398362 -0.25834561584400928 -1.2926080288419677 -1.3398451653120345 -0.19854125319966789 -0.081594686210800127 0.44097745496074175 -0.50898224127537228 0.081020194663316544 -0.3515979062430391 -1.1018549212777464 0.073956458332080949 -1.4409461480990173 0.043566758292430806 -0.60167874654641107 0.57392789093763974;0.040226128822067421 -0.88813583456919487 -0.63870466780146284 -0.25297588492019907 -0.61849742102016636 -0.32271244008564814 -0.59637368188666895 0.61228809987323418 -0.43277561083675392 0.18246326080198447 -0.54427113690405027 0.83005999094111582 -0.75611939126504346 0.63637240013046481 0.91776121005664979 0.49227843483048656 1.0646895227851647 1.2183978081525022;-0.15497384367449374 0.88866430835720422 1.3553944593932594 0.55778928081435708 -0.65078584535531403 -1.0755425973982873 0.94734423123717149 -0.42369651318124496 -0.43475014399094175 -1.0219414367924629 -1.2293927993869627 0.54414302200950015 -0.10435486843293484 0.29305113869542532 0.21189134699063472 -0.25552108739872487 -0.13014601007295154 -0.41218888407120374;0.20070394341223974 -0.1741854701588387 0.12848204528314247 -0.7373159579136781 0.2994509173885358 -0.79085316255241067 -0.34195284676032489 -0.35093503934211023 -0.91657196741796754 -1.1240622910990148 0.38363191454163614 -0.47999720789439093 0.42461297044813107 0.8638780767776012 0.060180328624314175 -1.342162491251873 -0.25960993010592831 -0.846298510512276;0.1499507882052547 -0.28000832952694765 -0.54531780366385363 1.2797001249748423 0.034153403717992983 -0.0082700028847259958 -0.68886876897645899 0.51388059686385945 -0.31369918414364006 -1.5125752070606258 -0.95430882035631581 -0.97893220531916414 -0.17607971702004302 -0.51604821154385805 -0.51722502326390707 0.57796557109683178 0.7245600153083952 -0.98646656091573426;0.4805429261971127 0.64810999333355868 -1.1479889548873576 0.92557154591388269 0.96979833728718523 1.060981689399173 -1.0323239923154051 0.22856488569487629 -0.67155796604387441 0.44069398908168528 0.44210669532278535 -1.2962071472200472 0.67754756517597892 -0.48868569478478857 0.20525443181491196 0.92169764558827749 -0.98895868151211996 0.74751718875025353;1.0999926606743136 -0.25208713587786935 0.97346594535025188 1.5132274817996878 0.19477694005121565 0.95843935305242844 0.066138670807986369 -0.0096435748796818502 -0.84604128919546095 -1.1040095107875507 0.20828350812702226 0.2276857665345926 0.53083944463358024 0.56114534231098112 -0.097187032691547298 -0.34855976135363625 0.77835937001091726 0.8547752817997335;0.4382200490961709 -0.075440312527365411 1.0512743843700396 -0.4027876912945611 1.418337771139103 0.68092284014271587 0.075061779443842069 0.83538406171168966 1.358193830645372 -0.87033485498977148 -0.20313071841620084 0.60357106462659804 0.64402987535934419 1.1651975371025347 1.0776396705044697 -0.359696254104232 -0.66355039552178408 -0.98943849693953112;0.030074926687634021 0.24931189591074823 0.53539140632683091 -0.0087148799166766235 -0.044059555359525465 -0.77888408482279869 1.0066602513125604 -0.83015739026879565 0.29039316174726515 1.3547939961735325 -0.30619260418658067 -1.1928013407194793 -0.25572799088562514 -0.56469411144351733 -1.1960640472260606 -0.10111400102771323 -1.1209990030949648 -0.51058594812411795];

% ===== SIMULATION ========

% Format Input Arguments
isCellX = iscell(X);
if ~isCellX
    X = {X};
end

% Dimensions
TS = size(X,2); % timesteps
if ~isempty(X)
    Q = size(X{1},2); % samples/series
else
    Q = 0;
end

% Allocate Outputs
Y = cell(1,TS);

% Time loop
for ts=1:TS
    
    % Input 1
    Xp1 = mapminmax_apply(X{1,ts},x1_step1);
    
    % Layer 1
    a1 = tansig_apply(repmat(b1,1,Q) + IW1_1*Xp1);
    
    % Layer 2
    a2 = softmax_apply(repmat(b2,1,Q) + LW2_1*a1);
    
    % Output 1
    Y{1,ts} = a2;
end

% Final Delay States
Xf = cell(1,0);
Af = cell(2,0);

% Format Output Arguments
if ~isCellX
    Y = cell2mat(Y);
end
end

% ===== MODULE FUNCTIONS ========

% Map Minimum and Maximum Input Processing Function
function y = mapminmax_apply(x,settings)
y = bsxfun(@minus,x,settings.xoffset);
y = bsxfun(@times,y,settings.gain);
y = bsxfun(@plus,y,settings.ymin);
end

% Competitive Soft Transfer Function
function a = softmax_apply(n,~)
if isa(n,'gpuArray')
    a = iSoftmaxApplyGPU(n);
else
    a = iSoftmaxApplyCPU(n);
end
end
function a = iSoftmaxApplyCPU(n)
nmax = max(n,[],1);
n = bsxfun(@minus,n,nmax);
numerator = exp(n);
denominator = sum(numerator,1);
denominator(denominator == 0) = 1;
a = bsxfun(@rdivide,numerator,denominator);
end
function a = iSoftmaxApplyGPU(n)
nmax = max(n,[],1);
numerator = arrayfun(@iSoftmaxApplyGPUHelper1,n,nmax);
denominator = sum(numerator,1);
a = arrayfun(@iSoftmaxApplyGPUHelper2,numerator,denominator);
end
function numerator = iSoftmaxApplyGPUHelper1(n,nmax)
numerator = exp(n - nmax);
end
function a = iSoftmaxApplyGPUHelper2(numerator,denominator)
if (denominator == 0)
    a = numerator;
else
    a = numerator ./ denominator;
end
end

% Sigmoid Symmetric Transfer Function
function a = tansig_apply(n,~)
a = 2 ./ (1 + exp(-2*n)) - 1;
end
