function [Y,Xf,Af] = NN_133Binance_22Neurons(X,~,~)
%MYNEURALNETWORKFUNCTION neural network simulation function.
%
% Generated by Neural Network Toolbox function genFunction, 16-Feb-2018 12:07:36.
%
% [Y] = myNeuralNetworkFunction(X,~,~) takes these arguments:
%
%   X = 1xTS cell, 1 inputs over TS timesteps
%   Each X{1,ts} = 170xQ matrix, input #1 at timestep ts.
%
% and returns:
%   Y = 1xTS cell of 1 outputs over TS timesteps.
%   Each Y{1,ts} = 10xQ matrix, output #1 at timestep ts.
%
% where Q is number of samples (or series) and TS is the number of timesteps.

%#ok<*RPMT0>

% ===== NEURAL NETWORK CONSTANTS =====

% Input 1
x1_step1.xoffset = [0.813037037037037;0.76078431372549;0.440336461843484;0.686274509803922;0.419607843137255;0.396078431372549;0.392156862745098;0.256403826582536;0.251684857257013;0.158495420313454;0.228956645634032;0.242421331162223;0.392156862745098;0.431372549019608;0.172680974888994;0.556862745098039;0.865362914716059;0.823328523720138;0.454901960784314;0.0941354984131292;0.323216560749636;0.073880664299553;0.0621360411907939;0.0603086294110108;0.0485096682271524;0.0410986423019804;0.0567619995326081;0.0357451658864238;0.0603086294110108;0.0603086294110108;0.0802707857460555;0.0585174028088744;0.388235294117647;0.908804185418881;0.908804185418881;0.380392156862745;0.0550420577304355;0.0550420577304355;0.0397134133930389;0.0603086294110108;0.0567619995326081;0.064;0.0698147771219214;0.0550420577304355;0.0517071111412654;0.0567619995326081;0.0567619995326081;0.0397134133930389;0.0824799511500102;0.435294117647059;0.886906242697002;0.813037037037037;0.356862745098039;0.0454468341738849;0.0485096682271524;0.073880664299553;0.0698147771219214;0.0485096682271524;0.0357451658864238;0.073880664299553;0.104213311622227;0.0439649908406269;0.0425157141672509;0.0802707857460555;0.0621360411907939;0.0485096682271524;0.364705882352941;0.897810706289436;0.865362914716059;0.345098039215686;0.0410986423019804;0.0469616060188012;0.0567619995326081;0.0870191404512593;0.0533572155505801;0.0533572155505801;0.0357451658864238;0.064;0.0439649908406269;0.0759715041726033;0.220263036087176;0.0439649908406269;0.0383596655886499;0.337254901960784;0.833706492977814;0.844171306661842;0.301960784313725;0.027532879510897;0.032050478322817;0.0344836902850337;0.0718285425665845;0.0517071111412654;0.0469616060188012;0.0485096682271524;0.0517071111412654;0.0585174028088744;0.0410986423019804;0.0550420577304355;0.0264740409043279;0.0425157141672509;0.349019607843137;0.813037037037037;0.833706492977814;0.356862745098039;0.0454468341738849;0.0344836902850337;0.0550420577304355;0.0567619995326081;0.0621360411907939;0.0485096682271524;0.0410986423019804;0.073880664299553;0.0533572155505801;0.0533572155505801;0.0357451658864238;0.0357451658864238;0.073880664299553;0.419607843137255;0.897810706289436;0.844171306661842;0.352941176470588;0.0439649908406269;0.109511304098725;0.0678390061137873;0.0718285425665845;0.0383596655886499;0.0567619995326081;0.032050478322817;0.0397134133930389;0.0485096682271524;0.0397134133930389;0.0425157141672509;0.064;0.0870191404512593;0.443137254901961;0.813037037037037;0.833706492977814;0.6;0.216;0.40073106120572;0.407843137254902;0.233387942797265;0.169058416446163;0.114985880242139;0.12647636278656;0.12063993486668;0.114985880242139;0.099089007998432;0.291098235218732;0.4;0.443137254901961;0.833706492977814;0.833706492977814;0.854723326623998;0.76078431372549;0.440336461843484;0.733775094043769;0.749019607843137;0.42022274992273;0.426857724404641;0.256403826582536;0.251684857257013;0.158495420313454;0.228956645634032;0.242421331162223;0.623529411764706;0.556862745098039;0.172680974888994;0.556862745098039;0.865362914716059];
x1_step1.gain = [7.00968606041476;5.90405030672216;3.03962458826166;4.8601610282094;2.94083638114669;2.84380984573813;2.83123871128199;2.37164055488685;2.37034842138942;2.1413166342099;2.30180694221725;2.33814248049486;2.83594158427042;3.0145156495088;2.16773527304359;3.69614545431788;8.52580445544032;7.31859800237328;3.13352561003551;1.99035502586671;2.58528585096279;1.95158642745355;1.96249593987279;1.93194895810145;1.90277355744161;1.89256889271101;1.92604479522165;1.88714705170179;1.93633418348533;1.92733841424009;1.96949149663795;1.92880639276437;2.81526939830809;10.4877579013681;10.5286094724553;2.78408558763357;1.91414853917569;1.9184745042533;1.89912393318374;1.94701025515748;1.92473990696483;1.94678689754753;1.95418788253752;1.92195248780533;1.92236523827848;1.92576102654971;1.92992432632924;1.89475876318148;1.96928278166439;3.01073971489888;9.40048103503306;7.02231613420337;2.69210031410482;1.9060653017838;1.90589466368245;1.95444533303242;1.95403390521239;1.91882921373822;1.88329314583555;1.95791479255546;2.01587493683234;1.89620121448319;1.90230344440433;1.9755955853582;1.92707109174403;1.90588410016371;2.72409956400052;9.92839758136309;8.63488167872538;2.65525988369036;1.89363931312486;1.90053201395126;1.91872861816993;1.97837229501955;1.91899837464193;1.9159617478577;1.88807054728952;1.93364933138484;1.90174751250359;1.96443833338395;2.27925398155789;1.89537759924907;1.88735248569182;2.62325759818305;7.51229695178391;7.88588710271195;2.50678957959639;1.86889848256771;1.87631754561404;1.89450168296759;1.94886652092374;1.90913110805922;1.91646348106912;1.90980633719392;1.91870887392154;1.9306954306849;1.89585752154258;1.92493816482489;1.86788366905848;1.9004189388748;2.66501968451;6.99090125469146;7.54798135991674;2.69138934405405;1.90903115329481;1.9713833559237;1.93335736673689;1.92285312705761;1.94952949902375;1.98493239129088;1.89547660997838;1.95232749230578;1.92582740312981;1.91465715864266;1.88533661167464;1.88537518616111;1.96155087829566;2.94374807241693;9.89814850085464;7.82472876693075;2.68058889021887;1.90233813673554;2.02035699202253;1.94142730562955;1.96231118701226;1.89354800469563;1.92911618843055;1.90019554733081;1.90261260151916;1.90238936708989;1.88991372548132;1.89279109365127;1.94158064053237;1.97759722300798;3.04542819376191;6.96961229885949;7.53227733534504;4.00798500099886;2.26335713637102;2.86737199282264;2.90292688740016;2.32868769263222;2.15199502275167;2.04676647735741;2.06977710696617;2.05748493550433;2.0381092439473;2.00690893641721;2.49088070655848;2.85746817937672;3.068018180216;7.51686349544248;7.52508725830133;8.20326246969749;5.91786565535961;3.03526345290762;5.48635389865843;5.71212624591232;2.96333673599616;2.97283567771881;2.38507627556558;2.36305367924318;2.12812487643918;2.30799603369033;2.3369707039101;4.22039914522826;3.69571215867586;2.15706168575944;3.68562462762322;8.57258142046622];
x1_step1.ymin = -1;

% Layer 1
b1 = [-1.3377784790549847;1.2420375300024871;1.0768130377072247;-1.049103327513319;-0.89946566648094117;0.70317148276665498;-0.53463171595389347;0.39234557270148845;0.26265114712799209;0.19971211275650752;-0.03029458746898922;0.12073960241588758;-0.16092213762429211;0.44247655844453748;-0.46222917679340897;0.65051273584945823;-0.84553719902317426;-0.92188795220170505;-0.99215847061389295;0.99914333663334798;-1.2810566421577338;-1.3532460101394788];
IW1_1 = [0.061543010352132659 0.031797593522200532 -0.10878025311643486 0.21920745140644307 0.06234514479810515 -0.21326865871188699 0.061731641525574941 0.051525096113851289 -0.010700142887857726 0.0078010098769634604 0.26446082917642361 0.22464303559581494 -0.16340000323581944 0.19979870226648436 -0.0027625550200976899 0.15968087102207815 -0.043416605599412607 -0.12900360550762152 0.068463154178112745 -0.099445874732170411 -0.028136958389849129 0.072063206450666314 -0.19182524589773245 -0.26762223997827839 0.0021764937093902339 0.024363688039358667 0.13887123391911199 0.10255340245196312 0.0029721713136324178 -0.066264009006759966 -0.24765483121918766 -0.017063284628004324 0.11820124745836953 -0.20742423177987118 -0.14592734640206043 0.15477098250108021 0.14588636106255065 -0.13544820297619672 -0.21182333812585563 -0.079767797831922352 -0.17982587466970801 0.12419291975199548 0.2518893412853121 0.16536039839791389 0.34390106666862597 0.22056646601252636 -0.020621348810812234 0.059652091447983495 -0.14408549842446572 -0.15409144257296165 -0.092059264270336297 0.027878657665759133 0.060152256371484261 0.046102251836872846 -0.09376290670641943 0.078512413251900517 0.082046965045417725 0.25105423247964698 0.24485601792765341 -0.0055330255241333361 0.32446484596046282 0.58380452943062466 0.29898253535651165 0.064247672144866874 -0.037542016933268273 -0.027762279565073471 0.052340238343365486 0.042932650933886075 -0.020600395535903426 0.04220349395588946 0.18773016634054626 0.024411425431991006 -0.004104219982467296 0.15354421422940753 0.19906527014902009 0.19623975220296791 0.25749418098628057 0.17051536542250631 0.14773061061275711 0.10891938690678331 0.12411637609735732 0.048621924481973583 -0.20476540633662629 -0.12412174680928266 0.15518966212142327 -0.084000502118098036 0.15030318803012108 0.20890413617927719 -0.0096214652696975187 -0.23923510237312778 0.099378955374468947 0.37864694618481787 0.049458799708420598 -0.081033579023683508 -0.092998121867287231 0.38764648849536038 0.041457997976352849 0.11263059664567919 0.10741065758234816 -0.29440324194572204 -0.15756927713869945 0.051956433833848105 0.028528147594928381 -0.023106559238981417 0.032960151171558733 0.040775916110246238 -0.14923386908008018 0.22158604782375171 -0.027373891775594798 -0.043605174103721438 0.21248587364565402 -0.048302289971079722 0.30235665859266581 0.26209498268841064 0.10699568798960415 -0.0041022081699250102 -0.31445201230255088 0.20845726109781529 -0.10009550110060753 -0.17357886412779572 0.12922605717197094 0.20129219096858184 0.058429360984742724 0.14178819248859026 0.070236814849776535 -0.042764764200330228 0.073868477462386353 0.040769990063398903 -0.086455139278449791 -0.11639904214212901 -0.1255852639719949 -0.076990968683343555 0.0017458264391276915 -0.17538065713567205 -0.045104015928400493 0.1062407999327873 0.065838642049958956 0.027168426185750327 -0.094448962924470956 0.041368145285076575 0.13579095264654506 -0.10586387997571491 -0.16724473337381698 0.060533998654636607 0.092747689676650161 -0.12062435607918318 -0.22596307936689028 -0.088404880416151285 -0.01692916904654914 -0.20794996814430897 -0.033033097359221296 0.12827142571509823 -0.11859858808308793 0.16942594623011917 -0.045662458827372701 0.12628128701382355 -0.26013919477267805 0.12192782069548921 -0.024615826222724731 -0.04800986139790938 -0.013947406407844065 0.018572024383965099 -0.088147860894025168 0.14544309096851468 -0.089635310120410441 -0.10421100808240383 0.1491575235291302 0.25016293806672663 -0.05662949787758341 0.17183385197024456;-0.0923347636782611 0.1805677330001422 -0.025421252963447181 0.1834385136257167 0.17421279231619718 0.15555777559156658 -0.13076424207343526 -0.62848410942392141 -0.18320329149145534 -0.17535736626937584 0.255420867926409 -0.20351032431173169 0.18384066322580708 0.0027750254272255522 0.16532413827643078 0.047783824195233943 0.11271845256053248 0.086787503331412413 -0.15542944797617067 0.028798020229637331 0.58791848977697936 0.25622851514645262 -0.062142512532629882 -0.31794468152685973 -0.2143738745855244 -0.42843569332002351 -0.027625203841006828 0.23896255048063772 0.28644323206910965 0.0002912886557935087 0.37993912152908277 0.26088270380734463 0.14478024632016187 0.15434207567482042 -0.047657865108051783 0.068309068304778689 0.18179385915127955 0.31753573617632136 0.17415191728324617 0.17156763679561177 0.048882235664974343 0.05477884648466786 -0.23688521023860479 0.10080376415665927 0.20094386835437453 0.5207766112948008 0.12630989118323066 0.055005632740016519 0.12703238410902101 -0.02429083846894374 -0.064511961025744829 0.087847178438979809 0.20155307062879452 -0.050179017575494193 -0.10168663496233828 -0.13634941134928857 -0.22177498109860283 0.009311246995066625 0.29963179202314921 0.33121179341138424 -0.024432840563834136 -0.13624836985832559 0.0037622599924271543 0.12945078823981329 -0.12853459553308758 0.230957585993224 -0.20316552637753776 -0.10460241078684263 -0.014919146954874533 0.04334371969565274 -0.011241388606298711 -0.045264076260526996 -0.28772591791419289 -0.49085560545889229 -0.20565983113721917 -0.057759130214815955 0.060030405105110173 -0.044944036046202201 -0.45242151319565788 0.086577494868515847 -0.0014364417147548943 0.015096670845454149 0.13261591885755336 0.11723834012400855 0.24458246372638784 0.24089632162815655 0.21780251953993368 -0.047653776798390203 -0.061688987493971059 -0.14643985859233088 -0.2749650156278548 -0.016015412800091711 0.052105232731938511 -0.019887025666254929 -0.047385358250095169 -0.21636641806362664 -0.090010026889698488 -0.05391890392657947 -0.32605886100122394 0.13726439616281447 -0.20935713092652608 0.026889564023640816 0.061699811230919971 -0.18143508413184703 -0.10077306444780713 0.22321469976300096 0.15816092682124727 0.27293299555772749 0.17114467676799391 0.024788555473236492 0.089188337648377525 -0.12242267219844942 -0.12512885460837805 -0.23858925382970042 -0.29723351366891609 -0.311586702200563 0.065303856740523775 -0.13190658478790937 0.056552676857161442 0.22168789056833382 -0.015881680299060213 -0.20314910216675139 0.083051782178346162 -0.059369677757661297 0.11987719357536394 0.44294511402325454 0.033295268186822158 -0.28452094108403803 -0.38112412319202033 -0.023513877274062931 -0.3092542303954805 -0.22697510837947232 -0.12387252242091221 0.098158317208562496 -0.16859289802445257 -0.11085500920953893 0.077081300183458726 -0.32287194419283766 -0.039911351019222212 -0.15592445021509352 0.16417878226720786 0.19593119460061786 0.078221361272845111 -0.12640566718576685 -0.26896615528839651 -0.37578387409175634 -0.14555139025200367 -0.20808934533282064 -0.028878941864630171 0.17021004442882201 0.27076873540335961 0.080646100336779353 0.13264391676855206 0.11228460127448076 0.084781304347598993 -0.033969835842602415 -0.23217408321166846 0.24810575648221886 -0.16693913890565221 -0.31178974112946356 0.008196697409258831 -0.2054771756997896 -0.04012636739185816 -0.067419327719228928 -0.090517328544194489 -0.078668261523033953 0.16153252501926257 -0.0019903125213605382 -0.17138491807905692 -0.047099893495987227;-0.13032036316822584 -0.15738460578831442 -0.044340181305861232 -0.022044015878458376 0.067384815141454946 0.22052947275879867 0.045430763357125412 -0.2957046603324841 -0.26915032589576893 -0.10048612305860731 0.026568377139778464 -0.015325993904336787 -0.1257949141016278 0.16779692085414133 0.20698324835378967 0.22103109009642935 -0.060904775770753442 0.25995936850253715 0.020234978913051243 -0.17806302289096529 -0.17651464574935977 0.19490124515723564 -0.016187341881002681 -0.067172031367613197 0.016239230730562687 -0.2271249591597857 0.25181350211261622 0.26178665630105152 0.03923047198458688 -0.082008843220106611 -0.12457010681549291 0.22832276140075564 -0.1190896526637636 -0.038278434334206614 -0.097517949973777149 -0.24937988159709532 -0.16935103510358251 -0.16170152080076733 0.088083264873488998 -0.17200610145781625 0.10399342747639378 0.021639762521642066 0.23444689632844015 0.1236843822901311 0.28083854752126136 0.095950170211916957 0.15356243103344375 -0.069868207980104791 0.1377601096681525 0.0087453183140210871 0.11019763703523269 0.16587637973799024 -0.26946774943047541 -0.36630507694240488 -0.00059507283784122845 -0.063872460957327862 -0.027001082401824923 0.19716847194643594 -0.00088725633709596909 -0.14144972721162405 0.064375713311313781 0.18174561058380739 0.32032175498191473 -0.050003786037294086 -0.095767002660560138 -0.03164746383790272 -0.26652212238350098 0.14900475369201674 0.1223287130324634 -0.19682822351746124 -0.28570113527249397 -0.14139717562869292 -0.071325881455860857 0.31146853642014821 0.0013747502210685455 -0.042456757394277796 -0.096679419432976615 0.13367709758684823 0.30493598290284779 0.39511958696798688 -0.084411436747167862 -0.022614025464457451 -0.19138189302671166 -0.043896827312468356 -0.05393687392958349 -0.08409493931317269 0.097563542393712982 0.047871038767709095 0.19056961028393479 0.20482047206481413 0.073269563151031628 0.076460203958419987 -0.38923281135647114 -0.10291790642851595 0.012917770277100055 0.11679022207557976 0.1644243031962675 -0.0047098741640159147 0.068370245078001088 0.20967265074372513 0.035047227090796697 0.06985193731763098 -0.16619887157970537 -0.12331373427843741 -0.17990205025201 0.025892370074713754 -0.052699873061322816 0.015740731633987301 0.14371398607693997 0.17107886814190315 0.075343630969192971 0.13310273758637864 0.34726972523276972 0.15473945319498841 -0.14996841404666858 -0.049038531242304464 0.099387747092823706 -0.099075454335807223 0.056076710281790752 0.13762446717575197 0.046419261676898471 -0.088973008995089503 -0.14572008710629955 -0.13754077025532768 0.10199192784269653 0.03839958823932129 -0.031959615001349882 0.070870261832132783 -0.10728703936637858 0.035535875752509855 -0.3011899270975647 -0.17302361797594368 -0.21767504773907922 0.20138373257682757 0.044485023239932385 -0.065158957331858849 -0.06133652286200441 -0.15353129176976438 -0.032032608991623475 -0.35806521040263317 -0.058430489179660018 -0.14605117827394948 0.18875358543191481 0.10306680407490841 0.042768145190550576 -0.13994204696865872 -0.14872585607861052 -0.045685837125092332 -0.24503045378842311 -0.23776002048411923 0.1212461343903026 -0.13917782598228765 0.15523961056461483 0.19068793613292145 -0.10481145978721991 -0.069119448495718563 0.042591052636407348 -0.025471535883639904 0.12679910567765512 -0.042895071159832952 -0.018556190402720229 -0.0049847214516913329 -0.18991783146917626 0.045756077401293824 -0.14227756737385061 -0.03186813399170331 -0.0033074696918955239 -0.15537616610410279 0.14047619151065416 0.062282689530749662;-0.015538971293543691 -0.1212039224581932 -0.046391542161098774 0.25161406251793361 0.043987181716898631 -0.10256956735476462 0.16300604607429958 -0.074979498427532001 0.11282308501941594 0.19550377923859771 0.3909915228502408 0.13504062029098013 -0.13625809580632345 -0.12834925610700509 -0.12333867393662204 -0.2634279542156267 0.10370099927609618 -0.21363217212912269 -0.089801283507876264 0.012531514317122447 -0.17911600227467825 -0.11407867050468283 0.065798833792428887 -0.073979249672476557 -0.13211142614536531 0.13238809429184947 0.4084201122169232 0.52768284676822186 0.47970538247279915 -0.13858542310758676 -0.10105548975446393 -0.1944160093555905 -0.16268902676312785 -0.13641108512089978 0.16934884172063464 0.11841786825591544 -0.39664775529813612 -0.49093831303338376 -0.19554058154391096 0.1067627525572567 0.021930008139648287 -0.14161267561303903 0.22428901818802269 0.44884593001089879 0.4661439193111887 -0.021230646358979973 -0.1771574492065901 -0.54633295197926501 -0.33695826663171224 -0.035543187777489514 -0.17134193497066644 0.051738982054246888 -0.17712667261873891 -0.27666266074300272 0.02305676818013495 0.24169237370281818 0.22950136144215985 0.060224670231932065 0.5804139276260033 0.077069064377545543 0.023909043403942367 -0.025720190239445325 -0.12509490426211345 -0.25563986490162011 -0.28060886735350676 -0.20097652625494045 -0.15116837389210319 -0.13364775833212619 -0.24285652013708306 -0.11168534418737201 -0.1365109121691821 0.21824587742182983 0.0090753700538418348 0.23246522974386963 0.36376323296858099 0.22686647810245797 0.40072551585948102 0.24101548445349388 0.29806625293071526 0.033965792839031547 0.34135192380642992 -0.031549861761726597 -0.16396750439698118 -0.23181267359674179 0.017257713014138996 -0.014223472274496992 0.0073340354658673569 -0.02966633579672389 0.24296916548291567 -0.13225821638450083 0.29677307290715987 0.30842839149343843 0.23016455166580888 0.40251614086525894 0.2667332059870241 0.2194824249206011 0.26296797623729723 0.071939487550844033 -0.044089614029324195 -0.11392627590705388 -0.16432764500193275 0.094100578848785588 0.24151439623876816 -0.1280643883418717 -0.10195276715096512 0.28600698847293099 0.3135156137857309 0.37697668875483326 0.14411787973862472 0.025197082897932443 0.05611840984950036 0.076654207871991731 0.24985174864109924 0.10439908091362735 -0.10465500608331529 -0.041013717583594352 -0.028145532875850334 -0.19643251945384527 0.10083355481225148 0.050514920035628907 -0.2100041767455075 -0.14359875307613992 -0.023027043281549829 0.32544011421512187 0.24616650014516533 0.050601661009368026 0.17887786174323081 -0.1271052031926504 0.075128063144373536 0.10580424519512885 0.15863918530184759 -0.14936166150739494 -0.11952431905986356 -0.1710043120942423 0.076038246396322132 0.0039138051817949318 0.3671591410499857 0.085238053716602383 -0.069955710579689218 0.16076469551083952 4.9870395045850668e-05 0.2984328709534772 -0.0059233146199914877 -0.046357228869207373 -0.35152907997993849 -0.27574361920530782 -0.19309757987162995 0.021115896167576483 -0.046879192573626001 0.014858964810039954 0.056073956349056937 -0.40457171798418951 0.13255635803845978 0.14127130571320171 0.16563673972616905 0.13124088427244995 -0.27418324463587723 0.096873996305560803 -0.19128597810203207 -0.26806136593786112 -0.30824673394664809 -0.055087705330698775 -0.14741204945933686 -0.12570683751656689 -0.31248046151637054 -0.42761781024865358 -0.049858824274764735 0.12821166918757271 -0.14881799449166516 0.24221105558798989;0.058094923984116809 0.088265232917196859 -0.14245911611971127 -0.020867148186793378 0.025232476151490515 -0.055433455726180123 -0.1089870807759494 0.081575202321454793 -0.12543567878383677 -0.06478958221353294 0.1200442605540842 -0.11509400797177659 -0.072193865504520033 0.01210808220718515 0.035002920596435311 0.030707010964551532 0.13791411085016655 0.062419328304771995 -0.02511003428420552 -0.18239849813058484 -0.07079539404497702 0.16222640904663105 -0.12865766417123928 -0.0008439939545052998 -0.056691025864469002 0.084346443044551661 -0.057069920868946925 -0.14607375714944829 -0.055599181343631211 -0.069825529522324029 0.1214452209028313 0.085899379516934049 0.091755328646620254 0.061853942997958593 0.1155647626510993 -0.052964802716408965 -0.14918402894339852 -0.13060929006738436 0.05358958418139826 0.16818727150087373 -0.018639669991242357 -0.097169949270953015 -0.10851691574597491 0.022940632580113404 0.11262131713511229 -0.18247517748552977 0.1200214142211064 -0.19978245264874955 -0.086183725643340398 -0.18189463599254888 -0.13256325904492566 -0.14305171287879531 -0.18192845543205294 0.14476105395884356 0.055927228027420936 -0.086364114519675753 -0.096725407593127838 -0.12780420526290281 0.11493137704206692 -0.023703575050800573 -0.030672800160547853 0.0003073538510745444 -0.16462058652852174 0.10430896248299142 -0.0093204803099260526 -0.15761859416053525 0.063949842487027259 0.083968057475459851 -0.081676643107374436 0.086029071498584769 -0.10898863597163125 -0.02127717280555395 0.12137480803422503 -0.0033653492814749771 -0.17964464926287241 0.03322303229718411 -0.027116244035402921 0.019993783337926316 -0.17559427604464661 0.023668430384747658 -0.065660316659061232 0.14702606877189753 -0.087980881110863024 -0.10419641910477488 -0.069189569384505836 0.048408036853429974 -0.043507901534845926 0.0816468235997031 0.10264473540418151 -0.096770918428285779 0.021467774094714842 -0.12914404671753266 -0.068335086460903097 -0.15263436501252706 -0.15275726826724373 -0.067943551021266285 -0.084828521876011753 -0.1370743340802123 -0.077519004220419657 0.098225357331622742 0.077651633188710878 -0.14417834772729379 -0.046945482748794225 -0.04889445509082227 -0.23158313353233762 -0.090100920893638095 0.063171296466660573 0.00082601858326461302 -0.12021679250894612 -0.10860357764802656 -0.076869228054009878 -0.15145319210354416 0.062455508288879545 -0.015109465930462274 -0.19052179992924484 0.065481002099101349 0.15656555515793605 0.078218163023058965 0.065664756326012361 0.062467994690493953 -0.095588589238303226 -0.1735835549560851 -0.19560123956739081 0.099188642414904521 -0.049367652455549998 0.034265412831495839 0.012249741042598421 0.13005664619011359 0.13617352329535823 -0.1341087309488177 -0.17591201433222761 -0.0047621912632690227 0.093281878523265055 -0.099431642188846342 -0.19065395275265984 0.16954179622168578 0.0078686274916676142 -0.058620296801567363 0.17372407383027624 -0.054415956570576691 0.11057355264969759 -0.0066886945309449055 -0.083846348641495955 0.16447758756756073 0.10015984981163333 -0.12213868430330029 0.1318267922574736 -0.16998037961005974 -0.096733849835152569 -0.11026104701132461 -0.075070846898406138 -0.19583505434089238 -0.18119823099563331 -0.016793273798423332 -0.08817195650651824 0.032236072258561142 -0.0039038181667344148 0.090312420951353375 0.074120570164673896 0.1697883548037642 -0.15809432495461564 0.15718912384795056 0.037303118220449856 -0.081733229374951477 -0.14274988971693583 0.087082507833440237 -0.083467086045340991 0.17336712581063837 0.070391555949362361 0.15664884650159305;-0.025487927299181284 -0.13675442423983525 -0.043092092982611012 -0.038434924713778046 -0.01950358980026436 0.11869594810038712 0.016559266456076079 0.049384077536749005 0.014951585536455892 0.27810499421303031 0.032702542300654829 0.2680629161002181 0.082189891987368785 -0.15162900258115514 -0.20142574900579541 -0.16066431587276458 0.076481080330730686 0.10658135400232312 0.053845771622399029 0.14514686510065272 -0.48764145359939076 -0.19447282020956405 -0.024211953999603228 -0.059317241172712309 -0.13683173369443027 0.013483770875910649 -0.014508137203658063 0.12149976914119354 -0.12796636575275994 -0.32149846481759481 -0.086070874863725944 -0.17214910499352123 0.12461960563086943 0.1976307800961172 -0.18468129090061089 -0.086505898349578475 -0.037661696480932774 0.011223878925328903 0.074081531044183732 0.098044601641038981 -0.16475552463197493 -0.10064546669076557 -0.13685713597435731 0.021152513190894555 0.31322772024554363 -0.22223460172954573 0.03134107091100554 -0.1573449556409274 0.003599267885100314 -0.11958769946110463 0.070885853470250601 0.13908272793791079 -0.19700766318683377 0.058881830349803287 0.19087357619886353 -0.34712038343938145 -0.044980641268983525 -0.19960784648681149 0.16954139466891599 0.038405156671841925 0.26697233257035113 0.036847666030236016 0.16436610324897441 0.017984523827335824 -0.15613377654680666 0.055601047425419804 -0.20481450991605396 -0.088538013390307299 -0.014832739939429841 -0.047331385884887674 -0.35596995842313262 0.10820330172955575 -0.17674682812306713 -0.27846496047019609 0.2804612961377993 0.49394298015182603 0.20156410419501897 -0.066216218457904763 -0.057552479735393694 0.47261158137922327 0.077339044915006025 -0.056863956695755086 -0.0053788631517416793 0.097631441209648478 -0.033973330774148748 -0.21727451494835759 -0.18574461199475775 -0.028300440805344176 -0.20101541318896091 -0.0080973630987985871 0.24807331961949641 0.31959296311851509 0.36998421772489315 0.14854952230308394 0.34243684390017537 0.070514021129537044 -0.0375864442110284 -0.31426782861140518 -0.26893864463354283 0.05010850798553073 0.088622020829933423 -0.029701953484483717 -0.014003744805717224 0.15692365833725191 0.086228529598684003 -0.090462064613498816 0.18366146825938851 0.20366648390737174 0.17163570792810928 -0.10490138080244273 -0.017363195708863556 -0.13213633005920394 -0.15803317771260816 -0.16593716588651689 -0.015284618579406432 -0.33214729433811829 0.059386265317833177 -0.01393075896750821 -0.077852913501262028 0.29411026853190553 -0.1803372513409926 -0.090340485799906389 -0.13629631656476848 0.47557373545893644 0.21948487274263059 0.073851545908374228 -0.17026070664710566 -0.13395253729290305 0.15210588882520379 -0.044262684911194131 0.23923170282182957 0.18046338300751957 -0.18952450925064876 0.22110637252219426 -0.17272248139603699 0.08856594033043956 -0.0091058989540302258 -0.16244710754373845 0.12315106189271495 0.02637789112922545 -0.027109498301096525 -0.036126821269368933 0.058701954214325017 -0.36005041209436711 -0.22574447444564366 0.019786511521694382 0.068355028586041436 0.16059986607818136 0.1982272513383406 0.10692271826044999 -0.18143767329703572 -0.054414115402521085 0.11569302166711504 -0.11838820374237384 -0.075932941325337414 -0.25604499072658582 0.20269469330138334 0.071476740966634977 -0.25389215443190083 -0.051341316271023479 -0.2193728023182549 -0.20139191756359026 -0.14891069633987933 -0.2229823822715698 0.25151454628789677 0.29308652177888928 0.15329678239179564 -0.34663518656665793 -0.1863763149146612 -0.062742219184235865;0.098095993243935947 0.015549927398005465 0.040914608448286045 -0.035048211958309081 -0.0071857424517140847 0.30972423630143836 -0.13739706518115702 -0.30157397427158805 -0.19766057105005347 0.020215028663445388 -0.184910746334781 0.025119312746060479 0.060808071785601187 -0.12747145502247503 0.039143674946247813 0.042765060540801168 -0.17317432533001051 0.034066922899280441 0.093593314002959338 -0.076846198020951967 0.2420132235668474 0.26850773971908071 0.43281606992851179 -0.19561363566401144 -0.35334385371181981 -0.063401681094377396 0.20345615637142264 -0.10546702142152885 -0.15193384589849346 0.2984407433760089 0.1344321908987744 -0.076585587673747041 -0.046031937104398728 -0.1745765060514137 0.1000372391374247 -0.1375346573046507 -0.095123097669366274 -0.1274810500258079 0.13820348786838166 0.052171897380887677 -0.48452728900180236 -0.64637983579303693 0.1002112456679167 -0.10302240690789496 0.011724493698140374 0.1535105751120705 0.1709476266721581 -0.063092101155116584 0.025304253475089966 -0.15303537785177349 -0.1632889509308475 -0.039748642946205649 -0.11341086158923441 0.17387533398707056 0.16949987662679866 -0.075249521238574549 0.043001199038303385 -0.19273809255281515 -0.31544123335434182 -0.27678705093997602 0.26926078921409685 -0.16010173100010006 -0.0059411943733530606 -0.13757045249025709 0.092769854720096578 -0.14875790222053509 -0.20892124706750204 0.088620858019566817 0.10145595865441683 0.03467215290344048 0.23233219729873578 0.019384258355907034 0.29978016231342408 -0.12877181651024289 -0.25257977309469409 -0.17478339483568092 -0.24066371524405827 0.17130187191405483 -0.048793578049938127 0.08029728891100224 -0.16996850953600881 0.38149013992085423 -0.15980450923130349 -0.047022748657540227 -0.17172810589904297 0.027343480850261753 0.04621718809198852 -0.023688450321585442 0.13097677136731109 0.28946148741960409 0.083139217302830887 -0.16336962115047443 -0.14838601613307795 -0.28192222853084353 0.15376559116905092 0.23532355990943951 0.21845624655060975 -0.0097889741720372722 0.15160673906385672 0.094138669366831906 0.027911847492765773 0.14065100319787907 0.21067510147452956 -0.27144524018213628 -0.21333484641495343 -0.32016288616311694 0.066443539476124691 0.40205208078230187 0.086029617108616535 -0.14273561412642669 0.22846652310944865 0.14850599422891189 -0.073367941353925673 -0.0015711053366733411 0.11447698704809375 0.017223006593500317 -0.25556962457559729 -0.051823523384021686 -0.18849989489797633 0.13214327078745017 -0.32265437053134377 -0.14489300453519979 0.021753449059054235 0.28653473873537766 0.59279404043637451 0.50575585019547442 0.26626408573257232 0.2452306573197322 -0.086773223021585688 -0.035612012652046866 -0.10453959740017435 -0.09998492534583768 0.070632201743852346 0.21971877010053403 0.17046883098661572 0.10770263598100674 -0.049807404688414117 0.14010222457341928 -0.093377421285109549 -0.17639636461326391 0.24173196627105487 0.27436142933313612 0.32968004629424513 0.12635759679205336 0.056443866515796012 0.13511802315606558 0.03975508783183699 -0.0011296796119067221 -0.23557509655433417 0.087289705994048838 -0.12268288617943139 -0.12908849020044266 -0.065218942285335119 -0.042317160869603881 0.10578390186973578 -0.10619665802025981 -0.038250882827926012 0.026707552570645721 0.22559819153036431 0.081259809703103425 0.13349835175333069 0.058905427559681742 0.19965341049620322 0.19586634106449752 -0.13921718127937935 -0.22275087200968563 0.041030313297409138 -0.074544689149903809 0.077705312771297899 -0.089289906901610663;-0.13396424939457213 0.052968472310110017 0.013306711477263776 -0.053187103707260756 -0.21912463174693081 -0.065230550750457417 -0.14071584978641932 -0.34802355146429304 -0.011306654267347534 -0.076548615898582278 -0.091064454214927329 -0.19469332223797708 -0.11539932973629817 -0.18718693454446861 -0.14855289528691457 -0.17213081509012773 -0.18000635663748202 -0.088163860872736727 -0.051913311136021247 0.025496092640737728 0.11090553618775401 -0.29061238553278429 -0.058004805972476953 -0.11590793410833782 -0.34470965270976828 -0.35831775224502987 0.19574563647200346 0.4389727451992082 0.38869238769321662 -0.1146163825607569 -0.23817747032261821 -0.24834672185952522 -0.010694632790915298 -0.0085942710002166137 -0.034810865904390344 0.15586713617361594 0.27962436949336833 0.08746466694652702 -0.15110704198494196 0.10962382742936963 0.17382742465338474 0.51725292986323168 0.25076336389462278 0.1103935046853786 0.52550099418427854 0.31268341827829615 0.016885297321939195 -0.21675002441475952 -0.14885719531550673 -0.21067041015768037 -0.020265865408576698 0.12692868444716587 0.19692633103355023 0.10928532216845069 0.030236759931978035 -0.054971865511674475 -0.19500701904807502 0.34678174009546953 0.37496604634684627 0.40967564309672183 0.49295670848099327 0.080251929801607294 0.28251428249429816 -0.026262965579246369 0.13012697364378162 0.04130759744836153 0.082614716203646868 -0.078542587825681603 -0.11196628077060722 0.136395558424414 -0.043724535405415363 -0.16561034779627279 -0.081292220777867435 -0.25320654767797235 0.085710109925468569 -0.08500025467959671 0.22048636964950008 0.10006146898118216 -0.17321066821749781 -0.028508441687896197 0.28507203961548755 0.088831992949622254 -0.17933126253403464 -0.037746146945708332 -0.05251694252348129 0.11220470617186906 -0.10276253302875381 0.24192045057992034 -0.1150552011487482 -0.16711694149099893 0.11505931316584662 0.12986923801012279 -0.14688111430681694 0.14211832988764633 0.11005932209355257 0.13557160562434187 0.056751677896330219 -0.15673468804327761 -0.3105432966634698 -0.36888395549184977 0.14036769416046771 -0.0089231952415453151 0.02877277118285362 0.12209545953446491 0.39754526389300382 -0.12927419645702995 0.036987026616270444 0.10252034293386197 0.098905337243498079 -0.092709908177383921 0.13767116790017908 -0.18363164426369166 0.198291702675328 0.062162265927595411 -0.18545846283841871 -0.45103559829931433 -0.14769265121462519 -0.067627844546898547 -0.049391677531186146 0.11794664575800923 -0.089194001568982523 0.35796182042394675 0.22575687531959016 0.083679389470199303 -0.092837082893107187 0.21155498031059455 0.11594552361701278 -0.19224641588889763 0.061976434050636943 0.22607599776932749 0.078859517170022667 -0.23567125307807824 -0.29107477829753065 -0.14012990342969522 0.08741115932538715 -0.036198641719996247 0.19818501184887075 0.036799420810517514 0.011560338808600717 0.070226642931024097 0.10286649145036399 -0.055336171501685114 -0.14631976190493515 -0.19058931279850944 -0.050475703976871886 -0.24544867559995462 -0.20884679898645866 -0.06589362500627674 0.028311472465402613 -0.011897691069406927 0.11967527202218151 0.19275749945551557 -0.28346694444279413 -0.1384184941472183 -0.11916122895865615 -0.060847535034353015 0.020360331230052164 0.026383376236380266 -0.18298334380801104 -0.1503212163208994 -0.11551570723283265 0.060127358331606817 -0.059965902640983546 0.1408768611486568 -0.10905334259406149 0.13685910564233239 -0.039491511146126368 -0.096593937108837541 -0.031809532266511648 -0.087179647888715558;0.011576294937432417 -0.13621487974251756 -0.073700315350728449 -0.074679777883480403 -0.066250518505979114 -0.043746729286198618 0.00093547362065279753 -0.19128919045761375 0.1049582501536644 0.17284934675407701 0.49084030126906558 0.24425790100492173 0.21447494429040553 -0.10196842577590567 -0.29155936462722631 -0.1927836025944496 0.088423916283560861 -0.048047385906385569 0.01016700017265632 0.11941850668221544 0.034297848538451046 0.011932077589703978 -0.083629256202691724 -0.013788844168307529 0.020437699105773626 -0.060684683727204286 0.15488479662322208 0.6680817372487512 0.28797949239567672 -0.078512252428528786 -0.0096826925270498809 -0.10419744285874147 0.10039525339836888 -0.15244214657317634 -0.10099884658707699 0.082068103480379184 -0.1786926300166857 0.06677248872297796 0.10625309818358951 0.13364305949535632 0.029875647886585449 0.46105720387416715 -0.031547137971565352 -0.16395748990559525 0.41764127284260544 0.14684205278910809 -0.20156828188118298 -0.2114415450601409 -0.20072112177314458 -0.22645201010483595 -0.074141831835854419 -0.060266638671908887 -0.17763864006393104 -0.049704588791374266 0.06975613336397056 0.37910790275116946 0.035672309915259451 0.057788250496997984 0.31350770618358459 0.11388292246344169 -0.37052275270843366 -0.44205603451844222 -0.23696311314641538 0.0070057272557955946 0.083349080693905536 0.038306678761502878 -0.17026918509049732 0.11758562333288988 0.0082151806031369908 -0.12011686526922066 -0.17462770574489603 0.45255520697878227 0.078187257108927377 -0.19976003843550325 -0.032082294427988253 0.25798328388293612 0.099611065808080851 -0.62043675255020003 -0.52077252562334309 -0.43356151844423207 0.19911518333999703 0.12179548604201301 -0.0086600716271719967 -0.15387549717326224 -0.045047941204882279 0.048342786180519418 -0.10424754398470229 -0.080782681158945796 0.32878748112473016 -0.28673965824721054 -0.21138835869142933 -0.15545741367082952 0.068089812014135401 0.20190021684353882 -0.46873353627601194 -0.48285262979357735 -0.23192864880215366 -0.055794240287168784 -0.073169636517862013 -0.20443787532546409 -0.099810215540131558 0.055035844278452963 -0.087744344178789679 -0.084221084618052666 0.15941786515523529 0.0064123553655438224 0.076695705214015891 0.10896523381278984 0.11375698233082805 -0.15911428792985535 0.037696968065117936 0.014555622873796928 0.059466443428171548 0.098664311323708426 -0.11719690726393808 -0.20004353501560884 -0.052284314723108467 0.13858069721880131 -0.039783009597006522 -0.058355817516514599 -0.029064902232622952 0.14154287033936203 -0.046213534013991441 -0.11507466597391075 -0.12437618479430487 -0.097911752135999064 -0.0072925632499505171 -0.16769849389039129 0.0011473097597077086 0.44148068619361963 0.41310322056262683 0.28031711565556405 0.05766584645602963 0.14522230277579265 -0.17101990112279836 0.046894514714812284 -0.0903685328427868 -0.014222577336411623 -0.13343983034704196 0.051656898853800308 0.057727088269046607 0.058971667834105304 -0.022218983427345622 -0.28703586577985601 -0.14930780725828799 0.0025432051243402531 0.21549900059364116 0.28962399520266402 0.25361931546791888 0.2779028031458069 0.095485607297703542 0.11517490781556954 0.020595281472809455 -0.036385544400357621 0.087974962271419446 0.074025379071800818 0.056330593208925292 -0.085126372499706407 0.11600419494072732 0.072269658650280191 0.071418869176820138 -0.078371631012057227 -0.19825875475280128 -0.15512165825279578 -0.074661497634205529 -0.25989737860497014 0.04882317991091837 -0.025521025643007237 -0.078727442451011959 0.011890727455993106;-0.15614528983427003 0.13115283984008877 0.1253322877334665 0.077672851430109477 -0.019021700078708979 0.023541723777298535 0.091762021805394792 0.50956815915822939 0.14209186559254505 0.027781205615987785 -0.29303138483354768 -0.077283974387698406 -0.24794607031058957 0.13898218816841759 0.026086190810830908 0.033599400536622852 -0.13855240318485107 -0.13307224094636896 -0.079892732419220513 0.19665998938490922 0.103229714905724 -0.10215355495781925 0.24690248465163869 0.38908797290877484 0.54716382740859881 0.23399327928816899 0.090828135773681998 -0.25205130595783287 0.13787003548907018 0.17800031505204855 0.0099594822966654652 0.31578697992739285 0.18276919648470979 -0.12534473450038031 0.018121892189600693 -0.2150037106930146 0.0075397204880216784 0.029705510322429112 0.042832700767027637 -0.12441243521707421 -0.038157234344690885 0.045375508984368401 0.10529372300286056 -0.065307875388119052 -0.11957745358293825 0.047563919268017077 -0.054379731871067323 0.074891530313445961 -0.049910147063603159 0.11942700136959358 -0.057889683116037337 -0.22954283505803094 -0.0068984838983392315 0.11711050675703756 -0.0075258104259047845 0.23892023616674865 -0.070490847847647337 -0.067861516459703716 -0.085173389947719072 -0.23920817845348297 -0.22240560924091604 0.13466705403347892 0.3728782095207846 0.12339447466819059 -0.076916057877623498 0.31758084001610593 -0.010915616579776109 0.037504641960595171 0.098843407449726139 -0.24095283542288964 0.14000274317948591 0.0593185605831172 0.053638892387724922 -0.061834248995158596 0.04553612800626336 -0.10074975122906457 -0.37309998882584888 0.032759430018927768 0.16884492824731223 0.15910553058782745 0.073546789294115386 0.049264112540361241 0.24328139424250139 0.090882302648706836 0.097624939165935717 0.061693166816446217 -0.14354088009275739 0.040140986259129846 -0.095943075825361615 0.085598389793463889 -0.11572488421384707 -0.36031498941831158 0.030255419571943165 -0.5362224859454473 -0.32841959031145868 -0.14270457244413395 -0.20240427858500706 -0.2504487972503226 0.039398047739228559 0.1043956461661204 0.010772663682515912 0.15660462202055947 -0.18531923495861738 0.11917018353216949 -0.065944699457996109 0.1380380226613763 -0.17000909535077474 -0.019964725098669135 -0.33994855391036183 -0.090551394969220433 -0.34002944111627392 -0.34454398666577474 -0.48093649404910538 -0.38807470095213287 -0.27727066125382521 0.058061353477195182 0.037242889751555534 -0.1794241740569395 -0.21323833014713467 -0.0089622175133584128 0.15089926764498374 0.18046490248314803 -0.003502920923073674 -0.22712710106364956 -0.10624890763500563 -0.12624122868391954 0.10823541857250256 0.15194070095653564 -0.20001729378392794 -0.39991957262694572 -0.1889228675507692 -0.21505013296792649 -0.10322136865903243 0.11477043662645992 -0.046711807021866759 -0.14250544237128815 -0.089019275878020429 -0.11070337743671298 0.094629422166795096 0.127010182572285 0.17739980121441459 -0.082418176938736529 -0.094439030615452751 0.29509927610906733 0.29551139709253732 0.090462933606622373 -0.28204196089045153 -0.27231737117633081 -0.4127791053189569 -0.27853371122239035 0.0099779491582637023 0.022041673547076368 0.057693533821888833 -0.16331076634305391 -0.047050840930696336 0.19245054370305187 0.13461421682361335 -0.20222998149273833 -0.24865204393055806 0.18619626618089685 -0.032326177570713627 0.015620252263611639 0.19286509013202063 -0.11759452592751579 -0.16437480114270053 -0.2773287058034305 -0.18317733814903958 0.16718980298349537 -0.03986975179789936 0.19995700533646488;-0.039251690076706286 0.14395075548016162 0.2881478643639791 -0.2086303532856453 -0.053538392991494141 0.14037106822816109 0.33867437805858325 0.16559999671127043 0.3342630081403718 0.38976105553072599 0.23416094553732378 0.55830379081261383 0.038699108495606052 -0.063567018219156446 0.032106444568670109 0.16243297647779398 0.052070694334683795 -0.13471434648424008 0.061088354935114761 0.08545250940008732 0.049113914753848791 0.052435571944023096 0.028199695868463031 0.1694412394165225 0.42065181374706467 0.25309268381000738 0.035968552725310854 0.0621251155392663 0.29592000020231368 0.14931146700802181 0.31543476205983473 -0.12070671145867831 0.10650271926477453 0.24727048716407543 -0.12953218886817586 -0.047245388123699765 0.27725757307925558 0.17683965141997987 -0.21635620520595197 -0.22126525901486613 -0.17181252332374877 0.14409561754399552 0.1101538387285667 -0.12488603578528269 0.16993867531991369 0.062258636750571895 -0.10482180240773334 -0.23912255924264009 0.027644887149992553 -0.20430065339326867 -0.055605518537672316 -0.23510421300198658 -0.053873046693295769 0.09752647610468218 -0.096860549186550127 -0.28351069568807807 -0.22692785348596684 0.20336246731241606 0.048132031629658317 -0.014049178146601365 0.12774556834575732 -0.076920332623255455 0.24819460737552701 0.38329992492422943 -0.14252970972646742 0.26951754707557762 0.14850892345343913 0.24862874978245564 0.03024437422130713 0.040062488379511652 0.12828754404086662 -0.25732398789566679 -0.36234142123762908 -0.39498020465916001 0.048103285994491929 -0.12435725801119414 0.095556030649685694 0.33416159883137336 -0.062578600263165002 0.15383469357308441 -0.085266201401177827 -0.035419670707698289 -0.018797373980319557 0.28872270764205443 -0.056544250675774115 -0.12572873490839015 -0.066954888003926988 -0.1607294397871534 -0.29372334232964259 -0.10489002467031945 0.23986159636832752 0.26839683447599311 -0.21511288259151512 0.28299460153445832 0.1462538888661398 -0.033405631677519872 -0.24525006746053696 -0.36835150558830593 -0.33371507203480455 -0.16619679949835994 0.0015350920974803134 -0.065780553390878252 -0.074248661097856855 -0.010260264447023604 0.22699204196804698 -0.19151447099341851 0.018801137488105444 0.17404224940999016 -0.070189762058098057 0.19499597548813746 0.088742443449892044 -0.20694456237572526 -0.40904963950979251 -0.31149256879917542 -0.25313017921838771 -0.29979992829072688 -0.14635377275540157 -0.054784399040222753 -0.067888497458990754 0.023195931194487696 0.14775545038408319 0.4623952756030586 0.030063966870745862 0.12197089657019794 0.00012165512910021145 -0.29782502352559975 -0.012345078542819608 0.1165879285482769 -0.2717448485106978 -0.073998292215160605 0.15294295926052201 0.079813524607624892 0.15237846013675302 -0.014847608065199476 0.040201518901984729 0.0082646148934156366 0.24989157131200707 -0.17465270374592703 0.073974923111371271 0.080115462410224395 0.063420888144046395 -0.2521608450346669 -0.25192698112557782 -0.090198744659851587 -0.0093390756864105175 -0.07721678633595172 0.084607164590943001 0.0071322567106440072 -0.097913147303824222 0.18726057324154077 -0.13866699530877469 -0.072736815125493071 0.21638147590000567 -0.20332710618055061 -0.15460401117869227 -0.00045124016885281226 -0.057442826573005812 -0.14380355192774377 -0.38311725945676861 -0.29774755491830568 -0.010694343104735335 -0.35350029960824808 -0.027446021918062408 -0.055762482419696419 0.10227425143738882 -0.069260973481210714 -0.18971716689802687 -0.12527229143369273 -0.090760902190188161 0.019737746203646381;-0.0082414269517785081 -0.038104426433008182 -0.1557725641799691 -0.036744275069284689 -0.0039912338127347001 -0.053219417466809117 0.2360427666264942 0.17804133819499482 0.25181353478998725 0.14400964352258197 0.13592596526204231 0.16652972373635924 0.12364948298084222 0.10781561978644481 0.12932245406798581 0.020037530968143587 -0.15541371927983841 -0.1732218495456459 -0.020356291881728137 0.074193273901305423 -0.0030990699224907694 -0.012729997841126503 0.044717632159695452 0.16383669629741937 0.11910315292147139 -0.0024381585265866442 -0.053167701603005713 0.061079869407026345 0.080610603278148424 -0.069219644310786227 0.074659844697281846 0.14130882425454019 0.18203191666713853 0.12164428263837367 -0.18746279293066309 0.13427686908919234 0.10875260287870174 0.12434216671262915 0.067982371632509267 -0.021468240071682868 -0.056086908376374908 -0.16080533729618213 0.077018617451752383 -0.18300543917956469 0.12228206691747062 0.17447438622799472 -0.13139598634426819 -0.28863596459062418 -0.083186583784810364 0.15089106442944045 0.0097126639441323607 0.03350437357513214 0.12284209800374885 -0.058151378699119155 0.080769327913482777 0.14091888213427381 0.10120734701468119 0.086109434973912824 -0.17099545589904197 0.10371269889896217 -0.065406437637146694 -0.058094848418952239 0.13437537372319361 0.0043937673563278499 0.15320635427420043 -0.27520797647817413 -0.11702915491387296 -0.04847166455294756 0.049043738435489398 0.032380317821051038 0.10307698666616769 -0.26121829892927972 0.18757850707869275 0.25383268557749517 0.0068619787142954886 -0.059304711121337561 -0.22931817037360705 0.18132333167662071 -0.14085337144314738 0.042893322999832131 0.088003512723295943 0.31202310938226879 -0.24054155003034031 0.081759484592365747 0.063432340800742643 0.078492371843861208 -0.1432158056998637 0.069636340616560002 0.12991573547339758 0.31125228321698994 0.057783381525577882 -0.015851034244929396 0.027788688392782406 0.17919835781491877 -0.075749403357636191 0.27214860991170187 0.094118090438069846 0.19886100086949945 0.25456483842704181 -0.006708800272749311 0.1929447227061844 0.14322636486794346 -0.092047488257953822 -0.14048485629627955 0.098932739031318342 0.1795272679790606 -0.1329873124166488 -0.079821567398753873 -0.071273574997344713 0.026622188558662715 -0.19392701251565991 -0.14397099124404453 0.07460309812366106 -0.0048882675504953108 0.16667398945729814 0.12982159708391283 -0.26375120928909973 -0.043503082610445505 -0.17855516467186239 0.11495525798300296 0.045986534954649411 -0.10475745364605507 -0.11076796719460319 0.098035002066003379 0.048837382177338538 -0.18393503661279961 -0.07511257970909882 0.0061540843799136082 -0.028135793721226772 -0.054439674589302045 -0.043846740887253127 0.056166542093466408 -0.25285221926679408 -0.10141598926047399 0.063478643831931303 -0.11467370795758641 0.077460272072674433 0.00098412548250478762 0.21225695736239361 0.012500707655831505 0.081751325138184672 -0.0034133774746368094 0.11736434741830405 0.18123935133940511 -0.12516953575807382 -0.1272576355881489 -0.10510517055904085 -0.09566260058083878 -0.01745515670721192 0.091072905521823025 0.1388989555978325 -0.025101745693445268 0.21197307654293626 -0.032354880504535034 -0.075503679267481694 -0.042354670032403813 0.15152723695097406 -0.071661867529154058 -0.01362717040289051 0.26566410451631989 0.059017872534106834 0.21830624330624299 -0.010629097128982867 -0.0913515819817452 0.12693590630212409 0.1206593497846047 -0.10112353441574835 0.12227162529530534 0.01513726450012841 -0.12222015850775754;-0.081854410205646211 -0.14343776542548828 0.12059162227690499 -0.010975502663699826 -0.19962660192317225 0.083406539228427834 -0.32303434969350425 -0.47165583999548005 -0.55412978435038085 -0.50295302327857927 -0.30124366053120571 -0.092130830369111558 0.044340721550381004 0.020619772581089758 0.094701336109218395 -0.024406781966062815 -0.10025351508946782 0.23550487953514682 0.090539220892551592 0.30662524360310461 0.16932150041594729 0.13095339211802692 0.017991068772588319 -0.027396518995285179 -0.73946659830392136 -0.62074985030457197 -0.69799786297641897 -0.48624331214818733 -0.27100987943507548 0.1408900748643169 0.3014614703950273 -0.10107757579675498 0.25456387225906352 0.0019649796488811029 0.033764761481641092 0.37011538243575709 0.49178791064181288 0.03245641724320477 0.22396073950427858 0.59513932218235355 0.10400283995955813 -0.17537813880369679 -0.21929937407281475 -0.087434496135958439 -0.76120047920999956 -0.33687457136229892 0.11984242038822697 0.3462850708174704 0.1705427565436827 -0.063452211265189296 -0.055736155900302425 -0.16058128987312398 0.22694929351263243 0.33111359745678598 0.19447759926769745 0.1383335244146906 0.078860146150238605 0.027522233022491377 -0.058270079707778581 0.083560336326622978 0.049647197057892514 -0.12858882559802298 -0.3241404686225538 0.14005443816479532 0.31911263474094526 0.30376642500795686 -0.022383930263046602 0.30627773574586836 -0.0067766795769714939 0.14527111392566824 0.079431971361443837 -0.027561665136570119 0.041686944576380315 0.026775808664524704 0.065961991608868065 0.4086399672768411 0.014431080108526543 0.02454348552375972 -0.0018748626309259908 -0.15652617618013551 0.055167163920246953 0.032438726977764343 0.048460717216589275 -0.019180419721984678 0.14321780466767289 0.29788737404414745 -0.061473847930100751 0.110178273590385 -0.11185387503962527 -0.087474100641148841 0.031740812669533568 0.044902440337567441 0.37586822312724344 0.29655091572489539 0.22894510678034938 -0.021600226506752102 -0.19200343403806563 -0.23837252445671003 0.13150566983529285 -0.023579559224310518 -0.074112408179377254 0.062038738435198658 0.14251957990777284 0.083100929466671705 0.0543660623408352 0.16593939359265281 0.15613160157571127 0.094132111699517684 0.30536301681256406 -0.042027227569570273 -0.091090854296974333 0.30025767856981356 0.0069646687515997289 -0.020746275274334862 -0.14076410804801767 -0.042513347617062741 -0.18069990253472995 -0.021046832597339225 -0.032450075210958614 -0.12049227089825777 0.16770085704939611 0.0176755124886631 0.042369745947931983 -0.060636199310913783 -0.038866842348161817 0.19950610597777682 -0.18087280836128405 -0.16633170058846042 -0.21231838940022191 -0.18669866242795272 0.23042703325126479 0.089347057649965103 -0.041265716582899764 -0.03468082911959107 -0.2023484322630614 -0.062212281072325529 0.12912019429685156 -0.1628199750068717 0.010251436934984037 -0.096670379457655858 0.040814469950693578 -0.15483465054217938 0.27917267384387745 -0.085877794372117053 -0.14732056050834522 -0.20073330798537822 -0.0094549086807769502 -0.078791886295138031 -0.14705831156936172 0.16026427765023651 0.013982855230659553 -0.12225977804737326 -0.01992768157487293 0.036381226766138586 0.011235295109141761 0.0018063267124897092 -0.0046867014427701102 0.070578332382336628 0.18457076960853802 -0.12360344853948392 -0.043462676806977615 -0.14813504814378983 -0.15531302142509476 0.14548415049692301 0.091421349968934834 -0.19956777549923485 0.099769235815844709 0.0035259118484084204 -0.048286131475866953 -0.04914328848164385;0.048548667601543395 -0.076834816696123007 -0.0081016844953092082 0.10215811607711264 0.090959919924335428 0.00035608200802204074 0.10188597380712441 0.099952022394988169 -0.0081167107062941144 -0.01138792666788474 0.22178991367250506 0.080235171219750184 -0.018616803692662852 0.068024707990993138 0.25660620886663771 0.19034567843350891 -0.098446207342449257 0.1811542783724584 0.0092165720758278398 0.041728245927989925 -0.014785239699613449 0.19321709204734031 -0.081679846954570035 0.19284779892524584 -0.13014003325382581 0.15878158787781546 0.12931834027970857 -0.088606675431502774 -0.088696938680112358 -0.062126429384501511 0.055232492827439368 0.19080912237930753 0.023378479160862196 -0.050909466846328071 0.086255910157955959 -0.00094987951557195247 0.10715111564579283 0.092665907331363387 0.12178846615259763 0.0058659638406634868 0.081583844499183031 0.13118552255541632 -0.0059285012305444517 0.0062339124948963143 -0.090323407547671597 0.13846444165429184 0.074152834389563008 -0.085896082072157973 -0.011049611117962179 -0.035574111652851743 0.11856499398806593 0.14799776047630403 -0.079274439544600603 -0.13789448861905956 0.073180011526909935 -0.10234968770725764 0.11640600535892663 -0.0034873104212345932 0.034082368926782319 -0.0075209465441988411 0.079799134481436412 0.11093728721672702 -0.029632916896123782 0.0038983126981732195 0.074072965836692636 0.12648358868971443 -0.082105688037966765 0.16876713782011316 -0.05405192595861405 -0.061211126323168101 0.029336680844737666 -0.14560820417782386 0.11436126163499516 0.24532271447864143 0.19855207233461067 0.023059744112018717 -0.047135163454814853 0.16629601002007527 -0.032897148115469031 0.17370083023115598 0.042464220995253307 0.0098244132395910004 -0.11399967615121023 0.073455728864140798 -0.034029465628287549 -0.059727399045561361 0.25578080401683995 -0.1435865769229149 0.027393058064070285 -0.070540682766264462 0.12190498552668136 -0.082303457606158981 0.15069598496614708 0.011628809101387031 0.013181972440460788 0.22789749189505712 -0.10487973971475813 0.045825477700341913 -0.15235840363677017 0.19761382872228062 -0.0024411653841879349 -0.15203352412207174 0.06508343199030317 -0.10170942717841101 -0.07449898315675231 0.10892462423076293 -0.10618910795802555 0.16296685532601601 0.075579484857975512 -0.078901772349979221 -0.074700553048400925 0.039975366641700087 0.17023507845030184 0.19311458042401777 -0.11521442829299765 -0.14949980519412698 0.20429881409126052 0.24700484562957994 0.14993030595221957 0.049134885361148802 0.13438172076642066 0.102150692959542 0.13160166832625841 0.10284217054493867 0.12752882911439067 0.10509853057418216 -0.087952602283592696 0.20241038670975198 -0.18840330087702309 -0.099905517436240404 -0.12354115314043024 -0.15454803535800588 0.17468577480922642 0.10878903330684356 0.23573229848963195 0.0042693346334451406 0.071400612057709575 0.13478973002950448 0.17308881316753111 0.11034304759752063 -0.070440884093415312 0.13137382100099346 -0.17621732091403319 0.089455822671169583 0.099839652874511034 -0.0628152825800396 0.13272397326871377 -0.022087587166268109 0.098530696077824109 -0.0029142090296071649 0.095580205197415086 0.055311515057590036 0.021450412751457652 -0.17544423725480238 0.088310325849972324 -0.073141466589230819 0.092421536542817054 0.10680908984201573 0.022724446221445687 0.01662326193267076 0.023739591819174705 0.20352904006410924 -0.069355944486407639 0.086853750377719113 -0.12596206384510594 0.1898722317397927 0.016484433739515674 0.066907733730230845 0.091226946083865598 -0.17436312784612698;-0.13264547577109159 -0.0098741455807416847 0.0938080071809584 0.10098658309390729 -0.21287364921687366 -0.29542330041470849 -0.22810793702782892 0.082360729304003899 0.14346882106226225 -0.14178012449676869 0.16731185137496829 0.010848242364589611 0.27241878951975446 0.37694060763465065 0.031894143188742202 0.018048236457639727 0.14536534179440072 -0.25881420674826799 0.060417157195676446 0.1159993963249568 -0.1552080971213069 -0.056359793005902027 -0.31374586518078812 -0.12077613677418143 0.070749769983590866 0.10170423196850276 -0.24124190526022782 0.20858475703087925 0.012404489341932806 -0.18778599100121887 0.0035615842466489344 0.24007482845782507 0.10061093595034604 0.059645427129331755 -0.16274561222808942 0.22817638247657707 0.41580270089806864 0.076419914378457188 -0.045873417369073952 -0.094642997178892019 0.080111881959599951 0.42245319506976065 -0.070643615642284163 -0.0024150193453056261 -0.038398714033658403 0.096879834778888327 -0.11210884657330818 -0.1582715152177889 0.027706912166326352 0.35785347866725475 -0.0043965044306345695 0.016238822217298818 0.24192602269160546 0.28369149511911995 -0.044106999635374691 0.21195715992068845 0.048774509316139122 0.033610152406970809 0.53000539792621137 0.13261192220563803 -0.18549083065448796 -0.18986583475543611 0.058776681396330632 0.21515255205116784 0.097871357499062311 0.18504075516661558 0.32733442491757975 -0.019377504314477875 -0.062661672654803782 0.14714559079944958 -0.061609404003076386 0.22503385461630288 -0.2009450729046082 -0.12576562909858413 0.2132122478640503 -0.047793558584664012 0.11561909779554963 0.083934143414431284 -0.111265204053455 0.057648240513436484 0.080864442017483731 -0.037516747291383504 0.17931354384990453 0.075758972186146245 -0.0047037567199373388 -0.057014218939200542 0.069535333707503172 -0.1133886379347161 -0.18916001484646502 -0.15717064779930751 -0.062634027785949759 0.073509341986989898 0.14522605478543277 0.43541441521064422 -0.076811844297092882 -0.15273623428497088 -0.022644361592756554 -0.16787669486761053 -0.53303883077770831 -0.25620666418613081 -0.079875273545846531 0.15224588752236601 -0.28713104860751831 0.05409349656062884 0.25819652572089574 0.11450637203747557 -0.31975346629087265 -0.3276489662485359 0.067617151035882936 0.33161410082324355 0.11116361077579823 0.084491820029983442 -0.23924389745289432 -0.17802185916379037 -0.17878831149218027 -0.16130916826775973 0.21964762147910763 0.11374878750236814 0.026971427024346902 -0.095356890028684346 0.10915991222993188 0.25830443926675667 -0.0079679745126913157 -0.1585269667177385 -0.28997631269748481 -0.5592617918509849 -0.097327912692500795 -0.035174662387911011 -0.081241053963837087 0.055689572619873687 -0.072606938613677674 0.09639826671543536 -0.0137530890641677 -0.086406583723817418 -0.023900687168266935 -0.17860891302546644 0.12404940388672646 0.18275649416838319 0.19341892010722941 0.016775362121107768 -0.05821750743173703 -0.30498712270387607 -0.39327420405371599 -0.27900703821595374 -0.39427565559868383 -0.21520066521491221 0.13019907343489451 0.069256195997267289 0.059450147623961509 0.15607870285763945 -0.001053852094517466 -0.058870493749271377 0.26615645417441891 0.18922881741524775 -0.017477040930966723 0.12402043435142961 0.17314964247559964 -0.21425627981129264 -0.31614631470683735 -0.17308266550304122 -0.22999621437086973 -0.23743097695790291 0.01773247919870171 -0.0069961210300084125 -0.1486653620369765 -0.027453241215932775 -0.036842626777437458 -0.13125963571789181 0.21696789350154264 0.041960046608306489;0.16129152673206801 0.10271414960711209 -0.089109978401375092 0.15622613454637005 -0.0029163922229089507 -0.13290640148608515 -0.16068981510066768 -0.091593243032180569 0.054523260962073598 0.1389089228231781 -0.034043112867723789 0.18296505944489483 0.2379972745389354 0.15442969372888896 0.16452269990991952 -0.018317563978762823 0.17483095543441363 -0.19981296662649653 -0.071105468134755448 -0.040986150228414259 0.16666839042224599 0.22386416734458298 -0.097329169428512302 0.044596089186410108 0.0036299269468692569 0.025045201862321571 0.015033002634041438 -0.14968458315269589 0.09256019323069567 -0.096816047014495851 0.075830663182037086 -0.023492730708947304 0.13612057693675961 -0.0018085443666765366 -0.0028338215157725009 0.060969527401591742 -0.0080965475846022112 0.0051628434037052431 0.19549217138834429 0.021713864711341572 0.017333106154941526 -0.051105664526193438 0.0073252660465630975 0.11845337180235252 0.16640026439785022 0.025065440416759528 -0.079240119679386767 -0.048176447734863445 -0.053617509132389218 0.15107444768592054 -0.0016210476531207858 0.10193150021971835 -0.11184645361850128 -0.15006093874608861 0.19090028977343915 0.052957925150330411 0.013800413592170704 0.098807226409573012 0.11664811399264932 0.20022672033685895 -0.041803181202527816 0.056868143000362088 0.094643529533225981 0.16789216102091906 -0.087981117498062006 -0.086944249058382356 0.12097982055512874 0.15012465197598457 -0.090311943148759219 0.020866503577281263 -0.041686435312357432 -0.13622054040339884 -0.15330861119156919 -0.1684145372777627 -0.033683667903206843 0.020588796813810845 0.15514819599145693 -0.00016298621140697038 0.021296918956579865 -0.031562885686761605 -0.034979232490188687 -0.1580845923570352 -0.15120905535828885 0.20106678376298612 0.12801002058020503 0.14764329288394118 0.027038107118212595 -0.052578568384011849 0.097950936942946223 0.094400917746512575 0.13686621863424805 -0.15768483109708542 -0.14360528939209607 -0.01075904480302819 0.016924395451407122 0.23464453900790444 -0.069192728106472326 -0.11905396528263906 0.12982354325207354 -0.069273385046425023 -0.068160658287547388 0.019864633685843965 0.025838815248477254 -0.010629317999014291 -0.016739678725729856 -0.017528316035657632 0.026285961081255915 0.05059756474015624 0.13044060322035109 -0.25161204681429566 0.11345288987766719 0.11766616264672496 -0.071157208421424131 0.10638490540884872 0.01453515552234157 0.19403512840886755 -0.01413542454074098 0.19778833854787276 -0.13037145600645031 -0.20199415905480203 0.1305436000445718 -0.050572410980614872 0.21283286394215575 -0.012188028544843448 -0.0082851377657081286 0.13062546839073239 0.022580100818422554 0.008025543568083297 0.15783350692078083 0.1383661995283311 -0.11897894163492342 0.13829648460259264 0.18453660592243684 -0.10772692761514666 0.16318778825781044 -0.066231609807015826 -0.057955906650629857 0.08329590979543039 0.066027285241727823 0.014666364595264707 0.067546151473880586 0.016025399278545217 -0.033079639001157929 0.19662680902509752 0.19599262664113909 0.1153581043027052 0.13719537461467607 0.08812465976647002 0.049498657146815124 0.14802045991881474 0.022976387653787209 -0.12566241063796268 -0.076775779574020445 0.079819242408478167 0.19988571360362128 -0.14523212312216341 -0.056873976450070404 -0.0025608232231328337 0.035277658484799572 0.080086232137584271 0.014303332886376866 -0.019925656540298462 -0.034749644000675185 0.064095043943343852 0.16953688107351433 -0.16531098726137627 0.1337305715524465 0.17691051335341507 -0.0063387900643593264 0.030553974615035163;-0.17521666941268885 0.096072231921126544 0.092403983970282891 0.12832019198557329 0.083404739846750606 -0.14611022367195642 -0.14241218491154042 -0.0060992673784116287 -0.18713209091406621 0.083563527404057064 0.04099989874614815 -0.10412282386039649 0.047321059118795375 0.08103767032250081 -0.11276239438782804 -0.031593962029582541 0.13734913566508103 -0.098391857725173976 -0.046173214804325818 0.097408420633680298 -0.018211656940541023 -0.23230566834198091 0.086779257293768841 0.0044421530164139109 -0.10500935767895508 -0.089169188790228171 -0.080525190440874028 -0.18321185781614271 -0.029264390829698585 -0.22484197651303944 -0.015358664277256604 0.05668991232145227 -0.03924873517004393 0.10388130040269676 -0.11154648733013638 -0.019714448834836321 -0.20942578693443803 0.01581159048857534 -0.036455928056544067 -0.051985175790129574 -0.16375534368067365 0.038329227918817516 -0.055555038984472123 -0.18656238536196465 -0.19733259043930779 0.073051911169495137 -0.26438394269626564 -0.16798501441476882 -0.10341157157930093 -0.13932774645742574 0.077736120279676538 -0.0029275635194128506 -0.14886266134920101 0.07299127245775941 0.019158994020082986 -0.10431681690597154 -0.17984030992802799 -0.11202975783733936 -0.11198073589761232 0.023059850059922261 -0.012287101556375348 -0.13935314118211209 -0.027150877504907335 0.053701008133943851 0.040356586403707803 -0.1263523868302594 -0.26526348861447419 0.023888350956546629 0.082925773897903593 0.086941086446770274 0.089774973005318615 -0.017831651896587728 -0.13278318702868991 -0.040696243178794313 0.16216460882220626 -0.035165718980023832 0.036989902033518318 0.027103726102175919 0.10943467851026946 0.054284381011911083 0.12905559459514285 -0.10051619728029638 -0.038178431329791158 -0.14089335467711214 -0.084233182354151101 -0.052002434817014144 -0.088315528854937861 -0.13471626738595716 0.083450766473458574 -0.13215333298394685 0.0055536178699825698 0.12926550764708358 0.026873260501161858 -0.076912292329197704 -0.15384581409314343 -0.10641719761689938 -0.056254029594552474 0.0078071360609459255 -0.085282930746329519 0.072252764069033165 0.073441057461835824 -0.054868472239772814 0.13340219287294752 -0.062925628371841666 -0.11528819130115653 0.10536989613940714 0.14160459995372801 0.12531132068654188 -0.096127542662007459 -0.10091482573305428 -0.10993230800488557 0.055697021702718869 -0.076259338916864247 -0.013578169464392525 0.1574977874534797 0.091377845106173097 0.047439334658544385 -0.15845580427886341 0.13291480221330462 0.093272266779869786 -0.24569638049316214 0.060452558899449116 -0.16151023399562067 0.060157018166039411 0.010809760775143557 -0.19476060571103085 -0.12570737066157167 -0.099126844515616971 0.033027737535542535 -0.11272986947403223 -0.14992692005527353 0.10024198016632897 -0.0039731573407082981 -0.0090845471912300267 -0.20866684159838234 0.066606849149514646 -0.011328703898518448 0.12810068621908804 -0.1615915745893837 -0.079020885933658733 -0.076835483744539551 0.0082795068636202628 -0.14024731008185018 -0.05342257121590422 -0.211590495649667 -0.18177440862950103 0.060711021606673937 -0.20027802808466871 0.041302806049359687 -0.20618293695363568 -0.10163576321707624 0.0215857235275035 -0.1448106638001011 0.01202656818826341 -0.20330800718771327 0.031757072608499276 0.0042231075025261156 0.11731349552361794 -0.17566916336180571 0.081352976893666273 -0.15164350432088963 -0.26973949131135438 -0.010996936506681826 -0.14306431434475975 -0.24407223099017528 0.08131752321765047 0.10808618370186861 -0.044719831707921834 -0.22421029318485639 0.14725375281178749;-0.16292262641799191 -0.070284211495439564 -0.1043023616115662 -0.15800613808929881 0.18428464357769594 0.20121492457621667 0.35904780749723963 0.24737148062285128 0.35478807969239484 0.24972909146853259 0.38571943735560787 -0.067803273181234483 0.053264774362469229 -0.19725821678322908 -0.20672974702101535 -0.18557298374730416 0.0056307783471554384 -0.20714325151680785 -0.18872233792662363 -0.060310432075361076 -0.053684714900642319 0.19819652474189606 0.045826962021263656 0.59163086863030745 0.40769669141846449 0.4296205513329463 0.12120148333362585 0.31741729033810517 0.3395972266829666 0.17314108575418402 0.086435717070564258 -0.27911323943084659 -0.038536065688449743 0.0082099374361656804 0.0688496557981189 0.042112133501390973 -0.02763682001128456 -0.27032658600319831 0.014664453863709938 0.34011637089455743 0.34577625261084205 0.029669043227518108 -0.0031338498506381651 0.12475599842816985 0.34727933439313569 0.11763381911000263 -0.059758111208188122 -0.13237663116228096 -0.050539431065209153 -0.094294805862791486 0.054811812440484969 0.19895341143225242 -0.22885437742610409 0.028887294062186212 0.0050734751906120774 0.1689482798206744 0.34978747887730538 -0.077311976279242453 -0.011534551364983657 -0.073582745216260195 0.081310519309650608 0.063939024832123312 -0.14178325672268138 -0.09123754478366633 -0.22910922866781924 0.005410803947008787 0.07203217945883951 -0.083555744969257176 -0.010817788871530157 -0.10823489965318993 0.12778126905776915 0.021527502278282713 0.23541878294445481 -0.16561989174772523 -0.16429783832368222 0.13897672941581385 0.072715837030168706 -0.090299304021326229 -0.049878984572230653 -0.16590405331140279 -0.041614252190828614 0.38712346300851852 0.0067054191515978512 0.069690320097607936 0.051625174220769371 -0.10454112708640102 0.10460420530585476 0.078758641243136737 -0.098640195861990604 -0.012112761349825998 0.028983128514293605 -0.015888494738853329 0.049344245933793003 -0.099241934131625173 0.17981458214826301 -0.060537918206829688 -0.03759812690050951 0.41564000936959722 0.16909092281570695 0.16747693660882121 -0.088431793993845237 0.12180319021770586 -0.13845943801063743 -0.10224329731141857 -0.28129591831533529 -0.20004214517084257 -0.081094098380429788 -0.049160593628825161 -0.51241634243746137 -0.52312637628328362 -0.32226796410189051 -0.10163813840307623 -0.083027815127104429 -0.1798149984220957 0.016796142197542524 0.12269761706222178 -0.16263076656258468 -0.12224519248230106 0.067058152659971712 -0.094201020832419088 -0.05063662678145852 -0.092389048208529861 -0.043013779294716399 0.2166513617041064 0.24849378592826082 0.050618580655942907 -0.31815800687010609 -0.22721588225401326 -0.25322127119956045 -0.26549216670397363 -0.10309340901706145 -0.28482345999636127 -0.022331253928078838 -0.29735228488997284 -0.065291637239658126 0.14395890251424881 0.12388116593228636 -0.27432892069909459 -0.16424369320837504 0.00083259418128547218 0.16591589889919209 0.10251887873758188 0.12019326581315765 0.22943497774974891 0.066855450847132333 -0.23983607605381013 -0.3146909796425626 -0.0054985341745278542 -0.09414668549678748 -0.13475993461676186 -0.044501443332431279 0.10190183091024026 0.1296232730701482 -0.21774075653841751 0.13702750924924631 -0.16971385036912465 0.073167402123579084 0.0075005310357933955 0.019708754639276856 0.28828580717098778 -0.016549363846340231 0.18855555092879953 0.17107502212866041 0.11476603683573866 -0.12567035538069146 0.058737158738267431 -0.12416481154370525 -0.03145757080515249 0.02617300213848817 -0.1285526947902591;-0.02148626065684513 -0.021042250580334949 -0.18468077460845819 0.13724444397782348 0.27535355335559003 0.27444457418974999 0.17830185875873666 -0.051491185216084506 -0.0030139412734818314 0.21187558020739083 0.39595356474810162 0.21803703391607365 0.1239023258318685 0.04279347270494277 -0.0047315301459919844 -0.02597567225407587 0.12441925232562207 -0.21268271147613865 0.046264277067208932 0.092287335492675163 0.26045536100010391 0.21178475048254314 0.18804037347715594 -0.052232008412729618 0.074973657356540338 -0.099789049124520079 0.17860293200714197 0.46346240225438701 0.63490172805477862 0.13268035230526629 -0.061679321002099725 0.15147680616883138 -0.034267347887230445 0.020324235705683123 -0.10827798466793483 -0.03651115025705607 -0.16797538389810071 -0.043729884885782784 -0.078923861699257525 0.21258920594786984 0.22929386583475872 0.17472661251785881 -0.021516309406827101 -0.017288766499311149 0.15585222015642233 0.18486131396260091 -0.040957378541831638 -0.19186832077408236 -0.064293564027372227 -0.18242414809235477 -0.16562098013597804 0.041496844309280141 0.13480334016374756 0.0011723178866886066 -0.23835731414858713 0.077356233609705255 0.079067438585374794 -0.094665885779364189 -0.1791180942231608 -0.074463256829529118 -0.19313083375483034 -0.14987387742430169 0.063668951180010105 0.083497504879029738 0.034748374051998578 -0.18205296051864778 0.057595466504944862 -0.17590528153801729 0.082397601004575188 0.12736718146144566 0.21650057955268512 0.12734109110216582 0.13434831420350299 -0.2584730737364721 -0.17899282288787494 -0.2264898674010081 0.20599509659382112 -0.056792437673119076 -0.70588301086493577 -0.39850431498225047 0.054611520375284391 0.0093928154463408728 0.097481038176565504 0.090286821823604965 0.13079331246723591 -0.053050055447914475 -0.087931592329303171 0.141899321409551 0.0059636330928125461 0.039506802942037629 -0.20674331174343757 -0.064492784325690153 -0.10181818302545688 -0.11792424515058419 -0.11660393271873193 -0.5979760444889084 -0.056128828039445064 -0.25609873068117223 0.0072415740477701426 0.055660841302248375 0.20448428148592807 0.16325236742184049 -0.04841006771778672 -0.31720690842374838 0.11172544702895161 0.060907869021565232 0.098911966191746095 0.18585773114379767 0.19146791173332842 0.017360387459089445 -0.19906361917423648 -0.20745263272094688 -0.19882043196983443 -0.29683622661852926 -0.096043036043812757 -0.0087593003495893759 -0.2591814309727038 0.24450371795138812 0.0059510839740145533 0.074259666481904643 -0.0873766335572769 -0.15002773354639357 -0.011681121409061475 0.19468148403248198 0.39073855955051351 0.20415146071615736 0.18658263223365606 -0.03218974124120285 -0.23044096258677405 -0.11584445045360441 -0.033169155854117796 -0.0046055345036869217 0.12793131107646027 -0.013010741290580823 -0.023926586865995827 0.017572562336491689 0.10530888240224563 -0.1034419331744116 -0.050203050493617354 -0.070305999794000873 0.27016329073141276 0.2631830541541289 0.24166381454741925 0.22947583984517711 -0.1737960131181126 -0.18083104047110804 0.090534520359533591 -0.064219697334958081 0.086144271417959634 0.25539826371970148 0.097027061472476389 -0.0053241161393516884 0.038827382995472254 -0.044236935304455278 -0.092173632196151545 -0.17162007158749237 0.0062717109909828546 0.2721734271773526 0.28984468742711295 -0.096577944643837552 0.11139285164108585 0.18173511576622989 0.13197032257645799 0.18934434083581494 0.12927433987442233 0.014372452698037523 -0.10139310152613931 0.10303667825904275 0.021776362766951846 0.054099139923509919;0.018963059329884922 0.01411159963126209 -0.16105004941920215 0.11168004481556243 -0.02988552991585321 0.00052252733364512851 -0.010673824619681188 -0.12954980211478354 0.053894398990380593 -0.21033849479643643 -0.16149984880710461 -0.065879848894428356 0.076489353785593003 0.086881730318170189 -0.035482299138335123 -0.28077284456477053 -0.14492063358027302 -0.054471969372017807 -0.22675209395291945 -0.11183040102599731 0.038869222490981709 -0.047199100752335091 -0.070740020764511052 0.27018353554276203 0.1335714365597799 0.16481130383345327 -0.044166796639991665 -0.17432584177147592 -0.028809295603129496 0.03717036692915409 -0.21631590008375948 0.13964590402641733 -0.1497356716791409 -0.054687525179622686 0.06658967013266702 -0.34112855826132393 -0.19709925446569512 0.060935244996699951 -0.080769837853615883 -0.12913059522039516 0.43849009672543882 0.69912537662021923 0.34454275876933388 0.42942252400013625 0.13595871970128742 -0.083862038333575445 -0.19885987117384626 -0.091805936965661097 -0.14906139419011127 -0.072059797656855412 0.027701300497973352 0.096403518866158583 -0.23616504992117274 -0.090402588048297511 0.009059298244647589 -0.018752081800424734 -0.046050616711009851 0.30578528693148554 0.41664145646523065 0.17105490619475355 0.4836171087932582 0.13257766626148995 -0.092513692320292162 -0.26979891722567084 0.00055969910007252349 -0.39535652424500584 -0.23470320768748923 0.19082699887782861 0.17672009068765904 0.034817220634355918 -0.28585895522777971 -0.24973018888810028 -0.18992960897013841 0.029095129158307892 0.30131622894100374 0.59334964261283585 0.06976857813239816 0.13382123947111171 0.29508830675743991 0.13256981092707032 -0.35400553678345287 -0.029298048456254461 -0.23080057279387159 -0.19062852000271249 -0.014622954450873584 -0.098447970282502573 -0.16470591764750175 -0.1538030871763976 -0.46400736979698992 -0.31583803823943862 -0.17265630876875493 0.10765758766433783 0.20834977094358187 0.09583715894040587 0.14843233230627784 0.31471276640728263 0.16492882075700246 0.0070528084042864782 -0.092490374988943108 0.10751597446623623 -0.23530142566581386 -0.30791928817539521 0.15305822643524161 -0.031421810698385101 -0.39282709858968629 -0.11860406212045962 -0.19341534640677949 -0.27019120543218944 -0.019582305930083359 0.24257975425761691 0.3243470474190811 0.30574985506706814 0.30553522717994258 0.18786748106999435 0.1804243561367081 -0.047125398779761636 0.066221441191785177 -0.0026534589250206816 0.053907645433323749 0.33612616027310765 -0.061299282400905278 -0.10374506984539282 0.16957570052951759 0.084667171728893167 -0.44045539607109363 -0.16386819117407606 -0.2366046130416036 -0.016657109877926627 0.24129641160635054 0.41118293231540581 0.27433546408610071 0.00021650575000557661 0.15059396751357346 0.083477873805510638 -0.30102628446854762 -0.13846564904879174 -0.0084969130402734478 0.037162218571804087 -0.11364774107289116 -0.29049543784190085 -0.17559514389208744 -0.25660002018675221 -0.013216384949774111 -0.32714864091850765 -0.051558231500963676 -0.15398298290653298 0.13331036426833348 0.19169056886680746 0.14537657860304526 0.063793898998365406 -0.0023437872889129963 0.13293436268598266 0.15500337188515168 -0.025650902455004291 -0.092140531008790119 -0.1619834874592907 0.18355793572896481 -0.035081244124017946 -0.0091901797057224299 -0.12897054426563367 -0.052781972892179466 0.03132577172119299 -0.18572929093452073 -0.12942860470525888 0.013272781862784066 0.16059958832906585 -0.1595167496920474 -0.066289406329397532 -0.035866971780682745 0.18474979319047738;-0.30822598515224864 -0.17998838477833434 0.10729659881517518 0.05409956219989373 0.072936400026090503 -0.015528553873113705 -0.014229113110193986 0.16291896950089441 0.2536633071089619 0.015553346068504297 0.05680763697377629 0.12864561450631409 0.18726763307960673 0.16647232083683908 0.1871057426408384 0.16669895548731103 0.16703261170136513 -0.34918253243208758 -0.00023022147498342072 -0.13442033180031218 0.09324941150180141 0.11900879601863475 0.095305570309262844 -0.011187898429095603 -0.25304384999348911 -0.23818009874881496 0.23270839206126176 0.22792645426277794 0.28265531519193643 0.022600230225858338 0.11080076774698129 0.36881889862263834 -0.056325094978123678 -0.13035607286222742 0.083532253116375299 0.037763082494399053 -0.04279243436606521 0.14937717958918201 -0.060358319769276428 0.05200815439388521 0.040356426494184805 0.074745353804032674 0.1938163134738137 -0.096937978905090635 0.23630452515135303 0.067074814445455364 -0.16135810804128331 -0.24656235801776058 -0.16087127025609999 -0.14544591975797214 -0.094549686573361658 -0.204061819605039 0.016537199994494978 0.15585393620000895 -0.10666987844751452 0.090136389283031138 -0.11138461470262619 0.029500004704730614 0.29714224115458499 0.050128072793059059 -0.24641536618948667 0.036286338008486858 -0.021759006527027572 0.075074593546239979 0.043777450825603539 -0.1156204058873357 0.25966409962521081 0.10558286497330704 0.042989260801534139 -0.11212531265444454 -0.11992594234348332 0.12846832071801437 0.10174473130961713 0.031327423099723813 0.24967284046154492 0.4576365874903498 -0.027834933281672899 0.0062759180454367517 0.036152458550228132 -0.0099565865036977102 0.076430071323176446 -0.030480319176622112 -0.0053978256677725015 0.17646851239570918 -0.11653029300693615 -0.11179979072424545 -0.081648882560910102 0.17848076279285641 -0.15782116138050628 0.19758576120216712 0.17506834024109302 0.13897211683512412 0.13461690329020196 0.19791120574056698 -0.027496428161588482 -0.069469519555450415 -0.087060891514986527 -0.057754772363439726 -0.30896832628250703 -0.18194177700035147 -0.10568245434880102 0.061683657980187066 0.023211981450111129 0.20782195295941058 0.084044920524507433 0.16981164966876969 0.026774205452776263 -0.090154387981193213 0.18815276735016193 0.37146818478289795 0.33804394026759993 -0.084696034485622781 0.047301440768434067 -0.1110585724236984 -0.14663995891808479 0.11243346104626398 -0.054790369480495427 0.031647068451525956 0.053940531572059414 0.18513332557056136 -0.050966144555820922 0.13585378969275694 0.31544287867709014 0.18599006663510737 -0.28297674011040513 -0.58346396125052236 0.072183420540856205 -0.039274394159521206 -0.24090307590267676 -0.10421057248569564 -0.064756471940449728 -0.25867900222373474 -0.023860846424607476 0.22848393355940405 -0.15401675172732279 -0.044018056942437767 0.14118086287818563 0.11013553506896873 0.0044138493038781311 0.047736614069337817 0.13065703309162705 -0.09425828108628144 -0.27687301173308565 -0.38405270316531787 -0.08435757344175443 -0.13307776327052254 0.021066729000008305 -0.074103035265025596 0.12749007971555945 0.0214699219155189 -0.20364767346354024 0.10323108897791713 0.068763674715203088 0.19247336461219799 -0.21986324431210391 0.055928186325429827 0.18004040835278437 0.027462590960355238 -0.36001860954446196 -0.22300222225289548 -0.29254704114381397 -0.018395027659216679 -0.25600335766160925 0.12502609944361104 -0.17591861786446147 -0.020063791729798004 0.034506481994694464 -0.12778962301032834 -0.090428713521698789 0.18137753664336501;0.044433169341240843 0.058066994304873963 -0.054269503546173055 0.021239612299539811 -0.14352826513010078 0.11124104570015216 -0.15168913062601255 -0.029843644448101819 0.011652510600635831 0.038555418916935064 0.011059405490699416 0.25036331647103144 0.012808433066077802 -0.048654122064901537 0.046648606050454657 0.014669730041867784 0.15848840165302011 -0.050345733931981419 -0.13565478438225204 0.0097219619938894424 -0.075148458969007542 0.027486022576243375 -0.099746136509601735 -0.17716769063542617 -0.19271234694754288 0.0488535880242092 0.11014925290256905 0.21887899750173564 -0.11440852260314052 -0.094287709181683471 -0.055549147402533292 0.13290052862409302 0.16473832593500026 0.084071807338442245 -0.13389037237691984 0.031985626470829406 0.24282139556477353 -0.18317910928300482 0.089644401916581559 -0.14129511925691618 -0.071168693515844345 -0.19122279058394784 -0.10191537686097002 -0.18540506817753219 -0.14039139619984919 0.13899062950901819 0.15029351986283399 -0.25017557806750579 -0.017797631673929871 0.087622311758013757 0.12829894423671465 0.052031314961027454 0.1915356117403956 -0.15362903926366073 -0.068687415106751248 -0.014866501956311734 -0.0038863154629991225 0.1560046297012356 0.11373080564456191 -0.18950626095148337 -0.032775115882591771 0.14623036560193264 -0.064137648411963608 0.13893421195192188 -0.082066268261315869 0.0092607283000654406 0.053044887585285569 -0.13170811198626853 -0.087548083859687154 -0.026299130985532014 -0.014529098148248095 0.018326391849280494 -0.06781673619966537 -0.17364542476934514 0.03241908508639843 0.10148905639926384 0.045963842126369843 -0.29440853543862455 -0.073646425147680036 -0.021819377020807006 0.19174132294980961 -0.14385304992085907 -0.081924825034460969 -0.148555385119261 -0.068434096580417464 0.11644166770305663 -0.019965435140191893 0.24209087930741099 -0.070155943417670383 -0.060388240446656936 0.16882621894702191 -0.020717519441339326 0.22543392615019187 -0.12614846948970648 0.0042513156207032539 0.12228228071031043 0.20141710957773129 -0.0028546367104597494 -0.18023034707257271 0.043176466342256491 -0.15571949716891237 0.21501820205729591 0.12311537638930739 -0.068333631113058735 0.022377860821739676 0.24160741733034849 -0.10304948011498703 0.12624582188868522 0.15762822483748576 0.23033565107142601 -0.11081790685389653 0.031143333574742759 -0.13156973602305835 0.00921326759164557 -0.07836212365676315 0.17100991851483727 0.19844407930297644 -0.015468124787578917 0.096055848582090958 -0.28409768148324671 -0.053240306977968402 0.28493841025986372 0.011821878805773895 0.11187532189022847 0.026877899302281624 0.14641325829634375 -0.022656967236603317 0.082622225174662195 0.0040346341284091692 -0.17841349761167696 0.024059579139177428 0.18552957911272686 -0.041826892935805521 0.058434929797310874 0.16320078007760869 0.18683045211653826 0.16934533251660638 -0.077497413666231071 0.070464560687360372 -0.09103871653892219 0.26100189447110428 0.10998566519981141 -0.12065414886728142 -0.12264112328087758 -0.2181760342851799 0.13564938573890914 -0.14424550379374548 -0.065255776111402805 -0.14437010483753029 -0.15112896274735863 0.027706758602034819 -6.3569557855306952e-06 -0.061908666239850536 0.023666137681078649 -0.014790801592512469 0.028076363437586228 -0.059674515360208465 0.059812779060211624 -0.096827946299099354 0.10472244085479249 0.1247863905979794 -0.035223785160744578 -0.029658138339146205 -0.072056057280217051 -0.076536265790854333 -0.20834820237381313 0.11488065644850919 0.044902331124162295 0.015330355343019466 -0.071818884382156389];

% Layer 2
b2 = [-0.90809614438598685;0.56152396280460359;0.63098829746592167;0.035397121793609952;0.67501427781068324;0.75632996777927752;-0.77951860271001583;0.52369997281002678;0.19071752332916958;0.9852273092613556];
LW2_1 = [0.21184335797664172 -0.18226037709649728 0.15561042865784977 0.041988360978777853 -0.35346384589412 0.98075903087407434 -0.80265611293601113 0.38711995282641232 -0.55656989804000168 -0.80365150585099498 0.3580463425895446 -0.93810872471214957 1.2533825693809253 0.86731924224999946 0.41082588648343804 -0.41581089128696136 -0.44013908180721339 -1.2606697440025174 -0.66319534814181125 1.2166822543646778 0.67275074905690502 -0.77650382713379185;-0.024146106865350851 1.0504148992845135 0.027767086049530539 -1.5747235782907274 -0.26416453700118342 -0.016065856752288811 -0.99982191993390468 0.98435738815139773 0.73299816738105272 0.10467743334941444 0.95824292307280645 -0.70205796702957879 -1.2834548744684415 0.027203934353290597 0.21262186568359595 -0.50491977358108475 -0.70589511611633893 -0.56946716855158519 0.72093635234419606 -0.67194949687720995 -0.46679628891441521 -0.17256648674964023;0.34579773773403299 -1.3311902836335139 -1.1491521979131154 0.85776764620740609 -0.53678240772533548 0.64062414141697632 -0.87361782565431401 1.1343207548051031 1.105160214177825 -0.98564266349371588 0.12414632819089688 -0.01553795327662943 -0.23662061013129601 -0.15087724637206509 -0.52790169230375528 -0.82138815666864939 0.41086427015402371 0.51595004064533667 0.23369210339098082 0.033237691534990371 -0.52373029361586509 -0.86866294928203813;1.2699131607303067 -0.1556611528357485 0.61015455009063246 1.0380275569496147 0.54362459198067026 -0.89619202692661926 -0.80385491452940472 1.0508887615666731 -0.57224586366710573 0.69574522699080921 0.26433237894759121 0.21597555025129817 -0.91202325964797459 -1.059677860762942 -0.20644882309024698 -0.43319937385349028 -0.17817207949634328 1.2743648784065955 -0.12121499135114304 0.90272964790831156 0.043334593891368463 -0.040335905457535237;-1.0265167441658667 0.3082734780799809 -0.47507053663856619 -0.68147559634229804 -0.4330625493130919 -1.2811087629200377 -0.68184129547405714 -0.040766540004404682 -0.18491471298182638 1.1276353568099717 -0.0040805795505982484 -0.38107648035964303 0.9309335584859032 -0.33786723996004997 0.12251285880920774 0.2601907223791452 -0.89864880571295935 1.1222768816058784 1.0509201944941289 -0.66918467034060114 1.0132665200858584 -0.86609176679999467;0.1350588656702979 0.39325222685873873 0.03378676398174512 0.73060375517292819 0.61531281759908019 0.71122314422890331 1.2313877346587863 0.12224965772643069 -0.45886241766774094 0.36084807411062692 0.81620078921996597 0.13520002777338125 0.19870851624114638 0.57399028617785564 -1.3984769233385506 0.025381023166123187 -0.49417644156120349 0.43523163003319509 1.0872838955245028 -1.2407414852096326 0.12396916523266938 0.28702487689608785;0.36394393215211379 0.52628617899916252 1.2048520406248358 -0.92294080773401299 0.29030633838977388 -1.0484643665678877 0.72516946565206442 0.3875078026872984 0.2327103917278795 -0.74147128632616499 -1.387883605029562 -0.46159312165109234 1.588881353850059 0.18932784481734835 -1.4817542531180146 -0.5206565290272761 -1.0340943474310502 -0.34727598251188313 0.20132242722096144 -0.26122546387790857 -1.1250325872288622 -1.1609615313813966;0.31364461974623553 0.73340157802373329 0.58365081816289965 0.55477229627091917 0.84593282485888033 -0.48951031303614911 0.22221176153432759 -0.20856030905116002 0.64891131191980456 -0.6752340286589833 -1.0080173127179779 0.37173739706518688 -1.1100476968705792 -0.71931133843344941 -0.759873219289535 0.76405762515706588 0.13141472419032404 0.51217147678674413 0.92248511729638571 0.64955350859671102 -0.6282395076182401 -0.97623005830776466;0.24972152126901176 -1.3274352494450896 0.088283380325747354 -1.1078278712873868 -0.1239069926577927 -0.67066634570181638 -0.38803663578435127 -1.202326528609766 -0.54961635157432853 1.1042077306754801 -0.69705798823210674 0.74961978023387443 -0.057047778361365986 0.54162363115746948 -0.29438444295289029 0.032209855408675242 0.75054777169212328 -0.633314673545329 -0.69714327077958282 -0.63732691084509052 -0.48909566728026949 0.39634750200720176;0.58352841102706854 1.242112957505731 -0.064973164135536318 0.449785259879451 -0.40859486478868401 -0.50492517691462468 -0.20147921330664034 0.7200937425768873 1.2615962161002472 -0.10449955776105174 -0.23257042672978803 0.55411351314242041 0.92551802418056295 0.29255151531971446 0.53374083740772826 0.36990264842102977 0.14962991068372813 -0.85527242622429211 0.60641565890020133 -1.2033286689790144 0.87171234175328205 0.35647573970227736];

% ===== SIMULATION ========

% Format Input Arguments
isCellX = iscell(X);
if ~isCellX
    X = {X};
end

% Dimensions
TS = size(X,2); % timesteps
if ~isempty(X)
    Q = size(X{1},2); % samples/series
else
    Q = 0;
end

% Allocate Outputs
Y = cell(1,TS);

% Time loop
for ts=1:TS
    
    % Input 1
    Xp1 = mapminmax_apply(X{1,ts},x1_step1);
    
    % Layer 1
    a1 = tansig_apply(repmat(b1,1,Q) + IW1_1*Xp1);
    
    % Layer 2
    a2 = softmax_apply(repmat(b2,1,Q) + LW2_1*a1);
    
    % Output 1
    Y{1,ts} = a2;
end

% Final Delay States
Xf = cell(1,0);
Af = cell(2,0);

% Format Output Arguments
if ~isCellX
    Y = cell2mat(Y);
end
end

% ===== MODULE FUNCTIONS ========

% Map Minimum and Maximum Input Processing Function
function y = mapminmax_apply(x,settings)
y = bsxfun(@minus,x,settings.xoffset);
y = bsxfun(@times,y,settings.gain);
y = bsxfun(@plus,y,settings.ymin);
end

% Competitive Soft Transfer Function
function a = softmax_apply(n,~)
if isa(n,'gpuArray')
    a = iSoftmaxApplyGPU(n);
else
    a = iSoftmaxApplyCPU(n);
end
end
function a = iSoftmaxApplyCPU(n)
nmax = max(n,[],1);
n = bsxfun(@minus,n,nmax);
numerator = exp(n);
denominator = sum(numerator,1);
denominator(denominator == 0) = 1;
a = bsxfun(@rdivide,numerator,denominator);
end
function a = iSoftmaxApplyGPU(n)
nmax = max(n,[],1);
numerator = arrayfun(@iSoftmaxApplyGPUHelper1,n,nmax);
denominator = sum(numerator,1);
a = arrayfun(@iSoftmaxApplyGPUHelper2,numerator,denominator);
end
function numerator = iSoftmaxApplyGPUHelper1(n,nmax)
numerator = exp(n - nmax);
end
function a = iSoftmaxApplyGPUHelper2(numerator,denominator)
if (denominator == 0)
    a = numerator;
else
    a = numerator ./ denominator;
end
end

% Sigmoid Symmetric Transfer Function
function a = tansig_apply(n,~)
a = 2 ./ (1 + exp(-2*n)) - 1;
end
