function [Y,Xf,Af] = NN_BoldLetters_16Neurons(X,~,~)
%MYNEURALNETWORKFUNCTION neural network simulation function.
%
% Generated by Neural Network Toolbox function genFunction, 16-Feb-2018 09:57:20.
%
% [Y] = myNeuralNetworkFunction(X,~,~) takes these arguments:
%
%   X = 1xTS cell, 1 inputs over TS timesteps
%   Each X{1,ts} = 231xQ matrix, input #1 at timestep ts.
%
% and returns:
%   Y = 1xTS cell of 1 outputs over TS timesteps.
%   Each Y{1,ts} = 10xQ matrix, output #1 at timestep ts.
%
% where Q is number of samples (or series) and TS is the number of timesteps.

%#ok<*RPMT0>

% ===== NEURAL NETWORK CONSTANTS =====

% Input 1
x1_step1.xoffset = [0.925490196078431;0.792712063987456;0.813037037037037;0.447058823529412;0.280885210062495;0.0698147771219214;0.0517071111412654;0.0533572155505801;0.0550420577304355;0.0659008676904057;0.050091382650715;0.0698147771219214;0.037037037037037;0.0759715041726033;0.0550420577304355;0.224581797347928;0.129463871361693;0.505882352941176;0.931059637695909;0.976470588235294;0.996078431372549;0.929411764705882;0.802831671076735;0.447058823529412;0.0893498880521067;0.0517071111412654;0.0847292821011526;0.0469616060188012;0.0621360411907939;0.0603086294110108;0.0678390061137873;0.0698147771219214;0.0603086294110108;0.0550420577304355;0.050091382650715;0.0893498880521067;0.0698147771219214;0.0533572155505801;0.376470588235294;0.897810706289436;0.964705882352941;0.988281369910517;0.937254901960784;0.823328523720138;0.388235294117647;0.0585174028088744;0.0454468341738849;0.0383596655886499;0.032050478322817;0.0297345063361754;0.0425157141672509;0.0485096682271524;0.0297345063361754;0.0454468341738849;0.0308780182584376;0.0308780182584376;0.028619580704254;0.0485096682271524;0.0425157141672509;0.349019607843137;0.964705882352941;1;0.996078431372549;0.941176470588235;0.833706492977814;0.376470588235294;0.0533572155505801;0.0357451658864238;0.0332522483810902;0.0397134133930389;0.0357451658864238;0.0410986423019804;0.0439649908406269;0.0383596655886499;0.032050478322817;0.0533572155505801;0.0439649908406269;0.037037037037037;0.017338489721148;0.0567619995326081;0.384313725490196;0.996078431372549;1;0.996078431372549;0.945098039215686;0.844171306661842;0.349019607843137;0.0425157141672509;0.0254427030327702;0.0469616060188012;0.0469616060188012;0.0425157141672509;0.0383596655886499;0.0454468341738849;0.0397134133930389;0.0264740409043279;0.0297345063361754;0.037037037037037;0.0485096682271524;0.022510075310401;0.0383596655886499;0.337254901960784;0.996078431372549;1;0.996078431372549;0.956862745098039;0.876090432789802;0.286274509803922;0.0234610820875832;0.0383596655886499;0.0397134133930389;0.0344836902850337;0.0410986423019804;0.0332522483810902;0.0485096682271524;0.027532879510897;0.0485096682271524;0.0357451658864238;0.0454468341738849;0.0718285425665845;0.0332522483810902;0.0215851218611243;0.27843137254902;0.996078431372549;1;0.996078431372549;0.909803921568627;0.753083987305033;0.329411764705882;0.0357451658864238;0.032050478322817;0.0439649908406269;0.0439649908406269;0.0297345063361754;0.037037037037037;0.0383596655886499;0.0254427030327702;0.0332522483810902;0.0469616060188012;0.027532879510897;0.050091382650715;0.0332522483810902;0.0410986423019804;0.345098039215686;0.996078431372549;1;0.996078431372549;0.937254901960784;0.823328523720138;0.333333333333333;0.037037037037037;0.028619580704254;0.032050478322817;0.0357451658864238;0.0357451658864238;0.0397134133930389;0.037037037037037;0.0264740409043279;0.037037037037037;0.0254427030327702;0.027532879510897;0.032050478322817;0.028619580704254;0.0454468341738849;0.356862745098039;0.992156862745098;1;0.992156862745098;0.92156862745098;0.782677853917422;0.313725490196078;0.0308780182584376;0.0383596655886499;0.022510075310401;0.0254427030327702;0.0425157141672509;0.0357451658864238;0.0332522483810902;0.032050478322817;0.0297345063361754;0.0357451658864238;0.0383596655886499;0.0264740409043279;0.037037037037037;0.0425157141672509;0.349019607843137;0.996078431372549;1;0.992156862745098;0.933333333333333;0.813037037037037;0.384313725490196;0.0567619995326081;0.0517071111412654;0.0585174028088744;0.050091382650715;0.032050478322817;0.0567619995326081;0.0485096682271524;0.0383596655886499;0.037037037037037;0.0383596655886499;0.0454468341738849;0.0410986423019804;0.050091382650715;0.0397134133930389;0.341176470588235;0.996078431372549;1;0.996078431372549;0.905882352941176;0.743387746794219;0.635294117647059;0.256403826582536;0.11222633828618;0.0585174028088744;0.0383596655886499;0.0847292821011526;0.0759715041726033;0.0802707857460555;0.0533572155505801;0.0621360411907939;0.0965910848768573;0.0517071111412654;0.0469616060188012;0.141884312971632;0.341176470588235;0.792156862745098;0.976470588235294;1;0.996078431372549];
x1_step1.gain = [11.4658091810272;6.61832011489144;6.98918378581417;3.0972773870678;2.45721608080358;1.95009730382055;1.92102854386143;1.9209912804011;1.91846894068905;1.93675391371221;1.9147544600369;1.94562839534262;1.89005641021026;1.95899335365814;1.91806798316005;2.29658439178051;2.0747857983709;3.36635678246939;11.8980527796645;16.2262714172668;19.2559898642231;11.774310826914;6.83996465209847;3.09139907684795;1.98666618403555;1.91770359580441;1.98011045845918;1.91130975298899;1.94881372436496;1.93337406005555;1.94607606180015;1.95723888954524;1.93188526052188;1.91812475042284;1.91254227602225;1.99586879847486;1.95206504591047;1.91865659869784;2.76571763930541;9.90688299601135;14.7971514394345;18.0007866643175;12.3649261515493;7.28071494191975;2.81223163687817;1.93488757909244;1.90495784158466;1.89804430207856;1.88608847642132;1.86885622909031;1.89129113600942;1.92356245790188;1.87228071412078;1.90824493313048;1.88321100144291;1.87789740250314;1.87930745399225;1.92428267304733;1.90236693827957;2.66371314632725;14.8070978994639;20.0526930557879;19.262725197147;12.6150570480797;7.63613535769196;2.78554985180045;1.93262225083614;1.89083664024849;1.89562130445577;1.90650945642801;1.88765104816285;1.89725515655143;1.9023492097379;1.8870709072755;1.88138272835523;1.92017405977728;1.91636436744339;1.89591273461549;1.86087675412829;1.92522450761054;2.79591812672635;19.3377591169545;20.0858755147341;19.2964660083067;12.918841127117;7.96768056740484;2.68332739975508;1.90355880749806;1.87570961229534;1.92115538486949;1.92043392590972;1.91000415715587;1.89378229735168;1.90423821553524;1.89338270475502;1.87122883548603;1.88443436785642;1.88905141769352;1.9198705457331;1.86543651927284;1.9094670301793;2.6238846461553;19.2878199416954;20.1102276593861;19.2874281655171;13.995852760989;8.96156078616941;2.4609219565594;1.93633407547177;1.99906273695847;1.89139022964503;1.88714676284985;1.89027110974662;1.87699096809006;1.91796344497488;1.87073918088074;1.91493216444786;1.88706109283048;1.90159722379767;1.94921404655893;1.97044915809625;1.87890425778921;2.43608695442375;19.4137022992342;20.0242237820045;19.300790524588;10.5239956531796;5.79461170561227;2.60807830535741;1.92379932538325;2.06622344989082;1.91383319926834;1.90110134864995;1.87820885378247;1.90565604446698;1.91696838732408;1.87601392051316;1.87584361484344;1.91538881620414;1.86690221006498;1.91748458957036;1.88219626071106;1.8968047458811;2.65034474859076;19.2651606306886;20.1280345085324;19.379643980711;12.2969229537555;7.34367560908096;2.6298925631321;2.07692307692308;2.06727138691062;1.89324808709658;1.89382481531777;1.99566379787162;1.97191828336767;1.90807509084587;1.97110808257507;1.88903977551462;1.8757607478967;1.87338041839906;1.88296706709671;1.88682910062972;1.93367715973956;2.69261359547199;18.6438335443299;20.2301793086386;18.5675024177777;11.2233248551562;6.40521105250049;2.55775482400351;1.90100071458344;1.90039802665753;1.86642940791435;1.87989108615915;1.90030966557983;1.90539647912952;1.8942898312207;1.88492817826782;1.88832608427675;1.88736730650697;1.90781847421495;1.87920530966663;1.88166391807138;1.89850925085937;2.66475164569858;19.2660529557215;20.0224757299101;18.5626482280805;12.0524162414967;7.06961088522471;2.81026066414853;1.92035188194307;1.92236804384322;1.92794633108011;1.92246191956997;1.87285755554408;1.92469361635728;1.91818100291956;1.88643500007276;1.89029078462741;1.88567740485084;1.90449875318691;1.89794813110691;1.91352570390719;1.89406806754251;2.64150108384346;19.3693172143292;20.0281500131557;19.2619969341417;10.3081873116775;5.70987866835983;4.37163286048441;2.37104942512915;2.02582899391279;1.92868347197384;1.89836424960832;1.98112582818433;1.96852701985294;1.97086185815737;1.91134026760486;1.9281806884652;2.01132282840782;1.91798726400327;1.90068795377919;2.09800881538317;2.65295746241056;6.51049599189485;16.1957037142313;20.0552748171267;19.2640757444584];
x1_step1.ymin = -1;

% Layer 1
b1 = [1.54278688633093;1.3242173925394805;-0.83214138046548058;-0.98993184056130157;-0.5030567436633161;0.37999653042013959;-0.28706653412170452;0.13299656832332107;-0.096355523635863166;-0.23317612152941516;0.47122895597927739;0.69948159205424665;-0.81347487493148529;-1.0029567443187304;1.1694660168330002;-1.3105453558862483];
IW1_1 = [-0.10357896364183487 -0.017269743002883215 0.18060277016556722 0.14824523129008732 -0.034238696814415645 -0.22948431790377985 -0.14815235175140182 -0.24568567417921466 -0.07438778821717168 -0.24865612620182154 -0.04367562530618084 0.035008674055668751 0.047044521934895688 0.024603247523814483 -0.15217146871910933 -0.0065047852204391434 0.027042204258204142 0.11685963987179056 0.040821411901368149 -0.13813034660950385 0.080586936344073767 -0.034323156018540302 0.16619705088309328 0.25720312387922123 0.085960962380494915 0.095817564504488445 -0.32104287108173235 -0.11421148497018159 0.0011336885578977817 -0.069777948791055033 -0.17558807508350069 -0.094771730270666571 -0.043984330795409407 -0.069489748048038855 0.027928209973672589 -0.34549096890746006 -0.33362797699920005 -0.047621258133737202 -0.08509081642766364 0.087165402205662768 -0.13025931576784455 -0.18386638898167923 0.051991319721563872 0.17036010497567225 0.024765194848092677 -0.18569802298701513 -0.18670025023933612 -0.17634458051865837 -0.010541605384118295 -0.18147428078735131 -0.17045759596847118 -0.2127103172598574 -0.15265201208356546 0.0068996596996155788 -0.041131208432639087 -0.057292463657845738 -0.38958863292356133 -0.16861767421013743 -0.21139000947178635 0.022497951863107254 0.13139801007892002 0.090070168476645493 0.026509550566294175 0.010414699302582537 0.060513367519802193 -0.13219628756346644 -0.32698695673533185 -0.12642732462034315 -0.13786951006121878 -0.042117212437107886 -0.30565972196249902 -0.3565367271746207 -0.21763912568035496 -0.33209529626935996 0.043189505042370048 -0.020914525401780303 0.068704804695483693 -0.055593188024003592 -0.21983857775901897 -0.22085814900628889 0.03917441966885165 -0.18677193202706366 -0.1005795950687758 0.1382926147173178 0.13091583865561782 0.22473287768055292 0.012449026921847278 -0.078287511753057301 -0.022084298446236938 0.059055822548508316 0.0085435468224398237 -0.14496767943289013 0.13137414989269847 -0.011154739627544406 -0.12095367417776773 -0.1412463933391998 -0.010829607139111337 0.035467191381181054 0.06879180779492293 0.048867776737493596 -0.05669328996752588 0.0034472633511139581 -0.13451532782100251 -0.080035469149425539 0.012125219363736431 -0.10822792464824388 0.12000727549977491 -0.29693500643417386 0.0089316510171778829 0.18911061783218225 0.056968008849717616 0.2959986329467707 0.33840826790584372 0.46687079839931006 0.22151573949889428 -0.20346549625394117 -0.28166147218937593 -0.029589722917914191 0.11644763372164212 -0.015624546255610491 -0.15475801061825542 0.26763862010572864 -0.13258064470211317 -0.039228461887354155 0.017512840012835162 -0.038088119309177132 -0.0056500742278958781 0.15663413324578454 -0.18825640094579996 -0.046806397498168652 0.011889038496082189 0.28412033959657529 0.42864988008965532 0.5212415463533554 0.4931916033323992 0.30301455444030345 0.031123499032388039 -0.11552674337273414 0.011567326027075582 0.2406329542132106 -0.0034383862956000651 -0.24479813521959221 0.040966972485846576 0.091078454009507245 -0.040218900804393526 -0.11126833039186954 -0.11811278358861295 0.019038355707912121 0.15432217128375364 -0.0041105731289579148 -0.022644869069349812 -0.021793973630380079 0.43343195826607617 0.26875376979418603 -0.086604613926585458 -0.093487621033154361 -0.076222066157750873 -0.19668350524208705 -0.091896728988630161 0.21207301919987531 0.12302846276962404 0.25779522766738044 -0.071544034806882068 -0.032760837429633295 -0.046804230560092863 -0.032156728335365939 0.039723481987634979 0.077900087568701759 -0.056065931589182778 -0.044798894124806705 -0.11766167250144484 0.0028290104745820658 -0.01230656982958837 0.46097573181604701 0.26400464520290745 -0.017736897573981482 -0.34191092798408174 -0.058650048670822533 -0.036092836496693675 -0.13161307662533733 0.15493000804622956 0.29164494064702745 0.25606392081442331 -0.19385658963953456 -0.052179181092580781 0.13311390679857119 0.05292022365685934 -0.03131547496390516 -0.039149135516464567 0.1086725473321295 -0.063796230783928626 0.12879397541750848 -0.15225765993666518 -0.078240392204718179 0.29251563902934902 0.017895326128884798 -0.32371453774980846 -0.31658015098963704 -0.17146342543366463 -0.22001660463873626 0.032877736063251436 -0.017293073694648369 0.17761132433437796 0.14729400176569726 -0.010525932232596501 -0.033801644925571937 -0.14503137129272226 -0.049311892271267879 -0.095844075741478074 -0.1357774967563051 0.045459352597037359 -0.078394617790851745 0.012110294552278762 -0.012481575939033568 0.095997458653745066 0.053980598225798371 0.071182418673279971 -0.15602705976919881 -0.17408595150828993 -0.22206305417439928 -0.13965016165063995 -0.056516800726720093 0.02531517670176079 -0.067523071797705239 -0.14223106241306027 -0.14534621121288688 -0.05291017615292197 0.056607919722586247 0.072782969449200943 0.081186325248216812 -0.022679704375829009;-0.15814401950258636 -0.084697101411272541 -0.057853891523798023 0.10745518329323603 -0.083348915843001498 -0.11222721833515731 -0.22611564923684607 -0.10197230515997657 -0.00041960882138754253 0.087782485988606301 0.083634019647560023 0.016189514995954633 0.073420037168403451 0.17918052095727385 -0.12232029737683563 -0.47758731113695851 -0.25416943896438887 -0.099153988921094116 0.14408489050734363 0.11090602182373784 0.025313375970325805 -0.11713520795191597 0.035609305420768088 0.13716041718924588 -0.058068959872314821 -0.078292805878042201 -0.13707840365032919 -0.075289619314412345 0.14058446049298925 -0.13684984643479056 -0.1429563683522895 0.11741438232370527 0.43865557977887631 0.58771403589736038 0.21848498290974477 -0.25718675552841491 -0.45943909338778316 -0.17010998818030745 0.052056589769757453 0.055730183037200717 -0.0073254779664049278 0.11518296212052334 0.055742955506445875 0.08691243657024196 0.056808387249042247 -0.1878609301277657 -0.061596492863733511 0.021601124723534867 -9.3495125877784946e-05 -0.052208473861158261 -0.06275516984868712 -0.00032450212610118673 0.02989884421159111 0.42968712227311917 0.58093956122912993 0.17630448711851648 -0.21522000411300052 -0.52804938263576817 -0.20411844740208554 -0.10727779747896625 -0.00024405142084003167 -0.036918623185369467 0.09556263144844597 -0.050893879868231462 0.035188897261060947 -0.27381834391245552 -0.26732421731686562 -0.13577994081362024 0.14281732661093183 0.19637906012801665 0.09109738215082451 -0.014420203905130437 0.1246116881783865 0.051401455723247912 0.051445334314810104 0.20746326818649155 0.1585850327715787 -0.063243580577470856 -0.38069045734209084 -0.24288373162328036 -0.15976904283153648 -0.023283220385547712 0.12564226519200819 0.048939027381220086 -0.0036166586017649768 0.20030434170321693 -0.21346770225035222 0.090379878361129276 -0.044817524582488132 0.12752333016856543 0.014856717260070054 -0.013157152609652388 0.28025067530985059 0.14344310327709295 0.14648681214585932 -0.1693129711151711 -0.076743982508220843 -0.067867198454777899 0.16716881088153726 -0.13625716597294368 0.13632116807286676 -0.0027347323847380033 -0.16660080195304533 -0.074412909861289248 0.030694821836487109 -0.0093851825314696536 0.14285237099649237 -0.018152411101246532 0.088862061377598472 0.26470244539519577 0.013689272196792541 0.21861730552467701 -0.038738606823661405 0.16858109960544679 0.21041197914283796 0.18536584422983177 -0.1967086846552723 -0.37999886188176912 0.12964993425848242 0.12500224828668655 -0.035809482793029819 0.26819069410406421 -0.10338561475001075 -0.017951873696353489 -0.052864242899134807 -0.045066153106431577 -0.14489367194173239 -0.097740908036320018 -0.13461897758097238 0.053140459358544376 0.032674194532503295 0.14592052832264488 0.28835233910370289 0.21696475253730621 -0.049535108424034538 0.19302688857254149 0.18502057870989927 -0.36002195510584439 -0.24584162276317156 0.24625926593309874 0.033888705167724027 -0.16521172433151676 -0.17591059385256083 -0.24096397997293204 -0.057535327832154121 0.013399263694905014 -0.099456213265086121 -0.083151914834074955 -0.03294070220272366 -0.13418944235043972 -0.042373843297176993 0.17059065095329101 0.20004586781018541 0.28556459303866993 0.033056207937455208 0.04712771427087098 -0.039602838444732953 -0.14097985703006541 -0.21389833317722401 -0.097917801094939028 0.44037976832109799 -0.034594495212620521 -0.21384567834655388 -0.079514681909116855 -0.10081300166543779 -0.14311072318259832 0.020625935710754023 0.07533981917366657 -0.06794481496541438 0.023265706838319539 0.0090906518329105859 -0.24615745870677266 0.13991381493085076 0.44984969329899577 0.36894952887145199 0.16967268333717117 -0.15523393961418916 -0.039332413376903665 -0.22136380184305723 -0.17653112095905438 0.082742630382206458 0.09534320840477839 0.17979779269277898 -0.38097739112151963 0.037281229805085261 0.27797490578334694 -0.036368064381366624 0.066155054004147076 0.033815814448094124 -0.090574372332573261 -0.15209595453153912 -0.19924290608329062 -0.18693091174492166 0.075859664136962157 0.14304842366661846 0.041774379442989749 -0.1234333964571348 -0.11540455790247031 -0.4204802832751417 -0.56377421465150812 -0.33083053602566492 0.0681581282425784 0.14074096434025141 0.010183769134852307 0.086139147575397174 0.077954871178061172 -0.074908605818768653 0.075353254351467211 -0.0966097920321113 -0.028746788461145936 0.11884486199561549 -0.057790753307455554 0.18684271982761222 -0.14225795275816411 -0.23095858654732956 -0.0043442317921911144 -0.034146662018711714 -0.027730389220916057 -0.1418651038822514 -0.10854310683184208 -0.2423592758474972 -0.25628758355341363 0.11601857412385105 -0.10363054842545624 -0.053758290743321398 -0.064872120250131449 -0.060934017192160232 0.089551435176980082 -0.07661128949838561 -0.0099628010886102202 0.069207873954822488;0.039593241302291464 -0.045726006910826192 -0.035393014366880797 -0.053533450523749089 0.0359890010859528 -0.062034096216564305 -0.1481022965635759 0.11863299081277863 0.2518347439894586 0.011345163508113636 0.1580464117659427 0.052762551727846933 0.29183277080190456 -0.011038537466762952 -0.14591506209830182 -0.15004174005001319 0.24530615510063067 0.066941664754215494 -0.055179881887878972 -0.13771703821575859 -0.056167332817875719 -0.061256455585501544 0.19230661153632431 0.19895994316927046 0.26135122649275411 0.023969571376181598 -0.23773756592948506 -0.23690986325005192 0.0066855793378045696 0.025099727744158931 0.031362380938238378 0.018691644330192689 0.37623109723382003 0.26204781942808231 0.32054632761927615 0.097905437222061201 -0.21667775228363309 0.13327971172708342 0.13167797481079879 0.097468974191982999 0.037240189052427736 -0.0020478752438597455 -0.021605034621912447 0.27312033875258124 0.20405740506033559 0.1945195549187132 -0.1172340201954727 -0.21942932483041752 -0.25816322160008404 0.1496232195702506 0.14023961272400046 0.16247716445578184 0.12759190634962464 0.27816370849825062 0.3797470064336721 0.2278811491850678 -0.040313153113285191 -0.23045433184260816 -0.19406963897046289 -0.17058572002751918 0.085048248719571409 -0.10554749189613999 0.013056817533996663 0.024985906703797824 0.13225188182639183 0.032077691470508159 -0.04421305369084369 -0.3190675302342928 -0.17750531129597566 0.011252519456141068 0.062790112429722406 -0.19397914775814898 -0.16819485026903069 -0.10554311820304964 -0.015974257750126869 0.21382438407735013 0.14228533341959762 -0.15026764359585057 -0.45823573793504996 -0.3686088758474021 -0.28178926849772123 -0.038523796817456497 -0.14728167698412106 -0.052995427407950532 -0.063033625616413486 0.21809360499745148 -0.12800538535063674 0.0015630715612567391 -0.077128342800986696 0.20594464605960527 0.067634238835909161 0.010634616455588424 -0.34836350690127138 -0.37296512392948522 -0.13196209268131168 -0.31651443024676695 -0.14388319847295519 -0.21985377395342237 -0.13616068010459673 -0.22696869422456878 -0.37199147406319383 -0.30560270743047702 -0.055629754371210968 -0.12156180299431965 -0.0047457330836177449 -0.068069476120642639 0.1000499519845449 -0.16564191421836419 -0.077743517174162516 0.11899244345473096 0.27020156985842014 0.34048665278472634 -0.50118437115104542 -0.33272399121883472 -0.14863118292573435 -0.089946004360613008 -0.16117734272662756 -0.11895491637381587 0.20480598346736131 0.083768152800938953 -0.037297519492605846 0.074944290480570594 -0.097957868189515629 -0.054053224902078589 -0.10221675974605303 -0.052410466766375868 -0.091345823511737229 0.15786283987195054 0.028831883819964529 0.12579075552761732 0.075804311327788795 0.35702547943494173 0.27578588789928049 -0.33525021533746813 -0.31736096325828173 -0.26282099025843175 -0.20488054089731578 -0.27115550665292781 0.072617918070489881 0.56705773325842068 0.37619133405117483 0.17145917844513228 -0.027136977115381378 -0.10617275459584845 -0.078889797081739779 0.12752292358048936 -0.036665192852465278 -0.092579981690813037 0.16412045959109281 -0.18501024625974244 0.089001028204154786 0.11589421614706436 0.33669758893728197 0.26389177849370077 -0.06330222453520945 -0.52887610556264097 -0.10511116413241155 -0.096853794095988072 -0.33105311818049815 0.13042538186215763 0.25751848666548954 0.32151375772689395 -0.060785728652628351 0.010458851502038229 0.075711245838584545 0.039640457846208635 0.080279283963710826 -0.18550641339509424 0.1332441014024677 -0.063507861510358088 -0.16549779291968134 -0.2703784077585068 -0.22975456533327232 -0.13569882812482956 0.42674324574826356 0.34952615362106926 0.012147583976719193 0.023124498795955829 -0.14339924593415831 -0.19654799587957991 -0.065539130177320784 -0.057196983458939039 -0.14462894090088779 -0.11451919644824565 0.0079688070378931743 0.13022223969716409 0.093933465967576762 0.0069318766674812144 -0.019222831307949276 -0.059165497368980489 0.077012551922692685 -0.094931772325379443 -0.33524339252363566 -0.27074282986612563 0.09791028462860378 0.24696570817257293 0.35281367269900227 0.17562734152092591 0.14829513640704281 -0.23082853917692539 -0.11944078440653605 -0.20834684350125027 -0.00085250745633802961 -0.18069403719809504 -0.1482723074921129 -0.11127481901339689 0.22304595054010662 -0.12115703580701211 -0.095228686017763839 -0.08506165546982751 0.06950740720138536 0.13463955994184046 0.14440639064414901 -0.12078687998632356 -0.035195906249681802 -0.22283060129972901 0.17983199292621371 0.23150920160062358 0.26346797359420571 0.29961453511911618 0.049064425261182425 0.038392560659663164 0.15517230067042381 0.17215053718921486 0.031971952669979813 -0.23938273620091402 0.14260960788335211 0.12856226836378387 0.13760218016915504 -0.131757200033534 -0.16030929075476533;0.13394065665448829 -0.065133074249410172 -0.16258778317875072 -0.2491572424158438 0.23098147787431836 0.15226095446994539 -0.029777723127631953 -0.20423440829998099 -0.055714808096398664 0.090872159474351441 0.045898730854768484 0.087691079481252515 0.16193109240193215 0.18602230295202066 -0.12420527664295491 0.067125794022034377 0.082798542153249985 -0.065509759373679366 -0.16202211811387479 0.063112099232166985 -0.12094411923166123 0.020323888074296709 -0.070798234347933489 -0.10493269763873284 -0.23380387919751264 -0.18645606427265193 0.25416417399340785 0.034165580538822488 0.10245569210054185 0.31233141099085976 0.4270751950876206 0.51396200448929008 0.22268264762139964 -0.039116659638334231 -0.070077073082895416 -0.13035741601152934 0.16840206347114592 0.18395701435462763 0.12906360944084852 -0.064226743017899351 0.088490093580566351 0.051218032772805455 0.15780729250127687 0.029593025343441284 -0.085468315870507364 -0.24390528827414407 -0.17536889028014557 0.046068984479993878 -0.1419719752789772 -0.26512536414635079 -0.0098384952358651183 0.22512943389537096 0.42018003201247306 0.2291884608435974 -0.15064455973388763 -0.05526508976820764 0.10863143745114731 -0.077000802710521593 0.10402840583590885 0.14663282047047985 -0.1866963493731735 0.13628908532833175 0.097143207357786865 -0.081440521659707818 -0.19851132945574368 -0.39390427721042948 -0.19239510252124456 -0.20754101034383154 -0.099611791428443244 -0.3461225347304876 -0.35337399291953048 0.066313612295368571 0.24345879360247519 0.24512164684974688 0.57472014786738834 0.46033978268447001 0.26483229159133131 0.20217236795983917 0.0041126620655906696 0.14777715313526102 -0.13376488990547589 0.027168878208431353 0.046878629209760096 -0.11202725762358105 0.019141689808645168 0.0054151383432548342 -0.058070607806503374 -0.26152870382173299 -0.16395242650065867 -0.29625672032908706 -0.47227878114265759 0.015774160883367541 0.27923210376203428 0.093714732845881901 0.2378958050849021 0.52644928500734223 0.52790883215198681 0.48280617075827059 0.28169293707218995 0.012994860584561754 -0.31803728442575957 0.052813633280934622 -0.11644559122650849 0.10525893015395912 -0.0295404569766884 0.059389425020386508 0.022021210283776117 0.22107378195268612 -0.12609125098965174 -0.30074196985904894 -0.19414774526619827 -0.16291222835721003 0.20139848067862928 0.01066703696408341 -0.25039627949121729 -0.32501397686250805 0.46747489621184801 0.63650281657332053 0.11690151711884231 0.0015213421642956001 -0.095366459358991351 -0.23733787680299256 -0.015617203026298532 0.035915877649942154 0.0078466045499194295 -0.074765057406679492 0.11345410223476798 -0.1001491051422585 0.031937822325645626 0.049601750582172734 -0.0028446962286611151 -0.031962431859758118 -0.28080127822270323 0.007948233676341886 0.13998116470584032 -0.16450645307039108 0.083101075630086049 0.60705288820724013 0.33248076902198759 -0.15666544648340611 -0.02680102620833778 0.15010833826195241 -0.046266389519299067 0.16757269615929782 0.058512610265020401 -0.089319903087343472 0.061956998649412773 -0.049251204334178796 -0.033806689858497774 0.25959094919949549 0.14914005605998731 0.0013248124570470912 -0.040630014424051418 -0.13788120630582371 -0.23507825126833065 0.1952721481396506 0.33764474445512233 0.26517385277794969 0.35453907005648794 0.012176989192817214 -0.37241190900230281 -0.076472646531903318 0.29299884224067052 0.20938159497975048 0.022008312578303796 0.038897296133553659 -0.0055123348526188 0.07490922727006448 -0.082662003856876651 -0.19824244664432716 0.042502160328454733 -0.038361874418762543 -0.1820390608877562 -0.083636502130360765 -0.5203227990259961 -0.50434270344257048 0.034307340529661771 0.070841016025912182 0.35241637754349087 0.082012642911235667 -0.010120212639449214 -0.047880108447214215 -0.11449036265826898 0.29511839135081464 -0.0019887212571557504 -0.070831237792052693 0.038422192018319271 8.0408387873345116e-05 0.080539242001632524 0.099707729684206561 -0.19889115446572048 0.042043024332247818 -0.092903916495250274 -0.10986438856609729 -0.007083170495052719 -0.33418387206818151 -0.37149200285190981 -0.13795027025048101 0.041747693802447139 0.20567616779145359 0.14652610366179675 0.089052216455834707 -0.29721030793264863 -0.35907298133788074 0.093517594642162735 0.13017971497806657 0.066707268792622454 -0.15316426032945119 -0.058018763215222147 0.083704048520999247 -0.083687930775168312 -0.26760101133304565 -0.051817279295581248 -0.15190878891311313 -0.044108790024759252 0.085525176360941715 -0.08901874487051277 -0.006227537628960971 0.075633999567278787 0.012513075922575133 0.0091249591539973186 0.1163918981951494 0.20363169403914402 0.05000624907299063 0.040792518124930802 0.0077350588343735836 -0.039226993779864452 -0.08363953899892225 -0.099075157920014534 0.095469371096376709 -0.15577579468144551;0.052672101377469277 -0.029957279719569147 0.10677905554946152 0.16301793969736367 -0.14065524859790468 -0.20153772103820433 -0.060769141427793605 0.10254555109205972 0.033718764460570559 0.026841289105587141 -0.15987874722439355 -0.12983134334336424 0.033082439675214279 -0.19944157366565105 0.11411366059385565 0.052992883290406356 0.025926355512690631 0.17945645959798112 0.062906142911483928 -0.12889345853370437 -0.14841849524917827 0.11483528082139775 0.17577980367646906 0.19226990248070266 0.23853230278762741 -0.015614063176060415 -0.036120907697242237 -0.036317360954360368 -0.10547160610714643 0.028358678645471914 -0.20063025634207726 -0.31190378678325548 -0.52582862427601684 -0.2561596300692201 -0.018069828026618058 0.16400911191638895 0.1083012815749364 0.029725767446208411 0.053282608479847456 -0.0076330219633787763 -0.04606304720236154 -0.057819378182056382 -0.021841776225449076 0.1590503423510464 0.27928679547935009 0.074766610163997466 -0.14992916044502003 0.15814484774083021 -0.090621556166880016 0.034391009953206084 -0.15769180624107917 -0.22889593593728536 -0.30433310920500339 -0.4370413084117597 -0.37141352189029619 -0.13775601430999795 0.091167239878134687 0.12494959885946512 -0.099038521884372885 0.0861360366222058 0.16491808133738148 0.016856780326329406 -0.0031231553225196623 0.16169989291218423 -0.045824883079971034 0.096694896676081693 0.17851818893634994 0.12378837014600305 0.19713604168090479 0.41854617620141416 0.063740061133831724 -0.033770354299687694 -0.3139944863025525 -0.33596680502441673 -0.39806731614474677 -0.54992458149410173 -0.19228557620046061 -0.19267648638634027 -0.047921183950940395 -0.036503718965018528 -0.021558713491415412 0.0361587281783705 0.034876017962604353 -0.12060537573072365 -0.05056830495778844 0.10892587881113661 0.2131281653159105 0.17557662407195157 0.076962450914314612 0.19279920339562973 0.24830075904101845 0.10305871192520581 -0.11104590658618997 -0.060946106622638892 -0.14173736194438577 -0.27946240665800326 -0.41066982290017418 -0.2734754369682223 -0.2847696663225161 -0.061774035264218971 0.17814945110584537 -0.11237696274093791 -0.15896121565750662 -0.056508186981396931 -0.023292690453068646 -0.10873638420987927 0.1171030240448778 -0.060421233926687273 -0.055043506719353034 0.057553334802744244 0.22894882246021628 0.31829422505923149 0.16760764390572305 0.17304444266652294 0.20728937629633828 -0.21928838065701034 -0.33972690251062349 -0.13283022097635891 -0.072253047923847458 -0.19764586435301446 -0.14112570935653301 0.12284044108236562 -0.083991751771982495 0.043748764570201368 -0.032027642414260933 -0.19073376289235242 -0.12057994328597381 0.22995449465065571 0.16701650542280275 -0.10953455822533546 -0.060802614462623139 0.10502354461072802 0.24726402880665155 0.016806534443314494 -0.010166589767372279 0.043218417383715291 -0.17124277909158567 -0.32825764297897636 -0.10164353321891716 0.03849966370387601 0.26808356106277398 0.13896696375460177 0.096826176186118912 0.15393572970969574 -0.026614769433568341 -0.10648240225478087 0.01635303104216285 0.077244007044105861 -0.01214175772562549 -0.0061686746125779977 -0.071025338688212591 -0.25239724743115644 -0.063517342307342725 0.20741572276009199 -0.036606240354463505 -0.078521063384315137 0.085833806546750963 -0.13613187015224862 -0.22551160821552965 -0.10262841729358248 0.19141355598111348 0.13668248179136178 0.080773808582085743 -0.15667170452667431 0.11427570174558861 -0.084579823104541305 0.047350440537142165 0.0086468821642695752 0.064765519451897943 0.059178448798550144 0.10079197958210298 0.0061513317384600304 -0.032795498734891917 -0.068952224201303314 -0.036318318477966696 -0.090425987227581911 -0.1527889483311807 -0.056634995855267399 -0.034690943315545071 -0.09472084768612074 -0.0004013863453977062 0.15028647762330594 0.38671698434109947 0.1330913473771323 -0.017918939126822773 0.018513238278653147 -0.044040343519554583 -0.011346593230724631 0.068561124357949782 -0.06948661486683809 0.11778138138078495 0.014919987277470936 0.16119742063315989 -0.12670943234981719 -0.28961357815557498 -0.048878794707735394 -0.14638332390522499 0.13587396753525896 0.14042033393702122 0.23892989303377993 0.098851871519154713 0.07657607840603689 0.13812534071665017 0.098037212856407069 0.14806118034615004 -0.0016138482712748682 0.14767897376874178 -0.14529199372128596 -0.044927923677269707 -0.074415190478419949 -0.11938030326571322 0.098767080063514451 0.15284141173957341 0.14343390784109475 0.0098424384774413263 0.037620398916288683 -0.07377502145824287 0.077156481492282727 -0.022265684708925596 -0.019448286423012565 -0.048745779747610761 -0.096646727889625667 -0.064365111586280763 0.099774646307464701 0.038621760447117182 0.058106951823554423 0.21571984955458429 0.10030180390227587 -0.055697553483687351 -0.10200952510312483 -0.092942152728076141;-0.073017784035372693 -0.13810065284703429 -0.12579634945031473 0.025644896587056175 0.114887788653444 -0.1229012542437619 0.070009631226473107 0.22333105492851288 -0.080210899626099036 -0.095999788999387631 0.025601187170551768 0.00048840428344753477 0.19910047882312573 0.1051207844242045 -0.088444272349789105 -0.024495781237096781 -0.24269172104287778 0.022502493582853195 0.080212871241377035 -0.17767618687277845 0.059921274136020469 -0.047990259724788972 -0.061924987729613482 0.0034989764586292023 -0.15289105137168982 -0.22009711464748807 -0.073450151751597914 -0.0526252749491622 0.14619625698897412 0.08782903879866101 -0.13696802087715407 -0.092532872955675791 -0.064373593677693547 0.26122522561733752 0.31767519771490588 0.19121408393778105 -0.0053760512646322551 -0.0030971589122341207 0.016034137981081904 0.0030623094237872358 -0.16886438147688182 0.055837773040959139 0.093314766349940223 -0.14087954534503955 0.087370448633851683 -0.0035943201635609085 -0.16851227934895791 -0.010311048662492968 -0.12492318458030933 0.21343307544340165 0.52374567588808241 0.21921423106204097 -0.13327278569228065 0.11265073510601857 0.063132202912631302 0.10987852385943053 0.088162972774552123 0.1608579244927627 0.083216141623845302 -0.13381057978548586 -0.02139638909305322 -0.0020525601091334039 0.12907163696249033 -0.060173454538907087 -0.039273425942361738 -0.029842565802360863 0.1288442111035718 0.035767368554313041 -0.032378559812949896 0.068248923312948295 0.34741609795544681 0.35852687782971826 0.36746306006512264 0.31196978899552963 -0.079971095494651714 -0.16251762850192664 -0.12960437153457846 0.052176978833007932 0.25073269093853601 -0.034013968510643817 0.15150970926716473 0.0022678819529060789 0.096310669185097383 0.033350982718691358 -0.0068978591111681928 -0.21863470715362929 -0.0066861327225816473 0.134562155678699 0.10361472028102062 -0.11463896793920483 -0.088060504342348481 0.22661869977051582 0.46628779540955118 0.49781448160633723 0.39976940094509139 -0.12879456476473208 -0.32854449556335991 -0.30105410326957727 0.071368801511538196 0.1053696493532354 -0.087502369320280438 0.13593977130288443 0.0026538508796825396 -0.088065751963233074 -0.020448073660938492 -0.03908981599006562 -0.11846160554904424 0.050370626747371902 -0.2203387520457063 -0.17804424725393142 -0.123215752520567 0.036918533466665675 0.16191819774883595 0.069059999319843052 0.25531831508501962 0.41430575236068767 0.10196176234899398 -0.071944038051971429 -0.32246274130535818 -0.32162656169946197 0.074583002412087804 -0.20622706936601651 -0.084774742839228798 0.066439075887613691 0.03937691396155802 -0.061011301021600219 0.077204136580504595 0.031094964413912449 0.047576399115057011 0.0092100996930257247 -0.10194358546095829 -0.38059804406319347 -0.25531552696865267 0.049916082418254994 0.046361499988435119 0.090966112715970465 0.055508852620504187 -0.023966222171833092 -0.1140553014825416 -0.2509203526857206 -0.0064603405346259062 -0.025681405975713001 -0.14990927316541539 -0.042374503807277093 -0.14338264184252136 0.042600545319142827 0.031253387118184935 -0.026167573733304861 0.025984634056111167 0.097685256123694497 0.067567411547235029 0.032606432274152018 -0.35551611520052062 -0.46544835394745171 -0.18243458330582971 0.38385659211725337 0.17622014196177441 0.14297206025613263 0.019005411273724859 0.069577291898761023 -0.055773014844335257 -0.22069869417251908 0.13616075293208296 0.059983752486781554 -0.034674493457096639 -0.055973123784765544 -0.053849061893988207 0.15321364421615397 0.076957597901011823 -0.16214496204597062 0.32034574044824649 0.36064149817837804 -0.12751340083830545 -0.38898716158851721 -0.42061047379452998 -0.29909920132786338 0.081785366575513274 -0.0012805003872227981 0.018664810183786164 0.10518134123162798 0.17455897196082412 0.070459928910371769 0.099178721288693011 0.0056177703844046689 -0.065494851011298663 0.045255375160395725 0.097290284096062205 0.18372043197177579 0.10174037164821874 -0.063094432682368126 -0.11350456133272213 0.36083719695917077 0.25734969150732256 0.32551376843497903 -0.21150218565411394 -0.30408890558305091 -0.28962569544429612 -0.021495330584198349 -0.15892355252451493 0.095400426413252332 0.10458831159451322 0.079717542290469054 0.10794626802515411 0.21288471213385915 0.16038490081510753 -0.077500793030245416 -0.074559622392246075 0.024117995709607945 -0.13841911435181076 0.13371153103475292 -0.071116794199702293 -0.10149695409057308 0.04045024411853923 0.0062105196581724665 0.17428466233283052 -0.10170158107070501 -0.013571846149362646 -0.11750305530757466 0.011872276741489737 -0.16657880007801534 -0.18058843770755836 0.0019694801078946806 0.20914662885987054 -0.0033588387050577629 0.12515801814156596 0.27160887387168536 -0.088437665094037957 -0.21410130929787105 0.024204795519459366 -0.11296088034776167 0.012459561052908678;0.15162335492962073 -0.061650473786853607 -0.061180232623667972 -0.090024909844319198 -0.033597314689973061 0.066221592636296997 0.18795808310009207 0.22788160141438352 0.19866104393802894 0.12079327212805303 0.041061075671487826 -0.054548916063494546 -0.28069802437158758 -0.023131489979483978 0.12921947701748146 0.12758422127173824 -0.038144018503340975 -0.16210394998047126 -0.15010215400496132 0.065564459963211003 -0.10094501615538479 -0.067958647616542064 -0.14267508331959267 -0.044560746271738269 0.032881815221922191 -0.022032674682470343 0.23389051136005953 0.28251162308544236 0.40528788525754367 0.19067076981489109 -0.14667475477781333 -0.024721243442089615 -0.045600679778411 -0.10452071783603867 -0.12567323323397109 -0.21485746284614235 0.030433681521362815 -0.14266075525609578 0.041713488726081556 -0.10385599367901296 0.02171194108688216 -0.003447762294129659 0.040715396533147402 -0.1121096735647811 0.12311386923478887 -0.10811119295278521 -0.064758361841309245 0.32434561458679828 0.27998365621500859 0.42199215397366435 -0.21074462090168725 -0.20548919792260967 -0.10409092819024288 0.031946923530003613 -0.29398885015300269 -0.45373542324180471 -0.023106234473276328 -0.045816356024541691 -0.062017946816657045 0.080233080302617166 0.099439854020933624 0.050984623333117235 0.085144257823614442 -0.050578815510696207 0.038324349303997321 0.1037272546080321 -0.16680193544560415 0.12000665668092411 0.21402038362176584 0.33182250111539707 0.42906431683352864 0.0042173046261305119 -0.083961416305249115 0.24636543637500086 0.028705728409322711 -0.22690751200287954 -0.39958068604815233 -0.30559713553021517 0.11205522820705167 -0.18741023639375862 -0.021173535317019154 0.10263776426429169 0.086816155900832415 0.010794693528474826 -0.0065454882612247349 -0.11749177456792685 0.11246256155519992 -0.0071926680105071257 -0.078712604739108058 -0.093160604162056238 -0.024916504262012071 -0.082515054666959478 -0.10077878942024848 0.3605917166130892 0.33826124854114392 0.033373936378508148 -0.19872036447231115 -0.12377334499490261 -0.2938847723370504 -0.24497610577215514 -0.1768381031113711 -0.23153377028516919 -0.11228194002620223 -0.073113514004539346 -0.1293035497173127 -0.0087880457769276207 0.09917653242192985 0.0056209166008003948 -0.15348635790447429 -0.31341348951908127 0.1561182906165281 0.043366458183989251 -0.29758631708037819 -0.13779143296734142 0.2088137617203539 0.29545290980863986 0.10086703542697305 -0.17717248877825856 -0.13714349056314321 -0.06943682273737474 -0.051447294942040964 -0.02416659602345678 0.010360233325647537 0.10834312878237236 0.0670996975502203 0.027102416757947629 0.12638894343163246 0.12991594108879453 -0.020704019610471698 -0.21178558160016983 -0.15156668488194031 -0.02578299265827453 0.069653994879605219 -0.42852430972097549 -0.23402993324805205 0.15194861579906052 0.20667174620108056 -0.010529653378213084 -0.027245356710516037 0.063827840971421884 0.16191893604544003 0.19288358806440978 0.090896289513589371 -0.028030375069529614 -0.094574095328807908 -0.12462575926323113 -0.054148570110605684 0.081532774096659003 0.14042936810027445 -0.090399265329199868 -0.020636439452438985 -0.12516686267755694 0.16678354359607583 0.15673628351243388 0.11277625111576588 -0.16021994421118696 -0.018640939144616862 0.055312217704955299 0.17784540609552521 0.06166866783546706 -0.021008841975950932 -0.070361080663043515 0.17131731674627071 -0.057108330891120711 -0.18704338705726312 0.088561975642760346 0.00992930974399606 0.073885891806399873 -0.0088797948982408306 -0.0028692032248983758 -0.16612990981050615 -0.12541654032922253 -0.14597937190179941 0.18023763259693873 0.038514227861623819 0.31090159718302568 0.21593345102428246 -0.059773194163384044 0.019418476063784159 -0.048445997715682761 0.073574887975361603 -0.13044601491154259 0.11381519461771959 -0.12914962517046452 -0.066989565398019271 0.060868474872389555 0.055312812130906379 -0.07182808352285866 -0.15888925974934415 -0.091954966647071298 -0.03422063009368459 -0.14200300659881954 -0.0033073729406710266 -0.12462264070753991 -0.0022682480029542714 0.4422406776224051 0.30222658843167494 0.33123993157396453 -0.15056330395923367 -0.015368781844140957 0.081331417148172797 -0.12264486014996037 0.16832624979562563 0.014769463528108234 0.088471552550374907 0.071328048677461856 -0.14890378873302507 0.026109612156154694 -0.14055672430611796 0.13909215803509861 -0.14976693706460692 -0.017232139756680996 0.047688676396352131 -0.11785796429863692 -0.11494077906868255 -0.012568448167571364 0.2519094263668662 0.23734838527940155 0.041675549193019364 -0.046874982966762048 0.1012204011361973 -0.062278355843337824 -0.130992322815454 -0.0024581253766402084 -0.024234157368116106 0.17324400995445149 0.082791480710787957 0.075546603433706866 -0.099193078679477006 0.020526251818416413 0.11640333223449835;0.0077896644206686769 0.17588011224790148 -0.04058373617315985 -0.071412923079998247 0.19022648253529736 0.12412555444347917 0.12162821154554605 0.18444725247154647 0.021842379725702125 0.0065343107389553741 -0.052298603357283507 -0.16175712600363024 -0.052336988074360706 0.046154008893891062 0.14732190163017261 -0.066562154827902981 0.050002548550572207 0.093867941891949441 -0.1008502572837688 0.083329478807129223 -0.097212876607072105 -0.14744521598970542 0.11306972854660675 0.11791831087818763 0.075015797688178565 0.14854851768703284 0.21394257804883363 0.27986302661486417 0.28988218349449463 0.10700165185259397 -0.12488285834243966 -0.076900674237504116 -0.21373159826504692 -0.52529544275576334 -0.15945131219118236 0.0022884924803271102 -0.126966607967918 -0.1009540416961017 -0.071368712803566825 -0.040490290710025086 -0.109553698496258 0.0019413648062776136 0.080202029426598209 -0.0016961365678055378 0.069138607263634799 -0.056454778928133539 -0.043987770827158615 0.074598726668928236 0.088528532268423499 -0.040269241347443578 -0.20665177242646338 -0.035173711362159195 -0.01826880418406724 -0.067572561331252182 -0.43222617942287928 -0.37777464483062356 -0.058116323273861195 -0.061201286353715273 -0.12670111513549787 0.014571319254250972 -0.014565117079360869 -0.12060007701998077 -0.066297927188994035 0.11191431327935845 0.15451473223800663 0.061912941161297232 -0.021808134560273869 -0.10375732576500665 0.022675622247429129 0.00097849901655056655 -0.045283062684724547 -0.23179622833376495 -0.3573328387382011 -0.14576214525233505 0.10479582363489059 -0.17031203151100632 -0.22070273516335695 -0.17734718110494641 -0.065574514788842367 -0.32248160462059899 -0.037279276443065321 -0.067937318747842326 -0.006196650005390129 0.11388821066655468 -0.074505101225169068 0.11598481169278098 0.25689826087118006 0.10097111109810764 -0.16098497824671676 0.097919589183156103 -0.12505335419445054 -0.2787170516379936 -0.17279018729182052 -0.09510728204181701 -0.14749288409925987 0.046711984483426131 -0.18697275181096287 -0.29389503225744568 -0.16457728770585384 -0.10596667967324042 -0.074500984289693345 -0.14554263692428379 -0.10763538651508243 -0.06414511586570848 0.081650266664450646 0.083246128187384222 0.15262828036535564 -0.047549768294708764 0.098342143942811419 -0.2773408111983236 0.25188141854861867 -0.083340392151593667 -0.09533744919457722 -0.060575707790079626 0.086926007871087008 0.041322670776706684 -0.12135355133427786 0.012213759413436805 -0.26060117491444529 0.019420959353047822 0.15237368237287729 -0.13597437726238923 0.034708809571812729 0.056007915899604757 0.025212961491756291 0.12945365354870403 0.081928641187793846 0.066253950424897359 -0.063674779331274148 -0.15468959469016041 0.16520792561332653 0.27971359575326166 0.2267600066173055 -0.33105187235769912 -0.12732352080597167 -0.11925193501975111 -0.33699592775096276 0.13962127883126454 0.11649136229957911 0.16247573960319728 0.32380171960704573 0.31335443329701085 0.020400451276867418 -0.069910785369851153 0.0081706797096757107 0.016518435945197005 -0.12714659608157078 -0.033272123779170618 -0.058393737271838858 -0.20996860530848918 -0.13185164268286881 -0.12922323957628462 0.23332933387980445 0.3988455392196642 -0.1494430865580309 -0.25244745937096563 -0.29248396285273798 -0.084240351568232619 0.071881720038477037 0.19721495112758247 0.28905753932451428 0.26604112758882997 0.12530692817714653 0.083607358227529571 -0.075828529589090837 -0.059451855709557806 0.0031316532561805966 0.10670059516106005 0.098317444660404096 0.013192471060245937 -0.45141151157227727 -0.2456453671193001 -0.32328399928513252 0.22463325212405988 0.39802558439228031 0.03546379716500158 -0.20662613112301342 -0.061177218782883513 0.1614942306339735 0.1561498790837173 0.16557005545929021 0.15047761414683916 0.2829974960888092 0.045655096414179128 -0.27346366657234578 -0.26229305829644262 0.0092463021481315119 -0.14967873608878912 -0.071822906368401523 0.059957931188272397 -0.043797921700942793 -0.023516602085287625 -0.44539792851363275 -0.23516706010709931 -0.014259581616951532 0.26379185954975953 0.2197307777586916 0.010622487786533337 0.19162714303633685 0.49464491009187977 0.25301885856392531 0.24489071209662439 0.26556304345220305 0.22231221133158119 -0.14692608777000016 -0.11152230411318834 -0.18999000840856428 -0.10550670271365611 0.020889803551079503 0.092353169448484276 -0.15710477157826205 0.065524130532985614 -0.12707096303976539 -0.13201193520426999 0.046851345202411541 0.11884143507190831 0.22953028620307783 0.27267617470640504 0.12278459631000385 0.057041729552734212 0.30259093288435279 0.15854003258715069 0.15395712912614637 0.25033570302281027 0.1539832996468978 0.070358529241238366 -0.0029990448471437412 -0.058672031863352382 -0.091493802287775677 0.053036562046593315 -0.049693214283027413;0.0081861662177064119 -0.04439056450853035 0.13365373919694712 -0.16079269140284569 0.13696719175761232 -0.035429067514689126 -0.0013587525710209412 -0.25965602862405568 -0.16384905897926594 -0.18277386639700302 -0.34652028259784667 -0.23643688544703292 -0.26811338695168252 0.0054567845884657433 -0.09994973154737094 0.3054075140349839 0.20669112049902164 -0.051666283092508196 -0.13865377854120509 0.037992324070096839 0.13129302321540859 -0.042214717860829434 0.036476282822174008 0.12267802063225368 -0.0077881946137747316 -0.28651011881340738 0.05917734462174868 0.031409895527361696 -0.38934119357076485 -0.20732808021961344 0.08666007425975196 -0.16511641644048611 -0.40598359984898552 -0.46121621794889683 0.11266926436802092 0.17080555815144227 0.095233424989607296 0.02210003720145691 -0.059448736300002282 0.07005023475790205 -0.021270929444971338 -0.15191018711336787 0.073503366253572039 -0.076894985246549391 -0.021931819879305883 -0.015226131883211915 -0.053767699765691464 -0.16653630840880002 0.021530430989249866 -0.21095376791136311 -0.21736852597800435 0.092188791974740683 -0.19774922671678699 -0.53115851251135049 -0.49947419464276166 -0.25743694550144069 0.19020946972905817 0.060146573293880193 0.00827492234358739 0.03316387354290852 0.090650654986750831 0.092572575037892735 0.071023094310347201 -0.018248756692173823 0.13617322754107711 0.30389747066986983 0.15303829240592198 -0.15583124992060332 0.086443264667162414 0.1872916704419002 -0.085299041176956594 -0.26241207670969136 -0.24924831767895875 -0.25921807087164045 -0.30064616551093981 -0.44809739000724158 -0.26705250856028567 -0.097054290767157284 -0.045171975728621694 -0.095925369422819387 -0.064259992639892932 0.034897582756298007 -0.053016401217413203 0.05062467560904528 0.083057930034883848 0.020947984810913815 0.15359179114523672 -0.12019905735279472 -0.23909398079863342 0.21197948706227673 0.24401626121248601 0.049190944206312502 -0.037559795030637493 -0.26564169987140479 -0.27709907020543384 -0.019724616915617194 0.18879646106205797 -0.041873504288730413 -0.30745161395116505 -0.35335964250905116 -0.29083763418807096 -0.14493255820442411 0.052193581821956117 -0.040735211947237185 0.091939866884881705 -0.085705257397688347 0.1304338138724335 0.2117816820996927 -0.10363706544648292 -0.067908466283317009 0.21550007081305453 0.008972515334692302 0.23194444553908325 0.033247197352686289 -0.10747635194908925 -0.16999873182172071 0.39182216825416871 0.74765662207735939 0.0026128767623253488 -0.10812947135419368 -0.10237708339239798 -0.24562271774531866 -0.20274015216814201 -0.019218934949642667 0.13331558333907886 -0.039654357532842917 0.14983715713729448 -0.12370475005264307 0.19818275888233161 0.084800697631256916 -0.14214027592432699 0.33355432834063453 0.025112005910659797 -0.069624659473533357 0.23852873695326302 0.032666353116321961 0.15306151644379595 0.43749431910551295 0.28689286294206173 0.246854839028472 0.049481484539078538 0.033844868536206593 0.27769843367423674 -0.10174403871049985 0.0010991193388378154 0.020782258939294165 -0.092018668307637691 -0.0046803451821144605 0.015899594974490776 -0.1169598288398563 -0.0030635599221082829 0.11626173099080385 0.066757924294129856 -0.043282266387939416 -0.058529930443054962 -0.098244154437808304 0.1570743664317987 0.2640575206493142 0.25871458576022871 -0.011256933278650233 0.20172334908898593 0.095373452365143621 0.25394768010699953 0.16640087545093851 0.020474305252541954 0.056746046520982793 -0.12266981157609215 0.052242442956744392 0.030425437836531885 0.090766550522790257 0.097023462968505031 0.079990636440638432 0.067531717185219012 -0.24059077886542796 -0.027539778527157999 -0.15604280037449111 -0.090153247424461569 0.064907766007924902 0.055327848107585183 -0.10610376642192088 -0.026002678071225308 0.21274741573202588 -0.014588028135954136 0.058133662887199157 -0.032704526828580584 -0.089092734391071057 -0.15276273308481683 -0.14527911199509297 0.11037590607831957 0.030879815327231608 0.19784853507032324 0.061276685617516681 0.12278153810121566 -0.1947693244140595 -0.30228376963569165 0.11698203726825482 0.058364062516248025 -0.07578412371895564 0.21845308343808417 0.13815048361820806 0.25473994493417823 0.0073996742373349063 0.068918295504638336 -0.048369403403581285 -0.060267043585230967 0.042198411092298167 0.12574696423044521 0.031856057951073886 0.05710018644652614 0.085400769740620816 0.10607043621324551 0.084668289089471979 -0.069109924283973653 0.08850176819480382 -0.084988613044571476 -0.227864998816217 0.053591874712456723 0.028171085242677533 -0.01019249453856688 -0.047890489464652013 0.10217346712474903 0.11091511670931017 -0.022634953325507384 0.12025105292412552 -0.0031849698890256285 0.051921120461287835 0.041008129862563233 0.072923239489818159 0.017938864700671939 -0.17097188844037364 -0.021315230600319361;-0.011305565571627324 -0.13578901003186736 -0.018036124693787767 0.19144488017473574 0.14660368766089263 -0.041881802116788928 0.088751062423328531 -0.014237813247359581 0.016156765415223664 -0.11429154705425938 -0.066877839710026074 -0.19245203979964501 -0.15703835134818411 0.0087260420191608897 0.018065770404256019 0.16480624349731288 0.043615851836410868 -0.11515795149447021 0.085281265576937007 0.094467084866520487 -0.085304638613651701 0.087746306653563061 -0.14409552908656492 0.067432122908671371 0.27248219092203629 0.14917730448700187 0.025563378389146532 0.14405529630510111 0.019252765627987178 -0.086691731835887048 0.0055025158192905906 -0.068976738436852938 -0.063682523044069086 -0.37446624297917402 -0.30052257240055807 -0.18988502353915546 0.014715051521368034 -0.015957818557712982 0.095222908083130664 0.053930326019849081 0.055529792099443753 -0.12692370702864744 0.12048899846796599 0.14398357225782857 0.10127514837376618 0.11027242211345503 0.072247096929674973 -0.05323692364400872 -0.054885533642290249 0.059492715175506583 -0.23112959612729886 -0.12217553879647182 -0.27231280888855813 -0.18612570057819561 -0.2234868180182257 -0.24801156094037996 -0.23441967024709043 -0.12211014222758446 0.11853148655946548 0.1131196399935871 -0.066456719728209615 0.065744860547718151 -0.015889015146124438 -0.032972381176086543 -0.094566919283391282 0.054726276608335962 0.11410869768713093 -0.18262523784614099 -0.079855930485004625 0.19852811343255913 -0.16947715809934852 -0.28787179821632836 -0.2596010440845784 -0.060381441367622982 -0.18743626994285012 -0.1052636730960617 -0.11879912172512191 -0.16814475896481679 -0.24566158209770983 -0.21695768667005305 -0.073046793546397218 -0.088405079944876133 0.065179694881244768 -0.038684275705816284 -0.11357570370079464 -0.036561825092525133 0.036359437103789048 -0.026569559129458003 -0.23179270112791053 -0.16824599743693494 0.080231038245032874 -0.052650568077718188 -0.049906878310851652 -0.11180238070117507 0.090917180989856336 0.024658207885413761 -0.13058819412746045 -0.064661231022801732 0.044426754481019987 0.054239723538605518 -0.063489400621999162 0.090935390594350324 -0.051957670632910374 -0.048684498122784303 -0.042283297446601448 -0.1391603218378156 0.053564060871494734 0.085346136747898954 -0.19522666176047079 0.0069419841817574823 0.13359707568762461 0.23123758465283775 -0.056459489421902334 0.064752705244150943 -0.038575581259832903 0.2309888165630275 0.31717579273707314 -0.0065523960078170181 0.098015524403836152 0.05313215468318197 -0.11075853605839051 -0.064798265623378495 0.099104124252097983 0.10259339265549279 -0.10590821313604244 0.095174722123801569 -0.082636065276675608 0.1644053650704469 0.027445419653405471 -0.0086328256534993573 -0.031485483892738426 -0.01576044858266443 -0.002452647307109283 -0.054548190231734552 -0.055566115184580531 -0.059862995350673381 0.041886371446786773 0.1499487469891258 0.077322079029853177 -0.0041299263223792751 0.10401635190138732 -0.23921556866008004 -0.1269120674942702 0.023154173032994007 0.12695651890851148 -0.1495678235884681 0.029329317554014567 -0.14052992008234311 0.1186181088097616 0.066379615620880975 0.014781328668280006 0.045162254552491087 0.15365450551537699 0.21602273158950666 0.18209233554793197 0.046058371633405953 -0.13091854133695274 -0.07569557961380427 -0.1982936402921405 0.034292050227289601 -0.11928606846524636 -0.16689501977702795 0.039883131026682755 -0.089956402877881772 0.01463278241534644 0.10402791541395094 0.043311704882054783 0.00038489728774029902 -0.033705581649435684 -0.056049721520945256 -0.094881475874071461 0.20049333093181754 0.0081980989638872088 0.16240464662035931 -0.050148073776727017 0.04807230489521943 0.02887209060533422 0.064502433708296808 0.086566163237035795 -0.10008727266927742 -0.31107101431071399 -0.27243427011526744 -0.22266852838130774 -0.091852191990751619 0.014540296105895106 -0.0054857370834157449 0.030035175871442606 -0.055849887521331805 0.1164980452317855 -0.17514382215469071 0.10828039766732797 -0.092848000271600006 0.14759717548845905 0.27110979741207841 0.33060000154682606 -0.064955919040384655 0.10766138734276744 -0.080635807155990794 0.13312316352506173 -0.14496133125397864 0.02018642810583763 -0.20391481527817631 -0.22799236411172008 -0.03268864120864845 -0.030180941642381942 0.22063826091880742 0.11634682422986435 -0.040038937625140485 -0.0627827823460443 -0.0082874464373071093 0.0091662379985081952 -0.033998634855987808 -0.089235366974850294 0.039051088736480881 0.20018646872118484 0.094515248017490977 0.17389843781891909 0.13277208801499957 0.062064226432568564 -0.036067516454696448 0.12983329812008798 -0.10940682115389137 -0.25443451021432023 -0.061551857881878634 -0.0034550358495616528 0.10799041657733753 0.13620176215782401 0.035181650203076398 -0.11868396620256119 -0.051337938465575973 -0.097675310518869546;0.065381587399394342 0.085096321275588208 -0.1080722761052032 0.21894660877462596 0.21744423309170177 0.16299236519592239 0.14290896806819645 0.037012479230556082 -0.059113394661749655 0.11448646427823261 -0.047866952778088799 0.013825457298863286 0.23914318326516681 -0.014499251939617319 -0.065191937530640495 0.1756815527170365 -0.018023410516229237 -0.085243954341392716 -0.12022379172590285 -0.011673727964218571 0.093336765549942288 0.14033347687984027 -0.041688210099998083 0.12393161455933978 -0.041329236344683294 0.19592600252500245 0.15621842571620273 -0.078690049826892192 -0.058814014424632369 -0.045826892416773984 -0.091508855264638242 -0.070748045005471077 -0.088475130570894331 0.084240330656303 0.11052738864043753 -0.056377563856835365 0.022699202922498166 0.13717245852374613 0.039061795600887989 0.057091565919622868 0.071060613362849148 -0.14162772793238515 0.12131211301543385 0.12085447676871749 -0.080580054567179676 0.070622403240021711 0.14661433565690235 -0.022462825727914349 -0.035706820227580774 -0.093035348726176373 -0.26008165525654198 -0.28549192906228443 -0.066462134561486405 0.032953884658329234 -0.11422014132949665 -0.044194235546056504 -0.13510950698142143 0.22798637834988292 0.23864842367125016 -0.040384108435658775 0.099451107792122628 0.02624202006241964 0.054062644749695368 -0.0088142977034218473 -0.049944333053009334 0.19108695553221347 0.042248830636662203 0.036317085197340566 -0.21989853769618734 -0.32315808664774703 -0.037066813465821073 -0.078970672427015512 -0.08843056171352269 -0.19399354623682249 -0.14270664941080036 -0.0664542078825274 0.3214690580258257 0.17556465590959267 0.22867050464883149 0.24479374492789668 0.080204953355712191 -0.081921427895855589 0.15501340309484976 -0.051180275714571018 0.071545281524642595 -0.084986963182105579 -0.13759746501926695 0.18764461002763655 0.012938551246917257 -0.20872051698246219 -0.20823335639161419 -0.07345986359556464 -0.27239496570750898 -0.21848594084461956 -0.13636751691783289 0.022907172001440695 0.30371427702907228 0.18725937033225817 0.21836312064394173 0.15486879225054637 0.067351860420391291 0.029032093016341926 -0.10744956861793983 -0.017908699960216629 -0.10523643768356965 0.028326947344326336 0.10220753143835638 -0.044890971522327322 -0.065873658633451501 -0.0046009597964195353 -0.19190013311487045 -0.19126791791023415 -0.131715383361761 -0.12374752859574502 0.039560785601205947 -0.0082715814769976602 0.23267868520732576 0.10201271358370007 0.15538870458235554 -0.0059562436037641836 -0.14129402680198416 -0.17081067159525534 -0.016030899693446919 -0.10294424995806661 0.04988589536953697 -0.044484400745567539 0.087834826548738698 0.043462532290676544 0.10925644575194979 -0.0043234975093597722 0.11081330722619361 -0.00087339582574522102 -0.083045326597799743 -0.10505210126969025 -0.15200369356766413 0.015085925907926541 0.17363289683181929 0.17847502213732919 -0.029629847570815084 0.12643835681027904 -0.11752391632611341 -0.15715371017195709 -0.2194970019754503 0.14397138689352837 0.031282678416941122 0.016924051279698735 0.11152780353109074 0.031311951481454485 -0.13912916310877541 -0.075275857671494251 0.013525193247049214 0.076178642441274397 0.11216147703285835 0.040811202363961158 0.014398705142862345 0.13346766755024703 -0.055216771315229035 0.09127728230867295 0.044907064700432903 -0.21636638696109184 -0.14595846247632216 -0.16333907987587679 -0.11513546230145383 -0.099475967039202653 0.15291789382780632 0.053797450500723959 -0.037325294989187248 -0.13696574504195863 0.13327980458382863 -0.10047935914047264 0.15064108387463185 0.15180934411991698 0.24705813708485477 0.085740698470937404 0.1202976734602699 0.057807339032763708 0.056410530764131717 0.12039057391767986 -0.16355920138341618 -0.23636051432083036 -0.45658977934307493 -0.27430044182429314 -0.28304923130937049 0.077285064328284775 0.18411407886098916 0.0060011969726158354 0.095742670054762807 0.083332366567457183 -0.1258614626840856 -0.1308370347860883 0.14180116577207838 0.021424827016950046 0.16536248700178346 0.16797095326439923 -0.015439685448165305 0.074311930352411279 0.057236574034120004 -0.03398276340942926 0.062303400046392822 -0.22099634704414073 -0.10225712154492153 -0.14591835383213878 -0.29691288528521687 -0.02995881280841748 -0.018428396137595726 0.26102247645421545 0.015424612993795633 0.12296544561868425 -0.11184621346591231 -0.12835831703104908 0.054886702113299463 -0.13374430797649195 0.098593528018070947 0.089320624357436235 0.046936144470430666 0.0035486954219104269 -0.079073232887930819 -0.12027752801504679 0.04275069764228108 0.078261007004407815 0.0040544868027809497 0.1050918181198859 0.030348233566826966 -0.097683048609242359 -0.068952816275704307 -0.039392539923106221 0.16556011490659384 -0.072037182633606131 -0.13851651828976808 -0.048028253623879913 -0.062982890140124148;0.0099333569897474324 -0.12270126933607471 0.1365494105651503 0.26071842575374499 -0.13356503561539451 -0.11110150936759851 -0.15737726840051044 -0.21538144974823142 0.02366031341338324 -0.047389486773906114 -0.021055862222264788 -0.066517766716935808 -0.15008778519018129 -0.024108884376014741 0.020442248979606434 -0.19054316453448764 -0.05027948262880759 -0.022237328192317486 -0.070054463759777877 0.012337224941356429 0.013180233508654276 0.0099821131514992827 0.099671223806953771 0.25113066316048333 0.33487402952284578 0.11085544584144404 -0.1009094490312938 -0.29678737407452588 -0.15038895713969713 0.26571978451157585 0.30773606745608695 0.05869402547837968 0.053796992020640554 -0.2891051328915194 0.027219240680765845 -0.017195108287402939 0.14417463145628612 -0.22832185736884075 -0.13915030060857875 0.088753165661851777 0.073262445798207773 -0.13459297168038184 0.096640923343459209 0.035952907850415772 0.0075943636414109884 0.062243518262729211 0.28206099353352665 -0.1612361008979574 -0.08899411498979605 -0.081434399131781965 -0.025641043604313178 0.1530320121448408 -0.054932769171032458 -0.089626877641543284 -0.11956430532844324 0.19639048694398381 0.1408414703697827 0.029039894091257967 -0.053209355969551106 -0.045914134912710167 0.016765323958593096 -0.13260457312223342 0.080423707301200117 0.11258645773059808 0.18484179107683377 -0.20015607386687737 0.27782153253875141 0.12611304244042795 -0.056305935244225294 -0.10842770003993586 -0.29429809010964786 -0.16387788460061248 -0.082391515729528894 -0.47312072030013924 -0.2648955132369773 -0.19235763506783723 0.013351062028656584 0.50981326309966701 0.21141878483788801 0.15696197978738005 0.26619516832867957 0.083178518169496521 0.034180354470169393 0.11420221592128922 0.13628563200074464 -0.048144299459266578 0.032225449427918149 0.046399021299061149 0.3699480438170939 0.1539332799574856 -0.16147687465247626 -0.073486400671412266 -0.16804196301447027 -0.25252840569783597 -0.27683353759689444 -0.39852289473960728 -0.36838745084535734 -0.1018124946941299 0.15751208425675461 0.21566171749704111 0.30635147712182853 0.20027512718380641 -0.077557216696375553 0.14475501929006782 0.052661220119177655 0.065783664548036275 0.059557200218139858 0.017909285314907007 -0.041256151330558377 0.31050235924187519 -0.048701332367697879 -0.18384237378993709 0.1060767938013997 0.069993051337290141 -0.34593571400644174 -0.39109836647137125 -0.44404265243674873 -0.35079736966970915 -0.18883616598064201 0.15405847778914308 0.093992576454623514 0.34502568481642859 0.43909100422668679 0.13211128546033502 0.0056393053335104457 -0.070866633988957858 0.00011431009838205636 0.1228464496618748 -0.17418857187193162 -0.014266353400870064 0.25641191738236113 -0.14666573128485705 0.0059866971342161825 0.37307310812973882 0.19007872551042221 -0.28259032930164879 -0.38350077862005338 -0.37309174500598519 -0.52422112282546873 -0.14599580755243827 0.043914343784981609 -0.26231521375114797 -0.059579506618557682 0.2086495301935225 0.03536788468156421 -0.055733911185089441 0.03813102642495686 0.04172232148602479 -0.044174212480023352 -0.11485392118988701 -0.078114348392693378 0.11692772730331294 -0.27629824296948646 0.0019446211156915827 0.19865636043813514 -0.13480432065950815 -0.24526524783540224 -0.50570118753151994 -0.28958839114540635 -0.15480444145800243 0.11764251310729268 -0.064716141645265512 -0.1438151846869084 -0.089122476318055574 0.008896481269660899 -0.1285205065889222 -0.14195706322224405 0.098690171613301611 0.12648838082823768 0.00067622361919556016 0.13813664322357225 0.17232478722106168 0.2900819339323007 0.14298032218166193 -0.18954811986212736 -0.34152236978255901 -0.11239509242791676 -0.10664548024392687 -0.12077492588255151 -0.12073859838953355 0.20588767808203348 0.15342420183216215 0.033746737197330082 -0.29890064622818047 0.0065192952135985985 -0.18690413877510717 -0.023131816895978933 -0.16066941080105873 -0.03046087163381957 0.08647695691623726 -0.17194299142990296 0.20466880616221952 0.28194283410904314 0.33698477099928215 -0.026538237149939168 -0.36564146142152948 -0.32530509096162902 -0.009918715869721555 0.096136727104542602 0.19589094884496328 0.10431609313957589 0.0015026005203437288 0.049657470059864782 -0.08484738791834294 0.07848692901075012 -0.13581844769386453 -0.080704714348635465 -0.10585657521849767 -0.022106780312044515 -0.0082816037779826178 -0.052481205720076904 -0.070616565633312034 0.093753758399381423 0.32232448347736858 0.11710188499501732 0.19829455063784535 -0.14126745472611366 -0.040280729876546198 0.091680166271559643 0.064816400764447529 0.22001314943181929 0.15111473048299495 0.068163586148056857 0.099285678446282707 -0.06153985530859634 -0.19530543707512693 -0.015598370138676198 0.039529800249679087 0.049789650807342982 -0.092536061178631238 0.013731800540623907;-0.10513820845210423 0.035222440280806337 -0.10749884571536082 0.052776440103950897 0.0082053840722654467 0.10985364377777694 -0.16396127610414862 -0.1670373799290524 0.019607536981048085 -0.12825746143412015 0.05784071288275279 0.14405013715536955 -0.041052539107433332 -0.072808350514470099 0.087646625136037062 0.072363076185952821 -0.069361086537053307 -0.0070674259107246246 -0.12639445154052567 -0.14149779692569361 0.07944546984345667 -0.035892607984448849 0.071591937836639891 0.14095724383594618 -0.0090324546502346999 0.034630619630058299 -0.13354447440458017 0.05679990808309969 -0.17004080227200311 -0.1632560944400967 0.044525837923944725 0.086125872802085127 -0.09496449373755167 0.12919911303731765 0.057964785625509427 -0.065487531936355245 0.14382063858083713 0.1403264899439321 0.11489050170781241 0.016031225928018769 -0.13380136971091072 -0.012033710865807278 -0.12425988999946562 -0.048778040950340454 0.14124567691792966 0.17093813489727241 0.063982997445015941 -0.21179669945459911 0.031446573763716235 0.065199295693453688 0.015696705675476236 0.057299380170262142 -0.068142727387456303 -0.14068460592222451 -0.00095901306971330792 0.053066706849317941 0.18212797640723147 0.045121755857578397 0.086822448302984453 0.16240409083490101 -0.0041987145313684329 0.099515490493167727 -0.039297241077622266 -0.057118169274188738 0.15735856153745198 -0.043379381056288767 0.07966863319483948 -0.05373124285799414 -0.12076714745776564 0.054310454928442359 0.030015890838182208 0.059979316672664297 -0.12713303958790115 -0.18391651225147729 0.044305242593156498 -0.11417170850349356 -0.080851755431224651 0.16178667895825508 0.16770099242254904 0.1802796725055687 0.028622077342829098 0.12437390335993642 0.086148561476920432 -0.046199788765521485 -0.022352048026694969 -0.049721017141154192 -0.039162135394739277 0.13471574658812585 -0.031477373765246029 -0.0048573642201330596 0.051322686888446517 -0.17009165818894567 -0.19784265983627661 0.035810072279979767 -0.18692021574055823 -0.054271333726053889 -0.0704055033486745 0.15020145160221537 0.15937455478862916 0.18157444918074597 -0.079150432643105686 0.06140975735853603 0.11072328107175242 -0.1232907383237123 -0.07750601412892541 -0.099912418794613989 -0.028176291670252165 0.015374652447467722 -0.10402559589736415 -0.12285537107479562 -0.12923353345040023 -0.22967381393186956 -0.20727091845389903 0.063069415996621858 0.037040568713651502 -0.076647925402271458 0.06346162620795133 -0.038485191823124737 0.06243989098363855 -0.14137861169755481 0.11840692231978127 -0.068095281132656782 0.045330926535736019 -0.0060222149849452197 0.038678613203256669 0.083879388588199683 -0.0053144643017296262 -0.099141412996187062 -0.081734997048497432 -0.077355300274439792 0.09864557619678313 -0.047051374909592054 0.018150892909827205 -0.13099091539306165 -0.078763911686516683 -0.07270198271824474 0.16692850509762 -0.15885940219213396 -0.1073763809652047 -0.034116965714051393 -0.19148837501528049 0.0070419250941279043 0.056207911442761049 -0.11342956881680431 0.12878227557836483 0.062363865478116121 -0.010543228704191929 0.0095443764464347644 0.039079194926900027 -0.094722184963601602 -0.076144003692132145 0.00061367961017839935 -0.022951816015969514 0.19587956031214482 -0.11277395390917562 -0.046834306001902241 0.075386935471061747 0.036827935269895029 -0.031040834164600292 0.11748241515740526 -0.032685814750395045 -0.031772763611141321 -0.049487329908426705 0.081897797672484354 0.1056961623185806 0.037395697550054008 -0.12262773706118685 -0.12713545965126433 -0.029519118786999858 -0.04143740284830804 0.030571993811874906 0.09881625257873726 -0.083926264487015498 0.042963042735953361 0.31671334398805606 -0.041262949274030444 -0.12504467472139297 -0.05687389974065158 -0.024735534409905807 -0.16653681759611233 0.058481660472434291 0.067384308761638229 0.11124608519682468 0.08074745259168796 -0.0088459433830548138 -0.11970367773720179 0.072495392552408638 0.03166656297652496 0.11220896265886003 -0.047594189459468472 0.17956336619717192 0.1126940773499451 0.25044570478018963 0.10412497507545156 -0.045703419926492302 0.05269912097476364 0.011676391329530432 -0.081855844717739448 -0.13235342083206461 0.00021722576197412879 -0.05269127374306299 -0.10059771870181596 0.076372194602104648 -0.1697507061788055 0.049389283345610234 -0.081892489594860021 0.18780976759083245 -0.12314977886698678 -0.10006814326828786 0.096740009903624552 -0.077665883421669885 0.10718942259918648 -0.056173500548586788 0.0077262251632995438 0.045808494750927672 0.13852887122817811 0.15037340753048981 -0.077169968468331421 -0.03695693453714563 -0.029188887848679314 0.074427669240092767 -0.12935285916465494 0.054132558787829306 0.055636150339928005 -0.010216746766327904 0.073489290124732515 0.098915874959618427 -0.0025069886570960732 0.098832452770995297 0.022482578556481482 0.10344771344330098;-0.05585488540351452 0.097989950601749282 0.053466535144742658 0.06992301938009074 -0.056712861946338643 -0.20189368512506101 -0.0015709136187734463 0.025760350990529691 0.020956900313670826 -0.0062058616406001172 -0.065868351762246299 0.0059295541477823472 0.1092295423905747 -0.041267024796967866 -0.10448941544399962 -0.34948781307907967 0.071496498769712688 -0.060054671792778624 -0.07329397047074114 -0.049921927754526044 -0.10209568210567642 0.037296818137004105 0.02126669769291507 -0.043550791688753365 -0.050385489190275898 0.023360486562509608 -0.18299104136423211 -0.10888149344272259 0.21724482282221647 -0.025183070976041104 -0.24934156200903526 0.033182902511818428 0.24300267380949234 -0.036054726201122114 0.031687184478606308 -0.21862147537519322 -0.35078855107787588 -0.25958208094399099 -0.1648145253285451 0.03575984275918237 -0.066071786006867167 0.0910666641024451 -0.086486131155785725 -0.0096058287563275096 -0.018755353950627045 -0.048035892407809991 0.058511879757828698 -0.10912428568428448 -0.035385272932532477 0.12244221148255473 0.29737543085452001 -0.056068326736425436 0.16682847860529451 0.26707852509268393 0.077418483252199077 -0.5181413516300164 -0.19572864801762588 -0.22031424288672827 -0.20192525549399781 -0.13772088184409803 0.058441959956900741 0.013783754806323859 -0.021393245754066599 -0.040977174259037137 -0.070063037675093739 0.060288152857440928 -0.15351625663432031 -0.20234367633505884 -0.23563372749512021 -0.024218560361847864 0.0030974391416131531 0.4477259639475244 0.22636677809048378 0.30469309984157189 0.38435392067095958 -0.15726232639919113 -0.15062664120809335 -0.52542909445700836 -0.18277118296802933 0.11863014397108601 -0.037458377403918636 0.016756472176683433 -0.080949627061615875 -0.16892742634031443 0.14154130172455792 -0.071870756053579274 -0.20849842865399151 -0.22008597321162821 -0.038486788393584846 -0.11859837247989921 0.035844036161987822 0.29159111434264462 0.17414414590827043 0.15785508888057226 0.34608436305225099 0.51374478002667257 0.12885313110145169 -0.17955033609958745 -0.11960590913016232 -0.28751933196270207 -0.15139857683449223 -0.20430523993129857 0.016083757900575115 0.089906311856812471 -0.10155436435345208 0.051299534001905893 0.077387710647197197 0.0086920191634696914 -0.17948288199272783 0.042778994429851266 -0.047915277621384811 0.045761092050632418 -0.12842470026348538 0.19030049787083267 0.17954371842461109 0.36986675358184246 0.50723051666217911 0.41360372579439025 0.10077983414421013 -0.13784287453642941 -0.26513308624117032 -0.17237272396678055 -0.075535448674871927 0.1243982097823185 0.074659206241127068 -0.070395864194692223 0.076981448086132137 -0.0052448904938961075 -0.064087951532623449 0.095941236988308864 -0.0027180043086365824 0.074573249630072752 0.34428627151766272 -0.002164189823452184 -0.27965709808913236 0.16193585290160478 0.33132009441252125 0.44309658057518858 0.43528989024865278 0.058475924735243184 0.051905776025671847 -0.1354053916693243 -0.27345147824824462 -0.31423405213530581 -0.10315400243556945 -0.11595546915122522 0.02591214879848899 -0.087884690800770715 0.16998982762065709 -0.032036718697046683 0.0049073203340263515 -0.14941225539566139 0.17612014158651113 0.078826141644100137 0.2082262745990868 0.044862306321230686 0.037405025491114234 0.22403992499737022 0.1408365948316519 0.17844145991916424 0.14002291146112014 -0.16221645143225116 -0.082404874455272017 -0.2867558686442655 0.035589364261041367 -0.069785708590406184 0.077855415344781589 -0.175424053107089 0.031497033606122285 -0.088183090833794719 0.10456961267968959 0.19749953440370349 0.091719763935360382 0.1220179464658428 0.23344503279380238 0.26650714243265894 -0.050454435967361842 -0.014250849147156821 0.024793838874775861 -0.060702915190179937 0.25729208322158631 0.071145402960656703 -0.046151330932575653 -0.19298184539767788 -0.24523187101061722 0.12891874070624065 0.030436937947886617 -0.064293677258552007 -0.17059035101751632 0.038885440918458844 0.15317364847563317 0.019439228300035402 0.21854549798771722 0.12308386532084467 -0.11842829462646021 0.071554248386187236 0.12495112986328333 -0.16406872431007841 -0.30783560114381719 -0.23947512198166443 0.11524521854480808 0.13775079310476807 0.30890859938037435 0.066267286473177922 -0.068135191974557405 -0.099309851566493412 -0.14341888936319569 0.041682846721616228 0.047428694362183145 -0.130307970666726 -0.065593436631235458 0.078710905395429298 -0.028139667848544398 0.21555346268574624 0.072901862654232291 -0.068844307258761075 -0.073061611937158447 0.13382959236761655 -0.13308134784377748 -0.11537851207789493 -0.24366822709814306 0.064879342950538585 0.1041147318746041 -0.14171322521240864 0.12089462598479993 0.098274463132952627 0.073508063147031649 0.074925311444385009 0.084038574264479374 0.07619894974817995 -0.0042875338222739664;0.034726343004140153 0.10738102201683836 -0.13266601591391214 0.10851203055667269 -0.13914098344710168 0.0089978889744618158 0.0043343356000708419 -0.097392202188348556 -0.2265095794775811 -0.50348350846764467 -0.11419211520305833 0.027133904590676335 0.30888777398159867 0.22751830118545224 -0.021006374764227224 0.029149756433408891 -0.058473526089443888 -0.18241783301572756 -0.0027358770701007974 0.047581147947893768 0.097861895628936491 0.10422670406011085 0.13525239305477638 -0.1149639336198728 0.098362260937705934 -0.061742123966240688 -0.10441254518509213 -0.079206380276301114 -0.31870829554669111 -0.70616910233393226 -0.7073947942541251 -0.20070063654623316 -0.040482996590640009 0.44904693023686748 0.44264416744083673 0.078550147464229836 0.23677510124395343 -0.016217766779628481 0.044225866188820344 -0.022157558751390059 0.018221727575021971 -0.11295410333044363 -0.071703218971457067 -0.11350124202735555 -0.063386756617357959 0.14689293058753489 0.080963066779871862 -0.016003158769414157 -0.24153371123005113 -0.44526969016218076 -0.50711322510047707 -0.36972103420769681 -0.43035132799357173 0.043426181026854423 0.56184582356257706 0.16547581264980049 0.15989463022957578 0.025798345201498634 0.057055199750317614 0.031687164526059394 -0.016912588136910829 0.040252950837758622 -0.1046213227247336 -0.10789070856245513 -0.017862252334933781 -0.034112071635001739 0.11114000793157403 0.13921730942592062 -0.13986244121137587 -0.27713314738900885 -0.16556722120470155 0.01615971100327674 0.042394016438482424 0.004412242041307972 -0.0065280033222494911 0.32702862196070498 0.24567572580791236 0.059026582760316276 0.145790602568238 0.1230083875213538 0.18288750334066031 0.057761805454107917 0.12774566450169053 0.15092491895350743 -0.11398651479781834 0.036344931456524954 0.028009404966268494 0.091174043664032561 0.15886004484024593 -0.18782988427719022 -0.09466874595842989 -0.073517202749981719 -0.17681814117381711 0.19633357329465476 -0.13290320485863905 -0.058922861120308978 0.20563060205228442 0.25199189006605499 -0.060079387567018985 -0.028050924104236499 0.05403552607698664 0.11803552552757235 0.0081699763297435075 -0.13495227623454645 -0.029296333133998511 0.10864905932227845 0.0089873180965020089 -0.10213171197244743 0.094461803928754556 -0.064265769741897003 -0.16597105775364193 -0.098797078017642273 -0.26541423684273485 -0.2677270847050745 0.28730566212509689 0.45411761598147232 0.056435399842596073 0.028926669491744307 0.036659687630680046 0.10086694610127442 -0.071793670499420773 0.10679950696908616 0.068644711487773055 0.10490325769592605 -0.096461678780680543 -0.057137378977695663 -0.10553945190381622 -0.014136605997120849 0.024767334860311609 0.19246232041433245 0.097676385816923686 0.12358330591522576 0.063041801749451787 0.040420881211798931 0.025676089670181219 0.43932412982817864 0.3295004250134782 -0.072263865271990177 0.14184624854766079 -0.043041314275984802 -0.27155744204839544 0.14418998939923514 -0.0436020489585877 0.01512953694075176 0.055934444639070977 0.085797182980984474 0.096989713650326326 -0.081826758694976243 0.09506060526287205 0.16239437133802109 0.14966944303659946 0.040586883849098136 0.078530601628633318 0.26409571202859478 0.19504017366883894 -0.077693180854509269 0.21579299775266927 0.17013526258777026 0.00069751067918473529 -0.089748060638780436 0.0045185467711816611 -0.26268484278230342 0.14648468806126116 0.085857455903714547 -0.14836115932272903 0.077275766454319425 0.13520243466545159 0.11586693266571386 0.10169453651733631 -0.13239427874440346 0.078325868854293268 0.07866138943969736 -0.066209203493007587 0.30537239841304864 0.26315928467785676 0.65536879971752093 -0.079557063312317919 -0.27113672746880763 -0.26917883652725677 -0.084285854277675848 -0.002510871702976699 0.022474553201734134 0.025325361830570686 -0.13614325810592207 -0.060288648641122967 0.20087747000107362 0.013337160483903092 0.070257146813955132 0.01024292193696371 -0.12308102024884557 -0.044287206817113012 -0.0052547550883941096 0.0068769626390607248 0.12767540546679729 0.091019356778635083 0.14828077513336585 0.2567523941134745 -0.23953827049986962 -0.32682584404111986 -0.54809270717359315 -0.16465374818134765 0.07705450643834412 0.28164901459747932 0.14755095723851036 0.089566316065773491 -0.087190953221473064 -0.038132246573032533 -0.080121160946088468 -0.017716164755089164 -0.095056847676162515 -0.026944899364939177 0.070732997426821861 0.0285478403029811 -0.086949502101886164 -0.0066151720446118749 0.062567707141903905 -0.0068775907491312018 0.075213133333689758 -0.19346677173993329 -0.38744953639409541 -0.20248633660439788 -0.1497338510510518 0.21454820498311283 0.20963797891273056 0.1333528556173684 -0.10506009848154962 0.082039193354932677 -0.15118544885181007 0.06158397983972002 0.063977219593623916 0.0033149043875826704;0.0076045951279990901 0.058041451949235212 -0.011166006817129615 0.30638115612410455 0.1377375622528163 -0.099526996140310797 0.080998917847505209 0.059910467648882491 0.34106396567433883 0.072953666537310086 0.08592985860169669 -0.10735009502332354 -0.13035871206707011 -0.17042290032659321 -0.19315523091309203 0.015501915573816753 0.16241530222190026 0.087479409051744478 -0.048207922957649856 -0.14634029079426905 -0.062920498187961707 -0.079249908797995414 0.0062479705411652726 0.20690732605596038 0.18810284443898248 -0.00076538823333513072 -0.0089126535703904046 -0.20071581209360309 -0.05161674140798931 0.19571809339841931 -0.067763830292509472 -0.19416659475912079 0.0083877663345050917 -0.31643220436115543 -0.29287001196566459 -0.17588767928076202 -0.2424353967129517 -0.22624438391430807 0.094010666028455869 -0.041728365228979304 -0.068783597907449215 0.069870565748066174 0.071149100325058084 0.054507039013039819 0.068613425485304053 0.25759740004432691 -0.056955115669768949 -0.33870740658799808 -0.067893053642058152 0.31718738601452989 0.12335218883809658 0.094828526125675688 -0.051482918802858893 -0.16183602170579106 -0.30675250017652239 -0.46039887302435284 -0.29439683539715794 -0.26991234769410127 -0.070905739736295367 0.018818201342062888 0.010684321851526095 -0.0041895137405314805 -0.18194925785773688 0.042724435703439971 -0.040837730852122278 0.087884781841393908 0.055040204597167346 0.14008751898916208 0.025942415966798391 -0.11014451692631792 0.37539838520710483 0.12384505903878824 -0.025654476499520185 -0.048387505958921447 -0.17777242956936029 -0.32802625505393768 -0.29270154050601427 -0.17719970356596443 0.03976603906451491 0.039395339846837206 0.035011055055509777 -0.032022838040892322 -0.10097812250918704 0.056697133394026968 0.064503439258822376 0.1451073334962269 0.054951018950549706 0.18409801399588807 0.0027412255390522472 0.15746702704341753 0.030176047776009025 0.28645193568091898 0.17215527831136762 0.041406111208454548 -0.050117011238702013 -0.15040515517684586 -0.18682999877013776 -0.30212315659893502 -0.11258638509660371 -0.22281549683218266 -0.031471574110662197 -0.041333844220516246 -0.080083633947866953 0.025114134023800139 -0.19533450223013066 0.12093525268734538 -0.10889985056030008 0.16889642674914168 -0.20174806311357463 0.091753437919695022 0.038517959631518495 0.024414406294867071 0.22227941638311285 0.1577849230777979 0.037106347551413267 0.068106780000832159 0.0091348475061773411 -0.048247463291387224 0.074711078873176059 -0.15833815708275412 -0.047754400003972408 -0.17587229136424354 0.17276733519960075 -0.030016958663838786 0.037687800720247987 0.041895883799117219 0.10772074627275098 0.12733809096197529 -0.0091724428767749368 -0.11970842535701395 0.049135592567677078 0.032811214418569601 -0.030331128859569872 0.017602620836579937 -0.0080705365654164148 -0.12693619597492248 -0.10577617832822528 -0.097406849857268579 0.021778411121767129 0.14654841844160887 0.018433314425302182 -0.38167329782265058 -0.20964866026086723 0.045580903584334365 0.0082443019126244264 -0.14257982855426313 -0.17683683670310943 -0.096257679416259997 0.053601425020154699 -0.10536900384313748 0.10012806000230361 -0.023751627977174259 -0.083776159418921081 -0.058949405672683787 -0.063882998623104328 -0.19011168608547724 -0.089414763780555309 -0.052701993959471137 -0.27838561646933269 -0.22832437997445357 0.1549059203939426 -0.066109476043209256 -0.13370754845157021 -0.012156452741629409 0.0085520463846171686 -0.15708598289679213 -0.14790093211015753 0.012493275051101354 -0.032946605292113434 0.17386892136112092 -0.022004695966610279 0.21829470055880426 0.19162597219571481 -0.20878860291608634 0.19074693013152522 -0.31471360464439091 -0.2877290764303107 -0.017965531335018121 -0.24506891419796237 -0.20588942957426687 -0.24230957647555598 0.079540231341201723 0.0078373355946800612 -0.026894312295086896 -0.088881703963150233 0.053189376947109686 -0.032520088473554677 0.018294808639612161 0.013461800485066759 -0.010224733477718429 0.20700298763874064 0.0405916629295359 0.29930025247098957 0.4529832881904956 0.058932874951855355 0.13732627624864902 -0.12629754291929177 -0.075747722169990261 -0.10394139880527571 0.056520195584228418 -0.082416755095300664 -0.21622009231551334 -0.16829208668854501 0.11781246663330475 -0.038219852605223946 0.051993245244296965 -0.037214902462300727 -0.10965414287908627 0.061992493637259241 -0.043980164148409093 0.065018605081911873 -0.073097587157253396 0.035881197107485871 0.36632827634235138 0.12403385514684198 -0.11783065312886461 0.14095005748709383 0.24354021146560154 0.057624450392234162 -0.035049474116075709 -0.00086194464765383867 -0.03142594054633556 -0.051694302273966729 -0.047480498029594614 -0.012852507130449976 -0.062101268265362303 0.014364168133401181 0.055870182319847542 0.1014097247268131 -0.12678562605004512 -0.010853888327214163];

% Layer 2
b2 = [1.1875629919544042;-0.3610626101475683;0.50138416062301194;0.15543376009033646;-0.22270424138845304;0.55495535298488585;-0.37969577737156307;0.21622134648983862;0.1491566103390338;0.24662106912154241];
LW2_1 = [1.6557514631971091 -0.63336131571276677 -2.7720338991973739 0.85426255603308221 -0.10914721026227983 1.8760445676352713 -0.027386806483810155 -0.3224639632896994 1.4772105833591231 0.80002372239771813 -0.38450092739483566 -1.3434150605616619 0.16612982617821867 1.4141329102917368 1.0527609715419375 -0.24158706896843682;-1.7022437144998201 -1.0288968525575268 -0.9487772170156682 1.6416655956631163 -1.5573159214116712 1.2337382391149407 -1.0758065453896843 -0.93725075464135965 -0.85565917198817842 -1.3862131572591747 1.1570758832203138 0.99299648812025443 0.69969355310802939 -1.0651314980141631 0.82851776868915283 -1.7323395510154673;0.79361971189443292 1.4880934347189803 1.0304526850991833 -1.0641116123228829 0.34586795566219847 0.66816982793738477 0.29260772302344329 1.1504357095089914 -1.18244738786019 -0.88827025134340321 -2.1014212119691504 1.0215271810591497 0.25694370572263248 1.6254041314694283 -0.72314130395722065 0.70004504077598018;-1.9502834550340724 -0.060881392345561801 0.92840936853003098 0.71308453863376486 -1.9707697245068532 1.1831968119641971 0.44146230136092429 -1.5534437211045244 -0.85744871776086207 0.17830573713091291 0.83714658710905698 -1.2992836093829072 0.23560238205124803 1.4885018112244139 -2.053689480086454 1.065647652558251;-1.3926423314706424 -1.2205991438660706 -1.8442499475806697 -1.4787235878181531 0.7835199486902652 0.31432617392952422 1.4910384563430239 0.48250250776380826 -1.6743776139637074 0.67298616398607181 0.74206163278790938 0.78809348072953134 0.59043117236405229 -1.3853523339215379 -0.99893415365767435 0.32270391083052796;0.60373564428286952 1.4865376594562574 0.34071324708238121 1.4230857147992457 -2.3546377076742422 -2.1110084120606212 1.0349976335664011 1.1769737777116711 -1.2033124200517937 0.80192982907377885 0.26591752759932319 -1.0731119748139168 0.24402844345857061 0.84342973289689194 1.0828567555178865 -0.75443336025059438;-0.36688580965151085 -0.8950214184057278 1.6984873676955619 -2.2365930307640274 0.9910069430763212 -1.1685781839863774 1.0312501980526778 1.6368234515041935 1.5146457036596075 -0.12911404577451099 0.46742208739846725 -1.4748055587277245 1.1136586797453658 0.62243488702424876 1.7354503189767869 0.657501314192947;-1.948949625395026 -0.40850900189151862 0.65080544534539386 0.2247854386703016 0.14055903551366386 0.53017721632940795 1.1753150182299936 1.1955873548799905 -0.10687132686465059 -1.5304893612947548 -1.5998433355007551 -1.6426597599969923 -0.60607523193264601 -0.57554552695831873 -1.5830914649408334 -2.2756155473312893;0.89741956528825928 -1.2363355081847798 0.79763160865715776 0.91753224749716356 0.04567412899664746 -1.0572258617286414 -1.5848632644594376 0.53094133383935893 1.242356086869326 0.66266558231679229 0.83484180915999484 0.94680724173830177 0.42121979788429004 -1.0109680052331429 -2.5154128079989939 0.12259777201530568;1.1238160439816198 2.1767235520612425 0.45993759737838802 -1.6121569005085095 0.38406565161902662 -0.3298549306019995 -1.335104082174581 -2.0581568129614718 -1.1650994711848317 0.1983846476593232 0.90446260517306731 1.0110709789177657 0.5865707049528307 -1.5721427443833049 1.8107411232041222 0.011010234000168666];

% ===== SIMULATION ========

% Format Input Arguments
isCellX = iscell(X);
if ~isCellX
    X = {X};
end

% Dimensions
TS = size(X,2); % timesteps
if ~isempty(X)
    Q = size(X{1},2); % samples/series
else
    Q = 0;
end

% Allocate Outputs
Y = cell(1,TS);

% Time loop
for ts=1:TS
    
    % Input 1
    Xp1 = mapminmax_apply(X{1,ts},x1_step1);
    
    % Layer 1
    a1 = tansig_apply(repmat(b1,1,Q) + IW1_1*Xp1);
    
    % Layer 2
    a2 = softmax_apply(repmat(b2,1,Q) + LW2_1*a1);
    
    % Output 1
    Y{1,ts} = a2;
end

% Final Delay States
Xf = cell(1,0);
Af = cell(2,0);

% Format Output Arguments
if ~isCellX
    Y = cell2mat(Y);
end
end

% ===== MODULE FUNCTIONS ========

% Map Minimum and Maximum Input Processing Function
function y = mapminmax_apply(x,settings)
y = bsxfun(@minus,x,settings.xoffset);
y = bsxfun(@times,y,settings.gain);
y = bsxfun(@plus,y,settings.ymin);
end

% Competitive Soft Transfer Function
function a = softmax_apply(n,~)
if isa(n,'gpuArray')
    a = iSoftmaxApplyGPU(n);
else
    a = iSoftmaxApplyCPU(n);
end
end
function a = iSoftmaxApplyCPU(n)
nmax = max(n,[],1);
n = bsxfun(@minus,n,nmax);
numerator = exp(n);
denominator = sum(numerator,1);
denominator(denominator == 0) = 1;
a = bsxfun(@rdivide,numerator,denominator);
end
function a = iSoftmaxApplyGPU(n)
nmax = max(n,[],1);
numerator = arrayfun(@iSoftmaxApplyGPUHelper1,n,nmax);
denominator = sum(numerator,1);
a = arrayfun(@iSoftmaxApplyGPUHelper2,numerator,denominator);
end
function numerator = iSoftmaxApplyGPUHelper1(n,nmax)
numerator = exp(n - nmax);
end
function a = iSoftmaxApplyGPUHelper2(numerator,denominator)
if (denominator == 0)
    a = numerator;
else
    a = numerator ./ denominator;
end
end

% Sigmoid Symmetric Transfer Function
function a = tansig_apply(n,~)
a = 2 ./ (1 + exp(-2*n)) - 1;
end
