function [Y,Xf,Af] = NN_BoldLetters_14Neurons(X,~,~)
%MYNEURALNETWORKFUNCTION neural network simulation function.
%
% Generated by Neural Network Toolbox function genFunction, 16-Feb-2018 09:56:34.
%
% [Y] = myNeuralNetworkFunction(X,~,~) takes these arguments:
%
%   X = 1xTS cell, 1 inputs over TS timesteps
%   Each X{1,ts} = 231xQ matrix, input #1 at timestep ts.
%
% and returns:
%   Y = 1xTS cell of 1 outputs over TS timesteps.
%   Each Y{1,ts} = 10xQ matrix, output #1 at timestep ts.
%
% where Q is number of samples (or series) and TS is the number of timesteps.

%#ok<*RPMT0>

% ===== NEURAL NETWORK CONSTANTS =====

% Input 1
x1_step1.xoffset = [0.925490196078431;0.792712063987456;0.813037037037037;0.447058823529412;0.280885210062495;0.0698147771219214;0.0517071111412654;0.0533572155505801;0.0550420577304355;0.0659008676904057;0.050091382650715;0.0698147771219214;0.037037037037037;0.0759715041726033;0.0550420577304355;0.224581797347928;0.129463871361693;0.505882352941176;0.931059637695909;0.976470588235294;0.996078431372549;0.929411764705882;0.802831671076735;0.447058823529412;0.0893498880521067;0.0517071111412654;0.0847292821011526;0.0469616060188012;0.0621360411907939;0.0603086294110108;0.0678390061137873;0.0698147771219214;0.0603086294110108;0.0550420577304355;0.050091382650715;0.0893498880521067;0.0698147771219214;0.0533572155505801;0.376470588235294;0.897810706289436;0.964705882352941;0.988281369910517;0.937254901960784;0.823328523720138;0.388235294117647;0.0585174028088744;0.0454468341738849;0.0383596655886499;0.032050478322817;0.0297345063361754;0.0425157141672509;0.0485096682271524;0.0297345063361754;0.0454468341738849;0.0308780182584376;0.0308780182584376;0.028619580704254;0.0485096682271524;0.0425157141672509;0.349019607843137;0.964705882352941;1;0.996078431372549;0.941176470588235;0.833706492977814;0.376470588235294;0.0533572155505801;0.0357451658864238;0.0332522483810902;0.0397134133930389;0.0357451658864238;0.0410986423019804;0.0439649908406269;0.0383596655886499;0.032050478322817;0.0533572155505801;0.0439649908406269;0.037037037037037;0.017338489721148;0.0567619995326081;0.384313725490196;0.996078431372549;1;0.996078431372549;0.945098039215686;0.844171306661842;0.349019607843137;0.0425157141672509;0.0254427030327702;0.0469616060188012;0.0469616060188012;0.0425157141672509;0.0383596655886499;0.0454468341738849;0.0397134133930389;0.0264740409043279;0.0297345063361754;0.037037037037037;0.0485096682271524;0.022510075310401;0.0383596655886499;0.337254901960784;0.996078431372549;1;0.996078431372549;0.956862745098039;0.876090432789802;0.286274509803922;0.0234610820875832;0.0383596655886499;0.0397134133930389;0.0344836902850337;0.0410986423019804;0.0332522483810902;0.0485096682271524;0.027532879510897;0.0485096682271524;0.0357451658864238;0.0454468341738849;0.0718285425665845;0.0332522483810902;0.0215851218611243;0.27843137254902;0.996078431372549;1;0.996078431372549;0.909803921568627;0.753083987305033;0.329411764705882;0.0357451658864238;0.032050478322817;0.0439649908406269;0.0439649908406269;0.0297345063361754;0.037037037037037;0.0383596655886499;0.0254427030327702;0.0332522483810902;0.0469616060188012;0.027532879510897;0.050091382650715;0.0332522483810902;0.0410986423019804;0.345098039215686;0.996078431372549;1;0.996078431372549;0.937254901960784;0.823328523720138;0.333333333333333;0.037037037037037;0.028619580704254;0.032050478322817;0.0357451658864238;0.0357451658864238;0.0397134133930389;0.037037037037037;0.0264740409043279;0.037037037037037;0.0254427030327702;0.027532879510897;0.032050478322817;0.028619580704254;0.0454468341738849;0.356862745098039;0.992156862745098;1;0.992156862745098;0.92156862745098;0.782677853917422;0.313725490196078;0.0308780182584376;0.0383596655886499;0.022510075310401;0.0254427030327702;0.0425157141672509;0.0357451658864238;0.0332522483810902;0.032050478322817;0.0297345063361754;0.0357451658864238;0.0383596655886499;0.0264740409043279;0.037037037037037;0.0425157141672509;0.349019607843137;0.996078431372549;1;0.992156862745098;0.933333333333333;0.813037037037037;0.384313725490196;0.0567619995326081;0.0517071111412654;0.0585174028088744;0.050091382650715;0.032050478322817;0.0567619995326081;0.0485096682271524;0.0383596655886499;0.037037037037037;0.0383596655886499;0.0454468341738849;0.0410986423019804;0.050091382650715;0.0397134133930389;0.341176470588235;0.996078431372549;1;0.996078431372549;0.905882352941176;0.743387746794219;0.635294117647059;0.256403826582536;0.11222633828618;0.0585174028088744;0.0383596655886499;0.0847292821011526;0.0759715041726033;0.0802707857460555;0.0533572155505801;0.0621360411907939;0.0965910848768573;0.0517071111412654;0.0469616060188012;0.141884312971632;0.341176470588235;0.792156862745098;0.976470588235294;1;0.996078431372549];
x1_step1.gain = [11.4658091810272;6.61832011489144;6.98918378581417;3.0972773870678;2.45721608080358;1.95009730382055;1.92102854386143;1.9209912804011;1.91846894068905;1.93675391371221;1.9147544600369;1.94562839534262;1.89005641021026;1.95899335365814;1.91806798316005;2.29658439178051;2.0747857983709;3.36635678246939;11.8980527796645;16.2262714172668;19.2559898642231;11.774310826914;6.83996465209847;3.09139907684795;1.98666618403555;1.91770359580441;1.98011045845918;1.91130975298899;1.94881372436496;1.93337406005555;1.94607606180015;1.95723888954524;1.93188526052188;1.91812475042284;1.91254227602225;1.99586879847486;1.95206504591047;1.91865659869784;2.76571763930541;9.90688299601135;14.7971514394345;18.0007866643175;12.3649261515493;7.28071494191975;2.81223163687817;1.93488757909244;1.90495784158466;1.89804430207856;1.88608847642132;1.86885622909031;1.89129113600942;1.92356245790188;1.87228071412078;1.90824493313048;1.88321100144291;1.87789740250314;1.87930745399225;1.92428267304733;1.90236693827957;2.66371314632725;14.8070978994639;20.0526930557879;19.262725197147;12.6150570480797;7.63613535769196;2.78554985180045;1.93262225083614;1.89083664024849;1.89562130445577;1.90650945642801;1.88765104816285;1.89725515655143;1.9023492097379;1.8870709072755;1.88138272835523;1.92017405977728;1.91636436744339;1.89591273461549;1.86087675412829;1.92522450761054;2.79591812672635;19.3377591169545;20.0858755147341;19.2964660083067;12.918841127117;7.96768056740484;2.68332739975508;1.90355880749806;1.87570961229534;1.92115538486949;1.92043392590972;1.91000415715587;1.89378229735168;1.90423821553524;1.89338270475502;1.87122883548603;1.88443436785642;1.88905141769352;1.9198705457331;1.86543651927284;1.9094670301793;2.6238846461553;19.2878199416954;20.1102276593861;19.2874281655171;13.995852760989;8.96156078616941;2.4609219565594;1.93633407547177;1.99906273695847;1.89139022964503;1.88714676284985;1.89027110974662;1.87699096809006;1.91796344497488;1.87073918088074;1.91493216444786;1.88706109283048;1.90159722379767;1.94921404655893;1.97044915809625;1.87890425778921;2.43608695442375;19.4137022992342;20.0242237820045;19.300790524588;10.5239956531796;5.79461170561227;2.60807830535741;1.92379932538325;2.06622344989082;1.91383319926834;1.90110134864995;1.87820885378247;1.90565604446698;1.91696838732408;1.87601392051316;1.87584361484344;1.91538881620414;1.86690221006498;1.91748458957036;1.88219626071106;1.8968047458811;2.65034474859076;19.2651606306886;20.1280345085324;19.379643980711;12.2969229537555;7.34367560908096;2.6298925631321;2.07692307692308;2.06727138691062;1.89324808709658;1.89382481531777;1.99566379787162;1.97191828336767;1.90807509084587;1.97110808257507;1.88903977551462;1.8757607478967;1.87338041839906;1.88296706709671;1.88682910062972;1.93367715973956;2.69261359547199;18.6438335443299;20.2301793086386;18.5675024177777;11.2233248551562;6.40521105250049;2.55775482400351;1.90100071458344;1.90039802665753;1.86642940791435;1.87989108615915;1.90030966557983;1.90539647912952;1.8942898312207;1.88492817826782;1.88832608427675;1.88736730650697;1.90781847421495;1.87920530966663;1.88166391807138;1.89850925085937;2.66475164569858;19.2660529557215;20.0224757299101;18.5626482280805;12.0524162414967;7.06961088522471;2.81026066414853;1.92035188194307;1.92236804384322;1.92794633108011;1.92246191956997;1.87285755554408;1.92469361635728;1.91818100291956;1.88643500007276;1.89029078462741;1.88567740485084;1.90449875318691;1.89794813110691;1.91352570390719;1.89406806754251;2.64150108384346;19.3693172143292;20.0281500131557;19.2619969341417;10.3081873116775;5.70987866835983;4.37163286048441;2.37104942512915;2.02582899391279;1.92868347197384;1.89836424960832;1.98112582818433;1.96852701985294;1.97086185815737;1.91134026760486;1.9281806884652;2.01132282840782;1.91798726400327;1.90068795377919;2.09800881538317;2.65295746241056;6.51049599189485;16.1957037142313;20.0552748171267;19.2640757444584];
x1_step1.ymin = -1;

% Layer 1
b1 = [1.4537938061422391;1.2748513387729994;0.8703800245254264;-0.67471432592451552;0.54074668078313626;-0.35834815794196934;0.066369181765358956;0.09796734235252498;0.27874598034148035;0.54195667769783795;-0.77243015465931963;-1.028108365691718;-1.2378674670268486;1.4167019346070209];
IW1_1 = [-0.10313426493760763 0.14021489633005027 0.11830856890448206 -0.14811881369871399 -0.1379538578488303 -0.093161826606738649 -0.14851358023954273 0.062442332864205537 -0.045066862359970629 -0.047089911460446304 -0.027778620830318797 0.09459213259325952 0.047869272835983211 0.040787461180221772 -0.021254510683564105 -0.01390052730194585 -0.01668372289377202 0.04405596392978782 0.16456206495297596 -0.11114881273941137 0.13910731720524666 -0.12671816081859466 0.11920082964317778 -0.10348931613737529 0.059313460781434554 -0.071830082316203053 -0.15249104466984026 0.11519074850426571 -0.078450660164419359 -0.052816425670889497 0.16906297671308829 0.1213643245418112 0.136525904404078 0.040484183163293434 -0.059945741389928649 -0.18336512009239131 0.038838629739837323 0.061749220060561306 -0.084765071983145091 -0.099534931250262318 -0.14221094814759735 -0.087506054894277902 -0.085887050912076199 0.13772148549770238 0.013715922904529816 -0.12661762731894466 0.01259812153377679 0.0029752132717773745 0.11442980616061169 0.12367482027360914 -0.071404642680572714 -0.15380701816489142 -0.0031420127381276341 0.06051989540713975 -0.016082099098864037 0.052050337357085093 -0.10263633414064231 -0.14983084109985592 -0.042659122075335468 -0.07772209172421643 0.1485014571977088 0.058033751959511992 -0.056240817031573458 -0.049237528813284595 -0.099963757816233414 -0.11990246957393964 -0.064420546775675075 -0.00082189565870215532 0.16352934746928913 0.018767092362969182 0.084035973157253988 -0.048630843117051015 -0.026285623406129548 0.11415770685837985 0.077986544267816829 0.084617407826500346 -0.078292804248238854 0.0087710862543532789 -0.22804418591662151 -0.25980655378145578 -0.10104186561226444 -0.022385523009984309 -0.07412135239780844 0.0092697510736379513 -0.047874964621910716 0.11230399096099465 0.068478547372528439 0.0090082537474784116 -0.1680648104340742 0.15927629336883437 0.073085504533548909 -0.08646458081301904 -0.031274481012004952 0.032290067880597371 -0.13657201687600967 -0.19226680073402308 -0.056550917032532316 -0.03541868919866431 -0.14885208701870678 0.01862983822229184 -0.17129230211571395 -0.079652619843874825 0.085543681270954144 0.1409983858626716 0.12811591946201573 0.073938361391915494 -0.0011031924357852146 -0.099261501180589407 0.054650862955263252 0.10049535172850117 0.27949376507674328 0.0011543321242648051 0.050842219918391454 -0.063808816108873762 -0.0076681875678718155 -0.17636184358249127 -0.37874467182911303 -0.077270398359628026 0.015045602156727601 0.12873985250246067 -0.054359677113044333 -0.023923544746103743 0.078626189580429814 0.14691942503815356 -0.041767236857556275 0.14545724538180219 -0.13947117076086885 -0.11006218484440455 -0.049285237706177251 -0.04397573556512973 0.0036914890084199718 0.20724544753676238 0.10544016716325882 -0.10961133343784965 0.13278037831255732 0.15665202313177401 -0.19404922305614059 -0.24147049914314139 -0.023562057875715605 0.23346099363088357 0.023789911812678029 -0.042179633249252321 -0.029802904246548086 -0.022396841549029208 0.094796877579844466 -0.039646730216295931 -0.11655977584533198 0.13224586487016407 0.11608146003328708 -0.028764558051830952 -0.27666941336337281 -0.075981088441129913 0.15087672569458663 0.015009551411624843 -0.11938637204347734 0.012739699601455358 0.11091799677170286 -0.11091284644510832 -0.10175311370556109 0.17283098584271131 0.14924343782030178 0.29806717413524214 -0.088047922407437876 -0.10844254104259766 0.12116347935132461 -0.080202452774615574 0.14380395938133458 -0.094823170828335038 -0.11135061163068559 -0.12719909683544367 -0.025546331976034557 -0.28218768435418473 -0.060606428347276885 0.018631466359281406 -0.16210155773105112 -0.13606907454950357 -0.11372903951782624 -0.0086246937553756016 0.097593671574978197 0.14353537271680422 0.19669231166931406 0.092704640798441443 0.2384944188540925 -0.020090068259247421 -0.15984737731376258 -0.056320391038779324 0.13096526037284886 0.0068862665556466843 -0.10454955355336111 0.055366339585360809 0.1201953697866473 -0.1375152309832135 -0.29621294431948747 -0.18326083976327492 0.030316847962087039 -0.17957678355505302 -0.0020603616221191697 -0.17253751864975497 -0.12671422770254609 0.21208996567317021 0.064757674057756634 0.068430612876689403 0.15891917963875862 -0.0012205669621325411 -0.17706750109951219 -0.098412241079071816 -0.02947667325965873 -0.014754663021335164 -0.02640775122233574 0.0014270282814394077 -0.10043148240905987 -0.14341081420769078 0.13828480270914817 -0.10119197285031299 -0.087251119893811319 0.087304253880102364 -0.02727059126838393 0.095935957016901524 -0.0081385069330421264 -0.044118385646971368 -0.073445813643625554 0.12770278286950815 -0.024508412399854445 0.093299616249826189 0.029846465474323285 0.037497442854442981 -0.15088856504264608 -0.088962475215567022 0.12372321253350037 -0.09474105545568319 0.0026773180383545744;-0.1006114047480654 -0.10645244067862407 -0.040670119488669235 -0.10081465546887286 -0.14198957456692088 -0.044211616036690195 -0.097337618329454714 0.18561161228730866 -0.092971692630247599 -0.016276174830709873 -0.030077666651614106 -0.0067742569673666314 0.24344518456927217 0.12004510867987127 -0.18507681831672915 -0.086337313143698566 -0.026514287511560364 -0.024137853892391849 -0.11584427314607763 0.083790198334656091 -0.10154465526343105 0.10201226815450207 -0.098327532666147549 0.035898175828008423 -0.18261855875121752 -0.19217934338240161 -0.097182822564017016 -0.031605484763027977 -0.038734819728322316 -0.023171467769633379 -0.3683582496780653 0.054781703219677111 0.40745422653113095 0.19072844188547225 0.069405802303857581 -0.27155044363243136 -0.15552346045227486 -0.0076835653281652674 0.035686461940658137 -0.015724864579184011 -0.096616955511688002 -0.062958135938736878 -0.033843338417280731 -0.10928996192838107 -0.0012822427576742149 -0.10845191819495556 -0.053808396703523532 0.12200814304862401 0.24046454802898426 0.24142223882686031 -0.11970020371170609 -0.1613453409379792 0.18468318462208644 0.47640850050500971 0.58721436304968144 0.3573508968509887 -0.11212454296257389 -0.24356530160103906 -0.15559113540226238 0.038127145311232034 0.10350626394943656 -0.14550970496010016 0.090434497439904338 -0.084324798703743972 -0.001287144409512277 0.0055374304464918828 -0.13960229128006665 -0.21215085657473637 0.040019726408308066 0.23948912657739949 0.23914017066932763 0.021848248167761299 -0.067568086824742968 0.09553493454593838 0.13336523716262852 0.059391087272815259 0.040469752924708891 -0.071267897995222082 -0.39253014474709902 -0.18621037195140386 -0.23072452408231978 0.027426302774295343 0.098953711870545663 0.074416310225142224 -0.13925920748738566 -0.010426489349711146 -0.21754754078676847 -0.26478200804162905 -0.14350453374296643 0.018822055118255 0.24614486777069763 0.093227173800875515 0.022539510106651506 0.30155255871348896 0.14822854209575481 -0.19371448701683408 -0.13068548870988692 -0.13291053176640638 -0.13175419256609061 -0.16012090928036524 -0.19460671533206689 -0.24865434896257349 -0.038387233206191196 0.054844466132474998 0.05524820840470257 -0.011512521661247607 0.091287426849750539 0.0047859662610325896 0.012467226833125029 0.0157428419348076 0.18628556541020966 0.15547019860584105 -0.13343058703728303 -0.13141671848587974 0.12344722515444975 0.3231530428058017 -0.39540819198536326 -0.35177721892760755 0.02994464135355443 0.072122477795983908 -0.056124571975511961 -0.079795202017973993 -0.25453688507410893 -0.0042978925620044683 0.023034748803114895 -0.11144747105690021 0.04461523736793134 0.023933731045096177 -0.17880924867639639 0.083906257637484577 0.16689948213951236 0.17553445566803644 0.097013984457179042 -0.18691020437362177 -0.16638180686251322 0.32245282709656564 0.16801001210597283 -0.10319845530280905 -0.15630854986457909 0.13895666342713794 0.20394501615546282 0.066228124869138372 0.10803542960809728 -0.026643779441639454 0.0038884849892997543 -0.11633961165992021 0.1269884831492136 -0.11243996000907998 -0.0092126491449987975 0.01146246626485628 -0.16465650325123013 0.085238562859277112 0.14541526873109298 0.15446294608089547 0.15001959189277692 -0.19604052114531625 0.10375984887937474 0.013170698383140136 0.037057611732938936 -0.074457307761503902 0.089248771620636866 -0.021369041821744175 -0.13274548969198605 0.090262628213200663 -0.17111899246004639 0.070738214925654047 0.039384687082592316 0.0022865458217676887 -0.041060477217679248 0.19710875139644013 -0.19317113938473596 -0.30607220310791183 -0.18259126138425119 0.16607462625391961 0.24494444548523861 0.15744340904340917 0.085639731278115333 -0.15265634393199665 -0.21786507793453078 -0.068919277468155279 -0.17354631196372156 0.20857725216378981 0.21429252816993707 -0.23167100686671441 0.06999499489739433 0.079960683286789513 0.087704273945596822 -0.16199004646106235 0.063465096989969091 -0.10500959675524617 -0.0098788191368540893 0.0021268632993568133 -0.16515236048309362 -0.21301846542479802 -0.0037361943831140613 0.17628084562482058 0.31447682995842718 -0.030179872067916329 -0.28948636995532834 -0.3798919603091595 -0.11412119379485459 -0.18158082958331898 0.05839694487672023 0.11255901736263119 -0.08384375749858515 0.14548521399661857 0.03160618410927124 -0.066731525237896841 0.068473092231258498 -0.12524198559856578 0.1040802607941408 0.014771442648117552 -0.071116509713458884 0.058734640313515024 -0.16803270655273628 -0.0054134376977227547 0.12269362748067252 -0.057527140196576863 0.070096116423788851 -0.0012004546967086284 -0.032495877224676784 -0.0022970667717378324 -0.086920363829250363 -0.048271178140069489 -0.054200918320211677 -0.041933372697743214 -0.028126062043655201 0.0012301795053264247 0.12007870211975481 0.056830977632616339 0.070129876291339127;-0.078564367924757947 -0.050773786761966352 0.034027913291739646 -0.014288403462768674 -0.1604138966607421 -0.022570222037915245 -0.25588448750772985 -0.16101708076155546 -0.10257482423844023 -0.11278117511643664 -0.17822204846921266 -0.057827293054736127 0.065007104228572865 -0.20167245085923632 -0.13718049024399495 -0.19779033250840897 -0.19357506824643333 -0.18696924117978167 -0.14531961709485386 -0.029043186066782755 0.047686158867498371 0.08461607764019724 -0.025921896994098699 0.0086982459555936427 -0.038542701317112842 -0.17932179653908328 -0.20138060488963241 -0.11179556014352085 -0.19168398499890776 -0.12933890536301856 0.10616799243705186 0.058545245240770184 0.093198413250424883 -0.12176393879980826 -0.1940970898822906 -0.015421962652166527 0.019017655351952101 -0.18615708811179216 -0.2336050334238518 -0.034670418488530419 0.028403212500680005 0.11400867518153079 0.030666136216527709 -0.074140227062524475 0.037178828723445613 -0.15914306426293723 0.11393945725571747 0.15916315517987373 0.097279692737863507 -0.0034730345974807613 -0.054453188541042336 -0.028016192133018931 0.13745452687549728 0.018548505678904453 -0.048024771907553457 0.011730135654580705 0.098184022636991025 -0.042799467982482797 -0.10299392179016414 -0.14264398950309187 -0.10908430455895447 0.078021012229855774 0.14923594764760167 0.12518808384799598 0.12056588326534688 -0.021638408227550979 -0.17129138718788112 0.011034401816034925 0.13508269412993934 -0.079520344796854325 -0.032360322878426988 0.10574840010177151 0.15201723105250872 0.18159227643869874 0.027270062389266967 0.16710223686906328 -0.036497138454506826 0.19476329538585296 -0.11863368410356358 0.043944922526007013 -0.19798616756819687 0.096632348903522805 0.2249720898527249 -0.058659616885171184 0.17610849271934101 0.019420414731821847 -0.0052259718634878492 0.085828404799410576 0.0016975357643489661 -0.097914640938447095 -0.22348022251665844 -0.0051470881058173065 0.10121179693518625 -0.071210876319306338 0.092034193928642774 0.17553094291921617 0.18501064098200565 0.2065784102475513 -0.0758784479571252 0.17835247115264269 -0.038609560000624217 -0.03868111603977846 0.090958421276451207 0.095193302225724918 -0.027490504717188828 0.1161151836211437 -0.16889311220407821 -0.031621425829033573 0.16751685859676407 0.00024307969593765402 -0.20989328047282177 0.027421614323318893 0.016996943301943127 0.065796494459144192 -0.10659364184791188 0.067139317823668873 -0.068340252327822218 0.0040432259074874143 -0.038533140624519902 -0.17738635605986378 0.13998987968411575 -0.062840867369799713 -0.068285104555820111 0.15376111908201573 0.017010374108658327 0.10521284644547665 0.07949156094992034 -0.11975201989740963 -0.21216998310841612 -0.054468419287446279 -0.088054561947461071 0.012276180591235562 -0.14108587972316097 0.11298687435774595 0.086989807165417959 0.13981744872816715 -0.084332827077500866 0.028468950254272769 -0.099475009474691775 -0.16148954431421444 0.060723816096135315 0.0077661005973072251 -0.12558182390644568 -0.034191914896135107 0.023335816613847822 -0.0029856219453527292 -0.026041059626295278 -0.073933322656617659 -0.10362434152311435 0.056003295975551225 -0.093334222652143042 0.029419667993699921 0.14124144428520105 0.1397287355909618 0.038744034023921611 0.066861066850111464 -0.097159946476035486 -0.089078353007423436 0.096500316025338206 -0.14889972708873983 0.09357418288503809 -0.17542658212041856 -0.0056483924649038822 -0.033384665853244101 0.033391403997388949 0.08502536599083417 0.030917175268449844 0.0018946825477957347 -0.11798632715968201 -0.042365606394909348 -0.01754092431528264 -0.04134952877246547 0.09404453882805465 0.20399433465036673 -0.099345614828725545 0.067026239233310692 0.052060145541572844 -0.053083095180921386 -0.044095786667609473 0.049229480154777322 -0.13667164125752848 -0.030844559359857998 0.09913106363067882 -0.12095940948550332 -0.10818768047916104 -0.040054205212223554 0.14044850158085195 0.17158012710504922 0.19737807400436075 -0.019916861902460333 -0.15794800974217135 -0.15373220509989552 -0.097654658304097849 0.049301177147753353 -0.0045408948139547102 0.10606060411835337 0.13192639373873777 -0.026778716161050875 -0.080430299553599829 -0.15863431185018084 -0.050304212827184731 -0.15842219587719428 -0.12704349499177883 0.11696010093985912 0.11608897733323999 0.047610112186499978 -0.17806981163108326 -0.045317186331804683 0.035084249056273782 0.20237711395764132 -0.04074939522645573 0.032171024286577421 -0.00043460352769054337 -0.078197370928859797 -0.13617789090948973 -0.052365955940010825 -0.15198757268393706 0.06661748915471305 -0.045226810641361317 -0.13935842112304894 0.052044445000529974 -0.15853353766775269 0.02101511248965018 -0.018097405810963911 -0.066664884327714363 -0.040166271440983788 -0.084068901270153776 0.11153463533764882 0.014868553215012415 -0.054434802304795041 0.030128692836870204;0.11215819230589939 0.16189242715210156 0.068827393915870755 0.021463650933686008 -0.29198847761077512 -0.16250650122660582 -0.23052595352846095 0.027208202879225332 -0.14364661311448307 -0.096099937467231444 -0.061150164908588961 -0.110867226228004 0.1600768881668124 0.097286974632793899 -0.074850139819757869 -0.19333720797252921 -0.014030093954611932 0.0011071226334627726 0.084373957032642638 -0.074291572996847244 -0.12801507461163886 0.15121008191866064 -0.02139437654817011 0.058417529739988643 0.14630742619135187 -0.055661780133749506 -0.0039106812430809877 0.037446729936200532 -0.16685085628758076 -0.072232924986679242 -0.21344710569398012 -0.19569342775741042 -0.25601785973999741 -0.0084628364486753413 0.20532134400851731 0.078704185057361237 0.10211947475500283 -0.1288623972500571 0.027979876423773045 0.15984659803998338 -0.12803699490424161 0.086396622159488609 -0.022764057611186706 -0.020813153263212002 0.032440654996877462 0.20588001344133883 -0.027548223196315638 0.21290382833267438 0.29938915635644814 0.094302661468783938 -0.09912889935127292 -0.1122894411108839 -0.087408344809130456 -0.29309559850379979 -0.27751094019629235 0.062867138669983114 0.27306427931652844 0.20605803488025939 0.23864014648599452 -0.028199036330972229 0.073647968249948098 0.043251769896703325 0.11885977883675573 -0.10125544106207614 -0.10311922217513829 -0.05745616876903073 0.11057470543288471 0.13989801727426326 0.057025214028433704 0.11849419730516692 0.050954614572461261 0.10779059596655344 0.13704150412092533 0.090176782611825282 -0.067318297981872152 -0.17934950908490704 0.085609792193832246 0.084817490000593881 0.14419595906291444 0.049591550908963722 0.090376809140109843 -0.090624405202000172 -0.14373837754966243 -0.12487526207088202 -0.077487474521671498 -0.011941414927062605 0.00046475117486546955 0.1542552382664 0.18289420021092617 0.19075433930972832 -0.019389031210522087 0.20426039435856114 0.34545021196781439 0.46861361816314429 0.054557507953090431 -0.24045539850060288 -0.32331933589988743 -0.10562337630971738 0.087437341927339068 0.15914843600625159 0.22348810239835915 0.34484643318135827 0.06746359350573114 -0.16341370252434581 -0.036343102522580543 -0.12423304740781653 -0.02878331255800317 0.17983465997060918 0.073899402700601427 0.082460938259259167 -0.13447523815491377 -0.17096369291165864 0.35196431156613178 0.31820047323292117 0.30403702515665526 -0.093999523362963786 -0.28935929996567611 -0.49728944179359047 -0.13096078317935267 -0.11237811615300772 0.097758928938473155 0.2157946902565091 0.23888109849042646 -0.028441022546562042 -0.051004711123679124 -0.02817965834072278 0.070431807611802441 0.024992121713281249 0.043141483570303847 -0.03508948437723091 -0.19628486405020215 -0.19362554668959561 -0.10018086194295725 0.39638796621735894 0.32068179308007588 0.34352983187892239 -0.046281182405489507 -0.23550324815345755 -0.16714757257954657 -0.11924308061178367 -0.23391510333565385 -0.13307267933744818 0.015417159802979502 0.24049318780897272 -0.10160613398023688 0.11257049367040961 0.04222484485355097 -0.03436272455042555 0.081336253934834721 -0.057615622523410605 0.15188674818359005 -0.10211855802990856 -0.26431479907803368 -0.43222831720594473 0.13052849991263021 0.30819217794676185 0.13450552190063905 -0.064981934634861918 0.11167521506650545 -0.025040623727645612 0.20354546497442078 -0.048009286867649111 0.033240508606194374 -0.12718612043918187 0.11385502639783102 -0.049928590937136322 0.089733745947623747 0.018456203249280368 0.02564134148774139 0.10959476663709615 0.18430905866632186 0.29451439404180119 0.051082281630859677 -0.065363543006750541 -0.32177141046603286 -0.011115821117059914 -0.0022810315328900834 -0.06918636311786662 -0.0088095838941266227 0.23351925687922573 0.22694298872159874 0.2090637015685621 0.068291542212744208 -0.049168515815339174 -0.096890449943776741 -0.10713780637603457 0.10061622121046851 -0.0086170241347334267 0.01967046044600966 -0.11842079431097821 0.0099748428558571918 0.12885322107558184 0.043572734816468429 0.2746722117760832 -0.069025286549344159 -0.15523090610903265 -0.33684045395833756 -0.18424066491185162 -0.32762794843252485 0.0058787931958918689 0.10258573023823124 0.34774109057198405 0.20483684122963686 0.15370343324945487 0.0010482506887044482 0.10867255866860209 -0.024552137659309189 -0.019556326705002684 -0.008220979080317983 -0.14681651065749668 0.10612207141821181 -0.14366783940859629 -0.07567338678986564 0.11981342625710313 0.054268566593746279 0.068146809396502167 0.13224326839536285 -0.18173144780602979 -0.064656554162903612 -0.24821331396707522 0.063753895906108971 -0.024512845606370272 0.14951629604912617 0.20744697146779023 0.19660499306571694 -0.014189327024871712 -0.094191650836008389 0.048957193413515093 -0.016130762098632189 0.077830609360069525 -0.098943286968661004;-0.13601691340602073 0.067642677297737874 0.0062722386555188539 -0.038112031869898436 0.056004008856382827 -0.10278597328201601 -0.00044423808474482965 0.094555531694857142 -0.11670049200480005 -0.083977560384881883 0.049815119695514574 -0.12385951633379644 0.065879732478348149 0.11976498530399114 -0.063620950724012901 -0.21112184941959969 -0.043933757772629249 0.058694609544145682 -0.047294759209536928 0.11689902642478227 0.062921323788445921 0.11970270292588103 -0.14168694619458436 -0.070168152086828472 0.044710867098556706 -0.083590270890963964 -0.06165866501832367 0.037609233630670931 0.05561355700844639 -0.17822115388609758 -0.10170615517005242 0.22901470608633978 0.17309975908982395 0.02429535668010651 0.061838234750299453 -0.34612965348473895 -0.26441426045433813 -0.19946910758307751 0.042153478029731704 0.13196330452486021 0.13685845643523123 0.084225510554403069 -0.12505626369272271 0.036557445224893161 -0.015297092800915032 -0.20789882665677753 -0.024798519471416668 -0.093275627393170191 0.051922450939296289 -0.020549518022889148 -0.23022994413204034 -0.22536785985569244 0.12855269618934589 0.42285862258161067 -0.061192561973943987 0.089622957233360029 -0.14859000220070032 -0.25210776000347179 -0.13764016538642779 0.043639945117734731 -0.014245880473031974 -0.13307531955416979 0.013028738882484171 -0.11356993248163848 -0.15124658857284132 -0.051885400305547072 -0.39677952739040961 -0.015483823778410021 -0.097599779239054524 -0.12793986399086524 -0.27584888202787311 -0.19935201970963271 0.1590361157636809 0.067599659287012434 0.1879670367887491 0.062654614449440371 0.27914366581309263 -0.051944106579865514 -0.12397632099362328 -0.27668819601901318 0.091036668802515874 0.082074309254294806 -0.019780937499504634 0.048020976611806182 -0.088782826436183779 -0.060634328433946373 0.041849722520508198 -0.040010515288995921 -0.10409952016855109 -0.042760868687341358 -0.2259557494672525 0.045896273724322194 0.12930377337448587 0.40836672202186813 0.36318062186349731 0.28050009940706905 0.20084824581683927 0.15361941563746953 0.055470364538637663 0.025888925487709765 -0.046049933018731795 -0.05904986704557353 -0.10387587605704651 0.01570329902342419 -0.08152228626187126 -0.034772521887539994 0.11108268445740518 0.016026835698580648 0.028301440653176812 0.11653763602125683 -0.039941089345050793 0.1596140992424496 0.36884127434203173 0.39386019140199763 0.3510668894345691 0.16280286329075591 0.18214539796865653 -0.030756243194027168 -0.064096496410760193 0.082658985198512655 -0.10114357374833799 -0.035830898933986881 -0.060750886770554638 -0.026099289524335378 -0.037041222235523058 -0.0038493053498690494 -0.091333881643371292 -0.024327982889908707 0.088851613357393999 0.08491490061781462 0.093478376852257294 0.005726631999037681 0.15840515569100727 0.47012207578756171 0.36744539146397365 0.1181763445316968 0.032714894309422225 0.18120205500470235 0.1122792484275269 -0.076359896900585686 0.079829089721472193 -0.092075598719914414 -0.016489130988628226 -0.081568213874486747 -0.070041890727727721 0.036504967425864857 -0.057108995038394623 0.10873137407657869 -0.11436228405903824 0.069305596842529543 0.1316397525660816 0.13318444583469213 0.29937893827397899 0.11544274103807822 0.18928830250613271 0.063075972284897253 0.029805888912609359 0.16770109484125259 0.19839082270284725 0.23349296448615275 0.033297955205264879 -0.012264415094034019 -0.11478658213915738 -0.21715061334526983 -0.16256205777869134 -0.10406603767637213 0.031021562954271227 0.14625787393528089 0.030103612120033686 0.040535807208443735 -0.022002583286767328 -0.10308073484966196 0.04049556989989031 0.34622952748690611 0.10808988729411041 -0.077017142352153525 -0.20141627154597735 -0.088303204203384916 0.044546987895491184 0.24876205081718988 0.082401893656614572 0.24796318441757412 0.057002312866345189 -0.17638075235150372 -0.12837026974651272 0.0090421379330842856 0.033673590849872197 -0.091830367604149962 0.15114108701552056 -0.13670822238344485 -0.031978106080008478 -0.1846619920571331 -0.12999782769812843 0.021353840257350869 0.21904073063725657 -0.036365327077699482 -0.34696890042621731 -0.3595328892307037 -0.36403482912824076 -0.12773932939794538 0.12766965854045353 -0.0028831553981849491 0.10180820929762247 0.13872274430681883 -0.1953859567286452 -0.2600785410473625 -0.13047425453152894 -0.014406412525222175 -0.044588652718667236 0.094976418739806043 -0.097437913993658434 0.099570370031547784 0.0098607413392004187 0.11028383427033205 0.027880275618922409 0.087164103929687584 0.10147257846615468 -0.083376507204631314 -0.12925587653134743 -0.19606828624059922 0.029633831859404547 0.049892282041884561 -0.068248118249579284 -0.10468135345123801 -0.13899508473378125 -0.12408091473083589 -0.028915999341669964 0.1344842412983242 0.08828160727720144 -0.0276054738989761 0.07336016083271836;0.10754408887702317 0.061620652562254817 -0.11164007775660537 0.14489218796625167 0.11908805505026517 -0.031143527408300266 -0.10765900812628286 -0.14309887636365021 -0.070209022347239816 -0.057852878449205843 0.14669180979930915 0.09055053783681602 0.067168493422762918 0.30074565310869489 -0.0084445870050544412 -0.29513468883648797 -0.16032817304465252 -0.013424364784128 -0.16463156431886675 -0.1235138683227059 0.12748131547532962 0.099795096940685293 -0.076801194663519701 0.0085264079369205166 0.052591596196216006 -0.13426396686778472 -0.16155387822221429 -0.10913103492470157 0.10591713913540678 -0.023477216411465815 0.090148579370645326 0.091882894648575852 0.35268510203922382 0.34575769423578934 0.31687619755347274 -0.10253392760200175 -0.23062137757389306 -0.22542372649476705 -0.014103866260292223 -0.16895883088367911 -0.054173508323910283 -0.050191297253013724 -0.047639827438535114 -0.18277716857765874 -0.12656561794221804 0.034239810111006089 -0.061124875160814759 -0.3247633228046885 -0.21744565382502884 0.027022617323926218 0.058003373703247402 0.31592750319723956 0.48704324652550185 0.36021061476427907 0.15230778906119077 -0.1698428694347604 0.031926996653744183 -0.039927359230885286 -0.1432836494396946 -0.10596876772219524 -0.058152888568754793 -0.039192046971567127 0.033523118232567699 -0.052319834065639864 0.097143535395863442 0.077840583448649053 -0.061351474340033331 0.034243646773706192 -0.26897476468425302 -0.37179235289227952 -0.098720649480253053 0.084035176929595973 0.3465457233133924 0.21397429251680042 0.10626016138408163 0.0075772766964273359 0.029443163288562762 0.0206802762162306 -0.076841002825724924 0.089047682424699806 0.048447635461023306 -0.021709897133676156 -0.049134500031104512 -0.072278091274841291 -0.1277069660466541 -0.086734501642800804 -0.23604620287344391 0.12755912713913889 0.15868344434956708 -0.25383789682122171 -0.072285524245108701 -0.28655921814611779 -0.23409121798516339 0.17967537126777139 0.23298382762502043 0.16626913310492639 0.17902394086603537 0.11472642193559165 0.016110246404615513 -0.022307932727299199 0.029665253851570483 0.095550532517021974 0.12600818378792694 0.026105428211507829 -0.058167773825605701 0.058404126281282248 0.085740845680374017 -0.20598891161439881 -0.07702324947226008 -0.053517091197353275 -0.082908161058569643 0.039288065650733735 -0.20311943128905036 -0.33745251115251879 0.030259945486036076 0.18164348046020251 0.25258054324260076 0.23110574762772707 0.318359954481642 0.036740012584907042 -0.027766050099913661 -0.23599395533245124 -0.033731183793652655 -0.041993589254718418 0.056891756148685128 0.10522472053443142 0.14979732326252457 -0.16397616615273042 -0.12025087045433573 0.1772039118615836 0.0073373027184585856 0.22457728099009022 0.057561724483961317 -0.15745579262846474 -0.44471937564819219 -0.093656513944920639 0.096064619927821171 0.28453228407430431 0.17484152302293768 0.20661246919385742 0.12206827521708428 -0.21284614292450274 -0.010866096455055886 -0.062712788070712219 0.019969164605386405 -0.044497024954223911 -0.066297861917028231 -0.15984102664611283 0.019948755387265878 0.0035837524975491915 -0.016887854356669264 0.071986001217076545 0.085436094103791604 0.40178757623631606 0.1111837929982064 -0.16629556562673273 -0.19009835499821987 -0.23133817799366102 -0.071701341957975742 -0.0050808363384653808 -0.0182656449739712 0.078381220352039288 -0.38440706828134963 -0.28589715138344113 -0.046733272264963044 0.049051077945219151 0.10719720076626658 -0.14729513848902928 0.041608877109856585 -0.12666231415163784 -0.023871940425460064 -0.023023204267634278 0.13064724081282 0.17668990109763164 0.26317855375448368 0.12076971330779704 -0.12118321418094721 -0.11222078606869594 -0.020298450584412285 0.089977742615804795 0.088802197435490102 -0.037563801855885516 0.037739793276768061 -0.33952363818528364 -0.14069700913997008 -0.16300303122467277 0.03407697671973018 -0.091313234054328216 -0.0081175254240710738 -0.092676231251483929 0.080859887050337087 0.019549374009882832 0.10104746762000885 0.059299588923784674 0.12434209985706388 0.25976222480589511 0.023946920651625882 -0.035016457257897982 -0.05470747551571456 -0.071838446755228144 0.095995294429726138 0.10503881126166588 0.10970738565461186 -0.16355478972256099 -0.25293236547589892 -0.071819848535090172 -0.18663133965682827 -0.018505935853655141 0.14455633895627351 0.10797350430338362 -0.0010911588767556438 -0.0033226637254630833 0.15449441214473167 0.28401627426092985 0.25017373665814591 -0.10064051755171873 0.12956691041687995 0.25745933676710708 0.06195764253615401 0.070691618788108201 0.13258927387262459 -0.0077672308539604978 0.2384898303311688 -0.070550611759067003 0.052573046108862799 0.083729962981961434 -0.14874822451527384 -0.081330733117303391 0.12011518362327303 0.085294004525549472 0.11235641258418415;-0.099944905277872184 0.085172399235423912 0.14070406242716862 0.062399135912392607 -0.060313829601745084 0.097111997326065763 -0.12750695041853996 -0.096489000710936509 0.024504814300720188 0.0017475188105908826 0.22382429485562574 0.17786695049566309 0.035380961139060099 0.22015753284775177 0.14814215676393358 -0.13600839292381844 -0.21696449523219666 -0.054687672423359063 0.047246423115592753 0.15868891497730656 -0.0076740616583530234 -0.12255932502078591 -0.069669014666800255 0.029597736838707565 0.18698514021499643 -0.014761927445919172 -0.061362503634513302 0.10951556114723705 -0.11702937292127213 0.11238007603152936 0.27644568549344756 0.39495854149954907 0.16486233595818719 -0.14293032375718467 -0.015173948690829903 -0.20355427889138208 -0.33524753370683102 -0.21280023977763457 -0.33178134813054577 -0.1250733248966362 0.081269285997044652 0.023096340355418521 0.1216319106254761 -0.012671357624612193 -0.16527165019251966 -0.018104376725836424 -0.12689651276251082 -0.059451331916482358 -0.26328083768215094 -0.54380759593068029 -0.43969410358588368 0.078270775258091146 0.29577969866586751 -0.024267819618265705 -0.3551759475547589 -0.053054175067680155 -0.013227580969070006 -0.20591050446194506 -0.051386545730863147 0.032674968741119442 -0.006658591731253145 -0.047504691528800588 -0.019105760901331526 -0.17691806593749465 0.026823064951319146 -0.022032721748771088 -0.08229247312168142 0.10350448044683648 -0.15732267468968306 -0.20539619356483366 -0.18101791166274528 -0.3493088594983243 -0.051628983116181186 -0.33853181655399789 -0.17838912085175068 -0.072504944010916089 -0.014203491551957118 -0.089994865258940737 -0.075852635832247162 -0.041704878048887145 0.093439002214644823 -0.12748202012880841 0.071960636688815319 -0.15574451278500487 0.065974183302895312 0.1078303278924 -0.024362763844713791 0.050590878293436656 -0.026744503490582994 -0.1233691487962249 -0.35326773613274354 -0.40350022681419867 0.0028654059769104099 -0.39505953848412562 -0.14025742703299487 0.12570232689100835 0.21036710573189296 0.0096078087305795472 0.27131385498379385 0.035397798952937903 0.11849673665840207 0.29915054676941288 0.010676632912872529 0.043527916500940372 0.12682368886842091 -0.018864063403582799 -0.01697909936277834 -0.18250812791778706 0.09805659910961198 0.044135484961981927 -0.023678787927290147 0.035292443837651233 0.070253284242879466 -0.009654630721759842 -0.18223767802628932 -0.37325313550138517 -0.12525079853240148 0.19107879377311862 0.083840940186738655 -0.093509990104906973 -0.13714492303600981 -0.031614007099740181 0.3326477759029462 0.090878474624018282 0.018959318910780402 0.0020383399834252381 0.018629329746399428 -0.056024155896643904 -0.18286769048996521 -0.15222300475871278 0.12991631949398302 0.23077613472010455 0.213119551853685 0.11741770506738519 0.12609278763694542 -0.23844615844526032 -0.2479607433432619 0.016044339604158391 -0.13533133685221649 -0.05300440322202167 0.095976182135725507 -0.24280898765775769 0.00081019611997665492 0.16967608789062377 -0.11072439377469115 0.011633701246274894 0.055651384425489031 0.015937981477135082 -0.14636350125181988 -0.17075682232216235 0.10089763438397441 0.050355780154445792 0.17600932502645306 0.090321278813432479 0.039647774440695928 -0.046260266902301422 -0.17913873079829701 -0.14821250425639465 -0.10976895658169437 0.10796558515493269 0.18858013899992204 0.22798524480920784 -0.27164028012275793 -0.20240795535225822 0.081389862034001129 0.048491796841905702 0.02767233006717815 0.019897393542844272 -0.053025094399253757 -0.055031161474415134 -0.037045226666141393 -0.17296495212956178 -0.15266174571925231 0.33951121201268769 -0.04518482993589383 -0.14923321033557824 -0.22659177439354006 -0.17948732734580258 0.069428160754252233 0.046480939331388159 0.53079935705647951 0.36510981088198219 0.11410181280278486 -0.22307811956234003 -0.24856262991222505 -0.11161328410712856 -0.031309908036094146 -0.067514488266592884 -0.025707981110757575 0.042307658254898746 -0.042856196986067387 -0.020889557682961944 0.020254724812726752 0.051902401060896233 0.12798284249361686 -0.033440980667108905 -0.26121793743474064 0.12557957712118273 0.29515975360926655 0.2647527994467358 0.46052842767071922 0.45314960780635516 0.24763123911551377 0.029144580056170682 -0.13961263853172848 -0.38756592196515099 -0.058273071078342988 -0.066388028279347144 0.041785377544652134 0.061637491572781089 -0.058541713921358846 0.10388007500152878 -0.11721106124612488 0.060143581559596676 0.16856778124599656 0.1591869620061622 0.14564928217433748 0.058744833016708325 0.12719343880023809 0.27055006952259136 0.30227381304506268 0.19968238088525364 0.12865489191776061 0.21870207284137624 -0.082913358171926771 -0.17273038682284608 -0.12294536072678965 0.11286978415988402 0.097497843624923641 0.044759979515940559 0.081378036227668052;0.012000369548252551 0.046651138117846734 -0.14953696202437647 0.11047188849025917 -0.0091695259284316835 -0.057191682796148897 -0.15341576891103986 0.0074129685158269495 0.051909180385582954 0.2653784006501102 0.058604369671133361 -0.02085633229694079 0.10673571715708273 -0.099946199220820639 0.11086167279946309 -0.059966808746652382 -0.088906489819592011 0.032199121725188136 0.010306081314597065 0.042134289930138326 0.036585751912176508 0.08057338907986375 0.13899094120907493 0.071426609837321797 -0.14525724550761729 -0.0073054307042994364 0.050763537179631148 -0.047417363742924323 0.10999065567295507 0.36014749884772673 0.57771240512780131 0.31159949166207973 0.23003208418217636 -0.12870687409316209 0.097631135823141257 -0.010737523367470841 -0.18371205107989352 0.050873527858939734 0.078128802983257709 0.057562876355518058 -0.14687982205653238 -0.058631506429762843 -0.069225214808882496 -0.099356609985539288 -0.10823238264683469 0.015796871392073981 -0.11584413602895612 0.055905639457797876 -0.075777370397694874 0.26530593482723547 0.42409654081565146 0.48258637538987353 0.33641919418472571 -0.01352427537943178 0.038303677553424738 -0.029172493459334016 0.066420342338174704 0.036164835660239585 -0.033057782042018966 0.12033239875408222 -0.023630082929882161 0.018379993191402683 0.16029533436456131 0.038491069076046242 0.11224050365028376 -0.1408243447719536 0.12452777725431927 0.045924816991887579 -0.072972773744105837 -0.017646574639976279 0.23224399713227589 0.24856760876534933 0.20325025474389344 -0.072085891283978409 0.099899531854243828 0.089221050368659766 0.088200718403155937 -0.057769254618677157 0.20210801307019624 0.019370859188366368 0.014271945795166776 -0.08378252434866891 -0.13566031129528691 0.079332182109728352 0.13880317305285259 -0.006327022292745641 0.05072374174633297 -0.086286117021274492 0.018421252672317888 0.077220788186181596 0.067086265968561834 0.026259834507382819 -0.057483987767718764 -0.13794243678594714 -0.28326364513806201 -0.043693875823161803 -0.095909536743331969 -0.18581930597324364 -0.0095750737574352394 -0.039813041701215843 0.22355521994548069 0.069381276784862667 -0.13268198055151054 0.059486729765951166 -0.010721615670768786 -0.1234430666851203 -0.010762276542891268 0.11918553476411761 -0.0010659291424133625 0.12365932633006281 0.049790408944063634 0.019198748475761147 0.10368998146456154 0.021287379761798644 -0.24561548474153014 -0.49319476571703325 -0.30393677601864277 0.090782660388182002 0.023932662549363076 0.04392491370052972 0.098833970283491418 0.1051728172025083 0.059904950396446145 0.11251809038145071 0.033590204020350699 0.10668961647657303 -0.037510506582296578 -0.11151006720321087 0.029637174635117433 -0.15993145557534097 0.0057018568182815336 -0.15953928436022208 -0.11348055011571899 0.089457382074264569 -0.070139449674374132 -0.336766551419036 -0.23980516529993487 -0.082000941430803997 -0.20828043044237551 -0.15957307805367441 -0.091100757869344157 0.017907417208816261 -0.037476288141711479 -0.0012181002137085797 -0.11885663250837511 0.0044776290267778806 -0.064368391250527929 -0.00091123419647816633 0.072718812541114092 -0.11405088620151388 -0.04413886707513992 0.0681673147870136 -0.2410496274284484 -0.41332248259708293 -0.39479270788826459 -0.098686877740649118 -0.069437273307753983 -0.12070640514766491 -0.029553482308020414 0.13251056604773795 -0.038792968260919249 0.0046146430553587678 -0.016894876426403437 -0.15285694701087543 -0.049420298283333074 -0.05111318735336786 0.04018076773260041 -0.13820649753149578 -0.16395299856897527 -0.033557570360665652 0.134288930871584 0.051675851522779544 -0.029516051995159019 -0.35235487726371928 -0.48085782662155574 -0.24534739937692243 -0.039132024012692113 0.054215079311298757 0.13718153563250923 0.25073628625925498 0.043966205952872379 -0.01975949282060039 0.082267504781979056 -0.028629480535550509 -0.020969134395018758 0.12266128150448684 0.033358713936391601 0.044843157126998948 0.043635186321090966 0.13263417368729233 0.14369406519492217 0.17313388476569405 0.07931936304943682 -0.078544995886628541 -0.02243504772393435 -0.34334524361745367 -0.32890995084675556 -0.034341641269761192 0.34675780371319453 0.23626822593554439 0.18895595138941459 0.14688577537039085 -0.17894719380657609 0.011482520912169418 -0.039795406195732713 0.050054803060896352 0.045089715673619503 -0.10280805462717441 0.021945413686596426 -0.089859135827236716 -0.13044542678472709 -0.030751296895472662 -0.13933331989712661 -0.097244063423467725 0.11408474413684667 -0.053494222655248634 -0.054722469328825525 0.084453835405003438 0.1094485598864455 0.20782092441770467 0.072986454578832294 0.1098489884161869 -0.079595294505401648 0.074780386269701821 0.11655712349848732 0.047177744620632955 -0.16058583907778601 -0.062319457941453403 0.14300565755197386 0.12931785495867171 0.1185881394110191;0.13110166670074838 -0.067049571869502153 0.0016143718896591383 -0.075422960809179151 0.05206109527172316 0.15487670013544183 -0.034108254167899442 0.14624139904063033 0.0026278624448391619 0.097179816360000809 0.19374030641754666 0.070700198586328145 -0.039741229338858097 -0.020144191130990256 -0.097632561018328831 -0.15549541361780489 0.049763947731200735 0.096523302953969173 -0.039457237330764477 -0.071761083797263508 0.074614715206762564 -0.023555539242462217 -0.15585187129135314 0.00080991454925157533 -0.20707038437283562 -0.10695129434216991 0.019260299541288387 0.10125320068352552 0.38873626588887417 0.34575531786077085 0.31553624532945984 0.15300541330735787 -0.12204848341221051 -0.1498288570403028 -0.30532669276167512 -0.32572301329747666 -0.19423270685161792 -0.030567768264250485 -0.15758861888401615 0.080689634994612375 0.11276993120298738 -0.14006549663524029 0.057639918520424827 0.13099783515904079 -0.054625215766985077 -0.31817964764505557 -0.26471577371611005 -0.11421649338590303 0.17503619154100455 0.24791971833224891 0.046098272901072039 0.30425017894531475 0.17545173221549554 0.0081838751425575996 -0.081475465024738403 -0.15872569385918645 -0.20480980103550592 -0.31830866880442144 -0.3081287148479494 -0.11277793284851284 0.11721056575608112 0.039472368887604761 0.08034137583127797 0.027938692124240987 0.065893228183308436 -0.049841338508897819 -0.30257213179504533 -0.44533728539986883 -0.22050257758115557 0.10998840942427369 0.27725456346599375 0.27339869775314107 0.37273774866081527 0.39072740453496746 0.28712673705883246 0.11898828853734551 -0.13152578907884019 -0.27705806379303349 -0.31172500262696845 -0.25267511924315161 -0.2678198419422807 0.063874426148669519 -0.10856799436700654 -0.083450377138322443 -0.064266092199988759 -0.047981999082680075 0.050783304462282429 -0.29945359701782381 -0.17761539742880039 0.10890061065480369 0.10066445230815756 0.070179361239903704 0.15500556018937364 0.26215473648077148 0.18495755167216979 0.41822598626605728 0.19118028037942381 -0.020460020387650775 -0.12641782622093578 -0.10360812876122445 -0.0894067084575218 -0.17114306367894619 -0.11852145333981573 0.035792032954722289 0.12049140757884717 -0.1664469126020931 -0.024475175595456193 0.074272176952854388 -0.19048531286119991 -0.19787992169548882 0.079752705412850025 0.090147269359834276 0.46994314869842158 0.23995149587082373 -0.15050094123561306 -0.025048201396469523 0.59828266127394492 0.20160850069598135 0.0001127990281711371 -0.14689298188163627 -0.0084675046709953728 -0.18060642678342209 -0.13151144310482807 -0.089071697733267036 0.0026692311751240908 0.028724251751197385 0.10581844868704179 -0.082113356066867621 0.043541512866670622 0.055162885612092712 -0.13412563480032921 0.19433290307071738 0.16925107783964186 0.27302439282836166 0.13668055237413737 -0.041638765609222306 0.18435689012511675 0.60640128470608501 0.34891643991179955 0.16452669742241233 -0.036168266322053798 0.012189842670184418 -0.060676633005200528 0.034285105077780785 -0.0049471528833255132 -0.1207068757576597 -0.083864510256118477 0.035252125311812106 0.11272362852301376 0.044845211336864178 -0.17996527570766085 0.025732752538263067 0.073075927593048304 -0.168301210197769 0.017385196726414167 0.11373371345900862 0.31059008385263615 0.11978376799512991 0.28822731832277987 0.26039485419803493 -0.027699748008487325 0.19033254089325774 -0.059501575522681871 0.0028827327616922078 -0.15009460857732543 0.0087786806871416791 0.0087026626706588218 0.12223083714309935 0.018909893131775345 0.041955153166270874 0.055597282292744202 -0.13901143462066604 -0.067636136540504752 0.050130114754383476 -0.19109409161729229 -0.34755449324936916 -0.072942157676544744 0.15086949963791482 0.28934487900045858 -0.0021185566185207005 0.13607023199409621 -0.026521942337966047 0.1330924417305222 -0.089621682354752791 0.12628748925866257 -0.019738962220358425 -0.048773647293109706 0.094419154835423791 -0.079534134362292813 -0.01927043912541767 -0.041988828010310855 -0.2403041768740688 -0.16623741003952833 -0.20967545835518656 0.057704361652328756 -0.20654287062629778 -0.16368241298720562 -0.17993028634608302 0.062713875120265758 0.088788403854313747 0.15897803926528789 0.17425463657779638 -0.13159175554217575 -0.032365307318697023 -0.16252045460867764 0.16956878295239608 -0.15104833639129217 0.058102192142407104 0.16115730696819597 -0.023759072375951359 -0.1808424191045761 -0.1544355036301209 -0.1869618735407291 -0.034077486782190261 -0.057964109125841538 0.09476505518048603 -0.10286520578954743 -0.0854965737643016 -0.20081083596846547 -0.047723103439464808 0.047325986448860949 -0.077161384166738262 0.032053227873557265 -0.17369489661312065 -0.17202590808319168 0.1089430417956266 0.099409473371626728 0.10223626231246859 -0.041109895459886706 -0.05586575772680822 -0.13531921865635529;0.096523654011784199 -0.12663552941829567 -0.0056197380028956846 -0.10793140676885433 -0.077896070591337685 0.10913460613251988 -0.10063009896789128 -0.057388294447924419 -0.055623004265816213 0.056661321537866453 -0.052957715122939751 0.098690364369883793 0.1573624954708871 0.12783085808319739 -0.023290394447363274 0.017176081135622155 -0.14361001464336556 0.11141430748038507 -0.1070432787668414 0.037623888028074932 -0.1247216096484261 0.032499357025974326 -0.023502788949508337 -0.15227599271693693 0.052339034670641577 -0.091477865718666784 0.0025858354060312836 0.20202776854445295 -0.098236825191801019 -0.08716435422906485 -0.23852062608643584 0.036086499021088327 0.063740551750066959 0.37816713971689486 0.13860904416098846 0.088364012961655261 0.032120789394686391 -0.051603234631955638 -0.01226796682644252 -0.083027738181683797 -0.069421144783060357 -0.055801962893677282 0.033449213196029351 0.15136364485321788 0.080132890273232907 -0.099805948006335327 0.16560961805248126 0.2755751749427478 0.099148570026707072 0.031018852393235159 -0.053445122276181353 -0.07580459554521396 -0.17067245885750074 0.05725036263298474 0.4228311003784978 0.5351286132890114 0.02842554257521562 0.12790254229336817 0.24970013144672495 -0.037003749827380882 0.057491214920145021 -0.068311200865002655 -0.040580396127293472 0.04633858460616392 -0.01497935390322941 -0.0767583412588939 0.023742693358519289 0.13116802287055476 0.092200535640404133 0.19423634616178406 0.062201521534251861 -0.12972618490976764 -0.11009069493374313 -0.14514578204423895 0.12522466957706785 0.27394845918233401 0.22251596192099204 0.18602739527082421 0.26174610742716065 -0.044740941599533318 0.12152803024577753 -0.10630866166561728 0.10710221915050383 0.046486529170579292 0.072618489329287397 -0.1768177625385563 -0.054750948839548591 0.023363306096395146 0.19630505623726316 -0.053687291903753868 -0.072384766201175579 -0.068306551840087659 -0.064045832840087316 0.30885813791786876 -0.050795358766261074 -0.22018478128082788 -0.1983140174220428 -0.10891576585501168 0.091099650835848811 0.21932100772283702 0.28713514851789973 0.0079489061121296566 0.029739242837137362 -0.087795550494606522 0.11301906981886763 -0.11854153017336003 0.12140237982265838 0.099108274550992012 0.062031074461499476 0.090427759070688285 -0.1698211838441496 -0.061542403667199284 -0.097091829830868323 -0.015639494953655721 0.014526552908549328 0.08567168677960442 -0.56850233528064364 -0.33605488333380662 -0.24016877485397317 -0.0049472486368772797 0.190499048135711 0.085260350549368188 0.079706431277030851 -0.10957959402315955 0.10230374261606831 0.062842991214965019 0.046976613612888476 -0.0016021471848215512 0.021805961146407576 0.097102395121770962 0.022799549217711691 -0.11705525843898545 -0.097442339524332011 0.11574387370206 0.13749234091880555 0.17320756211993618 -0.028103702971900627 -0.20723552334222947 -0.46674918410042726 -0.058668318605381381 0.069102237439210359 0.154604357007811 0.14644072569333913 -0.13796803930534268 -0.10165468888086597 0.12476293452707631 0.054349187352043901 -0.048573383300912924 0.066773708337946672 0.097539803128932345 0.041009737655157773 -0.0084862524742162354 -0.051209071834284955 -0.058283996135234828 -0.12650482245805764 0.10860314972237538 -0.085087672729613428 -0.20915597347443138 -0.088940976319732662 -0.10346049323019132 0.069993067057386046 -0.1047185745461877 0.03857250120504746 0.10847086267683861 -0.0060652924746601462 0.14534996826287697 -0.013015893398654643 -0.096963140459475253 -0.038751258641292224 -0.055782817564997401 -0.11114794553794129 -0.26864685813961375 -0.081523835530400796 0.055026190269514323 -0.079374223954951223 0.15857360075648497 -0.0027457533961050004 0.028829220624285213 0.058757918376287598 0.058274262016727668 -0.069001223821551383 0.09230897024024079 0.14593437425002867 0.0049672273419699656 -0.094533658254915248 -0.032711873270731287 -0.1132827173311908 0.0772083719989448 0.067330731338959421 -0.11445435670239436 -0.16984403037545234 0.0695409104325352 -0.046085752209187765 -0.12342922898837135 -0.078394771282303877 -0.15948697502849532 0.067567735296955117 -0.04433183745754838 -0.026533218829517671 -0.095458528755614877 -0.055151702339281544 0.16368542784279133 -0.053733782379276909 0.23167121835525512 0.11261023322201544 -0.0097790554414982772 0.022898585502909959 -0.016059355689424251 0.026415195767142016 0.024946938875002656 -0.063844637449070235 -0.12627466572256896 -0.13618889375114909 -0.13473171607436596 -0.029384708607928231 0.064678404638489978 -0.054783040940053589 0.049051291791728804 0.081366149850291752 -0.011667609256348736 0.12942890715761704 0.10115856527449481 -0.064526692938719141 0.22210771256453549 0.058055069889541788 0.090978004803674906 -0.18182596338219395 -0.071063038502279408 -0.019316906338689436 0.13237266557894983 0.14706009498824182;-0.17720370014341924 -0.13068864237285166 -0.058478992945857934 0.079300102679500564 -0.032752587492338767 -0.13088361941244836 0.015532482331895383 0.160981093985683 0.12413414421859101 0.17138854548242091 0.0092392982122497316 0.048946155248866689 0.080929938738383181 0.11897589309256873 -0.04848603077590545 -0.16169210894166233 -0.19408813444113135 0.07727366528010958 -0.050170258706196097 0.033143143904208125 -0.011879818594548112 -0.0031905819076270461 -0.053365151526001596 -0.11005920387198791 -0.097675960214275118 0.0084835489623169471 0.0066853671667125875 -0.20484247578139653 0.069905115951399907 -0.002268248993233816 -0.0051594532979891703 0.26310505282288615 0.37079892410690352 0.54460838871274952 0.30685595613410227 0.0016899608826445437 -0.096842568413613717 0.011295283825691203 0.11601195525165328 -0.15789811862035294 0.12622302961796916 -0.087885559682430794 -0.039583601496680026 0.047701491684017973 0.083160646742172203 -0.22191416879891454 -0.091895832774001651 -0.0052125110097756069 0.1215861434343837 0.14036477951431903 0.31467845254421234 0.1675704045399804 0.2085414412094421 0.24244462141021886 0.47115879036731867 0.43045556937910268 -0.1009317360155853 -0.06657443220990672 -0.21610470995380945 -0.084386168414363583 -0.15138735031937536 0.13694037155832375 0.012439924453777128 0.022467312755698736 -0.086458924456249198 -0.06306720135684632 -0.19978827774000255 -0.16921820635205287 -0.20269838311666835 0.057979678497033782 0.34043712454584857 0.43084647868971238 0.31939642800767643 0.27178978765382356 0.20728163484523238 0.37371365553859903 0.097593792171015464 0.081945295417681419 -0.057222426380895468 0.057364920730846092 -0.22221447522239968 -0.11006199272387436 0.047280721469207414 0.0031636194437102182 0.067215174155522792 0.14090749510148912 -0.2532719263664624 -0.14423384362006611 -0.066991587311175438 0.026527989543360418 0.079894914337336087 0.24133615911305994 0.31206904372411648 0.26036656221286092 -0.083350092377074511 -0.12784605110850095 -0.17316836350929701 -0.15995123420527518 0.0084273970847246159 -0.14722335225538399 -0.091460185463301244 -0.063258926952372341 0.0038912656128735059 0.019740080660578242 0.084971915501633466 -0.033728034028159812 0.030270029695133913 -0.0948236572180962 0.063695973688383756 -0.054391072275459688 -0.052128385241039923 0.094869467853107681 0.21946021195268389 -0.070213953301730303 0.042203085382195075 0.22569058311995543 -0.34743600518708412 -0.4277153380687862 0.051567883478711087 -0.0091419226443843222 0.076018521440420789 -0.11831318403743031 -0.052560166385513786 -0.12432287632391985 0.14023156357957772 -0.1003755827737407 0.012569240421844093 -0.062161285250784862 -0.13700873498501939 -0.080288533276545559 -0.08646148841708591 -0.036236221985083056 0.070251980406311684 -0.089662526366193568 0.0070277252463944962 0.038909129440983445 0.031318819163912083 -0.18257818677138679 -0.1271415154364815 0.039599896564891927 0.13598756479279861 0.065627880211170067 -0.042498199698760161 -0.087912243010538779 -0.032384967128321597 0.0046756217817367045 -0.048945778386942675 -0.0014887951843027484 0.15432788303780043 -0.068424361362666664 0.031294355062217123 -0.068511415057727329 -0.10941562899294478 -0.28363956760567366 -0.057443108366913222 0.041593770523230135 0.04331308866821508 0.064397450940518838 -0.10997348352205046 -0.0665696040047601 0.135116156771764 0.093517433279710196 -0.11949848858523691 0.16798964688905613 -0.14565404344020216 0.056316797623432682 -0.13670905015632576 -0.0011301151269628275 -0.11424438120438671 0.15194793131653136 -0.05370057409892693 0.19703075180199775 -0.10995955399541753 -0.3383407350437368 -0.20043296974392258 -0.032873274783947901 0.10292912850532464 0.13836292069360781 -0.0028573036421563548 0.023812241636119589 0.077091281467268291 -0.089407794124057666 -0.029747783426992889 -0.00053638046072206069 -0.090615253608625018 0.031372291902598784 -0.11167759535416169 0.15518394618145878 0.066297722495992292 0.014377297409995354 -0.0074448444134869425 0.13087239274958118 -0.022763049334991545 0.13398596251984379 0.0854316844020786 -0.15286836711203514 -0.09931824056474331 -0.1601554154770248 -0.2541726350073536 -0.21843942645702225 -0.29980177412446102 -0.062770801273262594 -0.043208323702181313 0.19323972803232098 -0.014744195616453529 -0.049975257684113678 -0.03234585324690413 -0.010542320198799297 0.0059132423627000748 -0.13758378031758875 0.10394211092417295 -0.058773349025212182 -0.16029913155603556 0.12193404621557155 0.047626654193868107 -0.010803554561561492 -0.049270758910752957 0.014483632054196959 -0.01988116387337922 -0.24720239567834204 -0.094557723833850069 0.023157005024832703 0.21314356726125103 0.035522343868833926 -0.0019978034121160937 0.074170351308851953 -0.084815208358763453 -0.10247564953750438 0.025224761358679165 0.075418415652859894 0.012967600374568837;-0.02197203887288535 -0.021462773022429146 -0.076314849270405286 0.13072901547209756 0.14298275565724236 0.16520185074243096 0.048878268174963199 -0.0078229178905978945 0.19117782484420981 0.091270358178682051 -0.08229534616980505 -0.18252667852195636 -0.093453110325237981 -0.24669934990137546 -0.01649781008682354 0.15161853719340276 0.11486525901409846 -0.03158277266485842 -0.049545633243111523 0.079071233342445715 0.037814622241455403 0.029170542337155578 -0.18096112662545516 -0.16275065627255783 -0.049072167748433627 -0.02645757687680142 0.030829950687159276 0.20054922418618548 0.11705307538691358 0.15884836833448177 -0.051353477237355359 0.078912499715274781 -0.11872539497996004 -0.16658013627719445 -0.29151234152014027 0.095108915213876932 -0.0056266585870234677 -0.029841132443946313 -0.067334395838931346 0.085062082539131167 -0.059038723685780475 0.15994655829322879 -0.056086413965663537 -0.10613674264552692 0.1217748842033171 -0.09807703455519387 0.01741670122932884 0.22814748769030091 0.1855741058491874 0.21508763628745384 0.11775272774349756 -0.12792457835676391 -0.065875205728173319 -0.050139793414115216 -0.249687580190638 -0.29094044475168179 -0.079239822594588241 0.0011797459601473805 0.093860398747085225 0.096522447386345786 -0.047248732128137981 0.013958066581605035 -0.10274017002457554 -0.037407613907633752 -0.17875084168077768 -0.084200295894785504 0.19224273559585639 -0.036226590547212549 -0.0019516159233617767 0.016758539107031751 0.007890148173567979 0.1451818892401488 -0.21019266949138662 -0.14728104780837592 -0.1414732481707302 -0.030055684422531585 -0.23648229291079101 0.18930659438145314 0.17797040250156182 -0.057390358610452795 0.11125462902788347 -0.048410668146162759 -0.097881424614407644 0.13814375587615063 0.058655919529694275 0.072290100123283518 -0.0066661649513780194 0.17953579510825785 0.12643157843198966 0.0041828145050058028 0.046607874976447583 -0.15285586454318806 0.0088983456932285286 -0.025657108729451667 0.11906583080242895 0.10328600714441943 -0.11890391392963372 -0.29003641612541853 0.18623013263429383 0.034857811822280142 0.16465019174724888 0.10186065661426748 -0.10897075472398755 -0.094918838796981375 0.023825927077736685 0.023678679699999157 -0.092773243505456585 -0.14003866594117695 0.072036488577035179 -0.034243514315942684 -0.15785144310719057 -0.090768654771088142 0.037597441380863197 -0.22864531141225483 0.0047583800307234216 0.067788481391757222 -0.16960629694789672 -0.06427705769403308 -0.18082499515964012 0.096765746452239718 0.12486775009350726 0.14011606040315916 -0.021001032672147948 0.14434313010120287 0.15194957667802111 -0.0081609531209397117 -0.11314672725969939 0.10848854775940951 -0.12413322947985969 -0.048052385101068261 -0.084500762856946882 -0.15034323139579966 0.00010209744914883162 -0.25112683161379595 -0.097738060793060536 -0.014205057493787391 0.040320561082271826 0.0075868561721245953 -0.22397392593493984 -0.18333307474935587 -0.13885449458201632 0.038746965897500034 0.039112434701486461 0.055858337866978115 0.11235455389588775 -0.085798172082125493 -0.0025798673251549997 0.13407138264860399 -0.065356733882481158 -0.19537543418028039 0.13234772493728819 0.18730636184270363 -0.084921228222389192 -0.045102324437528311 -0.14296550327329358 -0.10575077717041831 -0.034341998389652344 -0.10604715312642615 -0.10419342542658347 -0.22697822995872927 -0.10952198802633471 -0.06694611980177792 -0.0014264203383744555 0.16599646298698623 -0.13986546901035751 0.010880052682520874 0.063518513410279226 -0.10298370869257976 -0.14464430847529899 -0.14504399266822107 0.033914049611623955 0.031386682979768703 0.16027678331850848 -0.024461978950391341 0.14721085327882233 -0.085567870543561492 -0.091328737227153206 0.18704217167992063 0.051776584366069064 0.050005882520619618 -0.1693387742133341 -0.23482997791111676 0.096240800956225794 0.071202086607974724 0.019826587312915173 0.01143063446372619 0.0073839804335919818 -0.092901213919768966 0.00020504967052327916 -0.048587183057363183 -0.13850141843553551 0.11275736744454992 -0.11869502122258452 -0.052517523178847551 0.16215185807639951 0.04767657437718472 -0.042478158447127323 -0.019277421185860951 0.048948505040996466 0.23812403536878193 0.18409466392274695 0.016683640030930709 -0.10447230870542584 -0.01663147966646096 -0.13281632081905329 0.11210696622469049 0.058028846788690018 0.10754193875629132 0.0011972043304329747 -0.014767488865326313 -0.070772004042703743 0.13096685910726186 -0.087422993328129514 0.12110455999274597 0.063505452897071477 0.070160394767036227 0.12023359358975011 -0.09920064665813183 -0.028423677082680288 -0.084984256270828923 -0.023293313820589922 0.026322514252733839 -0.16603565340291992 -0.14140284397548691 -0.024361286405035151 0.099357257165492152 0.018402900919333654 -0.14900855555061276 0.07681597157425972 0.16940599680648952 0.039309562939812123;-0.089707212114924786 0.10139803811168412 -0.034719921742646112 -0.03833483940597282 0.10814252851485845 0.21330731248649062 0.28354495241669941 0.25907993078697655 0.003636483829953492 0.10512335202031947 0.15174843517376463 -0.058081710227880418 0.10310685632246237 -0.093931288517845962 0.14391243098434489 0.17621872489839066 0.11021859437166544 -0.043268921027362031 -0.11408403027370921 -0.099786064186650258 0.037916665296977944 0.083851563214582425 -0.066734504894298233 -0.05127783615843378 -0.18414590290209931 0.16729551268785431 0.34108614629657691 0.43274120462530374 0.080396905325645668 0.068183453131290372 0.0076664515626503728 0.12602487402319554 -0.073221639597631852 -0.17376177575200111 -0.033734276478868098 0.16098051915607534 0.014148110911198768 0.18455312032068957 0.10688165002929917 -0.023808635120892919 -0.093724590122981677 -0.11353329035628648 0.035174772110865608 0.13190335095798181 -0.13334444512358731 -0.10644230113460527 0.1650686473297337 0.093902683763358419 0.090377469883351713 -0.1842603784918877 -0.1268774960337487 -0.047134634389072144 -0.14400597210847829 -0.02069666457787242 -0.12361889630447621 -0.12964098118007569 0.13756318809589635 0.21895693090400953 0.16949079560028929 0.017789917633924363 -0.072603624950685744 -0.064997727767349023 -0.047906175092007203 0.019575071548456942 0.025707349116376788 0.14549092906224112 -0.13988344015786672 -0.11641373683137217 -0.010800872428998727 0.17628001732554655 -0.28771169940839769 -0.23643630866390702 -0.049606502558406165 -0.1290550681316239 0.11232581729246706 0.074967312065889025 -0.079448605014538376 0.13402617008471707 0.060066102258505151 -0.086565945130241267 -0.11295112117990666 0.13105957711729718 -0.039809361762565915 0.02821280057192093 -0.027144404010039914 -0.070555233967641864 0.15266283466921737 0.19943141704988859 0.065885948903126157 -0.039533021919787879 -0.24010462972603971 -0.19903513512268214 -0.2986305302453594 0.091261192219451975 -0.028214268999932977 0.048621560994392951 -0.14795622107250139 -0.2247991014958873 -0.080119103013211013 0.14419264256145309 -0.16372352099503035 -0.062406478301095074 -0.080176816832469522 0.15516864015326728 0.066730908178931 0.16813014921665762 -0.098058819302132255 0.22439264013164414 -0.04664208004237886 0.10007573717838818 -0.10212034137344994 -0.009880014247537601 -0.39354833977373638 -0.14855418038138204 -0.11430401968204898 0.05522633738165568 -0.093105679826981827 -0.18046114942379185 -0.34454396590681385 -0.05598205923923126 0.21885343984837194 -0.14468381670091235 0.044210756615714379 -0.12120110373015858 0.16908089467314649 -0.010673243584487025 -0.049689178526790709 0.086249383673144581 0.024353849947493608 -0.053218451926929491 0.042133915393245083 0.1195975726012931 0.093853847600309126 -0.35379471988803418 -0.16876241854953569 -0.045395277077925407 0.027467823614982761 0.15051536265333343 0.066062081025684907 -0.13034485502304724 0.018033091423618912 0.2061612176854408 0.06178442123036465 -0.12913122650653264 0.055068129655929159 0.07054231589766774 0.087247681075853206 -0.14187102890821826 0.089608131916340719 0.089484745467107593 -0.020941679160734018 -0.17348911046849602 0.086333752534414818 0.17024551120304576 0.052385380158236711 -0.27137304893025344 -0.12642812160996661 -0.10348666026468385 0.2063653488776106 0.052172644462973074 -0.0025570899001644532 0.1025183069474345 0.17178364745439106 0.12574450387508759 0.056561138246215656 -0.095408204518654602 -0.10323514691091965 0.16297504471515872 -0.0066594931327775067 -0.11383056252778932 -0.241619649832786 -0.28793928759571857 -0.02130310785953941 0.19914887533587919 0.33102934076189011 0.23095985184371132 0.076490642908492848 0.065349710080264481 -0.015496261256588484 -0.019940747160043026 -0.1081935832187545 0.068541970851365194 0.15746901389586349 0.26142795106325867 0.00019770455759011464 -0.073629764825065627 -0.038690375886076524 0.057518390619494084 0.022157330591183699 0.010003754922160338 0.10906094287557724 0.0079355798309777934 -0.38464365455778476 -0.10074962485104626 -0.14125480122953882 0.32676235265548981 0.24476354076069279 0.30481506445502216 0.17131019811432083 0.14035553969297004 0.20038000066055361 -0.11361716372161502 0.017755060008692505 -0.098758015389975085 -0.031982247226234391 -0.07702505944904979 -0.012040912861885713 0.11483227414625713 -0.051014780973935497 -0.0099378268840162511 0.072220359480412277 0.089089703577321294 0.046386812434470071 -0.13790413698784079 0.0099711663567126629 0.14194330793130699 0.084778841308310274 0.25441332664486677 0.08368195400765463 0.22017948541847948 0.20560989978589297 0.0025697885723461955 0.026215963088477037 0.049912852216628896 0.23554367253692143 0.21437307003426495 -0.089699540877328884 -0.013634657844280262 0.062937866380789895 -0.047328703025299561 0.063929348334625657;0.12869936436475896 0.14173625124705883 0.03552565558427196 -0.034992263136126418 0.026115359753030174 -0.019566052111189964 0.033976322947953205 -0.0010834011360024687 -0.037292942095195881 0.14884119348930749 0.14841595031227853 -0.24012875320622168 -0.04722664896325765 -0.25030393276161605 -0.12795615574570088 0.20180567214713729 0.13554784744626042 -0.10651918317260847 -0.058935559520153051 0.081453906035001689 -0.10001658395774231 -0.03697113830027679 -0.1059761929573797 0.15402880180521566 0.0034464137157783356 0.15158702082509526 -0.20471967847877723 -0.16724660591068005 -0.2196297084837423 -0.22020111532371284 -0.048868190443865311 -0.17499083315164846 -0.41971666204648939 -0.17236763061534233 -0.20732983318298004 0.24960422866078624 0.038892666676417768 0.056405022739860006 -0.11770799264793899 -0.12533523786854536 0.12466397083858834 0.014704684039591329 0.082652919586406803 0.10753322204731827 0.22036309700882584 0.052951726600630834 0.059794901584932114 -0.061813728522680189 0.030276524438461426 0.094901964954864734 -0.036329802729720216 -0.18476200764025752 -0.32923111885746725 -0.58891662926894939 -0.28411573455894101 -0.18647429354572376 0.0097444716188888579 0.23469338514528679 0.26156132494833734 -0.071743233464577144 0.1160328726541638 -0.12637263701899382 -0.092865458580762658 0.16838715720434205 0.047982950868719336 0.29470659956450407 0.29623311413146503 0.10728346448159293 -0.061007437426123835 0.031343028455155596 -0.044486173462560015 -0.020774645971817416 -0.38554234493733136 -0.34822178396500864 -0.49349918599857379 -0.37181908911564843 -0.14754617917451338 0.15192912849279241 0.041262019760262385 0.11300768798112509 0.14531310403386144 -0.10528982958663656 -0.030455357469304657 0.064167887561924597 -0.11495103107053563 0.03998556764313372 -0.072326784505200095 0.1238562874223314 -0.11085859652171423 0.13675932007161748 0.13705801948530422 0.29397700337093868 0.10929417018586302 -0.13668349585141182 -0.13289856718688856 0.045858903849013359 -0.12515697912136459 -0.12146347003376298 -0.0066004776761746774 -0.13438369652723689 -0.026291286600920307 0.069553557333392274 0.026939258937578248 0.057511243113754947 0.084725324250546991 0.12950687460511809 0.067119860954502786 -0.063598628605486957 0.022895305273026897 0.024693852422562754 -0.062170119369168719 0.088872146105009889 0.053321977523711261 0.084036738668585645 -0.1730586292802278 -0.26619587366305986 0.019495948685468216 0.095938743988019284 0.020997018775133006 -0.050959049005596536 -0.24913950222402123 -0.042863426533600216 0.10264505220841345 0.030418751695043402 0.13544221518040916 0.068770901342478707 -0.08623926667959006 -0.015860532804840316 0.13417298800447056 -0.25201037643724 -0.038206703505150333 -0.11120404315666038 0.14629782549965686 0.15300872067362323 0.15949636104920009 0.18502415318987867 -0.059169381854554774 -0.11250503619559898 -0.14502041705310492 0.056483102280445237 -0.13552798406062719 -0.18038893307660647 -0.060810396292155296 0.090159088106414265 -0.15303017878970213 -0.11032082083255559 -0.029532136943358614 0.09983902157738217 0.12687778027287858 -0.019679397748184828 0.11788616267416176 0.13080538919885965 -0.23381654303794577 0.046397154750799474 0.028430359026751933 0.19241854318980983 0.26496343770579561 0.081092564933733055 -0.032867093505735856 -0.16411951982491385 -0.030374412914444322 -0.014528621410025595 -0.079214310327539866 0.20685333814798304 -0.065688538495456666 0.16653139359876371 0.064678711505469541 -0.12576530726867685 0.036782438430515707 -0.026663887498119678 0.11739420333017282 0.16466869796022979 0.20456468672283407 -0.12791627995143875 -0.013418621139589229 0.03446338319334085 0.029148607337130719 0.018797784497495286 -0.12275660660034624 -0.26520349802528526 -0.24457125226340479 -0.31400671057647084 0.003409087117302824 -0.018079771768789412 -0.0090902448050985546 0.15375444728676069 -0.13107202787540134 0.057873425355976248 -0.080108002356659491 -0.084440418135358533 -0.076020363298698324 -0.061522794268892032 0.3178928659095035 0.17328318857514516 -0.15600742782020771 -0.22531347792204245 -0.13473663291956042 -0.21345588231597545 0.0047294062358576271 0.069186361637189706 -0.12564907278873402 -0.24264520978914389 -0.21367627883803197 0.072786501185399588 0.12268776054342573 0.038023280813093238 0.12534298091790008 -0.038886221922592251 0.12964411229200468 0.053251774014483617 -0.13177859382313592 0.051252631803562508 0.17609717663249649 -0.096636373926343111 0.016991815747664757 -0.1087062158660429 -0.039146659932339775 -0.22726796834236163 -0.19371206276207517 -0.18685897972896473 -0.07679855653585739 -0.095649280420499486 -0.11084821814579668 -0.065680280581744785 -0.25701863284288595 -0.047263908435539334 0.070286177932608551 0.10059971515893593 0.13617857582308668 -0.025668075712333028 -0.12935175278010619];

% Layer 2
b2 = [-0.32742347320307147;0.75495742592663662;-1.0023450425282454;0.19616268044636873;0.37558693781702573;1.0485236414804786;-0.44739375033378082;-0.71222283723135071;-0.19936196694610636;-0.058285184699573431];
LW2_1 = [-0.62529172863710181 -0.66110946008130644 0.119750281445719 1.298319457307195 1.2456441218115601 -0.44217701998067455 -1.2857795015600411 -0.69644953342675198 1.4165657860524921 -0.52923997538175804 -0.78024621115518378 -0.21191505887718992 -0.69706032952198049 0.35961865447476826;-0.50574978914279778 -0.85483864493153894 0.12924006553829709 1.0740550383411755 -0.30040186838070848 1.1771595625247542 0.75790927899353733 0.96316358343943609 -1.2716994047580326 1.5649009361200621 -0.26389480317993874 -0.048973528313481826 0.49078961405950566 -1.5382883864782899;0.94186609921096875 1.0120024177274254 -0.56748971042367813 1.2270031217775852 0.32566571312482651 1.1887439145146823 1.5848150930910003 0.82829921472080559 0.95050913539410753 0.32518387473709343 0.91664242548071861 -0.65270471483395154 -0.61846956455675117 -0.85748487199850576;-0.58970300746744164 0.42431285024838594 0.35711191338885201 -1.4649000701091619 -0.8534860005564906 1.4712257791215373 -1.4604319084849688 1.3359501988916405 0.89081368030069696 -0.45450193000713174 1.6024701449605883 0.064206638399405075 -0.58620911442327017 -0.16521870399972641;-0.31701597083897548 -0.43499674436863089 -0.24637472643344319 0.628261128589922 -0.77725840785002676 -1.2447061389803109 -0.87717169567386044 0.62837959813150124 -0.76886275110362878 0.8377614187520479 -1.2899959514401891 2.0826467419568142 1.3012505171558537 0.32542143837246651;0.14055655038485701 1.5557510122784814 0.2170672982813493 -1.3955634980831793 1.5346472008998087 0.86411311174656036 -0.031290073906404578 -0.99146122921426605 0.278579600647688 0.1405902410379257 -0.48369419617381604 0.067468755241314238 1.0884797849774324 -1.0596873477023452;-0.39248554871437297 0.43452163818546641 -0.47821064975677391 -1.3673578971115725 -1.2106290846327399 0.6981493692132914 -0.8108020972994151 -0.80084229960500053 -1.635879190609494 -0.43831571867662644 -0.63683000833965486 -0.21360316828634579 0.71915881237085011 1.6210303768092744;0.61845603940065375 1.0969254127757901 -0.26239389900185994 0.14914527122071328 -1.2215893020124795 -1.1548450133436834 -0.78267481258786176 0.92944873693890429 1.1288902258615525 1.0725187538894076 0.66285737010468104 -0.573729994669823 1.4865458499845352 -1.0193568950230099;-0.0039531981205130004 -1.4392815787679303 -0.61816170514073188 -0.70920550555872675 -0.3198920046502059 0.093688005987635284 1.5601438276455322 1.7749002672667944 0.52692958276685253 -0.81204573867599306 -0.93911610202469076 0.01652884201155249 -0.21378783562179079 1.1228979826550649;0.34778268530022893 1.1286432892885947 -0.06829216189129883 0.98391542897696083 -0.2831549981731723 -0.81745449103522705 -1.08063320327432 -0.1502498328025467 -1.5473642864985646 1.2482055165472628 1.123355840932188 -0.58664942712667911 -1.2854243649034403 1.3913993486343308];

% ===== SIMULATION ========

% Format Input Arguments
isCellX = iscell(X);
if ~isCellX
    X = {X};
end

% Dimensions
TS = size(X,2); % timesteps
if ~isempty(X)
    Q = size(X{1},2); % samples/series
else
    Q = 0;
end

% Allocate Outputs
Y = cell(1,TS);

% Time loop
for ts=1:TS
    
    % Input 1
    Xp1 = mapminmax_apply(X{1,ts},x1_step1);
    
    % Layer 1
    a1 = tansig_apply(repmat(b1,1,Q) + IW1_1*Xp1);
    
    % Layer 2
    a2 = softmax_apply(repmat(b2,1,Q) + LW2_1*a1);
    
    % Output 1
    Y{1,ts} = a2;
end

% Final Delay States
Xf = cell(1,0);
Af = cell(2,0);

% Format Output Arguments
if ~isCellX
    Y = cell2mat(Y);
end
end

% ===== MODULE FUNCTIONS ========

% Map Minimum and Maximum Input Processing Function
function y = mapminmax_apply(x,settings)
y = bsxfun(@minus,x,settings.xoffset);
y = bsxfun(@times,y,settings.gain);
y = bsxfun(@plus,y,settings.ymin);
end

% Competitive Soft Transfer Function
function a = softmax_apply(n,~)
if isa(n,'gpuArray')
    a = iSoftmaxApplyGPU(n);
else
    a = iSoftmaxApplyCPU(n);
end
end
function a = iSoftmaxApplyCPU(n)
nmax = max(n,[],1);
n = bsxfun(@minus,n,nmax);
numerator = exp(n);
denominator = sum(numerator,1);
denominator(denominator == 0) = 1;
a = bsxfun(@rdivide,numerator,denominator);
end
function a = iSoftmaxApplyGPU(n)
nmax = max(n,[],1);
numerator = arrayfun(@iSoftmaxApplyGPUHelper1,n,nmax);
denominator = sum(numerator,1);
a = arrayfun(@iSoftmaxApplyGPUHelper2,numerator,denominator);
end
function numerator = iSoftmaxApplyGPUHelper1(n,nmax)
numerator = exp(n - nmax);
end
function a = iSoftmaxApplyGPUHelper2(numerator,denominator)
if (denominator == 0)
    a = numerator;
else
    a = numerator ./ denominator;
end
end

% Sigmoid Symmetric Transfer Function
function a = tansig_apply(n,~)
a = 2 ./ (1 + exp(-2*n)) - 1;
end
