function [Y,Xf,Af] = NN_BoldLetters_10Neurons(X,~,~)
%MYNEURALNETWORKFUNCTION neural network simulation function.
%
% Generated by Neural Network Toolbox function genFunction, 16-Feb-2018 09:54:32.
%
% [Y] = myNeuralNetworkFunction(X,~,~) takes these arguments:
%
%   X = 1xTS cell, 1 inputs over TS timesteps
%   Each X{1,ts} = 231xQ matrix, input #1 at timestep ts.
%
% and returns:
%   Y = 1xTS cell of 1 outputs over TS timesteps.
%   Each Y{1,ts} = 10xQ matrix, output #1 at timestep ts.
%
% where Q is number of samples (or series) and TS is the number of timesteps.

%#ok<*RPMT0>

% ===== NEURAL NETWORK CONSTANTS =====

% Input 1
x1_step1.xoffset = [0.925490196078431;0.792712063987456;0.813037037037037;0.447058823529412;0.280885210062495;0.0698147771219214;0.0517071111412654;0.0533572155505801;0.0550420577304355;0.0659008676904057;0.050091382650715;0.0698147771219214;0.037037037037037;0.0759715041726033;0.0550420577304355;0.224581797347928;0.129463871361693;0.505882352941176;0.931059637695909;0.976470588235294;0.996078431372549;0.929411764705882;0.802831671076735;0.447058823529412;0.0893498880521067;0.0517071111412654;0.0847292821011526;0.0469616060188012;0.0621360411907939;0.0603086294110108;0.0678390061137873;0.0698147771219214;0.0603086294110108;0.0550420577304355;0.050091382650715;0.0893498880521067;0.0698147771219214;0.0533572155505801;0.376470588235294;0.897810706289436;0.964705882352941;0.988281369910517;0.937254901960784;0.823328523720138;0.388235294117647;0.0585174028088744;0.0454468341738849;0.0383596655886499;0.032050478322817;0.0297345063361754;0.0425157141672509;0.0485096682271524;0.0297345063361754;0.0454468341738849;0.0308780182584376;0.0308780182584376;0.028619580704254;0.0485096682271524;0.0425157141672509;0.349019607843137;0.964705882352941;1;0.996078431372549;0.941176470588235;0.833706492977814;0.376470588235294;0.0533572155505801;0.0357451658864238;0.0332522483810902;0.0397134133930389;0.0357451658864238;0.0410986423019804;0.0439649908406269;0.0383596655886499;0.032050478322817;0.0533572155505801;0.0439649908406269;0.037037037037037;0.017338489721148;0.0567619995326081;0.384313725490196;0.996078431372549;1;0.996078431372549;0.945098039215686;0.844171306661842;0.349019607843137;0.0425157141672509;0.0254427030327702;0.0469616060188012;0.0469616060188012;0.0425157141672509;0.0383596655886499;0.0454468341738849;0.0397134133930389;0.0264740409043279;0.0297345063361754;0.037037037037037;0.0485096682271524;0.022510075310401;0.0383596655886499;0.337254901960784;0.996078431372549;1;0.996078431372549;0.956862745098039;0.876090432789802;0.286274509803922;0.0234610820875832;0.0383596655886499;0.0397134133930389;0.0344836902850337;0.0410986423019804;0.0332522483810902;0.0485096682271524;0.027532879510897;0.0485096682271524;0.0357451658864238;0.0454468341738849;0.0718285425665845;0.0332522483810902;0.0215851218611243;0.27843137254902;0.996078431372549;1;0.996078431372549;0.909803921568627;0.753083987305033;0.329411764705882;0.0357451658864238;0.032050478322817;0.0439649908406269;0.0439649908406269;0.0297345063361754;0.037037037037037;0.0383596655886499;0.0254427030327702;0.0332522483810902;0.0469616060188012;0.027532879510897;0.050091382650715;0.0332522483810902;0.0410986423019804;0.345098039215686;0.996078431372549;1;0.996078431372549;0.937254901960784;0.823328523720138;0.333333333333333;0.037037037037037;0.028619580704254;0.032050478322817;0.0357451658864238;0.0357451658864238;0.0397134133930389;0.037037037037037;0.0264740409043279;0.037037037037037;0.0254427030327702;0.027532879510897;0.032050478322817;0.028619580704254;0.0454468341738849;0.356862745098039;0.992156862745098;1;0.992156862745098;0.92156862745098;0.782677853917422;0.313725490196078;0.0308780182584376;0.0383596655886499;0.022510075310401;0.0254427030327702;0.0425157141672509;0.0357451658864238;0.0332522483810902;0.032050478322817;0.0297345063361754;0.0357451658864238;0.0383596655886499;0.0264740409043279;0.037037037037037;0.0425157141672509;0.349019607843137;0.996078431372549;1;0.992156862745098;0.933333333333333;0.813037037037037;0.384313725490196;0.0567619995326081;0.0517071111412654;0.0585174028088744;0.050091382650715;0.032050478322817;0.0567619995326081;0.0485096682271524;0.0383596655886499;0.037037037037037;0.0383596655886499;0.0454468341738849;0.0410986423019804;0.050091382650715;0.0397134133930389;0.341176470588235;0.996078431372549;1;0.996078431372549;0.905882352941176;0.743387746794219;0.635294117647059;0.256403826582536;0.11222633828618;0.0585174028088744;0.0383596655886499;0.0847292821011526;0.0759715041726033;0.0802707857460555;0.0533572155505801;0.0621360411907939;0.0965910848768573;0.0517071111412654;0.0469616060188012;0.141884312971632;0.341176470588235;0.792156862745098;0.976470588235294;1;0.996078431372549];
x1_step1.gain = [11.4658091810272;6.61832011489144;6.98918378581417;3.0972773870678;2.45721608080358;1.95009730382055;1.92102854386143;1.9209912804011;1.91846894068905;1.93675391371221;1.9147544600369;1.94562839534262;1.89005641021026;1.95899335365814;1.91806798316005;2.29658439178051;2.0747857983709;3.36635678246939;11.8980527796645;16.2262714172668;19.2559898642231;11.774310826914;6.83996465209847;3.09139907684795;1.98666618403555;1.91770359580441;1.98011045845918;1.91130975298899;1.94881372436496;1.93337406005555;1.94607606180015;1.95723888954524;1.93188526052188;1.91812475042284;1.91254227602225;1.99586879847486;1.95206504591047;1.91865659869784;2.76571763930541;9.90688299601135;14.7971514394345;18.0007866643175;12.3649261515493;7.28071494191975;2.81223163687817;1.93488757909244;1.90495784158466;1.89804430207856;1.88608847642132;1.86885622909031;1.89129113600942;1.92356245790188;1.87228071412078;1.90824493313048;1.88321100144291;1.87789740250314;1.87930745399225;1.92428267304733;1.90236693827957;2.66371314632725;14.8070978994639;20.0526930557879;19.262725197147;12.6150570480797;7.63613535769196;2.78554985180045;1.93262225083614;1.89083664024849;1.89562130445577;1.90650945642801;1.88765104816285;1.89725515655143;1.9023492097379;1.8870709072755;1.88138272835523;1.92017405977728;1.91636436744339;1.89591273461549;1.86087675412829;1.92522450761054;2.79591812672635;19.3377591169545;20.0858755147341;19.2964660083067;12.918841127117;7.96768056740484;2.68332739975508;1.90355880749806;1.87570961229534;1.92115538486949;1.92043392590972;1.91000415715587;1.89378229735168;1.90423821553524;1.89338270475502;1.87122883548603;1.88443436785642;1.88905141769352;1.9198705457331;1.86543651927284;1.9094670301793;2.6238846461553;19.2878199416954;20.1102276593861;19.2874281655171;13.995852760989;8.96156078616941;2.4609219565594;1.93633407547177;1.99906273695847;1.89139022964503;1.88714676284985;1.89027110974662;1.87699096809006;1.91796344497488;1.87073918088074;1.91493216444786;1.88706109283048;1.90159722379767;1.94921404655893;1.97044915809625;1.87890425778921;2.43608695442375;19.4137022992342;20.0242237820045;19.300790524588;10.5239956531796;5.79461170561227;2.60807830535741;1.92379932538325;2.06622344989082;1.91383319926834;1.90110134864995;1.87820885378247;1.90565604446698;1.91696838732408;1.87601392051316;1.87584361484344;1.91538881620414;1.86690221006498;1.91748458957036;1.88219626071106;1.8968047458811;2.65034474859076;19.2651606306886;20.1280345085324;19.379643980711;12.2969229537555;7.34367560908096;2.6298925631321;2.07692307692308;2.06727138691062;1.89324808709658;1.89382481531777;1.99566379787162;1.97191828336767;1.90807509084587;1.97110808257507;1.88903977551462;1.8757607478967;1.87338041839906;1.88296706709671;1.88682910062972;1.93367715973956;2.69261359547199;18.6438335443299;20.2301793086386;18.5675024177777;11.2233248551562;6.40521105250049;2.55775482400351;1.90100071458344;1.90039802665753;1.86642940791435;1.87989108615915;1.90030966557983;1.90539647912952;1.8942898312207;1.88492817826782;1.88832608427675;1.88736730650697;1.90781847421495;1.87920530966663;1.88166391807138;1.89850925085937;2.66475164569858;19.2660529557215;20.0224757299101;18.5626482280805;12.0524162414967;7.06961088522471;2.81026066414853;1.92035188194307;1.92236804384322;1.92794633108011;1.92246191956997;1.87285755554408;1.92469361635728;1.91818100291956;1.88643500007276;1.89029078462741;1.88567740485084;1.90449875318691;1.89794813110691;1.91352570390719;1.89406806754251;2.64150108384346;19.3693172143292;20.0281500131557;19.2619969341417;10.3081873116775;5.70987866835983;4.37163286048441;2.37104942512915;2.02582899391279;1.92868347197384;1.89836424960832;1.98112582818433;1.96852701985294;1.97086185815737;1.91134026760486;1.9281806884652;2.01132282840782;1.91798726400327;1.90068795377919;2.09800881538317;2.65295746241056;6.51049599189485;16.1957037142313;20.0552748171267;19.2640757444584];
x1_step1.ymin = -1;

% Layer 1
b1 = [-1.1804094031714603;-1.0945305634298994;0.76212451516841317;-0.59557618268273194;-0.033168830857819909;0.30297568338455622;0.33164831906657594;-0.82303526026352125;-1.0527140910264161;1.3486564745054168];
IW1_1 = [0.088842625249418605 -0.042402817495708865 0.056216334608301347 0.15773042734465084 0.14321769546596089 -0.1686299548035273 -0.17161999654687043 -0.22561552050416989 -0.12913444253815554 -0.053917075721258631 0.076557249446487036 -0.051957670649989546 0.19849741742472382 0.11003769132224425 -0.099815972639834674 0.046088513304927706 0.24921325372672917 0.12700522638923781 0.10479485547429077 -0.019040362338658461 -0.13750110813666774 0.12969306177180337 0.19175069485239019 0.2871133188475688 0.3387771500504092 0.25400225668197135 -0.030745209438004014 -0.0049248176294723871 -0.52356688962310205 -0.68618604679637274 -0.017439049840006746 0.12501049338260387 0.0056702856613563279 0.25493405067206809 0.088108848659149849 -0.033227780384612896 0.083703696775623129 0.39211992080941932 0.071496635592916233 0.17940553268203752 0.15625616781091653 -0.070416325120989304 0.011618190742897775 0.072055314660022921 -0.01043010340771919 0.17580452307192562 -0.042681576763516749 -0.21805525918381688 -0.1642489121726988 -0.56161521944438875 -0.54047385403300241 -0.030365765908538147 0.045669538757254026 -0.03926189400490674 0.33563413600559411 0.37882855534814086 -0.096137626353626146 -0.19134296976983053 0.13017505014716946 0.058864801887916415 0.043028061336033908 -0.14792213811585489 -0.12207495117010345 0.047602698578104764 0.26110076393442233 -0.0087956835654786122 -0.16165150698239791 -0.040763431901056184 -0.023894250931515176 -0.09101410646492511 -0.24834075705034403 -0.54180010253461242 -0.3422905729834258 -0.51316762831312135 -0.35485901806669612 0.098731406655090184 0.34120897070599093 0.20280652581381592 -0.14077501393883071 -0.14037878408161739 0.07012445480844394 0.053618190196959362 -0.15560018850522619 -0.047907345230533444 0.077162203905547372 0.00095660417389716599 -0.27165333421310878 -0.13247848569025888 0.03827152585154054 0.14759933813474221 -0.093035330490712331 -0.32778790114919276 -0.61084555738038915 -0.53320511214842892 -0.62502637795846261 -0.35557409577236904 0.086365162828925632 0.29544513174717069 0.16658443995555802 -0.14242786217752534 0.067058117108840576 -0.1502060039409433 -0.1233961025199115 -0.0012547039172396807 0.021681886637291214 0.21567531517360256 0.24975852501772844 -0.088533616982304511 0.1108382187191138 0.38050799133812979 0.091820355319417485 0.10577654353049001 -0.24880138286506109 -0.10435683124228275 -0.25679370587197348 -0.094361295987095306 -0.30481868208301854 -0.18945591997104155 -0.029563738606069305 0.21166840375521709 -0.060355728465065178 -0.03669840847907227 -0.116101837517176 -0.17542272735630204 -0.095743086130081548 0.02215219383375519 0.10390493813741992 0.19692135462653923 -0.12367267101894568 0.05883708366077308 0.12083302901979563 0.30547847115382254 0.26794294992902506 -0.14849749646288685 0.17000479516713507 -0.13591087324274254 -0.16135946956185823 -0.20407747332465204 -0.13315771527056522 0.14226197831008816 0.4115858440748299 0.027130939612733749 0.063436015630830206 0.073235768473797633 0.027857448550572959 -0.088827574128407152 0.0030073785498046538 -0.021141271513330496 0.23301607442245073 0.093900876426253235 0.096605695654065057 0.12650533841448425 0.36335134335258917 0.36010658263588829 -0.032335655083840897 -0.38655257339601268 -0.19843912401655409 -0.12802265980955441 -0.15872275214752204 -0.17496519770024879 0.30355912926778111 0.25000822324298727 0.10731142612131854 0.14134375506688895 -0.10686529282274018 -0.012585077989861158 -0.015230772877460318 0.040689053968649677 -0.11631602784045944 0.15179765634859529 0.065813097531833981 -0.2407820645214063 0.020770986939967703 0.48768941629171597 0.6936316181373815 0.27089894936329023 -0.32163106862599322 -0.35377394050086042 -0.24831326166488166 -0.049692544468296927 0.14402067160005874 0.23362823861180268 -0.055773913900360274 0.093009975462028216 -0.021511242875845188 0.00058834110058932554 -0.064620219388267536 -0.19129018074363274 -0.011759688441991144 -0.11172938178391856 -0.011610456155842139 -0.28372864180744933 -0.55135031886114216 -0.073640647566344156 0.10601508737558117 0.36293743354125391 0.24532937480823511 -0.0038890778001975154 0.073835501702632658 -0.15069603514176738 -0.10249715996877075 -0.16023929167616893 -0.21709845800003433 -0.18761763700935924 -0.0024263487028949367 0.093597399424156777 0.14656529385386713 0.00021809688090135675 0.021108399224446527 -0.040477469861838707 0.12968585385510709 0.23796046115460512 0.36069324087928273 -0.029562580433887105 -0.26953383550409282 -0.027013238361121072 0.18329290561084424 0.18207610218542378 0.23618425278788407 0.2217944581079794 -0.07836155846306328 -0.01765290526415499 0.11026117318313834 0.0071347236280020253 0.018327641663713302 -0.058070262600475549 0.17290558045454846 0.067933461494722361 -0.016392003326838121 -0.092213170864193617 -0.013104757117688198;0.089086338492019218 0.0077801697115183355 -0.052309784845555207 -0.0045271515746840496 0.037423884442289231 0.085302427635405256 -0.17356053765509072 -0.19335902263243301 -0.12546979893449126 -0.28459112295424627 -0.1283764075807437 -0.049306300678568102 0.10424901727899932 0.036194284024677136 -0.0527840055758379 -0.080056221111024881 0.1274698842740149 0.014288767938499525 0.020088311905879095 0.086728724642586061 -0.13550787800392022 -0.047860177807179376 -0.056204981318804741 -0.075601633364803286 -0.064399428117560928 0.059623365671161381 0.016856712234617471 -0.014535248188269304 -0.24950991245829685 -0.32235191470515467 -0.12222406186186825 -0.13655854467551626 0.039942509728171254 0.047334170157495574 0.17632565813503639 0.1229708823778079 0.080813794185468538 0.31897577043079089 0.23045631006067549 -0.12770101675949375 0.11342598018138798 0.018288141968682982 0.10700221428383173 -0.048833725804605856 -0.10645442009151199 -0.070779948033101184 0.20837958689278568 -0.050541683786302846 -0.05498109727890841 -0.22484846502841666 -0.34591234129354848 -0.16423858290023707 0.14080006811644535 0.065210814836152556 0.29962580952003631 0.42715776436502373 0.25328919820821622 0.16546015726440214 0.50609394610142 0.24688612155650863 0.098852402171126674 0.003581321435046273 0.068837973369704167 0.022341705733802883 -0.15920476976303893 -0.021199516451813945 -0.0072721459087171465 0.11449566004867884 0.12471059891573581 -0.08528140005501611 0.021786048920725803 -0.0321529695965794 0.011341266422615797 0.1179801014829049 0.0624102479118104 0.18625648797823621 0.52680509938685116 0.50426653350555406 -0.082832188792332465 0.30352770035633392 0.0038198070721969964 -0.0016628394204475554 -0.030965043458127266 -0.022401015109339676 -0.037275840194773507 0.010423938516897565 0.025097437565083262 0.14364775852012593 -0.021726949841753621 -0.092531497116272218 -0.10056139265879595 -0.0038609514474992391 0.48932948393229747 0.44233877063001553 -0.0075716374118492647 -0.15335820904111214 -0.023492480595409333 0.57014786198220868 0.20918872808527075 0.27632688538304007 0.20453791925320569 -0.023945409017412773 0.099002305872931892 0.058703293610569106 0.038735686328260042 -0.023451969792280394 -0.032505816195418445 0.070968736819088496 0.023142886093651796 -0.20881019036537835 -0.29256915870212341 -0.094404018751272023 0.37000089364363453 0.057963319829087909 0.10175114190061352 0.0062972934671262724 -0.37421052391336285 -0.098866595723433412 0.12999384261607205 -0.02330507367649182 -0.20471979006680854 -0.091202573601308581 -0.033332016020323402 0.042389282901168404 0.028188291616872894 0.026621046690724126 0.098972758134232799 -0.069657428127652105 -0.010439480611896736 0.071663653622851292 -0.32935192415472275 -0.35039271461484717 -0.27027649360945388 0.48710064869208658 0.4132835471501895 0.17105181724303567 0.13407984343882051 -0.17637254605653982 -0.029070292689865659 -0.031614211354548269 -0.082596208022595249 0.13119011607998449 0.14125839255354297 0.22713905081610641 -0.059866497776036927 0.01235474903078383 0.036333336806258727 -0.07775551206766361 0.11949360466919361 0.21482358976656149 0.13832609457401449 0.012082601681757985 -0.14552838590358957 -0.22684101420752711 0.10545614005130773 0.44496804662317463 0.29487922155690433 0.19350975620620109 -0.048277236891831291 -0.17945900739142609 -0.36673570137648143 -0.14909449322310078 0.25497599047921671 -0.055698929819648704 0.20384718491339968 -0.0025320552566136002 -0.13206054998058711 -0.016909638285147053 0.050774799159039735 0.15592202871980937 0.070736104515877141 0.046276706051984529 -0.02847593476276231 0.14870686430081034 -0.39494983518409166 -0.21601496189298094 0.096146069089332681 0.17038411551206589 0.064300057731147636 0.03569000811030551 -0.093144361871043524 -0.26273295109614608 -0.19763090133550992 0.045961152782303401 0.28594408528231985 0.19974306258742139 -0.064658750035440499 0.044286655616676329 0.11084267664426575 0.12039168563345941 0.050033696072915107 0.073701961644443356 -0.025785379482139888 0.16687998662600023 0.07805808144630276 -0.1631753753199463 -0.38136792596662805 -0.36133994307657924 -0.20670842377695506 -0.30565079458682837 -0.18919017315354467 -0.24145957423095776 -0.024431733868813036 0.088021208781245058 0.34351719381044388 0.24363048182441135 0.034359538781081479 0.014799950462714715 0.019544557874798724 -0.10823637356224668 0.017039588062692766 -0.0073377488732217083 -0.13533202845498835 -0.13011604905758778 0.045433532173864172 0.05782237914477948 -0.1436293796573819 -0.15438216173302025 -0.12284582364364932 -0.085912572273783822 -0.18306710626964126 -0.1934869015604555 0.012822271010291165 -0.17864215774637873 -0.10705624744477203 0.19807770907901276 0.10833110841101826 0.12204646967027036 -0.11487684561806868 -0.063534099087112147 0.113097250204844;-0.13650280236032897 -0.011635282594382925 0.05696064316376858 0.068924813547695529 -0.15701348109463753 0.084561766524635582 -0.076310759408960399 0.089113994849671793 -0.072015894590049687 0.012344854379545153 -0.17144798417150309 0.063811060779294423 0.060589211470006323 -0.01177008766675219 0.14599428725243238 0.10485450542353711 0.21155412917668889 0.12657570710895796 -0.0028870008205602667 0.12251166157195777 -0.033860945491980848 -0.15931448219822078 0.083179293035898674 0.088853028014697813 -0.16752239726932783 -0.015705537440069372 0.18827315863200952 0.070280386996032146 -0.0078605288629757606 -0.14248380442334868 -0.35439316649068014 -0.28863352574561646 0.033456531978746415 -0.045675408789946303 0.090677003554750113 0.047056126613089604 0.29299314501067736 0.25553787302205855 -0.064964540557449255 -0.10124388428323673 0.14462637742343776 0.001978933993488106 0.075323158445074201 -0.086842881313853149 -0.10322360893898573 0.044883074708331777 -0.18688785942534644 0.23332704227224793 0.10937418293166147 -0.074748859374555859 -0.19881683938608924 -0.12001955086413484 -0.18091811552019305 0.023018325393153818 0.018457737150881559 0.20361564188626946 0.3067328240649928 0.077129446359408632 0.15586667074310853 -1.8493488225152703e-05 0.032131536197438276 -0.045640237385203876 0.080922081450079897 0.14212214226076017 -0.15753780865075728 0.014060606109643043 -0.038362678905800501 -0.10994014801417848 -0.044835527651735166 0.1193121470797323 -0.21995256064425184 -0.12070798668527873 -0.038168216455906748 0.037992791519468862 0.0034047863471146538 0.060842778193151897 0.0099235863396484325 0.090506651720720074 0.023815117431915871 0.078502276696871334 0.14749147541319951 0.13490456246249538 0.13162196776064422 -0.093510046643752884 0.026855824039941852 -0.053216733511206968 0.060085913222437795 -0.092389414352316721 -0.00099672154220399297 -0.069384090531750764 -0.1285860888913318 -0.10086992731754234 -0.13055614970658957 0.097150493592130766 0.24513001936533796 0.039657032101998037 0.00040130118066007171 -0.026504251044736443 -0.01582958768201146 0.073828151469210457 -0.077505148132414575 -0.00055409411622903224 -0.12036399050124046 -0.036583834399429242 -0.16080842579546395 0.0887220191945777 -0.025334731476496411 -0.03039035265857664 0.060624268802397442 -0.10165929724852694 -0.211065660610669 -0.0061698019994724648 -0.080611997087140286 -0.18244628994763393 -0.054189524402254718 0.28033410104473883 -0.052515297885307149 0.20050983039554643 0.034397657492370309 -0.13666336787521435 0.16077736951964633 -0.02909479113664426 -0.092129271856854683 -0.014697280459320452 0.11295054025948631 -0.11193619485346348 -0.057594005566823488 -0.087502572341581805 0.022312804184483458 0.01623980649494678 -0.16553018985048615 -0.071474496794554393 -0.30956847589952757 -0.070875792800149148 -0.0019055440550993868 0.20379062438599688 0.058357435978045172 0.044514578047968281 0.061135199530809488 -0.11689362185007976 0.013745969191994748 0.026906024588551538 0.28141823218008799 -0.080602541130651337 0.090841514512809612 0.022184188114339452 -0.010994088196729463 0.076075950806823375 0.0098588272436627346 0.14251082388124345 -0.01190309571640626 -0.11167429135053421 0.13931847679085019 0.057391260214795292 0.0072847878971893645 -0.082014740997874355 0.16137624845284285 0.0052774977742852721 0.042503114136024575 -0.070880014764447885 -0.088366116331346528 -0.090586263314884757 0.17711356840545006 0.15710101609883034 0.12148054022371131 -0.082253869345091352 0.089369311952310085 0.12512214472570793 -0.16422538030205494 -0.15732546601794881 -0.19745814137626908 -0.019499512845438816 -0.22176898590509958 0.020411108523021349 0.064391153891139516 0.27627276418871261 0.12169379153489573 -0.030684241626009873 0.10902066831911718 0.05565145084544286 -0.097082027312368063 -0.022863586205266528 0.088946757580558741 0.023671635488185648 0.28159354066847847 0.20800870208441871 -0.048495763770090364 0.11647814548344873 0.076222895829030621 0.056133512279117719 -0.14574205981036181 -0.11670505321885878 -0.097842853463610602 -0.012888188085215403 0.054250810190255787 0.19439708088934304 0.081230352985622159 0.19032982244227778 -0.1407351477464959 -0.084382253688906686 -0.09664635531849608 0.0379076155137026 -0.091827639778195275 0.041007715464958662 0.2243049209748561 0.075664133004474415 0.0019407646139259164 -0.073826411928372748 0.019995452363239349 0.039157626311454391 -0.0054433203795686246 -0.048628296184298446 0.10208314333682947 -0.075624142314202558 -0.0058930025104627012 0.055296790009525268 0.016448779350113209 0.011178899586331925 -0.10977587326984092 -0.13901030259635105 -0.031501490442939151 -0.15386850666723301 -0.10295382826807284 0.01164230556347636 0.081461368880149501 0.19827667475493427 -0.045702458769233248 0.097529367985081522 -0.14610222031523065 -0.055556515179112906 -0.072624987114422751;0.10774651162387819 0.081000587818620101 0.017400761083501418 -0.10453173715024167 0.035479250650032441 -0.1286116676347549 -0.18715012200508149 -0.027195137396252667 -0.22822904195032315 -0.15614824377651701 -0.1082501427491204 0.065392972621938855 0.09655833484761929 -0.061939808535006864 0.070413413837389013 -0.12313892176607187 -0.012601624048540752 -0.064490788533129853 -0.014818819942819762 -0.058725506173921575 -0.041514725625049896 -0.14563437608214708 0.0010408811787073395 -0.046311233519345262 -0.04054375240612651 -0.21833773904178153 -0.10464138075067422 -0.071016469122211878 -0.14658557369320654 -0.15684356326809915 0.088817670372599231 0.21550456086200648 0.31588945286367781 0.37694746267388207 0.082655646354244203 -0.11677702130015225 -0.072909195322477166 0.18317296379775067 -0.012061519699697588 0.038364898597013336 0.081066871314632916 0.04328725179470494 -0.086466240033595779 0.011062720592383305 0.0043010455446346489 -0.065921959570717031 0.14432940473949835 -0.1055208359821135 -0.10359948648880231 -0.19478809158300076 -0.13617985753844492 -0.01967478250215 0.35485010586226151 0.56738370450928932 0.55749984541929831 0.097676908673412124 -0.11189239715089883 -0.055921432022717404 0.28356006519956284 0.0065022144353096192 -0.07952846675139319 -0.069054157345039308 0.0038662254264976064 0.054418772091695003 -0.10139166848846984 -0.13854693957376515 0.043094226497037834 -0.082879138870490532 -0.090883491669617025 -0.3904367404142306 -0.022296611017906236 0.34005166715506319 0.30017860894993648 0.3144982807001514 0.35134489808389052 0.51833734708097601 0.2214338968603001 0.063562603780234206 -0.12134777133198106 0.21083836420598942 0.11151262154007167 -0.082778332006636562 -0.10790047300743102 0.072856226676747987 -0.13527503506048932 -0.11275294439841116 -0.092422178785488113 -0.0059357024278516709 -0.13809734237030039 -0.22632664644841691 -0.44599772452313613 0.11372848891659534 0.24016737621699411 0.25255707283770495 0.39577712017815525 0.29304696844692296 0.63087797174027604 0.3893816442626975 0.25255466549281969 0.16990096059488816 0.08007851509658305 0.0036690140607921942 0.058639691418254238 0.08846393797771844 0.12289795563961735 -0.072038627582153764 0.0050362401666178072 -0.16119003106039476 -0.18115183615140806 0.0030078609553090751 -0.3590113859227716 -0.088259937657785434 0.11475063698136301 -0.11867968827776366 0.20532936185331685 0.29924097797099247 0.17302906042171745 0.27895155690001916 0.17682537184676336 -0.029133410987682108 -0.21312222466266909 0.03417625228882433 0.041361311189728051 0.045162949495166443 -0.094558761691503485 0.11344016276676534 -0.14815504074570354 0.027400673139544307 0.075367655110877771 0.0052623101577742226 -0.16758493923197326 -0.31180120950225804 -0.24118445393077312 0.1483638455675215 -0.08784386787731463 0.20336803884818597 0.45274740278642239 0.32584371185470845 0.25178844681913937 -0.019555842570072014 -0.36520954137118317 -0.28498261278997261 -0.16199967428411655 -0.1261741948667611 0.025762966501946413 -0.122210253409911 -0.079842346857369351 -0.14641506822138223 -0.13348091570557799 0.02819540053999102 0.24844527662919375 0.29873012610492661 -0.052253989798431197 -0.15182561738026473 0.20480020488367309 0.30429111868327779 0.40474017249108829 0.33422091364686396 0.11226622517252476 0.030729533327550042 -0.096861499577271346 -0.19482096392794196 0.012747203958984012 -0.093025724146310051 0.18208462750163615 0.09242031864164757 0.13686867992025764 0.06879147479371793 -0.030683543615329274 -0.16638457168818654 -0.029744260622019614 0.13167198814860559 0.043971937684589901 0.10118116715487988 -0.20947138482610245 -0.014958090438952937 0.15426583388653428 -0.086618919684366399 0.058951392378644996 -0.062302841545052612 -0.15884529698663657 -0.1279811886213793 -0.35917905136704964 0.042238405784713932 -0.034073055549838402 0.1042915070439977 -0.071853967993975129 -0.01765590478709067 -0.0099180718101949672 7.1204332444686422e-05 0.056980078800587891 -0.10042474175578033 0.1303116458166757 0.2968844871498395 0.063458008840977409 -0.21735598247070018 -0.077165695405416942 -0.29323132172041316 -0.13860062128473147 -0.24303125334326511 -0.1948018791747563 -0.24784865030762163 -0.033279719929799154 -0.22803891405429197 0.15480017870466284 0.077669302706371804 -0.097900233551201837 -0.0074844556859912231 0.068684183707440366 0.13664317160844996 -0.015944064774285394 -0.076935719537286409 -0.19374408878046678 -0.21902270325182488 -0.041905995770088467 0.19513391662556551 -0.1585088116599844 -0.21236733589120882 -0.110701020000625 -0.090270646370639626 -0.33774358733063009 -0.096682057398158106 -0.056172213024297202 -0.00669675063186364 -0.024368151770706142 0.19452675564306673 0.041403374289229189 -0.1426729804243487 0.066940459772347333 0.0095220334958442641 0.091369988425438795;-0.095245637589565571 0.036711804833186548 0.054279336398961348 -0.098572176876818837 -0.040818277799841853 0.069625866172318265 0.076921711008718585 0.10496106715225208 0.14787442556701105 -0.012519889787557378 0.12385764603504239 -0.002793487646112034 0.075035921341212369 0.12763108097735495 0.11533166775010782 0.30433902479807723 0.094094971705127442 0.081800941228923604 -0.13389599000559213 -0.023975501701659997 0.13041331989250771 0.007668058600557642 -0.064050857532062633 -0.26189680420241374 -0.28624394092274374 -0.18792914954441187 0.32098758243730624 0.33216260698239852 0.087210355381537083 -0.083551562615859248 0.020405670810332788 -0.074454290698322059 -0.022754292784618369 -0.11674113694145478 0.1931477777904384 0.20959775626367905 0.29985186268456193 0.014002402924184552 0.0032733759617875257 0.0097136589488828334 0.10626282855572641 -0.074902781158645307 0.1083595704608807 -0.14253492804604337 -0.030114602383645148 -0.16605355447354433 0.18634637155672237 0.15881011504441267 0.31832888409351989 -0.010575405828030834 -0.015362268280871673 -0.23665570336433436 -0.042954236701161129 -0.1229829859660625 0.038101747408472914 0.091625472763539176 0.45804519789326942 0.2911623666653263 0.14583913831945236 -0.16494630791744677 -0.12044335116383421 0.10888423905644969 -0.096429423914760434 -0.022336233345475701 -0.19986012840571069 -0.012332979084390541 0.019600376173496106 0.17511706209489303 0.066516301919775853 0.16050093325362838 -0.098722168968305907 0.12431581982243718 -0.063291171732290485 0.15300873574095758 -0.027840645271718392 0.17558755299246318 0.16084177159183338 0.25195370745315665 0.30839342668015501 0.055901904793023711 0.090493494804142399 0.1999371564346169 0.10419291552620413 0.13786634888576574 -0.078825570586482652 -0.21237314632942436 0.22106192543051362 0.029206486216869092 0.19568337539440128 -0.08894600530240282 -0.36195894188667127 -0.12195684063525822 0.039682959263740859 0.19316357342174312 -0.15328602122803892 -0.099332282320026666 -0.10447126819530393 -0.1957135718904166 0.20906781748953943 0.26907081731977633 0.24160921810195507 0.0010119448825166668 -0.082952756971421807 0.05777826621514294 -0.026424581933235932 0.013664626106555344 -0.14521749436832687 0.11442042527729973 0.097291243512324821 -0.003385264889639388 -0.19759755272651225 -0.35145175157822939 -0.19987540790173158 -0.26179712473785727 0.017157029025436775 -0.16965264879082098 -0.05448844907767534 -0.4405243238962121 -0.24775896725325897 0.051504557753999362 0.2933331804735822 0.23690962613472244 -0.034636197876236008 -0.059432659918938979 0.16224281660256712 -0.00028641538639723467 0.018519256217569179 -0.2278140977163553 0.011000682022316336 0.16250107536422395 0.23898762767800077 -0.10430495744501954 -0.50260621949503093 -0.22913978096917215 -0.01433744237119757 -0.06511028052462324 0.0026860197598111047 -0.13093677912519744 -0.012777272500130795 -0.29405519715710604 0.033683883370806168 0.44239255043797143 0.20419817019209727 0.11529880994138957 0.19855326325624684 0.0051963157236442946 0.032505713508105272 0.12006901945863202 -0.15570641047023115 0.1728809645070756 -0.014947608593708675 -0.040456112644127386 0.0018238310117398599 -0.2085734879425872 -0.089057706072030562 -0.11946024027057937 -0.022826116413936028 0.13338799152906924 0.14906990770997286 0.044963939345729932 -0.14694203657921376 0.023362777042385728 0.39971370154871955 0.10436278301328056 0.00075527583596435906 0.041457034069786104 0.17988880313019481 0.092695049700313309 0.023389321526368731 -0.24200829352097364 -0.15442575106166115 -0.12109284522330523 0.040825004233318536 -0.0021244395643196037 -0.062969467963797418 -0.090039593048025751 -0.073993544029475292 -0.11894942978145615 0.20080971837886757 0.14776512641434433 0.38081682552636936 0.060541017827849118 -0.13749598901651433 0.023638571729842024 -0.095812512413452455 -0.13676295592248222 -0.021402522406308602 0.11200498714780661 0.096499771316234606 0.19398824385036914 -0.13146226063836911 0.063966024341126707 -0.29265651636295165 -0.093647808139606062 0.20211042125112408 0.040985436856391208 0.17593082298527615 -0.01840821513309053 0.13539423913559856 0.32714701287560211 0.2074816221096818 0.11772277074933939 0.081458573046538918 0.18691375498891522 0.14744065933131659 -0.078497338018039473 0.070678538192305948 0.14449645350810036 0.087690805221792525 0.22375200101774076 -0.024968151031483123 0.028112701617359428 0.03741519632198495 -0.19916170914879894 0.12819738429521116 0.098084392478276147 0.19621025646753457 0.033427402650633355 0.13330753236876658 0.2086593285033117 0.20797599231769218 0.15359171070074182 0.1284203605367297 -0.016651254391706914 0.13214811952642297 -0.08931621679807443 -0.15858731860518724 -0.10156403568403158 0.028877370849001337 0.11905358002063557 0.12978181257868901;0.088800412623867606 0.16993203036978208 0.012323813909628082 0.042912579772352737 -0.11834479563697273 -0.2675598649493065 -0.015021641952751904 -0.14194152039953029 -0.15081104726737862 -0.15079347462188694 -0.37267433131223537 -0.064588538179182947 -0.0503959132951039 0.24241262511951456 0.096201122238226758 -0.27442088562332639 -0.17839260298896806 0.11549309345479496 0.078528637405643378 -0.12637299402128963 -0.061772492652896145 0.12864087272510896 0.1750229650175486 0.017674661858406229 0.063957931387251976 0.11051577254959177 -0.15375126403641287 0.10166916165090581 0.060785985654374167 -0.40116010933127694 -0.8153450484814172 -0.63394256175262842 -0.39800319934623152 0.12334843117581346 0.26758478668691005 0.19944758751799527 -0.20773143611859543 -0.00054533726522970833 -0.1051861566546001 -0.031784651281447508 0.10614622832063894 -0.1523923229469227 -0.0018352490439636814 0.03619014280557091 0.17018262049537333 0.18886524544359012 0.13928128718132929 0.11145867718812169 0.046738383497073835 0.025089176420599588 0.0074128991853194817 -0.3685191842556006 -0.62248840154547314 -0.3774253475851847 -0.10927145024394135 -0.034228542982651884 0.054584346913618173 -0.13532163606747327 0.0046357250997571698 -0.024167574391494837 0.12979335223588218 0.061948260740101457 -0.0074940947683613205 0.078359048709984225 -0.037240978852984323 -0.013030783703541753 -0.10733321220511724 0.15562378238744418 0.20519715717955594 0.20328924131617682 0.23050172208481762 0.049736419814707479 -0.097217399956680911 -0.11838516562508067 -0.41194574398776695 -0.42162405907079498 -0.36430200205263757 -0.077332256625402218 -0.21567856476529812 0.043722229380204668 0.22209217824818944 0.03060895006566728 -0.024330903132382942 -0.14205631910004335 0.049560998672343003 0.10113984394363326 0.12437801253961836 0.075556296168366621 -0.11260262717172202 0.17408901363962914 0.37023304698934334 0.11363631779608263 0.26706695615573983 0.29626817287462986 -0.070386614527134753 -0.26072364175197515 -0.57371773125739223 -0.40300387442229041 -0.22790900867168537 -0.15558554781823866 0.054821156971165276 -0.047407893920883425 0.073323503222753189 -0.016704610573166606 -0.028328104512132767 0.016235156320406535 0.05624314827997566 -0.072537847821076154 0.0079816469554598035 -0.12673777742175646 0.18681202236395913 0.41999305740876919 0.0083704051643697149 0.12252856673588781 0.33838143582714703 0.39688007985318696 -0.15722429633568794 -0.29699404453598954 -0.059815506261582295 -0.010532633905943306 -0.15224187811500287 0.10023209843001417 -0.27712683891262824 -0.083986261776492752 -0.1823936422846508 0.0060221126196897349 0.11638447060346437 0.16068045870021327 -0.12184932871764369 0.02586894821054548 -0.19523945219255995 0.16856202732105383 0.29481049109226887 0.19534337596576884 0.19345926876797229 0.43939563201218629 0.18794575382632242 -0.13227237058655175 -0.052894505878891343 0.08245451969528296 -0.047972975097425499 -0.10833247479868627 0.10113951258237899 -0.30567483707126408 0.0071447262949834297 0.026467737799968642 -0.010387089579515391 -0.04727367540234223 0.19582565939275751 -0.033278755404411817 -0.064801330683092545 -0.11617704383120687 -0.030380101915734269 0.080269347211717648 0.34959845600776912 -0.031029666750704839 0.044791231122836027 -0.11432443751768308 0.03820405716856886 -0.00018235597194510809 0.35475343739533566 0.17360015821117103 -0.11172109152989576 -0.011600297486984604 -0.0075216400000359361 -0.057632910078383212 -0.07410500627331093 -0.012875767815005585 0.13142300415964292 0.18375702387057605 0.075601669897875035 0.0027893851306180092 -0.068110097407839479 -0.17353228107121385 0.16974405561507697 0.34562132232196879 0.12721227614636352 -0.28432608519359448 0.016495577079347616 0.19301484007132982 0.39295377547227356 0.39614904769472398 0.49050563087247484 -0.13988908757214166 0.04444280265614569 0.13674781209077372 -0.020661468099205455 -0.018517906600645891 -0.025311165564114127 -0.00088520354196524784 0.013778571326811036 0.076855021651912159 0.17058741224217688 0.21018266288252124 -0.16176922180307374 0.11050306496914093 0.086160738533591602 -0.098894369744573954 -0.33696701766072401 -0.13412230619577512 -0.0014103895569223107 0.24948860309628626 0.45466924773753536 0.32100790275724855 0.014746082625123851 0.0034952839280687816 -0.055745096779110111 -0.044300317388422807 0.069412263670459079 -0.0033325410487685578 0.15429209240514863 -0.09175147150649493 0.042386365172934752 -0.016799839770911474 -0.18914056328864193 -0.13169623468963068 0.14410969147470146 0.16237827127160576 -0.25212323891127814 -0.3440336650461106 -0.16198601953564057 -0.038660589032514792 0.10919056618180892 0.2156610324205708 0.24573640924760587 0.1995120669105461 -0.00099346854228159437 -0.076114145769670863 -0.14220564339822475 -0.01672908782745482 -0.052817346046284505;0.097927024431556292 0.031990736937509957 0.013746184529794363 -0.10034173199343707 -0.2045899400771217 0.017572025653721568 -0.11564963991449499 0.043009105023379339 -0.033975654381708471 -0.074443633669575335 -0.0025404126518879661 0.014582709523959222 0.077795085353150287 0.066262704232438741 -0.084469113447565067 -0.010122864280338643 -0.013637639052943183 -0.21507602967282441 -0.024396916227995721 0.12805727047227849 0.016876212938571829 0.019760004132291512 -0.02364964277625738 -0.025619591252150076 -0.073588466714998468 0.072450326069096016 0.00043094839112699929 0.043337789966379527 -0.17237783570414639 -0.10915302088785078 0.083969954549993037 -0.14712547637751935 -0.1067544430764254 -0.020310042255579544 -0.077568696992124986 -0.021453374023317304 -0.10686206239691214 -0.095083124237108241 -0.062132842316826899 0.013709178172035038 -0.11067141162395576 0.15886893153840795 0.037324852906030929 8.2126733049576748e-06 -0.12536884018254357 0.018637805309922307 0.084675891947075768 -0.11267412633685199 -0.00089888766305572612 -0.071457560467583087 0.096729831581406397 -0.056092891789298931 0.019478541827996722 -0.1111323618657806 -0.023221345909985605 -0.16591150176323788 -0.077395767594664919 0.12070444395883145 -0.10659081807983986 -0.10342303627606515 0.043152567522129398 0.17585863066566867 0.10570816079315984 0.12346816981239037 0.034987956112343323 -0.064857945691989355 0.063058510408498761 -0.13874677794552701 0.081964158170209467 0.043643679016501617 -0.057337145434521196 0.141509569243122 -0.024982119171996067 -0.11212556027028668 0.023521276397100829 0.25110044304441614 -0.048910462112631434 0.08201764895483854 -0.077240500180055877 -0.10314267764292953 -0.15435660893165781 0.039056650225412631 0.22205689834702902 0.17427133060970015 0.0087332418044728209 0.1235827186046701 -0.14389853782897824 -0.076691435098814764 -0.045365219461896859 0.060068607900860244 -0.25794364128981145 -0.051735953791647492 -0.055625473001224481 -0.15043913071788542 0.19876309607906423 0.15664494302367118 0.096987580262752629 -0.082187283895572158 -0.13741749301274694 0.024141638431723515 -0.10213974976269055 0.055885074838162879 0.017339091700414106 0.15241539167634835 -0.0006774268140110984 0.12638527098499103 -0.0070547009232096794 -0.19000539460230176 0.080538732862443896 -0.10331662848302461 0.058083074765275022 -0.14888229440175285 -0.27188778561032567 -0.29581403716640364 -0.12590796073978239 -0.095411419848203324 -0.015046654389435381 0.042985386152505294 -0.025233749211973779 0.0035134463644369948 -0.11177402071092907 0.049906656933125029 -0.16795719136222495 0.23574417130572831 0.07733008744966384 0.17422730296705061 -0.096170600348954527 -0.22470815410861783 -0.18068696771195183 -0.033370633718656346 0.10548482121853238 0.12540204556953446 0.040144459510026292 -0.29509203318170718 -0.070717512434854857 -0.067509715392956846 -0.086200858949612671 0.016606075841730027 0.11704314795807685 -0.082516792071687009 0.091452800072775231 0.067144247651734115 0.1211147425923836 -0.11247408718105563 0.07253031348375033 0.096356754139727233 0.25631047247432137 0.08220441799686537 0.04613558224213464 -0.13196202565513501 0.04723912293290268 0.00045786438766325528 -0.058603562150008712 0.20403637241177883 0.050672208975888679 0.045752392164837875 -0.12236137318098568 0.14287489961355226 0.13010595568279706 0.084849054673805949 0.029810928905681933 -0.08112734378928084 -0.035827196606393281 -0.064896940489105298 -0.09788222576890318 0.12684105146094646 0.16621643952400411 0.2245592751719373 0.113587995737647 0.021529560852771981 0.0025952739434747262 -0.015295358717034253 0.10025294813722058 -0.10467909071614112 0.22507425019812394 0.15776961601120307 0.17006314566075284 -0.086225706378969119 -0.13595953512616649 -0.011372249349825413 0.049312107235670442 -0.068424761964040556 -0.16570000639327867 0.045655699597720784 -0.11697308708891241 -0.043194061604694481 -0.066778582687160304 0.17684706961205454 0.24983911866699499 -0.10882403499655233 0.0059010170526602058 -0.23135676669039065 -0.030808622610313582 0.048914271348715843 -0.013403467637096485 -0.010188237777850826 -0.057842341229586473 -0.054852795308543284 -0.014312088275513902 -0.022835360256961458 -0.10809155351084294 0.15394357577365558 -0.0555410773150425 0.018381604993510145 0.01083093429928321 -0.052177452887510481 -0.16242007968234223 0.081853032362059833 -0.07387088095074186 0.17190096965499396 -0.14465418883736159 0.020703996242018009 -0.18793105351336095 -0.27379304795426218 -0.050532776886478704 -0.11281002578382625 -0.16310744255719611 -0.092464132731180496 0.094575105263317846 -0.10817021957035361 -0.24913564376514868 -0.13601076055781325 0.059186346592468943 0.096232228435002468 0.055970896137866981 -0.021252251630152083 -0.098965538963150149 -0.11617083399848929 0.068962247684840314 0.22626877663548531 0.036905729361575795;-0.052413835317687403 0.075038313762662137 0.036023221790882416 -0.056291090444734286 -0.098926672182257133 0.012646104546000427 0.19274729939287291 0.130591946604453 0.16155786053444202 0.15711973628441114 0.028467859281540248 0.073368675397751298 0.017560530384464961 0.12528769150938546 -0.015433029940182866 -0.048771917462097296 -0.17869038815782268 -0.15896333824251432 -0.019135931805777572 -0.032319727233047706 -0.14914002663719761 -0.061851007940594019 0.0012175716534242528 -0.037545126004289948 -0.2402902561181294 -0.048050205326770151 0.12481553020911552 0.19265057326558752 0.34011310723839644 0.20582528493065463 0.075708331967519221 0.19054294236336353 0.15572483139222607 0.35025875276299828 0.10049878016152887 -0.14054989329318268 -0.037443781382337844 -0.24563059000193635 -0.18584294130329124 -0.10244900288180046 0.013841004784775426 -0.085037423202516046 -0.17874987566052136 0.028021304558652493 -0.21713822900162202 -0.27725716221200586 0.023899822442495579 -0.075394832239286169 0.11344888412081143 -0.056884366788147775 0.081441480833358199 0.085489050039291165 0.45426953207158904 0.5501981333109397 0.49829787551157856 0.058312804359214154 0.077372716482258963 0.00328289829667461 -0.2642003779568417 0.069551710901042715 0.03866412378525156 0.12420176901823028 0.11957699663293546 0.046544538753284632 0.061720879410226269 -0.016981841239057046 -0.25939584680381145 -0.073583704683447063 -0.066544727145279606 0.041484576273973596 0.022612119467612945 0.17530496644032367 0.33848285639746528 0.51444082800334379 0.42518335993302575 0.31547120195333228 -0.063209633251543523 -0.052789828155583425 -0.00070885814198280153 -0.023441743070857821 -0.22262097404697015 0.0042447773068837909 -0.099004907716740531 0.10802121555204183 0.1187963821710406 -0.085216422872147229 0.021159226977029429 -0.024841505437015011 -0.12208787566622084 -0.093511167726029049 -0.31819572828961196 -0.28220250027744442 -0.01593051684452074 0.3451947133431193 0.21689114282425037 -0.020042126065101192 -0.11894576323924516 -0.023140133122392825 -0.13614910885895487 0.13613581431480135 -0.10357568340836622 -0.21658990873026118 0.096260224732706415 -0.11056078198706688 0.066295645021991437 0.099627314480198043 -0.061289303286502735 0.031139032871893228 0.021153641811025685 -0.13099713708147526 -0.086634862636012805 -0.061278492976718855 -0.21922327347861642 -0.078378176341704242 0.23426094977558687 0.25632231336217531 -0.12059275990216362 0.026371597829962967 -0.012097773473995745 -0.1237566397916004 0.18903664323703273 0.20562904302583979 -0.25171945508033261 -0.13831060458217209 -0.054041901191468671 0.089666257511021516 0.058770188910474468 -0.0639264306071297 -0.2651010826123244 0.072730173307331322 -0.037156201141138732 0.013715622107959412 0.014677031211920391 -0.34254907055622169 -0.2865634755160657 -0.0096852490725396791 -0.043870977126085516 0.015690105016865755 -0.080532776633360309 0.1016108683843656 0.16136415332383397 0.030571650904388754 0.04364495565279837 -0.11974445677229141 0.015571926220797399 -0.075030427053866963 0.039714272469851181 -0.013388984508031179 -0.093846244249300242 0.0018585932637761021 -0.19300586531874273 -0.19210381270741544 -0.015252636885371153 -0.0083267065762481964 -0.016584023668971652 -0.1311317559693988 -0.0080413164626435794 0.12074639068689461 0.14344320950544293 0.21728819797813267 -0.056772397071048565 0.11040643774128303 0.045924332081825385 0.0021899099773959986 -0.024929905923639358 0.065619905009050211 -0.06078733113692384 0.1330198531720638 0.093466000797401444 -0.049508957066350841 0.032694113620027186 -0.14942173504947337 -0.15417067304334173 -0.010791065204409698 -0.02090039474127308 -0.01156400730110186 0.070579591750590989 0.020039719604672549 -0.02334368882210984 0.20980699625856497 0.15200959330432529 0.17670677059889148 -0.019892540555809565 -0.040697323280947363 -0.012962838954298679 -0.091959614405971071 -0.11393080102228229 0.069967532468970361 -0.03171313242183231 -0.13166026804988523 -0.074411187700859624 -0.099317515263685624 -0.055413195504848696 -0.16763954709790335 0.086140940612369973 0.063806460105931773 0.21876225484589443 0.13063708595780404 0.11158193949236343 0.078157842763434557 -0.020064114724578311 0.29354629283137884 0.2216813808067909 0.059571742039067871 -0.083414738472855215 -0.18315425914975469 0.083674980902655377 -0.013519471845488511 -0.029774555015579726 -0.14821031215272509 0.074479186445296539 0.12198961647231442 -0.067122038259168848 0.076549763635623394 0.060874393119738274 -0.022784303389509226 0.21425507486902462 0.28099822282012027 0.16630079348125171 0.14787375203462189 0.21491434840956275 -0.012818106426527474 0.011758864249582474 0.17298533414416789 0.23101973927827876 -0.076930202070276343 -0.14054549175481193 -0.18338612040027977 0.099355735628737132 -0.038031233841953796 0.050130730290173911;-0.17343133736308458 0.10985486329590913 -0.086394046639018493 -0.43062704273511521 -0.55657086874658745 -0.30714912169247011 -0.22575749836984485 0.00042593365277341939 -0.23283329475854178 -0.0083033108800991458 -0.10356395074181519 0.166492415263749 0.34321370584661354 0.22497681886107113 -0.12223958801186631 -0.039239018269877989 0.12307215124077132 0.1918188550855417 -0.12749780821447185 -0.10534520118649422 -0.033856687408419996 -0.033367823338791569 -0.12483048012956229 -0.0035759381764415197 -0.09904964678138696 0.0092168497655254755 -0.1401943969890147 -0.24917123580109815 -0.35945316946425959 -0.51667940411678104 -0.053104906392203499 0.046307570917402861 0.37426523566397363 0.94278076694681379 0.67260779930716497 0.47621984827658248 0.68377205080863712 0.33475839759499343 0.28415449368208456 -0.2011807196785767 -0.051016001044336456 0.082573862290186192 -0.026982640801266281 -0.10038736404055752 0.093585954619453543 0.20842558933364325 -0.09767301555343999 -0.30057958440897148 -0.28492248837152495 0.19580371225755255 0.23596342934472569 0.49076219932500198 -0.032353640731236283 0.084288583920380369 0.90458387814652685 0.68725359411620224 0.53322269328767624 0.31569843216866339 0.30314956671035431 0.13484280397328752 0.10822978221365095 0.093578793154959969 -0.023621088649079594 0.11441236988061564 -0.0096843912387327077 -0.020152828107282469 0.25389852409949537 -0.04703394730743677 -0.26267001181492283 -0.047125936276792464 0.30840301099757345 0.26904461066055835 0.43302637741357336 -0.24021365607298401 -0.22255151183236765 0.27648591107721082 0.3180924895355422 0.10284607455528463 -0.13837492101185739 0.11236739586467312 -0.02099994082686793 0.020059281605247545 0.082150536858605336 0.035045836556932067 0.031103732968347821 0.013927920640015641 -0.23757313275548633 0.045880398775421868 0.021596099794819509 0.10057936915539406 0.23575984340389744 0.2756135215439347 0.22355449999855737 0.34119581462990617 -0.29535662311800959 -0.54488031865141784 0.21744211316522163 0.075261676650440382 -0.10816474728976026 -0.20915193728955786 -0.099537839371467693 -0.17661370604396659 0.046789749908821905 -0.090732452305954114 -0.021501017360466043 -0.045887465882219126 -0.071794483735522788 -0.12051719371080305 -0.041604691676920103 -0.032134955309473939 -0.035735437097286653 -0.23539487689886665 -0.61490537856141148 -0.33140807568552871 0.027738937216994039 -0.062409369400630473 -0.28998624258948485 -0.06635076685100362 0.21404170337746115 0.028417016084240229 -0.10291270884760002 -0.00066602126394830412 -0.30225082212319587 0.027011111236026564 -0.098314460741378937 -0.026870763474597346 -0.023027181477768024 -0.098244232916610691 0.041364051309049243 -0.12474633385472404 -0.077086282502956099 -0.19134746760873905 -0.44403040245694747 -0.64296595540100088 -0.22575953394554846 0.092137847405246498 0.068842327338079948 -0.20430687465462252 -0.20334315046953266 0.38781106133336823 0.15274794802984096 0.068729140118613169 -0.068417272166544474 -0.20681321247318116 -0.088230924080600265 0.045476666365035563 -0.066005117525750223 0.032980653018647443 0.18252725506970927 0.14493075496474014 -0.045962225090323564 0.030427077155142344 -0.49913124779662932 -0.29992006752549405 -0.43232229402486849 0.052037506472955977 0.071013406757957795 -0.013693189453125849 -0.21251842831517045 -0.25468585848271597 0.023096356130878321 -0.265027290999233 0.22606048344920199 0.082255847564014078 -0.12990675351942174 0.017164636977303291 -0.064339467505522108 0.01706017164508055 0.042117622821456216 0.13765889532166051 0.32282426400960712 0.21433033347011426 0.017464062177010412 -0.38924724883084366 -0.12090884860125353 0.011728610961657827 0.39454259010057219 0.27804090269500342 -0.038252421918886163 -0.12955834325720414 -0.17714709491827554 -0.18715408518819474 -0.19545140296439667 0.055281276508378933 0.41810340301897503 0.36433612626732648 0.085038503814472796 0.11270691592571719 -0.078685559445687309 -0.065340600861453518 0.13577684668959095 0.0077067384620228344 0.013360601755197533 0.039916684986853301 -0.086763680715857133 0.088020120679699318 0.048396739413552159 0.21247731184317115 -0.17229895993730898 -0.36601752419359868 -0.31670546777240721 -0.088105326900159264 -0.20959260222318396 0.009233487680039721 0.095473895691715674 0.3345711253595216 0.27643976061953129 -0.0075739297526825127 -0.042916054238973989 0.070254915690910552 0.16352906974311196 0.1937226540897285 -0.16496900215134605 -0.1767920363842673 -0.19670456815343748 -0.40580487595607967 -0.18170579454948033 0.022378251560838402 -0.012046930776797983 -0.20310026855037297 -0.17838151216620327 -0.27053725729016154 0.10434413616044255 0.30783250559818487 0.042188530371728525 -0.036683548599553827 -0.060730742234081959 -0.097930283561787429 -0.021150804159059549 0.071569384626856816 0.090319222419821016;0.076183071940836206 -0.015579852897037288 -0.094516758187984024 -0.13351697899847764 0.023741314709959833 -0.086257819176199374 -0.075896364763670413 0.0017559726819867576 -0.10708013649296945 0.026283913246107911 -0.17663626119865772 -0.049334395998697551 -0.093563808801892495 -0.077458921203497844 -0.12605845794669288 0.047797437948312975 -0.13814931131260577 0.037306940026683152 0.078653809948908054 0.12420240559353558 0.20951722456475178 0.035991523376240384 -0.18626752227295004 0.15417827789788771 0.15548654451554522 0.1275701235501836 0.34263343348793696 0.10904768020754969 -0.072567023943659062 -0.1119652851185395 -0.39393058253502733 -0.12149163138274933 -0.10569474088647186 0.051608692754738512 -0.11262187797064796 -0.032901741682547364 0.1100566067255417 0.053019936116504462 -0.012638944632798414 -0.036193487139457657 0.041179326240684891 0.089295196004072458 0.13883006968332554 0.081617899674935657 0.16791713227450303 0.3578743934550897 0.30984555877072556 -0.012438894058299038 0.014724357026444802 -0.068535331526313331 -0.23414286550101618 -0.091805905820827469 -0.12679285117379985 -0.0093046547231149229 0.026472559354213193 0.003888823089937946 0.18277724434015044 0.1734293462619281 0.26616214051580844 -0.033665544976464297 0.0054998479883527429 0.059413569257612972 0.10551198940906745 0.010557119783707944 0.047771367320096007 0.10615933785174315 0.16089284092361986 0.39120117014478362 0.017416293087087715 -0.14681869494934766 -0.21410367729346852 -0.12831957287680842 0.019686509674983879 -0.043986386073889196 0.049216802886554056 -0.010630632132963674 0.21567295133157591 0.078885509469178411 0.21984575098293416 0.21890992285283381 0.24267445456603701 -0.06692945732069551 0.089774873430700675 0.17428910324337246 -0.077105734653974273 -0.16652003172389315 0.095405632186891146 0.18590857827704313 0.25619959620401728 -0.17060869422429478 -0.4148987605979379 -0.50170768932158183 -0.42914140436228104 -0.14054364696705668 0.19988113638832986 0.15066333930341119 -0.0074726673960955137 0.075452779589315011 0.24503940309817496 0.081424413678493679 0.14483931160907257 -0.10076000352886501 0.17348691214397824 -0.10379658734327189 0.067183893889399771 -0.045496949912763769 -0.062070681931143991 0.0048892080572721115 0.20822588759343189 0.13945488814713478 0.020329072608694234 -0.24147912023147797 -0.58209684680902518 -0.55752222183817524 -0.051820626316755838 0.2701686240824876 -0.067084498029379103 -0.12248523822841746 0.014673158696656436 0.027923651787824071 0.30842377250139602 0.07654346420182899 -0.13534113134096282 0.06017752451054463 0.058807970199834414 -0.049202336563954743 0.087423052854077546 -0.094375057906194312 0.13642000605795068 -0.0078311146762605893 0.015583073235796885 -0.18595572972264565 -0.13551645521599143 -0.43056998939762464 -0.4335266327831554 0.016787335598476293 0.24434515648935748 -0.01849337100085291 -0.21586650122110262 -0.27581263543286688 0.0070613410312295307 0.12735042567598415 0.19458892834075861 -0.12187535111507715 0.072717928243740834 -0.047735571903977723 0.045414394464271368 0.13765106541801458 0.083848509477538399 0.024977369510348395 -0.11045888276563477 0.18801281125682248 0.36526446605666935 0.35105047562277042 0.14768245237595223 -0.18427111137257823 -0.0089172643265773548 0.073774657455724438 0.060916485230563054 -0.13335213128727838 -0.22855949991747829 -0.10010118988466632 -0.076700052283173226 0.055990979984340654 -0.08723822927185669 -0.065854127659367545 -0.055330158640253237 0.010997540409109085 0.015506575129944102 0.0972323814246778 -0.10774592457491219 -0.17117710155816734 0.062031670891307039 0.21852508693893202 0.55146660997947095 0.46174659181010302 0.1443048228802688 -0.21375883029737308 -0.056358413594461754 -0.13410506382453946 -0.17913719852284035 -0.047915869829368692 -0.10460337014697188 -0.024554039227286419 0.11329887418035998 -0.062845857982441092 0.11609253255199092 -0.080171727427055903 -0.081340322818997043 -0.0099501753111649795 0.13501372686050897 -0.19236075628660482 -0.12250267564685784 0.0279296937249498 0.26211432834364806 0.46653217938191749 0.62811443246947352 0.28556594131049001 -0.031900437744905266 -0.012096287786815355 -0.13160819547498606 -0.12359006649470407 -0.24927250788725153 -0.16504471032028198 0.034989821687144401 -0.21268956980712653 -0.10138010872494047 0.013831687036713726 0.10192987106575836 -0.076484668684655699 0.059157348122182006 -0.062357150604280001 0.0064678102868050641 -0.23090254670431651 -0.022088558206767729 0.0068165384735426725 0.067879839970464609 0.18210048396812017 0.043918213042964102 -0.024564028197118823 -0.048039996294882391 -0.095913336216941522 -0.12466127813369532 -0.00087450492696365808 -0.087167977651687975 -0.15354727161772019 -0.023751159218867286 0.053974781843100943 -0.10952546947686712 0.058164923670802365 0.19881631986900641];

% Layer 2
b2 = [-0.3971314092295346;0.50356519215674311;-0.58749686304397353;0.035530978513349028;0.10835241485302277;-0.58519143653773154;0.3022386700301592;-0.17649945035425652;-0.52513422859040648;-0.44106972642156711];
LW2_1 = [-1.1459290944649276 1.7481443641603407 0.36504840039534248 0.96506088314869976 -0.74904727754967204 1.398014341282277 0.41861873119533799 -1.6009118566114073 -2.4978135270961594 -1.273434091823775;0.32531537265542709 1.5122589518717549 0.88238290979390377 1.633441318442205 2.3966980294801661 -1.4247505302422663 0.63643161439563267 0.68620244636710948 1.5629394528055138 1.2939333820653474;-0.67790871424827748 -1.4138722209776069 -1.7728241540854757 -1.1153681408072218 -0.92613201048645888 1.6807878854522225 0.097956430716487589 1.1722131006917036 -1.5612147434168904 -1.2658600656574239;-1.7961989059580783 -0.46138909145380891 -0.54131078833487334 1.2951239038160456 -1.9870675005614715 -2.1176855554157878 0.29201547353160184 0.32943357583559579 1.1590001899131603 -1.0415373093856339;-1.4371595309090275 0.10552363734784356 -0.26061592366283803 -1.7985238634955205 2.2353377869525866 -0.19916764905551435 -0.67875633384246981 -0.88662142219628137 -1.7516217883347751 2.1112229074710336;1.7685823968303975 -0.48988008394619459 0.70348141784510088 1.9727742023273467 -0.77501492694108109 -1.5790588444812212 0.57847041799072341 0.43732160996701031 -2.2319013655862934 1.8589585832194151;1.5708544301302632 -2.2394302606831369 -0.1545873503756417 -1.3614725363884768 -1.3212704903612573 1.8170076157397321 0.53683145298477164 -1.5979790716739035 0.31311436672801768 2.0414428264408366;-0.47154159219961816 -0.49149642727478926 0.34973223215609617 -2.1114312498358219 1.9431676688185002 0.27874554717485334 0.19098921683276188 1.2239185520713893 1.8915566583906371 -1.758057594226291;1.4799679980074951 -0.69979268713876186 -0.90899066921150373 -1.5629372473926348 -0.88411800277510355 -2.2285379031763211 -0.24132599565996693 -1.8745057469292421 -1.4773754761062943 -1.9171345209420754;1.9452263140981436 2.3904217558823788 0.0028564058645939921 -0.089591135516463929 -1.0082958066649139 0.99799588265616401 -0.86887351918796196 -1.6705091874264457 2.7708593365253114 -0.23648430915172589];

% ===== SIMULATION ========

% Format Input Arguments
isCellX = iscell(X);
if ~isCellX
    X = {X};
end

% Dimensions
TS = size(X,2); % timesteps
if ~isempty(X)
    Q = size(X{1},2); % samples/series
else
    Q = 0;
end

% Allocate Outputs
Y = cell(1,TS);

% Time loop
for ts=1:TS
    
    % Input 1
    Xp1 = mapminmax_apply(X{1,ts},x1_step1);
    
    % Layer 1
    a1 = tansig_apply(repmat(b1,1,Q) + IW1_1*Xp1);
    
    % Layer 2
    a2 = softmax_apply(repmat(b2,1,Q) + LW2_1*a1);
    
    % Output 1
    Y{1,ts} = a2;
end

% Final Delay States
Xf = cell(1,0);
Af = cell(2,0);

% Format Output Arguments
if ~isCellX
    Y = cell2mat(Y);
end
end

% ===== MODULE FUNCTIONS ========

% Map Minimum and Maximum Input Processing Function
function y = mapminmax_apply(x,settings)
y = bsxfun(@minus,x,settings.xoffset);
y = bsxfun(@times,y,settings.gain);
y = bsxfun(@plus,y,settings.ymin);
end

% Competitive Soft Transfer Function
function a = softmax_apply(n,~)
if isa(n,'gpuArray')
    a = iSoftmaxApplyGPU(n);
else
    a = iSoftmaxApplyCPU(n);
end
end
function a = iSoftmaxApplyCPU(n)
nmax = max(n,[],1);
n = bsxfun(@minus,n,nmax);
numerator = exp(n);
denominator = sum(numerator,1);
denominator(denominator == 0) = 1;
a = bsxfun(@rdivide,numerator,denominator);
end
function a = iSoftmaxApplyGPU(n)
nmax = max(n,[],1);
numerator = arrayfun(@iSoftmaxApplyGPUHelper1,n,nmax);
denominator = sum(numerator,1);
a = arrayfun(@iSoftmaxApplyGPUHelper2,numerator,denominator);
end
function numerator = iSoftmaxApplyGPUHelper1(n,nmax)
numerator = exp(n - nmax);
end
function a = iSoftmaxApplyGPUHelper2(numerator,denominator)
if (denominator == 0)
    a = numerator;
else
    a = numerator ./ denominator;
end
end

% Sigmoid Symmetric Transfer Function
function a = tansig_apply(n,~)
a = 2 ./ (1 + exp(-2*n)) - 1;
end
