function [Y,Xf,Af] = NN_DigitRecognizer_Zoom_125(X,~,~)

%% this works on btc-alpha at 125% zoom
%% or just any picture that is of size 15*9 grey scale

%MYNEURALNETWORKFUNCTION neural network simulation function.
%
% Generated by Neural Network Toolbox function genFunction, 29-Dec-2017 14:32:26.
%
% [Y] = myNeuralNetworkFunction(X,~,~) takes these arguments:
%
%   X = 1xTS cell, 1 inputs over TS timesteps
%   Each X{1,ts} = 135xQ matrix, input #1 at timestep ts.
%
% and returns:
%   Y = 1xTS cell of 1 outputs over TS timesteps.
%   Each Y{1,ts} = 10xQ matrix, output #1 at timestep ts.
%
% where Q is number of samples (or series) and TS is the number of timesteps.

%#ok<*RPMT0>

% ===== NEURAL NETWORK CONSTANTS =====

% Input 1
x1_step1.xoffset = [0.4;0.396078431372549;0.325490196078431;0.384313725490196;0.372549019607843;0.396078431372549;0.411764705882353;0.415686274509804;0.364705882352941;0.4;0.403921568627451;0.333333333333333;0.384313725490196;0.380392156862745;0.415686274509804;0.380392156862745;0.411764705882353;0.388235294117647;0.364705882352941;0.403921568627451;0.407843137254902;0.415686274509804;0.431372549019608;0.380392156862745;0.392156862745098;0.431372549019608;0.388235294117647;0.376470588235294;0.396078431372549;0.384313725490196;0.415686274509804;0.396078431372549;0.403921568627451;0.392156862745098;0.419607843137255;0.384313725490196;0.407843137254902;0.415686274509804;0.415686274509804;0.407843137254902;0.431372549019608;0.392156862745098;0.4;0.407843137254902;0.392156862745098;0.376470588235294;0.403921568627451;0.4;0.4;0.364705882352941;0.384313725490196;0.423529411764706;0.392156862745098;0.396078431372549;0.384313725490196;0.392156862745098;0.450980392156863;0.388235294117647;0.333333333333333;0.415686274509804;0.396078431372549;0.411764705882353;0.501960784313725;0.427450980392157;0.427450980392157;0.427450980392157;0.435294117647059;0.443137254901961;0.392156862745098;0.419607843137255;0.403921568627451;0.427450980392157;0.4;0.352941176470588;0.4;0.376470588235294;0.388235294117647;0.427450980392157;0.411764705882353;0.392156862745098;0.396078431372549;0.407843137254902;0.415686274509804;0.419607843137255;0.411764705882353;0.423529411764706;0.411764705882353;0.380392156862745;0.364705882352941;0.419607843137255;0.356862745098039;0.392156862745098;0.403921568627451;0.368627450980392;0.4;0.380392156862745;0.411764705882353;0.403921568627451;0.423529411764706;0.415686274509804;0.388235294117647;0.407843137254902;0.4;0.384313725490196;0.368627450980392;0.4;0.396078431372549;0.325490196078431;0.419607843137255;0.372549019607843;0.396078431372549;0.411764705882353;0.415686274509804;0.364705882352941;0.435294117647059;0.380392156862745;0.333333333333333;0.384313725490196;0.380392156862745;0.415686274509804;0.380392156862745;0.411764705882353;0.380392156862745;0.364705882352941;0.32156862745098;0.407843137254902;0.423529411764706;0.419607843137255;0.380392156862745;0.392156862745098;0.403921568627451;0.388235294117647;0.376470588235294;0.368627450980392;0.384313725490196];
x1_step1.gain = [3.66906474820144;3.42281879194631;3.26923076923077;3.61702127659574;3.54166666666667;3.64285714285714;3.59154929577465;3.49315068493151;3.29032258064516;3.59154929577465;4.01574803149606;3.56643356643357;3.35526315789474;3.35526315789474;3.66906474820144;3.33333333333333;3.984375;3.75;3.4;3.49315068493151;3.51724137931034;3.61702127659574;3.72262773722628;3.37748344370861;3.49315068493151;3.89312977099237;3.72262773722628;3.31168831168831;3.69565217391304;3.46938775510204;3.72262773722628;3.56643356643357;3.66906474820144;3.59154929577465;3.89312977099237;3.51724137931034;3.56643356643357;3.72262773722628;3.51724137931034;3.69565217391304;3.80597014925373;3.69565217391304;3.4;3.72262773722628;3.44594594594595;3.42281879194631;3.44594594594595;3.66906474820144;3.46938775510204;3.29032258064516;3.56643356643357;3.89312977099237;3.51724137931034;3.72262773722628;3.4;3.56643356643357;4.08;3.42281879194631;3.07228915662651;3.72262773722628;3.56643356643357;3.80597014925373;4.32203389830508;3.72262773722628;3.64285714285714;3.80597014925373;3.75;3.89312977099237;3.51724137931034;3.64285714285714;3.56643356643357;3.83458646616541;3.54166666666667;3.33333333333333;3.61702127659575;3.33333333333333;3.75;3.80597014925373;3.59154929577465;3.44594594594595;3.49315068493151;3.46938775510204;3.66906474820144;3.75;3.59154929577465;3.77777777777778;3.75;3.35526315789474;3.51724137931034;3.77777777777778;3.4;3.37748344370861;3.77777777777778;3.51724137931034;3.66906474820144;3.37748344370861;3.69565217391304;3.66906474820144;3.66906474820144;3.61702127659574;3.56643356643357;3.69565217391304;3.51724137931034;3.42281879194631;3.37748344370861;3.66906474820144;3.4;3.05389221556886;4.08;3.59154929577465;3.69565217391304;3.59154929577465;3.49315068493151;3.4;3.83458646616541;3.46938775510204;3.07228915662651;3.35526315789474;3.56643356643357;3.59154929577465;3.49315068493151;4.01574803149606;3.69565217391304;3.4;3.05389221556886;3.51724137931034;3.66906474820144;3.64285714285714;3.4;3.49315068493151;3.69565217391304;3.72262773722628;3.33333333333333;3.42281879194631;3.46938775510204];
x1_step1.ymin = -1;

% Layer 1
b1 = [-1.3639040211107794;-1.3015906758534834;1.1595631209095287;1.2065098305255062;0.9863931977482;-1.0781909883978595;-0.91316769749856685;-0.72857441739168349;0.62873038153670369;-0.58404652408136382;-0.43769934501470237;0.29897408322604679;0.31927336317999766;0.4484561041776704;-0.10522481809154599;0.1909926248223032;-0.019075683261305119;-0.28649419082605959;0.28169479314051682;-0.32709079881478698;0.71818278066937036;0.58645166365788226;0.82560045456638509;0.84701675018836808;1.0396335376161809;-1.0651512704987181;-1.1560840181524337;-1.1754918517328463;1.2727274066783114;-1.559057670286663];
IW1_1 = [0.058250830540257509 0.071255474294027815 -0.075637075400460052 -0.047148369402888378 -0.096561774013805529 -0.045883401492062895 -0.14062684882612625 -0.071272855368939209 0.030539333489578727 0.24716188804381978 -0.23642183935258507 -0.20267808233634585 -0.0081786077942534782 0.012326828136405451 -0.063427072197792728 0.086488988890449939 -0.11250943486145125 -0.040147011229540661 0.022750481158471818 0.23786657202724057 -0.060639579517592877 -0.23004520197549208 -0.078755422634067221 0.10792543194940653 -0.11339714131994598 0.18840931313029086 -0.10989200165261556 -0.19101869565627141 -0.20416536991727016 -0.17641919156018798 0.030266744750818815 0.027697543566421848 -0.0039121331638493836 0.28085943362146149 0.055722097899939114 0.070905406068897642 -0.13242540465846653 0.068382079744095242 0.021998862141085231 -0.10669400468137505 -0.28248239169187866 -0.20755153297372525 0.12770830886234616 -0.12776417184390162 0.11255278031479866 -0.00064063209488759922 -0.093546646240877745 -0.018070788859002155 0.12687334938855258 -0.027919774724160393 0.044004445929958419 -0.20949625661286711 0.22321395226099444 0.092478913237998256 -0.16861117029765404 -0.036129533129700749 -0.23370437277546424 -0.25684304579193928 -0.24247049499077766 0.12894331702730383 -0.10523227064577355 -0.11494868171406765 -0.1147256810179821 -0.059257160776531509 0.13670566340657392 0.17363687198999375 0.22352763100143552 0.35775626582339204 0.061403967821360324 0.29293967118767372 0.1302761758571376 0.059535992890981361 -0.0046322655112875522 -0.0029351312671337068 -0.25650881553870136 -0.0082949883582730324 0.13872883580672041 0.11488942284245714 0.072427418475023389 0.0050581420889179475 -0.063863528611041886 0.21804413133276801 0.082835976858515514 0.11018010535147102 -0.054319832267317618 0.0094289554855932003 -0.090058094287852219 0.028845302044771041 0.09692099769281505 -0.049565479193612969 0.051214359752260068 0.12919307355275331 -0.047142682559465091 0.099968143438341442 0.070760013787560264 0.15712926883854977 0.15897965904020495 -0.044528407222633667 0.020247662978160656 -0.14333843691580178 0.12490582952080155 -0.034937356415042524 -0.14893753209363925 -0.22601401736393195 -0.21475296703127067 0.13922710066201985 -0.19096123463567155 -0.25697179660383396 0.087275928830442009 0.15123375191174077 -0.038233241596537536 -0.13934617319111287 0.012249392499459572 0.07893032320686319 0.16575928751535093 0.20023396447919811 0.11266325245586936 -0.091491086664284016 0.15649707074732241 -0.14778341535075598 -0.21525973005291557 0.13094342213715185 0.12342036578395454 0.02611619233477722 0.010791576933479024 -0.11439343565044607 -0.041550592521092874 0.045200750438653722 0.040285713014329295 0.25473124937145958 -0.13758879016204476 -0.16091643738093159 0.045322962150461985 -0.016001695592129848 -0.0021029605996206622;0.11742897283950494 -0.11878578817254359 -0.023262312264640751 -0.16838749232304234 -0.026027258080248535 0.060169725115343631 -0.030657292452122634 -0.016124144702794586 0.030671273516555603 0.13960384746333734 0.048184748513142528 -0.095042608218384686 -0.041242356112766443 0.17661877275255183 -0.1927995448144349 -0.090601401226191661 0.056988256258612077 0.046945017812805245 -0.15141696495227214 -0.14797565152536382 -0.03559844177414076 0.0099393026247738513 0.038951290826053392 0.32038312464546087 0.36236042421105907 0.10452288435846914 -0.33750968426443823 -0.1283610671142609 -0.14297700689566029 0.066051170396789621 -0.25606194701354146 0.13523141228682109 -0.19758787821537757 0.087029252870401586 -0.61825869450919457 -0.10257281747765537 0.12410659881789099 0.40962758704020819 0.10873369637511186 0.24501809513380021 0.10964628935096321 0.13776552012128601 0.13598844090040893 0.093793165291967517 0.087670446653703826 0.13158034571075738 0.061812765349261098 -0.051616174612620074 0.094717665731059136 -0.0068288384654673698 -0.0079199950404299658 0.021942618420060307 -0.079893470887870702 -0.082738694509391239 0.084806869739780202 -0.17456018894034162 -0.30116425848019623 0.018861707124735786 -0.092416406363769632 0.059239668496325379 0.1196725186199423 0.093881514422861204 -0.093615468428983328 -0.22222500171705734 0.20754430824653955 -0.2540805290828847 0.27935378089160173 -0.13560946581168337 0.09643308385536431 0.33295972802188245 -0.15205042001965866 -0.12026660651456081 -0.023000598260680308 0.067795021388293658 -0.10149122709914984 -0.24642733014424528 0.10016055338552778 -0.0012317537178692158 0.27291792140126492 -0.3613646530916097 -0.17916826012174161 0.14001222476278025 0.021650698613930933 0.23619663918206821 0.12698934996706998 0.1091446544609596 0.35973286788864939 -0.053413951016485862 -0.071946643814751396 0.097249095306555414 -0.16348359100237417 -0.076656818573472729 -0.15297398662202727 0.050590840703941702 -0.31580364392553312 -0.19357618374510599 -0.070405055904673428 -0.065906523302927511 0.10131700087899662 0.046419551548783494 0.027715548069055355 0.13708655628691002 0.012160062885847929 -0.23522562571280817 0.018724771588402571 0.12466424405150796 -0.11121166843003444 -0.089936451056638167 0.18486678435282156 -0.16851473090060606 -0.078930730261400212 0.10189866274626386 -0.061032977111075852 0.16383036540031123 0.11824997887478222 -0.095294288934566554 0.12711359991322435 0.052819349921384928 -0.057585933443854528 0.062913717575662678 0.16510488195949946 -0.197867662699376 -0.043824241234783776 0.05857362690594653 -0.12995285550748792 -0.054686144829996855 -0.014630247781065153 -0.07717515592077985 -0.22031739656909963 0.12098274294717729 -0.070255063486474881 0.10901242308762882 0.020001355433380302 -0.1178498023538837 -0.0027122770596874077;-0.17220895200261357 0.18414337155105936 -0.13317088474898034 -0.1652092199096914 -0.2194914139287828 -0.1297854113473173 0.044857021952633011 -0.096419420927100291 0.15129568516868669 0.18228288408428447 -0.16175519597003624 -0.015439704265646254 0.082251407698654605 -0.11905651775125192 -0.080920711581947774 0.057156644364517339 0.06254189034819721 -0.071019942998954241 -0.16526475440528002 0.10159503660828086 -0.13385539362882884 -0.54885392992947879 -0.26902140422490994 0.057472522799011438 0.15060823565576104 0.068917251700785886 0.22555532407245271 0.1246485604493846 -0.081878590595301975 0.13414788580871803 0.12364477299367992 -0.18075384014863627 0.10370939581147581 0.072911250246508422 0.19533131852127536 0.19730324305825694 -0.40346624169776651 -0.40144907658549644 0.29494508434652011 0.24030640226974154 0.30382994629833299 0.23897506530703583 -0.0074382982421125699 0.14202241056339299 -0.038782787866309842 0.13614549031161582 0.13942282720898022 0.20351691618006368 0.072885242273469306 -0.22396056836855671 0.051433681240210125 0.083112673384190733 -0.39214643987586406 0.12567655426180976 -0.18876179184294159 0.13152764874274023 0.26610245749364414 0.17189073585955522 0.014245370752854593 -0.015627643226229945 -0.038912491052237909 0.18242241980283719 -0.021596409132170681 0.25127840527528594 -0.074114158498781293 0.24172126510797537 -0.24949843348092612 -0.10595738302892879 -0.11732155382109669 -0.084220957963941412 0.14149718915383866 -0.11838779458820611 -0.077895776080745438 -0.14065458675180842 0.19558502519438992 -0.13148807963677597 -0.1331997684429081 -0.242901309366471 -0.089157623751446605 0.33975976699150862 0.37346758206038061 -0.23998787879783176 -0.13654019325902111 -0.41569342427011735 -0.40334110933368006 -0.053921825337868955 0.12869947049486846 -0.058893054984213385 -0.034523191228270966 0.17287299902158038 -0.15462899030277863 -0.17801117637037481 -0.039529010873139821 0.11608575644753144 0.026946366396541757 0.20310563410602728 -0.085676644082304257 -0.01298277946246337 -0.19876558150827692 -0.43661603598668286 -0.24858885519554341 0.20262752679642196 0.15694187186132139 0.057360478690030282 0.09628380872621331 -0.092307269431832248 -0.080347326974092872 -0.12844929120357323 0.12814054088901661 0.30744231080109002 0.028243918827400082 0.091860598580711286 0.098332242698798339 0.087344289230211453 -0.091126375924728845 0.093443862898724639 0.10307635749768167 0.15206143343256567 -0.098343739850124276 0.13514491621367339 -0.21844868724877728 -0.020932450804760423 -0.065076570263949723 0.013147991635191227 -0.049637962924944164 -0.19388035171816922 -0.12043178417780806 0.068194627625970131 0.15197099550867862 -0.20848040893495828 0.025810894920205076 -0.027130722678890742 -0.0012344127057268817 -0.083854354768851544 -0.011681372878873405;0.0013887664431951423 -0.071630763915426374 0.054342639051509142 -0.064611235601803596 -0.12234929403407288 0.01905793474376789 0.31141499951049195 -0.0070409832997260268 0.057358410650288807 -0.057098584646258721 -0.12529528614084517 -0.053560526757738487 0.082672463690895384 0.11855739712572452 0.063503429791779045 0.0081981640383107946 0.16386413689166232 -0.24716204508062722 -0.022110280093698403 -0.0078995574291829389 -0.10159681296063003 0.16463504446098196 -0.30476032164530137 -0.10518648044562971 0.028117712271633157 -0.20161298505812356 -0.20863871340511492 0.04906719826853731 -0.085909957897036288 -0.040617777673230548 0.014707381972324938 0.17691765009476115 0.063862843404304495 0.19273336767877228 0.20213976820973587 -0.077216523431689069 -0.095020216705818825 -0.073177004063029363 0.20990041994709169 -0.18331451293549747 0.3243533679099872 -0.054111515067303544 0.08922710499667337 0.0099955333390306621 0.1499801259165893 0.22278752941971131 -0.040403117728577687 0.24434881622954732 0.15712138244557192 -0.092402610076247074 -0.26635555668066729 -0.18175809128701312 0.14685836722761886 -0.077669090755936893 -0.017687115786612133 0.28029382652522111 0.072195170743917347 -0.16253213056686217 0.070906815465373293 0.14565139767969235 0.02647023653435665 0.23277179124696937 0.1721298103952425 0.15512253662654354 0.088959368813897446 -0.21711096964643078 -0.011238871441312685 0.1970121449159376 0.038391276627008197 -0.18838950728947379 0.0077125817489449092 0.14003325773402811 0.085103072219390466 0.094953076887657903 -0.055268308421242571 -0.13685992374521802 0.15049260532289063 -0.22789216674433868 0.21574291753481645 0.054823958029666969 0.032329992639086542 -0.12066326086371815 -0.146725127867359 -0.13691645304280595 -0.037881654075984927 -0.25738809012334035 -0.16119866117024484 -0.10754537440292569 0.17298965060413105 0.17370940252992503 0.011293887775019069 0.030838868983950416 -0.28491406604959896 0.20750915033029582 0.16888879441536808 0.11271834526556279 0.28351363057554924 -0.16432640339804991 -0.28312178235922603 -0.13618411879051986 -0.15815950430041936 -0.067359420007786039 0.20424818909461911 0.057161844399880896 0.043473838257430744 -0.19177463192968805 -0.031840872227517053 -0.14363857409020686 0.11288985553016072 -0.033996717083228101 0.044105173063129319 0.13097091394016588 0.2190504288727172 -0.079067466587251362 0.15760931367144473 0.10503417301582374 0.093316232773564947 -0.16068335616367785 -0.16864363141180511 0.17043374249106116 -0.1756815609863914 -0.15386262836428427 0.17466281998499639 0.0074368378477953868 0.025218854356092994 -0.12187614361094525 -0.047082244098100481 0.16600850767763595 -0.12400268506670535 0.057525017618730918 0.069312431165391375 -0.10486198682413386 0.080138706900081791 0.16290888962752448 -0.031112375766404469;0.0043070732162717564 -0.13404147468810942 -0.11790149253896004 0.22265974635819377 0.22609082869328676 0.080103366779638183 0.04504444252172906 0.057952644567167685 0.083947965050996415 0.059772139134100719 -0.087724089718100751 -0.07750639377064944 0.063636903533404302 -0.06108166199132626 -0.096042979579688686 0.1839683377768534 0.22939667587222187 -0.27569144207390139 0.12380507792276613 0.15657878651160498 0.12626387641551751 -0.028199439376828273 -0.065234515672376675 0.10506311250538208 -0.14423717082148674 -0.18547457993556185 -0.16435071544037821 0.15600868876829807 -0.12870912931859624 0.10613674720977785 -0.13055058815804152 0.1110080101121982 -0.23963301586600871 0.10787544535511592 0.32450373858347992 -0.19319473716722974 -0.23362541598119138 0.037381487239365629 -0.24473117673039213 -0.38455346613233871 0.084526480577419988 0.025599393064578913 -0.015641548973396986 -0.0094938601692707049 -0.13879196249698181 -0.094191852670173229 0.10813992526262284 -0.27268671008252759 0.29104836407449491 -0.071111562408285631 -0.052687231685103759 0.1154331846816502 -0.029452927156418205 -0.098577569949811678 0.011342433083536815 0.17290240922741043 -0.07603533503676542 -0.048526022250201584 0.23304667623704342 0.1780402536828371 -0.12556151037456034 -0.12601130589752813 -0.019152025474463118 0.12555922605482991 -0.11528588948139434 0.080291985418964928 -0.24352417643728344 -0.024301512630365323 -0.047717251113032447 -0.16280607308364425 0.29297075340710504 0.038645878059946556 0.10988830545386036 0.168845041366565 -0.077567390133789271 0.11988744453456136 -0.1422128715332717 -0.25935314479329791 0.40827833699380811 0.066542403891743332 0.050165023349270484 -0.048368540451491644 -0.044272137429091009 -0.0025458891239465388 0.13869333242908363 0.31671452419396229 -0.19196203218073682 -0.089862329631925711 0.19260228562692402 -0.11573151036821035 0.20310819775783542 0.18932978759850611 -0.24834762717128678 0.022359743377156602 0.043018053522395024 0.051872090653765739 -0.0074254482682683714 0.18853307392746402 0.24861310095418843 -0.0084857386620053998 -0.10045406159893633 0.040680410424959346 0.02587060270259953 0.025875510072507456 -0.16141179918180426 0.0042319780324898719 0.15899746599114881 0.04235195252146505 -0.055854394129143663 0.28684952825261101 0.061936286494034549 -0.14966881994454481 0.14189089096199523 0.14184190922958437 0.097715864734388785 0.22421784422516336 0.1521451361933428 -0.14124221697175859 0.070469182206796599 -0.1047550016117734 0.22567175302791984 -0.11423539108308488 -0.0030249013207490098 -0.15494833898860469 0.17189155244614679 0.10984786395488026 0.038141610402070217 -0.17325080490578731 0.051165444376777711 0.13091518012714704 -0.12553823592199276 0.085644510649994926 -0.2037047951848765 -0.1424921553027157 -0.003423892997434801;0.015934940760678706 -0.11489310810644678 -0.037378069847173283 -0.19555095496092276 0.2129529215789992 -0.010681377077169405 -0.18131040039122504 0.0087535144878316418 0.098769306029514461 -0.0065358662704640275 0.19980782405465819 -0.136127379750067 -0.25177668317543028 0.0021676324166808774 0.067084090778793265 0.066456011807538559 0.13101708982811305 -0.13625867982813783 0.13309198706957232 0.2683978404475294 0.021239719718627745 0.17157283009388005 0.12194813710944155 -0.34531924214655746 -0.042629106837381706 -0.17905097140725817 0.045971419733152906 -0.12994572601117491 -0.14747795705895725 -0.1217385518022757 -0.1972105113429258 0.050924100235400296 -0.24808784622069285 0.034415024259637092 0.046765361372380292 0.15616131579995216 0.20018712348757789 0.42058647580431835 -0.052087110190078265 0.3522928559538766 -0.49393257207836355 0.13929645054417183 0.20320086599680853 0.094259520544003966 -0.30353224600697559 -0.18338167554668997 0.16261156053585571 0.076274068854056631 -0.13229599266757663 -0.074451973415165476 0.31279197123880947 -0.12400986276758191 0.37329970905337201 -0.11979529146028585 0.20370279262305602 -0.10797993834300605 0.088249424794170125 0.043845866467696261 -0.067932317382723387 -0.030097395808976312 -0.31614896376837381 -0.15109117776953501 0.099515882185911023 -0.058221173350457261 0.040386876776864575 -0.14738012415430476 -0.3955859428092009 0.044215592145795679 -0.056283722863667708 0.10333073620616391 0.25372479869188191 -0.10065457146647222 0.12392952224419805 -0.12143485300625839 -0.19560993798098819 -0.23067893696481018 0.070137097155706221 -0.0047859350234675749 -0.28268654065707133 -0.16667896842104005 0.042237638844650288 0.20536811804974789 0.25203835200483571 0.14144889042568773 0.18135323979592829 -0.044115691659630911 -0.064876870745586152 -0.00097583085873256641 -0.0059775231488500445 -0.054084674343696834 -0.1011000647280956 -0.14925267046500501 0.2315615929455471 -0.32448763052674501 -0.2057524454556858 0.34296443444038349 0.29027801094108369 0.11215183395705429 -0.095639816237795799 0.18508270907040694 0.032698296471196306 -0.031996864138546369 -0.1063389710618632 -0.25523755129271941 0.14652370483342855 -0.28552890999660435 -0.048964864148954505 -0.058595847140092271 -0.21063543214627042 -0.13176133896852221 0.21004487521032669 0.050963428031981499 0.11218909131324724 -0.18934486932240313 0.13716472355155113 0.12051594035833839 0.058024041109134596 0.099982889630105182 -0.21572729185060274 -0.089288694448155542 0.029472696094548941 0.16660317900198129 -0.12796950710010702 -0.040039032516609029 -0.088713299876823276 0.15742186627768517 -0.031532823596714943 -0.045922706682914025 -0.045492646005243019 0.1077614666535618 0.13939885857176107 -0.041235931209530369 0.1001460268687504 -0.045958159119696272 0.033883241038309989;0.076664631375482434 0.052785578232241753 0.0017093723976924883 0.21604161899102234 -0.042287517619984956 0.057562685260641649 -0.149976882577043 -0.092803395734795041 0.076601039157281392 -0.2065853229269346 0.12658091793808038 0.0011803214793536369 -0.15060158899936335 0.10328420854165676 -0.077369823203529045 -0.078132686824561232 -0.095458706488750822 -0.051733427708698564 0.35616968762241041 0.066949518475105177 -0.17328502191909295 -0.037006421019892669 0.15211539023460691 -0.18567048868415215 -0.045164253127571816 0.45607478773314231 0.1906670781552732 -0.061854051267951363 0.1638173178176647 0.057936226264333895 0.18973607890422237 -0.024772717885841473 -0.11256846853968762 0.15462218047846701 0.18104915208478614 -0.060512884930869371 -0.17048415410285639 -0.42511624832036427 -0.0067789164840120365 -0.087991470844521275 0.24957341583891562 0.20192789900377717 0.20882421272384569 0.1657705687724057 -0.17096815239861754 0.16057199473800474 0.15309036759832984 -0.049251975643204257 -0.045445982886340608 -0.26597903457506 -0.083861576997944651 -0.26532794991079056 -0.16836293919490034 -0.1471510980412675 -0.22573046368933833 -0.24218453433777917 0.10382046721532923 -0.15508715188704061 -0.010381061045983152 -0.048078336733956874 -0.13176312179154545 -0.14190622457091109 0.16119501831136149 0.076016662721142061 -0.067783971152973244 0.11646128396563976 0.19374594037550363 -0.10573069915542192 0.13069856444928885 -0.11330151593752943 -0.14947256137342385 0.18673026402381679 0.035725355841991539 -0.044358405821665441 0.2039905987477425 -0.057053190549359312 0.11840110260809528 -0.31139645320725778 0.055765330541599732 0.28936024876332817 0.41379124281134572 -0.24379637461437445 0.19132808215720301 0.1053739890604298 -0.02832344922986204 0.15114958704936246 0.20728474847398962 -0.070684021720798518 0.16254788068709539 0.19504056819850588 -0.097924464027215399 -0.20047462387383161 -0.021060652865044958 -0.31352844284207465 0.094841991420951732 0.19597880543754917 0.027503482982981529 0.088728329115329019 -0.053359438494213852 -0.16553350053769755 -0.19906017438706583 -0.0042739984864017533 -0.035246240077539584 0.10860026608762477 0.014318431243998876 -0.0027135397755418326 0.075331388235602717 -0.252923823534841 -0.11743408338271727 -0.13171284177199002 -0.12114840541434992 0.10178231213542917 -0.0049483735696898706 -0.12536693697732623 0.13687070519190242 -0.049553719481845164 -0.064634482066640964 -0.012637158806089175 -0.16183370290894869 0.1777387337274324 -0.057590712434338436 -0.13690706863309157 0.045556868325871594 0.047920456513978742 -0.046541470405962994 0.037011782351165784 0.15133143892791251 -0.16043369619794032 -0.12661316834187097 0.10757557521215666 0.035553343303107568 4.7622711880734251e-05 0.1580874328849676 -0.16113869472286663 0.22289021625322744;0.09296068854745182 0.025243328525632307 0.11084452955600793 -0.33837229973981447 -0.2152001160250554 0.075187831645339348 0.015539674277923222 0.30575546250165631 0.0099753606721388558 -0.19666222621930812 0.186245560183465 0.030312406141581479 -0.064775370304699195 -0.18143127017259603 0.16878106209962679 0.011148848869089071 -0.14547067605502542 -0.073320386473465074 -0.12448751490905779 0.094536593057929788 -0.11653725205656662 0.1301897052846544 0.10082226558193581 -0.10046597035312312 -0.14622636242090928 0.13214132692132857 0.11834064718657708 -0.19313325004129889 0.11378082638874472 0.12818762182199245 -0.063178561192353308 -0.087449159929334747 0.11300852494068951 0.05436049199825415 0.39777115721924 0.30219431986676765 0.12603938279506333 0.04056322288596094 0.08346888026842679 0.054880146689620081 0.29201823684775441 0.22073680440759566 0.19198234069040995 0.031450548254882769 -0.12174280588132212 0.022782390018373021 0.10402698082586867 0.20722700814571007 -0.068066942940381112 -0.17860938321324349 0.037885576317743877 -0.092114598835492209 -0.27991169367006929 0.072170452251813649 -0.00037699267413215487 0.013024921281372991 0.10428147580010363 0.21958504663360817 0.024292402890532715 0.048314065864580993 -0.023460748237613058 0.016999824437060256 -0.0055572346337725868 -0.062413335764824308 0.081632308097207076 -0.17033744362088432 -0.40491220144084877 -0.25096644269369417 0.18276693227250129 0.1486684683881834 0.044069297862697927 -0.045580261404278281 -0.186744897429581 -0.04928452541685422 -0.12718511486421816 -0.072259472621927265 -0.07616236808411761 0.20530302154039881 -0.29005443423765437 -0.1437076151087292 0.061103000170514912 -0.2690463302218189 0.097618147154386825 -0.10808229788304494 -0.16167216148867058 0.026436207971404099 0.12867890941936833 0.0034632784446982741 0.11037636757002371 -0.12765631851121176 0.037760759179191736 -0.14813554325803982 0.25461975196659414 -0.011149892291808277 0.14115812816576667 -0.021923290930205255 0.15044612921356168 0.18406219505970967 0.032860508957041193 -0.21292810302374041 0.16444802701720934 -0.14318653599547077 -0.22733465225974125 0.23444015946361574 -0.10278267277522872 0.18944240998201267 0.098011045374738315 0.048669870770805167 0.248213510389486 0.19918865338831818 -0.027047646867152379 -0.044104635525640791 0.17186466727680819 0.023329984131621739 -0.18180255483468688 -0.14169451892136445 0.1883272028805015 -0.072811132027658473 0.012877871185567016 -0.10237391901944723 -0.010886088148264863 -0.11775446555321663 0.14074497790518381 0.0099935368232993357 -0.16257070050129455 -0.18084836159011547 -0.22665448220158296 0.020198327225187256 -0.18119274884843087 -0.071880484171005427 -0.20797550608408374 -0.25493672867143352 -0.16416375247764908 -0.10076502711168535 -0.13433337721078928;-0.080365084575911516 -0.042822501394993086 -0.032334990027553544 0.40190895954075839 -0.13014455085342172 0.07889694850092506 0.023003479142835227 -0.087220406587154992 0.061734803933576075 0.081282941655863611 0.040993816146625728 0.10254100274030595 0.062109257404245805 -0.085494648877856724 -0.098167223298297399 0.073322354863919803 0.076523678008992777 0.15391267937111652 0.063765909609562479 0.17212450150284619 -0.18296129547166623 -0.19394646555150566 0.36987735679432199 0.60956593963567485 0.66446297861434345 0.24790920926917884 0.17837481100300842 0.059897367840006842 0.019175490118193486 0.065964877359180191 -0.17835205932461318 0.062385667734156255 -0.32241054413942394 -0.12490637197946274 0.11516899863525783 0.071679970730678597 -0.13104417007152283 0.16454315810784331 0.18576487334465491 0.083954452093703447 -0.17191778055209242 0.057424069864959272 -0.094103763313947639 0.027481359687824235 -0.04783992552109749 0.046267905225246125 -0.14379641057968365 -0.34585844019840256 0.21957534233016279 -0.024473987752574849 -0.10038121257709665 -0.019573447657995641 -0.34443649271012627 -0.081184407276630607 0.12981586876970577 -1.232587948069529e-05 0.016976391498671466 0.1759683038795993 0.045970833305543884 0.15873943217510639 -0.076506154761989284 -0.15199279679544872 0.035032833787443138 -0.26710319136082872 -0.037650242561910241 -0.0068184152781003192 0.59169798371367444 0.1902814064023923 -0.070741056576579378 0.06778373812025483 -0.30929934750073745 0.15109847752791991 -0.14032674597847555 -0.059766288620623442 -0.060770661407016924 -0.17107870341176998 -0.10886894160541019 -0.33304537764508046 -0.21364365171110331 -0.29912935521141581 0.01556979603525712 0.025339930006113627 0.17912365768504582 -0.16591791874509379 -0.30116692982480409 -0.41950035275437919 0.023099644688974318 0.20459042726553472 0.018737987343623901 0.14967546486966671 -0.044405548417312792 -0.094012276307391632 -0.10384436235233555 -0.037504956801631309 0.040211421970548701 -0.080853535154275041 -0.26327064125697824 -0.30943708578911533 0.02286692810894737 0.103985530821053 0.12979153468451465 0.20185373219544056 0.17296928449166279 0.10869629897595859 -0.096210661034174763 -0.10340200335131235 -0.12458129145421301 0.096691079768049304 0.12143343132867031 0.12816715568879553 0.086880320107553338 -0.052333349095992389 -0.086311345338368303 0.050461593998051904 -0.059833389738359166 0.25967942140154004 -0.12286104150344825 0.20105609422397253 -0.098142141494849289 0.21523057285639796 0.10886199785703635 -0.025107055977696798 0.11003890545626741 -0.18312407027075547 -0.08243287470355172 0.064593492288110205 0.14240297555477713 0.13093441527043115 -0.13919067618246517 0.13809297416892735 -0.046047991992083863 0.24082915440113362 0.14619251280372098 -0.0014959170626788066 0.080473893557492709;0.10529093073118877 0.11747025178712735 -0.082786758535426483 0.062571956324680239 -0.12077118508389144 -0.14193520773124671 -0.17810069169211848 0.067882010959767619 -0.20358238376485857 -0.096403342460221128 -0.041094790091823569 -0.33631228417351627 0.064791924111948507 -0.1144918368227609 0.13242846972824901 0.0036404426013951635 -0.15895088350885028 -0.07734178600443134 -0.2763339379515003 0.0058302355027038694 -0.23751039737095514 -0.48015274568015753 -0.20852368077651226 -0.31409779808594779 -0.43661035480492072 -0.26983445480654111 -0.27973229834857288 -0.043084126690237375 -0.13932150644752497 -0.092673073770079661 0.061544326156255477 -0.13727853300673451 0.078807249765727158 -0.059807611482016618 0.12379462305263807 -0.086028307800618681 -0.37990234448830712 -0.22979815456375971 0.010689640058726588 -0.47113954234797162 0.097679338371924593 -0.020855996034310841 0.010653488263377066 -0.12652592944582905 -0.061894561878978259 0.060174123879560226 -0.034478437807687445 0.063086975512224253 0.045482978361802262 -0.15545421767599407 0.062152188917354176 0.028423538885092189 -0.01081814493414434 -0.030424632166143759 -0.00015864806121493303 0.12994605643568413 0.1841794537297565 0.026582821731370575 -0.20737343656240012 0.086125219362471778 0.17511907154433579 -0.035206753939594049 0.0048382666301818155 -0.026586368690857589 0.34139778857244046 0.45280865648151242 0.35011076234677985 0.036685145907574115 -0.19671963188477121 0.13400069540042639 0.032235226509711321 -0.11820945879883937 0.048195262902473196 0.11369562485260423 0.16056802146882806 0.14772181053767808 0.16969458076076535 -0.05408157765745459 -0.035275076715359531 0.23926268009120352 0.013188773883040343 0.037220919578598785 0.093144518523155265 0.13275135752384315 -0.0013640909070532646 0.076221505209925169 0.029177671191420704 0.09882695515601124 0.18844793798059695 0.19676300184140028 0.17014025453180728 0.12414997020874832 0.037235098819772085 -0.045718471241605024 -0.18209686593823879 -0.1660993230551851 0.040904399172085909 -0.038495549640968373 0.072925187228567986 -0.11803028539510887 0.30348108027040399 -0.21888921762561689 -0.16936746405983963 -0.16940624590310752 0.055861523444997285 -0.036432042905377014 0.058870804710693822 -0.177302050776798 0.1494198450680507 0.23265130531246994 -0.090886955940472719 -0.23581464203567196 -0.025423459781159854 0.09129828232062881 0.016631338321383849 -0.21381498448243152 0.03432782545476773 0.11518777038566401 -0.041805109069002651 0.047223090896903783 -0.20619001728408234 -0.095512038646013181 0.027128358970521523 -0.066303219321578261 -0.18830140983975824 0.17252866571531969 -0.051069793379655608 0.063710930012805131 -0.1165665488215463 -0.16103137226399114 0.15784404624003839 -0.19465803002435064 0.11797140107261762 0.13581237682370839 0.041695660470215876;0.039230712722723042 0.012603401827740711 -0.16582955527370644 -0.27518233838918166 0.0938009911729175 0.17728645643610988 0.12221382358514718 0.20274627037871615 0.078129125527823431 -0.0087563249416869535 -0.052663359874343577 0.22351428252579639 -0.088522205743937946 0.041832320348507888 -0.18356937980792956 0.11775861861535283 0.0084920801119729387 0.16119965753572987 -0.20209139906375831 0.12359623711144181 0.026635536747684541 0.53118593628915289 0.15076774872545742 -0.15451517952481908 -0.16481990968053145 0.095163381994850083 0.018694919142939141 -0.055131107828609166 -0.12341898883583866 -0.14243649536707756 0.092496268749593588 -0.16220461491599517 0.082823389330290695 -0.086545488682200036 0.39184840123956999 -0.17927384510529076 -0.21250416278435605 -0.06843796298499949 -0.015573484768180547 -0.0092654744350727583 0.14087721067680709 0.26601925579193519 -0.17277503585964379 0.011306012966005953 -0.24167831778035564 0.074888805202251718 -0.018161324198969694 0.0017525944179637863 -0.1065688086812477 0.027167865284601536 -0.069063828339903668 -0.17903796340380027 0.17327893551376242 -0.035226344658535823 -0.086370895301552328 0.21669882206494342 0.069754749479606748 -0.16845501330780221 0.069106992728063907 -0.086073629849600569 0.16242046557391934 0.070881209123410671 0.26751454514724299 -0.017401961835317566 0.0045091893402793093 -0.25962069535356957 0.23761898687172969 0.148574372340991 0.35659746031037431 0.03483873577915262 -0.04085911047500989 0.18994665920606313 0.18003637238883047 0.086729203665045621 -0.010008644346018974 0.048743086949465969 -0.18365471986381204 0.073296665516016726 0.11623273566007281 -0.44368519660263706 -0.29697244115442428 0.084137775948139468 -0.16457246698724559 -0.064945012685748343 -0.31994521326056286 0.069786651629308472 0.096723319037468961 0.064008153988670241 0.099064691564044308 -0.15128994210519683 0.13962596188342677 -0.066001924547418767 0.055092757055199351 0.1883110414701632 -0.50129759914594296 -0.011221613028237539 -0.17652290048509225 -0.10949360316072944 -0.085682458141360718 -0.53477644933261725 -0.29320000042641242 -0.14102983965848906 -0.047516450833661905 -0.12439082322113247 0.021970639506503544 -0.024382028276883513 -0.097607603825260777 0.11195240133924618 0.072426755855764566 -0.31462839833152734 -0.19756161157169702 -0.20647255859141686 -0.19241706816822449 -0.25837902709424826 -0.16582721258511002 -0.1790169011907573 -0.24872942135057058 0.22595631406205768 0.030925046478669008 -0.14929091745699713 0.051215273132785392 -0.078475593167124796 0.072363799829688047 -0.089657337168038725 -0.20983302339864207 0.1220008685848088 0.10979468220256428 0.078929904126172484 -0.013218528677661026 0.1844364057446673 0.18021189141555077 0.1820733384391903 0.12172798058744509 -0.15016376070195492 0.12263893161370268;-0.19439639414730092 -0.03864601142809912 0.19297936577984554 0.13937639651178363 -0.23888499072083552 -0.060882338452992089 -0.16596437228319122 0.025967060792493626 -0.12978244238357617 0.086624038171952564 0.11682837757288858 0.16409885270215435 0.077433653990331044 0.098086920944286379 -0.1278904800228185 -0.13356000838019291 -0.0059106070776084154 0.047675998624750159 -0.19086230968588261 0.078964962236014652 -0.019505806326250902 -0.058587068549652913 0.30536215390930588 -0.22871259977264058 0.04185543094599372 -0.13253246081834566 -0.081179104129243784 -0.0082005501025130025 -0.22698477788738031 -0.064041551408322683 0.048362884974960954 0.10446516047984294 0.33836758558674712 -0.30706371218869177 0.36700659620120341 0.51654294220702202 -0.16347283093037943 0.13204047888226281 0.1703999790351895 -0.017273823593244444 -0.070056065684776625 0.11440939059845462 -0.012216651280902551 0.17959043778573153 -0.025859921223847372 -0.039838776416294248 -0.03207721934417658 0.31163288336368067 -0.12261341421534717 0.032191519048707797 0.087937337317062589 0.20135547455696431 0.15136606043474696 0.1008535796424183 0.11596461862188528 -0.073626032794612994 0.28703227589720287 -0.031770215919405466 -0.28722395476810714 0.11486658777621092 0.10006746345165178 0.0012536411102308477 0.17511917675059657 -0.19367846424604482 -0.29988701259649514 -0.12988223531711196 0.15108369282059789 -0.25071244683407462 -0.064905070908638521 -0.31819318538413788 0.04524604854888839 -0.2620614032260859 0.13390672363276382 0.0685082522267247 -0.0091377920213175645 0.081501746339214851 -0.07407820959426821 -0.15607443795821055 -0.40332313022419897 0.3616428122092688 0.28227700490486474 -0.64381281506063959 -0.29166652209242983 0.10945361493710737 -0.051179319925390834 -0.21451557123937329 -0.31642263997949222 0.11331134661880314 0.18381561716723291 -0.17543023725368026 -0.020251938443808983 0.054418715457325365 0.4233737526711745 -0.066179033600583054 -0.063032719737375814 -0.087249948642800459 -0.06117083362096918 -0.059619657671985432 -0.21021482435582955 -0.19878863699315466 -0.22390706495377635 0.021655420210094711 -0.023228653522639704 -0.19249741723962335 0.051702002022924333 0.13454293637276118 -0.11918723982862328 -0.0082088652453868594 -0.026292717738881366 0.21901040886648829 0.068986296009780151 -0.091427756904874286 0.11355095794055407 -0.11341541669729703 -0.12764782758462614 -0.074286620637886019 -0.2062866892206468 -0.07723410931125442 0.13198190907506158 0.065150004641225043 0.045447663100729611 0.073145164780217153 0.11826257147812598 -0.11593888652102699 0.059519175271333331 0.10379434704825342 0.22636476775922396 0.17984034200485036 0.29316283133839194 0.068637575850657426 -0.087628196176408643 0.17576865059000182 -0.18353303130925361 0.077777169561958764 -0.18775006327497235;-0.16044021886544743 0.17311689177062131 0.10988249572167769 0.11890550433168334 -0.12394769600822045 -0.25314533940204881 -0.32251876983650307 -0.34993133069599697 0.0082695482191758179 -0.12838428534370502 0.13078091477927753 -0.047937858709330962 0.19008693014915046 -0.13690063333421518 -0.14397145080857157 -0.057913826808997183 0.092165858444045928 0.39300762671281675 0.15179261960528864 -0.12326485830134132 -0.12072725917757782 -0.29488361349652142 -0.2225251695847057 -0.14708883276798679 0.0070379880755946558 -0.091834402331911938 0.27786250272212504 -0.26491492458144883 0.18778971560513114 0.037485192960565884 0.079012387553921315 0.072287833117527539 0.15222534064771284 0.16034622905008278 -0.36726101399905936 0.15775266810522273 0.027357158174358888 0.3209258515736062 -0.43202214155941937 -0.25238143696460952 0.29640261596212591 -0.20160115181414814 0.25725803679162568 0.04584980054724927 -0.17951268364571779 -0.08226113341252729 -0.13173358099648727 -0.0411517601777791 -0.40539549296945732 0.067798058235165978 0.14833120680401216 -0.091659455166567261 0.24765018182024126 0.081065069666266878 -0.05225374563574519 -0.12520569076392979 0.0028314154808797027 0.047257083658234618 0.0042805604370864721 0.21791992938493604 -0.05704981092718571 -0.03492418932886112 0.038404980594925135 -0.065734578894512966 -0.16685893582515041 0.0023779541675082762 0.35567537597371174 0.76348889353434535 0.089921245339408734 0.13415739696762785 -0.25138735488563324 -0.00033503359327381727 -0.11696048551050724 0.19346885255284063 0.023255979753714285 0.044266691526032999 0.1122420902742912 -0.16602634173785308 -0.12978712693444613 0.49419242992377993 0.25701288152361446 0.11965166902950593 -0.19313360574837926 -0.050773951931565142 0.16719975974218126 -0.10289073031489762 0.052620804049916522 0.12674805333499506 0.088473152992102025 -0.047767902526221366 0.027088009007534851 0.13897704055065896 -0.18980687224277248 0.096344256494969013 0.3683244476595271 0.12508369676513753 -0.066285107167248461 -0.051474698655036538 -0.10537308782517027 0.15928313373983102 -0.026908196670373582 -0.12197931143855553 0.12037250682331831 -0.010695004849897077 -0.11345986706479649 0.11778923781696886 0.06437306377841949 -0.016546101760162059 0.15087039722108128 0.11602317440240038 0.025124750462870955 -0.17495829764917373 -0.016469940834275193 -0.079800915580311327 0.064574257595929024 0.23855358732669424 0.017742674443077311 -0.21399530765481295 -0.012232208338541417 0.057120242912465452 -0.024109851728279695 0.15321267215906262 0.22940563556209306 0.12405869454895707 -0.091353215634041821 0.066133091244154132 0.0052262075709473806 -0.15064671407054805 -0.18571639055231667 0.12817444991281809 -0.14990046445055297 -0.045741564710498686 0.23736341396107272 0.079470068440886832 -0.1272185708653546;-0.03379652501110985 -0.099939708308158098 -0.0076970991645154288 -0.061080764697524728 -0.07854563290612844 0.36911931313875551 -0.1242418714849111 -0.0531500519565445 -0.015223389351687067 0.058671329465488177 0.20167266263452899 0.52878021610638504 0.1692248332171194 0.13277452328693157 -0.0094174775797279623 -0.1879701948300794 -0.0025197436845034605 -0.11121523853951178 -0.11286044925101851 -0.061211136479706857 -0.10442679315982231 0.22148623858985655 -0.053983535112319923 0.046788107660690796 0.36603826818008117 -0.076678948588788445 -0.24611033299449159 -0.04111365721051239 0.05723513195473727 -0.085671201055415758 -0.16181019402001115 0.048511250393673121 -0.12976452430794766 0.058027295462083933 0.08666808708413612 0.17161795768582994 0.095584363037410011 -0.23383938481422531 0.47979840274147789 0.30705002900718908 -0.15587116637204076 -0.15629670245123095 0.067331760706887095 0.16694251216864675 -0.18892175582958079 -0.017022892651553 -0.18020499914153482 0.051833901595584687 0.11948468716559198 0.067858272892014362 -0.020884390875470515 -0.22213654773207592 -0.059979984226093901 0.050990059838115054 0.12040670896804433 -0.046183319064604551 -0.26513439084972917 0.17869466463264164 -0.11751724573079943 -0.017179478998404812 -0.14600003140893492 -0.14603996252392998 -0.2135192652483581 0.428564686209357 0.12853888852248954 0.014684096397347591 -0.26533181723490712 -0.026529225343878526 0.54494941554087417 0.21731707478101012 0.24316517499120993 0.089032142181489332 0.21736677457659387 -0.1297874624210868 0.064112706954763107 0.0098618619144993681 -0.17735760256017888 -0.025683783863035731 0.17986097957652866 0.13164007980735201 0.33610216651936164 -0.10300461402278238 -0.11437226225992517 -0.019879285664038071 -0.18231148240140035 -0.012773159437870224 -0.0035370603531808117 0.024162058793796314 -0.014039366698250445 0.14039451910914305 0.15694670994336937 -0.0011758510750145476 0.040372780939378884 -0.01124685099403858 -0.0058270484814421149 0.23379165987676437 0.31776206372693611 -0.32224298265882589 -0.12744108289074196 -0.18532598133486772 -0.055538484909575268 0.40244764483951384 -0.20581946929622519 0.024876958222987796 -0.070531922532298619 -0.041173001380078192 0.14730893957686758 -0.096759113153480361 0.011074857049750926 -0.04070026455012557 -0.12576128367779763 0.36905432475776284 -0.08391182758208024 0.00043215180249623849 -0.17950387960912684 0.084631212321256796 -0.095109624402991921 -0.047462121280400678 0.16097904446172098 -0.00361244504734742 0.051402827106580597 0.041308261390459046 -0.047613736184045498 -0.079404304834235467 0.17841359946669608 0.014615409018653897 0.11836116658155649 -0.083952685584609915 0.069343858272447559 0.15667832157075012 -0.048606183140179865 0.053860781675758959 0.0062489955869958992 -0.17635910769784527 -0.19347892828927152;0.17248166553185582 0.10863005480970586 -0.043601140367326124 -0.11349941973738774 0.028330376096541043 0.21986589706289533 -0.07755902102462317 -0.039148678619461592 0.32408616964892428 0.15502553049689946 -0.21473005155518621 0.094006837566371404 -0.011959214377074525 0.069844590140696008 0.078135898161069361 0.21373509494136794 -0.036906954236749043 -0.041826847972480062 -0.092514863528452174 0.15322623948458383 0.20062360170234092 0.077720512037356249 0.14967822444918127 0.48718550667134886 0.32748747185679561 -0.033274782343468257 -0.054273316872585221 0.13645097593282104 0.014017475623167948 0.0083778515090001896 0.23420022581234179 0.017114225923169815 -0.11698993024488658 -0.13099215792504418 0.10149526502913078 -0.047860975634920047 0.0090142989096542048 -0.012087140451890173 0.024218828310293684 0.040685905649112487 0.19424573230985526 0.10862014008834034 -0.0062249130622048362 -0.22678076306204678 0.061149176942379008 -0.037777080610728077 0.14741154724944774 0.33461009240974227 0.17258059316461863 -0.065098642906340431 0.067014536680338743 -0.13247034058131352 -0.1716378980369776 -0.063254569996466892 -0.14542629871962431 0.21789893285075024 0.1418659986520342 0.15478949071808365 -0.051915539484367661 -0.0072377161927975045 -0.12334188747960974 -0.030380003791238782 0.042952160389580302 0.31361071393972806 -0.17426189745118886 -0.1206306563593021 -0.34939182406736496 -0.16081730827408461 -0.023329564413709841 -0.32435613304467609 0.040192582177792383 0.1149308411142158 0.01390756236425093 0.048556247847641183 -0.22411977733595526 -0.084841770552977425 -0.0058685620350839443 -0.23668700350874111 0.077054817692959632 0.053686065834649653 0.12132324217532067 -0.14020737823861387 -0.27985902939266921 -0.018964406960077774 -0.23154228199365359 0.18825933428489963 -0.1938316822701148 0.18086822083333276 -0.034263442171499833 -0.0056086516705674237 0.17230186302344916 0.053517729712367207 0.076877766942559017 -0.090957478790424137 -0.039694484844204965 -0.060808250746903825 0.16839802673343882 0.067035425994798364 -0.13855125282525782 -0.021326973930165607 0.23906478066570191 0.17366821743130176 0.16374569779611237 -0.072008406966121305 -0.19557395253235627 -0.041659986312098454 -0.16098368613285244 0.09489626878525774 0.076920580922485937 0.22480975293226532 0.022751031124844841 0.1932413057146139 0.094402145634425214 0.019242982290605504 0.059307287946758262 -0.024767687330629562 0.0047176600883874382 -0.0090862288327244849 0.18879887585728408 -0.14122579028411752 -0.083387860539315434 -0.083382621142225596 -0.24002686590582697 0.01434129583619507 -0.047711345683317634 -0.14352348348157706 -0.21879342378100122 0.086280925246649126 -0.22691427123485697 -0.20323059228904006 0.088997277509777206 -0.17917826156819092 -0.21309797170139047 -0.0034920786756102895 0.0068834581731884994;-0.052988101587761655 0.098884937102204987 0.19449330396917441 -0.051272386716020406 0.13974377754468612 0.12171053360045384 0.025999905789599806 0.053357192531413161 0.081786347188973485 -0.066923276414796604 -0.077261058136725819 0.056779315321642432 -0.078472269297240826 -0.18987261989726145 0.0051028398165153368 0.084238363545517669 0.033514812401559936 0.33051267949383123 0.037713541408550773 -0.24923094435457346 -0.25377779865512778 0.26135610821495581 0.042929239202020061 -0.020290552274645646 0.24048140991816416 -0.00072717387086551383 -0.29242206641965363 0.11928810055627266 -0.070806116973216607 0.092714367301543227 -0.019817537832133365 -0.050791574184783292 0.27910626886639284 -0.16072500699051256 -0.74310242918103409 -0.46670199890070624 -0.049989913195546964 0.048431692182920989 0.019483376739013618 0.06172901560734595 0.068436870655433663 0.028416306107998855 -0.0031897796783615356 0.079401661411458227 0.16678994683934556 0.2170138248364927 -0.2780283452702445 -0.081142786338023187 -0.15703290271505263 -0.081469420767818213 0.081872798368138516 -0.0242484917040027 0.26472119235226371 0.032369430350421613 0.091927985525438252 -0.12771123595255621 -0.12832935090449063 0.19269236137997131 0.11013469264056225 -0.11373974729191269 0.033641719142690527 0.20843477806715913 -0.012642176276755726 0.03985207327231495 -0.028802248657696903 0.13734987171652291 0.0024860389752950586 -0.0021205603306065669 0.12926075246631508 0.094366852635436857 -0.2729319255271826 -0.060288011558107715 0.11293997550719831 -0.08267297475850012 -0.0099387042546642945 0.05653850654288467 0.12755138096591431 -0.028789413589981962 0.28622619655114001 0.18534343455972752 -0.34302327080192507 0.28271621544721398 0.024334377864957683 -0.084269344362543658 0.20224934071005521 0.070160736269284207 0.10487330791780361 -0.18232065653841145 0.20778285793811818 -0.0322163487390996 -0.072429552307769665 0.16011451321039544 -0.16305511821528496 0.42586430026566713 -0.043786185745010552 -0.12139177255890891 -0.088418329723416927 -0.11203978559510709 0.099362798604588909 0.39560568056158107 -0.10117725648285343 -0.081171269796297352 -0.062706435395008836 0.10315784700776502 0.15563200941438554 0.12597485284084198 0.070047771094702962 -0.14802812348847941 -0.020301189626704061 0.017923333429027584 -0.22383842707191628 -0.13461181424578181 -0.14373278518695379 0.078033582603291324 0.055265139819658152 0.15176934878362816 0.24819907904793109 0.011370081604327828 -0.12038877407507988 -0.18214240766122816 -0.11038245726068602 0.088912421394845981 -0.041333016410523893 -0.044550187291706428 0.17053527954070136 0.22044201449586232 0.11012519404160714 -0.11767911816931478 0.092145032224826923 0.087826791533844456 0.049399991358617563 0.18912137916745281 -0.086390554139580772 0.15014091227811066 0.14334381663223972;-0.020101992799748118 -0.09654150496548386 -0.20855649192009551 -0.16197495359332809 0.034985927192197452 0.016990234983659421 -0.15237483542509522 -0.27364908762651041 0.074350418704098156 0.1374346649015579 0.046217037642469296 0.099155751471265638 -0.21749239777311885 -0.020492670934039291 -0.06869179655856128 -0.030383217769102973 0.086603467581529897 -0.26816846776500214 -0.1721016792572414 0.27844289958779517 0.08532201354129125 -0.2788331306519064 0.15084081932838977 -0.046796090149186523 0.27804217308209361 0.10571888270034946 -0.098880436856056478 -0.20358000682942223 -0.19549074125202789 -0.060285124610267297 0.079427175523260812 -0.09027693232354686 -0.15032244752441118 -0.23181242139576608 0.29604455126252183 0.35006001310222479 -0.17393206672483486 0.096944177678885912 0.13614945325227501 0.37861724383314105 -0.038059069521986739 -0.058180564133720788 -0.20598023355917833 -0.013938704334708368 0.13982105786218413 0.0080199623271795181 0.13449867924597803 -0.029368459049689218 0.006739494307805364 0.029986174885683618 0.11128816374991417 -0.35234945282331726 0.1907760550662207 -0.10699360247869873 0.056192318509077716 0.026999049301299559 0.00079160317338632742 0.018135772587673248 -0.21060514749071046 -0.20156765817339203 0.075751476083282795 -0.19538022135057953 0.26323818880113015 0.050445492143247533 -0.14866194147308534 -0.19139172190438594 -0.1958576430873169 0.073677518685630883 0.060020946049305045 -0.032010662536221035 0.032656852611240732 0.13948001643470231 -0.17210136282223898 -0.24564597377547745 -0.24587800630920825 -0.20440310435286788 -0.054474156009387958 -0.37279434086036628 0.16240678204149828 0.18439983107943908 0.27958826157190081 -0.27200923063330446 -0.15907952067936526 -0.27441730522470181 -0.21018846016550308 -0.30837118419144699 -0.011708421452801619 -0.14549859138724902 -0.24409425389655778 -0.029379459641386323 -0.14259075869207943 0.03444256627952369 -0.24202482957758986 0.16760950274370304 -0.086186365464980472 0.39559907037613418 0.31322470103818223 -0.12137401656903017 -0.20884135462873854 -0.2436605164728777 -0.049344107888565913 0.05613463752506271 -0.11980174281021327 0.067388402009473561 -0.1119991064258866 0.084853016106287468 0.12434206165865948 0.14558415467130065 0.13378649800530817 -0.15365234397666747 0.05937351495222444 -0.0895632296510466 0.22900397701040956 0.1892685282636962 0.00027311727747937885 0.0058533110870679118 -0.095742088042307882 0.19758588385496137 0.076334450515372826 -0.17183170493010988 -0.082892968626275876 -0.18985348639874983 0.041086276919502403 0.09943897887826772 0.15312211965557351 -0.071315515147856223 -0.19653497772946402 0.20954288956180969 -0.10184965249507892 0.007287871476768488 -0.15082221025875989 -0.13267274084021907 0.040687873108993557 -0.17900192369865947 -0.1423225212027647;-0.10408676583654303 0.028986459697456432 0.08329670548893342 0.091051485720207992 -0.024785078302158578 0.04022077151020844 -0.06054935465563975 0.042203313055962713 0.075821768311446075 0.21091664045926845 -0.15993476807234025 -0.1426904333937358 0.10413941373690609 -0.037948413833519573 0.075298706293029358 0.12468599411425046 0.010134644090569319 -0.033860514619697177 -0.082717766403978044 0.1023119899422187 -0.1758534108344052 -0.36487023215966591 -0.20987704128318341 0.21415943432659881 0.2087075900660845 0.15422891728761715 -0.10350433824419912 -0.14550208218464281 0.067578751594085953 0.00074017521473724668 -0.20750922127061971 0.11264797750799885 0.32609857044317236 0.064273089437385633 -0.39765953726266201 -0.14986823164388313 -0.30167027852275924 0.085950596560418341 0.095921353955945671 -0.18285652217900319 0.33001881397206823 0.24445137151456875 0.19796230145621507 -0.073586680580616334 0.1030566665146085 0.15000083180009977 -0.16668100786692538 -0.109375408922289 -0.21454105860335063 -0.26223907727142948 -0.25153136003544385 0.38545229668609549 0.12620206925792762 0.002201580340253099 0.13378715032008309 -0.008533687274380827 -0.061887980012623564 0.017693468296280268 -0.076811138802055673 -0.1455476719655609 -0.019508276628925545 0.012505919556951703 0.13863373718596181 -0.28251552263047069 -0.082468558813358933 0.037293295928383041 0.55950735960891307 0.1407831847152734 -0.088369372292490395 -0.30290263247747412 -0.38033604523776832 -0.23955368859604162 -0.13427422421712948 -0.057005482409358724 0.15424831915836135 -0.160704215470066 0.087643066592275248 -0.066774223998366217 0.34842370928944461 0.085267636285085283 0.072161770235033729 0.15479769632988807 0.037592954779268384 -0.26988566325541308 -0.31902341328165756 -0.30501090549969107 -0.076644695277808081 0.21662137774938592 -0.15792001813844192 -0.14176860987829953 -0.21321070215325913 0.25120190064029568 0.09435726062697472 0.4506798197949094 0.018747109166093817 0.093645161335067229 -0.15633650261727117 -0.12137027795643078 0.13824036622537125 -0.021179192780910717 -0.037447454029401209 0.021869884737148286 0.050688094476652949 0.13298158771756971 -0.083869899747320342 0.12596260046316468 -0.14302488952147158 -0.088622341295495136 0.056536243179367458 0.097743935405480792 -0.031833118338541216 -0.25820393672470243 -0.14382160738171132 0.0017769476382496242 -0.008575539006608188 -0.15058595902420899 0.092304236970393971 0.019744956115121119 0.1171779422996081 -0.036476009043729066 0.22046470219382253 0.062257014035923416 -0.0066935212815598865 -0.080277210235859792 0.021365297690589435 0.012189678865597159 0.014211799164894578 -0.014351250975580918 -0.045955274022912163 -0.098545744639203306 -0.11245133745250284 -0.060079762652015575 0.16232746561371511 0.076955925416547513 -0.12837360259158923;0.052366490654703654 -0.22091139944677421 -0.18564602254684923 -0.048914680563907451 0.036256316470800277 -0.093104621434297805 -0.1899044252869295 -0.19631130118075435 -0.1173661823296361 -0.00040353544109427352 -0.29800778045288018 0.14047543069177987 0.054261674729208877 0.12299956758062627 0.018866888818524143 -0.013677402603047161 -0.097064908274196296 -0.029999045193695523 0.060957788907272686 0.04630554877263534 -0.21376180869998226 -0.27247427477709796 -0.21919752071735565 0.032897652527498732 0.12559798466933636 -0.022335740733054572 -0.27837490637147438 -0.19852642298078541 0.14706663164588171 -0.20310505211576163 0.08780516136360951 -0.14123408885014174 -0.22325725927750256 0.092568593908847308 -0.054860676949478104 -0.071287128130398225 -0.047279632265553137 0.032932150339705965 0.090059619609879862 0.28903682520297652 -0.016555438582454146 0.02760150289297093 -0.070678988531997819 -0.19372216610485163 0.15661689084956351 0.058146506502555401 0.026705085576448163 -0.029957450271826801 -0.12966375339843761 -0.10692268738510557 0.059182840228512695 -0.019765511944029191 0.19042141335925114 0.10265864420467273 0.069034515449878736 0.17916440810889847 0.071228678136137966 0.11323934143023308 -0.16796958598049608 -0.20605449848617383 -0.069610528953187367 0.10045275267967793 0.15066391298010268 0.095820048925943507 0.1524208681557245 -0.10658260323909462 -0.25155497248670389 0.18580673604711112 0.19023454289745195 0.15943577474153117 -0.15951338739368592 0.11829318333659455 0.068966253694462659 -0.18228385645089276 -0.12183843548512133 -0.24371383241018926 0.067310699542974625 -0.049735009675290584 0.25865245249802543 -0.050343453102719961 0.045846527845149587 -0.0050764181824759762 0.070059297093657796 0.089724082181912038 0.074429721251689812 0.0057909854293487044 -0.027376899046046444 0.05932273966401469 -0.048506760460724586 -0.19495055038161491 0.08421537388779822 -0.048304982829356413 -0.085147446251363668 0.22414609465475324 0.22729663372828324 -0.034797402553333391 0.17151506768320765 -0.12918147927594972 -0.10580699329086977 -0.18672581024953622 -0.021728457190011152 0.023120679602824268 0.051780344541134629 -0.11686836115394925 -0.24249816371386443 0.14728494297457959 -0.14006733909911148 -0.12708038049554085 0.034731096330969935 -0.069547431202976864 0.16389519098431365 -0.023036982571416859 -0.086074858411188254 -0.15744378644617391 -0.069718507090405557 0.11862568011718405 -0.0060113346887425648 -0.082408512448896173 0.12967938493958353 0.0031134480252191432 -0.14368411448644908 0.019789203762616493 0.15164431157678607 -0.1446558460318117 -0.1649645547476575 0.090906304736021182 -0.19832004856780153 0.11947163758421483 0.16167653108174027 -0.060415969233996759 0.010090243006441263 0.089941263944090744 -0.20314605341621067 0.022196932936845746 -0.12268911847054904;-0.14010679831488684 -0.26149043128178484 0.13869295292315686 -0.024565920643204869 -0.089492872785338629 0.0019978769100814607 -0.029494956947053383 0.10200515082028706 0.074944741095991793 -0.082440329859044439 0.10268304354422965 0.39460928090877267 -0.10886354573977605 -0.19602511607212048 0.045341269689500127 0.054951846012613353 -0.12128380150658953 0.15544841417071348 -0.015795999787911748 0.12741477178009747 0.0026668530578804689 -0.17571612701907505 -0.19846145143592397 -0.23451528999829696 0.025435625595317573 -0.085911096576937268 0.082053191603129239 -0.20191387976077904 -0.19780363765359527 -0.24572330179443136 0.072395221046302374 0.1274361477284823 -0.18816672029304116 -0.19254662692531985 0.43587479699079063 -0.010793200487082075 -0.19645012852055979 -0.14450065426309544 0.14070376240487373 -0.024007583832128837 -0.12001838839097791 0.12453680328544031 -0.25148708618536658 0.20076637055015473 -0.015628893596302471 -0.087530637753582774 -0.054126059813356997 0.053203710002214979 0.26167198502279893 0.17692500021264099 -0.019889503995196907 0.024292425216702888 -0.15827752726027589 -0.025978559122208322 -0.056557058977526213 0.098496897936650313 0.34643944025303758 -0.071895541912324321 -0.1699442904951759 -0.029780171268821869 0.078419902130936733 -0.19699846121853021 0.074503363578151016 0.14498718625204815 0.11275015275050208 0.16232461617022342 0.11589963505240848 -0.27099566694821176 0.20031677875015241 -0.074474678150895673 0.17892291473435759 -0.04992768114283825 0.26677891765692374 -0.01556348308286697 0.12456768560550316 0.1875370060882236 -0.18743233551359592 0.084846069108703334 -0.14562129699138704 -0.18398300477002319 -0.1750726224408049 0.10255374567985211 -0.11608543533957622 -0.13028429067786726 -0.19335291488282538 0.078565427544211669 0.073011416343376573 -0.019362453993967216 -0.0044024885110316575 0.14403542770083333 0.0051238160057244415 -0.19552290424016899 0.050149208284853253 -0.12349585838506699 0.083321483794340984 -0.079919122822605937 -0.17914220576631346 0.066854691247348913 -0.14970618600013585 -0.27177686783673849 -0.088475017998078484 0.049634035607794821 -0.11167493948523738 -0.2422708257922826 0.14006003034729619 -0.010921536662402288 -0.0046992489941234932 -0.032856503350663556 -0.11875699203388276 -0.025993468676825005 -0.0023926212923762028 0.28440758737079358 0.29932366727212339 0.043824027628243729 0.065305096235937013 0.092054416665391867 0.067051754319202767 0.2445993098185639 0.016495650859904488 0.19489348341774682 -0.092868044306092468 0.0036982982553964002 0.074489365856463027 -0.14597480820926176 0.18295160441790587 0.14570031164422717 0.17171300610769599 0.24049908012772964 0.21073615357549627 0.32221007869675017 -0.1078369513615188 0.30125126067954333 -0.086815885695059131 0.046891245409016138 -0.046116863273410524;0.0092645592389103242 0.063389610869829971 -0.24684911696737202 -0.017579750704312419 0.04152373971354037 -0.12083839272930223 0.041627844492721111 0.03219177680803173 -0.24917268097313922 -0.24219528253895917 0.2542405183549134 0.089804027230212025 -0.15632911078847178 0.011405402377499882 0.066034661725877006 -0.041282510660657502 0.059071951456194503 0.0011615644185242098 -0.075872781686177379 -0.14658134055608094 -0.13464508369432918 0.085729380363543342 -0.098452995055596126 0.096688701011931527 -0.21204110649012042 -0.17982220640796959 -0.12234572210813763 -0.017243239885066184 -0.044192590355380416 -0.10328228167262753 -0.062307065659322328 0.15317073329791694 -0.1594692533866543 0.058891839147120123 0.19000323800591945 0.16014227270722828 0.1496373694608458 -0.10542660748756139 0.30317537841331887 0.035269626074554215 -0.14680613345254709 -0.13788469719493307 0.20781127425303231 -0.040628789127544661 0.036172281856021643 -0.012599756342991507 -0.1001267060905749 0.057359750928959875 -0.19038160032723347 -0.10356525138759097 0.061924039459928588 0.17110281560015389 -0.40795664253882552 0.19853147104596847 0.33700091518464514 -0.00090662218968964219 -0.2660369783377341 -0.058028675265199704 -0.075070428181214149 -0.17601911965545405 0.10188800491715916 0.093796786439413915 0.054361407158836507 0.40285313986451293 0.24171218324655627 0.12362091018449417 -0.051588229959840026 -0.41527445320530731 0.33056282714927226 0.1342906474995782 0.12849352476419887 -0.11770594645174329 0.082262707380003672 -0.17573156648527835 -0.078718985394998678 0.25395734179331764 0.061031348050699173 -0.0013694219571394003 -0.38568066453889627 0.10713626060101686 0.3297122541329538 -0.17910802825831124 -0.045782310397435182 0.15101854196130748 0.19520014051224535 0.24307819964474142 -0.07479236037776589 0.043740814619311598 -0.11089291909422469 0.086572097618068847 -0.040414492604077978 -0.19961884395220139 0.31750942656165254 -0.2900749160007135 -0.18307957036267755 -0.12133851260312085 0.10668771162874609 -0.036026157514333891 0.15298134052162699 -0.10580096273920014 0.045595646627752451 0.22075394201381932 -0.13968825275628632 0.16366223848120542 -0.030902079687784318 0.15065080103036155 0.19240435469179792 -0.0475140797841581 -0.2044506149316587 -0.064237931520230274 -0.0010235194225386643 0.077138583409911032 -0.23792700329670935 0.076570640618251931 0.038215341249211068 -0.038702152225297437 0.0088683804956967358 -0.10266353390276185 0.053031197012298262 -0.11688659293044461 -0.04442425590870188 -0.03478781748244205 -0.16742687381793803 0.29530835639059416 0.15710186479157429 -0.10831673350615889 -0.20194788829044349 -0.049011507001913403 -0.1499028572017706 -0.015943475608956374 0.045670942029094615 -0.27778568715995328 -0.096993865255126432 0.072470341476767841 0.16971122890662582;0.10206274079767808 0.10972577521119199 0.0099311900345202229 0.40831330616440253 -0.14539803498327381 -0.20970545498913401 -0.42356942978311346 0.11486762938364549 -0.20276790595698654 0.15375759249855805 0.37150501148172244 0.12714643132951747 -0.10265297313381143 -0.060807982244236967 0.18566287664624595 0.084298724877130193 -0.097525660655706281 0.13434402192093503 0.10975607676261352 -0.043884747825663643 -0.026138330540815206 -0.3272932167434629 -0.017697595822654077 -0.19350484923386083 -0.1514666638443658 0.35781982583795252 0.27992441258617606 0.055381056897705214 -0.064747014692835086 -0.071753634944544273 -0.0011172224458540854 0.16816724971483815 -0.14212382381724534 -0.31026272605719268 0.15170888567483884 0.14981365579404193 0.21047367042953435 -0.24126098281817859 -0.10549005039617869 -0.087843716754888543 -0.68574056652254056 -0.071592793842932323 0.018598483537169728 -0.032273868066752552 -0.12116763742977567 -0.026374227525560189 0.029586708430067138 -0.37637250151818236 0.10000121035325804 -0.078541792435720167 -0.03657070260596719 0.2475153641487064 -0.37802771268244501 0.20200100757130932 0.12162735493590435 -0.30816044765777673 0.11447895004483434 -0.048436496456452399 0.054655208378275366 0.2233423665128263 -0.16491108128690074 0.23435303213431766 -0.0069070664363451596 0.18980538578084069 0.21415173694786852 0.13589449422559788 0.39518039027408408 0.027819186659092429 0.2866235252685958 -0.096552838688403364 0.02471772840137158 -0.088544614809661581 -0.010680020421000802 0.087461238365637878 0.028583693939350171 -0.153583659435332 -0.14697989891940083 -0.013425293447301921 -0.13726673234482767 0.18114123351170014 0.18113951913983431 -0.17839938662466426 0.29839901490843135 0.17538132865588912 -0.11732637578726904 0.20608088479794992 0.031782162015092194 -0.041176239294109594 0.035519484650908269 -0.10635628358072576 -0.2073894506050529 0.082967576871410764 -0.14684929249679918 -0.43376767407349937 -0.11212794948434621 -0.15707501219029141 -0.39744522523416637 -0.033561424594081402 0.036987026333387379 0.19367437308040888 -0.10616189813736268 0.059314693656920443 0.25049846956596294 0.14622352936442648 0.0095553906350685086 -0.027793188858095851 0.037544875509603927 -0.053375717412450431 -0.10278224916365854 0.13554924848608826 0.053374289809511505 0.13854184112086301 -0.032178934591676998 -0.17272791071876908 -0.16386283905721938 0.015160668802106462 0.11713203375490908 0.12391236380047999 0.089246896882069215 0.11004615848836694 -0.20132172714609095 -0.09343669660526302 0.13632506037835795 -0.2937733183557884 0.27908340925495956 -0.018067360493232446 0.081376982327241956 0.17473878923491046 0.11504338614434553 0.18320020370854226 0.095881176529295856 0.079171812794748719 0.14645466360543499 0.04212592609240446 -0.030679495998883172;0.17531770075500697 0.20391712137179399 -0.029031841960333902 0.010601775821355353 0.016355421033155636 0.118181089077164 0.18407946468894415 0.071828408331175736 -0.067744520574700637 -0.1935338907611468 -0.041455167293396718 0.024677883219969367 -0.13340534907306167 0.013284782849190437 -0.11704017148458107 -0.0089632161203244964 -0.1772739912999847 -0.12805787984430442 0.023484717250062993 -0.52236370882871896 -0.37856931213442607 -0.21363928639677163 -0.21194990380490211 -0.1088517780360382 0.11368452999156101 0.1257841082400574 0.19735391408920186 0.15669125904230483 -0.19002403461876163 0.086476466701129434 -0.022077771399662514 -0.033417678948883096 -0.26233874840909871 0.097839259511727214 -0.055953562962629148 -0.11618546283242361 -0.17731050306720925 -0.23825519484995156 0.11376018167649476 0.21532245543250553 -0.0024850714903748676 0.067625917028637753 0.19213420573266113 -0.064746827229539325 -0.021568201161993403 -0.14600730699775005 -0.18046329848791567 -0.024069652864849387 -0.00024799227199733247 0.23761891540426103 -0.095891780401261076 -0.38622157137819019 -0.57180488869433577 0.16264503030304794 -0.048865551498946329 -0.20726120022645847 -0.22058118211930761 0.10458604081290715 0.041749493768968853 0.046721111933243957 0.096402392857707825 -0.051603831629735336 -0.26797272764447966 0.36447945238445045 0.12940329784402357 0.27149016284902922 -0.073526895519980387 -0.43793272888555035 0.11709424088339192 0.077699864439060184 0.23817662228122902 0.3308891223046363 -0.18634208779035594 0.11713399151195786 0.2008905132527008 0.026507879528262165 -0.044795154508020671 -0.21976336850484501 0.14721304790394851 0.040971498986537527 0.18313703821443236 0.3067829398521093 -0.0074614026105311142 0.11494152760081223 -0.052527700931527858 0.098714155984115801 0.2561593999188283 -0.051015320909773607 0.18850980177866178 0.20020980353698939 0.089432531358378281 -0.13707330232536019 0.059547093662220281 -0.27156516843185075 0.31986355311588405 0.18314387276332275 0.054651707280955315 -0.039480311208100229 -0.03935654525762209 0.14281024917472832 -0.15929389053074133 0.2640809128232392 0.044191445429813715 -0.086680597564097239 0.15241536269269781 0.14104370197705593 -0.044576642034191788 0.083545245473056945 -0.041520738277166076 0.23827962649005735 0.15782390311584868 0.22322827166459591 -0.21556677735084878 -0.032994819667223535 0.014160585882987168 -0.12952030028257572 0.25964094172474766 0.18103031040745096 -0.067508816063383034 0.18389606979330056 0.026958719061544231 -0.14217171676224313 0.10215743504129714 0.031784764442740539 0.016490562049650343 -0.087738167158785157 -0.15463362164280109 -0.15187887545454146 0.01924430578513615 -0.16122955285545815 0.028132184188133916 -0.26095233253442252 -0.088123910397029603 0.0080010622391279446 -0.0017128500939756642;0.15464677664654827 -0.15075197664065507 0.12699976855844144 0.11359714036401086 -0.14276897505890626 -0.06603476943261162 0.15680143673155475 0.24105125923606863 -0.06743282066085321 -0.12723110314088698 0.032925492152104947 -0.088674337474351633 -0.1033765874691933 0.11790787755865753 0.082518270576803346 0.22609511849269923 0.085230047096850531 0.20904484021058897 0.29259436265608524 -0.1724434764261826 -0.10470049410208569 0.044062258964810454 0.059404855652615218 -0.0042894234417881656 0.11913496559259296 0.03134466788915706 0.031113727354367415 0.024861270535412136 0.072995645324056196 0.18417298105581312 0.051508805993223244 0.052195022081919999 -0.013385651233734584 0.17698412643022238 0.057787651976518917 -0.030793732419599276 0.22789061635330052 0.091666685299251774 0.34022228335629351 0.27764977080435871 0.14544055859666291 0.36555894864826743 -0.12539084572872183 -0.019623472760722429 0.0035843450396945433 0.010753526180666379 0.052198195266859378 0.17637544484034476 -0.17326401666986108 -0.17553638348101316 -0.12398445758835011 0.053980994342876426 0.11752056155426363 0.027384930681748347 -0.06197826552625689 0.094819611218278199 0.39353425368077838 0.027443188818886535 -0.028127183934328916 -0.20989786238107827 0.034956777563292504 -0.14317310809662726 0.21311146604663136 -0.099637376881907019 0.031821148678952763 -0.19425412729201574 -0.22811420251173059 -0.17036089703913418 -0.12459057377719579 -0.38545492227837641 0.0095194704364106684 -0.11889057570169741 0.12377920260115687 0.14827860312857283 -0.17530217823353564 0.076295257898753216 0.10942592317685579 0.042464200780283991 -0.19499949461195357 -0.038794843264575725 -0.1174570637788931 -0.060916269448644214 -0.17745752337068177 0.13408521576682081 -0.0096102822144325962 -0.074633667071418761 -0.12291716109398119 -0.11618287408950542 -0.1587589073096618 -0.16845062306101924 -0.072400343246922863 0.089148027180236178 0.18696554662943976 0.15703579521187228 -0.043084542749173442 -0.10639443908992657 -0.12026277660474648 0.15562892486782712 -0.03309310242870947 -0.088816818978431342 0.04727566166526373 -0.10775302526077567 -0.057629488257654175 -0.14712003944457008 0.074516778266801809 -0.051809991162897737 0.0075690356893702597 0.14227278989089603 0.05175336015103342 0.10444714089109922 0.14401306638966629 -0.078839447032143947 -0.097997959067904553 -0.048866215075657901 -0.069462133151856356 -0.027341133827284869 0.10350512797744094 0.066245264652594976 -0.10809510959768293 -0.010606100598897914 0.1253833089126169 0.12272399885343312 0.096562965096618061 0.081195044822823637 0.041215548215859446 0.15671322209248012 0.049876509086909042 -0.1718028241786192 0.16696977930925416 0.13923024756743321 0.047687252248547446 -0.024963746818373631 0.13538968875955873 -0.17637586226556234 0.18739318329665841;0.034702344467326694 0.041339394612169018 -0.35251014487651267 -0.033116681011669126 -0.040856681498120107 0.0042323438517222183 0.13901312541775893 0.18275576973979271 0.11854588043320725 -0.10609625530449038 0.054405656321132166 0.092723029336038695 -0.045140336458415614 -0.015563321563013176 -0.10939675892036546 -0.10018130605248635 -0.093602825986959709 0.053578775786516528 0.18365535904724437 -0.11343327931556921 -0.13700383234884944 0.25857918708597744 -0.27549203691643165 -0.080106382163737111 0.051076984005272115 -0.11825228861640007 -0.08034584289384604 -0.088348569280334258 -0.048206371771679322 0.20616847719152787 -0.019670374028465665 0.1869415168957185 0.059016735784557441 -0.045281924208420914 -0.23320979510847578 -0.3873300245721002 -0.20011389141812397 -0.021948936311128372 -0.10011732104531262 0.13638051094583631 0.085085015355710919 0.019811924346287819 0.05983007986421527 0.074628501901530794 -0.18043727681108576 0.09838242359028937 -0.0021987720466255384 -0.21164444068645299 0.039735158732036278 0.21950191553674969 -0.095946528874774048 -0.31813986566819047 -0.24048279123065611 -0.14926414010552069 0.077582363789681308 0.025781910817191247 0.079322677727247978 0.092818463269402351 -0.089293115413292948 -0.21573671194988397 0.0064520187475706819 0.13424267422019973 -0.14010813696731872 0.2630594523158527 0.24680671985285163 -0.29564466055658706 -0.17734534196550689 0.028485213690420771 0.24362873762490436 0.14333208387534824 0.36816281527194128 0.071002579459149326 0.11834303464144569 0.028492064856894223 -0.19545213845179624 -0.067629311342892823 0.14970510827710659 0.086577748551864231 0.32824168386798752 -0.020670267375905414 -0.11270332800026438 0.33456581553812481 0.069990130213294532 -0.096714586654273696 0.14242533424776202 0.011186576076471154 -0.023250340236825928 -0.029003996846232314 0.018068300716187022 0.014841405547082832 -0.074051138969608091 0.025488349785107944 0.088360217664284951 0.062852104747270862 0.14205422679715898 0.26150834379510551 0.16494788701042917 -0.074954643570689483 0.1538112782742832 0.072556116261263431 -0.025519288031545958 -0.015936286559320764 0.23438704640129865 0.2067312784237611 0.096589551654432518 0.083908839216475781 0.084815626555261925 0.094860840485311834 0.040508830915058795 0.017507542820079283 -0.035758790641975291 0.36476251363463491 -0.013065922656692644 0.16437330796789362 -0.078160979882034368 -0.18166541300245956 -0.053114924207307956 -0.062949999736227377 -0.2256119190081235 -0.12437925547561741 0.22970728752647809 0.011752961373342401 0.033842990131970709 0.12042228415701117 -0.14210815328457724 0.14258425342443343 -0.055669628493930513 0.13048973798835004 -0.19317016454410912 -0.16871303514628783 -0.021425001132818276 -0.26657994451039857 -0.11268487738636963 -0.069785710245513499 0.25954086309254915;-0.23550924429917208 -0.059911809214618909 -0.11670116809524972 0.015741599499000773 0.010456591430575059 -0.071760212797175954 0.058652319678931204 0.040976101456107417 0.3167234992296124 0.078930277679888514 0.018426596544687791 -0.11050326867077477 -0.069975264416270944 0.038862858008633233 -0.25248252582523462 -0.22919352431284629 -0.10863128500114143 -0.37672671377548889 0.085449714560954002 -0.044707851805021709 0.058522485604015809 0.059275581424706278 0.5733914533242962 0.37540668101082258 0.5683189945296292 -0.19966134728471835 -0.19201110972528637 -0.0074493444108308226 0.1517347850574382 -0.14621810418993603 -0.11783016010707777 -0.139232757417835 -0.17565307269551128 0.06713729347877391 -0.17989288102644713 0.30434757802199358 0.10801862254627156 0.0086720075004697306 0.43614274207526132 0.44890352491327185 0.11013239978788938 -0.25909921060536617 -0.040717310037783817 -0.0521940248821871 0.12552635864872477 -0.095519756162842653 -0.25855031172667403 0.18896722709033736 -0.20009003148579277 0.21732329674031789 0.19196656532642523 0.041964688853254904 -0.19945964119064924 0.026465674287908532 0.076472443875657187 -0.032192788348535145 -0.051509361955849306 0.13504322134211505 0.10431262762821016 -0.21371537948179739 0.061347475712776919 0.068958978309790461 -0.14627460778939369 -0.060471186150116693 0.01168636824716077 -0.12249904168173553 -0.002557080339485914 -0.39010691851027873 -0.16891020463156056 -0.11677153521138976 -0.17772781453718242 0.078644678144540611 -0.18056974827258368 -0.0077341454362069044 -0.29307125579390758 0.025633826341531826 -0.075375674626239675 0.17744317585204697 0.075535632501304684 0.039553134043206643 -0.11378184966144851 -0.18922957419066025 0.13304539004012098 -0.00057190155489649267 0.10162422688234422 0.19658654509863591 -0.14782752752924069 -0.31551621079905928 -0.15637533372992141 0.026311192310588816 -0.26112928110821965 0.0015135438056769973 0.32349502312444522 0.088882591012924644 -0.040152417017983853 -0.083210881420225313 0.052383706814276003 0.0072034837872461061 0.033031971357434242 -0.14157652934031087 -0.19510618154212345 0.095346718817600457 0.095733696347952646 -0.082058461701686833 -0.23588958528866935 0.13818377645237634 -0.17990093632157211 0.069030594449670121 0.22080250856988648 0.15022702328866369 -0.0057923468977901403 -0.13451189685212497 0.16303700938858501 0.053632506009078797 0.12333135218149743 -0.22014209649490674 0.044471025585500375 -0.060844197529005939 -0.11969975604342184 0.042649364189594335 0.022611136209977283 -0.14380841852370094 -0.033620739027800779 -0.19719498217233924 0.16721600102695949 -0.038539733253807634 -0.17470527469172759 -0.19208213253473588 -0.057514982806911127 -0.05885681866055574 -0.051177909120538712 -0.15967614658757343 0.095872186952667637 -0.057156451786308508 -0.030212338075979103;-0.1587761377794733 -0.20972853549000711 -0.19019179031581718 0.1512386218247356 0.057661755831319141 -0.12199448376768554 -0.13276024265794434 0.1587925719141921 0.15855002730931642 0.10002192889652205 -0.0016270411309914797 -0.052280413996914764 0.0070374574162135085 -0.015159129505569552 0.049745140230819752 -0.1482876606424777 0.086751836887286229 0.12100001616450075 -0.10032012699158002 -0.088370699480489298 -0.28513385518446527 -0.38885859173860299 0.18230616513305795 0.27941343487224984 0.1636654566414536 0.23068515549103005 0.035795235553295224 -0.12702312889083242 -0.040156744971739267 -0.097832541371482923 -0.12466201917666425 -0.21383127931469523 -0.028743028599874033 0.17128957671247724 -0.025038816571593434 0.088992831952067003 0.22221224296530778 -0.15439587403478727 0.036183132729096457 0.38798518559263273 0.11437925218633636 0.014555365857553128 -0.18275817265387978 -0.053950550962375027 -0.16860432979017878 0.15932085955152653 -0.21734233529591473 0.020782522505877785 0.072651116062504295 -0.18732945132702628 -0.1141902407399356 -0.034426924456025985 -0.10406644372687712 -0.12664835460244528 -0.048592442907213373 -0.22702161377835789 0.15407546213020618 0.24422126389646884 -0.02251401904205675 -0.028058759858457138 -0.010561797006410557 0.079982656995956539 0.091804039396166937 0.10119299919622032 -0.053063631801191599 -0.11233043097424208 -0.0098998110066719058 -0.15915275259256173 -0.089551670894483848 -0.11301001588064051 -0.25381360524334801 0.24519847092723268 -0.15179673724511691 0.1907526921100324 0.081992310075269317 0.02576213841945189 -0.11839976850294694 -0.23478098885149942 0.074394471164134501 -0.12707788363749092 0.017347047825712433 0.031237033286420884 0.037347562083399469 0.18555160908523258 0.041560117235123838 0.021373457021657848 0.17415131215215132 -0.0093725064138950077 0.18413009744602549 -0.035960928765669462 -0.15362939782688848 0.11629842028886192 -0.2847169845022145 0.2206645125561548 0.14811809878787921 -0.13482932763956434 -0.28364960390187388 0.105877346979338 -0.12368604213119098 0.33788320803055788 0.14318109838530368 0.22101854064020179 -0.078752324262110485 0.17493424438500332 0.00073947705795408879 -0.0064214492302712284 -0.20034588974668685 -0.049090121257168849 0.067565607567666247 0.12958109411474533 -0.030119427742103581 0.11577474846347276 0.20850275187519707 0.08182314930490657 0.10240407530275886 -0.06995942912596069 -0.090125055839514662 -0.22635663815311846 0.073977735344539622 0.010310847700937454 -0.042775629729685703 0.11806216470037394 -0.20176514441363919 0.082924489863711523 -0.0060397772304148301 -0.1317312228075373 0.035213879739583724 -0.23401666878134031 -0.016486179880978735 -0.054909332830104296 -0.039367322711165109 -0.097931237003942573 -0.15480673199838194 0.04425452314665046 -0.15415675922161742;-0.11168837514264168 -0.10042313337323992 0.24618910531184812 -0.17171586405399578 -0.21362380719585949 -0.063026226487535017 -0.041656500037974352 -0.11235721530313528 -0.16625028426265467 -0.054006540338396872 0.091381087289718874 -0.18435245393620239 0.15290593206194114 -0.22399841160145234 -0.04075214662175683 -0.20816299859002818 -0.04774131867345429 0.21646921665130542 0.063727483085875197 0.060227228122079937 -0.029305305339692944 0.054179750813206667 0.01148292368348041 0.14623090198720964 -0.15749562659031779 0.010313751596796351 0.03866552086179597 -0.18471448930033812 0.051104212302810918 0.093885060271248141 -0.15315176848347356 0.15823054725380767 -0.070254075976405275 0.12541507170423372 0.51122309411265454 0.27851071578123121 0.020874982903065598 0.049479933476512715 0.086323438699165755 -0.28616300555863439 -0.12255564137388489 -0.20207079170816308 -0.052984938932026472 -0.091851465898362711 -0.020603730873623976 0.10762619726621261 -0.15882478112812815 0.055366656702302487 0.20898918635733313 0.14453403486334643 -0.0056933262772689347 0.047442346749508334 -0.19000878487195419 0.24210971065132075 -0.15326302596839647 0.053108217828760032 0.064773410989442823 0.017214176789567118 0.13613069497695868 -0.1765232438174559 -0.13280410010299973 0.13161601796491251 -0.061152789252250907 -0.09147721322026689 -0.020454657759106289 0.012731632179806284 0.32366923557220345 -0.14858520720670496 0.28260309724522259 -0.021879085805894639 -0.055788014719748938 0.19569975941335577 -0.049187454264986379 0.012391233667091826 0.022161207436493809 -0.049458983836796644 0.064453949908779506 0.084906739980572993 -0.031024400941712594 0.064404802970371433 0.020775349686681537 0.026878495182074531 0.065835295592123616 0.054908036883767372 -0.076235790947625851 0.097336587252904547 -0.032951290657465819 -0.080465121766513187 0.003220530253088571 -0.052622629897257661 -0.085698879530930708 0.020939100917052467 0.115471281645993 0.066055983938903662 -0.30922625423171268 -0.093641769817041975 -0.024665796775585794 0.13376249390641837 -0.24473943208763257 -0.18647994105476817 0.10493029914993596 -0.2062372240046329 -0.21690089097853965 0.12268450966321696 0.19895746437784018 -0.023621621282521973 0.071804257009080663 -0.11318012391953144 0.24007379016105218 0.037708263109813914 0.14862899827481563 -0.051762049403402149 0.10214179744283697 -0.11336329377043911 -0.079301534124549294 -0.067370402489522072 -0.048713716081982543 0.16741736989568648 -0.090790217538160606 -0.18436869903318459 -0.10965522073952831 -0.13623526793438992 0.022826204260369073 -0.23717440893159519 -0.23615271292732387 0.023974016872461111 -0.077536278399414654 0.019978729215440309 -0.15034405075732671 0.18215109929805084 0.082848771124241175 0.22980897857591565 0.094237896645156041 0.17702873316622328 0.014134600587895162;0.2017604222263632 -0.075947636564822452 -0.014157507550810532 0.12867014456904222 0.10301032642988966 -0.13482374534156949 0.27487233858358312 -0.12360332082750153 -0.038470918202907059 0.049645820099501012 0.2120216334273709 -0.00067249349421407833 0.067716376204171425 -0.051227915625290436 0.047547912882001407 0.0070672621289165913 0.16800296379797017 0.27738341335970162 0.079884399492406624 -0.30535940382601706 -0.060263006741556047 0.084918081879890847 0.18508545033195803 -0.058715235525699835 -0.14178834164018714 0.17046326623649199 -0.08875687910312112 -0.08814146789187427 -0.051976275853742294 0.15077498758804322 -0.11101233852223601 0.13442871987872071 0.29972600025299767 -0.24143936180888698 -0.25731900459336393 -0.38280573692062142 -0.020179975635274357 -0.38699825617604089 0.051990562105778869 -0.1155075815958197 -0.081129689196071997 0.12832953017427418 -0.028502784209271111 0.074493546824479367 0.23628778544340046 -0.0272726431965453 -0.15710667032100123 0.33923178794495834 -0.23700491943549676 -0.12279410104969198 -0.16242534073972856 0.28569104220257485 -0.46542637329622805 0.096031581213812917 -0.03223014807274989 0.25649151539766518 0.18267528263170144 0.30184160276436578 0.10850660410255339 -0.15433009728127361 0.12551129020516752 -0.060316131351968394 -0.12402565579158949 -0.044071769281662607 0.026873353159484897 -0.1458009584203514 0.0077903510312401485 -0.33130230084313184 -0.15273847661871695 0.0021472442491313089 0.11160398925918374 -0.25568892985862951 0.17307980546549875 -0.048431841983682222 -0.082168994426367062 -0.0084540130015189896 0.20621587282272102 0.053771505560607266 -0.06897031790349159 -0.28214674568239201 -0.37303698310488231 0.095723566425210363 0.02834480408862548 0.052565550425130766 -0.28602496373895969 -0.24668223035569145 0.05442392995754456 0.25939481209926746 -0.047366657951050245 0.10307690126384003 -0.080748587290302348 0.045357214192717592 0.47585040618808999 -0.020328713092013905 -0.16694701010334637 -0.046279901308588223 -0.16575369308086102 -0.17950737579391526 0.24401428033651312 0.019437915945485124 0.14005576292781813 0.19735040624236844 0.15603448541872814 -0.039594886554863352 0.082959737873351577 -0.053705670867048069 0.079362253620383752 0.057683782098869311 0.16435304991248706 -0.10062168664663076 -0.12011981824150307 0.10581298812701592 0.020934082434831209 -0.11972406764654318 -0.12332966511274747 -0.17300982206000004 0.089323640815698144 0.01583893989914412 0.04087321646506166 0.24188934610794627 0.13137282349382182 0.23641214058204191 -0.015909705979801004 -0.028593662141519875 0.056863649412232278 0.036749323665966921 0.079456585970287985 -0.083340423324141072 -0.13364498383889342 0.10990788058363923 -0.019334210872475634 -0.086288577425260471 -0.1303755448404299 0.26277795609405513 0.05533162359651022;-0.11625150096438398 0.10368451255905595 0.17171349691895713 -0.014778286635652614 0.15311521187816546 0.2633400909811825 0.027331203681384478 0.074430939967970469 0.065789125238367649 0.1967401966014509 -0.10905620588778839 -0.20306701034538335 0.16687694945142034 0.10284283075123538 0.078253743365398518 -0.0033802431131279053 -0.046828926562057463 0.094679940706339408 0.22194540225370676 0.13980706804749365 -0.10054166042812626 0.20164315615612868 -0.13352104036541604 -0.15645044473425165 -0.031667692959418181 -0.066919815211671341 0.081208268949718804 -0.15978796189756075 -0.074678626076773655 0.096802128755117262 0.19518227879608516 -0.069354169557648351 -0.21330747730081959 -0.14583813275232652 0.20433733596541204 -0.10578671185022795 0.14639597418174399 -0.018709359169571234 -0.038799020628009225 -0.32951207178357117 -0.089347919159918271 0.054126598099808604 0.049104810830059367 0.10454090927074591 -0.055483958907378235 -0.024889694466372382 -0.032424322367530137 0.058760818146178333 0.1100608021043474 0.038079494347752894 -0.15287192107090294 0.040960319628470923 -0.00089620952352374283 -0.10512862468422014 0.068401105261169645 0.030870367510317739 -0.038876356920247324 -0.21204498531966018 -0.080548736320482053 0.11502171191274628 0.044571017910105953 0.13926393205276863 -0.011418653745526468 0.1315007919278216 0.078102180508375293 0.19131471268010475 0.058771229456919441 -0.16400931555855106 -0.053248744358996229 -0.12628277917945221 0.1880514301700642 0.057624167864498775 0.16636893122436006 0.19504835534519999 0.10954282016690987 0.089690840509416114 0.0024702016594922386 -0.28133237207676748 0.11542151623642928 0.0053924591090509684 0.1529452094514564 -0.12078179217953816 -0.05731842327489662 0.075438431436220477 0.21404795587854547 0.25766283100590404 -0.36342641855872371 0.011910308493141418 -0.17302434547890716 0.17109587610630345 -0.059189351831025645 0.0098237342489036796 -0.013557129490547038 -0.15825841648268099 0.14323450053501272 0.11114665018704388 0.012834550794758615 0.22040792742878307 0.092359813630023005 0.036127814476601773 -0.10586959282777757 -0.068168111463633468 0.19081384895187906 -0.15308101931159537 0.14692203926081904 -0.085010979606678153 -0.069074662732124217 -0.15798415212489536 -0.045846385027057984 0.065349660250835329 -0.13609967117212812 -0.12604729802223835 0.072582950869881854 -0.15840249147631735 0.17681554948440234 -0.0082754577393513579 0.024277964258338468 -0.052638637616017628 -0.1117865005557364 0.042012398897197205 0.16660949090637819 0.12658052890150612 -0.18909164650205551 -0.12568069475940846 0.057719583650808814 0.26271296475037675 -0.017257644226119438 0.3205961367868051 0.11687600753849106 0.12650077807809182 -0.21531528873404909 0.14807112754476531 0.048553368738801728 -0.20241231593853148 0.21171985166118271];

% Layer 2
b2 = [-0.63115438919721722;-0.65233627468828403;-0.43033939952325573;-0.1313510452710287;-0.93899640508230309;-0.077736880829015878;0.067510740867881766;-0.55992835357466897;0.48660226931371375;0.62745396979230295];
LW2_1 = [-0.51496248428881497 -0.73294628571849119 1.2317044069459731 0.65997703308386368 0.20123741204463189 0.33183582660396727 0.87487163522714728 0.7704714667895981 -0.80926330595174056 -0.61772582893624484 -0.049597850496084797 0.32467504962621579 -1.8233270478962269 0.50805430898097281 1.3813723045195634 -0.47664631594031159 0.81679592665661616 -0.82829915458922343 1.0428336211127178 0.17546866440727787 1.2704089770735607 -0.94760200783006321 0.16709782236422213 0.36707542619825351 0.90716293831161388 1.4929444407085659 0.39004683768429027 0.00663673515652668 -0.18864411996423994 -0.52592955319689538;0.60088489283622271 -0.24830379887779425 0.40211057317874965 0.59843273908095407 0.74295239506180921 -0.23978798784656341 0.20332591183926496 -0.97742091789380148 -0.32074131791447291 1.0495327510576062 0.64088473973152149 -0.29188837856816935 -0.67457226691724692 0.41513846267584159 -0.15884539171600584 -1.0156989094913538 0.054509661216649928 -1.1112220506498232 0.75852469219327301 1.0984252081959092 0.7443656170787557 1.0804751267745414 -0.13204089489316653 -1.2183974736999024 0.27797646688638439 -1.2557263268404835 -1.0203995382910844 0.69627101872768593 -1.0384378482723193 -0.84897772178318021;-0.34342123989592882 -1.1390087802016555 -0.92498422412666048 0.58285788783134418 -1.0006637615815002 -1.1635495495308918 1.0681883886932326 -1.0108465108693812 1.4605964124638833 -0.88755072160136128 0.69383625947480898 1.0048496494100241 -0.081732300911422195 1.0472021029533687 -0.33245829640184432 1.1116202206880474 0.86679242947303292 0.69582793978903801 -0.87640017500560674 0.35146666380738256 0.39181356980632437 1.3216276240614386 0.25823745472920817 0.52210427647370283 1.1103708656222284 -0.44661203085929824 0.26610036296620243 -0.1968054967910674 0.49036660806785648 1.1674509322254925;-0.78339581855565732 -0.16918400514514123 0.31002363155132068 -0.19375505620552175 0.18953102577952352 -1.5024377236245783 1.089788424413868 0.31925376807520123 -0.27867746320376779 0.7749915396498287 -1.2510437323358827 -1.0200476088119452 1.0741251038771846 -1.2672995741287787 -0.23862321371282233 0.66125770530705863 -1.5471906572070577 0.27248447498957667 -0.77324654443690299 -1.0258740177995347 0.96237090612631127 -1.0665557013586004 1.5659025663735808 -0.087709070633716274 0.7184763216204566 -0.67485879056075448 0.79763557068938207 -0.19291977200932497 0.81799940302818419 -1.1608655875315923;0.40118699091104554 1.4799406525579921 -0.85478796446722927 -0.76316888394387472 0.011218132782573413 0.94397095205489367 -1.0227147705654718 -0.93059842848286001 -0.040727675372154507 -0.14197260313736876 -1.1025552791514128 -0.97122529463310703 0.19046486008467664 0.36331240102961387 -0.85590683393425493 0.98588348752522759 -0.51621796199491743 -0.30736991092796084 0.75922662877151303 -0.58670305075836759 1.1557250359840527 0.42297021205535268 0.18265817976846266 -0.76397827513749661 0.70504320848406798 1.1666533933034031 0.087692185522689342 -0.49447743614957634 -0.84699286029646226 -0.89343489783993091;-0.66814414129766975 -0.4712651159991304 -0.84432213984405302 -1.1226680379944876 -0.87434038512280055 0.94049969587547833 0.30270759406226866 0.7700437340594285 -0.10004505580733009 -0.95714446016511312 0.62292752826800901 0.67711778439054471 -0.4363294928827588 -1.0858069766462219 -0.85274793272784533 -0.094551863250730839 -1.1864735821143002 -0.75118070131540104 -0.42858820181419444 -0.16804418926166584 0.99607686014778885 0.79039292281697204 -0.74785708408747265 0.20849757689341761 -0.050622599820200662 0.26953615732595199 -0.006301860499771373 0.55361858668739561 0.63505144760613108 -0.95469391539960702;-0.79444713112081256 1.2398911319457493 -1.144735660002056 -0.12584855824956756 0.41876330989810095 -0.65049630913051648 -0.28497639356151655 -0.30195754547060993 1.1655310815833964 -0.076835758060462028 0.89298468879357018 -0.80443114704943319 -0.77782983489823887 -0.53103363308108231 -0.14449932580161681 1.1529047910857468 -0.8954965081060926 0.94167080118930091 0.11951864108776696 -0.15794084786390153 -0.91637256805354927 -0.94502304706553952 -1.3124253265953543 -0.13468898040327121 0.46837123157110605 1.278257646657895 0.80612779005349799 0.67672374256697354 0.13151302816404381 -0.70772536990173129;-0.63526072145612633 -0.21167836974476428 0.82772780804360535 0.12372888349406064 -1.2617549349238883 -0.76225922709008753 -1.1518587485787115 0.5417462985513577 -0.9525519588741107 0.71155724829987765 1.1190994237125764 1.0179218091728757 -0.082196163974986039 -0.29306026469454105 -0.34829396345964642 1.0484793038825624 0.079292646099655043 0.89700392417520092 0.85898285223750992 -0.70988027257567232 0.87219710322836075 -0.98058919835915859 -0.83143029794451906 -0.82618992920908263 0.18811365613562434 0.21905171045715152 -1.1960639862077302 0.40794418248154285 0.87136420136545112 -0.85337561608980528;0.86827944784017053 -0.49528359034531344 0.87041375078550365 -0.20519172656232929 0.24810088283087697 -0.37955127657945781 0.80590051182851197 0.3546186540230718 1.3279553474910344 0.091385786259394031 -1.0819541122447551 0.77830347031071956 0.98899656610114861 -1.3460756830747029 0.62388035614108295 -0.63460285336577393 0.3527614190455971 1.1321219826246922 0.95658126742311456 -0.88182996837702077 -0.020978856584855172 -0.19428630950223047 -0.89543614819047701 0.0091584260682911547 -0.88095923488126404 1.1421153026440067 0.90563164600425716 0.9791092352139622 -0.76281963592314672 0.25701202552336561;0.70178836813709489 0.029217192852468536 -0.77136509735565206 0.53828250876991846 0.8193107530260022 1.0449978709279182 0.34193932926638887 -0.13053430429087418 -1.4946491824767354 -0.49549035597155933 -0.22876129798347267 -0.20490301398650809 1.1561351598698788 -0.85945971501276452 -0.17915898717096337 0.23550963238535924 -0.070660282677757813 -0.12696463794590351 0.58182379770962012 -0.82333838860771802 -1.1791656846150691 -1.1561639416082272 -1.4330170273855483 -0.56637709719678664 0.2599725279350687 -0.64526085404040212 -0.81761339436218405 -0.8405313927680087 -1.2181416877014386 0.087026743642750037];

% ===== SIMULATION ========

% Format Input Arguments
isCellX = iscell(X);
if ~isCellX
    X = {X};
end

% Dimensions
TS = size(X,2); % timesteps
if ~isempty(X)
    Q = size(X{1},2); % samples/series
else
    Q = 0;
end

% Allocate Outputs
Y = cell(1,TS);

% Time loop
for ts=1:TS
    
    % Input 1
    Xp1 = mapminmax_apply(X{1,ts},x1_step1);
    
    % Layer 1
    a1 = tansig_apply(repmat(b1,1,Q) + IW1_1*Xp1);
    
    % Layer 2
    a2 = softmax_apply(repmat(b2,1,Q) + LW2_1*a1);
    
    % Output 1
    Y{1,ts} = a2;
end

% Final Delay States
Xf = cell(1,0);
Af = cell(2,0);

% Format Output Arguments
if ~isCellX
    Y = cell2mat(Y);
end
end

% ===== MODULE FUNCTIONS ========

% Map Minimum and Maximum Input Processing Function
function y = mapminmax_apply(x,settings)
y = bsxfun(@minus,x,settings.xoffset);
y = bsxfun(@times,y,settings.gain);
y = bsxfun(@plus,y,settings.ymin);
end

% Competitive Soft Transfer Function
function a = softmax_apply(n,~)
if isa(n,'gpuArray')
    a = iSoftmaxApplyGPU(n);
else
    a = iSoftmaxApplyCPU(n);
end
end
function a = iSoftmaxApplyCPU(n)
nmax = max(n,[],1);
n = bsxfun(@minus,n,nmax);
numerator = exp(n);
denominator = sum(numerator,1);
denominator(denominator == 0) = 1;
a = bsxfun(@rdivide,numerator,denominator);
end
function a = iSoftmaxApplyGPU(n)
nmax = max(n,[],1);
numerator = arrayfun(@iSoftmaxApplyGPUHelper1,n,nmax);
denominator = sum(numerator,1);
a = arrayfun(@iSoftmaxApplyGPUHelper2,numerator,denominator);
end
function numerator = iSoftmaxApplyGPUHelper1(n,nmax)
numerator = exp(n - nmax);
end
function a = iSoftmaxApplyGPUHelper2(numerator,denominator)
if (denominator == 0)
    a = numerator;
else
    a = numerator ./ denominator;
end
end

% Sigmoid Symmetric Transfer Function
function a = tansig_apply(n,~)
a = 2 ./ (1 + exp(-2*n)) - 1;
end
